{"sizes":[13,20,21,12],"layers":[{"0":{},"1":{},"2":{},"3":{},"4":{},"5":{},"6":{},"7":{},"8":{},"9":{},"10":{},"11":{},"12":{}},{"0":{"bias":0.1511266976594925,"weights":{"0":-5.123867988586426,"1":-0.6905048489570618,"2":-3.9876933097839355,"3":-0.37456783652305603,"4":-0.9469316005706787,"5":3.3609459400177,"6":-0.6164591312408447,"7":2.29001522064209,"8":1.0205093622207642,"9":0.3712570071220398,"10":1.1728826761245728,"11":4.735894203186035,"12":-0.21980378031730652}},"1":{"bias":-1.3196702003479004,"weights":{"0":2.4645488262176514,"1":-1.2796207666397095,"2":0.6774347424507141,"3":4.844047546386719,"4":0.8271681666374207,"5":-0.32594597339630127,"6":1.1143416166305542,"7":-1.5390870571136475,"8":-4.461839199066162,"9":1.4646786451339722,"10":1.4089072942733765,"11":1.7235344648361206,"12":8.41511344909668}},"2":{"bias":-0.3146016299724579,"weights":{"0":0.13618095219135284,"1":-3.4247758388519287,"2":-3.420822858810425,"3":-1.4281022548675537,"4":-0.3576972782611847,"5":-0.6046104431152344,"6":1.9665396213531494,"7":-1.1088517904281616,"8":-2.707263469696045,"9":-2.7481181621551514,"10":1.5382494926452637,"11":-1.6254589557647705,"12":1.5286335945129395}},"3":{"bias":5.742220878601074,"weights":{"0":-2.3453729152679443,"1":0.7137942314147949,"2":0.9250771403312683,"3":0.9090368747711182,"4":3.0097179412841797,"5":-4.833975315093994,"6":3.432849645614624,"7":-2.742990493774414,"8":-0.7678591012954712,"9":2.6082327365875244,"10":-1.6420435905456543,"11":0.8759204745292664,"12":-22.32744598388672}},"4":{"bias":-0.5228607654571533,"weights":{"0":-0.1763410121202469,"1":0.5532997250556946,"2":5.232190132141113,"3":-1.3036054372787476,"4":0.9703152179718018,"5":1.5076711177825928,"6":2.4601523876190186,"7":1.438391089439392,"8":1.3426965475082397,"9":-0.604300856590271,"10":2.439474105834961,"11":0.5145334005355835,"12":1.775220274925232}},"5":{"bias":0.7129384279251099,"weights":{"0":2.5344815254211426,"1":-0.9811303019523621,"2":-1.5273728370666504,"3":-1.9601420164108276,"4":4.9650959968566895,"5":0.7510479688644409,"6":1.433608055114746,"7":0.794732391834259,"8":2.850350856781006,"9":1.6247398853302002,"10":-3.2233219146728516,"11":1.4585444927215576,"12":-4.438478946685791}},"6":{"bias":-0.054732006043195724,"weights":{"0":-1.2513960599899292,"1":-1.0719751119613647,"2":-0.8572561144828796,"3":-2.6020140647888184,"4":-2.576892852783203,"5":-1.0871659517288208,"6":-3.9226231575012207,"7":-0.5912384986877441,"8":1.798808217048645,"9":2.1396408081054688,"10":0.9126998782157898,"11":2.129326105117798,"12":-0.12243781983852386}},"7":{"bias":0.050339654088020325,"weights":{"0":-3.5232603549957275,"1":-4.315676212310791,"2":0.7539603114128113,"3":2.9912779331207275,"4":-0.8929601907730103,"5":-1.4587424993515015,"6":-0.22347448766231537,"7":0.8264452815055847,"8":4.1048784255981445,"9":-1.7869945764541626,"10":-3.701671600341797,"11":-1.3254263401031494,"12":-0.9390360116958618}},"8":{"bias":0.1523885875940323,"weights":{"0":-1.6261022090911865,"1":4.519420146942139,"2":1.9239771366119385,"3":-2.1738600730895996,"4":-1.9640676975250244,"5":-2.9532363414764404,"6":5.05634069442749,"7":-2.806036949157715,"8":0.5737512707710266,"9":-1.6063613891601562,"10":1.5824389457702637,"11":1.8345348834991455,"12":-1.1299241781234741}},"9":{"bias":0.18250878155231476,"weights":{"0":0.6468570232391357,"1":2.963517904281616,"2":-1.390186071395874,"3":-1.072648048400879,"4":-0.41586896777153015,"5":0.8742491006851196,"6":3.9852850437164307,"7":-2.0391407012939453,"8":-0.6756055951118469,"9":-0.5419468283653259,"10":0.396849662065506,"11":4.136120796203613,"12":-0.09472852945327759}},"10":{"bias":0.1565408557653427,"weights":{"0":-0.3984602093696594,"1":2.4320809841156006,"2":2.537477493286133,"3":1.4547595977783203,"4":2.7886343002319336,"5":-3.105780601501465,"6":1.3652194738388062,"7":1.6490342617034912,"8":-2.6536433696746826,"9":-0.7630927562713623,"10":0.29091519117355347,"11":4.13142204284668,"12":-1.106467843055725}},"11":{"bias":0.008939997293055058,"weights":{"0":0.2270759642124176,"1":-0.44684749841690063,"2":-1.860332727432251,"3":1.4797942638397217,"4":-1.8940550088882446,"5":-2.554044485092163,"6":4.206035614013672,"7":3.0969161987304688,"8":-0.5370526313781738,"9":-1.545017957687378,"10":-0.8836794495582581,"11":-0.7277989387512207,"12":-0.2880646884441376}},"12":{"bias":0.6439113616943359,"weights":{"0":1.5224636793136597,"1":-0.7623996138572693,"2":-2.040165424346924,"3":0.8563997149467468,"4":3.3060972690582275,"5":-1.5579246282577515,"6":0.6690280437469482,"7":-3.2876522541046143,"8":2.72847056388855,"9":-1.6244932413101196,"10":5.5920586585998535,"11":-3.472637176513672,"12":-3.0673301219940186}},"13":{"bias":-0.43404456973075867,"weights":{"0":1.3882254362106323,"1":-2.1093523502349854,"2":-3.4278452396392822,"3":-4.9311981201171875,"4":2.5467538833618164,"5":0.7958686351776123,"6":-1.1689305305480957,"7":1.591924786567688,"8":-0.6108438968658447,"9":4.706092357635498,"10":1.7106915712356567,"11":-0.02045975998044014,"12":3.2270078659057617}},"14":{"bias":0.42740553617477417,"weights":{"0":-1.4908157587051392,"1":-2.6476309299468994,"2":2.621900796890259,"3":-3.8789663314819336,"4":-0.806121289730072,"5":0.5087664723396301,"6":-0.8179649710655212,"7":-1.5792077779769897,"8":-0.375457763671875,"9":-1.5268583297729492,"10":-1.4888509511947632,"11":0.30255183577537537,"12":-1.6499876976013184}},"15":{"bias":0.32990562915802,"weights":{"0":2.9829776287078857,"1":-1.8044886589050293,"2":0.8926544785499573,"3":2.872328042984009,"4":-5.3173065185546875,"5":-1.6598496437072754,"6":0.1202753335237503,"7":-0.9342818856239319,"8":0.5578007698059082,"9":0.3635519742965698,"10":2.262833595275879,"11":1.1712298393249512,"12":-0.9960886836051941}},"16":{"bias":0.33349037170410156,"weights":{"0":0.8086372017860413,"1":3.4016988277435303,"2":-2.235800266265869,"3":0.5735874176025391,"4":-1.5996006727218628,"5":-0.8427143692970276,"6":-1.5799250602722168,"7":1.2086085081100464,"8":-0.9754082560539246,"9":-1.3601429462432861,"10":4.941289901733398,"11":-0.5238220691680908,"12":-1.487972378730774}},"17":{"bias":0.11484198272228241,"weights":{"0":3.0873477458953857,"1":-0.6500085592269897,"2":-1.6116164922714233,"3":1.1439554691314697,"4":-0.03919791057705879,"5":-2.9537079334259033,"6":1.9882347583770752,"7":1.9365394115447998,"8":-0.9565587639808655,"9":-4.166632652282715,"10":-1.218510627746582,"11":0.2634992301464081,"12":0.22613586485385895}},"18":{"bias":0.06212691590189934,"weights":{"0":-0.26870205998420715,"1":4.170019626617432,"2":-2.0995218753814697,"3":-1.2826101779937744,"4":1.8232022523880005,"5":-2.46750545501709,"6":1.080886960029602,"7":-4.12725305557251,"8":3.362877130508423,"9":-2.810438632965088,"10":-3.391130208969116,"11":2.3782854080200195,"12":0.32288607954978943}},"19":{"bias":-0.19933737814426422,"weights":{"0":-0.3242573142051697,"1":-0.13909471035003662,"2":0.10678301751613617,"3":-4.166797637939453,"4":2.1463401317596436,"5":1.9112238883972168,"6":2.694326639175415,"7":4.594583034515381,"8":1.8134686946868896,"9":-2.2318642139434814,"10":2.206073760986328,"11":-1.4650483131408691,"12":0.887888491153717}}},{"0":{"bias":-1.1168711185455322,"weights":{"0":-2.012218952178955,"1":0.5794602632522583,"2":0.022520367056131363,"3":0.353420227766037,"4":0.5349394679069519,"5":-0.2561150789260864,"6":-1.0766280889511108,"7":0.352458119392395,"8":0.3815028667449951,"9":-0.7264845967292786,"10":1.0702030658721924,"11":0.1006878986954689,"12":0.23569455742835999,"13":-0.963525116443634,"14":-0.5700423717498779,"15":-0.8683347702026367,"16":-0.02237817272543907,"17":-0.6415648460388184,"18":-0.9372431635856628,"19":0.47794172167778015}},"1":{"bias":-2.806335210800171,"weights":{"0":-0.4798375070095062,"1":1.8067220449447632,"2":0.007826323620975018,"3":-3.7608227729797363,"4":0.19544337689876556,"5":0.7819675207138062,"6":-0.031978532671928406,"7":-0.5076892971992493,"8":-1.17505943775177,"9":-1.3084279298782349,"10":1.1757760047912598,"11":0.1569076031446457,"12":-0.21939752995967865,"13":1.8120579719543457,"14":-1.0002914667129517,"15":-0.7104978561401367,"16":-0.7210680842399597,"17":0.06549942493438721,"18":-0.22494851052761078,"19":1.0851869583129883}},"2":{"bias":0.05698009952902794,"weights":{"0":-1.1026935577392578,"1":0.06955431401729584,"2":0.2346336394548416,"3":0.005846880376338959,"4":-0.241785928606987,"5":0.6469714045524597,"6":0.7664449214935303,"7":0.47249144315719604,"8":0.3107033669948578,"9":0.4655977189540863,"10":0.14619970321655273,"11":-0.8425039649009705,"12":0.48940926790237427,"13":-0.011221838183701038,"14":-0.25956493616104126,"15":0.5740227103233337,"16":-0.5481053590774536,"17":-0.7554453015327454,"18":-0.3012697994709015,"19":0.5410433411598206}},"3":{"bias":-0.24512113630771637,"weights":{"0":0.39486634731292725,"1":0.024750713258981705,"2":-0.0684756338596344,"3":1.140760898590088,"4":0.48136186599731445,"5":-0.503621518611908,"6":0.30394208431243896,"7":-0.22470474243164062,"8":-0.18073156476020813,"9":0.14120371639728546,"10":-0.8528180122375488,"11":-0.04083780571818352,"12":-0.029315585270524025,"13":0.06415310502052307,"14":-0.6715702414512634,"15":-0.7549628019332886,"16":-0.6610665917396545,"17":-0.1798250377178192,"18":0.33184391260147095,"19":0.1098284050822258}},"4":{"bias":0.3701724410057068,"weights":{"0":-0.1676020473241806,"1":-0.9623982906341553,"2":0.007554139010608196,"3":1.0586413145065308,"4":-0.4053126573562622,"5":0.678246259689331,"6":-0.3442653715610504,"7":0.5865611433982849,"8":0.06025253236293793,"9":0.3389529287815094,"10":0.017059098929166794,"11":0.4006224274635315,"12":0.5392662882804871,"13":-0.4623684287071228,"14":0.3173981010913849,"15":-0.26057231426239014,"16":0.09348192065954208,"17":0.29165661334991455,"18":0.478916198015213,"19":-0.623249351978302}},"5":{"bias":0.32877352833747864,"weights":{"0":0.035205382853746414,"1":-0.3593313694000244,"2":0.988915741443634,"3":-0.07712768763303757,"4":-0.475586473941803,"5":-0.13093514740467072,"6":0.5029188394546509,"7":-0.5356296896934509,"8":0.2674768269062042,"9":-0.07772646844387054,"10":-0.33117157220840454,"11":-0.20936191082000732,"12":0.07490105926990509,"13":-0.51639723777771,"14":-0.592147946357727,"15":-0.6488917469978333,"16":0.3110824525356293,"17":-0.6652480363845825,"18":-0.05390935763716698,"19":-0.12734036147594452}},"6":{"bias":0.1940707266330719,"weights":{"0":-0.9352945685386658,"1":-0.40581339597702026,"2":0.6346598863601685,"3":0.16278167068958282,"4":-0.039290815591812134,"5":-0.6501783728599548,"6":1.217956781387329,"7":0.5317895412445068,"8":-0.5157017111778259,"9":0.9020158052444458,"10":-0.4079330563545227,"11":0.2780592143535614,"12":0.2998926341533661,"13":-0.28286266326904297,"14":-0.38873711228370667,"15":0.37376001477241516,"16":-0.09709762781858444,"17":0.3433854579925537,"18":-0.6012330651283264,"19":1.2086212635040283}},"7":{"bias":-2.748487949371338,"weights":{"0":-0.6086453795433044,"1":1.1137278079986572,"2":0.1894749402999878,"3":0.04821554571390152,"4":-2.3285300731658936,"5":0.411872923374176,"6":0.007272053509950638,"7":-0.29777345061302185,"8":0.8008698225021362,"9":-1.9644454717636108,"10":-1.1923058032989502,"11":-0.2920476198196411,"12":-0.9278588891029358,"13":-0.640586256980896,"14":2.6094019412994385,"15":0.21217463910579681,"16":-2.127354145050049,"17":0.41538360714912415,"18":-0.5069558024406433,"19":2.580108880996704}},"8":{"bias":-5.009401321411133,"weights":{"0":-0.1308377981185913,"1":3.3869810104370117,"2":1.0874810218811035,"3":-0.5072974562644958,"4":0.8318467140197754,"5":-0.08118344098329544,"6":0.013839899562299252,"7":0.4912678301334381,"8":-1.72379732131958,"9":0.18471622467041016,"10":-0.6720930933952332,"11":1.2235709428787231,"12":0.36319220066070557,"13":-3.206727981567383,"14":-0.20786413550376892,"15":-2.059997797012329,"16":-4.23777961730957,"17":-0.24882519245147705,"18":-0.20782144367694855,"19":0.09110225737094879}},"9":{"bias":-0.12864899635314941,"weights":{"0":0.26713621616363525,"1":-0.1516142338514328,"2":-0.5135946273803711,"3":0.4457060396671295,"4":-0.2303650975227356,"5":-0.7727495431900024,"6":0.2576504945755005,"7":-0.02559380605816841,"8":-1.449791669845581,"9":0.03374939039349556,"10":0.3813645839691162,"11":0.4529379904270172,"12":0.34070661664009094,"13":0.2430940419435501,"14":0.26407328248023987,"15":0.06214671954512596,"16":-0.193595290184021,"17":-0.6397528052330017,"18":0.22865425050258636,"19":0.6999661922454834}},"10":{"bias":2.839261054992676,"weights":{"0":-0.35617586970329285,"1":1.9864976406097412,"2":-0.21486777067184448,"3":2.177835464477539,"4":-2.521059274673462,"5":-0.8385316729545593,"6":0.5688409805297852,"7":1.5045827627182007,"8":0.7287595868110657,"9":-0.9984045028686523,"10":3.3875229358673096,"11":-1.2809021472930908,"12":0.5227864384651184,"13":2.142103433609009,"14":2.7557129859924316,"15":0.21350857615470886,"16":0.782351016998291,"17":2.5337183475494385,"18":-0.4495132267475128,"19":-1.6466742753982544}},"11":{"bias":0.08621926605701447,"weights":{"0":-0.49586960673332214,"1":-0.449910044670105,"2":1.1699557304382324,"3":0.1496048867702484,"4":0.20126603543758392,"5":-1.0350621938705444,"6":-0.8609657287597656,"7":-0.19354382157325745,"8":1.665468454360962,"9":-0.03595222160220146,"10":-0.6313546895980835,"11":-0.7142909169197083,"12":0.5891333818435669,"13":0.2683488428592682,"14":-0.5597013235092163,"15":0.4803193211555481,"16":0.32704973220825195,"17":-0.9043562412261963,"18":-0.9774738550186157,"19":0.32921990752220154}},"12":{"bias":0.657906174659729,"weights":{"0":-1.2244049310684204,"1":-0.6451305150985718,"2":0.21275430917739868,"3":-0.8103721141815186,"4":-0.023498116061091423,"5":0.0681786984205246,"6":0.2833857238292694,"7":0.07743412256240845,"8":0.0786973312497139,"9":0.8635767102241516,"10":0.10980868339538574,"11":0.3653854429721832,"12":0.22004300355911255,"13":-0.6006155014038086,"14":-0.7399616837501526,"15":-0.4384166896343231,"16":-0.5077084302902222,"17":-0.32770222425460815,"18":0.3944469690322876,"19":0.2730908691883087}},"13":{"bias":-2.471433401107788,"weights":{"0":1.2987955808639526,"1":1.4416663646697998,"2":-0.34756043553352356,"3":0.3737983703613281,"4":-1.4834083318710327,"5":0.4623066782951355,"6":0.4796096384525299,"7":0.7074326872825623,"8":0.4421508312225342,"9":-0.7630933523178101,"10":-0.08341969549655914,"11":2.3167366981506348,"12":-0.640684962272644,"13":1.100935935974121,"14":-1.1690257787704468,"15":-0.9045522809028625,"16":0.4363892376422882,"17":-0.766251802444458,"18":-1.1341898441314697,"19":-0.11029305309057236}},"14":{"bias":-0.48351141810417175,"weights":{"0":0.07375264167785645,"1":-0.09345594048500061,"2":0.08707480132579803,"3":0.1215367540717125,"4":-0.556706428527832,"5":0.04815690591931343,"6":0.692969560623169,"7":0.2003030776977539,"8":-1.4209808111190796,"9":0.21335430443286896,"10":-0.04249461740255356,"11":0.4509686529636383,"12":0.5160213112831116,"13":0.2940903604030609,"14":0.1903025358915329,"15":-0.11970455944538116,"16":-0.44125038385391235,"17":1.0106427669525146,"18":1.4975050687789917,"19":0.1596660017967224}},"15":{"bias":-0.003865424543619156,"weights":{"0":0.36137816309928894,"1":1.01570463180542,"2":0.2531563937664032,"3":1.1716755628585815,"4":0.5966414213180542,"5":-0.14017537236213684,"6":1.503490924835205,"7":0.13630960881710052,"8":-0.09905996918678284,"9":0.2597961127758026,"10":-0.39888471364974976,"11":-0.23427467048168182,"12":-1.2780191898345947,"13":-0.9411932229995728,"14":-0.06609020382165909,"15":0.3032844066619873,"16":-1.0069788694381714,"17":-0.403658390045166,"18":0.3784821033477783,"19":0.27515000104904175}},"16":{"bias":-4.76075553894043,"weights":{"0":0.23471838235855103,"1":1.7179266214370728,"2":2.2511396408081055,"3":-0.1327655166387558,"4":3.008692741394043,"5":2.0998241901397705,"6":-0.734053909778595,"7":0.9890400171279907,"8":-2.8335366249084473,"9":-1.8240867853164673,"10":2.5166068077087402,"11":1.615843415260315,"12":-1.4406206607818604,"13":-0.8271303176879883,"14":-0.8659117221832275,"15":-3.5785582065582275,"16":-1.0941405296325684,"17":0.8020658493041992,"18":1.8974757194519043,"19":3.6540613174438477}},"17":{"bias":0.12069834023714066,"weights":{"0":1.211768627166748,"1":-0.8069435358047485,"2":0.8053520321846008,"3":-1.4011647701263428,"4":0.31305405497550964,"5":0.029668578878045082,"6":0.8659580945968628,"7":0.11438574641942978,"8":1.4336267709732056,"9":0.14147841930389404,"10":-0.7516221404075623,"11":-0.36069878935813904,"12":-0.8302230834960938,"13":-0.15385201573371887,"14":-0.051954448223114014,"15":0.21091023087501526,"16":-0.14611245691776276,"17":-1.8144930601119995,"18":-1.206302523612976,"19":0.4436596930027008}},"18":{"bias":-2.355419874191284,"weights":{"0":-0.7399300932884216,"1":2.986252546310425,"2":-0.12935639917850494,"3":3.7583184242248535,"4":-0.11496558785438538,"5":-2.0102028846740723,"6":1.109886646270752,"7":-0.4083060026168823,"8":-0.7003095746040344,"9":0.5470306277275085,"10":-0.8682057857513428,"11":-0.09020677953958511,"12":-0.7456103563308716,"13":1.0955678224563599,"14":-0.9259938597679138,"15":0.7911304235458374,"16":0.5235878229141235,"17":0.8403111100196838,"18":0.1735507845878601,"19":-0.7648345232009888}},"19":{"bias":-4.643092155456543,"weights":{"0":-1.011844277381897,"1":0.7116581201553345,"2":0.6496890187263489,"3":-0.1638447344303131,"4":3.8596200942993164,"5":2.952720880508423,"6":-2.544508218765259,"7":-2.156398296356201,"8":-0.9725594520568848,"9":-2.6357505321502686,"10":0.033738043159246445,"11":2.810434341430664,"12":-1.3268804550170898,"13":2.9084012508392334,"14":-0.30101123452186584,"15":-4.129612922668457,"16":-0.42561954259872437,"17":-1.0781044960021973,"18":-2.746786594390869,"19":2.129404067993164}},"20":{"bias":0.596041738986969,"weights":{"0":0.6409522294998169,"1":1.193576455116272,"2":0.19729802012443542,"3":1.2021960020065308,"4":-0.7644598484039307,"5":-0.18301476538181305,"6":-0.4140709936618805,"7":-1.5608214139938354,"8":-0.02918218821287155,"9":1.0432041883468628,"10":0.122280053794384,"11":-0.744721531867981,"12":-0.6265679001808167,"13":0.814128041267395,"14":0.12479229271411896,"15":0.5922438502311707,"16":0.2919911742210388,"17":-0.1396351307630539,"18":0.4189506471157074,"19":-0.5150678753852844}}},{"0":{"bias":-1.0310784578323364,"weights":{"0":-0.6511150002479553,"1":0.4541434347629547,"2":0.3912716209888458,"3":-0.0036082263104617596,"4":-0.3859418034553528,"5":0.19514146447181702,"6":0.622389018535614,"7":-0.3969607651233673,"8":-0.8825642466545105,"9":-0.020796606317162514,"10":-0.41386693716049194,"11":-0.28381747007369995,"12":-0.48929089307785034,"13":-0.005698004737496376,"14":-0.32272252440452576,"15":-0.21186135709285736,"16":-0.32080820202827454,"17":-0.7320337891578674,"18":-0.09051303565502167,"19":1.0096888542175293,"20":0.2683814764022827}},"1":{"bias":-0.7378736734390259,"weights":{"0":0.5635371804237366,"1":-0.23422959446907043,"2":0.05319393053650856,"3":0.4409637153148651,"4":-0.5285617709159851,"5":0.4564370810985565,"6":-0.10844054073095322,"7":-0.5377662181854248,"8":-0.5590840578079224,"9":-0.2334381490945816,"10":-0.9151211977005005,"11":-0.010212277062237263,"12":0.40000733733177185,"13":0.07633844763040543,"14":0.14403939247131348,"15":0.16630426049232483,"16":0.2392595112323761,"17":-0.6947291493415833,"18":-0.29902932047843933,"19":-0.5317355394363403,"20":0.015021611005067825}},"2":{"bias":-0.09076172858476639,"weights":{"0":0.7543548345565796,"1":-0.5412331223487854,"2":-0.06181153282523155,"3":-0.0362115316092968,"4":-0.5929233431816101,"5":-0.4104648232460022,"6":-0.18050749599933624,"7":-0.1144641637802124,"8":0.37290289998054504,"9":0.31331151723861694,"10":-0.2130001038312912,"11":-0.043989188969135284,"12":0.27817055583000183,"13":-0.8955771327018738,"14":-0.39150866866111755,"15":0.3153086304664612,"16":-0.18213984370231628,"17":0.16270601749420166,"18":-0.02770865708589554,"19":-0.10474221408367157,"20":-0.3195821940898895}},"3":{"bias":1.0611642599105835,"weights":{"0":0.5677273273468018,"1":0.1995874047279358,"2":-0.38933998346328735,"3":-0.1349393129348755,"4":-0.09061391651630402,"5":-0.021359585225582123,"6":0.16070018708705902,"7":-1.318488597869873,"8":1.975654125213623,"9":0.06637904047966003,"10":0.13693420588970184,"11":-0.006170166656374931,"12":-0.2776396572589874,"13":0.8194851279258728,"14":-0.16255193948745728,"15":0.3972471356391907,"16":-0.05926181748509407,"17":-0.724201500415802,"18":-0.27739009261131287,"19":-0.3036268353462219,"20":0.16549499332904816}},"4":{"bias":0.5900918245315552,"weights":{"0":0.31201809644699097,"1":-0.006543627008795738,"2":0.20444194972515106,"3":-0.11846089363098145,"4":0.06813999265432358,"5":0.6888779401779175,"6":-0.4775651693344116,"7":-0.6677103638648987,"8":0.24299435317516327,"9":-0.08426031470298767,"10":0.6826012134552002,"11":-0.19754241406917572,"12":0.25724127888679504,"13":-0.6487118601799011,"14":0.19694919884204865,"15":-0.2208837866783142,"16":1.1467469930648804,"17":0.1487627923488617,"18":0.20820055902004242,"19":0.9112130999565125,"20":0.04766144976019859}},"5":{"bias":1.8398407697677612,"weights":{"0":-0.561780571937561,"1":-0.44160428643226624,"2":0.09479948878288269,"3":-0.14185187220573425,"4":-0.35194122791290283,"5":0.174397274851799,"6":0.08328097313642502,"7":-0.21229735016822815,"8":0.8277483582496643,"9":-0.07068092375993729,"10":-2.0908186435699463,"11":-0.8247148394584656,"12":-0.02695719338953495,"13":-1.1526457071304321,"14":-0.8124192953109741,"15":-0.4992383122444153,"16":-1.8763154745101929,"17":0.14444804191589355,"18":0.15728753805160522,"19":3.0068631172180176,"20":0.12992583215236664}},"6":{"bias":0.42370110750198364,"weights":{"0":0.20951005816459656,"1":-1.1364957094192505,"2":-0.6682588458061218,"3":-0.1384468823671341,"4":-0.10048635303974152,"5":-0.23743559420108795,"6":0.49598559737205505,"7":-0.9427157044410706,"8":0.315646767616272,"9":-0.5777977108955383,"10":-0.5608795285224915,"11":0.14896085858345032,"12":0.34662455320358276,"13":1.3978163003921509,"14":0.19365479052066803,"15":-0.13606835901737213,"16":-0.090545155107975,"17":-0.10138432681560516,"18":-0.5989855527877808,"19":1.0139249563217163,"20":1.174124002456665}},"7":{"bias":0.6199696063995361,"weights":{"0":-0.9241993427276611,"1":0.12563641369342804,"2":-0.4744633138179779,"3":-0.7130551338195801,"4":-0.057646892964839935,"5":0.21981775760650635,"6":0.03360726311802864,"7":-1.0506192445755005,"8":-1.3060083389282227,"9":0.5032657384872437,"10":-0.48974987864494324,"11":0.42820215225219727,"12":-0.018306052312254906,"13":0.6759399175643921,"14":-0.3262980878353119,"15":0.5148782730102539,"16":1.7575455904006958,"17":-0.4395911395549774,"18":0.021080778911709785,"19":0.5710666179656982,"20":-0.8214074969291687}},"8":{"bias":0.9678679704666138,"weights":{"0":-1.398935317993164,"1":-0.2720208168029785,"2":0.5550337433815002,"3":0.796657145023346,"4":-0.4150584638118744,"5":-0.03201260790228844,"6":-0.10728845745325089,"7":0.34071776270866394,"8":-0.6352740526199341,"9":0.08105956763029099,"10":-1.3684676885604858,"11":-0.2666604518890381,"12":0.1266651749610901,"13":-0.458994597196579,"14":-0.39333394169807434,"15":-0.5762854218482971,"16":0.5999041199684143,"17":-0.18595358729362488,"18":-0.21098928153514862,"19":-0.17672520875930786,"20":-1.1448452472686768}},"9":{"bias":1.6099739074707031,"weights":{"0":0.2241622805595398,"1":-0.6608633399009705,"2":0.5178682208061218,"3":-0.3354600965976715,"4":-0.42354828119277954,"5":-0.036604415625333786,"6":-0.276424378156662,"7":-1.6996175050735474,"8":0.3721447288990021,"9":-0.08000747114419937,"10":-0.8570535182952881,"11":-0.00783450435847044,"12":-0.05516030266880989,"13":3.5351381301879883,"14":0.18551814556121826,"15":0.38363662362098694,"16":-5.163568496704102,"17":-0.39420783519744873,"18":-0.6567454934120178,"19":5.138091564178467,"20":1.0703223943710327}},"10":{"bias":-0.733633279800415,"weights":{"0":0.2514103651046753,"1":-0.5036419630050659,"2":0.15019072592258453,"3":0.020604899153113365,"4":-0.6282062530517578,"5":-0.00696082366630435,"6":-0.018439294770359993,"7":-1.3066855669021606,"8":-0.3541574478149414,"9":0.3443129360675812,"10":-0.3292290270328522,"11":0.6553071141242981,"12":-0.6250027418136597,"13":0.12413112074136734,"14":0.7397494316101074,"15":-0.2914658784866333,"16":-0.4209112823009491,"17":-0.08912917226552963,"18":-0.31152987480163574,"19":0.8499863743782043,"20":-0.13050036132335663}},"11":{"bias":-3.8357200622558594,"weights":{"0":0.4680458903312683,"1":0.028583873063325882,"2":0.19224095344543457,"3":-0.2414001077413559,"4":0.027709439396858215,"5":-0.30255717039108276,"6":-0.1870894581079483,"7":-3.23149037361145,"8":0.029323896393179893,"9":-0.39989957213401794,"10":-0.5403880476951599,"11":0.12930713593959808,"12":-0.1894826591014862,"13":-0.4580642580986023,"14":0.11831454932689667,"15":0.7421572804450989,"16":0.7206385135650635,"17":-0.2808758318424225,"18":-0.33811455965042114,"19":-0.9362342953681946,"20":0.7972570061683655}}}],"outputLookup":false,"inputLookup":false,"activation":"tanh","trainOpts":{"iterations":20000,"errorThresh":0.005,"log":true,"logPeriod":10,"learningRate":0.1,"momentum":0.1,"callbackPeriod":10}}