{"type":"LSTMTimeStep","options":{"inputSize":20,"hiddenSizes":[20,20,20],"outputSize":20,"learningRate":0.001,"decayRate":0.999,"smoothEps":1e-8,"regc":0.000001,"clipval":5,"json":null,"dataFormatter":null},"input":{"rows":20,"columns":1,"weights":[-1.0224090671581298,-1.05951479290729,-1.0326852883973272,1.023494160894703,0.02486980509543929,0.9806210351547622,-1.0077901928609834,-1.0478428036022127,-0.05853296414461605,-1.0161551092121484,0.3189663123818918,-0.03206225422922973,0.02284099546962259,0.035716511178573315,-0.046605611922677925,-0.044478926416122395,0.04115271676906981,-0.0499624887019926,0.034475951887652144,0.05342123668901888]},"hiddenLayers":[{"inputMatrix":{"rows":20,"columns":20,"weights":{"0":0.22240740060806274,"1":-0.0996575579047203,"2":0.628047525882721,"3":0.17171776294708252,"4":0.067042276263237,"5":-0.10866301506757736,"6":0.07880314439535141,"7":-0.815705418586731,"8":-1.7414438724517822,"9":-0.06597644090652466,"10":0.8763058185577393,"11":-0.22579684853553772,"12":0.6994664072990417,"13":-0.28049731254577637,"14":0.2967055141925812,"15":0.39830726385116577,"16":-0.3296244442462921,"17":0.2902431786060333,"18":0.8055378794670105,"19":-0.2629845142364502,"20":-0.05325178802013397,"21":-0.2679850161075592,"22":0.42175132036209106,"23":0.11060797423124313,"24":-0.024026665836572647,"25":0.14849796891212463,"26":0.1769600808620453,"27":-0.8182438611984253,"28":-1.5347368717193604,"29":0.7273043990135193,"30":-0.13778185844421387,"31":0.0792158991098404,"32":0.5836203098297119,"33":0.13217589259147644,"34":-0.2767205536365509,"35":-0.219614639878273,"36":0.15558838844299316,"37":-0.25691479444503784,"38":0.09837695211172104,"39":0.37580445408821106,"40":0.19459807872772217,"41":-0.43504205346107483,"42":-0.04268482327461243,"43":0.04651617631316185,"44":0.8838006854057312,"45":0.5862946510314941,"46":0.14483875036239624,"47":-0.30128929018974304,"48":-0.4788189232349396,"49":-0.019340170547366142,"50":0.01638268679380417,"51":0.5570409297943115,"52":0.3426746129989624,"53":0.09939634054899216,"54":-0.24310819804668427,"55":-0.15740148723125458,"56":0.26728421449661255,"57":-0.24871565401554108,"58":-0.03979818522930145,"59":0.16974902153015137,"60":0.18108916282653809,"61":0.4142364263534546,"62":0.9787634611129761,"63":-0.33435332775115967,"64":0.44939562678337097,"65":0.10517606139183044,"66":0.17756718397140503,"67":-0.9814229011535645,"68":-1.6202973127365112,"69":0.1941712498664856,"70":0.25107917189598083,"71":-0.5268260836601257,"72":0.739631175994873,"73":-0.19552651047706604,"74":0.2337999790906906,"75":0.19646291434764862,"76":-0.22325949370861053,"77":0.15564484894275665,"78":0.4085584878921509,"79":-0.2493021935224533,"80":-0.08136995136737823,"81":0.3541664183139801,"82":0.7313792705535889,"83":-0.15418852865695953,"84":0.18876591324806213,"85":0.02812340296804905,"86":0.2762630879878998,"87":-0.7292894721031189,"88":-1.202032446861267,"89":0.13711686432361603,"90":0.3301573395729065,"91":-0.30996355414390564,"92":0.45750370621681213,"93":-0.22594262659549713,"94":0.22844535112380981,"95":0.31281986832618713,"96":-0.19447830319404602,"97":0.23404240608215332,"98":0.2759212255477905,"99":-0.2521359622478485,"100":-0.11286703497171402,"101":-0.3774852454662323,"102":-0.4132117033004761,"103":0.35858970880508423,"104":0.5973331928253174,"105":0.12227720022201538,"106":0.3019862473011017,"107":-0.7573792934417725,"108":-1.1990865468978882,"109":0.3138638734817505,"110":0.9357393383979797,"111":-0.3444070816040039,"112":0.29346272349357605,"113":-0.047819171100854874,"114":0.022667735815048218,"115":0.02764831855893135,"116":-0.133030503988266,"117":0.09000364691019058,"118":0.5695745944976807,"119":0.06354217976331711,"120":-0.025988508015871048,"121":-0.08023161441087723,"122":0.3522462546825409,"123":0.5501663088798523,"124":0.3907076418399811,"125":0.18234427273273468,"126":0.3772568106651306,"127":-0.9702280759811401,"128":-1.036786437034607,"129":0.7091324925422668,"130":0.9076388478279114,"131":-0.31268998980522156,"132":0.771513044834137,"133":0.06651461869478226,"134":-0.05228499695658684,"135":-0.0396849624812603,"136":0.062041234225034714,"137":-0.10075817257165909,"138":0.09579400718212128,"139":0.04532690346240997,"140":0.5430964231491089,"141":-0.11906009167432785,"142":0.19677355885505676,"143":0.03811325877904892,"144":0.34485265612602234,"145":0.18274901807308197,"146":0.6199488639831543,"147":-0.13541126251220703,"148":-0.5356215238571167,"149":0.7241430878639221,"150":-0.04900782182812691,"151":0.6199153661727905,"152":0.49247080087661743,"153":0.1680988371372223,"154":-0.2244061678647995,"155":-0.258870005607605,"156":0.1886112093925476,"157":-0.20370444655418396,"158":0.015216724947094917,"159":0.23002099990844727,"160":0.0008458757656626403,"161":-0.007813757285475731,"162":0.11290431022644043,"163":0.3724300265312195,"164":0.5177871584892273,"165":0.27826669812202454,"166":0.22893346846103668,"167":-0.7500478029251099,"168":-1.134552240371704,"169":0.7755987644195557,"170":0.4117223620414734,"171":-0.07931378483772278,"172":0.9639698266983032,"173":0.4658462107181549,"174":-0.47343024611473083,"175":-0.43919628858566284,"176":0.3927079737186432,"177":-0.4494965672492981,"178":-0.11289244890213013,"179":0.46569162607192993,"180":0.10982037335634232,"181":-0.4969039857387543,"182":0.5442817807197571,"183":-0.0026802984066307545,"184":0.04284041002392769,"185":0.03533094748854637,"186":-0.020374596118927002,"187":-1.0012842416763306,"188":-1.5621771812438965,"189":-0.21974539756774902,"190":0.5086387395858765,"191":-0.37333452701568604,"192":0.7703965306282043,"193":-0.23288272321224213,"194":0.3084808588027954,"195":0.3617174029350281,"196":-0.30267834663391113,"197":0.2630484998226166,"198":0.6641495823860168,"199":-0.2895578145980835,"200":-0.17844733595848083,"201":-0.5949946045875549,"202":0.3918171226978302,"203":0.41712385416030884,"204":-0.24804063141345978,"205":0.1963917464017868,"206":0.11890513449907303,"207":-0.787931501865387,"208":-1.636728048324585,"209":0.29656919836997986,"210":-0.026681246235966682,"211":0.6752269864082336,"212":1.1505447626113892,"213":-0.10101113468408585,"214":-0.17384283244609833,"215":-0.18593516945838928,"216":0.04860677197575569,"217":-0.12854930758476257,"218":0.28773656487464905,"219":0.28653156757354736,"220":0.5231748223304749,"221":-0.42952975630760193,"222":0.027724258601665497,"223":0.1734277606010437,"224":0.6842191219329834,"225":0.8359339237213135,"226":0.2427724301815033,"227":-0.06541231274604797,"228":-0.026286711916327477,"229":0.09526422619819641,"230":0.05816235393285751,"231":0.44746464490890503,"232":0.36399585008621216,"233":0.22727292776107788,"234":-0.2531251013278961,"235":-0.2514038681983948,"236":0.31238052248954773,"237":-0.22376900911331177,"238":-0.1405019313097,"239":0.2356233298778534,"240":0.4769226908683777,"241":-0.45679643750190735,"242":-0.15106849372386932,"243":-0.19910432398319244,"244":1.1157046556472778,"245":0.7918115854263306,"246":0.6442390084266663,"247":0.4087367653846741,"248":0.15744973719120026,"249":-0.1778997927904129,"250":1.2762439250946045,"251":-0.38168737292289734,"252":-0.23624470829963684,"253":0.2577994167804718,"254":-0.23182912170886993,"255":-0.24473023414611816,"256":0.183369442820549,"257":-0.24686254560947418,"258":0.02018674835562706,"259":0.24877086281776428,"260":0.21280287206172943,"261":-0.7520788311958313,"262":-0.05314161628484726,"263":0.5998100638389587,"264":0.0017092714551836252,"265":0.06669221818447113,"266":0.0845920592546463,"267":-0.5368272662162781,"268":-1.4928956031799316,"269":0.20544424653053284,"270":0.13690131902694702,"271":0.05236772820353508,"272":0.9730191230773926,"273":-0.06470553576946259,"274":-0.0837186723947525,"275":0.0232311449944973,"276":-0.08504075556993484,"277":-0.011692700907588005,"278":0.5865390300750732,"279":0.16407495737075806,"280":-0.04646175727248192,"281":-0.30987659096717834,"282":0.13531935214996338,"283":-0.2147524654865265,"284":0.0657646507024765,"285":-0.23737400770187378,"286":0.32373955845832825,"287":-0.5211871862411499,"288":-0.9487645626068115,"289":1.0843701362609863,"290":1.2730180025100708,"291":0.28046926856040955,"292":0.17861758172512054,"293":0.10125196725130081,"294":-0.13805082440376282,"295":-0.11636026948690414,"296":0.08064661175012589,"297":-0.1653524935245514,"298":0.33306199312210083,"299":0.1635967642068863,"300":-0.016341714188456535,"301":0.803310215473175,"302":0.6193392872810364,"303":-0.2923991084098816,"304":0.6408795118331909,"305":0.12761574983596802,"306":0.2123395800590515,"307":-1.2240675687789917,"308":-1.770479679107666,"309":0.16662387549877167,"310":0.3154417872428894,"311":-0.44408267736434937,"312":0.6096606850624084,"313":-0.17020314931869507,"314":0.22585909068584442,"315":0.26952487230300903,"316":-0.2597626745700836,"317":0.23135846853256226,"318":0.3229905366897583,"319":-0.1777130514383316,"320":-0.45257529616355896,"321":0.2552212178707123,"322":-0.021056601777672768,"323":0.4418678283691406,"324":-0.18269604444503784,"325":0.1328733116388321,"326":0.0883408635854721,"327":-1.0280983448028564,"328":-1.0335317850112915,"329":-0.08490009605884552,"330":0.7752980589866638,"331":0.11279863864183426,"332":0.31418225169181824,"333":-0.22422178089618683,"334":0.3224009573459625,"335":0.35714903473854065,"336":-0.35777518153190613,"337":0.26338163018226624,"338":0.31891605257987976,"339":-0.27712830901145935,"340":0.314273476600647,"341":0.11414957046508789,"342":-0.004350894130766392,"343":0.223113551735878,"344":0.41491422057151794,"345":-0.3476825952529907,"346":0.286243200302124,"347":-0.4279756546020508,"348":-0.9463449716567993,"349":0.4394405484199524,"350":0.08439154922962189,"351":-0.10336409509181976,"352":0.8431176543235779,"353":0.45233508944511414,"354":-0.3923259973526001,"355":-0.41996923089027405,"356":0.359077513217926,"357":-0.42091086506843567,"358":-0.4203670918941498,"359":0.5026979446411133,"360":0.01705382764339447,"361":0.126465305685997,"362":-0.2139028012752533,"363":0.16962330043315887,"364":-0.0306561216711998,"365":0.07683970779180527,"366":-0.15484122931957245,"367":-1.2353204488754272,"368":-1.3649144172668457,"369":-0.5373064279556274,"370":0.34634438157081604,"371":-0.16643382608890533,"372":0.5172926783561707,"373":-0.21511498093605042,"374":0.20219427347183228,"375":0.3037584125995636,"376":-0.255005419254303,"377":0.16497856378555298,"378":0.47871705889701843,"379":-0.24708205461502075,"380":0.089771568775177,"381":-0.35953351855278015,"382":-0.20785070955753326,"383":0.5423296689987183,"384":0.23041176795959473,"385":0.2192247211933136,"386":-0.033981673419475555,"387":-0.8918529748916626,"388":-1.526818871498108,"389":0.23349763453006744,"390":-0.4617655575275421,"391":0.30720168352127075,"392":0.8867879509925842,"393":-0.18166513741016388,"394":0.08696018159389496,"395":0.15846605598926544,"396":-0.15152589976787567,"397":0.022988632321357727,"398":0.5567383766174316,"399":-0.041754212230443954}},"inputHidden":{"rows":20,"columns":20,"weights":{"0":-0.040150124579668045,"1":-0.006327538751065731,"2":-0.042938824743032455,"3":0.00784818734973669,"4":-0.004845829680562019,"5":0.03174462541937828,"6":-0.040347836911678314,"7":-0.02844373881816864,"8":-0.03821304067969322,"9":0.034612979739904404,"10":0.024397918954491615,"11":0.005482977721840143,"12":0.008507998660206795,"13":0.014239571988582611,"14":-0.040192268788814545,"15":0.04592862352728844,"16":0.019048234447836876,"17":-0.0003620644274633378,"18":-0.038228005170822144,"19":0.05237472802400589,"20":0.054418161511421204,"21":0.057339951395988464,"22":-0.049106888473033905,"23":0.011001364327967167,"24":-0.04375546798110008,"25":0.003020878881216049,"26":0.011910275556147099,"27":-0.03056890144944191,"28":-0.013314006850123405,"29":-0.0003219247446395457,"30":-0.0077695767395198345,"31":0.034265074878931046,"32":-0.037980686873197556,"33":-0.024007856845855713,"34":-0.032676126807928085,"35":-0.014994334429502487,"36":0.0062940362840890884,"37":-0.00873336661607027,"38":0.036000244319438934,"39":-0.029735229909420013,"40":0.039659470319747925,"41":0.022082922980189323,"42":0.01749509386718273,"43":0.0017032228643074632,"44":-0.00972842238843441,"45":0.006588112097233534,"46":0.054019927978515625,"47":0.03543795645236969,"48":0.034778155386447906,"49":0.04757644981145859,"50":-0.017431648448109627,"51":-0.010902193374931812,"52":0.04673266038298607,"53":-0.010660086758434772,"54":-0.015449367463588715,"55":0.013530337251722813,"56":0.013249588198959827,"57":-0.03483344241976738,"58":0.0019709663465619087,"59":-0.028043555095791817,"60":0.05025016888976097,"61":0.05345528945326805,"62":0.01455322653055191,"63":0.018142739310860634,"64":-0.011268761940300465,"65":0.01653662510216236,"66":0.012886732816696167,"67":0.027554722502827644,"68":0.05342867225408554,"69":-0.009982302784919739,"70":-0.02610739879310131,"71":-0.035691048949956894,"72":0.029632192105054855,"73":0.04207802563905716,"74":0.017588572576642036,"75":-0.019588489085435867,"76":0.03231675550341606,"77":-0.05694492161273956,"78":0.056748516857624054,"79":0.0008769127889536321,"80":-0.04981020838022232,"81":0.046164628118276596,"82":-0.009168912656605244,"83":0.05703611671924591,"84":0.04451160505414009,"85":-0.01981101557612419,"86":0.010222413577139378,"87":-0.011507180519402027,"88":0.04544554650783539,"89":-0.028166158124804497,"90":-0.010788368061184883,"91":-0.018792567774653435,"92":-0.0544898621737957,"93":-0.022865021601319313,"94":-0.054871391505002975,"95":-0.05158305540680885,"96":0.018706470727920532,"97":0.03196187689900398,"98":-0.0038136132061481476,"99":-0.037080150097608566,"100":0.006576647982001305,"101":0.030027590692043304,"102":-0.052849605679512024,"103":0.005800908897072077,"104":0.03629501909017563,"105":0.03429574519395828,"106":-0.020583683624863625,"107":-0.02790626883506775,"108":0.029225073754787445,"109":-0.005997854750603437,"110":0.035537995398044586,"111":0.03052716702222824,"112":0.010670684278011322,"113":-0.01514248177409172,"114":0.011794108897447586,"115":-0.011149649508297443,"116":-0.009172599762678146,"117":0.029349535703659058,"118":0.05391164869070053,"119":0.014919180423021317,"120":-0.030088622123003006,"121":-0.003541891695931554,"122":0.0255698561668396,"123":-0.01844046451151371,"124":0.03411776199936867,"125":-0.041307464241981506,"126":-0.022637682035565376,"127":0.034571029245853424,"128":-0.0471230186522007,"129":0.0525890551507473,"130":0.02594473399221897,"131":0.03899287059903145,"132":0.043579183518886566,"133":0.01281665451824665,"134":-0.05520358681678772,"135":-0.026556631550192833,"136":-0.024878595024347305,"137":-0.02393367700278759,"138":-0.030202709138393402,"139":0.05192967876791954,"140":0.016082366928458214,"141":0.05717482045292854,"142":0.02941260114312172,"143":-0.016192438080906868,"144":0.027194788679480553,"145":0.01740431971848011,"146":-0.032674409449100494,"147":0.007897257804870605,"148":0.0003502715262584388,"149":-0.02109982818365097,"150":-0.011706977151334286,"151":0.022083504125475883,"152":-0.006043963134288788,"153":0.001966608688235283,"154":-0.00018081664165947586,"155":0.012840312905609608,"156":-0.04408353194594383,"157":-0.014881547540426254,"158":0.02340666949748993,"159":-0.0034684697166085243,"160":-0.00587458536028862,"161":-0.007314523681998253,"162":-0.03656912222504616,"163":-0.04324130713939667,"164":0.03705741465091705,"165":0.01173020526766777,"166":-0.027329090982675552,"167":-0.004265571013092995,"168":0.005082893650978804,"169":-0.054932188242673874,"170":0.013562730513513088,"171":-0.00002055943332379684,"172":0.03182302787899971,"173":-0.008125167340040207,"174":-0.04949527606368065,"175":0.004937418270856142,"176":-0.011497721076011658,"177":-0.04334971308708191,"178":0.029215149581432343,"179":-0.05361581966280937,"180":0.011512028984725475,"181":-0.023896463215351105,"182":-0.04202603921294212,"183":0.015915172174572945,"184":-0.011284374631941319,"185":-0.018284134566783905,"186":-0.05057987943291664,"187":0.04168763756752014,"188":-0.005414921324700117,"189":0.03507392480969429,"190":0.0340699702501297,"191":-0.023865556344389915,"192":-0.03193815052509308,"193":0.002971975365653634,"194":-0.05660894513130188,"195":-0.0377289243042469,"196":0.019324973225593567,"197":-0.030943455174565315,"198":0.033031996339559555,"199":0.05537332594394684,"200":0.023757552728056908,"201":-0.034775666892528534,"202":-0.009698537178337574,"203":-0.021046888083219528,"204":-0.050160061568021774,"205":0.05532022938132286,"206":0.05082780122756958,"207":-0.0007121110684238374,"208":-0.05727672576904297,"209":-0.02912982553243637,"210":0.0005810767761431634,"211":0.0018543123733252287,"212":0.03587525337934494,"213":0.04129483923316002,"214":0.034775931388139725,"215":0.03971871733665466,"216":-0.011319768615067005,"217":-0.03848683461546898,"218":0.004796364810317755,"219":0.044332440942525864,"220":-0.05282178521156311,"221":-0.05503182113170624,"222":-0.029447250068187714,"223":0.017759375274181366,"224":-0.03595644235610962,"225":-0.05119219422340393,"226":-0.05321416258811951,"227":0.036890026181936264,"228":-0.01580391824245453,"229":-0.02042432315647602,"230":-0.026599567383527756,"231":0.03318186476826668,"232":0.015303011983633041,"233":-0.0209405068308115,"234":0.015364464372396469,"235":0.05606793612241745,"236":-0.032373059540987015,"237":0.05706334114074707,"238":-0.026941319927573204,"239":-0.035104114562273026,"240":0.05302361026406288,"241":-0.039108142256736755,"242":-0.02326994575560093,"243":-0.040550388395786285,"244":0.04306298866868019,"245":-0.048352036625146866,"246":-0.026647379621863365,"247":0.009733699262142181,"248":0.03347814828157425,"249":0.01635304093360901,"250":0.04577629268169403,"251":-0.0436837375164032,"252":0.007855924777686596,"253":0.028432177379727364,"254":0.004487448837608099,"255":-0.04286900907754898,"256":0.0004066328692715615,"257":-0.05468057841062546,"258":0.036397241055965424,"259":-0.04585263505578041,"260":0.05034927278757095,"261":0.019165582954883575,"262":-0.026610668748617172,"263":-0.046663761138916016,"264":-0.01870233565568924,"265":-0.039610687643289566,"266":0.020251987501978874,"267":-0.05193653702735901,"268":0.05149826034903526,"269":0.007189781870692968,"270":0.03465236723423004,"271":0.029511258006095886,"272":-0.02593115344643593,"273":-0.020570406690239906,"274":-0.007546490058302879,"275":0.045293182134628296,"276":0.005686329212039709,"277":-0.033159300684928894,"278":0.01049942709505558,"279":0.027935180813074112,"280":0.03385134041309357,"281":0.013543806038796902,"282":-0.0006709583103656769,"283":-0.028774823993444443,"284":0.0052189393900334835,"285":-0.04904210567474365,"286":0.014477334916591644,"287":0.035008687525987625,"288":-0.03704141452908516,"289":-0.01882806047797203,"290":-0.03921697288751602,"291":-0.01140737347304821,"292":0.00768326036632061,"293":-0.041553396731615067,"294":0.05542030185461044,"295":0.039565522223711014,"296":0.011462475173175335,"297":0.003252409864217043,"298":0.053211141377687454,"299":0.024196479469537735,"300":-0.052508190274238586,"301":-0.030664563179016113,"302":0.05586975812911987,"303":0.009625652804970741,"304":-0.05038651078939438,"305":0.056157246232032776,"306":0.009302631951868534,"307":-0.03749934583902359,"308":0.055647045373916626,"309":0.0529317669570446,"310":0.03514038771390915,"311":0.046747468411922455,"312":0.045051220804452896,"313":-0.0322379469871521,"314":0.029896855354309082,"315":-0.043409839272499084,"316":0.02179173193871975,"317":-0.04125048592686653,"318":0.042243342846632004,"319":0.02716878056526184,"320":-0.03020167164504528,"321":0.01928013376891613,"322":-0.020907152444124222,"323":0.03405318409204483,"324":0.007004519458860159,"325":0.05607360601425171,"326":0.05449841171503067,"327":0.053833939135074615,"328":-0.03263324871659279,"329":-0.009552203118801117,"330":-0.03170573711395264,"331":0.030340615659952164,"332":-0.004095098003745079,"333":0.047302406281232834,"334":-0.02981731668114662,"335":0.01925565116107464,"336":0.03931020200252533,"337":0.030612289905548096,"338":-0.0036314574535936117,"339":-0.049621354788541794,"340":0.021791040897369385,"341":0.017990488559007645,"342":-0.03087688982486725,"343":-0.0033029320184141397,"344":0.048422396183013916,"345":-0.054986126720905304,"346":-0.012369440868496895,"347":0.025346631184220314,"348":0.0033701439388096333,"349":0.0023586272727698088,"350":0.026617931202054024,"351":0.01402270793914795,"352":0.015837902203202248,"353":0.023949112743139267,"354":-0.04348250478506088,"355":-0.04621466249227524,"356":0.03860630840063095,"357":-0.014498247765004635,"358":-0.04620479419827461,"359":-0.05505679175257683,"360":-0.05710654333233833,"361":-0.0029784718062728643,"362":-0.005118818953633308,"363":-0.011075833812355995,"364":-0.0005248651141300797,"365":0.04344703257083893,"366":0.028462667018175125,"367":-0.05627526342868805,"368":0.009596845135092735,"369":0.013325576670467854,"370":0.019961077719926834,"371":-0.0365685410797596,"372":-0.04609139636158943,"373":0.05180669203400612,"374":-0.007473212666809559,"375":0.05390958860516548,"376":-0.044072769582271576,"377":0.031013967469334602,"378":0.0568101666867733,"379":-0.005924161523580551,"380":-0.04869138449430466,"381":0.008175335824489594,"382":0.002513428218662739,"383":-0.056540802121162415,"384":-0.010332035832107067,"385":0.05494235083460808,"386":0.013093823567032814,"387":-0.0042692977003753185,"388":-0.056232403963804245,"389":-0.04115057364106178,"390":-0.04843149334192276,"391":-0.009534282609820366,"392":-0.01850214973092079,"393":-0.04178505018353462,"394":0.018024038523435593,"395":-0.04712124168872833,"396":-0.027973877266049385,"397":0.0196223147213459,"398":0.000464571756310761,"399":-0.05633952468633652}},"inputBias":{"rows":20,"columns":1,"weights":{"0":0.5234044790267944,"1":0.32969754934310913,"2":0.8695334196090698,"3":-0.14444638788700104,"4":0.17088797688484192,"5":0.09365182369947433,"6":0.5459254384040833,"7":0.647720992565155,"8":0.3536556363105774,"9":0.14977368712425232,"10":0.9029757976531982,"11":0.7924830317497253,"12":0.3940024673938751,"13":0.28750714659690857,"14":0.9075018167495728,"15":-0.3111697733402252,"16":0.6504707932472229,"17":0.3982236683368683,"18":0.18483231961727142,"19":-0.02877817675471306}},"forgetMatrix":{"rows":20,"columns":20,"weights":{"0":-0.03588954359292984,"1":-0.03145831823348999,"2":-0.017628343775868416,"3":-0.039384592324495316,"4":-0.04543573036789894,"5":0.009102038107812405,"6":0.009253621101379395,"7":0.04137755185365677,"8":-0.021202892065048218,"9":-0.013632586225867271,"10":0.014844607561826706,"11":0.018115708604454994,"12":-0.011900190263986588,"13":0.047280825674533844,"14":0.05580209568142891,"15":-0.042955029755830765,"16":0.027892600744962692,"17":-0.05397199094295502,"18":-0.01573249138891697,"19":-0.014505021274089813,"20":0.054590724408626556,"21":-0.005632758140563965,"22":-0.0016864744247868657,"23":-0.04598616436123848,"24":-0.040120095014572144,"25":0.04176103323698044,"26":0.0029421765357255936,"27":-0.049850236624479294,"28":0.022520536556839943,"29":0.042415980249643326,"30":-0.01972537860274315,"31":-0.023522088304162025,"32":-0.04774825647473335,"33":0.039019498974084854,"34":-0.025077983736991882,"35":-0.01907074823975563,"36":-0.030017327517271042,"37":0.028011536225676537,"38":0.04658938944339752,"39":-0.01979888044297695,"40":0.025100378319621086,"41":-0.023540765047073364,"42":-0.0026871622540056705,"43":-0.03901287540793419,"44":0.051038775593042374,"45":-0.05333570018410683,"46":-0.005394683685153723,"47":-0.015182297676801682,"48":-0.004631327465176582,"49":0.007629534229636192,"50":0.053924258798360825,"51":-0.015508677810430527,"52":-0.04006841406226158,"53":0.04346482455730438,"54":-0.0418095700442791,"55":0.054012276232242584,"56":-0.056706372648477554,"57":0.03437970578670502,"58":-0.05242830514907837,"59":-0.05714128166437149,"60":-0.023324675858020782,"61":0.018086915835738182,"62":0.0059610651805996895,"63":0.012221250683069229,"64":-0.042497821152210236,"65":-0.02725210040807724,"66":0.014486785978078842,"67":-0.039802517741918564,"68":-0.029295414686203003,"69":-0.01252616848796606,"70":-0.029014963656663895,"71":0.03115270473062992,"72":-0.029906902462244034,"73":-0.032266005873680115,"74":0.023574169725179672,"75":-0.0241019818931818,"76":-0.051210395991802216,"77":-0.022293005138635635,"78":0.02668231539428234,"79":-0.003015114227309823,"80":0.009575953707098961,"81":-0.04776331037282944,"82":-0.01221587136387825,"83":0.01704939268529415,"84":-0.05675375834107399,"85":0.011877558194100857,"86":0.0342596173286438,"87":-0.02695521153509617,"88":0.041741929948329926,"89":-0.022076396271586418,"90":-0.011145989410579205,"91":-0.048755962401628494,"92":-0.0471823588013649,"93":0.034063298255205154,"94":0.056865423917770386,"95":0.05287007987499237,"96":-0.006927162874490023,"97":-0.04483633115887642,"98":-0.05552615597844124,"99":0.033319756388664246,"100":0.04054998978972435,"101":0.005175585392862558,"102":0.01240215077996254,"103":-0.030475158244371414,"104":0.018500670790672302,"105":0.01972963474690914,"106":0.03760789707303047,"107":-0.01221320778131485,"108":-0.04286123812198639,"109":-0.0009230764117091894,"110":0.03928137943148613,"111":0.016642242670059204,"112":-0.010646067559719086,"113":-0.03734712302684784,"114":0.04158290848135948,"115":0.025791406631469727,"116":-0.006948722992092371,"117":-0.015163902193307877,"118":0.0367891900241375,"119":-0.023226670920848846,"120":0.0024315970949828625,"121":0.032834816724061966,"122":0.05228644609451294,"123":0.04795195907354355,"124":0.016533570364117622,"125":-0.028278090059757233,"126":-0.035431280732154846,"127":-0.024848904460668564,"128":-0.029025457799434662,"129":-0.023721853271126747,"130":-0.05720873922109604,"131":-0.009482242166996002,"132":-0.00934471283107996,"133":0.05304834246635437,"134":-0.005913111846894026,"135":-0.04626694694161415,"136":0.037805572152137756,"137":0.05609969049692154,"138":-0.03983283042907715,"139":-0.05091799423098564,"140":-0.04380262270569801,"141":0.018056709319353104,"142":-0.0305843036621809,"143":0.03675293177366257,"144":-0.0411309078335762,"145":-0.038800112903118134,"146":-0.0394991934299469,"147":-0.03768209367990494,"148":-0.036321889609098434,"149":-0.03830374777317047,"150":-0.012317212298512459,"151":0.05609773471951485,"152":-0.009560948237776756,"153":0.034744758158922195,"154":-0.03926060348749161,"155":0.028224244713783264,"156":0.048277877271175385,"157":0.030393563210964203,"158":-0.04020386189222336,"159":0.043101996183395386,"160":-0.017447032034397125,"161":-0.034892015159130096,"162":0.035670701414346695,"163":0.0458914190530777,"164":-0.0038890636060386896,"165":0.0054001701064407825,"166":-0.05434910207986832,"167":-0.038326699286699295,"168":0.05413432791829109,"169":-0.047577910125255585,"170":-0.020000040531158447,"171":0.04227498173713684,"172":0.05159110575914383,"173":-0.014863567426800728,"174":0.02475617080926895,"175":0.029688924551010132,"176":-0.047492288053035736,"177":-0.042063452303409576,"178":-0.01235387846827507,"179":-0.008581389673054218,"180":0.055054813623428345,"181":-0.04011479765176773,"182":0.0036567426286637783,"183":0.05620340257883072,"184":0.02869790606200695,"185":-0.022306859493255615,"186":-0.013128777034580708,"187":0.051872529089450836,"188":0.055560529232025146,"189":0.038817185908555984,"190":0.051317859441041946,"191":0.03276525065302849,"192":0.05544429272413254,"193":-0.0016295075183734298,"194":-0.055260952562093735,"195":0.04513914883136749,"196":0.02699081413447857,"197":-0.04820825159549713,"198":0.017248589545488358,"199":-0.04670872539281845,"200":0.033646360039711,"201":-0.04347106069326401,"202":0.0064460705034434795,"203":-0.05365237966179848,"204":-0.023527415469288826,"205":0.038522444665431976,"206":-0.02533355914056301,"207":0.04450675845146179,"208":-0.0242451298981905,"209":-0.03040318191051483,"210":0.011838974431157112,"211":0.015231272205710411,"212":0.03369315341114998,"213":0.020894913002848625,"214":0.02950691431760788,"215":-0.051739923655986786,"216":-0.023974869400262833,"217":-0.04423117637634277,"218":-0.005645836237818003,"219":-0.04860987886786461,"220":-0.022791951894760132,"221":0.0024897619150578976,"222":-0.04064130410552025,"223":-0.006683956366032362,"224":0.008762839250266552,"225":-0.033286187797784805,"226":-0.01412130519747734,"227":-0.021648837253451347,"228":0.055926363915205,"229":-0.010542997159063816,"230":0.04746059328317642,"231":-0.03597687929868698,"232":0.029330812394618988,"233":-0.04093368723988533,"234":0.05372842028737068,"235":0.006250898353755474,"236":0.013812156394124031,"237":-0.05005156993865967,"238":-0.000817928637843579,"239":0.03488200902938843,"240":0.03255773335695267,"241":-0.04742308333516121,"242":-0.042775243520736694,"243":0.04258561134338379,"244":-0.010589344426989555,"245":0.051493577659130096,"246":-0.0023903511464595795,"247":0.01858363300561905,"248":0.03707320988178253,"249":0.02009708248078823,"250":-0.05027928203344345,"251":0.05623955652117729,"252":0.0412706583738327,"253":0.037961047142744064,"254":0.032966043800115585,"255":-0.02910568192601204,"256":0.002867521485313773,"257":-0.03974774479866028,"258":0.050717853009700775,"259":0.045081429183483124,"260":-0.05390970781445503,"261":0.033589281141757965,"262":0.04466719925403595,"263":0.044055353850126266,"264":0.011060597375035286,"265":-0.03392621874809265,"266":-0.017048029229044914,"267":0.033841345459222794,"268":-0.057302821427583694,"269":0.030565954744815826,"270":0.02460375800728798,"271":0.05099024623632431,"272":-0.04290279373526573,"273":-0.029370494186878204,"274":0.023112723603844643,"275":-0.022100679576396942,"276":-0.03476816415786743,"277":0.023227980360388756,"278":-0.027371134608983994,"279":0.05457254871726036,"280":0.00021234243467915803,"281":0.05498703196644783,"282":0.024074168875813484,"283":-0.05104369670152664,"284":0.05434037744998932,"285":-0.057132743299007416,"286":-0.01184327993541956,"287":0.02710774727165699,"288":-0.02349959686398506,"289":0.0065902178175747395,"290":-0.0020663468167185783,"291":-0.02032666653394699,"292":0.02250770479440689,"293":0.014709491282701492,"294":-0.037321895360946655,"295":-0.014611568301916122,"296":0.04814910516142845,"297":-0.03699043020606041,"298":0.01956952176988125,"299":0.03350149467587471,"300":0.05109407752752304,"301":-0.018863875418901443,"302":-0.045143917202949524,"303":-0.0437638945877552,"304":0.0520208440721035,"305":0.02505243755877018,"306":0.05022217705845833,"307":-0.026819175109267235,"308":0.049238353967666626,"309":-0.008881830610334873,"310":0.042019303888082504,"311":0.05677197501063347,"312":0.02120092883706093,"313":0.017646700143814087,"314":0.007417479529976845,"315":0.001783281797543168,"316":-0.025450769811868668,"317":-0.04214091598987579,"318":0.013574688695371151,"319":0.04101429134607315,"320":-0.05597667768597603,"321":0.03517639636993408,"322":-0.029719285666942596,"323":0.04931426793336868,"324":0.02055223286151886,"325":0.028890464454889297,"326":-0.024792827665805817,"327":-0.0019701917190104723,"328":-0.014199372380971909,"329":-0.006834221538156271,"330":-0.018184129148721695,"331":0.03992030769586563,"332":0.03186347708106041,"333":0.021801136434078217,"334":0.04241380840539932,"335":-0.0008651625248603523,"336":-0.04288602992892265,"337":0.006767896469682455,"338":-0.010574539192020893,"339":-0.00004024967347504571,"340":-0.01908712275326252,"341":0.03311116248369217,"342":0.04566776007413864,"343":-0.022176049649715424,"344":0.04000616818666458,"345":-0.03838784247636795,"346":0.026646988466382027,"347":0.042762402445077896,"348":-0.04809663072228432,"349":0.006779487710446119,"350":0.02814355492591858,"351":-0.033410120755434036,"352":-0.024501048028469086,"353":0.05077377334237099,"354":0.053020935505628586,"355":-0.046912312507629395,"356":-0.014855142682790756,"357":-0.008721566759049892,"358":-0.01850675791501999,"359":-0.034916952252388,"360":0.026327159255743027,"361":-0.01402598712593317,"362":0.04330349713563919,"363":-0.02046016976237297,"364":-0.04919024929404259,"365":0.027044571936130524,"366":-0.040340155363082886,"367":0.006502318661659956,"368":0.047358810901641846,"369":0.02608679234981537,"370":0.022230880334973335,"371":-0.001047405181452632,"372":-0.03199312463402748,"373":-0.0030770450830459595,"374":-0.036807890981435776,"375":-0.006679454818367958,"376":-0.03678753226995468,"377":0.05567767471075058,"378":-0.03548715263605118,"379":0.004264315124601126,"380":-0.057170674204826355,"381":0.040948472917079926,"382":-0.045820269733667374,"383":0.034199800342321396,"384":-0.022655213251709938,"385":0.009594723582267761,"386":0.021688537672162056,"387":-0.03600774705410004,"388":0.023422809317708015,"389":-0.03316621109843254,"390":-0.051712311804294586,"391":-0.03532443940639496,"392":-0.05453699454665184,"393":-0.013966016471385956,"394":0.052041515707969666,"395":0.03254180774092674,"396":0.03952997550368309,"397":-0.0334034264087677,"398":-0.01864841766655445,"399":-0.05263547971844673}},"forgetHidden":{"rows":20,"columns":20,"weights":{"0":0.0006629574345424771,"1":-0.027825629338622093,"2":-0.04628919064998627,"3":0.04278967157006264,"4":0.032409749925136566,"5":0.03115946054458618,"6":0.030772332102060318,"7":0.017144441604614258,"8":-0.03648766502737999,"9":-0.05577508732676506,"10":0.008766520768404007,"11":-0.02658839337527752,"12":0.025995910167694092,"13":0.03677932918071747,"14":0.039420053362846375,"15":0.025158973410725594,"16":0.0318533256649971,"17":-0.05051780864596367,"18":-0.008245685137808323,"19":0.019624747335910797,"20":-0.030780205503106117,"21":-0.020986437797546387,"22":-0.007763525005429983,"23":-0.057149674743413925,"24":-0.0482570119202137,"25":0.010582411661744118,"26":0.03384692966938019,"27":-0.051964882761240005,"28":-0.048484280705451965,"29":0.035576384514570236,"30":-0.01865593157708645,"31":-0.02556062862277031,"32":-0.04367094486951828,"33":-0.00013989950821269304,"34":0.0042733740992844105,"35":-0.05005194991827011,"36":0.05018045753240585,"37":-0.03309275582432747,"38":0.042461615055799484,"39":0.04342808201909065,"40":0.0385928750038147,"41":-0.006168193183839321,"42":-0.016828153282403946,"43":-0.030022911727428436,"44":0.003569222753867507,"45":-0.042648836970329285,"46":0.01484404131770134,"47":0.04467587545514107,"48":0.019274083897471428,"49":0.04631127789616585,"50":-0.03460942953824997,"51":-0.006059401668608189,"52":-0.034384604543447495,"53":0.0025701969861984253,"54":0.053790248930454254,"55":-0.01553346961736679,"56":0.024138033390045166,"57":0.04601043090224266,"58":-0.04969887062907219,"59":0.014116288162767887,"60":0.023315705358982086,"61":0.017525939270853996,"62":0.002289552940055728,"63":0.019495157524943352,"64":0.029642723500728607,"65":0.04977858439087868,"66":0.013604653999209404,"67":0.041973575949668884,"68":0.03997223079204559,"69":0.01647239737212658,"70":0.01670309528708458,"71":-0.028732355684041977,"72":-0.03281724452972412,"73":-0.033884286880493164,"74":-0.03735881298780441,"75":0.033399008214473724,"76":0.028025710955262184,"77":0.022503051906824112,"78":-0.025682691484689713,"79":0.03846302628517151,"80":-0.05286494269967079,"81":-0.022815033793449402,"82":0.03588848561048508,"83":0.022499779239296913,"84":0.012385047040879726,"85":-0.027461983263492584,"86":0.051547493785619736,"87":-0.05269763991236687,"88":0.009239910170435905,"89":0.013232051394879818,"90":-0.04911377280950546,"91":-0.040580492466688156,"92":0.05075450986623764,"93":-0.026316748932003975,"94":-0.013189556077122688,"95":-0.017046518623828888,"96":-0.007106343749910593,"97":-0.025506718084216118,"98":-0.003968558739870787,"99":-0.04266612231731415,"100":-0.03797993063926697,"101":-0.011259885504841805,"102":0.027795670554041862,"103":-0.02088836207985878,"104":-0.047432560473680496,"105":-0.012898499146103859,"106":-0.014491930603981018,"107":0.05018299072980881,"108":-0.05409038066864014,"109":-0.025898661464452744,"110":-0.029375098645687103,"111":-0.04292922094464302,"112":-0.01713820919394493,"113":0.03261546790599823,"114":0.01032934058457613,"115":-0.020412299782037735,"116":-0.012956645339727402,"117":0.0079424437135458,"118":-0.051878560334444046,"119":-0.03813811391592026,"120":0.03324839472770691,"121":-0.021146992221474648,"122":-0.05369661748409271,"123":-0.03566327318549156,"124":0.055482905358076096,"125":0.012571079656481743,"126":0.03220175579190254,"127":-0.03474046662449837,"128":-0.02481413073837757,"129":-0.022261155769228935,"130":-0.05696028843522072,"131":-0.030176721513271332,"132":0.057318028062582016,"133":-0.021217938512563705,"134":0.002245020354166627,"135":0.0041765980422496796,"136":0.04632668197154999,"137":-0.0453069694340229,"138":-0.019102009013295174,"139":0.055992793291807175,"140":-0.04213852807879448,"141":-0.013078982941806316,"142":-0.05514398589730263,"143":-0.024486146867275238,"144":-0.006077378056943417,"145":-0.032853368669748306,"146":0.04589302837848663,"147":-0.042657651007175446,"148":0.045146822929382324,"149":-0.01844676211476326,"150":-0.01352178119122982,"151":0.030595866963267326,"152":0.004068361129611731,"153":0.0555676631629467,"154":0.03619341179728508,"155":-0.03942495211958885,"156":0.025726430118083954,"157":-0.031816791743040085,"158":-0.05039019510149956,"159":-0.005737109575420618,"160":-0.022145366296172142,"161":0.05163281783461571,"162":-0.033051684498786926,"163":0.03827497363090515,"164":0.023417368531227112,"165":0.021114133298397064,"166":0.036511171609163284,"167":0.04193810001015663,"168":0.052494317293167114,"169":0.04654606059193611,"170":-0.04424818605184555,"171":-0.053438618779182434,"172":-0.03760528936982155,"173":0.027498500421643257,"174":0.024787642061710358,"175":-0.012900170870125294,"176":0.012465034611523151,"177":-0.028243372216820717,"178":0.015337053686380386,"179":0.05289475619792938,"180":-0.04167267307639122,"181":0.01769973896443844,"182":0.0089105274528265,"183":0.015920013189315796,"184":0.03867761418223381,"185":-0.011917265132069588,"186":-0.055254023522138596,"187":0.034938033670186996,"188":-0.05184011533856392,"189":0.015580905601382256,"190":-0.011679149232804775,"191":-0.031455159187316895,"192":0.04190365970134735,"193":-0.0423731654882431,"194":-0.053950075060129166,"195":0.05473517253994942,"196":-0.02465740777552128,"197":-0.053905874490737915,"198":0.023095235228538513,"199":0.0429949015378952,"200":0.032710086554288864,"201":-0.043816372752189636,"202":0.03540024906396866,"203":-0.04858603700995445,"204":0.051383983343839645,"205":0.004807712510228157,"206":0.007241661660373211,"207":-0.012301251292228699,"208":-0.03542839363217354,"209":0.0010653288336470723,"210":-0.02155183255672455,"211":-0.03296969458460808,"212":-0.01696007512509823,"213":0.03165508434176445,"214":-0.0058815088123083115,"215":0.0030109346844255924,"216":-0.028020557016134262,"217":0.02873821184039116,"218":0.007634616922587156,"219":-0.05518057197332382,"220":0.007873072288930416,"221":0.05230777710676193,"222":-0.017555512487888336,"223":0.05454277992248535,"224":-0.030710719525814056,"225":0.013312450610101223,"226":-0.020078301429748535,"227":-0.04904312267899513,"228":0.021328944712877274,"229":-0.0021303605753928423,"230":-0.04606134071946144,"231":0.027784977108240128,"232":0.017730645835399628,"233":-0.035150136798620224,"234":-0.016994992271065712,"235":0.04009799659252167,"236":0.030697651207447052,"237":0.017944952473044395,"238":-0.030875615775585175,"239":-0.04650423303246498,"240":-0.018900930881500244,"241":-0.00544979190453887,"242":0.01420210674405098,"243":-0.04728187993168831,"244":-0.013515271246433258,"245":-0.031913891434669495,"246":-0.008783922530710697,"247":-0.03220556303858757,"248":-0.023720581084489822,"249":0.02280757762491703,"250":0.05660036951303482,"251":-0.025779057294130325,"252":0.029345933347940445,"253":-0.02970098704099655,"254":0.0569559782743454,"255":0.0182355847209692,"256":0.03044174611568451,"257":-0.029771525412797928,"258":0.05551476404070854,"259":0.03401687741279602,"260":0.04714324697852135,"261":0.03979219123721123,"262":-0.039132487028837204,"263":0.05175160616636276,"264":-0.04067764803767204,"265":-0.009261546656489372,"266":-0.04197104647755623,"267":-0.04286470636725426,"268":0.05410432070493698,"269":-0.04048069566488266,"270":0.021259047091007233,"271":-0.004120528697967529,"272":-0.03476722911000252,"273":0.025217780843377113,"274":-0.04017068073153496,"275":-0.033187463879585266,"276":-0.053283192217350006,"277":0.007087495643645525,"278":-0.03718123957514763,"279":-0.04047692194581032,"280":-0.04149410128593445,"281":0.03625793755054474,"282":0.014249761588871479,"283":0.024088608101010323,"284":0.021609174087643623,"285":-0.04173151031136513,"286":0.05217094346880913,"287":0.054298531264066696,"288":0.05467917397618294,"289":-0.053506381809711456,"290":0.02676926925778389,"291":0.03134321793913841,"292":0.004115880932658911,"293":0.02606804482638836,"294":-0.03087460994720459,"295":-0.04784392938017845,"296":0.038019679486751556,"297":-0.027763396501541138,"298":0.02567710168659687,"299":-0.03983546048402786,"300":0.009897805750370026,"301":0.019477643072605133,"302":0.031604111194610596,"303":0.028351498767733574,"304":-0.006891601253300905,"305":0.045191578567028046,"306":-0.03369513154029846,"307":0.010930635966360569,"308":0.046752117574214935,"309":0.0005250172689557076,"310":-0.035124801099300385,"311":0.02890213578939438,"312":-0.0015001074643805623,"313":-0.03186675161123276,"314":-0.04079580679535866,"315":-0.035242240875959396,"316":0.03272731974720955,"317":0.037207577377557755,"318":0.03266677260398865,"319":0.0018380912952125072,"320":0.049128469079732895,"321":0.032693494111299515,"322":0.007259216159582138,"323":-0.02225497178733349,"324":-0.0032925084233283997,"325":-0.04377629980444908,"326":0.023730754852294922,"327":0.026359766721725464,"328":-0.0002086248859995976,"329":-0.006337329279631376,"330":-0.036286402493715286,"331":0.05420656502246857,"332":-0.032253243029117584,"333":-0.02745892107486725,"334":-0.03757454454898834,"335":-0.02000032365322113,"336":-0.04342951625585556,"337":-0.0502491220831871,"338":-0.050446365028619766,"339":-0.04547795653343201,"340":-0.0333663672208786,"341":0.053424276411533356,"342":0.0024709643330425024,"343":0.04632112756371498,"344":0.015373554080724716,"345":0.0555105097591877,"346":-0.0017006851267069578,"347":-0.023036537691950798,"348":0.014499839395284653,"349":-0.031604498624801636,"350":-0.05361801013350487,"351":-0.03073696233332157,"352":0.04887216165661812,"353":-0.03390972688794136,"354":-0.0199417881667614,"355":-0.021917220205068588,"356":-0.03703884407877922,"357":0.01708836853504181,"358":-0.0008457061485387385,"359":-0.021194767206907272,"360":0.013050366193056107,"361":0.03165227174758911,"362":-0.01769573614001274,"363":0.008607111871242523,"364":-0.02475825324654579,"365":0.046237871050834656,"366":-0.05149140954017639,"367":0.005453295074403286,"368":-0.0453152097761631,"369":-0.02236528880894184,"370":0.052932873368263245,"371":0.034262049943208694,"372":0.04083127900958061,"373":-0.002581220120191574,"374":0.05710575357079506,"375":0.004157061688601971,"376":0.027865344658493996,"377":-0.03773774579167366,"378":-0.027570601552724838,"379":-0.05552078038454056,"380":-0.014491463080048561,"381":-0.03557061031460762,"382":0.045795489102602005,"383":-0.02239290624856949,"384":-0.05014079436659813,"385":-0.005140045657753944,"386":0.042741887271404266,"387":0.05406629666686058,"388":-0.030528483912348747,"389":0.027504071593284607,"390":-0.04725951701402664,"391":0.052029501646757126,"392":-0.027843128889799118,"393":-0.04248194769024849,"394":0.028253553435206413,"395":0.015445259399712086,"396":0.03437747061252594,"397":-0.031168561428785324,"398":-0.04257328808307648,"399":0.0130945248529315}},"forgetBias":{"rows":20,"columns":1,"weights":{"0":0,"1":0,"2":0,"3":0,"4":0,"5":0,"6":0,"7":0,"8":0,"9":0,"10":0,"11":0,"12":0,"13":0,"14":0,"15":0,"16":0,"17":0,"18":0,"19":0}},"outputMatrix":{"rows":20,"columns":20,"weights":{"0":0.17342880368232727,"1":-0.06296830624341965,"2":0.7792873978614807,"3":0.16242721676826477,"4":0.1059190034866333,"5":-0.0730634555220604,"6":0.05836356431245804,"7":-0.863817036151886,"8":-1.9277422428131104,"9":-0.04577452689409256,"10":0.8015764951705933,"11":-0.2497817575931549,"12":0.883539617061615,"13":-0.29372119903564453,"14":0.3369569778442383,"15":0.4323423206806183,"16":-0.44460466504096985,"17":0.31135404109954834,"18":0.9287634491920471,"19":-0.35537388920783997,"20":0.5416123270988464,"21":-0.09223716706037521,"22":0.5634987354278564,"23":0.4115060567855835,"24":-0.056288495659828186,"25":0.24036525189876556,"26":0.5162755846977234,"27":-0.5066120028495789,"28":-0.921016275882721,"29":0.798835039138794,"30":-0.15590307116508484,"31":0.3688606023788452,"32":0.5044729709625244,"33":0.18826743960380554,"34":-0.23247909545898438,"35":-0.19886602461338043,"36":0.2551789879798889,"37":-0.262740820646286,"38":0.1355130970478058,"39":0.3360419273376465,"40":0.1647762656211853,"41":-0.4734492897987366,"42":-0.07915662974119186,"43":0.20708142220973969,"44":0.8161725997924805,"45":0.6110632419586182,"46":0.22222794592380524,"47":-0.27373114228248596,"48":-0.5607220530509949,"49":0.09328923374414444,"50":0.2338455766439438,"51":0.5436227321624756,"52":0.37321192026138306,"53":0.17571526765823364,"54":-0.19758939743041992,"55":-0.16308756172657013,"56":0.20410721004009247,"57":-0.3044208884239197,"58":-0.009991812519729137,"59":0.2555502951145172,"60":0.1924447864294052,"61":0.35348019003868103,"62":0.7484784126281738,"63":-0.21939271688461304,"64":0.5193070769309998,"65":0.15662623941898346,"66":0.13873068988323212,"67":-0.9620080590248108,"68":-1.6445211172103882,"69":0.20626524090766907,"70":0.3697708547115326,"71":-0.3794001042842865,"72":0.6438711881637573,"73":-0.18047596514225006,"74":0.18154123425483704,"75":0.146844744682312,"76":-0.1376843899488449,"77":0.14567705988883972,"78":0.3803875744342804,"79":-0.15299829840660095,"80":0.02990768663585186,"81":0.45355623960494995,"82":0.7299938201904297,"83":-0.16218867897987366,"84":0.2619333863258362,"85":0.05741200968623161,"86":0.26151925325393677,"87":-0.7713377475738525,"88":-1.3156789541244507,"89":0.18089249730110168,"90":0.4164581298828125,"91":-0.4217892289161682,"92":0.514057457447052,"93":-0.2794032692909241,"94":0.29367396235466003,"95":0.4077644348144531,"96":-0.3701383173465729,"97":0.33585914969444275,"98":0.4090230166912079,"99":-0.4295859932899475,"100":-0.1523142158985138,"101":-0.3486500680446625,"102":-0.4152790307998657,"103":0.4101313054561615,"104":0.6382026672363281,"105":0.14573177695274353,"106":0.21212460100650787,"107":-0.8245923519134521,"108":-1.3067299127578735,"109":0.3270973265171051,"110":0.96393221616745,"111":-0.24471020698547363,"112":0.44470512866973877,"113":-0.0239669531583786,"114":0.10181361436843872,"115":0.1473134309053421,"116":-0.09639672935009003,"117":0.04563048481941223,"118":0.6504498720169067,"119":0.008446130901575089,"120":-0.08256852626800537,"121":-0.1561284065246582,"122":0.29290542006492615,"123":0.5054121017456055,"124":0.42118552327156067,"125":0.17134761810302734,"126":0.37331345677375793,"127":-0.9671558737754822,"128":-1.234883427619934,"129":0.857684850692749,"130":1.0394541025161743,"131":-0.2839638888835907,"132":0.7193011045455933,"133":0.059967290610075,"134":-0.024842644110322,"135":-0.013778317719697952,"136":-0.0016422936460003257,"137":-0.02291835844516754,"138":0.14459946751594543,"139":0.040108706802129745,"140":0.674950897693634,"141":-0.06271947175264359,"142":0.3418610095977783,"143":0.1250750869512558,"144":0.36173734068870544,"145":0.1208687275648117,"146":0.7452844977378845,"147":-0.12926945090293884,"148":-0.5084693431854248,"149":0.7804754376411438,"150":-0.11296147853136063,"151":0.7020804286003113,"152":0.6375917196273804,"153":0.222612202167511,"154":-0.2035246044397354,"155":-0.17351219058036804,"156":0.27031680941581726,"157":-0.303985595703125,"158":-0.07224670797586441,"159":0.28583019971847534,"160":0.03472929820418358,"161":0.0038965276908129454,"162":0.05806032940745354,"163":0.4068840742111206,"164":0.5786048769950867,"165":0.30683624744415283,"166":0.340874582529068,"167":-0.6232056617736816,"168":-1.2233843803405762,"169":0.7849838137626648,"170":0.3674025237560272,"171":0.024945218116044998,"172":1.0424373149871826,"173":0.46582791209220886,"174":-0.38129475712776184,"175":-0.46066421270370483,"176":0.3860662579536438,"177":-0.3972514271736145,"178":-0.17448896169662476,"179":0.5823602080345154,"180":0.12365152686834335,"181":-0.5559009909629822,"182":0.5507424473762512,"183":0.000982373603619635,"184":0.10148850083351135,"185":0.04370640218257904,"186":-0.08022986352443695,"187":-1.0304853916168213,"188":-1.6824514865875244,"189":-0.14851626753807068,"190":0.5428335070610046,"191":-0.3109915554523468,"192":0.8004668951034546,"193":-0.19732937216758728,"194":0.2455952763557434,"195":0.27236899733543396,"196":-0.2939387857913971,"197":0.21283619105815887,"198":0.7060004472732544,"199":-0.2510075569152832,"200":-0.07362053543329239,"201":-0.6719906330108643,"202":0.31700727343559265,"203":0.46568548679351807,"204":-0.19811560213565826,"205":0.33917540311813354,"206":0.15864332020282745,"207":-0.7276434302330017,"208":-1.6986688375473022,"209":0.2628057897090912,"210":0.0261436328291893,"211":0.6901457905769348,"212":1.1000449657440186,"213":-0.03702228516340256,"214":-0.15928493440151215,"215":-0.19796399772167206,"216":0.06233542785048485,"217":-0.15938328206539154,"218":0.3425561487674713,"219":0.3057894706726074,"220":0.5451846718788147,"221":-0.4649285674095154,"222":0.02635015733540058,"223":0.2121455818414688,"224":0.7721567153930664,"225":0.8675572276115417,"226":0.2474493682384491,"227":-0.06370032578706741,"228":-0.04543088376522064,"229":0.07679959386587143,"230":-0.004298278596252203,"231":0.5328139662742615,"232":0.46531909704208374,"233":0.21194609999656677,"234":-0.21491530537605286,"235":-0.30260998010635376,"236":0.26405298709869385,"237":-0.26938989758491516,"238":-0.1693463921546936,"239":0.3244870901107788,"240":0.36943042278289795,"241":-0.4538590610027313,"242":-0.11941957473754883,"243":-0.08737494796514511,"244":1.1213363409042358,"245":0.949641227722168,"246":0.7986742854118347,"247":0.42941761016845703,"248":0.10754290968179703,"249":-0.19060157239437103,"250":1.251758098602295,"251":-0.24251970648765564,"252":-0.0848773941397667,"253":0.24914215505123138,"254":-0.22221986949443817,"255":-0.17561064660549164,"256":0.1702018529176712,"257":-0.2146460860967636,"258":0.09832120686769485,"259":0.30889585614204407,"260":0.2196468859910965,"261":-0.8953710794448853,"262":-0.12519167363643646,"263":0.574596107006073,"264":0.022116508334875107,"265":0.04368152841925621,"266":0.06257905066013336,"267":-0.563617467880249,"268":-1.5638327598571777,"269":0.22327886521816254,"270":0.13315053284168243,"271":0.08792321383953094,"272":1.1303880214691162,"273":-0.03882908076047897,"274":-0.006022620014846325,"275":-0.053329795598983765,"276":-0.08524122089147568,"277":-0.06222906708717346,"278":0.5467188358306885,"279":0.1811157464981079,"280":0.3632001578807831,"281":-0.13327495753765106,"282":0.36893707513809204,"283":0.013850977644324303,"284":0.01254446990787983,"285":-0.17405907809734344,"286":0.847947895526886,"287":0.029562342911958694,"288":-0.44385260343551636,"289":1.1219226121902466,"290":1.3431086540222168,"291":0.4205123782157898,"292":0.09659481048583984,"293":0.11916603147983551,"294":-0.11883153766393661,"295":-0.16330304741859436,"296":0.14364726841449738,"297":-0.1375943273305893,"298":0.3410777747631073,"299":0.23286210000514984,"300":-0.025127502158284187,"301":0.7073836326599121,"302":0.4999294579029083,"303":-0.18288937211036682,"304":0.7164559960365295,"305":0.20361793041229248,"306":0.18851588666439056,"307":-1.285653829574585,"308":-1.788904070854187,"309":0.19437441229820251,"310":0.4265730381011963,"311":-0.44634169340133667,"312":0.6219131946563721,"313":-0.1641734540462494,"314":0.1087149828672409,"315":0.18598438799381256,"316":-0.24541820585727692,"317":0.20984919369220734,"318":0.23882903158664703,"319":-0.21171656250953674,"320":-0.5101209282875061,"321":0.3650975823402405,"322":0.1307840645313263,"323":0.31013962626457214,"324":-0.12252428382635117,"325":0.04594286158680916,"326":0.012864219956099987,"327":-1.25442373752594,"328":-1.1405208110809326,"329":-0.08835511654615402,"330":0.9207789301872253,"331":-0.14480935037136078,"332":0.35980576276779175,"333":-0.3651025891304016,"334":0.4752700626850128,"335":0.5169748663902283,"336":-0.49871259927749634,"337":0.4728061258792877,"338":0.43816930055618286,"339":-0.4801729917526245,"340":0.3307075500488281,"341":0.07565188407897949,"342":0.09128759801387787,"343":0.2391219139099121,"344":0.47729170322418213,"345":-0.3818630278110504,"346":0.35230231285095215,"347":-0.45229580998420715,"348":-1.0600053071975708,"349":0.6916325688362122,"350":-0.019632060080766678,"351":-0.025670940056443214,"352":0.9594536423683167,"353":0.3965490460395813,"354":-0.3728300631046295,"355":-0.3153168261051178,"356":0.256277859210968,"357":-0.3013174831867218,"358":-0.37900564074516296,"359":0.34205299615859985,"360":0.07706030458211899,"361":0.15390534698963165,"362":-0.29485610127449036,"363":0.1318812519311905,"364":0.038767069578170776,"365":0.07130221277475357,"366":-0.19673770666122437,"367":-1.3451602458953857,"368":-1.3990592956542969,"369":-0.6312362551689148,"370":0.412325918674469,"371":-0.20177021622657776,"372":0.42216017842292786,"373":-0.21391646564006805,"374":0.12802664935588837,"375":0.19956368207931519,"376":-0.194159135222435,"377":0.15509997308254242,"378":0.44187039136886597,"379":-0.15178261697292328,"380":-0.0033164049964398146,"381":-0.3787223696708679,"382":-0.19357417523860931,"383":0.5385403633117676,"384":0.34412214159965515,"385":0.32469871640205383,"386":-0.04983220249414444,"387":-0.8981313705444336,"388":-1.4932292699813843,"389":0.20363660156726837,"390":-0.3283632695674896,"391":0.30264827609062195,"392":0.8400983810424805,"393":-0.17988239228725433,"394":0.03430658206343651,"395":0.054460883140563965,"396":-0.1659419983625412,"397":0.005223589483648539,"398":0.5237036943435669,"399":-0.004735962022095919}},"outputHidden":{"rows":20,"columns":20,"weights":{"0":-0.045399170368909836,"1":0.02234281599521637,"2":0.043888214975595474,"3":0.0023550058249384165,"4":-0.026258740574121475,"5":0.027106238529086113,"6":0.028248537331819534,"7":-0.029446963220834732,"8":-0.011599421501159668,"9":-0.027242524549365044,"10":-0.02814074233174324,"11":-0.030622027814388275,"12":-0.03511899337172508,"13":-0.019120370969176292,"14":-0.042108144611120224,"15":-0.057016074657440186,"16":-0.009693599306046963,"17":-0.037387944757938385,"18":0.0457383394241333,"19":-0.04347042366862297,"20":0.048179663717746735,"21":0.03714260831475258,"22":0.01407486293464899,"23":-0.05028282850980759,"24":-0.03630898892879486,"25":-0.05168883129954338,"26":-0.0390542671084404,"27":0.028845325112342834,"28":0.024875281378626823,"29":-0.03431614488363266,"30":0.018160110339522362,"31":-0.03974805772304535,"32":0.011237871833145618,"33":-0.028636036440730095,"34":0.049746669828891754,"35":-0.01869336888194084,"36":-0.006837320514023304,"37":-0.014284694567322731,"38":0.01344082411378622,"39":-0.0273630041629076,"40":-0.03900868073105812,"41":-0.013727826066315174,"42":-0.001197098521515727,"43":-0.030124712735414505,"44":-0.03751383349299431,"45":0.031237060204148293,"46":-0.021658197045326233,"47":-0.015620914287865162,"48":-0.03222876787185669,"49":-0.040343042463064194,"50":0.047700751572847366,"51":-0.030823534354567528,"52":-0.007224170491099358,"53":0.05040113255381584,"54":-0.03523028641939163,"55":0.019349699839949608,"56":0.02219543047249317,"57":0.02893647365272045,"58":0.05394502729177475,"59":0.026929037645459175,"60":-0.03132548928260803,"61":0.007917472161352634,"62":-0.041272811591625214,"63":0.03105129301548004,"64":-0.03857016935944557,"65":0.02517080307006836,"66":-0.04844493046402931,"67":-0.024461820721626282,"68":0.04991596192121506,"69":0.021706312894821167,"70":-0.037793293595314026,"71":-0.046194206923246384,"72":-0.0026449961587786674,"73":0.024127589538693428,"74":-0.00955286342650652,"75":-0.04134662076830864,"76":-0.014255527406930923,"77":-0.044806107878685,"78":-0.033048115670681,"79":-0.04407895728945732,"80":-0.05423981323838234,"81":0.01454254612326622,"82":-0.01439655665308237,"83":-0.018375832587480545,"84":-0.048297394067049026,"85":-0.007731051649898291,"86":0.022163957357406616,"87":-0.00462595047429204,"88":-0.008760693483054638,"89":0.020068276673555374,"90":-0.032351959496736526,"91":0.040293138474226,"92":0.04742715135216713,"93":-0.00591471791267395,"94":-0.018783649429678917,"95":-0.01634441688656807,"96":-0.05513019487261772,"97":0.024643808603286743,"98":-0.05723131448030472,"99":0.020682545378804207,"100":0.03717191517353058,"101":-0.011012783274054527,"102":-0.024282347410917282,"103":0.02795608527958393,"104":-0.05070829391479492,"105":-0.05260799452662468,"106":0.015487860888242722,"107":-0.034126732498407364,"108":0.04724081978201866,"109":-0.006981175858527422,"110":-0.0555509477853775,"111":0.05290458723902702,"112":0.04129995405673981,"113":-0.013625213876366615,"114":-0.036496348679065704,"115":-0.039269424974918365,"116":0.006890143733471632,"117":0.05452388525009155,"118":-0.01853904314339161,"119":-0.032952357083559036,"120":0.03794828802347183,"121":-0.03084007278084755,"122":0.03636205941438675,"123":0.017546188086271286,"124":-0.0484628826379776,"125":-0.04811878874897957,"126":-0.057091716676950455,"127":-0.02391851879656315,"128":-0.0565108060836792,"129":0.021622728556394577,"130":0.02528412453830242,"131":-0.03206416592001915,"132":-0.04633172228932381,"133":0.03131094202399254,"134":-0.05060109123587608,"135":0.052132777869701385,"136":0.03029288724064827,"137":-0.026047300547361374,"138":0.0240858793258667,"139":0.021202730014920235,"140":-0.045749399811029434,"141":0.03432236611843109,"142":0.040496889501810074,"143":0.04875301197171211,"144":-0.04354117065668106,"145":0.017633771523833275,"146":0.024185119196772575,"147":0.026853283867239952,"148":0.03215860575437546,"149":0.0054311915300786495,"150":-0.04673619195818901,"151":-0.05664781108498573,"152":-0.006374425254762173,"153":0.05000835657119751,"154":0.05456608161330223,"155":0.03148108720779419,"156":0.029528431594371796,"157":-0.028778959065675735,"158":-0.036840952932834625,"159":0.041863150894641876,"160":-0.0009975024731829762,"161":0.01364098209887743,"162":-0.02792949788272381,"163":-0.05202849209308624,"164":0.029310498386621475,"165":-0.004881803411990404,"166":0.043223075568675995,"167":-0.028317272663116455,"168":-0.05292746424674988,"169":-0.025571007281541824,"170":0.0057564605958759785,"171":-0.0014658510917797685,"172":-0.05427802354097366,"173":-0.04077998176217079,"174":0.02731383591890335,"175":0.011331317014992237,"176":-0.0022377390414476395,"177":-0.054606612771749496,"178":-0.03056071698665619,"179":0.0450519435107708,"180":-0.00647338293492794,"181":0.05068936198949814,"182":0.011374887079000473,"183":-0.0031712865456938744,"184":-0.0049003055319190025,"185":-0.021593406796455383,"186":0.010823884047567844,"187":-0.04110002890229225,"188":-0.05514056980609894,"189":0.012999004684388638,"190":0.021956780925393105,"191":0.010485074482858181,"192":0.04950384050607681,"193":0.031102286651730537,"194":0.050727978348731995,"195":0.002496034372597933,"196":0.03585214912891388,"197":0.022333864122629166,"198":-0.019773026928305626,"199":-0.04967320337891579,"200":0.04102808237075806,"201":-0.026103731244802475,"202":-0.04320564493536949,"203":-0.049422312527894974,"204":0.032144948840141296,"205":0.000007018179985607276,"206":0.039390962570905685,"207":0.02163388393819332,"208":0.016174593940377235,"209":-0.04697675630450249,"210":-0.007349112071096897,"211":0.03449241816997528,"212":0.007806824985891581,"213":0.04022396728396416,"214":0.053477175533771515,"215":-0.043948810547590256,"216":-0.016009895130991936,"217":0.05443169176578522,"218":-0.03879367187619209,"219":0.04799090325832367,"220":-0.03414180129766464,"221":-0.05287950113415718,"222":0.05339614674448967,"223":-0.023941852152347565,"224":-0.0014767831889912486,"225":-0.030505387112498283,"226":0.05399836227297783,"227":0.031099019572138786,"228":-0.013074313290417194,"229":0.011698827147483826,"230":0.05409349501132965,"231":0.01950530894100666,"232":-0.02239273302257061,"233":0.041644491255283356,"234":-0.01175262127071619,"235":0.044164907187223434,"236":0.011943372897803783,"237":0.008113458752632141,"238":0.009319077245891094,"239":-0.03746176138520241,"240":0.005499018356204033,"241":0.027356088161468506,"242":0.0497012622654438,"243":0.013203715905547142,"244":0.004196866415441036,"245":0.041777510195970535,"246":-0.05210937559604645,"247":-0.018752021715044975,"248":-0.05161716416478157,"249":-0.011714211665093899,"250":-0.03454114496707916,"251":-0.0003116303123533726,"252":0.018285974860191345,"253":0.006852361373603344,"254":0.01171915140002966,"255":0.04843577742576599,"256":0.05259352922439575,"257":-0.022967560216784477,"258":0.007568793371319771,"259":0.025422703474760056,"260":-0.014422744512557983,"261":0.04743720218539238,"262":-0.04165734723210335,"263":0.02524171955883503,"264":-0.02911262959241867,"265":0.039322566241025925,"266":-0.03420891985297203,"267":-0.0074765123426914215,"268":-0.004610479809343815,"269":-0.036193013191223145,"270":-0.04342043772339821,"271":-0.011544494889676571,"272":-0.019945845007896423,"273":-0.05373898893594742,"274":-0.007584093138575554,"275":-0.023429056629538536,"276":0.00535545265302062,"277":0.006192746572196484,"278":0.042196180671453476,"279":0.016064602881669998,"280":0.0056898645125329494,"281":-0.05007870867848396,"282":-0.040736060589551926,"283":-0.013479463756084442,"284":-0.028886757791042328,"285":0.0012196502648293972,"286":-0.051774539053440094,"287":-0.004655817989259958,"288":-0.020642800256609917,"289":-0.027318062260746956,"290":-0.05102114751935005,"291":-0.005173659883439541,"292":0.0311869066208601,"293":0.04478898644447327,"294":-0.021576065570116043,"295":0.03705646097660065,"296":0.0290279071778059,"297":-0.0053930687718093395,"298":0.0333145409822464,"299":-0.023245643824338913,"300":0.035099588334560394,"301":-0.016900505870580673,"302":-0.05280899628996849,"303":0.004834238905459642,"304":0.04888712614774704,"305":-0.01782402954995632,"306":-0.04523340240120888,"307":0.012599439360201359,"308":-0.02906573936343193,"309":0.05682595446705818,"310":0.017155449837446213,"311":0.04343784973025322,"312":-0.034753844141960144,"313":0.021072737872600555,"314":-0.049442168325185776,"315":0.0009082527249120176,"316":0.007598230615258217,"317":-0.010155439376831055,"318":-0.05146628990769386,"319":0.034730736166238785,"320":-0.02590404637157917,"321":-0.04055275395512581,"322":-0.005461635999381542,"323":0.028979294002056122,"324":0.03063194826245308,"325":0.019179420545697212,"326":-0.051948122680187225,"327":-0.038510121405124664,"328":0.006739587057381868,"329":-0.006286172661930323,"330":-0.025585275143384933,"331":0.041547294706106186,"332":0.00922721903771162,"333":0.04400071129202843,"334":-0.004317901097238064,"335":0.03355002775788307,"336":0.012825503945350647,"337":-0.02416457235813141,"338":-0.030090022832155228,"339":0.04925213381648064,"340":-0.04331474378705025,"341":-0.024296162649989128,"342":0.024096865206956863,"343":-0.05446048080921173,"344":0.023076601326465607,"345":-0.04987606406211853,"346":0.046792443841695786,"347":-0.051118023693561554,"348":-0.05176173523068428,"349":0.038230087608098984,"350":0.012153280898928642,"351":0.01438966765999794,"352":0.044292643666267395,"353":-0.022990785539150238,"354":-0.000995498150587082,"355":0.026060564443469048,"356":-0.03922091796994209,"357":0.05004759132862091,"358":-0.023464323952794075,"359":-0.010792143642902374,"360":-0.0005700238398276269,"361":-0.007861610502004623,"362":0.033244822174310684,"363":0.018528295680880547,"364":0.010746963322162628,"365":0.03457847982645035,"366":0.028254341334104538,"367":-0.04075614735484123,"368":-0.023147854954004288,"369":0.04050185903906822,"370":-0.03499140590429306,"371":-0.030808743089437485,"372":0.04691294953227043,"373":0.031041990965604782,"374":0.04667174443602562,"375":-0.00728604756295681,"376":-0.0023080792743712664,"377":-0.02757246047258377,"378":0.04809897020459175,"379":0.019936751574277878,"380":-0.016937050968408585,"381":-0.014711003750562668,"382":-0.0045624407939612865,"383":0.039555396884679794,"384":-0.04200354218482971,"385":-0.050446897745132446,"386":-0.0033306062687188387,"387":0.05421484261751175,"388":-0.04163151979446411,"389":-0.03866652771830559,"390":0.037594784051179886,"391":-0.022189384326338768,"392":-0.03251257911324501,"393":-0.022415032610297203,"394":-0.03838490694761276,"395":0.030796904116868973,"396":-0.007440965622663498,"397":0.04311811923980713,"398":0.02677968703210354,"399":-0.008495696820318699}},"outputBias":{"rows":20,"columns":1,"weights":{"0":0.5479714274406433,"1":0.39431658387184143,"2":1.0090312957763672,"3":-0.014656789600849152,"4":0.17531806230545044,"5":0.22573812305927277,"6":0.5858203768730164,"7":0.6299632787704468,"8":0.38748133182525635,"9":0.21181142330169678,"10":1.0013866424560547,"11":0.8486499786376953,"12":0.5043998956680298,"13":0.3214532136917114,"14":0.9282675385475159,"15":-0.2203761488199234,"16":0.5790066123008728,"17":0.4248376488685608,"18":0.20423391461372375,"19":0.1305973082780838}},"cellActivationMatrix":{"rows":20,"columns":20,"weights":{"0":-0.34213629364967346,"1":0.7028950452804565,"2":0.2814484238624573,"3":1.1711902618408203,"4":0.2922686040401459,"5":1.1834756135940552,"6":0.018879763782024384,"7":-0.24589745700359344,"8":0.242274209856987,"9":-0.2224353551864624,"10":-0.8134346604347229,"11":0.34858644008636475,"12":0.3099140524864197,"13":-0.1503051519393921,"14":0.39136603474617004,"15":0.31822875142097473,"16":-0.358822762966156,"17":0.4507201611995697,"18":-0.9297162294387817,"19":-0.568278431892395,"20":1.3574820756912231,"21":-0.2840394079685211,"22":-0.9367899298667908,"23":-0.9303196668624878,"24":0.6003472805023193,"25":0.24869921803474426,"26":-0.026551809161901474,"27":0.26153531670570374,"28":0.08423559367656708,"29":1.3589000701904297,"30":-0.1818590611219406,"31":0.48995065689086914,"32":0.7624900937080383,"33":-0.11957760900259018,"34":0.05825619772076607,"35":0.1333395093679428,"36":-0.11700492352247238,"37":-0.03272610902786255,"38":0.7996342778205872,"39":-0.09280262887477875,"40":1.1605746746063232,"41":0.3281087279319763,"42":-0.03311510384082794,"43":-0.1563122719526291,"44":-0.6923696398735046,"45":-0.1365051418542862,"46":-0.07890822738409042,"47":0.5942233204841614,"48":0.08327875286340714,"49":0.19353114068508148,"50":-0.2834019660949707,"51":1.7409870624542236,"52":0.16554567217826843,"53":-0.34787702560424805,"54":0.11114824563264847,"55":-0.06341219693422318,"56":-0.10677164047956467,"57":0.108280248939991,"58":-0.19177472591400146,"59":0.07228993624448776,"60":-0.16757157444953918,"61":-0.42276236414909363,"62":-0.026203379034996033,"63":-0.03810763359069824,"64":-1.10420560836792,"65":-0.5555547475814819,"66":0.17522113025188446,"67":0.4713138937950134,"68":0.48249322175979614,"69":0.02044437639415264,"70":0.0004968360299244523,"71":-0.06816167384386063,"72":-0.3561255931854248,"73":0.2089276909828186,"74":-0.2402188926935196,"75":-0.30525410175323486,"76":0.2878953516483307,"77":-0.2960990369319916,"78":0.4331609904766083,"79":0.33623209595680237,"80":0.20444869995117188,"81":-0.3168247938156128,"82":0.2944503128528595,"83":-0.3294345438480377,"84":-0.4188981354236603,"85":-0.9460431933403015,"86":-0.05053890496492386,"87":0.23144245147705078,"88":0.2285352647304535,"89":0.0933663472533226,"90":-0.21871717274188995,"91":-0.7571731209754944,"92":-0.37031999230384827,"93":0.330625981092453,"94":-0.42577433586120605,"95":-0.329487681388855,"96":0.38891687989234924,"97":-0.3887481391429901,"98":0.5392522215843201,"99":0.45040714740753174,"100":0.23642835021018982,"101":0.4394071400165558,"102":0.35107162594795227,"103":0.6887520551681519,"104":-0.40311938524246216,"105":0.15392574667930603,"106":1.0178308486938477,"107":0.5762602686882019,"108":0.4797132909297943,"109":0.3512837290763855,"110":0.6481348872184753,"111":0.2133779525756836,"112":0.03367384895682335,"113":0.00994616188108921,"114":0.21490387618541718,"115":0.21297061443328857,"116":-0.2600886821746826,"117":0.29732179641723633,"118":-0.20263704657554626,"119":-0.2839280962944031,"120":0.7142295241355896,"121":-0.8257653713226318,"122":-0.18279971182346344,"123":0.4802221357822418,"124":0.585748553276062,"125":-0.882636547088623,"126":0.5305327773094177,"127":0.24730011820793152,"128":-0.0367429181933403,"129":0.4280936121940613,"130":-0.9569862484931946,"131":-0.24308088421821594,"132":0.2824651300907135,"133":0.9457953572273254,"134":-0.893450915813446,"135":-0.859670102596283,"136":0.8068884611129761,"137":-0.7766534686088562,"138":-1.3674678802490234,"139":0.951288640499115,"140":1.1733742952346802,"141":-0.5779825448989868,"142":-0.36821991205215454,"143":-0.25275710225105286,"144":0.35948875546455383,"145":0.09250303357839584,"146":-0.25075268745422363,"147":0.45120590925216675,"148":0.29885900020599365,"149":1.2927212715148926,"150":-0.30206358432769775,"151":0.9006764888763428,"152":1.3773844242095947,"153":0.004742897115647793,"154":0.14889442920684814,"155":0.16399800777435303,"156":-0.24506807327270508,"157":0.17460544407367706,"158":0.39675524830818176,"159":-0.12029992789030075,"160":-0.3895966410636902,"161":-1.5725685358047485,"162":0.8213405013084412,"163":0.3565087616443634,"164":0.38094741106033325,"165":-0.15822285413742065,"166":-0.1788884848356247,"167":-0.14272578060626984,"168":0.18390730023384094,"169":1.150132417678833,"170":-0.15084931254386902,"171":0.2980802655220032,"172":0.6186320185661316,"173":0.7110392451286316,"174":-0.6476030349731445,"175":-0.5843090415000916,"176":0.5235319137573242,"177":-0.6143447160720825,"178":-0.049916546791791916,"179":0.7234957814216614,"180":0.013805045746266842,"181":0.5720117688179016,"182":-0.21622157096862793,"183":1.0933754444122314,"184":0.10243227332830429,"185":1.3845726251602173,"186":0.11035849153995514,"187":-0.14067582786083221,"188":0.20540422201156616,"189":-0.05894748121500015,"190":0.07920019328594208,"191":0.17352981865406036,"192":-0.03196632117033005,"193":-0.3107793629169464,"194":0.5223482251167297,"195":0.5332883596420288,"196":-0.519108235836029,"197":0.4870896637439728,"198":-0.3651050627231598,"199":-0.5391801595687866,"200":-0.43286773562431335,"201":-0.08817928284406662,"202":0.3268812596797943,"203":0.12722256779670715,"204":-0.8426076173782349,"205":-0.46388548612594604,"206":-1.5469262599945068,"207":-0.11524765938520432,"208":0.14906252920627594,"209":-0.7658746242523193,"210":-0.32982519268989563,"211":1.0566318035125732,"212":0.3550126850605011,"213":-0.03595448285341263,"214":0.12964101135730743,"215":-0.0001197995079564862,"216":-0.06829138100147247,"217":0.05470710247755051,"218":-0.5928253531455994,"219":-0.0812341496348381,"220":1.4163919687271118,"221":-0.13979025185108185,"222":-0.023895977064967155,"223":-0.10175275802612305,"224":-0.2979668378829956,"225":0.054429493844509125,"226":-0.1303982436656952,"227":0.29400137066841125,"228":-0.09662435203790665,"229":0.4109466075897217,"230":-1.0675792694091797,"231":1.4092899560928345,"232":1.1992278099060059,"233":-0.020548999309539795,"234":0.04483725503087044,"235":-0.04051637277007103,"236":-0.0672421082854271,"237":0.010624418966472149,"238":0.6275734305381775,"239":0.1917658895254135,"240":1.647291660308838,"241":0.0893925279378891,"242":-0.1892448365688324,"243":0.326235830783844,"244":-0.6884756684303284,"245":0.15208162367343903,"246":0.3732283115386963,"247":0.9861134886741638,"248":-0.292627215385437,"249":-0.3192906081676483,"250":-0.43081873655319214,"251":-0.1313931941986084,"252":-0.14482781291007996,"253":-0.6905896663665771,"254":0.7231025695800781,"255":0.8055535554885864,"256":-0.6932246088981628,"257":0.7431037425994873,"258":1.035840630531311,"259":-0.729686975479126,"260":-0.881641149520874,"261":0.03248627483844757,"262":0.6628286838531494,"263":0.21407072246074677,"264":-0.09722331166267395,"265":-0.36981201171875,"266":-0.6841756105422974,"267":-1.0762537717819214,"268":-0.7087706327438354,"269":-0.8494788408279419,"270":-0.5355290770530701,"271":-0.2877310514450073,"272":0.4786105751991272,"273":0.4059765636920929,"274":-0.40091684460639954,"275":-0.42352816462516785,"276":0.34912222623825073,"277":-0.3318474292755127,"278":-0.19351908564567566,"279":0.39913833141326904,"280":-0.23106816411018372,"281":0.6462082266807556,"282":0.24524235725402832,"283":0.899502694606781,"284":0.3448353111743927,"285":-0.0019044313812628388,"286":0.3210548162460327,"287":-0.28584983944892883,"288":-0.6916382908821106,"289":-1.8752516508102417,"290":-1.1667237281799316,"291":-0.42450717091560364,"292":-0.5484954118728638,"293":0.4447755515575409,"294":-0.4711955189704895,"295":-0.4562245011329651,"296":0.38412341475486755,"297":-0.40696972608566284,"298":-0.91745924949646,"299":0.45239999890327454,"300":0.43718570470809937,"301":0.11930505931377411,"302":0.17150256037712097,"303":-0.39345672726631165,"304":0.8592877388000488,"305":0.5756151676177979,"306":0.06101919710636139,"307":-0.1909032166004181,"308":-0.6476991176605225,"309":0.12397788465023041,"310":0.4306439161300659,"311":0.02487705834209919,"312":0.4230441749095917,"313":-0.25507891178131104,"314":0.34970399737358093,"315":0.27089187502861023,"316":-0.27895575761795044,"317":0.3879397213459015,"318":-0.14395363628864288,"319":-0.33153098821640015,"320":-0.24838268756866455,"321":0.048892270773649216,"322":0.4129994213581085,"323":-0.33930373191833496,"324":-0.4592302441596985,"325":-0.9859758019447327,"326":0.01756647787988186,"327":0.10020256042480469,"328":0.27201738953590393,"329":0.00044784569763578475,"330":-0.79758620262146,"331":-1.4432274103164673,"332":-0.560716986656189,"333":0.29762589931488037,"334":-0.4723271429538727,"335":-0.32186561822891235,"336":0.4230242967605591,"337":-0.4594414532184601,"338":0.3997431993484497,"339":0.3067290186882019,"340":-0.46901997923851013,"341":1.5987911224365234,"342":-0.12122729420661926,"343":-0.4954177439212799,"344":-0.4943599998950958,"345":0.3640552759170532,"346":0.5392143130302429,"347":-0.05983145534992218,"348":-0.02113635092973709,"349":-0.3254913091659546,"350":0.4320422410964966,"351":0.10901781171560287,"352":-0.1518717259168625,"353":-0.9432953000068665,"354":0.8100075125694275,"355":0.7653859853744507,"356":-0.6397013068199158,"357":0.7561417818069458,"358":0.7382786870002747,"359":-0.8413536548614502,"360":0.1031005010008812,"361":-1.2204912900924683,"362":-0.8187757134437561,"363":-0.5368720889091492,"364":-0.4501604437828064,"365":-0.9025237560272217,"366":-0.3891587555408478,"367":-0.09255704283714294,"368":0.10014870762825012,"369":0.11464542895555496,"370":0.6294975280761719,"371":-0.49778252840042114,"372":0.16688407957553864,"373":0.23531103134155273,"374":-0.39858171343803406,"375":-0.36110296845436096,"376":0.24439990520477295,"377":-0.3443560302257538,"378":1.0149950981140137,"379":0.5023503303527832,"380":-0.3579195737838745,"381":-0.1042555719614029,"382":0.250229150056839,"383":-0.3023921549320221,"384":0.1482759714126587,"385":-0.12549859285354614,"386":-0.5693050622940063,"387":-0.7492426633834839,"388":-0.5524018406867981,"389":-0.16186730563640594,"390":0.1990135759115219,"391":-0.9309597015380859,"392":0.08373202383518219,"393":0.3809889554977417,"394":-0.45693108439445496,"395":-0.47484928369522095,"396":0.47255411744117737,"397":-0.5129860639572144,"398":0.43548163771629333,"399":0.4900427758693695}},"cellActivationHidden":{"rows":20,"columns":20,"weights":{"0":-0.035266973078250885,"1":0.028618892654776573,"2":-0.0021698244381695986,"3":-0.029970448464155197,"4":-0.029947824776172638,"5":-0.007500270381569862,"6":-0.005086812190711498,"7":0.021153658628463745,"8":-0.0033641387708485126,"9":-0.021255938336253166,"10":-0.04112757742404938,"11":0.04329816997051239,"12":0.04226578399538994,"13":0.011476093903183937,"14":0.05480647459626198,"15":-0.05389668792486191,"16":0.001680552028119564,"17":0.03516941890120506,"18":-0.012827926315367222,"19":-0.0015012338990345597,"20":0.014833851717412472,"21":-0.049612175673246384,"22":-0.03140661120414734,"23":0.05011063069105148,"24":-0.02913975715637207,"25":-0.03986065089702606,"26":0.034555040299892426,"27":-0.02834385447204113,"28":0.029320798814296722,"29":0.011511559598147869,"30":0.0065679168328642845,"31":-0.03851178660988808,"32":-0.05593434348702431,"33":0.0366954579949379,"34":0.0018512036185711622,"35":0.0428026057779789,"36":0.008016407489776611,"37":-0.03323978930711746,"38":-0.029385028406977654,"39":0.02570309117436409,"40":0.028548959642648697,"41":-0.04210042580962181,"42":-0.025769684463739395,"43":0.04162800312042236,"44":-0.023722050711512566,"45":0.05360763147473335,"46":-0.011737090535461903,"47":0.05564406141638756,"48":-0.030705783516168594,"49":0.03406758978962898,"50":0.04472319409251213,"51":-0.012869797646999359,"52":0.029881350696086884,"53":0.027325095608830452,"54":0.021067308261990547,"55":-0.05343402922153473,"56":-0.04492892697453499,"57":0.025726700201630592,"58":0.048779357224702835,"59":-0.018252655863761902,"60":-0.03676855191588402,"61":-0.03112182393670082,"62":-0.011263508349657059,"63":0.05518142506480217,"64":0.007199814077466726,"65":-0.031222069635987282,"66":-0.030130557715892792,"67":0.0431048721075058,"68":0.03246906399726868,"69":0.0006383730215020478,"70":-0.009536831639707088,"71":-0.01960545778274536,"72":0.04612294211983681,"73":-0.01460454985499382,"74":0.04810161143541336,"75":0.04257006198167801,"76":-0.04381576552987099,"77":-0.010070796124637127,"78":0.043221596628427505,"79":-0.046741753816604614,"80":-0.04996589198708534,"81":-0.026507273316383362,"82":-0.05252648890018463,"83":0.02306293696165085,"84":-0.029919583350419998,"85":-0.008215360343456268,"86":-0.021919501945376396,"87":0.0341867059469223,"88":0.02581678330898285,"89":-0.030544839799404144,"90":0.04791858419775963,"91":-0.027621805667877197,"92":-0.015922214835882187,"93":0.014804044738411903,"94":0.03295886516571045,"95":-0.02316964417695999,"96":-0.03880956768989563,"97":-0.04737674444913864,"98":0.05416689068078995,"99":0.03624720126390457,"100":0.04230322316288948,"101":0.016706950962543488,"102":-0.0197970662266016,"103":0.008070607669651508,"104":0.03161589056253433,"105":0.013231712393462658,"106":0.04147256910800934,"107":0.03338871896266937,"108":-0.044727522879838943,"109":0.044486455619335175,"110":0.0011875239433720708,"111":0.034074753522872925,"112":0.0034336773678660393,"113":0.04912884160876274,"114":-0.04569734260439873,"115":0.02167530544102192,"116":0.0014629695797339082,"117":-0.057026155292987823,"118":0.014651849865913391,"119":-0.055896177887916565,"120":-0.029701314866542816,"121":-0.02568715810775757,"122":0.006322744768112898,"123":0.03195015341043472,"124":-0.02728012017905712,"125":0.0410829596221447,"126":-0.04649901017546654,"127":0.020252728834748268,"128":0.05428951978683472,"129":-0.004764729179441929,"130":0.022105595096945763,"131":-0.0003793582727666944,"132":0.03828924149274826,"133":0.03381463512778282,"134":-0.01872083730995655,"135":0.03516444191336632,"136":-0.05309118703007698,"137":0.007604222744703293,"138":0.011939149349927902,"139":-0.03584273159503937,"140":-0.016039500012993813,"141":-0.0457909069955349,"142":-0.02561170421540737,"143":0.021153999492526054,"144":0.022526605054736137,"145":0.045468997210264206,"146":0.010262427851557732,"147":0.04110095649957657,"148":-0.003380468348041177,"149":-0.049463339149951935,"150":0.045275021344423294,"151":0.010173355229198933,"152":0.03739040344953537,"153":0.011116228066384792,"154":-0.04685782268643379,"155":0.047694116830825806,"156":0.030413277447223663,"157":0.04073353856801987,"158":0.029038995504379272,"159":-0.01365111768245697,"160":-0.025051698088645935,"161":-0.05462079867720604,"162":-0.04003738984465599,"163":-0.013916293159127235,"164":0.054404422640800476,"165":0.015574171207845211,"166":-0.037102632224559784,"167":-0.015332464128732681,"168":0.012935671955347061,"169":-0.032199155539274216,"170":-0.05254482105374336,"171":-0.024675415828824043,"172":0.015935879200696945,"173":-0.03923654556274414,"174":0.023096561431884766,"175":0.025722980499267578,"176":-0.012101294472813606,"177":-0.014328998513519764,"178":-0.043213874101638794,"179":-0.003731106873601675,"180":-0.04608554765582085,"181":-0.030570372939109802,"182":-0.02866632677614689,"183":0.02232806384563446,"184":0.02990790084004402,"185":0.026608629152178764,"186":-0.03364051505923271,"187":0.025238003581762314,"188":0.014467287808656693,"189":-0.03253281116485596,"190":-0.013020794838666916,"191":-0.028778133913874626,"192":-0.030889470130205154,"193":-0.020281465724110603,"194":0.03211088478565216,"195":0.03996988385915756,"196":0.005510261747986078,"197":-0.05562695115804672,"198":0.01571550965309143,"199":-0.021676963195204735,"200":-0.006912513170391321,"201":-0.010132310912013054,"202":0.04130687192082405,"203":-0.0044561587274074554,"204":0.009498007595539093,"205":0.04683171957731247,"206":0.05712827295064926,"207":0.05538233742117882,"208":-0.003115963190793991,"209":-0.012241780757904053,"210":0.003998280502855778,"211":0.02233324944972992,"212":-0.03681185841560364,"213":0.02514524757862091,"214":0.02760838344693184,"215":0.021460004150867462,"216":-0.00978265330195427,"217":-0.05454742908477783,"218":0.025811538100242615,"219":0.0412328876554966,"220":-0.04442144185304642,"221":0.04349052533507347,"222":-0.03958866372704506,"223":0.009870775043964386,"224":0.05483787879347801,"225":-0.003412553109228611,"226":0.028051434084773064,"227":0.015275411307811737,"228":-0.05120015889406204,"229":0.044302381575107574,"230":0.05441414564847946,"231":-0.03490215167403221,"232":-0.03783653303980827,"233":-0.0011172337690368295,"234":0.03795197233557701,"235":0.04758256673812866,"236":0.006735060829669237,"237":0.01277993805706501,"238":-0.016642015427350998,"239":-0.04940096288919449,"240":-0.044513851404190063,"241":0.02193189226090908,"242":-0.03328509256243706,"243":0.03941472992300987,"244":0.04218645393848419,"245":0.051049910485744476,"246":0.049859341233968735,"247":-0.02241654507815838,"248":-0.027827458456158638,"249":0.05486446991562843,"250":-0.050029680132865906,"251":0.030718982219696045,"252":0.03489525243639946,"253":0.0010110557777807117,"254":-0.024725571274757385,"255":0.010809779167175293,"256":-0.04203169047832489,"257":-0.03439994156360626,"258":0.03917502611875534,"259":0.036127232015132904,"260":-0.053280897438526154,"261":0.0280300322920084,"262":-0.0006745767313987017,"263":-0.038408711552619934,"264":0.04868502542376518,"265":0.036617450416088104,"266":-0.01813255250453949,"267":0.04924839735031128,"268":-0.018592594191432,"269":0.02210061438381672,"270":-0.04090122878551483,"271":0.014681324362754822,"272":0.04558983072638512,"273":0.004341792780905962,"274":0.04064583778381348,"275":-0.007057373411953449,"276":0.011841250583529472,"277":-0.017515938729047775,"278":0.03765670955181122,"279":0.0474429614841938,"280":-0.027516448870301247,"281":0.04062570258975029,"282":-0.03565770760178566,"283":-0.015142947435379028,"284":0.005874752067029476,"285":0.05081744119524956,"286":0.007985065691173077,"287":-0.05379943549633026,"288":-0.05233750864863396,"289":0.012869443744421005,"290":-0.03941483423113823,"291":0.049571890383958817,"292":-0.0427681989967823,"293":-0.047755829989910126,"294":0.03454150632023811,"295":0.05580580607056618,"296":-0.02933155745267868,"297":-0.046527452766895294,"298":-0.03524100035429001,"299":0.0012745759449899197,"300":0.053439173847436905,"301":0.04794580116868019,"302":-0.011713959276676178,"303":0.010784394107758999,"304":0.036278076469898224,"305":0.041439734399318695,"306":-0.04104405641555786,"307":0.05084417015314102,"308":-0.030755463987588882,"309":-0.005543529987335205,"310":-0.015926143154501915,"311":-0.0378766804933548,"312":-0.030223123729228973,"313":0.051581237465143204,"314":0.019212404265999794,"315":0.044090744107961655,"316":0.025885101407766342,"317":0.010174831375479698,"318":0.03009335696697235,"319":0.05673711746931076,"320":-0.04807306081056595,"321":-0.016088979318737984,"322":-0.035486966371536255,"323":-0.05375854671001434,"324":-0.05687624588608742,"325":0.023475274443626404,"326":-0.054407451301813126,"327":0.05027513578534126,"328":-0.02621806599199772,"329":0.007036868017166853,"330":0.030310317873954773,"331":-0.045421820133924484,"332":-0.013773894868791103,"333":0.03413427621126175,"334":-0.047532111406326294,"335":0.05304102227091789,"336":-0.03561517596244812,"337":-0.021214287728071213,"338":-0.016478799283504486,"339":0.035338085144758224,"340":0.008103923872113228,"341":-0.05267490819096565,"342":-0.036022379994392395,"343":0.007464945316314697,"344":0.054467760026454926,"345":-0.04082892835140228,"346":0.03813410922884941,"347":-0.023628877475857735,"348":-0.007981617003679276,"349":-0.01642153039574623,"350":0.011000842787325382,"351":-0.021224528551101685,"352":0.037261564284563065,"353":-0.02991747111082077,"354":0.028853343799710274,"355":0.018346106633543968,"356":-0.015214644372463226,"357":0.0014483743580058217,"358":0.035581622272729874,"359":-0.03638004884123802,"360":-0.003835332579910755,"361":-0.05121476203203201,"362":-0.04706306383013725,"363":0.009028702974319458,"364":0.048681456595659256,"365":-0.03865776211023331,"366":-0.010258745402097702,"367":0.003202653955668211,"368":-0.022101178765296936,"369":0.022466398775577545,"370":0.044987551867961884,"371":-0.046387653797864914,"372":0.005291502457112074,"373":-0.00520095182582736,"374":0.009338883683085442,"375":0.0014819438802078366,"376":0.007878456264734268,"377":-0.024788977578282356,"378":-0.022716425359249115,"379":0.03358449786901474,"380":0.007686086464673281,"381":-0.05200526863336563,"382":0.009163892827928066,"383":0.037592813372612,"384":-0.05024610087275505,"385":0.05687199905514717,"386":0.007046624552458525,"387":-0.01700892485678196,"388":0.010733481496572495,"389":-0.04421372711658478,"390":0.031179310753941536,"391":-0.05111410468816757,"392":0.011971103958785534,"393":0.01045607402920723,"394":-0.024300016462802887,"395":0.005917437840253115,"396":0.02743981033563614,"397":-0.05384030193090439,"398":-0.04338936507701874,"399":-0.016041424125432968}},"cellActivationBias":{"rows":20,"columns":1,"weights":{"0":-0.42634910345077515,"1":-0.2039961963891983,"2":0.2509729266166687,"3":0.3396640717983246,"4":-0.06048157066106796,"5":0.03823310509324074,"6":-0.2648514211177826,"7":0.03197106719017029,"8":0.49326539039611816,"9":-0.3435206711292267,"10":0.6313779950141907,"11":0.144492506980896,"12":-0.40906357765197754,"13":0.2975352704524994,"14":-0.1537574678659439,"15":-0.1509038358926773,"16":-0.3079264760017395,"17":-0.11468461155891418,"18":0.19303864240646362,"19":0.16849921643733978}}},{"inputMatrix":{"rows":20,"columns":20,"weights":{"0":0.861723005771637,"1":0.5645678639411926,"2":0.19763527810573578,"3":-0.3106096386909485,"4":-0.6205587387084961,"5":1.1075063943862915,"6":-0.030491946265101433,"7":0.6668241620063782,"8":0.318073570728302,"9":0.6859712600708008,"10":-0.8170660734176636,"11":0.49701371788978577,"12":-0.1351923793554306,"13":-0.6890871524810791,"14":-0.9727281332015991,"15":0.4618528187274933,"16":-0.8321304321289062,"17":-0.5531832575798035,"18":-0.4845797121524811,"19":-0.4575274884700775,"20":0.44890764355659485,"21":-0.16118989884853363,"22":-0.8523251414299011,"23":-0.4753606915473938,"24":-0.5257815718650818,"25":0.1642119437456131,"26":0.057974673807621,"27":-0.0239828173071146,"28":1.9412729740142822,"29":0.38267236948013306,"30":0.143019899725914,"31":-0.4408299922943115,"32":-0.9806604385375977,"33":0.1629030704498291,"34":-0.3518027365207672,"35":0.3572198748588562,"36":-0.5454736948013306,"37":-0.9711717367172241,"38":0.2052091807126999,"39":0.13715894520282745,"40":-0.0070151290856301785,"41":-0.40650102496147156,"42":-0.7356899380683899,"43":-0.30925509333610535,"44":-0.6660142540931702,"45":0.2619995176792145,"46":-0.7886756062507629,"47":-0.22550512850284576,"48":0.9982903599739075,"49":0.08666626363992691,"50":0.3738608658313751,"51":-0.46377453207969666,"52":-1.1389058828353882,"53":0.2831193804740906,"54":-0.4206150770187378,"55":0.33569180965423584,"56":-0.9843194484710693,"57":-0.18527811765670776,"58":-0.00461729196831584,"59":0.5892084836959839,"60":0.0775960236787796,"61":-0.16416777670383453,"62":-0.2916678786277771,"63":-0.32029324769973755,"64":-0.44920432567596436,"65":0.2557450234889984,"66":0.2622368633747101,"67":0.15086929500102997,"68":1.5938128232955933,"69":-0.009654819034039974,"70":0.18637926876544952,"71":0.01643257588148117,"72":-0.5075021386146545,"73":0.5135987997055054,"74":-0.3103986084461212,"75":0.3474951684474945,"76":-0.5701165795326233,"77":-1.089751124382019,"78":0.40235042572021484,"79":0.5108181238174438,"80":0.29316002130508423,"81":0.5775222778320312,"82":0.6526404619216919,"83":-0.6471602916717529,"84":-0.5541353821754456,"85":-0.12227413803339005,"86":-0.12247452139854431,"87":0.7493456602096558,"88":0.2672467529773712,"89":0.1638827919960022,"90":0.26393231749534607,"91":0.6611955165863037,"92":-0.27629753947257996,"93":-0.018801387399435043,"94":-0.6047396659851074,"95":0.6021572947502136,"96":-0.8436976671218872,"97":-0.2408265471458435,"98":0.16596953570842743,"99":-0.05526979640126228,"100":0.8064899444580078,"101":0.2727242410182953,"102":-0.6312819719314575,"103":-0.2323082536458969,"104":-0.18909350037574768,"105":0.30979999899864197,"106":0.5289251804351807,"107":0.015565181151032448,"108":0.45693615078926086,"109":0.3058836758136749,"110":-1.3577661514282227,"111":-0.20209874212741852,"112":-0.9629494547843933,"113":-0.40691784024238586,"114":0.17830950021743774,"115":0.23209792375564575,"116":0.09816624969244003,"117":-0.5257508158683777,"118":-0.6501435041427612,"119":0.05174148827791214,"120":0.5359984040260315,"121":0.3472374379634857,"122":-0.36628618836402893,"123":-1.1791698932647705,"124":-0.5889975428581238,"125":-0.5550906658172607,"126":-0.44472840428352356,"127":0.2338905781507492,"128":0.015300607308745384,"129":0.23605290055274963,"130":0.24219092726707458,"131":-0.14964815974235535,"132":-0.8319878578186035,"133":0.4934503734111786,"134":-0.09914680570363998,"135":1.0387152433395386,"136":-0.7278168201446533,"137":0.18237552046775818,"138":0.14468137919902802,"139":0.5184537768363953,"140":0.017314769327640533,"141":0.9990730285644531,"142":0.029734717682003975,"143":-0.829625129699707,"144":-0.48784205317497253,"145":0.5356871485710144,"146":-0.3860606849193573,"147":0.7830670475959778,"148":0.5798962712287903,"149":0.06609868258237839,"150":-0.8070459365844727,"151":0.1811775267124176,"152":-0.42767035961151123,"153":-0.6646901965141296,"154":-1.3265516757965088,"155":1.155965805053711,"156":-0.7248698472976685,"157":-0.5972042083740234,"158":-0.18319758772850037,"159":0.17464981973171234,"160":0.35314202308654785,"161":0.9774335026741028,"162":0.8433814644813538,"163":-0.7222024202346802,"164":-0.6917120814323425,"165":-0.7378080487251282,"166":0.10291363298892975,"167":1.357952356338501,"168":0.480432391166687,"169":0.058716583997011185,"170":0.9331227540969849,"171":1.0205068588256836,"172":-0.004474926739931107,"173":-0.07167641818523407,"174":-1.0114493370056152,"175":0.7707730531692505,"176":-0.8375740647315979,"177":-0.5699898600578308,"178":0.17081040143966675,"179":-0.2527160346508026,"180":-0.7258791923522949,"181":0.622404932975769,"182":0.6650147438049316,"183":0.08475758880376816,"184":0.048044778406620026,"185":0.1312689185142517,"186":0.5390573143959045,"187":0.9152821898460388,"188":0.9793998599052429,"189":-1.0310925245285034,"190":0.3888256549835205,"191":0.879127025604248,"192":0.4873190224170685,"193":0.04582037776708603,"194":-1.2437233924865723,"195":0.10728810727596283,"196":0.003264356404542923,"197":-0.6869177222251892,"198":1.1174887418746948,"199":0.09202147275209427,"200":-0.19706480205059052,"201":-0.7663244009017944,"202":-0.8924724459648132,"203":-0.12100833654403687,"204":-0.2058628350496292,"205":-0.08330705761909485,"206":-0.0894855335354805,"207":-0.45524924993515015,"208":0.5557723641395569,"209":-0.17473314702510834,"210":0.982297420501709,"211":-0.6530941128730774,"212":-1.0093321800231934,"213":1.2877304553985596,"214":0.5488091111183167,"215":0.2392142117023468,"216":-0.29414311051368713,"217":-0.46350350975990295,"218":0.348442018032074,"219":1.3616434335708618,"220":-0.012616701424121857,"221":0.519716203212738,"222":0.4148414433002472,"223":-0.7739395499229431,"224":-0.5154222846031189,"225":0.29789167642593384,"226":-0.14411169290542603,"227":0.6104105114936829,"228":0.22332477569580078,"229":-0.0949571430683136,"230":-0.297337144613266,"231":0.6663381457328796,"232":0.05764136463403702,"233":-0.2959539592266083,"234":-0.5302543044090271,"235":0.9460182189941406,"236":-0.4864872694015503,"237":-0.45700204372406006,"238":-0.6271638870239258,"239":-0.18747180700302124,"240":-0.29408955574035645,"241":1.1502150297164917,"242":0.2667867839336395,"243":-0.4345768988132477,"244":-0.2595718502998352,"245":-0.3661821186542511,"246":0.3094433546066284,"247":0.8773110508918762,"248":0.019846420735120773,"249":-0.6513816118240356,"250":-0.5638408660888672,"251":1.20563805103302,"252":0.2771815061569214,"253":0.17439810931682587,"254":-0.2688329219818115,"255":0.5476524829864502,"256":-0.034002047032117844,"257":-0.26371538639068604,"258":0.5525599718093872,"259":0.3155010938644409,"260":0.1558973342180252,"261":0.59975665807724,"262":-0.03323673456907272,"263":-0.7274852395057678,"264":-0.4601743519306183,"265":-0.16268065571784973,"266":-0.16568928956985474,"267":0.5681942105293274,"268":0.24736225605010986,"269":-0.022012384608387947,"270":-0.011931116692721844,"271":0.17074735462665558,"272":-0.248769149184227,"273":-0.14058440923690796,"274":-0.542627215385437,"275":0.7790728211402893,"276":-0.5933924913406372,"277":-0.1842631846666336,"278":-0.14181147515773773,"279":0.004738064482808113,"280":-0.20093101263046265,"281":0.6133182644844055,"282":0.18995946645736694,"283":-1.1869739294052124,"284":-1.000929832458496,"285":0.10120987147092819,"286":-0.586990237236023,"287":0.4490167200565338,"288":-0.2031020224094391,"289":-0.46306389570236206,"290":-0.3540820777416229,"291":0.3608822524547577,"292":-0.06190512329339981,"293":0.02583962120115757,"294":-0.5609713196754456,"295":1.4101637601852417,"296":-0.9461675882339478,"297":0.2857624888420105,"298":-0.19545914232730865,"299":0.1909273862838745,"300":0.7407666444778442,"301":0.8921111822128296,"302":0.3556588292121887,"303":-1.170530915260315,"304":-1.0585719347000122,"305":0.1869601160287857,"306":-0.2062978446483612,"307":1.2201001644134521,"308":0.3120310306549072,"309":0.3532198369503021,"310":-0.03895408660173416,"311":0.8725260496139526,"312":0.07817155867815018,"313":0.28608784079551697,"314":-0.8124050498008728,"315":1.2355505228042603,"316":-1.5996216535568237,"317":-0.19341745972633362,"318":0.14630338549613953,"319":0.1829608976840973,"320":-0.1453692615032196,"321":1.3747901916503906,"322":0.23672114312648773,"323":-0.20045976340770721,"324":-0.050406575202941895,"325":-0.07378531247377396,"326":0.09170810878276825,"327":0.9925770163536072,"328":-0.006309029180556536,"329":-0.43861594796180725,"330":-0.6656748056411743,"331":0.8215905427932739,"332":0.044003479182720184,"333":-0.14336442947387695,"334":-0.7713947296142578,"335":0.44640305638313293,"336":0.03927337005734444,"337":-0.09416931867599487,"338":0.04424344375729561,"339":0.041084617376327515,"340":0.195906400680542,"341":0.46001681685447693,"342":-0.09389445185661316,"343":-0.8013376593589783,"344":-0.568467915058136,"345":0.514174222946167,"346":0.30228349566459656,"347":0.35376954078674316,"348":0.9616387486457825,"349":-0.05689230188727379,"350":-0.3296091556549072,"351":0.04814654588699341,"352":-1.2979854345321655,"353":-0.061409950256347656,"354":-0.4952840805053711,"355":1.0009706020355225,"356":-1.0380886793136597,"357":-0.6998180747032166,"358":-0.043668899685144424,"359":0.17382119596004486,"360":-0.1785917431116104,"361":0.2945174276828766,"362":-0.3759964108467102,"363":-0.32597121596336365,"364":-0.23970448970794678,"365":0.02062258869409561,"366":-0.09002131968736649,"367":0.39479073882102966,"368":0.8080282211303711,"369":-0.05560190603137016,"370":0.2668319046497345,"371":-0.1824430227279663,"372":-0.4800962805747986,"373":0.1457235962152481,"374":-0.6814791560173035,"375":0.44207534193992615,"376":-0.6081165075302124,"377":-0.5070946216583252,"378":0.3784486949443817,"379":0.40001440048217773,"380":0.6763250827789307,"381":0.28606361150741577,"382":0.011711745522916317,"383":-0.8531572818756104,"384":-0.606445848941803,"385":0.43490222096443176,"386":-0.42979884147644043,"387":0.584953784942627,"388":0.46655574440956116,"389":0.6565288305282593,"390":0.05881345644593239,"391":0.34690728783607483,"392":-0.4027658700942993,"393":0.10769428312778473,"394":-0.4807892441749573,"395":0.8293294906616211,"396":-0.8931056261062622,"397":-0.13836777210235596,"398":-0.1875743269920349,"399":0.33247247338294983}},"inputHidden":{"rows":20,"columns":20,"weights":{"0":-0.035238269716501236,"1":-0.04940418526530266,"2":-0.023720089346170425,"3":-0.05142081156373024,"4":0.011068693362176418,"5":-0.03212537616491318,"6":0.03468086197972298,"7":0.03357025608420372,"8":-0.02299649454653263,"9":0.00011701681069098413,"10":0.019470850005745888,"11":0.007645356468856335,"12":-0.041378043591976166,"13":-0.049359437078237534,"14":0.002842361805960536,"15":0.026773735880851746,"16":-0.01755864918231964,"17":-0.04127714782953262,"18":-0.029222307726740837,"19":-0.04381375387310982,"20":-0.04806644469499588,"21":0.032884299755096436,"22":0.03598412126302719,"23":-0.05248519778251648,"24":0.011788321658968925,"25":-0.031086809933185577,"26":-0.0419141948223114,"27":-0.03789940103888512,"28":-0.024216217920184135,"29":0.04674344137310982,"30":0.040341999381780624,"31":0.0102998623624444,"32":-0.008979570120573044,"33":-0.046515703201293945,"34":-0.008040742948651314,"35":0.03951745480298996,"36":-0.02418215572834015,"37":-0.036241836845874786,"38":-0.024269890040159225,"39":-0.031312763690948486,"40":-0.027597730979323387,"41":-0.029032878577709198,"42":-0.016086863353848457,"43":0.0487220399081707,"44":-0.04501828923821449,"45":0.03917257860302925,"46":0.04419416934251785,"47":-0.016505474224686623,"48":0.008962214924395084,"49":0.04746798425912857,"50":0.02278791181743145,"51":0.0015105687780305743,"52":-0.04275253415107727,"53":-0.005879527423530817,"54":0.012942804023623466,"55":-0.0208510123193264,"56":0.05520785599946976,"57":-0.053239040076732635,"58":0.014374000951647758,"59":0.03879666328430176,"60":-0.04450567439198494,"61":-0.0051895370706915855,"62":-0.05142701789736748,"63":0.014249476604163647,"64":-0.017288975417613983,"65":-0.011947888880968094,"66":-0.019197918474674225,"67":0.044547099620103836,"68":-0.035585127770900726,"69":0.01044725812971592,"70":-0.01613808423280716,"71":0.02280361019074917,"72":-0.005181402899324894,"73":-0.05001208558678627,"74":-0.010673620738089085,"75":-0.05164932459592819,"76":0.050637222826480865,"77":0.0420980229973793,"78":-0.013604526408016682,"79":-0.0008631127420812845,"80":-0.008476479910314083,"81":-0.0320013165473938,"82":-0.05506114289164543,"83":-0.04173678532242775,"84":0.054472342133522034,"85":-0.03213084861636162,"86":-0.032925669103860855,"87":0.0553477481007576,"88":0.004529363010078669,"89":0.050557516515254974,"90":-0.011944812722504139,