{"sizes":[20,40,30,40,10],"layers":[{"0":{},"1":{},"2":{},"3":{},"4":{},"5":{},"6":{},"7":{},"8":{},"9":{},"10":{},"11":{},"12":{},"13":{},"14":{},"15":{},"16":{},"17":{},"18":{},"19":{}},{"0":{"bias":-0.31855204701423645,"weights":{"0":-0.21967098116874695,"1":0.6867684125900269,"2":0.2603504955768585,"3":-0.1369515210390091,"4":0.02743097022175789,"5":-0.048302389681339264,"6":-0.004300478380173445,"7":-0.10799292474985123,"8":-0.06666546314954758,"9":-0.3302589952945709,"10":-0.06647047400474548,"11":0.5998452305793762,"12":0.6955638527870178,"13":-0.1838417947292328,"14":-0.22555436193943024,"15":-0.1257912814617157,"16":0.19920815527439117,"17":-0.1216561570763588,"18":0.11184194684028625,"19":-0.13291852176189423}},"1":{"bias":-0.8204424381256104,"weights":{"0":-0.279691606760025,"1":-0.08022524416446686,"2":-0.2686697244644165,"3":0.007167954929172993,"4":-0.1159115880727768,"5":-0.005310404114425182,"6":-0.07474903762340546,"7":-0.10543487221002579,"8":0.19727252423763275,"9":0.1301901638507843,"10":-0.533751904964447,"11":1.5803163051605225,"12":0.9177465438842773,"13":-0.3658667504787445,"14":-0.07452169060707092,"15":-0.174556702375412,"16":0.14985895156860352,"17":-0.03331613540649414,"18":0.14878250658512115,"19":-0.10417681932449341}},"2":{"bias":1.6151487827301025,"weights":{"0":-0.09545867145061493,"1":0.0698305293917656,"2":-0.25542202591896057,"3":-0.07124200463294983,"4":-0.14129912853240967,"5":0.05060311406850815,"6":-0.060161296278238297,"7":0.014387983828783035,"8":0.09274522960186005,"9":-0.19416168332099915,"10":0.3523820638656616,"11":-2.6963202953338623,"12":-0.1015406996011734,"13":0.3348502814769745,"14":0.3382391035556793,"15":0.3736521005630493,"16":-0.15254950523376465,"17":0.09051533043384552,"18":0.014894917607307434,"19":-0.052740465849637985}},"3":{"bias":-1.1429680585861206,"weights":{"0":0.17093005776405334,"1":-0.14583510160446167,"2":0.06699931621551514,"3":0.05172925442457199,"4":0.008531293831765652,"5":0.009292076341807842,"6":-0.0419795960187912,"7":0.008811323903501034,"8":0.04657736048102379,"9":-0.1756434440612793,"10":-0.368388295173645,"11":1.8501372337341309,"12":0.9900104999542236,"13":-0.2539360821247101,"14":-0.10510746389627457,"15":-0.023927681148052216,"16":0.15012912452220917,"17":-0.17043399810791016,"18":-0.027346936985850334,"19":-0.03313523903489113}},"4":{"bias":0.11538371443748474,"weights":{"0":-0.04828914627432823,"1":-0.026658374816179276,"2":0.09340895712375641,"3":1.485223650932312,"4":0.3635091781616211,"5":-0.2964223027229309,"6":-0.10075436532497406,"7":-0.07977963238954544,"8":-0.1004701480269432,"9":-0.14309170842170715,"10":-0.11975422501564026,"11":1.2436987161636353,"12":1.0647000074386597,"13":-0.15700110793113708,"14":-0.4010332524776459,"15":-0.43107569217681885,"16":-0.1135651171207428,"17":-0.023696862161159515,"18":-0.08458876609802246,"19":0.05796131119132042}},"5":{"bias":0.2516016960144043,"weights":{"0":-0.06760081648826599,"1":0.06242746487259865,"2":-0.1359694004058838,"3":0.09030549973249435,"4":0.015728099271655083,"5":-0.06506253033876419,"6":0.04759996011853218,"7":0.05515734851360321,"8":-0.07836268842220306,"9":0.31351447105407715,"10":0.3417413830757141,"11":-1.2052615880966187,"12":0.13985852897167206,"13":0.28496262431144714,"14":0.4224177896976471,"15":0.2873150110244751,"16":-0.1436811238527298,"17":0.11529573053121567,"18":0.1437540203332901,"19":0.055329978466033936}},"6":{"bias":0.47037243843078613,"weights":{"0":0.06556279957294464,"1":0.12475355714559555,"2":0.09820384532213211,"3":0.045699235051870346,"4":0.08500801771879196,"5":0.013352137058973312,"6":-0.2756321430206299,"7":-0.0370648019015789,"8":0.4974152147769928,"9":0.4599120020866394,"10":0.32818445563316345,"11":-1.3118795156478882,"12":-0.1465296596288681,"13":0.14493796229362488,"14":0.20132024586200714,"15":0.0853787362575531,"16":0.18052725493907928,"17":-0.09412942826747894,"18":0.1709768921136856,"19":-0.14697128534317017}},"7":{"bias":0.5187322497367859,"weights":{"0":-0.042547281831502914,"1":0.09449392557144165,"2":-0.09095446020364761,"3":-0.07650704681873322,"4":-0.11756020784378052,"5":0.15581156313419342,"6":0.15230336785316467,"7":0.012357841245830059,"8":0.2216666042804718,"9":-0.016930991783738136,"10":0.04598061740398407,"11":-1.719849944114685,"12":-1.0072827339172363,"13":0.18194586038589478,"14":-0.01862087845802307,"15":0.24852953851222992,"16":0.0026303695049136877,"17":-0.18609291315078735,"18":-0.15639108419418335,"19":0.09468849003314972}},"8":{"bias":0.8094647526741028,"weights":{"0":0.1405794322490692,"1":-0.11766555905342102,"2":0.06574808806180954,"3":0.1402435302734375,"4":-0.1838383674621582,"5":0.028731297701597214,"6":0.17882150411605835,"7":-0.09581407159566879,"8":0.19067443907260895,"9":0.08143814653158188,"10":0.04101312905550003,"11":-1.391650676727295,"12":-0.11228808760643005,"13":0.20886340737342834,"14":0.09103553742170334,"15":-0.09483855217695236,"16":-0.13121968507766724,"17":-0.10383514314889908,"18":-0.022621886804699898,"19":-0.17763328552246094}},"9":{"bias":0.21220235526561737,"weights":{"0":0.0379643589258194,"1":0.005699375178664923,"2":-0.07460442185401917,"3":0.6043965220451355,"4":-0.37999823689460754,"5":-0.14147834479808807,"6":0.20519143342971802,"7":-0.05789276584982872,"8":0.06853553652763367,"9":0.06959362328052521,"10":-0.1975075602531433,"11":0.9419443607330322,"12":-0.03766883909702301,"13":-0.44936880469322205,"14":-0.3763365149497986,"15":-0.362763911485672,"16":0.07743450254201889,"17":-0.1627984642982483,"18":-0.05519518628716469,"19":-0.1113366112112999}},"10":{"bias":0.13370957970619202,"weights":{"0":0.035180363804101944,"1":-0.20822793245315552,"2":0.05330619961023331,"3":0.17105549573898315,"4":-0.3198874294757843,"5":0.3206159770488739,"6":-0.017527397722005844,"7":-0.09898339211940765,"8":-0.13467414677143097,"9":-0.12396302074193954,"10":0.042598623782396317,"11":-0.704800546169281,"12":-0.35870876908302307,"13":0.04733540862798691,"14":0.31095603108406067,"15":0.26764193177223206,"16":-0.10251342505216599,"17":-0.07454132288694382,"18":-0.11418260633945465,"19":-0.14427050948143005}},"11":{"bias":-0.4889679253101349,"weights":{"0":0.14681793749332428,"1":-7.242171764373779,"2":-2.2667014598846436,"3":0.1553223878145218,"4":0.10265766829252243,"5":0.006516319699585438,"6":0.16619297862052917,"7":0.015990886837244034,"8":0.04639316350221634,"9":0.0910588875412941,"10":0.7871850728988647,"11":-3.9456512928009033,"12":-1.6610640287399292,"13":0.7924219369888306,"14":0.5128424763679504,"15":0.8263285160064697,"16":-0.1845015585422516,"17":-0.09988567233085632,"18":-0.19200478494167328,"19":-0.12805287539958954}},"12":{"bias":-0.7307740449905396,"weights":{"0":-0.007765252608805895,"1":0.022174490615725517,"2":-0.01915590837597847,"3":0.015373734757304192,"4":0.05193468555808067,"5":-0.021511705592274666,"6":0.13678498566150665,"7":0.30311593413352966,"8":-0.5028492212295532,"9":1.0110511779785156,"10":-0.24744346737861633,"11":0.9594948887825012,"12":0.9814668297767639,"13":-0.11800757050514221,"14":-0.23219458758831024,"15":-0.5107614398002625,"16":-0.04014239460229874,"17":-0.10215170681476593,"18":-0.013230020180344582,"19":0.05926010385155678}},"13":{"bias":-0.526386559009552,"weights":{"0":-0.033938851207494736,"1":-0.020798735320568085,"2":-0.10072445869445801,"3":-0.14088092744350433,"4":-0.09010161459445953,"5":0.2779316306114197,"6":0.19447804987430573,"7":0.051660165190696716,"8":-0.06853989511728287,"9":-0.10923291742801666,"10":-0.260166198015213,"11":1.2721056938171387,"12":0.34554043412208557,"13":-0.16817732155323029,"14":-0.21861149370670319,"15":-0.03924938291311264,"16":-0.03113379329442978,"17":0.014925510622560978,"18":0.003805524902418256,"19":0.13136664032936096}},"14":{"bias":1.1391068696975708,"weights":{"0":-0.02426927164196968,"1":0.024450670927762985,"2":-0.14505338668823242,"3":-0.046621497720479965,"4":0.529902994632721,"5":-0.5257729291915894,"6":0.23344293236732483,"7":0.05574294552206993,"8":0.08490542322397232,"9":0.11105969548225403,"10":0.6189759969711304,"11":-1.679227352142334,"12":-1.2028021812438965,"13":0.34242644906044006,"14":0.3197627365589142,"15":0.44387659430503845,"16":-0.09349284321069717,"17":0.013198737986385822,"18":-0.06677751243114471,"19":0.19123588502407074}},"15":{"bias":0.3862358629703522,"weights":{"0":0.13410121202468872,"1":-0.008955770172178745,"2":0.22108134627342224,"3":-0.05936827138066292,"4":-0.9747885465621948,"5":-0.4294581413269043,"6":0.16461877524852753,"7":0.05938900262117386,"8":0.09341637790203094,"9":0.1484827995300293,"10":0.4245530664920807,"11":-1.9124804735183716,"12":-1.274957537651062,"13":0.3267482817173004,"14":0.1043780967593193,"15":0.4113842844963074,"16":0.11507834494113922,"17":0.1894856095314026,"18":-0.13419198989868164,"19":0.16656683385372162}},"16":{"bias":-0.9717239141464233,"weights":{"0":-0.04533889517188072,"1":-0.10263200849294662,"2":-0.060646671801805496,"3":0.0028394635301083326,"4":0.08702478557825089,"5":-0.07365365326404572,"6":0.3111310601234436,"7":0.011804657056927681,"8":0.007889144122600555,"9":0.25096288323402405,"10":-0.566527783870697,"11":2.1033074855804443,"12":1.0372055768966675,"13":-0.4714040458202362,"14":-0.4597301185131073,"15":-0.507238507270813,"16":-0.06573688983917236,"17":-0.1695897877216339,"18":0.06631360203027725,"19":0.02033042721450329}},"17":{"bias":0.1861819624900818,"weights":{"0":-0.1414145678281784,"1":-1.6355831623077393,"2":-0.5709720253944397,"3":0.024057164788246155,"4":0.17736339569091797,"5":0.1091637834906578,"6":0.07536445558071136,"7":0.06661049276590347,"8":0.011077679693698883,"9":0.048460498452186584,"10":0.2933468222618103,"11":-2.003143548965454,"12":-1.2193889617919922,"13":0.5909746885299683,"14":0.286665141582489,"15":0.5975247621536255,"16":0.19572803378105164,"17":0.0572492852807045,"18":-0.16097280383110046,"19":0.017629198729991913}},"18":{"bias":0.7666570544242859,"weights":{"0":0.07568223029375076,"1":0.15292055904865265,"2":-0.032935161143541336,"3":0.024393126368522644,"4":-0.05030478909611702,"5":0.047556862235069275,"6":0.08173324167728424,"7":0.05641718581318855,"8":-0.0922456607222557,"9":0.09738399088382721,"10":0.34152230620384216,"11":-1.103540301322937,"12":0.39742177724838257,"13":0.1335478276014328,"14":-0.014940164983272552,"15":-0.01194585021585226,"16":0.11677266657352448,"17":-0.1888384222984314,"18":0.008445873856544495,"19":0.1693018227815628}},"19":{"bias":0.7071645855903625,"weights":{"0":0.00703946128487587,"1":-0.021085185930132866,"2":-0.09611373394727707,"3":0.00015110202366486192,"4":-0.09042760729789734,"5":0.15511788427829742,"6":-0.07567921280860901,"7":0.33744317293167114,"8":-0.12998028099536896,"9":-0.9856027960777283,"10":-0.0038498544599860907,"11":-1.0612672567367554,"12":-0.7404962182044983,"13":0.16711129248142242,"14":-0.04924062266945839,"15":-0.12719811499118805,"16":0.05075434222817421,"17":0.15490567684173584,"18":0.16250038146972656,"19":-0.04345453530550003}},"20":{"bias":-0.7067453265190125,"weights":{"0":-0.08172085881233215,"1":0.14426258206367493,"2":-0.44206854701042175,"3":0.7063401341438293,"4":-0.8675302863121033,"5":0.5288642644882202,"6":-0.3173753321170807,"7":0.11660567671060562,"8":-0.08090044558048248,"9":-0.05545695126056671,"10":-0.11441025882959366,"11":0.8749851584434509,"12":0.8409231901168823,"13":-0.27694860100746155,"14":-0.3182857632637024,"15":-0.1591910868883133,"16":0.10594002902507782,"17":-0.029730478301644325,"18":0.1202736347913742,"19":-0.09493716061115265}},"21":{"bias":0.0900692492723465,"weights":{"0":0.01788395270705223,"1":-0.053348083049058914,"2":-0.03216926008462906,"3":-0.026853742077946663,"4":-0.1662820428609848,"5":-0.007890098728239536,"6":0.11919330805540085,"7":-0.18513943254947662,"8":0.4928362965583801,"9":-0.45866459608078003,"10":0.0680614709854126,"11":-1.3230668306350708,"12":-0.22728556394577026,"13":0.29834288358688354,"14":0.2471950799226761,"15":0.266963928937912,"16":0.10819164663553238,"17":-0.15710072219371796,"18":0.0310159083455801,"19":-0.022194191813468933}},"22":{"bias":0.5197417736053467,"weights":{"0":-0.6005009412765503,"1":-0.16606110334396362,"2":-0.03433685749769211,"3":0.18953800201416016,"4":0.08860748261213303,"5":0.011819849722087383,"6":-0.06988492608070374,"7":0.03917331621050835,"8":-0.13090267777442932,"9":-0.0918927863240242,"10":0.44873255491256714,"11":-1.9175528287887573,"12":-1.601245403289795,"13":0.6558569073677063,"14":0.41377022862434387,"15":0.29073894023895264,"16":-0.1390460878610611,"17":0.02977481670677662,"18":-0.10742998868227005,"19":-0.06435977667570114}},"23":{"bias":-1.2332878112792969,"weights":{"0":-0.15198436379432678,"1":0.13248522579669952,"2":0.16979438066482544,"3":-0.07866525650024414,"4":0.1128448024392128,"5":0.0948888286948204,"6":0.0722101628780365,"7":-0.07387133687734604,"8":-0.005742696579545736,"9":0.016877522692084312,"10":-0.40098825097084045,"11":2.232454299926758,"12":0.7430071234703064,"13":-0.4818970561027527,"14":-0.2748720049858093,"15":-0.4666559100151062,"16":0.04705614596605301,"17":0.004431324079632759,"18":0.189165398478508,"19":0.0872236117720604}},"24":{"bias":2.0999972820281982,"weights":{"0":-3.9307632446289062,"1":0.12510959804058075,"2":0.22468486428260803,"3":-0.12011109292507172,"4":0.0421660915017128,"5":-0.004390081390738487,"6":0.15555086731910706,"7":0.14236105978488922,"8":0.16684141755104065,"9":0.28231027722358704,"10":1.2602412700653076,"11":-3.9500837326049805,"12":-4.253479480743408,"13":0.9527950882911682,"14":0.9016379714012146,"15":0.9584223031997681,"16":0.1650877296924591,"17":0.17726242542266846,"18":-0.09097794443368912,"19":-0.1694904863834381}},"25":{"bias":-0.23742200434207916,"weights":{"0":-0.34527790546417236,"1":-0.16957169771194458,"2":0.6165805459022522,"3":-0.043713781982660294,"4":-0.40135183930397034,"5":0.01113960798829794,"6":0.03773483261466026,"7":-0.012456816621124744,"8":0.0002891688491217792,"9":-0.021104054525494576,"10":-0.08880220353603363,"11":0.22089175879955292,"12":0.637997567653656,"13":-0.1479812115430832,"14":-0.10120333731174469,"15":0.046376291662454605,"16":0.06534183770418167,"17":-0.019952399656176567,"18":-0.0692691057920456,"19":-0.18598023056983948}},"26":{"bias":-1.0281373262405396,"weights":{"0":-0.055347587913274765,"1":-0.07219957560300827,"2":0.10190559923648834,"3":-0.07042469829320908,"4":0.16756613552570343,"5":0.10826856642961502,"6":-0.29334044456481934,"7":0.2634117007255554,"8":0.022867443040013313,"9":-0.07901839166879654,"10":-0.6159762144088745,"11":1.9196363687515259,"12":0.17211651802062988,"13":-0.4350924491882324,"14":-0.3294566571712494,"15":-0.32096296548843384,"16":-0.08103762567043304,"17":-0.02096186764538288,"18":0.03844035789370537,"19":-0.18553324043750763}},"27":{"bias":-0.7025189995765686,"weights":{"0":0.029558537527918816,"1":0.19452570378780365,"2":-0.09737251698970795,"3":-0.06953969597816467,"4":0.023935901001095772,"5":0.1601279079914093,"6":0.026497073471546173,"7":-0.025646591559052467,"8":0.10861504077911377,"9":0.007698646280914545,"10":-0.13265150785446167,"11":1.5342799425125122,"12":0.9032670259475708,"13":-0.2500315308570862,"14":-0.3199748992919922,"15":-0.3267780840396881,"16":0.06710498780012131,"17":-0.03344321623444557,"18":-0.10767810791730881,"19":0.1431700736284256}},"28":{"bias":-1.0447273254394531,"weights":{"0":0.12221366912126541,"1":0.1599069982767105,"2":-0.031702324748039246,"3":0.09180022031068802,"4":-0.0845961794257164,"5":-0.10296056419610977,"6":-0.09399145841598511,"7":-0.007100789342075586,"8":0.13030996918678284,"9":-0.30958452820777893,"10":-0.30419763922691345,"11":1.5865309238433838,"12":0.4676048457622528,"13":-0.12076421082019806,"14":-0.21635554730892181,"15":-0.0959068313241005,"16":0.05355380102992058,"17":0.04003600403666496,"18":0.033109407871961594,"19":0.19634264707565308}},"29":{"bias":0.10316886007785797,"weights":{"0":0.10653559863567352,"1":-0.006128308363258839,"2":-0.066587895154953,"3":0.14069391787052155,"4":-0.29637622833251953,"5":-0.14101362228393555,"6":0.1300763189792633,"7":-0.022075660526752472,"8":0.02908286452293396,"9":0.03280137851834297,"10":0.09997303783893585,"11":-0.3108885884284973,"12":0.3677968978881836,"13":-0.1216336265206337,"14":-0.06329931318759918,"15":0.06751100718975067,"16":-0.031077750027179718,"17":0.026576969772577286,"18":0.09498026221990585,"19":-0.1658521145582199}},"30":{"bias":-0.655229389667511,"weights":{"0":0.07632618397474289,"1":0.0035256175324320793,"2":0.00515460129827261,"3":-0.058408476412296295,"4":-0.15242433547973633,"5":-0.11570645123720169,"6":0.29951211810112,"7":-0.2429834008216858,"8":-0.33378198742866516,"9":0.038400039076805115,"10":-0.39234739542007446,"11":1.0908777713775635,"12":0.5565306544303894,"13":-0.44028598070144653,"14":-0.29918739199638367,"15":-0.4162769615650177,"16":-0.13270452618598938,"17":0.008098076097667217,"18":0.0797845646739006,"19":0.004831184167414904}},"31":{"bias":0.7331312894821167,"weights":{"0":0.027172714471817017,"1":-0.02866785041987896,"2":-0.033572614192962646,"3":-0.06198076531291008,"4":0.06898514926433563,"5":-0.03726286441087723,"6":-0.7252060174942017,"7":-0.536216676235199,"8":-0.02962932363152504,"9":-0.02375805750489235,"10":0.3463287055492401,"11":-1.7820228338241577,"12":-1.505487084388733,"13":0.5077586770057678,"14":0.315377801656723,"15":0.4866141080856323,"16":0.09237109124660492,"17":0.020418532192707062,"18":-0.06832230091094971,"19":-0.02935268171131611}},"32":{"bias":-0.7308406233787537,"weights":{"0":0.05707371234893799,"1":0.044704508036375046,"2":0.12184914201498032,"3":-0.025858426466584206,"4":0.055945057421922684,"5":0.13948404788970947,"6":0.19757968187332153,"7":0.08360620588064194,"8":-0.5478305816650391,"9":-0.501462459564209,"10":-0.20328855514526367,"11":1.3912575244903564,"12":0.01830529235303402,"13":-0.3382171094417572,"14":-0.3263714015483856,"15":-0.21041415631771088,"16":0.030429614707827568,"17":-0.18513856828212738,"18":-0.0883280336856842,"19":0.10604657977819443}},"33":{"bias":0.7282264232635498,"weights":{"0":-0.04662670940160751,"1":-0.031369246542453766,"2":0.00857626274228096,"3":0.027329083532094955,"4":-0.06808978319168091,"5":-0.3091956377029419,"6":-0.08524086326360703,"7":0.667503297328949,"8":0.25619563460350037,"9":-0.060867831110954285,"10":0.444789856672287,"11":-1.5457044839859009,"12":-0.37717530131340027,"13":0.47408565878868103,"14":0.5447283387184143,"15":0.2680812180042267,"16":0.05931282788515091,"17":0.13768117129802704,"18":-0.015727940946817398,"19":-0.07451480627059937}},"34":{"bias":0.49937736988067627,"weights":{"0":-0.07278721779584885,"1":-0.02253137342631817,"2":0.08241091668605804,"3":-0.093251071870327,"4":0.1444450318813324,"5":0.21898053586483002,"6":-0.3477528393268585,"7":0.44294047355651855,"8":0.12261311709880829,"9":-0.1819012463092804,"10":0.5004327893257141,"11":-1.1193664073944092,"12":-0.6069146394729614,"13":0.2870781123638153,"14":0.5845878720283508,"15":0.4528481960296631,"16":0.06612543761730194,"17":-0.009551524184644222,"18":0.0073474980890750885,"19":-0.06357280164957047}},"35":{"bias":0.7033332586288452,"weights":{"0":0.07291721552610397,"1":0.15110501646995544,"2":-0.03026963397860527,"3":0.01363154873251915,"4":-0.10565286129713058,"5":-0.01067089382559061,"6":0.3250550329685211,"7":-0.07706485688686371,"8":0.08872455358505249,"9":0.15632377564907074,"10":0.10352887958288193,"11":-1.452912449836731,"12":-0.3857491910457611,"13":0.23763199150562286,"14":0.24468037486076355,"15":0.03851689398288727,"16":-0.02979440428316593,"17":-0.01777874305844307,"18":-0.05512077361345291,"19":0.04986685514450073}},"36":{"bias":0.6801307797431946,"weights":{"0":-0.02999156527221203,"1":-0.08561941236257553,"2":0.0227956660091877,"3":-0.1671948879957199,"4":0.20984183251857758,"5":-0.3922662138938904,"6":0.5768653154373169,"7":-0.48628827929496765,"8":0.4165373742580414,"9":-0.4807099997997284,"10":0.49966058135032654,"11":-2.2149946689605713,"12":-0.6739311218261719,"13":0.5309886336326599,"14":0.38594114780426025,"15":0.559955358505249,"16":-0.10888665914535522,"17":0.07166280597448349,"18":0.09021240472793579,"19":0.11087416112422943}},"37":{"bias":0.149027019739151,"weights":{"0":-0.22599782049655914,"1":0.6083481907844543,"2":-0.7522891759872437,"3":0.22825764119625092,"4":-0.12545077502727509,"5":-0.015451967716217041,"6":0.024445146322250366,"7":-0.036713309586048126,"8":0.018621033057570457,"9":0.022631200030446053,"10":0.2630625069141388,"11":-0.6852150559425354,"12":-0.8520563244819641,"13":0.10267870873212814,"14":0.19675962626934052,"15":0.28436052799224854,"16":0.0441284216940403,"17":-0.19451944530010223,"18":0.17696984112262726,"19":-0.09090615063905716}},"38":{"bias":0.6716695427894592,"weights":{"0":-0.01622013933956623,"1":0.06095931679010391,"2":-0.05627350136637688,"3":-0.2123093605041504,"4":-0.027679992839694023,"5":0.49844831228256226,"6":0.12116611748933792,"7":-0.03867000713944435,"8":0.0652461126446724,"9":0.09759540110826492,"10":0.41705232858657837,"11":-1.1891447305679321,"12":-0.6605411767959595,"13":0.39646363258361816,"14":0.38289570808410645,"15":0.1653570830821991,"16":0.14084592461585999,"17":-0.14230211079120636,"18":0.029602278023958206,"19":-0.12769339978694916}},"39":{"bias":-1.0646430253982544,"weights":{"0":-0.07574154436588287,"1":0.04195309802889824,"2":0.13481323421001434,"3":-0.09356135129928589,"4":-0.1978944092988968,"5":-0.016521276906132698,"6":-0.08472498506307602,"7":0.019379587844014168,"8":0.07426857948303223,"9":-0.06817281246185303,"10":-0.57923424243927,"11":2.236933946609497,"12":1.0628294944763184,"13":-0.23398210108280182,"14":-0.5702314972877502,"15":-0.5439828038215637,"16":-0.0027667724061757326,"17":0.06928952783346176,"18":0.10881803184747696,"19":-0.13962049782276154}}},{"0":{"bias":-0.02737848460674286,"weights":{"0":-0.07366269081830978,"1":-0.09328290075063705,"2":-0.08673883974552155,"3":-0.25302472710609436,"4":-0.090523861348629,"5":0.15202298760414124,"6":0.269475519657135,"7":-0.20126529037952423,"8":0.29556676745414734,"9":0.12453766912221909,"10":0.16287676990032196,"11":-0.014417183585464954,"12":-0.28642502427101135,"13":0.03898974508047104,"14":-0.09263219684362411,"15":0.022050179541110992,"16":0.11537766456604004,"17":0.025973496958613396,"18":-0.09446011483669281,"19":-0.26942598819732666,"20":0.11608479171991348,"21":0.275336354970932,"22":0.006169542670249939,"23":0.09030915051698685,"24":0.05126122012734413,"25":0.12099067121744156,"26":-0.3857021927833557,"27":0.31018608808517456,"28":-0.11943507939577103,"29":-0.06262676417827606,"30":0.05105813220143318,"31":-0.01108165830373764,"32":-0.04162152111530304,"33":-0.17892499268054962,"34":0.05895599350333214,"35":0.17051327228546143,"36":-0.035691775381565094,"37":-0.018407152965664864,"38":0.3634537160396576,"39":-0.011318422853946686}},"1":{"bias":0.13443227112293243,"weights":{"0":0.010989014059305191,"1":-0.11242865771055222,"2":-0.021615490317344666,"3":0.09044921398162842,"4":0.09839554131031036,"5":0.05287006497383118,"6":-0.16976173222064972,"7":-0.2973068356513977,"8":0.13305330276489258,"9":0.23167981207370758,"10":-0.28655877709388733,"11":0.0535188727080822,"12":0.16671393811702728,"13":0.05798283591866493,"14":0.07494092732667923,"15":0.11609619855880737,"16":0.3046521544456482,"17":-0.10431059449911118,"18":0.20744024217128754,"19":-0.22528113424777985,"20":-0.12374882400035858,"21":-0.07885681092739105,"22":-0.14806339144706726,"23":-0.030797671526670456,"24":-0.014728848822414875,"25":0.1533053070306778,"26":0.0926366001367569,"27":0.04766703024506569,"28":-0.2960260510444641,"29":-0.015017034485936165,"30":0.1865992546081543,"31":-0.06309890002012253,"32":0.07808702439069748,"33":-0.12629596889019012,"34":-0.19849878549575806,"35":0.34913116693496704,"36":0.047444041818380356,"37":-0.0016265013255178928,"38":-0.08628928661346436,"39":-0.15119579434394836}},"2":{"bias":0.6299479603767395,"weights":{"0":-0.31267499923706055,"1":-0.2630624771118164,"2":-0.014824217185378075,"3":-0.19276395440101624,"4":0.13255539536476135,"5":-0.2095811516046524,"6":0.07242343574762344,"7":-0.02072971872985363,"8":0.21603016555309296,"9":-0.08918508887290955,"10":0.2356909066438675,"11":0.019534099847078323,"12":-0.05072570592164993,"13":0.00036464942968450487,"14":0.0999908372759819,"15":0.019482608884572983,"16":0.08522702753543854,"17":-0.09670566767454147,"18":0.050233062356710434,"19":-0.04332302138209343,"20":-0.20210738480091095,"21":-0.12070047110319138,"22":-0.07968620210886002,"23":-0.2141304612159729,"24":-0.5079861283302307,"25":-0.025409072637557983,"26":-0.009625316597521305,"27":-0.2112385332584381,"28":-0.0717124417424202,"29":-0.07587642222642899,"30":0.027405552566051483,"31":-0.11292880773544312,"32":-0.10282714664936066,"33":0.06269572675228119,"34":0.003920208662748337,"35":0.08035224676132202,"36":0.07981552183628082,"37":-0.31976523995399475,"38":0.1799195110797882,"39":-0.01101887971162796}},"3":{"bias":0.23898769915103912,"weights":{"0":0.10795965790748596,"1":0.018565477803349495,"2":0.15277063846588135,"3":-0.07163733243942261,"4":-0.027907544746994972,"5":0.13739286363124847,"6":0.0068264249712228775,"7":-0.06117301806807518,"8":0.023255549371242523,"9":-0.10986583679914474,"10":0.1372789740562439,"11":0.011205166578292847,"12":-0.0645190179347992,"13":0.2143864631652832,"14":0.011776282452046871,"15":-0.2271708995103836,"16":-0.2036810964345932,"17":-0.030256126075983047,"18":-0.07601714134216309,"19":0.08214510232210159,"20":0.08937809616327286,"21":0.2788499593734741,"22":0.054683197289705276,"23":0.096112921833992,"24":-0.04835687577724457,"25":0.01248512789607048,"26":-0.16413871943950653,"27":0.32020118832588196,"28":-0.15668541193008423,"29":0.28021523356437683,"30":0.3331321179866791,"31":-0.45921823382377625,"32":0.18982993066310883,"33":-0.11479406803846359,"34":-0.29591864347457886,"35":-0.13193394243717194,"36":-0.1868722289800644,"37":-0.14943474531173706,"38":0.2010962963104248,"39":0.15834206342697144}},"4":{"bias":-0.7262948155403137,"weights":{"0":0.06058903783559799,"1":-0.3530511260032654,"2":-0.2823094129562378,"3":0.1947629600763321,"4":0.21499650180339813,"5":0.08454708755016327,"6":0.18293704092502594,"7":0.18557924032211304,"8":-0.04548046737909317,"9":-0.09005346149206161,"10":0.061806440353393555,"11":-0.061610300093889236,"12":0.21223337948322296,"13":-0.0026141339913010597,"14":0.18809908628463745,"15":-0.13437500596046448,"16":-0.030531009659171104,"17":0.09772160649299622,"18":-0.26959019899368286,"19":-0.14492973685264587,"20":0.012037433683872223,"21":0.27403342723846436,"22":0.05147390812635422,"23":0.04959043860435486,"24":0.03439232334494591,"25":0.30675679445266724,"26":0.11605672538280487,"27":-0.13412268459796906,"28":0.05495847389101982,"29":0.20513567328453064,"30":0.21806600689888,"31":-0.03781343996524811,"32":-0.061989858746528625,"33":0.14281699061393738,"34":-0.0011210294906049967,"35":-0.06579440832138062,"36":-0.12517789006233215,"37":0.2376602292060852,"38":0.03779982775449753,"39":0.07332513481378555}},"5":{"bias":0.19023051857948303,"weights":{"0":-0.18244151771068573,"1":-0.10572388768196106,"2":0.036819007247686386,"3":-0.20391951501369476,"4":0.033231306821107864,"5":-0.40380987524986267,"6":0.12955567240715027,"7":0.253187894821167,"8":-0.09671760350465775,"9":0.22179433703422546,"10":-0.04298408329486847,"11":0.06776243448257446,"12":0.3205772340297699,"13":0.20852123200893402,"14":0.006595899350941181,"15":0.13821592926979065,"16":0.07222214341163635,"17":0.1288919299840927,"18":-0.19977904856204987,"19":-0.31578192114830017,"20":0.062428347766399384,"21":0.24346090853214264,"22":0.034551337361335754,"23":0.044426821172237396,"24":-0.08037025481462479,"25":-0.22957859933376312,"26":0.2981511354446411,"27":-0.05456254258751869,"28":0.15270541608333588,"29":-0.4028172194957733,"30":0.180634543299675,"31":-0.060690637677907944,"32":0.07236788421869278,"33":0.07051745057106018,"34":-0.19070041179656982,"35":-0.14937101304531097,"36":0.220343679189682,"37":-0.019209124147892,"38":-0.09284136444330215,"39":0.06857556849718094}},"6":{"bias":0.15674342215061188,"weights":{"0":-0.07357312738895416,"1":-0.3306749165058136,"2":0.21207520365715027,"3":0.14581096172332764,"4":0.040631331503391266,"5":-0.19130010902881622,"6":0.1352289319038391,"7":-0.10270045697689056,"8":-0.08223235607147217,"9":-0.3159215450286865,"10":0.24145415425300598,"11":-0.027672430500388145,"12":0.31964290142059326,"13":0.013614385388791561,"14":-0.1818903684616089,"15":0.1544804871082306,"16":0.08669577538967133,"17":0.09433165937662125,"18":0.20131981372833252,"19":0.1158451959490776,"20":0.17098847031593323,"21":0.1709773689508438,"22":0.11370185017585754,"23":-0.17641229927539825,"24":-0.09669162333011627,"25":0.030114276334643364,"26":-0.275818407535553,"27":-0.12158188223838806,"28":0.005493003875017166,"29":0.16034531593322754,"30":-0.04280512034893036,"31":-0.11918001621961594,"32":-0.19066178798675537,"33":0.030193137004971504,"34":0.14632169902324677,"35":-0.22983217239379883,"36":-0.08380163460969925,"37":0.14620892703533173,"38":0.08214814960956573,"39":-0.18996122479438782}},"7":{"bias":1.821955919265747,"weights":{"0":0.2569286823272705,"1":-0.09093055129051208,"2":-0.23397621512413025,"3":-0.1788027584552765,"4":0.32152125239372253,"5":0.20043721795082092,"6":0.10777530819177628,"7":0.05333217233419418,"8":0.171953946352005,"9":-0.012855772860348225,"10":0.20635399222373962,"11":-0.25065740942955017,"12":-0.1328495889902115,"13":-0.07909319549798965,"14":0.0019870218820869923,"15":0.10697620362043381,"16":-0.018877249211072922,"17":0.3033938705921173,"18":0.0011400905204936862,"19":-0.13916879892349243,"20":-0.19513700902462006,"21":-0.1462336927652359,"22":-0.18241947889328003,"23":-0.07703222334384918,"24":0.22045131027698517,"25":0.004135380033403635,"26":0.1058221384882927,"27":-0.25018683075904846,"28":0.029326023533940315,"29":0.12107351422309875,"30":0.27173155546188354,"31":-0.02551678940653801,"32":0.10901664942502975,"33":-0.02868838980793953,"34":0.11555144935846329,"35":-0.07651703804731369,"36":-0.024120567366480827,"37":-0.020864009857177734,"38":0.06809957325458527,"39":0.1123586967587471}},"8":{"bias":0.5428324937820435,"weights":{"0":0.028847774490714073,"1":0.15358833968639374,"2":-0.06291307508945465,"3":0.16517683863639832,"4":-0.2736346125602722,"5":0.16707327961921692,"6":0.012349264696240425,"7":0.3542473018169403,"8":-0.019824009388685226,"9":0.11646254360675812,"10":0.18431973457336426,"11":-0.060150712728500366,"12":0.05153819918632507,"13":0.15480540692806244,"14":-0.26133808493614197,"15":0.5650172233581543,"16":-0.23188996315002441,"17":0.0711178407073021,"18":-0.008636088110506535,"19":0.09695382416248322,"20":0.07213802635669708,"21":0.10951700806617737,"22":0.046693939715623856,"23":-0.11828042566776276,"24":0.062169864773750305,"25":0.1543993055820465,"26":-0.1610349714756012,"27":0.12535373866558075,"28":0.09400071948766708,"29":-0.1611930876970291,"30":0.009981760755181313,"31":-0.30906161665916443,"32":0.17794997990131378,"33":0.007257886230945587,"34":-0.19575445353984833,"35":0.00868506170809269,"36":-0.05110570415854454,"37":0.030339937657117844,"38":0.08885492384433746,"39":0.06714843958616257}},"9":{"bias":-0.24236539006233215,"weights":{"0":0.0008753371657803655,"1":0.012036514468491077,"2":-0.20000509917736053,"3":0.02123827487230301,"4":-0.15488149225711823,"5":-0.013762992806732655,"6":0.1011427566409111,"7":-0.311082661151886,"8":-0.33291104435920715,"9":-0.22940783202648163,"10":-0.08969622850418091,"11":0.02162732370197773,"12":-0.03518947586417198,"13":0.25233641266822815,"14":-0.08743400871753693,"15":0.16480237245559692,"16":0.043019648641347885,"17":0.023582609370350838,"18":0.08288681507110596,"19":-0.07813453674316406,"20":-0.32404640316963196,"21":-0.059749264270067215,"22":-0.06685449182987213,"23":0.2099907547235489,"24":-0.018772074952721596,"25":0.41812679171562195,"26":0.13175489008426666,"27":0.2691172957420349,"28":0.3116656541824341,"29":-0.04575608670711517,"30":-0.024683112278580666,"31":0.021269766613841057,"32":0.054470472037792206,"33":-0.09716792404651642,"34":0.11345240473747253,"35":-0.043514445424079895,"36":0.08949682116508484,"37":-0.29323700070381165,"38":0.1749691516160965,"39":0.29887861013412476}},"10":{"bias":-0.5613143444061279,"weights":{"0":0.026795068755745888,"1":0.09895932674407959,"2":-0.10527077317237854,"3":-0.03523874282836914,"4":-0.13286927342414856,"5":0.056501585990190506,"6":-0.03773707151412964,"7":-0.49155566096305847,"8":-0.15863953530788422,"9":0.2333116978406906,"10":-0.06139945238828659,"11":-0.09981994330883026,"12":-0.3563055992126465,"13":-0.21367934346199036,"14":0.26473596692085266,"15":0.24243921041488647,"16":-0.30567947030067444,"17":-0.006538656074553728,"18":-0.18661834299564362,"19":0.23891693353652954,"20":-0.15261244773864746,"21":-0.28184568881988525,"22":-0.09302420169115067,"23":0.13760341703891754,"24":-0.09624706208705902,"25":-0.06757736951112747,"26":0.1466200351715088,"27":0.11026565730571747,"28":-0.2985948920249939,"29":0.03035462647676468,"30":-0.0358576700091362,"31":0.29473876953125,"32":0.1311793029308319,"33":0.002211289945989847,"34":0.1088389903306961,"35":-0.23737892508506775,"36":-0.06556670367717743,"37":-0.4030572175979614,"38":0.24164244532585144,"39":0.12568345665931702}},"11":{"bias":-0.48548397421836853,"weights":{"0":-0.0031669153831899166,"1":0.1642654985189438,"2":0.016283489763736725,"3":0.04490349441766739,"4":0.06166091188788414,"5":0.11781869828701019,"6":-0.3061450123786926,"7":-0.41114476323127747,"8":0.07861991226673126,"9":-0.01283267606049776,"10":-0.0014617842389270663,"11":0.06000279262661934,"12":0.12669801712036133,"13":-0.18493780493736267,"14":-0.008736394345760345,"15":-0.231653094291687,"16":0.22807824611663818,"17":-0.025267615914344788,"18":-0.055688872933387756,"19":-0.2562263309955597,"20":0.10611578077077866,"21":-0.37656170129776,"22":0.004742181859910488,"23":0.17876753211021423,"24":-0.034819480031728745,"25":0.0021577130537480116,"26":0.02957727760076523,"27":0.014418765902519226,"28":-0.009660940617322922,"29":-0.04588567465543747,"30":0.24693496525287628,"31":0.21873855590820312,"32":0.4205165207386017,"33":-0.13089881837368011,"34":-0.15756583213806152,"35":-0.09992815554141998,"36":-0.02078796923160553,"37":0.059025838971138,"38":0.13822311162948608,"39":0.2118176370859146}},"12":{"bias":0.14504538476467133,"weights":{"0":-0.10251964628696442,"1":0.2635142207145691,"2":0.2169102132320404,"3":0.1320071965456009,"4":-0.10283555090427399,"5":-0.1076367199420929,"6":0.09084346145391464,"7":0.28300440311431885,"8":-0.030552107840776443,"9":-0.31124791502952576,"10":-0.04761717468500137,"11":0.033515796065330505,"12":-0.09536281228065491,"13":0.1646057367324829,"14":-0.12069784849882126,"15":-0.19878588616847992,"16":0.07500556856393814,"17":-0.062267933040857315,"18":0.08401261270046234,"19":-0.02757292427122593,"20":-0.2532317042350769,"21":-0.19641540944576263,"22":-0.01138295792043209,"23":-0.16047924757003784,"24":0.11930230259895325,"25":-0.13317139446735382,"26":0.0691511258482933,"27":0.2307662069797516,"28":-0.028854116797447205,"29":-0.06105565279722214,"30":-0.04196053370833397,"31":-0.18140332400798798,"32":0.26032835245132446,"33":-0.05067335441708565,"34":0.013712968677282333,"35":0.049508240073919296,"36":0.06931488960981369,"37":-0.12566886842250824,"38":0.17962776124477386,"39":0.20596933364868164}},"13":{"bias":0.2785637676715851,"weights":{"0":0.05482134595513344,"1":-0.0011134357191622257,"2":-0.15966308116912842,"3":-0.3981989920139313,"4":0.08581886440515518,"5":-0.3185063898563385,"6":-0.11030404269695282,"7":0.2893059253692627,"8":0.2346743941307068,"9":-0.04435655474662781,"10":-0.12083083391189575,"11":-0.011500918306410313,"12":0.0562342144548893,"13":0.053135961294174194,"14":-0.17403319478034973,"15":-0.2306310087442398,"16":-0.04539714381098747,"17":-0.054786987602710724,"18":-0.14811576902866364,"19":0.24421285092830658,"20":0.07347238063812256,"21":0.0005628071958199143,"22":0.10079856216907501,"23":-0.07630791515111923,"24":-0.007862366735935211,"25":0.12420738488435745,"26":0.012432003393769264,"27":-0.043324220925569534,"28":-0.16685618460178375,"29":-0.21549279987812042,"30":0.0006968491361476481,"31":-0.03466317430138588,"32":0.010503825731575489,"33":-0.06702014058828354,"34":-0.08999056369066238,"35":-0.02866874821484089,"36":0.04092251881957054,"37":0.1596055030822754,"38":-0.04974595457315445,"39":-0.11349029839038849}},"14":{"bias":0.31806033849716187,"weights":{"0":0.2115059494972229,"1":0.06424085050821304,"2":-0.014029965735971928,"3":-0.2564794719219208,"4":0.2289946973323822,"5":0.03358710557222366,"6":-0.4391442835330963,"7":-0.18196265399456024,"8":0.43403103947639465,"9":-0.23024556040763855,"10":-0.24679170548915863,"11":0.08259498327970505,"12":0.009034192189574242,"13":-0.04847998917102814,"14":-0.06702341139316559,"15":-0.29462766647338867,"16":0.12622682750225067,"17":-0.2518533766269684,"18":0.10053663700819016,"19":0.08600613474845886,"20":-0.053382758051157,"21":-0.06281537562608719,"22":0.053266629576683044,"23":-0.016673889011144638,"24":-0.2325758934020996,"25":0.20486381649971008,"26":-0.03180701285600662,"27":0.01986074633896351,"28":-0.08348789066076279,"29":0.2003057450056076,"30":-0.26283735036849976,"31":0.3570883572101593,"32":0.13227246701717377,"33":-0.1198059618473053,"34":0.1819888800382614,"35":0.2814216613769531,"36":0.23212018609046936,"37":0.078362375497818,"38":-0.4207540452480316,"39":-0.16287241876125336}},"15":{"bias":0.03571653738617897,"weights":{"0":0.08429233729839325,"1":-0.11730272322893143,"2":-0.11636289209127426,"3":-0.12879261374473572,"4":-0.42575299739837646,"5":-0.05905882269144058,"6":0.007798191159963608,"7":0.11998294293880463,"8":-0.37381646037101746,"9":0.08096252381801605,"10":-0.01819625124335289,"11":-0.020999759435653687,"12":-0.30297982692718506,"13":0.16666366159915924,"14":0.2187381237745285,"15":-0.26522016525268555,"16":0.04085986688733101,"17":0.215421661734581,"18":0.01860021986067295,"19":0.0928855836391449,"20":0.24183128774166107,"21":-0.4261854290962219,"22":-0.4280821681022644,"23":-0.06599162518978119,"24":-0.1795141100883484,"25":-0.2605111300945282,"26":-0.11734265089035034,"27":0.12166352570056915,"28":0.12160369008779526,"29":-0.02114732190966606,"30":-0.05485864356160164,"31":-0.06060221791267395,"32":0.05815432220697403,"33":-0.1164722815155983,"34":-0.04583227261900902,"35":-0.002824489725753665,"36":-0.0013750219950452447,"37":0.26148584485054016,"38":-0.04223203286528587,"39":-0.23511405289173126}},"16":{"bias":0.07582030445337296,"weights":{"0":0.0527246929705143,"1":-0.10334518551826477,"2":0.032997697591781616,"3":-0.377038836479187,"4":-0.10906793177127838,"5":0.18975865840911865,"6":-0.03375672549009323,"7":0.14328165352344513,"8":-0.2454681545495987,"9":0.102187879383564,"10":-0.02636035718023777,"11":0.018800819292664528,"12":-0.17345911264419556,"13":0.045965682715177536,"14":0.5718885064125061,"15":-0.1165238618850708,"16":-0.05322866514325142,"17":-0.02419639192521572,"18":0.1961662620306015,"19":-0.03795865550637245,"20":-0.13819120824337006,"21":-0.17413441836833954,"22":0.0242486372590065,"23":-0.10766573250293732,"24":-0.047956906259059906,"25":0.1855650246143341,"26":-0.1916147768497467,"27":-0.007850759662687778,"28":-0.3317057490348816,"29":-0.1700206845998764,"30":-0.17379027605056763,"31":0.048912838101387024,"32":0.17007504403591156,"33":-0.01266698632389307,"34":-0.17027407884597778,"35":-0.0017925458960235119,"36":0.15746496617794037,"37":0.22399747371673584,"38":-0.011966035701334476,"39":0.1504804939031601}},"17":{"bias":0.12933076918125153,"weights":{"0":0.06497305631637573,"1":0.3160105049610138,"2":-0.1862444132566452,"3":0.023632189258933067,"4":-0.0909544825553894,"5":0.0034232132602483034,"6":0.3006018102169037,"7":0.1800185590982437,"8":-0.09360754489898682,"9":0.023143155500292778,"10":-0.18251599371433258,"11":0.05434902384877205,"12":0.4107052683830261,"13":0.3749455213546753,"14":0.03182397782802582,"15":0.011919255368411541,"16":-0.0352727472782135,"17":-0.04083340987563133,"18":0.007871336303651333,"19":-0.5096163749694824,"20":0.03788592666387558,"21":-0.20432895421981812,"22":0.0930107906460762,"23":0.05561620369553566,"24":0.11991013586521149,"25":-0.09233948588371277,"26":-0.187534362077713,"27":0.14124783873558044,"28":0.02532453089952469,"29":0.12496650964021683,"30":0.2728249728679657,"31":0.050144780427217484,"32":-0.16066573560237885,"33":-0.0734187513589859,"34":-0.40513232350349426,"35":-0.16507785022258759,"36":-0.29899391531944275,"37":-0.09331858903169632,"38":0.0435253344476223,"39":-0.0645064041018486}},"18":{"bias":-0.07423413544893265,"weights":{"0":0.09357159584760666,"1":-0.022467060014605522,"2":0.17214617133140564,"3":0.03365520387887955,"4":0.00454095471650362,"5":0.21038655936717987,"6":0.14084754884243011,"7":-0.0863977000117302,"8":-0.10919506102800369,"9":-0.15382108092308044,"10":-0.015984099358320236,"11":-0.012090863659977913,"12":0.25947514176368713,"13":0.01322938408702612,"14":0.03918920457363129,"15":0.2344287484884262,"16":-0.03203068673610687,"17":-0.0018530741799622774,"18":-0.2716473340988159,"19":0.101190946996212,"20":-0.2055995911359787,"21":0.05568805709481239,"22":0.12213849276304245,"23":-0.10472585260868073,"24":-0.029125692322850227,"25":-0.09042973071336746,"26":-0.1705101728439331,"27":0.08754003047943115,"28":0.08433976024389267,"29":-0.07792704552412033,"30":-0.021314477548003197,"31":-0.3490687906742096,"32":0.11322932690382004,"33":0.49153056740760803,"34":0.021687980741262436,"35":-0.19579561054706573,"36":0.3684302568435669,"37":-0.08522282540798187,"38":0.02984878420829773,"39":-0.14668771624565125}},"19":{"bias":-0.3166683614253998,"weights":{"0":0.018324241042137146,"1":-0.07334265112876892,"2":0.1586012989282608,"3":-0.19940586388111115,"4":-0.011904958635568619,"5":-0.0699627697467804,"6":0.048179950565099716,"7":0.031710751354694366,"8":0.03500198945403099,"9":-0.036432214081287384,"10":0.08050486445426941,"11":0.002391702961176634,"12":0.09452956914901733,"13":0.14769266545772552,"14":-0.15370722115039825,"15":-0.0408734455704689,"16":-0.20614099502563477,"17":-0.0290896724909544,"18":0.22621510922908783,"19":0.27204617857933044,"20":0.20791076123714447,"21":-0.3088836073875427,"22":-0.08712776750326157,"23":-0.3383004367351532,"24":0.02557988464832306,"25":0.058472659438848495,"26":0.07223227620124817,"27":-0.063701331615448,"28":-0.26238730549812317,"29":-0.30790141224861145,"30":-0.36414462327957153,"31":0.12645815312862396,"32":0.134908065199852,"33":0.1005784124135971,"34":0.22279255092144012,"35":-0.017392056062817574,"36":-0.571432888507843,"37":-0.06016436964273453,"38":-0.1226406916975975,"39":-0.06313826143741608}},"20":{"bias":-0.26818737387657166,"weights":{"0":-0.027444710955023766,"1":0.15703226625919342,"2":0.3109622895717621,"3":-0.07877767831087112,"4":-0.19643574953079224,"5":-0.06117714196443558,"6":-0.10893598943948746,"7":-0.012671375647187233,"8":0.1574685275554657,"9":0.24395331740379333,"10":-0.11102697253227234,"11":-0.07604707032442093,"12":-0.050809960812330246,"13":-0.07193025946617126,"14":0.07180902361869812,"15":0.3710358738899231,"16":0.17478376626968384,"17":-0.0903642401099205,"18":0.06975801289081573,"19":0.1931571215391159,"20":0.05437266454100609,"21":-0.1516166776418686,"22":-0.5663005113601685,"23":-0.035540755838155746,"24":-0.3404574692249298,"25":-0.3470477759838104,"26":-0.05957292392849922,"27":0.25646138191223145,"28":0.10523514449596405,"29":-0.08922109007835388,"30":-0.07006537169218063,"31":0.17484061419963837,"32":-0.07895541191101074,"33":-0.1185024231672287,"34":0.092745341360569,"35":-0.03189746290445328,"36":-0.11471620947122574,"37":0.3469472825527191,"38":0.012525506317615509,"39":0.11696994304656982}},"21":{"bias":0.22659598290920258,"weights":{"0":0.37971994280815125,"1":0.042829494923353195,"2":-0.09940773248672485,"3":-0.06915327906608582,"4":-0.11099529266357422,"5":-0.2893381714820862,"6":0.06930661201477051,"7":0.2579618990421295,"8":-0.146821990609169,"9":-0.19031798839569092,"10":-0.002852422185242176,"11":0.04235028848052025,"12":0.38565775752067566,"13":-0.17429432272911072,"14":-0.14613939821720123,"15":-0.057478368282318115,"16":0.09409549087285995,"17":0.029594721272587776,"18":-0.2631743848323822,"19":-0.213440403342247,"20":0.17731592059135437,"21":0.03329521417617798,"22":0.10328485816717148,"23":0.12973128259181976,"24":0.005756437312811613,"25":-0.016673855483531952,"26":0.2207849770784378,"27":-0.09506428241729736,"28":0.2568356692790985,"29":-0.013137663714587688,"30":0.0253500547260046,"31":-0.07777359336614609,"32":0.18156152963638306,"33":0.24543742835521698,"34":0.04861031845211983,"35":0.05288137122988701,"36":-0.10201671719551086,"37":0.5618667006492615,"38":0.14471620321273804,"39":0.2584044635295868}},"22":{"bias":-0.22840026021003723,"weights":{"0":0.09467548131942749,"1":0.01650986075401306,"2":-0.137921541929245,"3":0.08205795288085938,"4":0.15564413368701935,"5":0.0382944718003273,"6":0.05033903941512108,"7":-0.38266146183013916,"8":-0.1726541668176651,"9":-0.034615956246852875,"10":0.00340701499953866,"11":-0.013426084071397781,"12":-0.12925392389297485,"13":0.16508683562278748,"14":0.03582287207245827,"15":0.01879447139799595,"16":0.16521699726581573,"17":-0.0251140296459198,"18":0.26070523262023926,"19":0.033521633595228195,"20":-0.11542738229036331,"21":-0.30425626039505005,"22":0.14553378522396088,"23":-0.20661012828350067,"24":0.15054365992546082,"25":-0.2010289877653122,"26":-0.3280408978462219,"27":0.1884920746088028,"28":0.07442183047533035,"29":-0.08241511136293411,"30":0.2568526566028595,"31":0.4930691719055176,"32":0.1484733372926712,"33":-0.2444514036178589,"34":-0.17417097091674805,"35":-0.1827467381954193,"36":-0.0007358185830526054,"37":-0.21034011244773865,"38":-0.15070655941963196,"39":0.040144819766283035}},"23":{"bias":1.6704667806625366,"weights":{"0":-0.033443424850702286,"1":-0.23342382907867432,"2":0.1636650413274765,"3":-0.25789809226989746,"4":-0.575400710105896,"5":0.23282331228256226,"6":0.06420206278562546,"7":-0.3240493834018707,"8":-0.030812233686447144,"9":-0.1062183603644371,"10":0.13640761375427246,"11":0.1710275113582611,"12":-0.18136119842529297,"13":-0.12047508358955383,"14":0.2984316051006317,"15":0.22680766880512238,"16":-0.3871156573295593,"17":0.23130017518997192,"18":0.08686984330415726,"19":0.06441923975944519,"20":-0.002359634032472968,"21":-0.08728540688753128,"22":0.1272280365228653,"23":-0.2283601313829422,"24":0.3983164131641388,"25":0.1208982914686203,"26":-0.033702749758958817,"27":-0.13260485231876373,"28":0.12559223175048828,"29":-0.13808374106884003,"30":0.11398585140705109,"31":0.23569947481155396,"32":0.09834984689950943,"33":0.08267294615507126,"34":-0.10002116113901138,"35":0.3756904900074005,"36":0.1651327908039093,"37":0.46645480394363403,"38":0.05809203162789345,"39":-0.2828250229358673}},"24":{"bias":-0.0837278962135315,"weights":{"0":0.12478498369455338,"1":-0.018100542947649956,"2":-0.2142033725976944,"3":0.07116880267858505,"4":0.04266596958041191,"5":-0.031848423182964325,"6":0.011840803548693657,"7":0.00904833897948265,"8":0.01675276830792427,"9":-0.11480120569467545,"10":0.04433624818921089,"11":-0.18661761283874512,"12":-0.1411852091550827,"13":0.32042479515075684,"14":-0.12709757685661316,"15":0.1520785391330719,"16":0.020948315039277077,"17":0.17215809226036072,"18":0.12743033468723297,"19":0.07892198115587234,"20":-0.20665542781352997,"21":-0.01804579235613346,"22":-0.09870186448097229,"23":-0.08536969870328903,"24":-0.1769437938928604,"25":-0.2346566617488861,"26":-0.08131799846887589,"27":-0.16870784759521484,"28":-0.14309610426425934,"29":0.10270924866199493,"30":0.017227722331881523,"31":-0.09396127611398697,"32":0.18964041769504547,"33":-0.014917991124093533,"34":-0.10943591594696045,"35":-0.06621058285236359,"36":0.14079847931861877,"37":-0.11444466561079025,"38":-0.19264261424541473,"39":-0.03295357525348663}},"25":{"bias":0.6207241415977478,"weights":{"0":0.00929407961666584,"1":0.6442883610725403,"2":0.01964489556849003,"3":-0.17995668947696686,"4":-0.1008753851056099,"5":0.2565477788448334,"6":-0.1001407727599144,"7":0.32348933815956116,"8":-0.18719585239887238,"9":-0.2334258258342743,"10":0.03791474550962448,"11":0.08481944352388382,"12":-0.12254408001899719,"13":0.10668838769197464,"14":-0.09625348448753357,"15":-0.032273031771183014,"16":0.04718461260199547,"17":-0.4657879173755646,"18":0.10696250945329666,"19":0.039218030869960785,"20":0.31136587262153625,"21":-0.023941759020090103,"22":0.2593053877353668,"23":-0.18989898264408112,"24":-0.46253591775894165,"25":0.03317541629076004,"26":-0.14913977682590485,"27":0.0363033302128315,"28":-0.16475404798984528,"29":0.07662270963191986,"30":0.11267732083797455,"31":0.016262762248516083,"32":-0.15004383027553558,"33":0.23166218400001526,"34":-0.31565061211586,"35":0.04606262594461441,"36":0.02553151547908783,"37":0.045997969806194305,"38":0.013097213581204414,"39":0.0636182576417923}},"26":{"bias":-0.6248615384101868,"weights":{"0":0.0013786432100459933,"1":-0.09642091393470764,"2":-0.24985367059707642,"3":-0.32027655839920044,"4":0.6047723889350891,"5":-0.2848556339740753,"6":-0.009773471392691135,"7":0.03211592882871628,"8":-0.4104991853237152,"9":0.1545434594154358,"10":-0.0418565534055233,"11":-0.25518155097961426,"12":-0.0656137764453888,"13":0.06261888146400452,"14":-0.2963307499885559,"15":0.03687712922692299,"16":-0.3114541471004486,"17":0.601932168006897,"18":0.22477954626083374,"19":0.08011369407176971,"20":0.254489928483963,"21":-0.0337960384786129,"22":-0.015100021846592426,"23":0.17059026658535004,"24":0.13532692193984985,"25":-0.43020108342170715,"26":-0.1510990709066391,"27":0.09954256564378738,"28":0.32117539644241333,"29":0.07312289625406265,"30":0.009054210036993027,"31":-0.15607278048992157,"32":-0.057949818670749664,"33":-0.14676254987716675,"34":-0.03762089088559151,"35":0.09983715415000916,"36":-0.06939109414815903,"37":0.168532133102417,"38":-0.17016662657260895,"39":0.23890450596809387}},"27":{"bias":-0.26976606249809265,"weights":{"0":-0.09597387909889221,"1":0.06760626286268234,"2":-0.017400648444890976,"3":0.24944737553596497,"4":0.07998652756214142,"5":0.03457527980208397,"6":-0.046958938241004944,"7":-0.33567172288894653,"8":0.00747760571539402,"9":0.29099956154823303,"10":-0.22462767362594604,"11":0.04103824868798256,"12":-0.06894171983003616,"13":0.03376537933945656,"14":0.31395068764686584,"15":-0.24792267382144928,"16":0.054356444627046585,"17":-0.00809535663574934,"18":-0.12168098241090775,"19":0.15702448785305023,"20":0.22599558532238007,"21":-0.02110465243458748,"22":0.16309762001037598,"23":0.1536816507577896,"24":0.17138174176216125,"25":-0.17530906200408936,"26":0.21022602915763855,"27":0.36729878187179565,"28":0.1990237832069397,"29":0.05253370851278305,"30":0.08127164095640182,"31":-0.12006869167089462,"32":0.05304287374019623,"33":0.29004645347595215,"34":-0.04131987318396568,"35":-0.17297841608524323,"36":-0.07183796167373657,"37":-0.08703390508890152,"38":0.10547752678394318,"39":0.14543451368808746}},"28":{"bias":0.10476012527942657,"weights":{"0":0.1972973793745041,"1":0.07912705838680267,"2":-0.08879824727773666,"3":-0.31728896498680115,"4":0.20826414227485657,"5":-0.10117726027965546,"6":0.0665564239025116,"7":0.5214954614639282,"8":-0.12262734770774841,"9":0.019885584712028503,"10":-0.10732133686542511,"11":-0.23155397176742554,"12":-0.285541832447052,"13":0.1100718304514885,"14":0.012579786591231823,"15":-0.09396755695343018,"16":0.16788873076438904,"17":-0.022963104769587517,"18":-0.13804185390472412,"19":0.15954264998435974,"20":0.20158936083316803,"21":-0.1737748682498932,"22":-0.051919251680374146,"23":-0.11364985257387161,"24":0.07649917155504227,"25":0.0560738779604435,"26":0.13989780843257904,"27":-0.20028461515903473,"28":-0.14393454790115356,"29":0.053487129509449005,"30":0.10216217488050461,"31":0.014700178056955338,"32":-0.07535912841558456,"33":-0.010231951251626015,"34":-0.07033498585224152,"35":0.11818293482065201,"36":0.024538841098546982,"37":0.33421096205711365,"38":0.028825031593441963,"39":0.09321113675832748}},"29":{"bias":-0.1836862564086914,"weights":{"0":-0.032915107905864716,"1":-0.001955964369699359,"2":0.007458474021404982,"3":0.012227606028318405,"4":0.07524331659078598,"5":-0.12221077084541321,"6":0.07168731838464737,"7":-0.18230171501636505,"8":-0.11566653847694397,"9":0.003049751976504922,"10":0.08569740504026413,"11":0.030216384679079056,"12":0.03623337298631668,"13":-0.12765799462795258,"14":-0.26505446434020996,"15":0.05905569717288017,"16":0.027009468525648117,"17":-0.06022130325436592,"18":-0.17025543749332428,"19":-0.0565841980278492,"20":-0.06854557245969772,"21":0.007343441713601351,"22":0.0837496966123581,"23":-0.2039312869310379,"24":-0.0146033251658082,"25":0.17114196717739105,"26":-0.13759249448776245,"27":-0.10278598219156265,"28":0.4296720325946808,"29":0.22836412489414215,"30":0.19759276509284973,"31":-0.13729268312454224,"32":0.21351701021194458,"33":0.1920856237411499,"34":-0.14578773081302643,"35":-0.041900359094142914,"36":-0.11877339333295822,"37":0.000011219888619962148,"38":-0.27850717306137085,"39":0.20910684764385223}}},{"0":{"bias":-0.2679705321788788,"weights":{"0":-0.09719593822956085,"1":0.017949501052498817,"2":-0.16158711910247803,"3":0.1388031393289566,"4":-0.13180115818977356,"5":0.33500832319259644,"6":0.2669253647327423,"7":0.27300721406936646,"8":-0.19078633189201355,"9":0.28608182072639465,"10":0.26376596093177795,"11":0.35759568214416504,"12":-0.0730980634689331,"13":-0.10504400730133057,"14":-0.23400940001010895,"15":-0.04173212870955467,"16":-0.3278304636478424,"17":-0.09542646259069443,"18":0.560065746307373,"19":-0.051241252571344376,"20":0.2895551025867462,"21":-0.08754435926675797,"22":0.13531950116157532,"23":-0.08584029972553253,"24":-0.037230584770441055,"25":0.19803141057491302,"26":-0.20673511922359467,"27":-0.19437725841999054,"28":0.15491358935832977,"29":0.29528483748435974}},"1":{"bias":-0.07351753115653992,"weights":{"0":0.18352149426937103,"1":-0.059028688818216324,"2":0.07822217047214508,"3":-0.19725102186203003,"4":0.7591286301612854,"5":-0.15034933388233185,"6":-0.1554880142211914,"7":-0.46091967821121216,"8":-0.24905115365982056,"9":0.21884503960609436,"10":-0.15737898647785187,"11":0.1823170930147171,"12":0.1970815658569336,"13":0.19556769728660583,"14":-0.24877139925956726,"15":-0.13174748420715332,"16":0.21749834716320038,"17":0.10884930193424225,"18":0.04516896978020668,"19":-0.0148881571367383,"20":0.183219313621521,"21":0.0908457562327385,"22":0.19222044944763184,"23":-0.5549761056900024,"24":-0.21794573962688446,"25":-0.09568599611520767,"26":0.37287503480911255,"27":-0.3323200047016144,"28":-0.264278382062912,"29":0.17870888113975525}},"2":{"bias":0.9520741105079651,"weights":{"0":0.07765797525644302,"1":0.009845983237028122,"2":-0.49431073665618896,"3":-0.051294956356287,"4":-0.7986735701560974,"5":-0.9673113822937012,"6":0.22525043785572052,"7":-0.20922525227069855,"8":0.47914308309555054,"9":0.1469852179288864,"10":-0.7442420721054077,"11":-0.16963934898376465,"12":0.35651299357414246,"13":0.4590612053871155,"14":-0.5966808795928955,"15":0.5717833638191223,"16":-0.05898323655128479,"17":0.30676189064979553,"18":0.33332595229148865,"19":0.15117235481739044,"20":-0.005190566647797823,"21":0.04296817630529404,"22":-0.25230634212493896,"23":0.566353440284729,"24":-0.08255781978368759,"25":0.2646113336086273,"26":0.07671821862459183,"27":-0.19050632417201996,"28":0.0041702380403876305,"29":-0.06483365595340729}},"3":{"bias":-0.21225811541080475,"weights":{"0":0.2884179651737213,"1":-0.5787433981895447,"2":-0.05487552657723427,"3":0.04013793542981148,"4":-0.04737627133727074,"5":0.11211936920881271,"6":0.254220575094223,"7":-0.06221943721175194,"8":-0.11585134267807007,"9":-0.07236243039369583,"10":0.06920969486236572,"11":-0.10268689692020416,"12":0.051426298916339874,"13":-0.1715129166841507,"14":-0.0561586394906044,"15":-0.0221183430403471,"16":-0.3989828824996948,"17":-0.06017833203077316,"18":-0.3697158396244049,"19":0.7669010758399963,"20":0.05554477870464325,"21":0.2539063096046448,"22":-0.015680085867643356,"23":0.026321373879909515,"24":-0.32991915941238403,"25":-0.006018221378326416,"26":-0.07904607057571411,"27":-0.08541375398635864,"28":0.04960346966981888,"29":-0.08845525234937668}},"4":{"bias":2.3814620971679688,"weights":{"0":-0.01753256656229496,"1":-0.0882391706109047,"2":0.2981703281402588,"3":0.00775483762845397,"4":0.11571104824542999,"5":-0.2191457599401474,"6":-0.22412270307540894,"7":0.420377641916275,"8":-0.038747482001781464,"9":0.10194380581378937,"10":0.13929593563079834,"11":0.0016708496259525418,"12":-0.1311141401529312,"13":-0.07935982942581177,"14":0.13557270169258118,"15":-0.1085662841796875,"16":0.24143348634243011,"17":-0.7032501101493835,"18":-0.5284751653671265,"19":-0.33674299716949463,"20":-0.23129364848136902,"21":0.30284765362739563,"22":0.08846227079629898,"23":-0.3795158565044403,"24":0.034990955144166946,"25":-0.17713052034378052,"26":-0.571551501750946,"27":0.24658523499965668,"28":-0.3982478380203247,"29":-0.29619336128234863}},"5":{"bias":-0.8423250317573547,"weights":{"0":0.019969001412391663,"1":0.2576941251754761,"2":0.20068788528442383,"3":0.34650033712387085,"4":0.060843292623758316,"5":0.5448192358016968,"6":0.24837885797023773,"7":-0.43252983689308167,"8":-0.37192830443382263,"9":-0.36612650752067566,"10":0.5286310315132141,"11":0.27167919278144836,"12":0.2324855774641037,"13":-1.0138081312179565,"14":-0.10170906782150269,"15":-0.14294742047786713,"16":-0.11110040545463562,"17":0.36267557740211487,"18":0.05016728490591049,"19":-0.2162446677684784,"20":-0.01511302962899208,"21":0.15417276322841644,"22":-0.0703222006559372,"23":-0.6490663886070251,"24":-0.1707400530576706,"25":-0.1872888207435608,"26":0.03747536242008209,"27":0.17881162464618683,"28":0.2542622983455658,"29":-0.04566868022084236}},"6":{"bias":1.207356333732605,"weights":{"0":-0.1585402935743332,"1":-0.2321360856294632,"2":0.06507725268602371,"3":0.13212662935256958,"4":0.14068429172039032,"5":-0.004328691866248846,"6":-0.11395101249217987,"7":0.527019739151001,"8":0.2379402369260788,"9":-0.13085031509399414,"10":-0.20524944365024567,"11":0.04244960471987724,"12":-0.08247499167919159,"13":0.6225579977035522,"14":-0.16258549690246582,"15":0.052303820848464966,"16":0.014281362295150757,"17":-0.09445637464523315,"18":0.013452949933707714,"19":-0.0831567570567131,"20":0.13890652358531952,"21":0.03488607332110405,"22":0.06120450794696808,"23":0.29802238941192627,"24":0.023859230801463127,"25":-0.16734543442726135,"26":0.30008387565612793,"27":0.02029789611697197,"28":0.10192204266786575,"29":0.11874089390039444}},"7":{"bias":0.060497358441352844,"weights":{"0":0.08874858170747757,"1":-0.060922738164663315,"2":0.3061266839504242,"3":0.19909784197807312,"4":-0.29481983184814453,"5":0.05270680412650108,"6":-0.1727592945098877,"7":0.7327351570129395,"8":-0.15494103729724884,"9":0.09571173787117004,"10":0.26166418194770813,"11":-0.19657060503959656,"12":-0.13984961807727814,"13":0.44196808338165283,"14":0.2520851790904999,"15":-0.020983602851629257,"16":0.21840552985668182,"17":-0.37679195404052734,"18":-0.2918086349964142,"19":-0.5440355539321899,"20":0.013336406089365482,"21":-0.02517116814851761,"22":-0.07974201440811157,"23":0.008443870581686497,"24":0.16878542304039001,"25":-0.0034222493413835764,"26":0.12852627038955688,"27":0.10891019552946091,"28":0.46594366431236267,"29":-0.005084917414933443}},"8":{"bias":0.25914785265922546,"weights":{"0":-0.10663372278213501,"1":-0.08499223738908768,"2":0.3888380825519562,"3":-0.016413703560829163,"4":-0.029374826699495316,"5":-0.23678307235240936,"6":-0.1488892287015915,"7":-0.17508086562156677,"8":-0.23288843035697937,"9":-0.20875146985054016,"10":0.4545621871948242,"11":0.06584613770246506,"12":-0.35656383633613586,"13":-0.2722891867160797,"14":0.22375734150409698,"15":0.3108764886856079,"16":-0.07706880569458008,"17":-0.029347652569413185,"18":-0.2568768560886383,"19":0.8160618543624878,"20":-0.29621216654777527,"21":0.39250901341438293,"22":0.028442826122045517,"23":0.09516948461532593,"24":-0.02699929103255272,"25":-0.0878206118941307,"26":-0.0810016468167305,"27":-0.22627714276313782,"28":-0.11397558450698853,"29":0.14209312200546265}},"9":{"bias":-0.5352059602737427,"weights":{"0":-0.10139268636703491,"1":0.27237942814826965,"2":0.039810698479413986,"3":0.16468928754329681,"4":0.6996575593948364,"5":0.10120091587305069,"6":0.0048317634500563145,"7":0.7810664176940918,"8":0.16189180314540863,"9":-0.10369621962308884,"10":-0.11496897041797638,"11":0.21679562330245972,"12":-0.09331678599119186,"13":-0.07655974477529526,"14":-0.49898603558540344,"15":0.011302493512630463,"16":0.07818962633609772,"17":0.6702131628990173,"18":0.3165770471096039,"19":0.36116912961006165,"20":-0.09941014647483826,"21":0.30656740069389343,"22":-0.17702488601207733,"23":-0.08975797891616821,"24":0.129791259765625,"25":-0.10813669860363007,"26":-0.0934022068977356,"27":-0.1318436712026596,"28":-0.22291520237922668,"29":-0.12647002935409546}},"10":{"bias":1.3183940649032593,"weights":{"0":-0.12947580218315125,"1":-0.10921269655227661,"2":-0.01276935264468193,"3":-0.0482158362865448,"4":-0.4416859745979309,"5":-0.3352510333061218,"6":-0.2010011374950409,"7":0.44070377945899963,"8":0.3502906560897827,"9":0.019817186519503593,"10":-0.432414710521698,"11":0.09664733707904816,"12":-0.05632328242063522,"13":0.7231133580207825,"14":-0.06076531857252121,"15":-0.29798126220703125,"16":0.18861569464206696,"17":0.23983027040958405,"18":-0.00024735546321608126,"19":0.09519407153129578,"20":-0.14260946214199066,"21":-0.012449142523109913,"22":0.3588431775569916,"23":0.2505694627761841,"24":0.152923583984375,"25":-0.0030277399346232414,"26":0.1383984237909317,"27":0.10028911381959915,"28":-0.23527735471725464,"29":0.11634957045316696}},"11":{"bias":0.2286498099565506,"weights":{"0":-0.023295924067497253,"1":-0.31130802631378174,"2":0.14579938352108002,"3":0.18596117198467255,"4":-0.5462852716445923,"5":-0.27768754959106445,"6":-0.5152320265769958,"7":-0.29230189323425293,"8":0.40318232774734497,"9":-0.07215234637260437,"10":0.0070937457494437695,"11":-0.34331828355789185,"12":0.024023255333304405,"13":0.8463099598884583,"14":-0.05952984467148781,"15":-0.05902140960097313,"16":0.40777701139450073,"17":0.172075092792511,"18":-0.07267367094755173,"19":0.06776344031095505,"20":-0.130815789103508,"21":-0.016186239197850227,"22":-0.013356789015233517,"23":0.5577545166015625,"24":0.514313280582428,"25":-0.1712617725133896,"26":-0.14174972474575043,"27":0.14487825334072113,"28":0.35992902517318726,"29":-0.026301417499780655}},"12":{"bias":-0.35007020831108093,"weights":{"0":0.06887824833393097,"1":0.10020159929990768,"2":-0.01919673942029476,"3":0.1818668246269226,"4":0.29970356822013855,"5":0.3184362053871155,"6":0.11405909061431885,"7":-0.5978105068206787,"8":-0.17847029864788055,"9":-0.3162499964237213,"10":0.3929881155490875,"11":0.258212149143219,"12":0.0819912776350975,"13":-0.6583631038665771,"14":0.02615390345454216,"15":0.1409357786178589,"16":-0.10768622159957886,"17":0.14972960948944092,"18":0.28569361567497253,"19":0.04447569325566292,"20":-0.16264395415782928,"21":0.38832274079322815,"22":-0.13670068979263306,"23":-0.6333047151565552,"24":-0.019886182621121407,"25":-0.03727475181221962,"26":0.14328821003437042,"27":-0.01799006573855877,"28":-0.07010620832443237,"29":-0.10528372973203659}},"13":{"bias":-0.9159296154975891,"weights":{"0":0.1338690221309662,"1":-0.07674872875213623,"2":0.2263365536928177,"3":-0.01937023177742958,"4":0.08784849941730499,"5":0.5265070199966431,"6":-0.10230650752782822,"7":-0.5004464387893677,"8":-0.06365928053855896,"9":-0.21309320628643036,"10":0.567013680934906,"11":0.22668474912643433,"12":-0.3707197904586792,"13":-0.609216034412384,"14":0.12377487123012543,"15":-0.4290023148059845,"16":-0.03861397132277489,"17":0.003915516193956137,"18":-0.2508217394351959,"19":0.1445244997739792,"20":-0.06817658245563507,"21":0.222308948636055,"22":0.03967953473329544,"23":-1.0930441617965698,"24":-0.25970780849456787,"25":-0.31037962436676025,"26":0.04371727630496025,"27":0.16152669489383698,"28":-0.047888901084661484,"29":-0.06671816110610962}},"14":{"bias":0.03315631300210953,"weights":{"0":-0.1607847362756729,"1":0.19918301701545715,"2":-0.0019676696974784136,"3":0.2574320137500763,"4":-0.12261569499969482,"5":0.09710704535245895,"6":0.07317231595516205,"7":-0.056218840181827545,"8":0.07811219990253448,"9":-0.0468825101852417,"10":-0.12976326048374176,"11":0.43563389778137207,"12":0.15434056520462036,"13":-0.43583646416664124,"14":0.10363643616437912,"15":-0.08277321606874466,"16":0.34683361649513245,"17":-0.41603317856788635,"18":-0.13201558589935303,"19":0.35656532645225525,"20":-0.022228023037314415,"21":-0.07985197752714157,"22":0.1576395481824875,"23":0.12272408604621887,"24":-0.08816773444414139,"25":0.09890089929103851,"26":-0.08000548183917999,"27":-0.07034377008676529,"28":0.04428425803780556,"29":0.015719972550868988}},"15":{"bias":0.7919225096702576,"weights":{"0":-0.12529046833515167,"1":-0.1817929446697235,"2":-0.697094202041626,"3":0.3417559862136841,"4":0.16267378628253937,"5":-0.01535241398960352,"6":0.13768573105335236,"7":0.34754374623298645,"8":0.017506346106529236,"9":0.12197211384773254,"10":0.3410082161426544,"11":0.06610940396785736,"12":-0.1087435707449913,"13":0.2649015188217163,"14":0.11577654629945755,"15":-0.12505409121513367,"16":0.2312336564064026,"17":0.1265714019536972,"18":0.1345815360546112,"19":-0.18270157277584076,"20":0.18958249688148499,"21":0.40822720527648926,"22":-0.1542448252439499,"23":0.3074794411659241,"24":-0.21986165642738342,"25":0.003801021259278059,"26":0.17436333000659943,"27":-0.2067994773387909,"28":0.2958376109600067,"29":-0.15907961130142212}},"16":{"bias":-0.6631314754486084,"weights":{"0":0.11862187832593918,"1":0.18170250952243805,"2":0.06666415184736252,"3":0.10513480007648468,"4":0.12522289156913757,"5":0.03393181785941124,"6":-0.14857427775859833,"7":-0.2534477710723877,"8":0.047066327184438705,"9":0.3162982761859894,"10":0.35861751437187195,"11":-0.09306503087282181,"12":-0.12457118183374405,"13":-0.28400346636772156,"14":-0.18259218335151672,"15":0.42951294779777527,"16":-0.18700411915779114,"17":0.12287396192550659,"18":0.3304039537906647,"19":0.1457769125699997,"20":-0.06155477836728096,"21":0.23048236966133118,"22":-0.2828929126262665,"23":-0.017883939668536186,"24":0.03495962917804718,"25":-0.38287854194641113,"26":0.6194664239883423,"27":0.30522292852401733,"28":0.4096280336380005,"29":0.13324037194252014}},"17":{"bias":-0.4456126093864441,"weights":{"0":-0.12644237279891968,"1":0.15550857782363892,"2":-0.13043427467346191,"3":-0.22491730749607086,"4":0.6016529202461243,"5":-0.06778257340192795,"6":0.4931718409061432,"7":-0.14701928198337555,"8":-0.14466585218906403,"9":-0.19718606770038605,"10":0.31694209575653076,"11":0.5356945991516113,"12":0.07032173126935959,"13":0.20101019740104675,"14":-0.4197339415550232,"15":0.3455980122089386,"16":-0.27695581316947937,"17":0.12103480845689774,"18":0.16034871339797974,"19":0.0658823773264885,"20":-0.1904095709323883,"21":0.023297758772969246,"22":-0.5257014036178589,"23":-0.559941291809082,"24":0.27042463421821594,"25":-0.1061934232711792,"26":-0.10043597221374512,"27":-0.3300609588623047,"28":0.00525148818269372,"29":-0.054206833243370056}},"18":{"bias":-0.44391319155693054,"weights":{"0":-0.027506457641720772,"1":-0.65909743309021,"2":-0.3021979331970215,"3":-0.5231717228889465,"4":-0.17168068885803223,"5":0.14569534361362457,"6":0.24168570339679718,"7":-0.34369587898254395,"8":0.21636903285980225,"9":-0.23059946298599243,"10":0.1514793187379837,"11":0.06225036829710007,"12":-0.049048859626054764,"13":-0.008454433642327785,"14":-0.1526821255683899,"15":-0.2475941777229309,"16":0.02858663909137249,"17":0.4500926733016968,"18":-0.11322420090436935,"19":-0.36752474308013916,"20":-0.1331363320350647,"21":0.06189679354429245,"22":0.4933568239212036,"23":-0.39636844396591187,"24":0.5270630121231079,"25":-0.53250652551651,"26":0.5574650168418884,"27":0.4250504970550537,"28":-0.232634037733078,"29":-0.14205048978328705}},"19":{"bias":-0.16846303641796112,"weights":{"0":-0.6056767106056213,"1":0.006542634684592485,"2":-0.16014648973941803,"3":0.031885113567113876,"4":0.015108257532119751,"5":-0.16418367624282837,"6":0.3455650806427002,"7":-0.06367984414100647,"8":0.23168520629405975,"9":0.05168520659208298,"10":-0.01204041950404644,"11":0.08226333558559418,"12":0.04840546101331711,"13":0.12643499672412872,"14":-0.08962397277355194,"15":0.020213648676872253,"16":-0.07845770567655563,"17":-0.38849133253097534,"18":0.3632770776748657,"19":0.6102107763290405,"20":0.114695705473423,"21":0.09672367572784424,"22":-0.18378059566020966,"23":-0.07604117691516876,"24":-0.04676636680960655,"25":0.08959829807281494,"26":0.11426481604576111,"27":0.44781017303466797,"28":-0.07680509984493256,"29":0.1263086050748825}},"20":{"bias":0.6207078099250793,"weights":{"0":0.24666069447994232,"1":-0.12182142585515976,"2":-0.04242931306362152,"3":-0.49011892080307007,"4":0.3279910087585449,"5":-0.1865733414888382,"6":-0.03080584667623043,"7":-0.4393685460090637,"8":-0.02217292971909046,"9":0.5594422817230225,"10":-0.2002655267715454,"11":-0.25352299213409424,"12":-0.29396116733551025,"13":-0.4093874990940094,"14":0.10554393380880356,"15":-0.037991371005773544,"16":-0.07606862485408783,"17":-0.14491958916187286,"18":0.2634734809398651,"19":-0.0014778338372707367,"20":-0.128049835562706,"21":-0.12285088747739792,"22":-0.3338272273540497,"23":-0.11448398977518082,"24":-0.2795601785182953,"25":0.5070981979370117,"26":-0.0354025661945343,"27":0.2063668817281723,"28":-0.0017655506962910295,"29":-0.15332745015621185}},"21":{"bias":-1.4480482339859009,"weights":{"0":0.27978813648223877,"1":-0.03352101519703865,"2":-0.3542613983154297,"3":0.37341147661209106,"4":0.6070024967193604,"5":0.026201698929071426,"6":0.01088589709252119,"7":-0.6782426238059998,"8":-0.42042607069015503,"9":-0.3853115439414978,"10":0.24720528721809387,"11":0.031004950404167175,"12":0.11352604627609253,"13":-0.8178351521492004,"14":0.09634705632925034,"15":0.1595434695482254,"16":0.0016988663701340556,"17":-0.14882929623126984,"18":0.035072870552539825,"19":0.07690146565437317,"20":0.06925052404403687,"21":0.0689031183719635,"22":0.061688657850027084,"23":-0.18744651973247528,"24":-0.1694047600030899,"25":-0.31950873136520386,"26":-0.2293706238269806,"27":0.0874585434794426,"28":-0.0835493728518486,"29":-0.17541782557964325}},"22":{"bias":0.8283253908157349,"weights":{"0":0.20614103972911835,"1":0.12378361076116562,"2":0.015795422717928886,"3":0.41444113850593567,"4":-0.1847035139799118,"5":0.14995872974395752,"6":0.1834888756275177,"7":0.1524781584739685,"8":0.36178305745124817,"9":0.21453909575939178,"10":-0.23837345838546753,"11":0.0851307213306427,"12":0.09600049257278442,"13":0.4582545757293701,"14":-0.03414943069219589,"15":0.36212408542633057,"16":-0.3001517653465271,"17":0.12161578983068466,"18":-0.16253560781478882,"19":-0.01194615475833416,"20":-0.21653203666210175,"21":-0.01325736753642559,"22":0.01425393857061863,"23":-0.28056126832962036,"24":-0.13960669934749603,"25":-0.08680037409067154,"26":-0.010190813802182674,"27":0.48992159962654114,"28":-0.12952440977096558,"29":-0.09939368814229965}},"23":{"bias":-0.5803096294403076,"weights":{"0":0.149359330534935,"1":-0.18706919252872467,"2":0.19171205163002014,"3":0.08106665313243866,"4":0.16951973736286163,"5":-0.056260719895362854,"6":-0.4139387011528015,"7":-0.05730206519365311,"8":-0.10960762947797775,"9":-0.040119532495737076,"10":-0.08315982669591904,"11":-0.58979332447052,"12":0.06311707943677902,"13":-0.4825897514820099,"14":0.052201204001903534,"15":-0.10402776300907135,"16":-0.13770559430122375,"17":-0.020090455189347267,"18":0.06442881375551224,"19":-0.1260695904493332,"20":-0.3172622323036194,"21":0.097769595682621,"22":-0.14796249568462372,"23":-0.11501587927341461,"24":0.25405260920524597,"25":-0.11332220584154129,"26":0.15747691690921783,"27":-0.021845808252692223,"28":0.2556808888912201,"29":-0.2680155634880066}},"24":{"bias":0.0008434425108134747,"weights":{"0":0.06993504613637924,"1":0.01865842193365097,"2":1.4743154048919678,"3":-0.14950382709503174,"4":-0.060409191995859146,"5":-0.19813819229602814,"6":-0.24166083335876465,"7":0.7000699043273926,"8":0.18660880625247955,"9":-0.21369239687919617,"10":0.2949221432209015,"11":-0.09253594279289246,"12":0.06735939532518387,"13":0.05877481773495674,"14":0.3753884732723236,"15":0.7216308116912842,"16":0.19928260147571564,"17":-0.16791284084320068,"18":-0.3427203595638275,"19":-0.038061998784542084,"20":0.3860541582107544,"21":0.3297227621078491,"22":-0.08247826993465424,"23":-0.432851642370224,"24":0.13174396753311157,"25":0.3734303116798401,"26":-0.2938140630722046,"27":0.26419559121131897,"28":0.20153765380382538,"29":0.07228751480579376}},"25":{"bias":-0.975755512714386,"weights":{"0":0.11544942855834961,"1":0.20971910655498505,"2":-0.07695236802101135,"3":0.011309728026390076,"4":0.32216164469718933,"5":0.4519079029560089,"6":0.1254076063632965,"7":-0.617317795753479,"8":-0.07343485206365585,"9":-0.2642461061477661,"10":0.5712180137634277,"11":0.20693404972553253,"12":-0.28602084517478943,"13":0.1578940898180008,"14":-0.1076444461941719,"15":0.06464783102273941,"16":-0.13543610274791718,"17":0.40460142493247986,"18":0.27079832553863525,"19":-0.2718384563922882,"20":-0.25951188802719116,"21":0.18345823884010315,"22":0.10697636753320694,"23":-0.4803493916988373,"24":0.2583497166633606,"25":-0.4166083335876465,"26":0.083219014108181,"27":-0.31833621859550476,"28":-0.20502254366874695,"29":0.04344431310892105}},"26":{"bias":1.1066923141479492,"weights":{"0":-0.07540538907051086,"1":-0.17000214755535126,"2":0.3934269845485687,"3":0.08168066293001175,"4":-0.33326828479766846,"5":-0.5829829573631287,"6":-0.3858887851238251,"7":0.32824453711509705,"8":-0.3296111524105072,"9":0.20271605253219604,"10":-0.29215630888938904,"11":0.007532546296715736,"12":-0.15315797924995422,"13":0.7541230916976929,"14":0.43721073865890503,"15":0.14930137991905212,"16":-0.1612023562192917,"17":0.23924295604228973,"18":-0.03966822475194931,"19":-0.03983675315976143,"20":0.22816091775894165,"21":0.17760679125785828,"22":-0.0614272840321064,"23":0.6210996508598328,"24":-0.17748995125293732,"25":0.0685475766658783,"26":-0.0681629553437233,"27":0.033419933170080185,"28":-0.4112163782119751,"29":-0.2398204356431961}},"27":{"bias":-0.27775809168815613,"weights":{"0":0.0737643763422966,"1":0.27201977372169495,"2":-0.06958853453397751,"3":-0.08480840176343918,"4":-0.2072426825761795,"5":-0.0719699040055275,"6":0.2450215220451355,"7":-0.9621462821960449,"8":0.3589574694633484,"9":-0.15185993909835815,"10":0.2861848473548889,"11":0.01454289723187685,"12":0.12376126646995544,"13":-0.362947016954422,"14":0.0273404810577631,"15":-0.032661862671375275,"16":-0.016193393617868423,"17":0.021408138796687126,"18":0.0820465162396431,"19":0.2911112904548645,"20":0.07631541043519974,"21":-0.030022326856851578,"22":0.09446544945240021,"23":0.0019238614477217197,"24":-0.11943197250366211,"25":0.024204878136515617,"26":-0.5061215162277222,"27":-0.03597622737288475,"28":0.2754739224910736,"29":0.025310739874839783}},"28":{"bias":0.5687513947486877,"weights":{"0":-0.01862979494035244,"1":-0.053941674530506134,"2":-0.076661616563797,"3":-0.042867034673690796,"4":0.05754677578806877,"5":0.10346457362174988,"6":0.4019795358181,"7":-1.116898775100708,"8":0.03703867271542549,"9":-0.1414862424135208,"10":0.33486559987068176,"11":-0.0771656185388565,"12":0.1619493067264557,"13":-0.36435678601264954,"14":0.06503283232450485,"15":-0.06358379125595093,"16":-0.20950840413570404,"17":0.2240065187215805,"18":0.23495832085609436,"19":0.009213162586092949,"20":-0.2625781297683716,"21":-0.19351646304130554,"22":0.004841058515012264,"23":0.4461996555328369,"24":0.05444307625293732,"25":0.02918192371726036,"26":0.20339317619800568,"27":0.1328212469816208,"28":-0.7230634093284607,"29":-0.00400175154209137}},"29":{"bias":0.5973924994468689,"weights":{"0":-0.14490851759910583,"1":0.14919160306453705,"2":-0.04203818365931511,"3":0.2844725549221039,"4":0.1130337119102478,"5":0.09065589308738708,"6":-0.22253970801830292,"7":0.5551257729530334,"8":-0.21593685448169708,"9":0.16040761768817902,"10":-0.4864223003387451,"11":-0.06542107462882996,"12":-0.04589735344052315,"13":0.1709030121564865,"14":-0.02007521130144596,"15":-0.0015221572248265147,"16":-0.2884375751018524,"17":-0.23535563051700592,"18":-0.49205371737480164,"19":-0.2380266934633255,"20":0.04070233553647995,"21":0.01161855086684227,"22":-0.023068515583872795,"23":0.20315730571746826,"24":0.06663587689399719,"25":0.2933129668235779,"26":-0.5560706257820129,"27":-0.0641801655292511,"28":-0.2327265739440918,"29":-0.06049257516860962}},"30":{"bias":-1.0213185548782349,"weights":{"0":0.4554697275161743,"1":0.429185152053833,"2":-0.40448546409606934,"3":0.08508642017841339,"4":0.24351204931735992,"5":-0.09426964074373245,"6":-0.23694242537021637,"7":-0.9195111393928528,"8":-0.1557212620973587,"9":-0.34425899386405945,"10":0.5866875052452087,"11":0.17414025962352753,"12":0.09697531163692474,"13":-0.5536518096923828,"14":0.3034609854221344,"15":-0.16041789948940277,"16":-0.21103253960609436,"17":0.36794513463974,"18":0.2472424954175949,"19":-0.14195828139781952,"20":-0.5246071815490723,"21":0.1276850551366806,"22":0.014991908334195614,"23":-0.7233802676200867,"24":-0.07104529440402985,"25":-0.4262160360813141,"26":-0.09521403908729553,"27":0.028114719316363335,"28":0.6422761082649231,"29":-0.10630443692207336}},"31":{"bias":0.8982644081115723,"weights":{"0":0.15214645862579346,"1":0.09562844783067703,"2":0.34250667691230774,"3":-0.03699790686368942,"4":0.24873274564743042,"5":-0.1559596061706543,"6":-0.2744683027267456,"7":-0.14471279084682465,"8":0.2715468108654022,"9":0.330070823431015,"10":0.5147106051445007,"11":-0.15469352900981903,"12":-0.3389936089515686,"13":0.18177936971187592,"14":0.0033587059006094933,"15":-0.22265344858169556,"16":-0.04638728126883507,"17":-0.07108470797538757,"18":-0.1864977478981018,"19":0.23377597332000732,"20":-0.17505019903182983,"21":-0.32057350873947144,"22":0.030184945091605186,"23":-0.1745893359184265,"24":0.3687879145145416,"25":-0.6069139838218689,"26":-0.4014069437980652,"27":-0.32401353120803833,"28":-0.23386724293231964,"29":-0.04238690808415413}},"32":{"bias":0.4328196942806244,"weights":{"0":-0.08837516605854034,"1":-0.08292678743600845,"2":0.09385226666927338,"3":0.05199804902076721,"4":-0.7034906148910522,"5":-0.07323251664638519,"6":-0.1537930816411972,"7":-0.01998063735663891,"8":0.5232506394386292,"9":0.24150440096855164,"10":-0.0009477129206061363,"11":-0.5252043604850769,"12":0.2802857458591461,"13":-0.6567754745483398,"14":0.08513827621936798,"15":0.01003299281001091,"16":0.48256269097328186,"17":0.15931275486946106,"18":-0.35177376866340637,"19":0.2772132456302643,"20":0.032661907374858856,"21":-0.17448638379573822,"22":-0.2849341928958893,"23":0.057156551629304886,"24":-0.23102618753910065,"25":0.10090936720371246,"26":0.046508610248565674,"27":0.08303533494472504,"28":-0.5698781609535217,"29":0.021064413711428642}},"33":{"bias":0.4384864270687103,"weights":{"0":-0.0231021698564291,"1":0.06355766952037811,"2":-0.38737794756889343,"3":-0.5229462385177612,"4":0.2211296111345291,"5":-0.22328871488571167,"6":0.18580804765224457,"7":-0.12940645217895508,"8":-0.1081763356924057,"9":-0.0656467005610466,"10":0.21084101498126984,"11":-0.0407852903008461,"12":0.03344203159213066,"13":-0.3814271092414856,"14":-0.13904118537902832,"15":-0.17605802416801453,"16":-0.36309462785720825,"17":0.2007308453321457,"18":0.11750882863998413,"19":-0.0765673816204071,"20":0.006158418953418732,"21":-0.020627722144126892,"22":-0.0897834300994873,"23":-0.026393692940473557,"24":-0.04894896596670151,"25":0.2885914444923401,"26":-0.02291789837181568,"27":0.1412126123905182,"28":-0.23127301037311554,"29":0.09054074436426163}},"34":{"bias":-0.318646639585495,"weights":{"0":0.4311129152774811,"1":0.04503540322184563,"2":-0.11443381011486053,"3":0.16877804696559906,"4":-0.1568734049797058,"5":-0.15871229767799377,"6":0.37681031227111816,"7":-0.3990694582462311,"8":0.6074877381324768,"9":-0.10610746592283249,"10":-0.10024002939462662,"11":-0.017111752182245255,"12":-0.34611648321151733,"13":-0.09193075448274612,"14":-0.035988885909318924,"15":-0.2384902536869049,"16":-0.2278895378112793,"17":0.012528548017144203,"18":-0.12558285892009735,"19":0.2592841684818268,"20":0.09453089535236359,"21":-0.10759496688842773,"22":-0.15982969105243683,"23":0.2611009478569031,"24":-0.048133354634046555,"25":0.4225821793079376,"26":0.238174170255661,"27":-0.11293532699346542,"28":0.1270480453968048,"29":0.4034624397754669}},"35":{"bias":0.8018333315849304,"weights":{"0":-0.055287472903728485,"1":0.020916134119033813,"2":0.8688209652900696,"3":-0.2953680157661438,"4":-0.31951719522476196,"5":-0.39672988653182983,"6":-0.1100570559501648,"7":-0.9271554350852966,"8":-0.19472087919712067,"9":0.47710052132606506,"10":-0.3447830080986023,"11":0.1417156159877777,"12":0.2170937955379486,"13":-0.2979286015033722,"14":0.1631171852350235,"15":0.055110227316617966,"16":0.0746297761797905,"17":-0.031178638339042664,"18":-0.008216198533773422,"19":0.09269014745950699,"20":-0.3143492341041565,"21":-0.12365463376045227,"22":-0.10854890942573547,"23":-0.4488353133201599,"24":0.021531395614147186,"25":0.457767128944397,"26":-0.004143220838159323,"27":0.11132428050041199,"28":0.07836845517158508,"29":0.26403751969337463}},"36":{"bias":-0.7672957181930542,"weights":{"0":0.21027031540870667,"1":-0.05462362617254257,"2":0.017440808936953545,"3":0.05248088017106056,"4":0.30174440145492554,"5":-0.2936820685863495,"6":0.029457110911607742,"7":-0.1491507887840271,"8":0.07056386023759842,"9":0.22280322015285492,"10":-0.17112226784229279,"11":0.011614670045673847,"12":-0.18573080003261566,"13":0.9132224917411804,"14":-0.3629414439201355,"15":-0.09930456429719925,"16":-0.09543649852275848,"17":0.09637172520160675,"18":0.1221047043800354,"19":0.11786068975925446,"20":0.1584903448820114,"21":-0.2498919665813446,"22":0.0020494048949331045,"23":-0.05155852437019348,"24":0.10196801275014877,"25":-0.10846803337335587,"26":-0.14439764618873596,"27":0.0427507646381855,"28":-0.24099686741828918,"29":0.04239879548549652}},"37":{"bias":-0.7464812397956848,"weights":{"0":-0.14575599133968353,"1":-0.09438779950141907,"2":0.11225583404302597,"3":0.08528535068035126,"4":-0.2072748988866806,"5":0.300209641456604,"6":-0.09838490933179855,"7":0.5109734535217285,"8":0.25679007172584534,"9":-0.2508189380168915,"10":0.12416759878396988,"11":-0.002462326316162944,"12":0.16819575428962708,"13":0.0721186175942421,"14":-0.09246258437633514,"15":-0.1432391107082367,"16":-0.14992043375968933,"17":-0.6037416458129883,"18":0.26031267642974854,"19":-0.3261472284793854,"20":0.10105831176042557,"21":0.1907562017440796,"22":-0.08002103865146637,"23":0.4631572663784027,"24":-0.04339582845568657,"25":0.04133191332221031,"26":-0.413236528635025,"27":0.00402413122355938,"28":-0.005083775147795677,"29":0.1344936341047287}},"38":{"bias":0.6447517275810242,"weights":{"0":-0.07874244451522827,"1":0.0330069437623024,"2":-0.1915871798992157,"3":0.02298959158360958,"4":0.09122350066900253,"5":0.5856674313545227,"6":-0.26785409450531006,"7":0.7144120335578918,"8":-0.1680690348148346,"9":-0.21284131705760956,"10":-0.2062806636095047,"11":0.10562021285295486,"12":-0.36493057012557983,"13":0.17881383001804352,"14":-0.13155490159988403,"15":0.07873190939426422,"16":-0.1079520434141159,"17":0.00390255032107234,"18":0.07916440069675446,"19":0.10699071735143661,"20":-0.051904838532209396,"21":-0.12964224815368652,"22":0.06321770697832108,"23":0.27616190910339355,"24":-0.12283297628164291,"25":0.25724974274635315,"26":0.3793105483055115,"27":0.38780468702316284,"28":0.17581979930400848,"29":0.21578459441661835}},"39":{"bias":1.774434208869934,"weights":{"0":0.04984529688954353,"1":0.060506392270326614,"2":0.21225668489933014,"3":-0.06417649239301682,"4":0.47393709421157837,"5":-0.6291302442550659,"6":-0.06211007758975029,"7":-0.05841062590479851,"8":-0.09561686962842941,"9":0.23326033353805542,"10":0.2606670558452606,"11":-0.05752959102392197,"12":-0.03499404713511467,"13":0.6586377024650574,"14":-0.0173368938267231,"15":-0.24746032059192657,"16":-0.021611258387565613,"17":0.133512943983078,"18":0.04071206972002983,"19":-0.26605528593063354,"20":-0.298536092042923,"21":0.4554072916507721,"22":0.1972331702709198,"23":-0.18108657002449036,"24":-0.30336156487464905,"25":-0.5169004797935486,"26":0.17575640976428986,"27":0.05040598288178444,"28":0.16372855007648468,"29":0.10510139167308807}}},{"0":{"bias":13.643000602722168,"weights":{"0":1.7813632488250732,"1":1.5480191707611084,"2":-0.6611379981040955,"3":-0.06042835861444473,"4":3.718250036239624,"5":0.8009451627731323,"6":1.5441356897354126,"7":0.17225311696529388,"8":-0.00784842949360609,"9":0.26440104842185974,"10":-0.3323318660259247,"11":-0.749182403087616,"12":-2.0714621543884277,"13":1.525029182434082,"14":0.45019999146461487,"15":-2.975900411605835,"16":0.8957672715187073,"17":-1.0498342514038086,"18":1.409497857093811,"19":0.26801547408103943,"20":-0.8165891170501709,"21":1.3922847509384155,"22":-0.7384210228919983,"23":0.9165668487548828,"24":3.071101665496826,"25":1.9263948202133179,"26":-0.9218217134475708,"27":-1.306185245513916,"28":0.17773018777370453,"29":-1.960776925086975,"30":1.0490819215774536,"31":0.5450693368911743,"32":-0.5237104892730713,"33":0.7068396806716919,"34":0.4032679796218872,"35":-2.080475330352783,"36":1.9154977798461914,"37":-0.3957239091396332,"38":-1.9406976699829102,"39":-3.5087356567382812}},"1":{"bias":9.2601900100708,"weights":{"0":0.5949064493179321,"1":0.9609135985374451,"2":0.6921290159225464,"3":-0.17456082999706268,"4":1.8851697444915771,"5":-0.7139801979064941,"6":-0.004153696354478598,"7":-0.9111070036888123,"8":-0.7429375052452087,"9":0.615691065788269,"10":-1.6249090433120728,"11":-0.5742071270942688,"12":-0.10626870393753052,"13":-2.160949945449829,"14":1.3802266120910645,"15":4.334500312805176,"16":2.5652315616607666,"17":-1.3356603384017944,"18":2.3213577270507812,"19":0.5692710876464844,"20":0.8328478336334229,"21":2.398965358734131,"22":0.05136743560433388,"23":1.0417320728302002,"24":0.31208109855651855,"25":3.044544219970703,"26":-1.1220265626907349,"27":-0.39650052785873413,"28":-4.249081134796143,"29":-0.6031039357185364,"30":3.640575647354126,"31":-1.685979962348938,"32":0.52254319190979,"33":1.0857348442077637,"34":-0.5280895233154297,"35":-3.0775327682495117,"36":-0.6469136476516724,"37":-0.8995127081871033,"38":-1.2470040321350098,"39":-0.8360826373100281}},"2":{"bias":9.160286903381348,"weights":{"0":2.70556640625,"1":1.1054966449737549,"2":-0.8091310858726501,"3":0.2978893518447876,"4":1.4707516431808472,"5":1.8196769952774048,"6":0.20506231486797333,"7":0.13298651576042175,"8":-0.1266552060842514,"9":0.4800757169723511,"10":-0.5323386192321777,"11":0.15215757489204407,"12":-0.5101315975189209,"13":2.0150585174560547,"14":0.576927661895752,"15":-1.3760591745376587,"16":-0.6065240502357483,"17":-0.786729633808136,"18":0.356151819229126,"19":0.573497474193573,"20":0.8256192803382874,"21":1.180688738822937,"22":-0.3642250895500183,"23":0.5973785519599915,"24":-0.46341487765312195,"25":1.0814710855484009,"26":-0.17850902676582336,"27":-1.1398801803588867,"28":-1.083003282546997,"29":-1.0011073350906372,"30":0.45145943760871887,"31":3.473494291305542,"32":-0.428816556930542,"33":-0.7545708417892456,"34":0.3579530715942383,"35":1.4840822219848633,"36":-0.028580624610185623,"37":0.16205690801143646,"38":-2.8366940021514893,"39":2.3942501544952393}},"3":{"bias":10.040648460388184,"weights":{"0":-2.5631725788116455,"1":1.0547211170196533,"2":-0.8342112302780151,"3":-0.5890766382217407,"4":1.7819725275039673,"5":0.7411835193634033,"6":1.4682589769363403,"7":0.06398041546344757,"8":0.3404756188392639,"9":-0.031127166002988815,"10":-1.0486518144607544,"11":-1.2369441986083984,"12":0.1589769870042801,"13":3.5978550910949707,"14":0.08401675522327423,"15":-1.043773889541626,"16":1.0865612030029297,"17":-1.587642788887024,"18":0.9104846715927124,"19":0.43178239464759827,"20":-0.0967593714594841,"21":0.4846944808959961,"22":-1.4988099336624146,"23":1.635226845741272,"24":0.023669814690947533,"25":0.4694691002368927,"26":-0.2533184289932251,"27":-0.5423048138618469,"28":-0.4379962086677551,"29":-1.6190670728683472,"30":1.5564740896224976,"31":-1.389506220817566,"32":-2.5130457878112793,"33":0.165080726146698,"34":3.1239724159240723,"35":0.8998274207115173,"36":0.11420640349388123,"37":-0.6024530529975891,"38":3.7656354904174805,"39":0.7280820608139038}},"4":{"bias":8.366848945617676,"weights":{"0":-1.3749088048934937,"1":1.1655292510986328,"2":0.26986321806907654,"3":-0.4342287480831146,"4":-0.3559175431728363,"5":0.43804317712783813,"6":0.46033117175102234,"7":0.3790636956691742,"8":-0.3045921325683594,"9":-0.3869963586330414,"10":-0.8562219738960266,"11":-0.4358651638031006,"12":0.6336105465888977,"13":-1.7717392444610596,"14":0.35328295826911926,"15":-2.427199363708496,"16":0.3457823693752289,"17":-0.3349384665489197,"18":0.611452043056488,"19":0.4173675775527954,"20":0.10375156998634338,"21":0.7607918977737427,"22":-0.34432917833328247,"23":0.690435528755188,"24":-0.3237757980823517,"25":-0.3796510696411133,"26":-0.68235182762146,"27":0.6203168034553528,"28":0.41892552375793457,"29":-1.0031241178512573,"30":0.5353509783744812,"31":-0.5893716216087341,"32":-1.9722861051559448,"33":-0.7448502779006958,"34":-4.390931129455566,"35":1.9479868412017822,"36":0.7230490446090698,"37":-0.5943286418914795,"38":-1.8070656061172485,"39":0.7285165786743164}},"5":{"bias":8.995138168334961,"weights":{"0":-1.4874904155731201,"1":0.6231436133384705,"2":0.7625724077224731,"3":4.452296733856201,"4":-1.3751857280731201,"5":0.4711868166923523,"6":-0.5118536949157715,"7":-0.167215496301651,"8":-0.44188541173934937,"9":-0.16754961013793945,"10":0.3060274124145508,"11":0.027278486639261246,"12":0.6980469822883606,"13":0.5047558546066284,"14":0.9670071005821228,"15":0.241480752825737,"16":0.27243372797966003,"17":1.2413020133972168,"18":0.37042129039764404,"19":-1.481998324394226,"20":-0.6822212338447571,"21":1.2352168560028076,"22":2.9210355281829834,"23":0.35801640152931213,"24":-0.10780399292707443,"25":-0.5889179110527039,"26":-0.8838157057762146,"27":0.7438179850578308,"28":-0.6473392248153687,"29":0.45198383927345276,"30":0.754054605960846,"31":0.15755963325500488,"32":-0.8808903098106384,"33":-1.4476245641708374,"34":0.7591464519500732,"35":0.23662719130516052,"36":2.5830605030059814,"37":0.3290032148361206,"38":-0.31368255615234375,"39":-0.06277347356081009}},"6":{"bias":9.965856552124023,"weights":{"0":-1.5324350595474243,"1":0.5957837700843811,"2":1.2111314535140991,"3":-4.262913227081299,"4":-1.1514482498168945,"5":0.1174553781747818,"6":-0.7904671430587769,"7":-0.2729496955871582,"8":-0.3824633061885834,"9":0.38401544094085693,"10":-0.36904799938201904,"11":0.3476445972919464,"12":1.8067100048065186,"13":0.48307886719703674,"14":0.8041519522666931,"15":-1.5874078273773193,"16":0.05283155292272568,"17":2.0649020671844482,"18":-0.27734801173210144,"19":-1.3752646446228027,"20":-0.3819462060928345,"21":0.9895351529121399,"22":1.979501485824585,"23":0.4674021601676941,"24":-0.28255340456962585,"25":-0.01905781589448452,"26":-0.7271381616592407,"27":0.5950742959976196,"28":-0.5837783813476562,"29":-0.1446799635887146,"30":0.3003357946872711,"31":0.020835069939494133,"32":-0.09375349432229996,"33":-2.041560173034668,"34":0.8081503510475159,"35":0.2141299843788147,"36":1.7885541915893555,"37":1.7307237386703491,"38":-0.3533433675765991,"39":0.32658952474594116}},"7":{"bias":7.091281890869141,"weights":{"0":-1.1246427297592163,"1":-0.284877747297287,"2":0.5730305910110474,"3":0.33138608932495117,"4":-0.4455903172492981,"5":-0.40025192499160767,"6":-0.5597994327545166,"7":-0.37826985120773315,"8":0.8969569206237793,"9":0.701823890209198,"10":-1.6848361492156982,"11":0.22106057405471802,"12":1.572200059890747,"13":0.1936992108821869,"14":-2.472578763961792,"15":-0.6817530393600464,"16":-0.7187565565109253,"17":0.9979426264762878,"18":-0.2595362067222595,"19":5.191600322723389,"20":0.4906248152256012,"21":-0.5843997001647949,"22":0.3679521083831787,"23":1.3647327423095703,"24":-0.21204441785812378,"25":0.6231500506401062,"26":-0.038594700396060944,"27":0.8426018953323364,"28":-0.5369802117347717,"29":-1.3073054552078247,"30":-0.25771600008010864,"31":0.034645840525627136,"32":0.6653998494148254,"33":-0.7666494250297546,"34":-0.2166786640882492,"35":0.19474978744983673,"36":1.1882191896438599,"37":1.0013442039489746,"38":0.44144582748413086,"39":0.06384642422199249}},"8":{"bias":5.338655471801758,"weights":{"0":-0.7988646030426025,"1":-0.9113349914550781,"2":0.38113704323768616,"3":0.42917659878730774,"4":-0.9070680141448975,"5":-0.2545103430747986,"6":-0.8794529438018799,"7":0.6851238012313843,"8":-0.07671742886304855,"9":-1.0279635190963745,"10":-2.4882514476776123,"11":-0.7417722344398499,"12":0.8338842391967773,"13":-0.3671952188014984,"14":-3.3740525245666504,"15":0.6086830496788025,"16":-0.015324470587074757,"17":0.012376043945550919,"18":-0.21942327916622162,"19":-2.124481201171875,"20":1.2794126272201538,"21":0.8245829939842224,"22":-0.33993348479270935,"23":3.083571195602417,"24":-0.05380473658442497,"25":0.7574023008346558,"26":-0.09846723079681396,"27":0.3472273051738739,"28":0.06467749923467636,"29":2.680471897125244,"30":0.19853763282299042,"31":-0.08866387605667114,"32":1.048060417175293,"33":-0.15385176241397858,"34":-0.49640485644340515,"35":-0.08324778825044632,"36":0.019672950729727745,"37":1.5325899124145508,"38":0.45824921131134033,"39":-0.11355705559253693}},"9":{"bias":3.9356608390808105,"weights":{"0":-1.7889866828918457,"1":-0.8342236876487732,"2":0.7779857516288757,"3":0.22172032296657562,"4":-0.7734416723251343,"5":0.43585169315338135,"6":-1.2773449420928955,"7":-2.945585250854492,"8":0.25030285120010376,"9":3.0278632640838623,"10":1.6778757572174072,"11":-1.5231682062149048,"12":1.5087710618972778,"13":-0.5856714248657227,"14":-2.139871835708618,"15":1.251910924911499,"16":1.3515074253082275,"17":0.9526079893112183,"18":0.7292435765266418,"19":-2.6314351558685303,"20":-0.024861853569746017,"21":-0.6599235534667969,"22":-0.4387233853340149,"23":-2.7489757537841797,"24":-0.022564278915524483,"25":-1.3561615943908691,"26":-0.9059696197509766,"27":1.329269528388977,"28":-0.7139719724655151,"29":0.9365900158882141,"30":0.7660106420516968,"31":0.34894219040870667,"32":1.2780410051345825,"33":1.044411540031433,"34":-0.23245397210121155,"35":1.1713608503341675,"36":-1.2350517511367798,"37":-0.7215875387191772,"38":0.17517925798892975,"39":-0.11742395907640457}}}],"outputLookup":false,"inputLookup":false,"activation":"tanh","trainOpts":{"iterations":50000,"errorThresh":0.005,"log":true,"logPeriod":1,"learningRate":0.0005,"momentum":0.1,"callbackPeriod":1}}