{"type":"LSTMTimeStep","options":{"inputSize":20,"hiddenSizes":[20,20,20],"outputSize":20,"learningRate":0.0005,"decayRate":0.999,"smoothEps":1e-8,"regc":0.000001,"clipval":5,"json":null,"dataFormatter":null},"input":{"rows":20,"columns":1,"weights":[0.9992485858890319,0.00044004508583842975,0.9998637220383036,0.00031800516851844784,0.9998486002905794,0.00016876975869522195,0.9998918654487854,0.00013135095553144807,0.9999518743071437,0.9998131033292825,0.9985732523321231,0.8994623939789983,0.9001856258317043,0.8998046946026512,0.8998714622241785,0.8999625147276603,-0.00024271340105966592,0.00004538848937253998,0.0002037663954609907,-0.00007037623634406028]},"hiddenLayers":[{"inputMatrix":{"rows":20,"columns":20,"weights":{"0":2.987443208694458,"1":0.6016587615013123,"2":0.5116603374481201,"3":-0.20142950117588043,"4":0.12665106356143951,"5":0.20855623483657837,"6":-0.03287230059504509,"7":0.05022333562374115,"8":-0.03713162615895271,"9":0.044550586491823196,"10":0.5595974326133728,"11":0.4875866770744324,"12":0.24933771789073944,"13":-0.11161569505929947,"14":0.018878232687711716,"15":0.5489494204521179,"16":-0.14990708231925964,"17":-0.03725673630833626,"18":-0.9324323534965515,"19":-0.04522605985403061,"20":-0.03975686803460121,"21":0.10729426890611649,"22":-0.007699592038989067,"23":-0.09519172459840775,"24":0.0014024426927790046,"25":0.10230910778045654,"26":0.6168054938316345,"27":-1.9212400913238525,"28":0.10545981675386429,"29":0.031762443482875824,"30":1.3384898900985718,"31":0.6496933102607727,"32":0.11898323148488998,"33":-0.7004252672195435,"34":-0.2033233493566513,"35":-0.3286559283733368,"36":1.182255744934082,"37":-1.1299537420272827,"38":-1.0290377140045166,"39":0.35183578729629517,"40":0.010102614760398865,"41":0.09250272065401077,"42":-0.2605215609073639,"43":12.815377235412598,"44":-0.3170528709888458,"45":0.05201403796672821,"46":0.0007379149901680648,"47":0.019442951306700706,"48":0.020191363990306854,"49":0.02575952745974064,"50":0.21731621026992798,"51":0.4751672148704529,"52":0.30589380860328674,"53":0.013358665630221367,"54":-0.29821863770484924,"55":-1.6507560014724731,"56":-1.0815465450286865,"57":5.582465171813965,"58":5.569398880004883,"59":-5.5520830154418945,"60":-0.07908644527196884,"61":-0.0898062214255333,"62":0.33719098567962646,"63":-0.21083121001720428,"64":0.0204596109688282,"65":-0.27885326743125916,"66":-0.12189357727766037,"67":0.012078463099896908,"68":0.19593445956707,"69":0.17247289419174194,"70":1.0767545700073242,"71":0.4660310447216034,"72":0.3018932342529297,"73":0.4595101773738861,"74":0.32554343342781067,"75":0.5452913045883179,"76":2.6243793964385986,"77":-1.4416455030441284,"78":0.041659336537122726,"79":1.7896817922592163,"80":-0.021198054775595665,"81":-0.8040552139282227,"82":0.4549141228199005,"83":0.062321241945028305,"84":0.12298794090747833,"85":0.08996079862117767,"86":0.08182521164417267,"87":-0.16141974925994873,"88":0.13377049565315247,"89":0.4875677824020386,"90":0.9666265249252319,"91":0.26015910506248474,"92":0.030690671876072884,"93":0.043635595589876175,"94":0.19838108122348785,"95":0.5211838483810425,"96":1.9179264307022095,"97":-2.017374277114868,"98":-0.25931239128112793,"99":1.60896635055542,"100":-0.09248162806034088,"101":-0.09614590555429459,"102":0.03297986835241318,"103":-0.16755253076553345,"104":0.3537321090698242,"105":-1.0046049356460571,"106":0.42466381192207336,"107":0.0042897798120975494,"108":-0.019499963149428368,"109":-0.044201742857694626,"110":1.594954013824463,"111":0.6670413017272949,"112":0.25818943977355957,"113":-0.8475942611694336,"114":0.18469275534152985,"115":-0.07694216072559357,"116":-0.045718032866716385,"117":-0.6501564979553223,"118":-0.9933743476867676,"119":0.4217991232872009,"120":-9.819281578063965,"121":0.550078272819519,"122":0.0789431557059288,"123":0.047159578651189804,"124":-0.016772806644439697,"125":0.011090938933193684,"126":0.05592244118452072,"127":-0.08600670099258423,"128":-0.08931400626897812,"129":-0.08669373393058777,"130":1.0715446472167969,"131":0.6442065238952637,"132":-0.8601773977279663,"133":-1.1898248195648193,"134":-0.9953336715698242,"135":-0.8696708679199219,"136":-4.199923515319824,"137":1.3575469255447388,"138":-1.4081672430038452,"139":-0.5367009043693542,"140":0.09777189046144485,"141":-2.628641366958618,"142":-0.20187470316886902,"143":0.05027566850185394,"144":-0.13302098214626312,"145":-0.19022490084171295,"146":0.01865452341735363,"147":-0.09614916145801544,"148":-0.0009459292632527649,"149":-0.19335941970348358,"150":1.6475635766983032,"151":1.8279942274093628,"152":0.8313424587249756,"153":0.39732927083969116,"154":0.38007426261901855,"155":1.0219998359680176,"156":-1.0965663194656372,"157":-0.31274333596229553,"158":1.0515905618667603,"159":0.4995709955692291,"160":-0.09812852740287781,"161":-0.4233517050743103,"162":0.7278885245323181,"163":-0.41578105092048645,"164":-0.5833701491355896,"165":-0.034798432141542435,"166":0.16868005692958832,"167":0.13401049375534058,"168":-0.040792934596538544,"169":-0.015012921765446663,"170":1.412744402885437,"171":0.9626395106315613,"172":-0.5573480129241943,"173":-1.0342626571655273,"174":-0.583980143070221,"175":0.7239049077033997,"176":-0.7835444808006287,"177":0.41718363761901855,"178":0.10569177567958832,"179":0.33636215329170227,"180":0.2722164988517761,"181":0.652646005153656,"182":-0.7393674850463867,"183":0.09351451694965363,"184":-0.282243549823761,"185":-0.14119446277618408,"186":-0.11665254086256027,"187":-0.0021461108699440956,"188":0.10210491716861725,"189":0.025989219546318054,"190":0.13000626862049103,"191":-0.043757788836956024,"192":0.04235445335507393,"193":-0.05715541914105415,"194":-0.04244711622595787,"195":0.4980502128601074,"196":-0.14588631689548492,"197":0.6602533459663391,"198":0.1031779944896698,"199":0.007574739400297403,"200":0.13448287546634674,"201":0.185756653547287,"202":-0.1176816001534462,"203":0.17335505783557892,"204":0.34846460819244385,"205":0.04711450636386871,"206":0.2397744506597519,"207":-0.06136523559689522,"208":0.023631475865840912,"209":-0.11159022897481918,"210":0.1924302577972412,"211":-0.4777623414993286,"212":-0.13866183161735535,"213":0.06659944355487823,"214":0.21693351864814758,"215":0.18621276319026947,"216":0.987894594669342,"217":-0.34914520382881165,"218":0.003544022561982274,"219":0.7278499007225037,"220":0.020010612905025482,"221":0.0939047560095787,"222":-0.09779418259859085,"223":0.16555267572402954,"224":-2.539048910140991,"225":0.11259008944034576,"226":0.03790947049856186,"227":-0.08814045786857605,"228":0.08447839319705963,"229":0.10423071682453156,"230":1.1696439981460571,"231":0.8471280336380005,"232":0.12542040646076202,"233":-0.07505716383457184,"234":-0.113337941467762,"235":-0.3342151939868927,"236":-1.6221905946731567,"237":-0.2858468294143677,"238":-1.041892409324646,"239":1.4650474786758423,"240":-0.10888241231441498,"241":0.013755912892520428,"242":-0.20824413001537323,"243":-0.11122817546129227,"244":-0.05317312851548195,"245":-0.09775407612323761,"246":0.16481855511665344,"247":0.5684041976928711,"248":0.28603145480155945,"249":-2.98457932472229,"250":1.2240126132965088,"251":1.0191948413848877,"252":0.09138736873865128,"253":-0.006168592721223831,"254":-0.5789265632629395,"255":-0.46993178129196167,"256":-0.44017907977104187,"257":0.47764599323272705,"258":-0.08972872793674469,"259":0.6879642605781555,"260":0.11260168999433517,"261":-0.056045353412628174,"262":0.11762668937444687,"263":0.10315003991127014,"264":0.09208818525075912,"265":0.08055239170789719,"266":0.2302500605583191,"267":-0.010524923913180828,"268":0.053956400603055954,"269":-0.9036064147949219,"270":0.7419931888580322,"271":-0.0793752521276474,"272":0.3538529872894287,"273":2.706991672515869,"274":-0.2679981589317322,"275":-1.8028275966644287,"276":-0.9151132702827454,"277":1.3205928802490234,"278":1.7780795097351074,"279":2.551689386367798,"280":-0.08894016593694687,"281":-0.026449181139469147,"282":0.4640430510044098,"283":0.08772263675928116,"284":0.023323053494095802,"285":0.09731477499008179,"286":0.22191372513771057,"287":0.20281729102134705,"288":-0.10429716855287552,"289":-0.28746408224105835,"290":0.6036852598190308,"291":0.03410883992910385,"292":-0.4724804162979126,"293":-0.7935216426849365,"294":-0.6889927983283997,"295":0.21980725228786469,"296":-4.8123459815979,"297":3.3042149543762207,"298":-0.31371068954467773,"299":-1.1459296941757202,"300":0.11606907844543457,"301":0.154711052775383,"302":-11.287137985229492,"303":0.6180738210678101,"304":0.10338284820318222,"305":0.0835798904299736,"306":0.09822613000869751,"307":0.03648948296904564,"308":-0.01966477744281292,"309":0.06558957695960999,"310":0.5619155168533325,"311":0.1152988076210022,"312":-0.051951222121715546,"313":-0.711477518081665,"314":-0.6600108742713928,"315":-0.23411157727241516,"316":-3.934997797012329,"317":7.871121883392334,"318":3.2741947174072266,"319":-3.0019009113311768,"320":-0.027220651507377625,"321":0.026726800948381424,"322":-0.05545073375105858,"323":-0.02879565767943859,"324":-0.11797264963388443,"325":0.2437228262424469,"326":-2.9709339141845703,"327":0.16639289259910583,"328":-0.05725516006350517,"329":-0.2648158669471741,"330":1.5674203634262085,"331":0.4265688359737396,"332":-0.09549088031053543,"333":0.6391215920448303,"334":0.21541763842105865,"335":-1.1266238689422607,"336":0.3387329578399658,"337":0.4313209354877472,"338":-0.4897353947162628,"339":1.2285852432250977,"340":-0.15783025324344635,"341":0.18179860711097717,"342":-0.40417855978012085,"343":0.3058915138244629,"344":0.05887779965996742,"345":0.09180910140275955,"346":0.06771259009838104,"347":-0.12462850660085678,"348":0.04829435050487518,"349":0.176698699593544,"350":0.13494911789894104,"351":-0.2583863139152527,"352":-0.15437118709087372,"353":-0.07885101437568665,"354":0.1597568839788437,"355":0.6190758943557739,"356":0.03557926416397095,"357":-1.0815004110336304,"358":-0.03869648650288582,"359":0.8176202774047852,"360":-0.3178134560585022,"361":0.4267493784427643,"362":0.8074477314949036,"363":0.17374618351459503,"364":0.1431662142276764,"365":0.1826036274433136,"366":0.2038494199514389,"367":0.02545664645731449,"368":0.06919778883457184,"369":0.09471385180950165,"370":0.5345113277435303,"371":-0.06628461182117462,"372":-0.47902339696884155,"373":-0.5663416385650635,"374":0.00036786726559512317,"375":1.2768670320510864,"376":2.7028145790100098,"377":-4.311563491821289,"378":-0.10646513849496841,"379":2.573209047317505,"380":0.0471927784383297,"381":-0.20485153794288635,"382":4.990675449371338,"383":-0.09940174221992493,"384":0.2153582125902176,"385":0.09277310222387314,"386":0.2209015041589737,"387":0.1496553272008896,"388":0.048620693385601044,"389":0.2858278751373291,"390":1.677293062210083,"391":1.8124293088912964,"392":0.6565945744514465,"393":0.000773941574152559,"394":0.3549211025238037,"395":0.5405656099319458,"396":0.8686712384223938,"397":-1.1101100444793701,"398":-0.6237996220588684,"399":0.7749318480491638}},"inputHidden":{"rows":20,"columns":20,"weights":{"0":-7.006492321624085e-40,"1":-7.006492321624085e-40,"2":7.006492321624085e-40,"3":7.006492321624085e-40,"4":7.006492321624085e-40,"5":-7.006492321624085e-40,"6":7.006492321624085e-40,"7":-7.006492321624085e-40,"8":-7.006492321624085e-40,"9":-7.006492321624085e-40,"10":7.006492321624085e-40,"11":7.006492321624085e-40,"12":-7.006492321624085e-40,"13":7.006492321624085e-40,"14":7.006492321624085e-40,"15":7.006492321624085e-40,"16":-7.006492321624085e-40,"17":-7.006492321624085e-40,"18":7.006492321624085e-40,"19":7.006492321624085e-40,"20":7.006492321624085e-40,"21":7.006492321624085e-40,"22":-7.006492321624085e-40,"23":7.006492321624085e-40,"24":-7.006492321624085e-40,"25":7.006492321624085e-40,"26":-7.006492321624085e-40,"27":-7.006492321624085e-40,"28":7.006492321624085e-40,"29":7.006492321624085e-40,"30":-7.006492321624085e-40,"31":-7.006492321624085e-40,"32":7.006492321624085e-40,"33":-7.006492321624085e-40,"34":7.006492321624085e-40,"35":7.006492321624085e-40,"36":-7.006492321624085e-40,"37":-7.006492321624085e-40,"38":7.006492321624085e-40,"39":-7.006492321624085e-40,"40":7.006492321624085e-40,"41":-7.006492321624085e-40,"42":-7.006492321624085e-40,"43":7.006492321624085e-40,"44":7.006492321624085e-40,"45":7.006492321624085e-40,"46":-7.006492321624085e-40,"47":7.006492321624085e-40,"48":7.006492321624085e-40,"49":7.006492321624085e-40,"50":7.006492321624085e-40,"51":-7.006492321624085e-40,"52":-7.006492321624085e-40,"53":7.006492321624085e-40,"54":-7.006492321624085e-40,"55":-7.006492321624085e-40,"56":-7.006492321624085e-40,"57":-7.006492321624085e-40,"58":-7.006492321624085e-40,"59":-7.006492321624085e-40,"60":-7.006492321624085e-40,"61":7.006492321624085e-40,"62":7.006492321624085e-40,"63":-7.006492321624085e-40,"64":-7.006492321624085e-40,"65":7.006492321624085e-40,"66":7.006492321624085e-40,"67":-7.006492321624085e-40,"68":7.006492321624085e-40,"69":7.006492321624085e-40,"70":7.006492321624085e-40,"71":7.006492321624085e-40,"72":7.006492321624085e-40,"73":-7.006492321624085e-40,"74":7.006492321624085e-40,"75":-7.006492321624085e-40,"76":-7.006492321624085e-40,"77":-7.006492321624085e-40,"78":-7.006492321624085e-40,"79":-7.006492321624085e-40,"80":7.006492321624085e-40,"81":7.006492321624085e-40,"82":-7.006492321624085e-40,"83":7.006492321624085e-40,"84":7.006492321624085e-40,"85":7.006492321624085e-40,"86":7.006492321624085e-40,"87":-7.006492321624085e-40,"88":7.006492321624085e-40,"89":7.006492321624085e-40,"90":7.006492321624085e-40,"91":-7.006492321624085e-40,"92":7.006492321624085e-40,"93":-7.006492321624085e-40,"94":7.006492321624085e-40,"95":7.006492321624085e-40,"96":7.006492321624085e-40,"97":-7.006492321624085e-40,"98":-7.006492321624085e-40,"99":-7.006492321624085e-40,"100":7.006492321624085e-40,"101":7.006492321624085e-40,"102":7.006492321624085e-40,"103":7.006492321624085e-40,"104":7.006492321624085e-40,"105":-7.006492321624085e-40,"106":-7.006492321624085e-40,"107":-7.006492321624085e-40,"108":-7.006492321624085e-40,"109":-7.006492321624085e-40,"110":7.006492321624085e-40,"111":7.006492321624085e-40,"112":7.006492321624085e-40,"113":7.006492321624085e-40,"114":-7.006492321624085e-40,"115":-7.006492321624085e-40,"116":-7.006492321624085e-40,"117":7.006492321624085e-40,"118":-7.006492321624085e-40,"119":7.006492321624085e-40,"120":7.006492321624085e-40,"121":-7.006492321624085e-40,"122":-7.006492321624085e-40,"123":-7.006492321624085e-40,"124":-7.006492321624085e-40,"125":-7.006492321624085e-40,"126":-7.006492321624085e-40,"127":7.006492321624085e-40,"128":-7.006492321624085e-40,"129":-7.006492321624085e-40,"130":7.006492321624085e-40,"131":7.006492321624085e-40,"132":7.006492321624085e-40,"133":-7.006492321624085e-40,"134":-7.006492321624085e-40,"135":7.006492321624085e-40,"136":-7.006492321624085e-40,"137":7.006492321624085e-40,"138":7.006492321624085e-40,"139":-7.006492321624085e-40,"140":7.006492321624085e-40,"141":7.006492321624085e-40,"142":-7.006492321624085e-40,"143":-7.006492321624085e-40,"144":-7.006492321624085e-40,"145":-7.006492321624085e-40,"146":-7.006492321624085e-40,"147":7.006492321624085e-40,"148":-7.006492321624085e-40,"149":7.006492321624085e-40,"150":-7.006492321624085e-40,"151":-7.006492321624085e-40,"152":7.006492321624085e-40,"153":-7.006492321624085e-40,"154":7.006492321624085e-40,"155":7.006492321624085e-40,"156":7.006492321624085e-40,"157":-7.006492321624085e-40,"158":7.006492321624085e-40,"159":-7.006492321624085e-40,"160":-7.006492321624085e-40,"161":7.006492321624085e-40,"162":-7.006492321624085e-40,"163":7.006492321624085e-40,"164":-7.006492321624085e-40,"165":7.006492321624085e-40,"166":-7.006492321624085e-40,"167":-7.006492321624085e-40,"168":-7.006492321624085e-40,"169":7.006492321624085e-40,"170":7.006492321624085e-40,"171":7.006492321624085e-40,"172":7.006492321624085e-40,"173":-7.006492321624085e-40,"174":7.006492321624085e-40,"175":7.006492321624085e-40,"176":-7.006492321624085e-40,"177":7.006492321624085e-40,"178":-7.006492321624085e-40,"179":7.006492321624085e-40,"180":-7.006492321624085e-40,"181":-7.006492321624085e-40,"182":7.006492321624085e-40,"183":-7.006492321624085e-40,"184":7.006492321624085e-40,"185":7.006492321624085e-40,"186":7.006492321624085e-40,"187":-7.006492321624085e-40,"188":7.006492321624085e-40,"189":7.006492321624085e-40,"190":-7.006492321624085e-40,"191":-7.006492321624085e-40,"192":-7.006492321624085e-40,"193":7.006492321624085e-40,"194":7.006492321624085e-40,"195":7.006492321624085e-40,"196":-7.006492321624085e-40,"197":-7.006492321624085e-40,"198":7.006492321624085e-40,"199":7.006492321624085e-40,"200":7.006492321624085e-40,"201":7.006492321624085e-40,"202":7.006492321624085e-40,"203":7.006492321624085e-40,"204":7.006492321624085e-40,"205":-7.006492321624085e-40,"206":-7.006492321624085e-40,"207":7.006492321624085e-40,"208":7.006492321624085e-40,"209":7.006492321624085e-40,"210":7.006492321624085e-40,"211":7.006492321624085e-40,"212":-7.006492321624085e-40,"213":-7.006492321624085e-40,"214":-7.006492321624085e-40,"215":-7.006492321624085e-40,"216":7.006492321624085e-40,"217":7.006492321624085e-40,"218":-7.006492321624085e-40,"219":-7.006492321624085e-40,"220":-7.006492321624085e-40,"221":-7.006492321624085e-40,"222":-7.006492321624085e-40,"223":7.006492321624085e-40,"224":7.006492321624085e-40,"225":7.006492321624085e-40,"226":-7.006492321624085e-40,"227":-7.006492321624085e-40,"228":7.006492321624085e-40,"229":7.006492321624085e-40,"230":7.006492321624085e-40,"231":-7.006492321624085e-40,"232":-7.006492321624085e-40,"233":-7.006492321624085e-40,"234":-7.006492321624085e-40,"235":7.006492321624085e-40,"236":7.006492321624085e-40,"237":7.006492321624085e-40,"238":-7.006492321624085e-40,"239":-7.006492321624085e-40,"240":7.006492321624085e-40,"241":-7.006492321624085e-40,"242":7.006492321624085e-40,"243":7.006492321624085e-40,"244":-7.006492321624085e-40,"245":-7.006492321624085e-40,"246":7.006492321624085e-40,"247":7.006492321624085e-40,"248":-7.006492321624085e-40,"249":7.006492321624085e-40,"250":-7.006492321624085e-40,"251":7.006492321624085e-40,"252":-7.006492321624085e-40,"253":7.006492321624085e-40,"254":-7.006492321624085e-40,"255":-7.006492321624085e-40,"256":-7.006492321624085e-40,"257":-7.006492321624085e-40,"258":7.006492321624085e-40,"259":-7.006492321624085e-40,"260":7.006492321624085e-40,"261":7.006492321624085e-40,"262":7.006492321624085e-40,"263":-7.006492321624085e-40,"264":7.006492321624085e-40,"265":-7.006492321624085e-40,"266":7.006492321624085e-40,"267":-7.006492321624085e-40,"268":7.006492321624085e-40,"269":7.006492321624085e-40,"270":7.006492321624085e-40,"271":-7.006492321624085e-40,"272":7.006492321624085e-40,"273":7.006492321624085e-40,"274":7.006492321624085e-40,"275":7.006492321624085e-40,"276":-7.006492321624085e-40,"277":-7.006492321624085e-40,"278":7.006492321624085e-40,"279":-7.006492321624085e-40,"280":-7.006492321624085e-40,"281":7.006492321624085e-40,"282":7.006492321624085e-40,"283":-7.006492321624085e-40,"284":7.006492321624085e-40,"285":7.006492321624085e-40,"286":-7.006492321624085e-40,"287":-7.006492321624085e-40,"288":7.006492321624085e-40,"289":7.006492321624085e-40,"290":-7.006492321624085e-40,"291":7.006492321624085e-40,"292":-7.006492321624085e-40,"293":-7.006492321624085e-40,"294":7.006492321624085e-40,"295":7.006492321624085e-40,"296":7.006492321624085e-40,"297":-7.006492321624085e-40,"298":7.006492321624085e-40,"299":-7.006492321624085e-40,"300":7.006492321624085e-40,"301":7.006492321624085e-40,"302":-7.006492321624085e-40,"303":-7.006492321624085e-40,"304":7.006492321624085e-40,"305":-7.006492321624085e-40,"306":7.006492321624085e-40,"307":-7.006492321624085e-40,"308":-7.006492321624085e-40,"309":7.006492321624085e-40,"310":-7.006492321624085e-40,"311":7.006492321624085e-40,"312":-7.006492321624085e-40,"313":7.006492321624085e-40,"314":-7.006492321624085e-40,"315":-7.006492321624085e-40,"316":7.006492321624085e-40,"317":7.006492321624085e-40,"318":-7.006492321624085e-40,"319":-7.006492321624085e-40,"320":7.006492321624085e-40,"321":-7.006492321624085e-40,"322":7.006492321624085e-40,"323":-7.006492321624085e-40,"324":-7.006492321624085e-40,"325":-7.006492321624085e-40,"326":-7.006492321624085e-40,"327":-7.006492321624085e-40,"328":7.006492321624085e-40,"329":7.006492321624085e-40,"330":7.006492321624085e-40,"331":7.006492321624085e-40,"332":-7.006492321624085e-40,"333":-7.006492321624085e-40,"334":7.006492321624085e-40,"335":7.006492321624085e-40,"336":-7.006492321624085e-40,"337":7.006492321624085e-40,"338":-7.006492321624085e-40,"339":7.006492321624085e-40,"340":7.006492321624085e-40,"341":7.006492321624085e-40,"342":-7.006492321624085e-40,"343":7.006492321624085e-40,"344":7.006492321624085e-40,"345":-7.006492321624085e-40,"346":-7.006492321624085e-40,"347":7.006492321624085e-40,"348":7.006492321624085e-40,"349":-7.006492321624085e-40,"350":7.006492321624085e-40,"351":7.006492321624085e-40,"352":7.006492321624085e-40,"353":-7.006492321624085e-40,"354":-7.006492321624085e-40,"355":7.006492321624085e-40,"356":-7.006492321624085e-40,"357":7.006492321624085e-40,"358":-7.006492321624085e-40,"359":7.006492321624085e-40,"360":7.006492321624085e-40,"361":-7.006492321624085e-40,"362":-7.006492321624085e-40,"363":7.006492321624085e-40,"364":7.006492321624085e-40,"365":7.006492321624085e-40,"366":-7.006492321624085e-40,"367":-7.006492321624085e-40,"368":-7.006492321624085e-40,"369":-7.006492321624085e-40,"370":7.006492321624085e-40,"371":-7.006492321624085e-40,"372":-7.006492321624085e-40,"373":7.006492321624085e-40,"374":7.006492321624085e-40,"375":-7.006492321624085e-40,"376":-7.006492321624085e-40,"377":7.006492321624085e-40,"378":-7.006492321624085e-40,"379":7.006492321624085e-40,"380":-7.006492321624085e-40,"381":-7.006492321624085e-40,"382":7.006492321624085e-40,"383":7.006492321624085e-40,"384":-7.006492321624085e-40,"385":7.006492321624085e-40,"386":7.006492321624085e-40,"387":7.006492321624085e-40,"388":-7.006492321624085e-40,"389":-7.006492321624085e-40,"390":7.006492321624085e-40,"391":7.006492321624085e-40,"392":-7.006492321624085e-40,"393":-7.006492321624085e-40,"394":-7.006492321624085e-40,"395":-7.006492321624085e-40,"396":7.006492321624085e-40,"397":-7.006492321624085e-40,"398":-7.006492321624085e-40,"399":7.006492321624085e-40}},"inputBias":{"rows":20,"columns":1,"weights":{"0":0.5464578866958618,"1":0.5454012751579285,"2":0.5443280339241028,"3":0.4528418481349945,"4":0.2301332801580429,"5":0.48642125725746155,"6":0.5201306939125061,"7":1.8650455474853516,"8":0.7158450484275818,"9":-0.2394041270017624,"10":-0.5005944967269897,"11":0.5954599976539612,"12":1.014614462852478,"13":0.08424738049507141,"14":-0.07622958719730377,"15":0.05860661342740059,"16":0.20106859505176544,"17":-0.3318464159965515,"18":-0.11774002760648727,"19":1.8259812593460083}},"forgetMatrix":{"rows":20,"columns":20,"weights":{"0":-7.006492321624085e-40,"1":7.006492321624085e-40,"2":7.006492321624085e-40,"3":7.006492321624085e-40,"4":7.006492321624085e-40,"5":-7.006492321624085e-40,"6":-7.006492321624085e-40,"7":7.006492321624085e-40,"8":7.006492321624085e-40,"9":-7.006492321624085e-40,"10":-7.006492321624085e-40,"11":-7.006492321624085e-40,"12":-7.006492321624085e-40,"13":7.006492321624085e-40,"14":-7.006492321624085e-40,"15":-7.006492321624085e-40,"16":7.006492321624085e-40,"17":-7.006492321624085e-40,"18":-7.006492321624085e-40,"19":7.006492321624085e-40,"20":7.006492321624085e-40,"21":7.006492321624085e-40,"22":-7.006492321624085e-40,"23":-7.006492321624085e-40,"24":7.006492321624085e-40,"25":7.006492321624085e-40,"26":7.006492321624085e-40,"27":-7.006492321624085e-40,"28":-7.006492321624085e-40,"29":-7.006492321624085e-40,"30":7.006492321624085e-40,"31":7.006492321624085e-40,"32":7.006492321624085e-40,"33":-7.006492321624085e-40,"34":7.006492321624085e-40,"35":-7.006492321624085e-40,"36":-7.006492321624085e-40,"37":7.006492321624085e-40,"38":7.006492321624085e-40,"39":7.006492321624085e-40,"40":-7.006492321624085e-40,"41":-7.006492321624085e-40,"42":-7.006492321624085e-40,"43":7.006492321624085e-40,"44":7.006492321624085e-40,"45":-7.006492321624085e-40,"46":-7.006492321624085e-40,"47":7.006492321624085e-40,"48":-7.006492321624085e-40,"49":-7.006492321624085e-40,"50":7.006492321624085e-40,"51":-7.006492321624085e-40,"52":-7.006492321624085e-40,"53":7.006492321624085e-40,"54":-7.006492321624085e-40,"55":-7.006492321624085e-40,"56":7.006492321624085e-40,"57":7.006492321624085e-40,"58":7.006492321624085e-40,"59":7.006492321624085e-40,"60":7.006492321624085e-40,"61":7.006492321624085e-40,"62":7.006492321624085e-40,"63":7.006492321624085e-40,"64":7.006492321624085e-40,"65":-7.006492321624085e-40,"66":-7.006492321624085e-40,"67":-7.006492321624085e-40,"68":7.006492321624085e-40,"69":-7.006492321624085e-40,"70":-7.006492321624085e-40,"71":7.006492321624085e-40,"72":-7.006492321624085e-40,"73":7.006492321624085e-40,"74":-7.006492321624085e-40,"75":-7.006492321624085e-40,"76":-7.006492321624085e-40,"77":-7.006492321624085e-40,"78":-7.006492321624085e-40,"79":7.006492321624085e-40,"80":-7.006492321624085e-40,"81":-7.006492321624085e-40,"82":7.006492321624085e-40,"83":7.006492321624085e-40,"84":-7.006492321624085e-40,"85":7.006492321624085e-40,"86":-7.006492321624085e-40,"87":7.006492321624085e-40,"88":7.006492321624085e-40,"89":7.006492321624085e-40,"90":-7.006492321624085e-40,"91":-7.006492321624085e-40,"92":-7.006492321624085e-40,"93":7.006492321624085e-40,"94":-7.006492321624085e-40,"95":-7.006492321624085e-40,"96":-7.006492321624085e-40,"97":-7.006492321624085e-40,"98":-7.006492321624085e-40,"99":7.006492321624085e-40,"100":-7.006492321624085e-40,"101":-7.006492321624085e-40,"102":-7.006492321624085e-40,"103":-7.006492321624085e-40,"104":7.006492321624085e-40,"105":-7.006492321624085e-40,"106":7.006492321624085e-40,"107":-7.006492321624085e-40,"108":7.006492321624085e-40,"109":-7.006492321624085e-40,"110":7.006492321624085e-40,"111":-7.006492321624085e-40,"112":7.006492321624085e-40,"113":-7.006492321624085e-40,"114":-7.006492321624085e-40,"115":7.006492321624085e-40,"116":-7.006492321624085e-40,"117":7.006492321624085e-40,"118":7.006492321624085e-40,"119":-7.006492321624085e-40,"120":7.006492321624085e-40,"121":7.006492321624085e-40,"122":7.006492321624085e-40,"123":-7.006492321624085e-40,"124":-7.006492321624085e-40,"125":7.006492321624085e-40,"126":7.006492321624085e-40,"127":-7.006492321624085e-40,"128":-7.006492321624085e-40,"129":7.006492321624085e-40,"130":7.006492321624085e-40,"131":7.006492321624085e-40,"132":7.006492321624085e-40,"133":7.006492321624085e-40,"134":-7.006492321624085e-40,"135":-7.006492321624085e-40,"136":-7.006492321624085e-40,"137":-7.006492321624085e-40,"138":7.006492321624085e-40,"139":-7.006492321624085e-40,"140":7.006492321624085e-40,"141":7.006492321624085e-40,"142":7.006492321624085e-40,"143":7.006492321624085e-40,"144":7.006492321624085e-40,"145":-7.006492321624085e-40,"146":7.006492321624085e-40,"147":-7.006492321624085e-40,"148":7.006492321624085e-40,"149":7.006492321624085e-40,"150":7.006492321624085e-40,"151":7.006492321624085e-40,"152":7.006492321624085e-40,"153":7.006492321624085e-40,"154":7.006492321624085e-40,"155":7.006492321624085e-40,"156":7.006492321624085e-40,"157":-7.006492321624085e-40,"158":-7.006492321624085e-40,"159":7.006492321624085e-40,"160":-7.006492321624085e-40,"161":-7.006492321624085e-40,"162":-7.006492321624085e-40,"163":-7.006492321624085e-40,"164":-7.006492321624085e-40,"165":-7.006492321624085e-40,"166":-7.006492321624085e-40,"167":7.006492321624085e-40,"168":7.006492321624085e-40,"169":7.006492321624085e-40,"170":-7.006492321624085e-40,"171":-7.006492321624085e-40,"172":-7.006492321624085e-40,"173":7.006492321624085e-40,"174":7.006492321624085e-40,"175":-7.006492321624085e-40,"176":-7.006492321624085e-40,"177":-7.006492321624085e-40,"178":7.006492321624085e-40,"179":7.006492321624085e-40,"180":-7.006492321624085e-40,"181":7.006492321624085e-40,"182":7.006492321624085e-40,"183":7.006492321624085e-40,"184":-7.006492321624085e-40,"185":7.006492321624085e-40,"186":-7.006492321624085e-40,"187":7.006492321624085e-40,"188":-7.006492321624085e-40,"189":-7.006492321624085e-40,"190":7.006492321624085e-40,"191":-7.006492321624085e-40,"192":7.006492321624085e-40,"193":-7.006492321624085e-40,"194":-7.006492321624085e-40,"195":-7.006492321624085e-40,"196":7.006492321624085e-40,"197":-7.006492321624085e-40,"198":-7.006492321624085e-40,"199":-7.006492321624085e-40,"200":7.006492321624085e-40,"201":-7.006492321624085e-40,"202":7.006492321624085e-40,"203":7.006492321624085e-40,"204":-7.006492321624085e-40,"205":-7.006492321624085e-40,"206":7.006492321624085e-40,"207":-7.006492321624085e-40,"208":-7.006492321624085e-40,"209":-7.006492321624085e-40,"210":7.006492321624085e-40,"211":7.006492321624085e-40,"212":-7.006492321624085e-40,"213":-7.006492321624085e-40,"214":-7.006492321624085e-40,"215":7.006492321624085e-40,"216":-7.006492321624085e-40,"217":-7.006492321624085e-40,"218":-7.006492321624085e-40,"219":7.006492321624085e-40,"220":-7.006492321624085e-40,"221":7.006492321624085e-40,"222":-7.006492321624085e-40,"223":-7.006492321624085e-40,"224":7.006492321624085e-40,"225":-7.006492321624085e-40,"226":7.006492321624085e-40,"227":7.006492321624085e-40,"228":7.006492321624085e-40,"229":-7.006492321624085e-40,"230":-7.006492321624085e-40,"231":-7.006492321624085e-40,"232":-7.006492321624085e-40,"233":-7.006492321624085e-40,"234":7.006492321624085e-40,"235":7.006492321624085e-40,"236":7.006492321624085e-40,"237":7.006492321624085e-40,"238":-7.006492321624085e-40,"239":-7.006492321624085e-40,"240":7.006492321624085e-40,"241":-7.006492321624085e-40,"242":7.006492321624085e-40,"243":7.006492321624085e-40,"244":-7.006492321624085e-40,"245":-7.006492321624085e-40,"246":-7.006492321624085e-40,"247":-7.006492321624085e-40,"248":-7.006492321624085e-40,"249":7.006492321624085e-40,"250":7.006492321624085e-40,"251":7.006492321624085e-40,"252":-7.006492321624085e-40,"253":7.006492321624085e-40,"254":-7.006492321624085e-40,"255":-7.006492321624085e-40,"256":-7.006492321624085e-40,"257":7.006492321624085e-40,"258":-7.006492321624085e-40,"259":7.006492321624085e-40,"260":-7.006492321624085e-40,"261":7.006492321624085e-40,"262":7.006492321624085e-40,"263":-7.006492321624085e-40,"264":7.006492321624085e-40,"265":7.006492321624085e-40,"266":-7.006492321624085e-40,"267":-7.006492321624085e-40,"268":-7.006492321624085e-40,"269":7.006492321624085e-40,"270":7.006492321624085e-40,"271":-7.006492321624085e-40,"272":-7.006492321624085e-40,"273":-7.006492321624085e-40,"274":-7.006492321624085e-40,"275":-7.006492321624085e-40,"276":7.006492321624085e-40,"277":-7.006492321624085e-40,"278":-7.006492321624085e-40,"279":7.006492321624085e-40,"280":7.006492321624085e-40,"281":7.006492321624085e-40,"282":-7.006492321624085e-40,"283":7.006492321624085e-40,"284":7.006492321624085e-40,"285":-7.006492321624085e-40,"286":-7.006492321624085e-40,"287":7.006492321624085e-40,"288":-7.006492321624085e-40,"289":-7.006492321624085e-40,"290":-7.006492321624085e-40,"291":-7.006492321624085e-40,"292":-7.006492321624085e-40,"293":7.006492321624085e-40,"294":-7.006492321624085e-40,"295":7.006492321624085e-40,"296":7.006492321624085e-40,"297":-7.006492321624085e-40,"298":-7.006492321624085e-40,"299":-7.006492321624085e-40,"300":7.006492321624085e-40,"301":7.006492321624085e-40,"302":7.006492321624085e-40,"303":7.006492321624085e-40,"304":7.006492321624085e-40,"305":-7.006492321624085e-40,"306":-7.006492321624085e-40,"307":-7.006492321624085e-40,"308":7.006492321624085e-40,"309":7.006492321624085e-40,"310":7.006492321624085e-40,"311":7.006492321624085e-40,"312":7.006492321624085e-40,"313":-7.006492321624085e-40,"314":-7.006492321624085e-40,"315":-7.006492321624085e-40,"316":-7.006492321624085e-40,"317":7.006492321624085e-40,"318":7.006492321624085e-40,"319":7.006492321624085e-40,"320":7.006492321624085e-40,"321":7.006492321624085e-40,"322":-7.006492321624085e-40,"323":-7.006492321624085e-40,"324":-7.006492321624085e-40,"325":7.006492321624085e-40,"326":-7.006492321624085e-40,"327":7.006492321624085e-40,"328":7.006492321624085e-40,"329":-7.006492321624085e-40,"330":7.006492321624085e-40,"331":-7.006492321624085e-40,"332":7.006492321624085e-40,"333":-7.006492321624085e-40,"334":-7.006492321624085e-40,"335":-7.006492321624085e-40,"336":7.006492321624085e-40,"337":-7.006492321624085e-40,"338":7.006492321624085e-40,"339":-7.006492321624085e-40,"340":-7.006492321624085e-40,"341":-7.006492321624085e-40,"342":7.006492321624085e-40,"343":-7.006492321624085e-40,"344":-7.006492321624085e-40,"345":-7.006492321624085e-40,"346":7.006492321624085e-40,"347":-7.006492321624085e-40,"348":7.006492321624085e-40,"349":-7.006492321624085e-40,"350":7.006492321624085e-40,"351":-7.006492321624085e-40,"352":7.006492321624085e-40,"353":7.006492321624085e-40,"354":7.006492321624085e-40,"355":7.006492321624085e-40,"356":-7.006492321624085e-40,"357":7.006492321624085e-40,"358":7.006492321624085e-40,"359":-7.006492321624085e-40,"360":7.006492321624085e-40,"361":-7.006492321624085e-40,"362":7.006492321624085e-40,"363":7.006492321624085e-40,"364":7.006492321624085e-40,"365":7.006492321624085e-40,"366":-7.006492321624085e-40,"367":7.006492321624085e-40,"368":7.006492321624085e-40,"369":7.006492321624085e-40,"370":-7.006492321624085e-40,"371":7.006492321624085e-40,"372":7.006492321624085e-40,"373":-7.006492321624085e-40,"374":-7.006492321624085e-40,"375":7.006492321624085e-40,"376":7.006492321624085e-40,"377":7.006492321624085e-40,"378":-7.006492321624085e-40,"379":-7.006492321624085e-40,"380":-7.006492321624085e-40,"381":-7.006492321624085e-40,"382":-7.006492321624085e-40,"383":-7.006492321624085e-40,"384":7.006492321624085e-40,"385":-7.006492321624085e-40,"386":7.006492321624085e-40,"387":-7.006492321624085e-40,"388":7.006492321624085e-40,"389":-7.006492321624085e-40,"390":-7.006492321624085e-40,"391":7.006492321624085e-40,"392":-7.006492321624085e-40,"393":-7.006492321624085e-40,"394":7.006492321624085e-40,"395":7.006492321624085e-40,"396":-7.006492321624085e-40,"397":-7.006492321624085e-40,"398":-7.006492321624085e-40,"399":-7.006492321624085e-40}},"forgetHidden":{"rows":20,"columns":20,"weights":{"0":7.006492321624085e-40,"1":7.006492321624085e-40,"2":-7.006492321624085e-40,"3":-7.006492321624085e-40,"4":7.006492321624085e-40,"5":7.006492321624085e-40,"6":-7.006492321624085e-40,"7":7.006492321624085e-40,"8":-7.006492321624085e-40,"9":-7.006492321624085e-40,"10":7.006492321624085e-40,"11":7.006492321624085e-40,"12":7.006492321624085e-40,"13":-7.006492321624085e-40,"14":7.006492321624085e-40,"15":7.006492321624085e-40,"16":-7.006492321624085e-40,"17":-7.006492321624085e-40,"18":7.006492321624085e-40,"19":-7.006492321624085e-40,"20":7.006492321624085e-40,"21":-7.006492321624085e-40,"22":7.006492321624085e-40,"23":7.006492321624085e-40,"24":7.006492321624085e-40,"25":-7.006492321624085e-40,"26":7.006492321624085e-40,"27":-7.006492321624085e-40,"28":-7.006492321624085e-40,"29":7.006492321624085e-40,"30":7.006492321624085e-40,"31":-7.006492321624085e-40,"32":7.006492321624085e-40,"33":-7.006492321624085e-40,"34":-7.006492321624085e-40,"35":-7.006492321624085e-40,"36":-7.006492321624085e-40,"37":-7.006492321624085e-40,"38":-7.006492321624085e-40,"39":-7.006492321624085e-40,"40":-7.006492321624085e-40,"41":-7.006492321624085e-40,"42":7.006492321624085e-40,"43":-7.006492321624085e-40,"44":-7.006492321624085e-40,"45":7.006492321624085e-40,"46":7.006492321624085e-40,"47":-7.006492321624085e-40,"48":7.006492321624085e-40,"49":-7.006492321624085e-40,"50":7.006492321624085e-40,"51":-7.006492321624085e-40,"52":-7.006492321624085e-40,"53":7.006492321624085e-40,"54":-7.006492321624085e-40,"55":-7.006492321624085e-40,"56":-7.006492321624085e-40,"57":7.006492321624085e-40,"58":-7.006492321624085e-40,"59":7.006492321624085e-40,"60":-7.006492321624085e-40,"61":-7.006492321624085e-40,"62":7.006492321624085e-40,"63":7.006492321624085e-40,"64":7.006492321624085e-40,"65":7.006492321624085e-40,"66":-7.006492321624085e-40,"67":7.006492321624085e-40,"68":7.006492321624085e-40,"69":-7.006492321624085e-40,"70":7.006492321624085e-40,"71":-7.006492321624085e-40,"72":7.006492321624085e-40,"73":7.006492321624085e-40,"74":7.006492321624085e-40,"75":-7.006492321624085e-40,"76":7.006492321624085e-40,"77":-7.006492321624085e-40,"78":-7.006492321624085e-40,"79":-7.006492321624085e-40,"80":-7.006492321624085e-40,"81":7.006492321624085e-40,"82":-7.006492321624085e-40,"83":7.006492321624085e-40,"84":-7.006492321624085e-40,"85":7.006492321624085e-40,"86":-7.006492321624085e-40,"87":-7.006492321624085e-40,"88":-7.006492321624085e-40,"89":7.006492321624085e-40,"90":7.006492321624085e-40,"91":-7.006492321624085e-40,"92":-7.006492321624085e-40,"93":-7.006492321624085e-40,"94":7.006492321624085e-40,"95":7.006492321624085e-40,"96":-7.006492321624085e-40,"97":7.006492321624085e-40,"98":7.006492321624085e-40,"99":7.006492321624085e-40,"100":7.006492321624085e-40,"101":-7.006492321624085e-40,"102":-7.006492321624085e-40,"103":-7.006492321624085e-40,"104":7.006492321624085e-40,"105":-7.006492321624085e-40,"106":-7.006492321624085e-40,"107":-7.006492321624085e-40,"108":7.006492321624085e-40,"109":-7.006492321624085e-40,"110":-7.006492321624085e-40,"111":-7.006492321624085e-40,"112":-7.006492321624085e-40,"113":-7.006492321624085e-40,"114":7.006492321624085e-40,"115":7.006492321624085e-40,"116":-7.006492321624085e-40,"117":7.006492321624085e-40,"118":-7.006492321624085e-40,"119":7.006492321624085e-40,"120":7.006492321624085e-40,"121":-7.006492321624085e-40,"122":-7.006492321624085e-40,"123":7.006492321624085e-40,"124":-7.006492321624085e-40,"125":7.006492321624085e-40,"126":7.006492321624085e-40,"127":-7.006492321624085e-40,"128":7.006492321624085e-40,"129":-7.006492321624085e-40,"130":7.006492321624085e-40,"131":7.006492321624085e-40,"132":7.006492321624085e-40,"133":-7.006492321624085e-40,"134":7.006492321624085e-40,"135":7.006492321624085e-40,"136":7.006492321624085e-40,"137":7.006492321624085e-40,"138":7.006492321624085e-40,"139":-7.006492321624085e-40,"140":-7.006492321624085e-40,"141":-7.006492321624085e-40,"142":-7.006492321624085e-40,"143":7.006492321624085e-40,"144":-7.006492321624085e-40,"145":7.006492321624085e-40,"146":-7.006492321624085e-40,"147":7.006492321624085e-40,"148":7.006492321624085e-40,"149":-7.006492321624085e-40,"150":-7.006492321624085e-40,"151":-7.006492321624085e-40,"152":7.006492321624085e-40,"153":7.006492321624085e-40,"154":7.006492321624085e-40,"155":-7.006492321624085e-40,"156":-7.006492321624085e-40,"157":-7.006492321624085e-40,"158":7.006492321624085e-40,"159":-7.006492321624085e-40,"160":7.006492321624085e-40,"161":7.006492321624085e-40,"162":-7.006492321624085e-40,"163":7.006492321624085e-40,"164":7.006492321624085e-40,"165":-7.006492321624085e-40,"166":-7.006492321624085e-40,"167":-7.006492321624085e-40,"168":7.006492321624085e-40,"169":7.006492321624085e-40,"170":7.006492321624085e-40,"171":7.006492321624085e-40,"172":-7.006492321624085e-40,"173":-7.006492321624085e-40,"174":7.006492321624085e-40,"175":-7.006492321624085e-40,"176":-7.006492321624085e-40,"177":-7.006492321624085e-40,"178":-7.006492321624085e-40,"179":-7.006492321624085e-40,"180":7.006492321624085e-40,"181":-7.006492321624085e-40,"182":7.006492321624085e-40,"183":7.006492321624085e-40,"184":-7.006492321624085e-40,"185":7.006492321624085e-40,"186":7.006492321624085e-40,"187":-7.006492321624085e-40,"188":7.006492321624085e-40,"189":7.006492321624085e-40,"190":7.006492321624085e-40,"191":7.006492321624085e-40,"192":7.006492321624085e-40,"193":7.006492321624085e-40,"194":-7.006492321624085e-40,"195":-7.006492321624085e-40,"196":7.006492321624085e-40,"197":7.006492321624085e-40,"198":-7.006492321624085e-40,"199":-7.006492321624085e-40,"200":7.006492321624085e-40,"201":-7.006492321624085e-40,"202":-7.006492321624085e-40,"203":7.006492321624085e-40,"204":7.006492321624085e-40,"205":-7.006492321624085e-40,"206":-7.006492321624085e-40,"207":-7.006492321624085e-40,"208":7.006492321624085e-40,"209":-7.006492321624085e-40,"210":-7.006492321624085e-40,"211":7.006492321624085e-40,"212":7.006492321624085e-40,"213":-7.006492321624085e-40,"214":-7.006492321624085e-40,"215":-7.006492321624085e-40,"216":-7.006492321624085e-40,"217":7.006492321624085e-40,"218":7.006492321624085e-40,"219":-7.006492321624085e-40,"220":-7.006492321624085e-40,"221":-7.006492321624085e-40,"222":-7.006492321624085e-40,"223":7.006492321624085e-40,"224":-7.006492321624085e-40,"225":7.006492321624085e-40,"226":7.006492321624085e-40,"227":-7.006492321624085e-40,"228":7.006492321624085e-40,"229":-7.006492321624085e-40,"230":-7.006492321624085e-40,"231":-7.006492321624085e-40,"232":-7.006492321624085e-40,"233":-7.006492321624085e-40,"234":7.006492321624085e-40,"235":-7.006492321624085e-40,"236":7.006492321624085e-40,"237":-7.006492321624085e-40,"238":7.006492321624085e-40,"239":7.006492321624085e-40,"240":7.006492321624085e-40,"241":-7.006492321624085e-40,"242":-7.006492321624085e-40,"243":-7.006492321624085e-40,"244":-7.006492321624085e-40,"245":-7.006492321624085e-40,"246":-7.006492321624085e-40,"247":7.006492321624085e-40,"248":7.006492321624085e-40,"249":7.006492321624085e-40,"250":-7.006492321624085e-40,"251":-7.006492321624085e-40,"252":-7.006492321624085e-40,"253":-7.006492321624085e-40,"254":-7.006492321624085e-40,"255":-7.006492321624085e-40,"256":7.006492321624085e-40,"257":-7.006492321624085e-40,"258":7.006492321624085e-40,"259":7.006492321624085e-40,"260":7.006492321624085e-40,"261":-7.006492321624085e-40,"262":-7.006492321624085e-40,"263":7.006492321624085e-40,"264":7.006492321624085e-40,"265":7.006492321624085e-40,"266":7.006492321624085e-40,"267":-7.006492321624085e-40,"268":7.006492321624085e-40,"269":-7.006492321624085e-40,"270":7.006492321624085e-40,"271":7.006492321624085e-40,"272":7.006492321624085e-40,"273":7.006492321624085e-40,"274":-7.006492321624085e-40,"275":-7.006492321624085e-40,"276":-7.006492321624085e-40,"277":-7.006492321624085e-40,"278":-7.006492321624085e-40,"279":-7.006492321624085e-40,"280":-7.006492321624085e-40,"281":7.006492321624085e-40,"282":7.006492321624085e-40,"283":7.006492321624085e-40,"284":7.006492321624085e-40,"285":-7.006492321624085e-40,"286":-7.006492321624085e-40,"287":-7.006492321624085e-40,"288":-7.006492321624085e-40,"289":7.006492321624085e-40,"290":-7.006492321624085e-40,"291":-7.006492321624085e-40,"292":-7.006492321624085e-40,"293":-7.006492321624085e-40,"294":-7.006492321624085e-40,"295":7.006492321624085e-40,"296":7.006492321624085e-40,"297":7.006492321624085e-40,"298":-7.006492321624085e-40,"299":7.006492321624085e-40,"300":7.006492321624085e-40,"301":-7.006492321624085e-40,"302":-7.006492321624085e-40,"303":-7.006492321624085e-40,"304":-7.006492321624085e-40,"305":-7.006492321624085e-40,"306":-7.006492321624085e-40,"307":7.006492321624085e-40,"308":-7.006492321624085e-40,"309":7.006492321624085e-40,"310":-7.006492321624085e-40,"311":-7.006492321624085e-40,"312":7.006492321624085e-40,"313":-7.006492321624085e-40,"314":7.006492321624085e-40,"315":-7.006492321624085e-40,"316":-7.006492321624085e-40,"317":7.006492321624085e-40,"318":-7.006492321624085e-40,"319":7.006492321624085e-40,"320":7.006492321624085e-40,"321":7.006492321624085e-40,"322":7.006492321624085e-40,"323":-7.006492321624085e-40,"324":7.006492321624085e-40,"325":-7.006492321624085e-40,"326":7.006492321624085e-40,"327":7.006492321624085e-40,"328":-7.006492321624085e-40,"329":7.006492321624085e-40,"330":7.006492321624085e-40,"331":7.006492321624085e-40,"332":-7.006492321624085e-40,"333":7.006492321624085e-40,"334":-7.006492321624085e-40,"335":7.006492321624085e-40,"336":-7.006492321624085e-40,"337":-7.006492321624085e-40,"338":-7.006492321624085e-40,"339":-7.006492321624085e-40,"340":-7.006492321624085e-40,"341":-7.006492321624085e-40,"342":-7.006492321624085e-40,"343":7.006492321624085e-40,"344":7.006492321624085e-40,"345":-7.006492321624085e-40,"346":-7.006492321624085e-40,"347":-7.006492321624085e-40,"348":7.006492321624085e-40,"349":-7.006492321624085e-40,"350":7.006492321624085e-40,"351":7.006492321624085e-40,"352":7.006492321624085e-40,"353":-7.006492321624085e-40,"354":-7.006492321624085e-40,"355":-7.006492321624085e-40,"356":7.006492321624085e-40,"357":-7.006492321624085e-40,"358":7.006492321624085e-40,"359":-7.006492321624085e-40,"360":-7.006492321624085e-40,"361":7.006492321624085e-40,"362":-7.006492321624085e-40,"363":7.006492321624085e-40,"364":-7.006492321624085e-40,"365":7.006492321624085e-40,"366":-7.006492321624085e-40,"367":7.006492321624085e-40,"368":7.006492321624085e-40,"369":7.006492321624085e-40,"370":-7.006492321624085e-40,"371":7.006492321624085e-40,"372":-7.006492321624085e-40,"373":7.006492321624085e-40,"374":7.006492321624085e-40,"375":-7.006492321624085e-40,"376":-7.006492321624085e-40,"377":7.006492321624085e-40,"378":7.006492321624085e-40,"379":-7.006492321624085e-40,"380":7.006492321624085e-40,"381":-7.006492321624085e-40,"382":7.006492321624085e-40,"383":7.006492321624085e-40,"384":7.006492321624085e-40,"385":-7.006492321624085e-40,"386":-7.006492321624085e-40,"387":-7.006492321624085e-40,"388":-7.006492321624085e-40,"389":7.006492321624085e-40,"390":-7.006492321624085e-40,"391":-7.006492321624085e-40,"392":-7.006492321624085e-40,"393":7.006492321624085e-40,"394":-7.006492321624085e-40,"395":7.006492321624085e-40,"396":-7.006492321624085e-40,"397":7.006492321624085e-40,"398":7.006492321624085e-40,"399":-7.006492321624085e-40}},"forgetBias":{"rows":20,"columns":1,"weights":{"0":0,"1":0,"2":0,"3":0,"4":0,"5":0,"6":0,"7":0,"8":0,"9":0,"10":0,"11":0,"12":0,"13":0,"14":0,"15":0,"16":0,"17":0,"18":0,"19":0}},"outputMatrix":{"rows":20,"columns":20,"weights":{"0":-3.2789039611816406,"1":-0.044029802083969116,"2":-0.029602034017443657,"3":-0.05202363058924675,"4":-0.1404588520526886,"5":-0.16260464489459991,"6":0.015507983043789864,"7":-0.11588656157255173,"8":-0.07468152791261673,"9":-0.12890145182609558,"10":0.7092788219451904,"11":0.03808717429637909,"12":-0.6733841896057129,"13":-0.7050771117210388,"14":-0.5525242686271667,"15":-0.7172752022743225,"16":-3.778791904449463,"17":1.848410964012146,"18":-1.2534699440002441,"19":-0.5099348425865173,"20":-0.05519860237836838,"21":0.007854127325117588,"22":-0.01430133730173111,"23":0.1201515719294548,"24":0.0024448526091873646,"25":0.10566359758377075,"26":0.04363163933157921,"27":1.9893864393234253,"28":-0.5260358452796936,"29":-0.050934553146362305,"30":1.0903674364089966,"31":0.4445250332355499,"32":0.29690155386924744,"33":-0.3606588542461395,"34":1.301949381828308,"35":-0.9703240394592285,"36":0.3997943699359894,"37":-0.7821322679519653,"38":0.12614232301712036,"39":-0.6215105652809143,"40":-0.1377582550048828,"41":0.058777935802936554,"42":-0.3630378246307373,"43":12.735533714294434,"44":-0.03588061034679413,"45":0.1110871359705925,"46":-0.05794632434844971,"47":0.002485191449522972,"48":-0.053200121968984604,"49":-0.02788613550364971,"50":0.3150236904621124,"51":0.5616388320922852,"52":0.31583839654922485,"53":0.11494076997041702,"54":-0.0891975462436676,"55":-1.588361382484436,"56":-0.9732549786567688,"57":5.234821796417236,"58":5.258179187774658,"59":-5.168936729431152,"60":-0.15675461292266846,"61":0.2901926338672638,"62":0.3417055904865265,"63":-0.38953083753585815,"64":-0.025127893313765526,"65":-0.202013298869133,"66":-0.16758674383163452,"67":-0.14387303590774536,"68":0.02229936048388481,"69":-0.3119491636753082,"70":0.9438053965568542,"71":0.41282200813293457,"72":0.2093144804239273,"73":0.3287377655506134,"74":0.1554068773984909,"75":0.2959004342556,"76":3.159188747406006,"77":-2.6717491149902344,"78":-0.21486197412014008,"79":2.2277755737304688,"80":-0.06186003237962723,"81":0.23195220530033112,"82":0.05260895937681198,"83":-0.1804787814617157,"84":0.04510883241891861,"85":-0.017509784549474716,"86":-0.07146811485290527,"87":-0.11324068903923035,"88":0.10254394263029099,"89":0.39910605549812317,"90":0.8917583227157593,"91":0.15067656338214874,"92":-0.013811756856739521,"93":0.033143434673547745,"94":0.29507309198379517,"95":0.7637543678283691,"96":3.2519307136535645,"97":-3.6413137912750244,"98":-0.2824733555316925,"99":2.541294813156128,"100":0.02816198393702507,"101":-0.013896786607801914,"102":-0.015404454432427883,"103":-0.08636980503797531,"104":0.4280911982059479,"105":-1.1039726734161377,"106":0.42657387256622314,"107":0.0667288675904274,"108":-0.10126504302024841,"109":-0.043984442949295044,"110":1.473395824432373,"111":0.5406522750854492,"112":0.27562764286994934,"113":-1.0659407377243042,"114":0.17162607610225677,"115":-0.1721680611371994,"116":0.00776764377951622,"117":-0.8238744735717773,"118":-1.2476823329925537,"119":0.7288054823875427,"120":-1.2275387048721313,"121":0.22910703718662262,"122":0.2772166430950165,"123":0.2792278230190277,"124":0.39288094639778137,"125":0.03359406813979149,"126":0.15311037003993988,"127":0.16425298154354095,"128":0.2549078166484833,"129":0.06882500648498535,"130":1.240533471107483,"131":0.8308402895927429,"132":-0.36508285999298096,"133":-1.0185810327529907,"134":-0.5110171437263489,"135":0.40754052996635437,"136":-2.96372389793396,"137":0.8810840845108032,"138":-1.2742831707000732,"139":-0.4138670563697815,"140":-0.07541049271821976,"141":0.9638554453849792,"142":-0.0050924429669976234,"143":0.25772804021835327,"144":-0.003413210855796933,"145":0.04964597150683403,"146":0.06967760622501373,"147":0.04531073197722435,"148":0.11550463736057281,"149":0.02418196201324463,"150":1.0646134614944458,"151":0.6762551069259644,"152":-0.5969603657722473,"153":-2.085235357284546,"154":-1.1469002962112427,"155":2.101090669631958,"156":-0.673149585723877,"157":-0.05901552364230156,"158":0.9958648681640625,"159":0.27918219566345215,"160":-0.01699230633676052,"161":-0.3869398534297943,"162":-0.44362157583236694,"163":-0.11343545466661453,"164":0.2458917647600174,"165":0.019624153152108192,"166":-0.007648807484656572,"167":-0.031202133744955063,"168":-0.009470741264522076,"169":0.11371846497058868,"170":1.038000464439392,"171":0.7958084344863892,"172":-0.47578275203704834,"173":-0.38336804509162903,"174":-0.5255162119865417,"175":-0.3239658772945404,"176":-2.7285637855529785,"177":4.295536041259766,"178":1.6702680587768555,"179":-1.12115478515625,"180":-0.04729577526450157,"181":1.0634136199951172,"182":-0.04657686501741409,"183":-0.01898014172911644,"184":0.10009212046861649,"185":-0.06966868788003922,"186":0.1359265297651291,"187":0.046089138835668564,"188":0.1909850537776947,"189":0.20293636620044708,"190":0.031471963971853256,"191":-0.09211941808462143,"192":-0.11983375251293182,"193":-0.5238939523696899,"194":-0.4443974494934082,"195":0.6449158787727356,"196":-1.0247728824615479,"197":1.010510802268982,"198":0.3181571960449219,"199":0.3047030568122864,"200":-0.05216480791568756,"201":0.0796758309006691,"202":-0.02934129722416401,"203":-0.10375141352415085,"204":0.4576965570449829,"205":0.2544780671596527,"206":0.17212337255477905,"207":0.20313629508018494,"208":0.1292766034603119,"209":0.02923487313091755,"210":0.4012479782104492,"211":-0.28497257828712463,"212":0.00092552718706429,"213":0.1975965052843094,"214":0.3359667658805847,"215":0.3078511655330658,"216":0.866502046585083,"217":-0.0318060927093029,"218":0.027810905128717422,"219":0.6611179113388062,"220":0.09629807621240616,"221":-0.008320958353579044,"222":0.47032544016838074,"223":0.09260183572769165,"224":2.9375150203704834,"225":-0.10743054747581482,"226":0.19105099141597748,"227":0.14099562168121338,"228":0.09382915496826172,"229":0.10593198984861374,"230":1.1516517400741577,"231":1.3009517192840576,"232":0.06896950304508209,"233":-0.5257965922355652,"234":0.2395099401473999,"235":-0.17442429065704346,"236":-0.23354525864124298,"237":-0.18885566294193268,"238":0.7033025026321411,"239":-0.17172063887119293,"240":-0.30282872915267944,"241":-0.19972418248653412,"242":0.31690600514411926,"243":0.13592031598091125,"244":0.15941323339939117,"245":0.022841444239020348,"246":-0.3316071331501007,"247":0.29159489274024963,"248":0.3705006539821625,"249":-0.09166169166564941,"250":1.1581705808639526,"251":0.6128383874893188,"252":1.2938945293426514,"253":1.9580579996109009,"254":0.5490590333938599,"255":-1.261405110359192,"256":1.6628280878067017,"257":1.5506713390350342,"258":1.2351356744766235,"259":1.541756510734558,"260":0.006338519509881735,"261":0.0172552652657032,"262":-0.13028770685195923,"263":-0.10536273568868637,"264":-0.2392616868019104,"265":-0.27408599853515625,"266":0.1991778314113617,"267":0.5180431008338928,"268":-3.5221822261810303,"269":0.0893644243478775,"270":1.1662280559539795,"271":1.2112295627593994,"272":-0.19177386164665222,"273":0.15603294968605042,"274":-0.14705216884613037,"275":-0.5109547972679138,"276":-2.9516654014587402,"277":2.2153215408325195,"278":0.1647193878889084,"279":-0.2150259017944336,"280":-0.41969138383865356,"281":-0.19014519453048706,"282":0.45625075697898865,"283":0.019611995667219162,"284":-0.20325148105621338,"285":-0.04250487685203552,"286":0.2550559341907501,"287":0.18331432342529297,"288":-0.10308045148849487,"289":-0.5090600848197937,"290":1.0394799709320068,"291":0.49173474311828613,"292":-0.044612228870391846,"293":-0.34040898084640503,"294":-0.2600303888320923,"295":0.3368106186389923,"296":-1.7936341762542725,"297":1.0971280336380005,"298":-0.1003391370177269,"299":-0.18972399830818176,"300":-0.10243717581033707,"301":0.33784720301628113,"302":3.0591578483581543,"303":0.3307310938835144,"304":-0.132122203707695,"305":0.03350735455751419,"306":0.22324587404727936,"307":0.1479852944612503,"308":0.3990893065929413,"309":0.32955202460289,"310":1.6059401035308838,"311":0.7669241428375244,"312":0.6295035481452942,"313":0.3536733388900757,"314":0.43709397315979004,"315":1.0472344160079956,"316":0.2931874990463257,"317":-0.8701465129852295,"318":-0.46027669310569763,"319":0.9176588654518127,"320":0.08313398063182831,"321":-0.029576944187283516,"322":0.1050165444612503,"323":0.044213421642780304,"324":0.021600743755698204,"325":-0.08695521205663681,"326":2.0012574195861816,"327":-0.3298572301864624,"328":-0.16322366893291473,"329":0.1088201180100441,"330":1.629341721534729,"331":0.2574117183685303,"332":1.4434449672698975,"333":-2.642320394515991,"334":3.261291265487671,"335":-2.068899154663086,"336":-1.6526581048965454,"337":-2.053879499435425,"338":0.20455357432365417,"339":2.3214871883392334,"340":-0.12833662331104279,"341":0.25752899050712585,"342":-0.355327308177948,"343":0.3832545876502991,"344":0.09766358882188797,"345":0.06897725909948349,"346":0.048799484968185425,"347":-0.1563771665096283,"348":0.011149657890200615,"349":0.15821541845798492,"350":0.19836965203285217,"351":-0.18970324099063873,"352":-0.12221374362707138,"353":-0.049068521708250046,"354":0.19643133878707886,"355":0.6571402549743652,"356":0.11401887983083725,"357":-1.3035874366760254,"358":-0.1154116541147232,"359":0.9299485683441162,"360":0.06092919036746025,"361":-0.7429015040397644,"362":1.1506258249282837,"363":-0.042157404124736786,"364":0.15119688212871552,"365":0.14004869759082794,"366":0.15233714878559113,"367":0.10272693634033203,"368":0.08299612998962402,"369":0.2114604413509369,"370":0.7596495151519775,"371":0.17219936847686768,"372":-0.37364891171455383,"373":-0.5120744705200195,"374":0.011746750213205814,"375":1.2234429121017456,"376":2.859243869781494,"377":-4.231219291687012,"378":-0.4178400933742523,"379":2.7124061584472656,"380":-0.009733646176755428,"381":0.5342453122138977,"382":-2.8847663402557373,"383":0.20353828370571136,"384":-0.3191685080528259,"385":0.0983731597661972,"386":-0.09414215385913849,"387":-0.04867216572165489,"388":-0.04695487022399902,"389":-0.1708860844373703,"390":1.243350625038147,"391":1.4903706312179565,"392":0.17203989624977112,"393":-0.18861955404281616,"394":-0.2834133803844452,"395":-0.1955946981906891,"396":0.28934863209724426,"397":2.7735519409179688,"398":2.2073590755462646,"399":-0.33136600255966187}},"outputHidden":{"rows":20,"columns":20,"weights":{"0":-7.006492321624085e-40,"1":7.006492321624085e-40,"2":7.006492321624085e-40,"3":7.006492321624085e-40,"4":-7.006492321624085e-40,"5":7.006492321624085e-40,"6":-7.006492321624085e-40,"7":-7.006492321624085e-40,"8":7.006492321624085e-40,"9":-7.006492321624085e-40,"10":7.006492321624085e-40,"11":-7.006492321624085e-40,"12":7.006492321624085e-40,"13":7.006492321624085e-40,"14":7.006492321624085e-40,"15":7.006492321624085e-40,"16":7.006492321624085e-40,"17":7.006492321624085e-40,"18":-7.006492321624085e-40,"19":-7.006492321624085e-40,"20":7.006492321624085e-40,"21":-7.006492321624085e-40,"22":7.006492321624085e-40,"23":-7.006492321624085e-40,"24":-7.006492321624085e-40,"25":-7.006492321624085e-40,"26":7.006492321624085e-40,"27":7.006492321624085e-40,"28":7.006492321624085e-40,"29":-7.006492321624085e-40,"30":-7.006492321624085e-40,"31":-7.006492321624085e-40,"32":7.006492321624085e-40,"33":-7.006492321624085e-40,"34":-7.006492321624085e-40,"35":7.006492321624085e-40,"36":-7.006492321624085e-40,"37":-7.006492321624085e-40,"38":7.006492321624085e-40,"39":-7.006492321624085e-40,"40":7.006492321624085e-40,"41":7.006492321624085e-40,"42":7.006492321624085e-40,"43":-7.006492321624085e-40,"44":7.006492321624085e-40,"45":7.006492321624085e-40,"46":-7.006492321624085e-40,"47":7.006492321624085e-40,"48":-7.006492321624085e-40,"49":-7.006492321624085e-40,"50":7.006492321624085e-40,"51":-7.006492321624085e-40,"52":7.006492321624085e-40,"53":7.006492321624085e-40,"54":-7.006492321624085e-40,"55":7.006492321624085e-40,"56":-7.006492321624085e-40,"57":7.006492321624085e-40,"58":-7.006492321624085e-40,"59":7.006492321624085e-40,"60":-7.006492321624085e-40,"61":7.006492321624085e-40,"62":-7.006492321624085e-40,"63":-7.006492321624085e-40,"64":-7.006492321624085e-40,"65":-7.006492321624085e-40,"66":7.006492321624085e-40,"67":7.006492321624085e-40,"68":7.006492321624085e-40,"69":7.006492321624085e-40,"70":-7.006492321624085e-40,"71":7.006492321624085e-40,"72":7.006492321624085e-40,"73":7.006492321624085e-40,"74":7.006492321624085e-40,"75":-7.006492321624085e-40,"76":-7.006492321624085e-40,"77":-7.006492321624085e-40,"78":7.006492321624085e-40,"79":-7.006492321624085e-40,"80":7.006492321624085e-40,"81":7.006492321624085e-40,"82":7.006492321624085e-40,"83":-7.006492321624085e-40,"84":-7.006492321624085e-40,"85":7.006492321624085e-40,"86":-7.006492321624085e-40,"87":7.006492321624085e-40,"88":7.006492321624085e-40,"89":7.006492321624085e-40,"90":-7.006492321624085e-40,"91":7.006492321624085e-40,"92":7.006492321624085e-40,"93":-7.006492321624085e-40,"94":7.006492321624085e-40,"95":7.006492321624085e-40,"96":7.006492321624085e-40,"97":7.006492321624085e-40,"98":7.006492321624085e-40,"99":-7.006492321624085e-40,"100":-7.006492321624085e-40,"101":-7.006492321624085e-40,"102":7.006492321624085e-40,"103":-7.006492321624085e-40,"104":7.006492321624085e-40,"105":7.006492321624085e-40,"106":-7.006492321624085e-40,"107":-7.006492321624085e-40,"108":7.006492321624085e-40,"109":-7.006492321624085e-40,"110":-7.006492321624085e-40,"111":7.006492321624085e-40,"112":-7.006492321624085e-40,"113":7.006492321624085e-40,"114":7.006492321624085e-40,"115":7.006492321624085e-40,"116":7.006492321624085e-40,"117":-7.006492321624085e-40,"118":7.006492321624085e-40,"119":-7.006492321624085e-40,"120":-7.006492321624085e-40,"121":7.006492321624085e-40,"122":7.006492321624085e-40,"123":7.006492321624085e-40,"124":-7.006492321624085e-40,"125":-7.006492321624085e-40,"126":7.006492321624085e-40,"127":7.006492321624085e-40,"128":7.006492321624085e-40,"129":7.006492321624085e-40,"130":-7.006492321624085e-40,"131":7.006492321624085e-40,"132":-7.006492321624085e-40,"133":7.006492321624085e-40,"134":-7.006492321624085e-40,"135":-7.006492321624085e-40,"136":7.006492321624085e-40,"137":7.006492321624085e-40,"138":-7.006492321624085e-40,"139":7.006492321624085e-40,"140":-7.006492321624085e-40,"141":-7.006492321624085e-40,"142":7.006492321624085e-40,"143":7.006492321624085e-40,"144":-7.006492321624085e-40,"145":-7.006492321624085e-40,"146":7.006492321624085e-40,"147":-7.006492321624085e-40,"148":7.006492321624085e-40,"149":7.006492321624085e-40,"150":7.006492321624085e-40,"151":-7.006492321624085e-40,"152":7.006492321624085e-40,"153":7.006492321624085e-40,"154":7.006492321624085e-40,"155":-7.006492321624085e-40,"156":-7.006492321624085e-40,"157":-7.006492321624085e-40,"158":-7.006492321624085e-40,"159":7.006492321624085e-40,"160":-7.006492321624085e-40,"161":-7.006492321624085e-40,"162":7.006492321624085e-40,"163":7.006492321624085e-40,"164":-7.006492321624085e-40,"165":7.006492321624085e-40,"166":7.006492321624085e-40,"167":-7.006492321624085e-40,"168":-7.006492321624085e-40,"169":-7.006492321624085e-40,"170":-7.006492321624085e-40,"171":7.006492321624085e-40,"172":-7.006492321624085e-40,"173":-7.006492321624085e-40,"174":-7.006492321624085e-40,"175":-7.006492321624085e-40,"176":7.006492321624085e-40,"177":7.006492321624085e-40,"178":7.006492321624085e-40,"179":-7.006492321624085e-40,"180":-7.006492321624085e-40,"181":7.006492321624085e-40,"182":7.006492321624085e-40,"183":-7.006492321624085e-40,"184":-7.006492321624085e-40,"185":-7.006492321624085e-40,"186":-7.006492321624085e-40,"187":7.006492321624085e-40,"188":7.006492321624085e-40,"189":7.006492321624085e-40,"190":-7.006492321624085e-40,"191":-7.006492321624085e-40,"192":7.006492321624085e-40,"193":-7.006492321624085e-40,"194":-7.006492321624085e-40,"195":-7.006492321624085e-40,"196":-7.006492321624085e-40,"197":7.006492321624085e-40,"198":-7.006492321624085e-40,"199":-7.006492321624085e-40,"200":7.006492321624085e-40,"201":-7.006492321624085e-40,"202":-7.006492321624085e-40,"203":-7.006492321624085e-40,"204":-7.006492321624085e-40,"205":-7.006492321624085e-40,"206":7.006492321624085e-40,"207":7.006492321624085e-40,"208":7.006492321624085e-40,"209":-7.006492321624085e-40,"210":-7.006492321624085e-40,"211":7.006492321624085e-40,"212":-7.006492321624085e-40,"213":-7.006492321624085e-40,"214":7.006492321624085e-40,"215":7.006492321624085e-40,"216":-7.006492321624085e-40,"217":7.006492321624085e-40,"218":-7.006492321624085e-40,"219":-7.006492321624085e-40,"220":-7.006492321624085e-40,"221":7.006492321624085e-40,"222":-7.006492321624085e-40,"223":7.006492321624085e-40,"224":-7.006492321624085e-40,"225":-7.006492321624085e-40,"226":7.006492321624085e-40,"227":-7.006492321624085e-40,"228":7.006492321624085e-40,"229":7.006492321624085e-40,"230":-7.006492321624085e-40,"231":7.006492321624085e-40,"232":7.006492321624085e-40,"233":-7.006492321624085e-40,"234":-7.006492321624085e-40,"235":-7.006492321624085e-40,"236":-7.006492321624085e-40,"237":7.006492321624085e-40,"238":-7.006492321624085e-40,"239":-7.006492321624085e-40,"240":7.006492321624085e-40,"241":-7.006492321624085e-40,"242":-7.006492321624085e-40,"243":7.006492321624085e-40,"244":7.006492321624085e-40,"245":-7.006492321624085e-40,"246":-7.006492321624085e-40,"247":7.006492321624085e-40,"248":7.006492321624085e-40,"249":7.006492321624085e-40,"250":-7.006492321624085e-40,"251":-7.006492321624085e-40,"252":-7.006492321624085e-40,"253":-7.006492321624085e-40,"254":-7.006492321624085e-40,"255":7.006492321624085e-40,"256":7.006492321624085e-40,"257":-7.006492321624085e-40,"258":7.006492321624085e-40,"259":7.006492321624085e-40,"260":7.006492321624085e-40,"261":-7.006492321624085e-40,"262":-7.006492321624085e-40,"263":7.006492321624085e-40,"264":-7.006492321624085e-40,"265":7.006492321624085e-40,"266":-7.006492321624085e-40,"267":-7.006492321624085e-40,"268":-7.006492321624085e-40,"269":-7.006492321624085e-40,"270":-7.006492321624085e-40,"271":7.006492321624085e-40,"272":-7.006492321624085e-40,"273":7.006492321624085e-40,"274":-7.006492321624085e-40,"275":-7.006492321624085e-40,"276":-7.006492321624085e-40,"277":-7.006492321624085e-40,"278":-7.006492321624085e-40,"279":-7.006492321624085e-40,"280":7.006492321624085e-40,"281":-7.006492321624085e-40,"282":7.006492321624085e-40,"283":7.006492321624085e-40,"284":7.006492321624085e-40,"285":-7.006492321624085e-40,"286":-7.006492321624085e-40,"287":-7.006492321624085e-40,"288":7.006492321624085e-40,"289":7.006492321624085e-40,"290":-7.006492321624085e-40,"291":-7.006492321624085e-40,"292":-7.006492321624085e-40,"293":7.006492321624085e-40,"294":7.006492321624085e-40,"295":-7.006492321624085e-40,"296":7.006492321624085e-40,"297":7.006492321624085e-40,"298":7.006492321624085e-40,"299":7.006492321624085e-40,"300":-7.006492321624085e-40,"301":-7.006492321624085e-40,"302":7.006492321624085e-40,"303":7.006492321624085e-40,"304":7.006492321624085e-40,"305":-7.006492321624085e-40,"306":7.006492321624085e-40,"307":-7.006492321624085e-40,"308":-7.006492321624085e-40,"309":7.006492321624085e-40,"310":-7.006492321624085e-40,"311":-7.006492321624085e-40,"312":-7.006492321624085e-40,"313":-7.006492321624085e-40,"314":7.006492321624085e-40,"315":-7.006492321624085e-40,"316":7.006492321624085e-40,"317":7.006492321624085e-40,"318":7.006492321624085e-40,"319":-7.006492321624085e-40,"320":-7.006492321624085e-40,"321":-7.006492321624085e-40,"322":-7.006492321624085e-40,"323":7.006492321624085e-40,"324":7.006492321624085e-40,"325":7.006492321624085e-40,"326":-7.006492321624085e-40,"327":-7.006492321624085e-40,"328":7.006492321624085e-40,"329":-7.006492321624085e-40,"330":-7.006492321624085e-40,"331":-7.006492321624085e-40,"332":7.006492321624085e-40,"333":-7.006492321624085e-40,"334":-7.006492321624085e-40,"335":-7.006492321624085e-40,"336":7.006492321624085e-40,"337":7.006492321624085e-40,"338":-7.006492321624085e-40,"339":-7.006492321624085e-40,"340":-7.006492321624085e-40,"341":7.006492321624085e-40,"342":-7.006492321624085e-40,"343":7.006492321624085e-40,"344":7.006492321624085e-40,"345":-7.006492321624085e-40,"346":-7.006492321624085e-40,"347":-7.006492321624085e-40,"348":-7.006492321624085e-40,"349":-7.006492321624085e-40,"350":-7.006492321624085e-40,"351":-7.006492321624085e-40,"352":-7.006492321624085e-40,"353":7.006492321624085e-40,"354":-7.006492321624085e-40,"355":7.006492321624085e-40,"356":7.006492321624085e-40,"357":7.006492321624085e-40,"358":7.006492321624085e-40,"359":-7.006492321624085e-40,"360":-7.006492321624085e-40,"361":7.006492321624085e-40,"362":7.006492321624085e-40,"363":-7.006492321624085e-40,"364":7.006492321624085e-40,"365":7.006492321624085e-40,"366":-7.006492321624085e-40,"367":-7.006492321624085e-40,"368":-7.006492321624085e-40,"369":-7.006492321624085e-40,"370":7.006492321624085e-40,"371":7.006492321624085e-40,"372":7.006492321624085e-40,"373":-7.006492321624085e-40,"374":7.006492321624085e-40,"375":7.006492321624085e-40,"376":-7.006492321624085e-40,"377":-7.006492321624085e-40,"378":7.006492321624085e-40,"379":-7.006492321624085e-40,"380":-7.006492321624085e-40,"381":7.006492321624085e-40,"382":-7.006492321624085e-40,"383":-7.006492321624085e-40,"384":7.006492321624085e-40,"385":-7.006492321624085e-40,"386":7.006492321624085e-40,"387":7.006492321624085e-40,"388":7.006492321624085e-40,"389":7.006492321624085e-40,"390":-7.006492321624085e-40,"391":7.006492321624085e-40,"392":7.006492321624085e-40,"393":7.006492321624085e-40,"394":-7.006492321624085e-40,"395":7.006492321624085e-40,"396":-7.006492321624085e-40,"397":-7.006492321624085e-40,"398":-7.006492321624085e-40,"399":7.006492321624085e-40}},"outputBias":{"rows":20,"columns":1,"weights":{"0":0.05577530339360237,"1":0.5281392931938171,"2":0.6172839403152466,"3":0.3920817971229553,"4":0.13367611169815063,"5":0.3610517978668213,"6":0.6793746948242188,"7":0.5380831956863403,"8":0.592469334602356,"9":-0.2377401888370514,"10":-0.29285192489624023,"11":0.8764936327934265,"12":0.5619249939918518,"13":1.1119927167892456,"14":0.3454556465148926,"15":0.6187598705291748,"16":0.11020199209451675,"17":-0.25841113924980164,"18":0.11485614627599716,"19":1.4724693298339844}},"cellActivationMatrix":{"rows":20,"columns":20,"weights":{"0":-6.393550395965576,"1":0.03728476166725159,"2":-0.023446055129170418,"3":-0.146642804145813,"4":0.15259581804275513,"5":0.0073683070950210094,"6":0.14920125901699066,"7":0.08812075108289719,"8":0.0426449291408062,"9":0.08834672719240189,"10":-0.2362135499715805,"11":-0.6987569332122803,"12":-1.6276490688323975,"13":-3.330580472946167,"14":-2.121973991394043,"15":2.168684720993042,"16":-2.4458167552948,"17":2.2721657752990723,"18":-1.9848554134368896,"19":-0.06280584633350372,"20":-0.025744473561644554,"21":0.014262912794947624,"22":-0.0482398197054863,"23":-0.009185335598886013,"24":-0.08680520206689835,"25":-0.0030523459427058697,"26":-0.29996633529663086,"27":11.413651466369629,"28":-0.23144729435443878,"29":-0.30915093421936035,"30":0.10729723423719406,"31":0.15987540781497955,"32":0.3360544741153717,"33":-0.8547584414482117,"34":-1.012980341911316,"35":1.4840115308761597,"36":-2.4229648113250732,"37":-1.868837594985962,"38":1.0160114765167236,"39":0.7951521873474121,"40":-0.0015441608848050237,"41":0.01964036002755165,"42":-0.029226107522845268,"43":9.570232391357422,"44":0.03832385316491127,"45":0.05405914783477783,"46":-0.03313414379954338,"47":-0.09991820156574249,"48":-0.01948939822614193,"49":0.04242156445980072,"50":-0.5550491809844971,"51":-0.30957961082458496,"52":0.2004791796207428,"53":-0.20448815822601318,"54":-1.2623926401138306,"55":-3.494475841522217,"56":-0.033145397901535034,"57":1.9537839889526367,"58":1.6338390111923218,"59":-2.70143723487854,"60":-0.11967895179986954,"61":0.2636617124080658,"62":-0.04252065345644951,"63":-0.6155458688735962,"64":-0.15331454575061798,"65":-0.35146379470825195,"66":-0.31025204062461853,"67":-0.1363118439912796,"68":-0.24814927577972412,"69":-0.43921440839767456,"70":1.0682148933410645,"71":1.0428842306137085,"72":0.5138528943061829,"73":0.3790798783302307,"74":0.21491603553295135,"75":0.22432908415794373,"76":0.23638799786567688,"77":0.007231932133436203,"78":0.1839563101530075,"79":0.5191888213157654,"80":-0.2576757073402405,"81":0.11205743998289108,"82":0.37654078006744385,"83":-0.6228920817375183,"84":0.004192606080323458,"85":-0.11736562848091125,"86":0.14007782936096191,"87":-0.16197402775287628,"88":-0.06321902573108673,"89":0.1304115206003189,"90":0.9781544804573059,"91":0.7429811358451843,"92":0.19040393829345703,"93":0.10326121002435684,"94":0.043507736176252365,"95":0.054377563297748566,"96":0.9346689581871033,"97":-1.2344406843185425,"98":-0.395781546831131,"99":0.6009649038314819,"100":0.051972948014736176,"101":-0.044834546744823456,"102":0.14870265126228333,"103":-0.059306416660547256,"104":0.40695127844810486,"105":-11.303829193115234,"106":0.3602084815502167,"107":0.09937292337417603,"108":0.005940691102296114,"109":-0.10362943261861801,"110":0.03349482640624046,"111":-0.29720333218574524,"112":-1.2437782287597656,"113":1.3768337965011597,"114":-0.9252570867538452,"115":1.2621867656707764,"116":5.3283371925354,"117":-3.2155065536499023,"118":-2.0988547801971436,"119":0.2056313306093216,"120":7.001499176025391,"121":0.1200791448354721,"122":-0.2265681028366089,"123":0.32621636986732483,"124":0.07135400921106339,"125":0.14851905405521393,"126":0.09450479596853256,"127":-0.01279308833181858,"128":0.1541818529367447,"129":0.06124626472592354,"130":-0.19700032472610474,"131":0.31313177943229675,"132":1.8112517595291138,"133":4.636324405670166,"134":2.5964133739471436,"135":-3.542499303817749,"136":2.2514872550964355,"137":-3.121870994567871,"138":2.2293448448181152,"139":-0.46938762068748474,"140":0.3508332371711731,"141":-8.114090919494629,"142":0.39246129989624023,"143":-0.08916503936052322,"144":0.10082188248634338,"145":-0.03294839709997177,"146":0.011385678313672543,"147":0.022672735154628754,"148":0.06548341363668442,"149":0.01530612725764513,"150":0.1752493977546692,"151":0.24377822875976562,"152":-0.733694314956665,"153":-2.1300673484802246,"154":-1.5904245376586914,"155":3.7951865196228027,"156":-3.1844630241394043,"157":-3.9262237548828125,"158":4.7602458000183105,"159":5.301305770874023,"160":0.444548636674881,"161":-0.3686148524284363,"162":-9.612364768981934,"163":-0.09303184598684311,"164":0.19483289122581482,"165":-0.0053495545871555805,"166":0.040817391127347946,"167":-0.04358135536313057,"168":-0.060352686792612076,"169":-0.058041103184223175,"170":0.2152874767780304,"171":-0.15092435479164124,"172":-0.724551260471344,"173":-3.4313764572143555,"174":-4.223755359649658,"175":-1.377515435218811,"176":0.2836720645427704,"177":0.5222316980361938,"178":-0.5295508503913879,"179":1.5866156816482544,"180":0.007039157673716545,"181":1.106529951095581,"182":-0.46182146668434143,"183":0.28177809715270996,"184":0.05219947546720505,"185":0.15962845087051392,"186":0.1815677285194397,"187":0.15018418431282043,"188":0.0037025276105850935,"189":-0.09405598789453506,"190":0.8364017009735107,"191":-0.04627581313252449,"192":-0.3079845905303955,"193":-0.5211502909660339,"194":-0.391177773475647,"195":-0.09638261049985886,"196":0.0029197686817497015,"197":3.2589974403381348,"198":-0.6872055530548096,"199":-0.837260901927948,"200":-0.0982501283288002,"201":0.013390794396400452,"202":-0.3334895074367523,"203":0.7850229740142822,"204":0.12419292330741882,"205":0.10295692086219788,"206":0.09464810788631439,"207":0.10449405759572983,"208":-0.07398325204849243,"209":-0.08308953046798706,"210":0.5370505452156067,"211":0.10975800454616547,"212":0.15825173258781433,"213":0.07226559519767761,"214":0.015793314203619957,"215":-0.46562880277633667,"216":0.5050988793373108,"217":-0.8028402328491211,"218":0.5177180767059326,"219":0.8053389191627502,"220":-0.02678300440311432,"221":0.05240468308329582,"222":-0.032278407365083694,"223":0.2513526380062103,"224":-12.653752326965332,"225":0.23172186315059662,"226":0.029946504160761833,"227":0.0698402151465416,"228":0.0010265634628012776,"229":-0.04133601486682892,"230":0.05115489289164543,"231":-0.2569693624973297,"232":-1.8540711402893066,"233":-2.054692506790161,"234":2.509826421737671,"235":1.3829517364501953,"236":4.654942035675049,"237":5.686476707458496,"238":7.561187267303467,"239":-3.669715642929077,"240":-0.016443699598312378,"241":-0.0061176735907793045,"242":-0.05726350098848343,"243":-0.037885475903749466,"244":-0.06904704123735428,"245":-0.011611022986471653,"246":-0.09908124804496765,"247":0.005811602342873812,"248":-0.06040237843990326,"249":9.857437133789062,"250":-0.1905474215745926,"251":-0.24078615009784698,"252":-0.20505307614803314,"253":-1.3181936740875244,"254":0.5294358730316162,"255":1.7918699979782104,"256":-3.6078507900238037,"257":-2.7684683799743652,"258":0.08416582643985748,"259":-2.926191568374634,"260":-0.017847616225481033,"261":0.026699760928750038,"262":-0.020101334899663925,"263":0.10685627907514572,"264":-0.04513953998684883,"265":0.08317650109529495,"266":-0.09097088873386383,"267":0.20443814992904663,"268":-10.248123168945312,"269":0.36831024289131165,"270":-0.029347270727157593,"271":-0.02036968804895878,"272":0.3462740182876587,"273":1.9177895784378052,"274":-0.07947597652673721,"275":-2.019340991973877,"276":1.9575366973876953,"277":1.8242948055267334,"278":2.1824307441711426,"279":3.210576295852661,"280":0.038424618542194366,"281":-0.005092693027108908,"282":0.14122875034809113,"283":0.11577138304710388,"284":0.4044112265110016,"285":0.1614774614572525,"286":-0.02850438468158245,"287":0.08796736598014832,"288":-0.17402216792106628,"289":-0.02340088225901127,"290":-1.4283875226974487,"291":-0.290329247713089,"292":1.107445240020752,"293":1.441445231437683,"294":1.536058783531189,"295":-1.4574146270751953,"296":-3.8164095878601074,"297":0.5389953851699829,"298":-0.3459543287754059,"299":-3.4747490882873535,"300":-0.1916690170764923,"301":0.11371159553527832,"302":-5.667586803436279,"303":0.07432504743337631,"304":-0.09082957357168198,"305":0.005811075214296579,"306":0.057719334959983826,"307":-0.02180045284330845,"308":0.031233374029397964,"309":0.022314371541142464,"310":0.2745150327682495,"311":-0.16366544365882874,"312":-0.8579522967338562,"313":-2.1292150020599365,"314":-2.3877029418945312,"315":-0.5682381391525269,"316":-0.0560627244412899,"317":0.7115300893783569,"318":-0.6926555633544922,"319":0.9982776045799255,"320":0.01665119081735611,"321":-0.019032035022974014,"322":0.017797619104385376,"323":-0.08477360010147095,"324":0.0524095818400383,"325":-0.17447352409362793,"326":13.822394371032715,"327":-0.12974044680595398,"328":0.03943295776844025,"329":-0.06905955821275711,"330":0.09779798984527588,"331":0.1984330117702484,"332":-0.2834206521511078,"333":1.2594438791275024,"334":-1.7885057926177979,"335":0.6004829406738281,"336":-4.993032455444336,"337":0.20064592361450195,"338":-2.156548261642456,"339":-3.8995583057403564,"340":0.09430757164955139,"341":-0.2955280542373657,"342":0.5922837257385254,"343":-0.37798401713371277,"344":0.7245339155197144,"345":0.029979869723320007,"346":0.003906262572854757,"347":0.04472925513982773,"348":0.24119436740875244,"349":0.028521502390503883,"350":-0.37027645111083984,"351":-0.28632882237434387,"352":0.3185257017612457,"353":0.16860567033290863,"354":0.094586580991745,"355":-0.09612385183572769,"356":0.8233742713928223,"357":-1.8133645057678223,"358":-0.6857966780662537,"359":0.19763387739658356,"360":-0.22636458277702332,"361":0.17393429577350616,"362":-0.587123453617096,"363":0.30586329102516174,"364":-0.12900952994823456,"365":0.019141878932714462,"366":-0.08259427547454834,"367":0.0012354718055576086,"368":-0.02761370688676834,"369":-0.12128452956676483,"370":-0.7373946309089661,"371":-0.37480688095092773,"372":0.40282344818115234,"373":0.7195336222648621,"374":0.4074959456920624,"375":-0.5412958860397339,"376":-3.3990590572357178,"377":5.76798677444458,"378":1.4674041271209717,"379":-3.1656172275543213,"380":-0.3467525243759155,"381":0.18910259008407593,"382":-9.693000793457031,"383":0.2837844789028168,"384":-0.1315271407365799,"385":-0.12007629871368408,"386":-0.13681620359420776,"387":0.029219262301921844,"388":-0.05835145711898804,"389":-0.16529463231563568,"390":-0.053643643856048584,"391":-0.39317017793655396,"392":-1.069387674331665,"393":-3.8115434646606445,"394":-4.834374904632568,"395":-2.405714988708496,"396":-0.7352715134620667,"397":2.4692580699920654,"398":0.2867065668106079,"399":0.8044045567512512}},"cellActivationHidden":{"rows":20,"columns":20,"weights":{"0":7.006492321624085e-40,"1":7.006492321624085e-40,"2":7.006492321624085e-40,"3":7.006492321624085e-40,"4":-7.006492321624085e-40,"5":7.006492321624085e-40,"6":7.006492321624085e-40,"7":7.006492321624085e-40,"8":-7.006492321624085e-40,"9":7.006492321624085e-40,"10":7.006492321624085e-40,"11":-7.006492321624085e-40,"12":7.006492321624085e-40,"13":-7.006492321624085e-40,"14":-7.006492321624085e-40,"15":7.006492321624085e-40,"16":7.006492321624085e-40,"17":7.006492321624085e-40,"18":-7.006492321624085e-40,"19":7.006492321624085e-40,"20":-7.006492321624085e-40,"21":7.006492321624085e-40,"22":-7.006492321624085e-40,"23":7.006492321624085e-40,"24":7.006492321624085e-40,"25":-7.006492321624085e-40,"26":-7.006492321624085e-40,"27":-7.006492321624085e-40,"28":7.006492321624085e-40,"29":7.006492321624085e-40,"30":7.006492321624085e-40,"31":7.006492321624085e-40,"32":7.006492321624085e-40,"33":-7.006492321624085e-40,"34":-7.006492321624085e-40,"35":7.006492321624085e-40,"36":7.006492321624085e-40,"37":-7.006492321624085e-40,"38":7.006492321624085e-40,"39":-7.006492321624085e-40,"40":7.006492321624085e-40,"41":-7.006492321624085e-40,"42":-7.006492321624085e-40,"43":7.006492321624085e-40,"44":7.006492321624085e-40,"45":-7.006492321624085e-40,"46":7.006492321624085e-40,"47":7.006492321624085e-40,"48":7.006492321624085e-40,"49":-7.006492321624085e-40,"50":7.006492321624085e-40,"51":-7.006492321624085e-40,"52":7.006492321624085e-40,"53":-7.006492321624085e-40,"54":7.006492321624085e-40,"55":7.006492321624085e-40,"56":-7.006492321624085e-40,"57":7.006492321624085e-40,"58":7.006492321624085e-40,"59":-7.006492321624085e-40,"60":-7.006492321624085e-40,"61":7.006492321624085e-40,"62":-7.006492321624085e-40,"63":-7.006492321624085e-40,"64":-7.006492321624085e-40,"65":7.006492321624085e-40,"66":7.006492321624085e-40,"67":7.006492321624085e-40,"68":7.006492321624085e-40,"69":-7.006492321624085e-40,"70":7.006492321624085e-40,"71":-7.006492321624085e-40,"72":-7.006492321624085e-40,"73":-7.006492321624085e-40,"74":-7.006492321624085e-40,"75":7.006492321624085e-40,"76":7.006492321624085e-40,"77":7.006492321624085e-40,"78":7.006492321624085e-40,"79":7.006492321624085e-40,"80":-7.006492321624085e-40,"81":-7.006492321624085e-40,"82":7.006492321624085e-40,"83":7.006492321624085e-40,"84":-7.006492321624085e-40,"85":7.006492321624085e-40,"86":7.006492321624085e-40,"87":-7.006492321624085e-40,"88":-7.006492321624085e-40,"89":7.006492321624085e-40,"90":7.006492321624085e-40,"91":7.006492321624085e-40,"92":7.006492321624085e-40,"93":7.006492321624085e-40,"94":7.006492321624085e-40,"95":-7.006492321624085e-40,"96":-7.006492321624085e-40,"97":-7.006492321624085e-40,"98":-7.006492321624085e-40,"99":-7.006492321624085e-40,"100":-7.006492321624085e-40,"101":7.006492321624085e-40,"102":-7.006492321624085e-40,"103":-7.006492321624085e-40,"104":-7.006492321624085e-40,"105":-7.006492321624085e-40,"106":-7.006492321624085e-40,"107":-7.006492321624085e-40,"108":-7.006492321624085e-40,"109":7.006492321624085e-40,"110":7.006492321624085e-40,"111":-7.006492321624085e-40,"112":7.006492321624085e-40,"113":7.006492321624085e-40,"114":7.006492321624085e-40,"115":7.006492321624085e-40,"116":-7.006492321624085e-40,"117":7.006492321624085e-40,"118":-7.006492321624085e-40,"119":7.006492321624085e-40,"120":7.006492321624085e-40,"121":-7.006492321624085e-40,"122":-7.006492321624085e-40,"123":7.006492321624085e-40,"124":-7.006492321624085e-40,"125":7.006492321624085e-40,"126":7.006492321624085e-40,"127":-7.006492321624085e-40,"128":-7.006492321624085e-40,"129":7.006492321624085e-40,"130":-7.006492321624085e-40,"131":-7.006492321624085e-40,"132":-7.006492321624085e-40,"133":-7.006492321624085e-40,"134":-7.006492321624085e-40,"135":7.006492321624085e-40,"136":-7.006492321624085e-40,"137":7.006492321624085e-40,"138":-7.006492321624085e-40,"139":7.006492321624085e-40,"140":7.006492321624085e-40,"141":-7.006492321624085e-40,"142":7.006492321624085e-40,"143":-7.006492321624085e-40,"144":-7.006492321624085e-40,"145":7.006492321624085e-40,"146":7.006492321624085e-40,"147":7.006492321624085e-40,"148":7.006492321624085e-40,"149":7.006492321624085e-40,"150":7.006492321624085e-40,"151":-7.006492321624085e-40,"152":7.006492321624085e-40,"153":-7.006492321624085e-40,"154":-7.006492321624085e-40,"155":-7.006492321624085e-40,"156":-7.006492321624085e-40,"157":7.006492321624085e-40,"158":-7.006492321624085e-40,"159":-7.006492321624085e-40,"160":7.006492321624085e-40,"161":7.006492321624085e-40,"162":-7.006492321624085e-40,"163":-7.006492321624085e-40,"164":-7.006492321624085e-40,"165":-7.006492321624085e-40,"166":7.006492321624085e-40,"167":7.006492321624085e-40,"168":7.006492321624085e-40,"169":-7.006492321624085e-40,"170":7.006492321624085e-40,"171":-7.006492321624085e-40,"172":7.006492321624085e-40,"173":7.006492321624085e-40,"174":-7.006492321624085e-40,"175":7.006492321624085e-40,"176":-7.006492321624085e-40,"177":-7.006492321624085e-40,"178":-7.006492321624085e-40,"179":-7.006492321624085e-40,"180":7.006492321624085e-40,"181":7.006492321624085e-40,"182":7.006492321624085e-40,"183":7.006492321624085e-40,"184":-7.006492321624085e-40,"185":-7.006492321624085e-40,"186":-7.006492321624085e-40,"187":7.006492321624085e-40,"188":-7.006492321624085e-40,"189":7.006492321624085e-40,"190":-7.006492321624085e-40,"191":-7.006492321624085e-40,"192":7.006492321624085e-40,"193":-7.006492321624085e-40,"194":7.006492321624085e-40,"195":-7.006492321624085e-40,"196":-7.006492321624085e-40,"197":7.006492321624085e-40,"198":-7.006492321624085e-40,"199":7.006492321624085e-40,"200":-7.006492321624085e-40,"201":-7.006492321624085e-40,"202":7.006492321624085e-40,"203":7.006492321624085e-40,"204":-7.006492321624085e-40,"205":-7.006492321624085e-40,"206":7.006492321624085e-40,"207":7.006492321624085e-40,"208":-7.006492321624085e-40,"209":7.006492321624085e-40,"210":-7.006492321624085e-40,"211":-7.006492321624085e-40,"212":7.006492321624085e-40,"213":7.006492321624085e-40,"214":-7.006492321624085e-40,"215":7.006492321624085e-40,"216":7.006492321624085e-40,"217":-7.006492321624085e-40,"218":-7.006492321624085e-40,"219":7.006492321624085e-40,"220":-7.006492321624085e-40,"221":-7.006492321624085e-40,"222":-7.006492321624085e-40,"223":7.006492321624085e-40,"224":7.006492321624085e-40,"225":-7.006492321624085e-40,"226":7.006492321624085e-40,"227":-7.006492321624085e-40,"228":7.006492321624085e-40,"229":-7.006492321624085e-40,"230":-7.006492321624085e-40,"231":-7.006492321624085e-40,"232":7.006492321624085e-40,"233":7.006492321624085e-40,"234":-7.006492321624085e-40,"235":-7.006492321624085e-40,"236":-7.006492321624085e-40,"237":-7.006492321624085e-40,"238":-7.006492321624085e-40,"239":7.006492321624085e-40,"240":7.006492321624085e-40,"241":-7.006492321624085e-40,"242":7.006492321624085e-40,"243":-7.006492321624085e-40,"244":7.006492321624085e-40,"245":-7.006492321624085e-40,"246":-7.006492321624085e-40,"247":7.006492321624085e-40,"248":-7.006492321624085e-40,"249":7.006492321624085e-40,"250":7.006492321624085e-40,"251":-7.006492321624085e-40,"252":7.006492321624085e-40,"253":-7.006492321624085e-40,"254":7.006492321624085e-40,"255":7.006492321624085e-40,"256":7.006492321624085e-40,"257":7.006492321624085e-40,"258":-7.006492321624085e-40,"259":7.006492321624085e-40,"260":-7.006492321624085e-40,"261":7.006492321624085e-40,"262":7.006492321624085e-40,"263":7.006492321624085e-40,"264":-7.006492321624085e-40,"265":-7.006492321624085e-40,"266":-7.006492321624085e-40,"267":7.006492321624085e-40,"268":-7.006492321624085e-40,"269":-7.006492321624085e-40,"270":-7.006492321624085e-40,"271":7.006492321624085e-40,"272":-7.006492321624085e-40,"273":-7.006492321624085e-40,"274":7.006492321624085e-40,"275":-7.006492321624085e-40,"276":-7.006492321624085e-40,"277":-7.006492321624085e-40,"278":7.006492321624085e-40,"279":-7.006492321624085e-40,"280":7.006492321624085e-40,"281":-7.006492321624085e-40,"282":-7.006492321624085e-40,"283":7.006492321624085e-40,"284":-7.006492321624085e-40,"285":-7.006492321624085e-40,"286":7.006492321624085e-40,"287":-7.006492321624085e-40,"288":7.006492321624085e-40,"289":-7.006492321624085e-40,"290":-7.006492321624085e-40,"291":-7.006492321624085e-40,"292":-7.006492321624085e-40,"293":7.006492321624085e-40,"294":7.006492321624085e-40,"295":7.006492321624085e-40,"296":-7.006492321624085e-40,"297":7.006492321624085e-40,"298":-7.006492321624085e-40,"299":7.006492321624085e-40,"300":7.006492321624085e-40,"301":7.006492321624085e-40,"302":-7.006492321624085e-40,"303":-7.006492321624085e-40,"304":-7.006492321624085e-40,"305":7.006492321624085e-40,"306":7.006492321624085e-40,"307":-7.006492321624085e-40,"308":-7.006492321624085e-40,"309":7.006492321624085e-40,"310":7.006492321624085e-40,"311":-7.006492321624085e-40,"312":-7.006492321624085e-40,"313":-7.006492321624085e-40,"314":-7.006492321624085e-40,"315":-7.006492321624085e-40,"316":7.006492321624085e-40,"317":-7.006492321624085e-40,"318":7.006492321624085e-40,"319":7.006492321624085e-40,"320":7.006492321624085e-40,"321":-7.006492321624085e-40,"322":7.006492321624085e-40,"323":-7.006492321624085e-40,"324":-7.006492321624085e-40,"325":-7.006492321624085e-40,"326":-7.006492321624085e-40,"327":7.006492321624085e-40,"328":-7.006492321624085e-40,"329":7.006492321624085e-40,"330":-7.006492321624085e-40,"331":7.006492321624085e-40,"332":7.006492321624085e-40,"333":7.006492321624085e-40,"334":-7.006492321624085e-40,"335":-7.006492321624085e-40,"336":7.006492321624085e-40,"337":-7.006492321624085e-40,"338":-7.006492321624085e-40,"339":-7.006492321624085e-40,"340":7.006492321624085e-40,"341":-7.006492321624085e-40,"342":7.006492321624085e-40,"343":7.006492321624085e-40,"344":-7.006492321624085e-40,"345":7.006492321624085e-40,"346":7.006492321624085e-40,"347":-7.006492321624085e-40,"348":7.006492321624085e-40,"349":7.006492321624085e-40,"350":-7.006492321624085e-40,"351":-7.006492321624085e-40,"352":7.006492321624085e-40,"353":7.006492321624085e-40,"354":7.006492321624085e-40,"355":-7.006492321624085e-40,"356":7.006492321624085e-40,"357":7.006492321624085e-40,"358":-7.006492321624085e-40,"359":-7.006492321624085e-40,"360":-7.006492321624085e-40,"361":7.006492321624085e-40,"362":7.006492321624085e-40,"363":7.006492321624085e-40,"364":7.006492321624085e-40,"365":7.006492321624085e-40,"366":7.006492321624085e-40,"367":-7.006492321624085e-40,"368":-7.006492321624085e-40,"369":7.006492321624085e-40,"370":-7.006492321624085e-40,"371":-7.006492321624085e-40,"372":-7.006492321624085e-40,"373":-7.006492321624085e-40,"374":-7.006492321624085e-40,"375":7.006492321624085e-40,"376":7.006492321624085e-40,"377":7.006492321624085e-40,"378":-7.006492321624085e-40,"379":-7.006492321624085e-40,"380":-7.006492321624085e-40,"381":-7.006492321624085e-40,"382":-7.006492321624085e-40,"383":7.006492321624085e-40,"384":-7.006492321624085e-40,"385":-7.006492321624085e-40,"386":-7.006492321624085e-40,"387":7.006492321624085e-40,"388":7.006492321624085e-40,"389":7.006492321624085e-40,"390":-7.006492321624085e-40,"391":7.006492321624085e-40,"392":-7.006492321624085e-40,"393":-7.006492321624085e-40,"394":7.006492321624085e-40,"395":7.006492321624085e-40,"396":7.006492321624085e-40,"397":-7.006492321624085e-40,"398":7.006492321624085e-40,"399":7.006492321624085e-40}},"cellActivationBias":{"rows":20,"columns":1,"weights":{"0":-0.3491308093070984,"1":0.10948190838098526,"2":0.0018738795770332217,"3":1.1647077798843384,"4":0.7378622889518738,"5":-0.13477054238319397,"6":0.014967991039156914,"7":0.3288099467754364,"8":-0.0074251373298466206,"9":-0.16399385035037994,"10":-0.001841126475483179,"11":-0.04814351722598076,"12":-0.09041747450828552,"13":0.01779733970761299,"14":-0.23844125866889954,"15":0.039419032633304596,"16":0.028316142037510872,"17":-0.1940956860780716,"18":-0.3276296555995941,"19":-0.3137778341770172}}},{"inputMatrix":{"rows":20,"columns":20,"weights":{"0":-0.16420501470565796,"1":0.09851876646280289,"2":0.9206775426864624,"3":-0.017843205481767654,"4":-0.28423476219177246,"5":-0.2625681757926941,"6":-0.4955539405345917,"7":0.41792306303977966,"8":-0.6996096968650818,"9":0.07479742169380188,"10":-0.07498542219400406,"11":-0.20427446067333221,"12":-0.5541784763336182,"13":0.30258709192276,"14":-0.5729154348373413,"15":0.8729164600372314,"16":0.009521962143480778,"17":0.3746779263019562,"18":-1.1635971069335938,"19":0.4424965977668762,"20":-0.5726389288902283,"21":0.48484838008880615,"22":-0.07510124146938324,"23":0.5760599374771118,"24":0.9870696067810059,"25":-0.32455840706825256,"26":1.3837920427322388,"27":-0.9610273241996765,"28":-0.18580642342567444,"29":0.007686108350753784,"30":0.12313541769981384,"31":-0.17138800024986267,"32":0.16383838653564453,"33":0.012813779525458813,"34":0.7800717353820801,"35":-0.06203680485486984,"36":-0.13547125458717346,"37":-0.3136516511440277,"38":-0.5528501272201538,"39":-0.003252035705372691,"40":0.05785651504993439,"41":0.13481862843036652,"42":0.09746646881103516,"43":0.1268722265958786,"44":0.5275358557701111,"45":-0.0119151147082448,"46":0.7123076319694519,"47":0.2993300259113312,"48":-0.08757814019918442,"49":-0.25538772344589233,"50":0.634929358959198,"51":0.3216609060764313,"52":0.5305857062339783,"53":0.05901000276207924,"54":0.018937306478619576,"55":0.07944854348897934,"56":-0.15069280564785004,"57":0.34114769101142883,"58":-0.4863032400608063,"59":0.6934823989868164,"60":1.8382488489151,"61":0.21164919435977936,"62":-0.23113521933555603,"63":0.43685057759284973,"64":1.0291506052017212,"65":-0.1778157651424408,"66":-1.5522043704986572,"67":-0.046349167823791504,"68":0.215666726231575,"69":-2.0510010719299316,"70":0.960914671421051,"71":0.5392295718193054,"72":-0.12420997768640518,"73":-0.05627370625734329,"74":-1.025004267692566,"75":-0.17077304422855377,"76":0.0661514475941658,"77":-1.258012056350708,"78":-0.6282263994216919,"79":-0.7784769535064697,"80":-0.6796467304229736,"81":-0.10627337545156479,"82":0.6706255674362183,"83":0.33926820755004883,"84":0.4583243727684021,"85":0.2906038761138916,"86":1.1058199405670166,"87":-0.28271719813346863,"88":0.29808881878852844,"89":1.7041209936141968,"90":0.3863813579082489,"91":0.001428111456334591,"92":0.42342832684516907,"93":-0.2462882697582245,"94":-0.02080376446247101,"95":0.6947381496429443,"96":-0.18319232761859894,"97":0.09215428680181503,"98":-0.9945432543754578,"99":-0.23992282152175903,"100":-0.22138310968875885,"101":-0.0221871268004179,"102":0.1778104156255722,"103":0.972409725189209,"104":0.9090936779975891,"105":1.020151138305664,"106":-0.324556827545166,"107":0.6793161034584045,"108":-0.20030640065670013,"109":-0.17099756002426147,"110":1.3740017414093018,"111":0.5297382473945618,"112":-1.232719898223877,"113":0.338226318359375,"114":0.4401051700115204,"115":0.23312103748321533,"116":0.360004723072052,"117":-0.2402191162109375,"118":-1.297285556793213,"119":-0.3733232319355011,"120":-0.2429216355085373,"121":0.03350803628563881,"122":0.0027051123324781656,"123":0.2863852381706238,"124":0.16691450774669647,"125":0.02952004037797451,"126":-0.05173107609152794,"127":0.0320868194103241,"128":-2.4023075103759766,"129":-0.18791663646697998,"130":-0.17244042456150055,"131":0.05291195213794708,"132":-0.19057711958885193,"133":0.42086344957351685,"134":0.15135732293128967,"135":-1.0887776613235474,"136":-0.2815436124801636,"137":-0.04739626124501228,"138":-0.5559576749801636,"139":-3.2475273609161377,"140":0.11388833820819855,"141":-0.20670150220394135,"142":0.12461596727371216,"143":0.8159299492835999,"144":1.0631983280181885,"145":-0.2410232126712799,"146":-0.2244390994310379,"147":-0.0735229030251503,"148":0.08466639369726181,"149":0.12213081866502762,"150":0.6855562925338745,"151":-0.7606899738311768,"152":-0.3233587145805359,"153":0.6501749753952026,"154":-0.5179352760314941,"155":0.22924821078777313,"156":-0.22021210193634033,"157":-0.345321387052536,"158":-0.7145229578018188,"159":-0.16726469993591309,"160":-0.06899648159742355,"161":0.5355409979820251,"162":0.3394811749458313,"163":0.6580806374549866,"164":0.3633016347885132,"165":-1.2402496337890625,"166":-0.24930022656917572,"167":0.014942971058189869,"168":0.08656929433345795,"169":0.4251859486103058,"170":0.4887154996395111,"171":-0.5299622416496277,"172":-0.19354940950870514,"173":-0.19573228061199188,"174":-0.041249167174100876,"175":-0.15193182229995728,"176":-0.20402975380420685,"177":0.201488196849823,"178":-0.20778830349445343,"179":-0.07129551470279694,"180":1.3357908725738525,"181":-0.06212285906076431,"182":0.37725886702537537,"183":-0.03704473376274109,"184":0.21731558442115784,"185":-0.05216098949313164,"186":-1.5108989477157593,"187":0.4254186153411865,"188":0.35251709818840027,"189":0.7951362729072571,"190":-0.3600917458534241,"191":-0.0399644561111927,"192":-0.5892305374145508,"193":0.08860526978969574,"194":-0.9097055196762085,"195":-0.33713582158088684,"196":-0.07004723697900772,"197":0.1337214708328247,"198":-0.4533771276473999,"199":0.2432474046945572,"200":0.13232000172138214,"201":-2.0538058280944824,"202":0.037623945623636246,"203":0.43045535683631897,"204":0.2645227611064911,"205":0.23994167149066925,"206":-0.12333458662033081,"207":0.17328011989593506,"208":0.0050438642501831055,"209":0.19752278923988342,"210":0.07369539886713028,"211":-0.24497205018997192,"212":-0.1913069784641266,"213":-0.3834901750087738,"214":-0.03468700125813484,"215":0.04030785709619522,"216":0.24459202587604523,"217":-0.09819534420967102,"218":-0.1933264136314392,"219":-0.10584940016269684,"220":-0.3955124616622925,"221":0.22102682292461395,"222":0.6663932204246521,"223":0.5559914112091064,"224":0.7893262505531311,"225":-0.047090426087379456,"226":0.6647052764892578,"227":-0.013090680353343487,"228":-0.3449215590953827,"229":-0.5316412448883057,"230":0.5542498230934143,"231":-0.02534540370106697,"232":-0.15735892951488495,"233":-0.037028905004262924,"234":-0.11916041374206543,"235":0.015694202855229378,"236":0.12879757583141327,"237":0.26267045736312866,"238":-0.7056829929351807,"239":0.22476975619792938,"240":-0.21972574293613434,"241":1.042376160621643,"242":0.29688504338264465,"243":0.4946385324001312,"244":0.5465325117111206,"245":0.20730926096439362,"246":0.1263832151889801,"247":-0.18696828186511993,"248":-0.17420163750648499,"249":0.140095517039299,"250":0.4587146043777466,"251":-0.3935852646827698,"252":-0.6373331546783447,"253":1.4063937664031982,"254":0.5961076021194458,"255":0.19977319240570068,"256":-0.48362305760383606,"257":-0.27354198694229126,"258":-0.3425927758216858,"259":-0.013834794983267784,"260":0.26168084144592285,"261":0.7646862268447876,"262":-0.001278454321436584,"263":0.6791337132453918,"264":0.7061378359794617,"265":0.16180859506130219,"266":-0.0801302120089531,"267":0.06597063690423965,"268":0.07022439688444138,"269":0.01121259480714798,"270":0.1393561214208603,"271":-0.030473725870251656,"272":-2.666411876678467,"273":0.554612398147583,"274":-0.08608758449554443,"275":0.197874516248703,"276":1.6674878597259521,"277":0.020877772942185402,"278":-0.1892370581626892,"279":-0.09805934876203537,"280":0.2142670750617981,"281":0.37259265780448914,"282":0.7552319169044495,"283":0.9805190563201904,"284":0.8580249547958374,"285":-0.14871163666248322,"286":-0.618651807308197,"287":-0.22805269062519073,"288":0.0165491234511137,"289":-0.15843981504440308,"290":0.28897470235824585,"291":-3.5111117362976074,"292":-0.38816046714782715,"293":0.4321325123310089,"294":0.013689531944692135,"295":0.27726268768310547,"296":-0.1902705878019333,"297":0.1072327122092247,"298":-0.6555606126785278,"299":-0.5107485055923462,"300":-0.24312849342823029,"301":-0.03527699410915375,"302":0.1910196989774704,"303":0.651724636554718,"304":0.6090037822723389,"305":0.4530191421508789,"306":-0.30377933382987976,"307":0.8020915389060974,"308":-0.18455123901367188,"309":0.13121037185192108,"310":1.2407702207565308,"311":1.0850433111190796,"312":-0.6279997825622559,"313":0.15739630162715912,"314":0.4063994884490967,"315":-0.2626979351043701,"316":0.21948076784610748,"317":-0.22173233330249786,"318":-1.1024595499038696,"319":-0.11948160827159882,"320":-0.5772794485092163,"321":0.1284685581922531,"322":0.3824387788772583,"323":0.26002416014671326,"324":0.53364497423172,"325":0.009959280490875244,"326":-0.5690865516662598,"327":0.7158263325691223,"328":-0.30217263102531433,"329":-0.625129222869873,"330":-0.1255566030740738,"331":-0.48924174904823303,"332":-0.2729931175708771,"333":0.21203815937042236,"334":-0.49056023359298706,"335":0.2687613070011139,"336":0.6158503293991089,"337":0.5187340974807739,"338":-1.2693307399749756,"339":-0.43654337525367737,"340":-0.05028700828552246,"341":0.2268608957529068,"342":0.4912264049053192,"343":1.1224151849746704,"344":1.3694450855255127,"345":-0.3101550340652466,"346":-0.2532428205013275,"347":0.21594011783599854,"348":0.07933767884969711,"349":0.016797345131635666,"350":0.7267435789108276,"351":1.1179859638214111,"352":-0.6943266987800598,"353":0.5977929830551147,"354":0.07923860102891922,"355":0.06615330278873444,"356":0.1969793736934662,"357":0.26894569396972656,"358":-1.286428689956665,"359":-0.5933459401130676,"360":-0.03828537464141846,"361":0.11922799050807953,"362":0.3642404079437256,"363":0.6098273992538452,"364":0.6653558611869812,"365":0.1489206999540329,"366":-0.14786392450332642,"367":-0.31920352578163147,"368":-1.337428092956543,"369":-0.5588297843933105,"370":0.804478108882904,"371":0.06899633258581161,"372":0.6660336256027222,"373":-0.6930249929428101,"374":0.60723477602005,"375":-1.386423945426941,"376":0.20918124914169312,"377":0.008879614993929863,"378":-0.607624351978302,"379":-2.3868751525878906,