{"type":"LSTMTimeStep","options":{"inputSize":20,"hiddenSizes":[20,20,20],"outputSize":20,"learningRate":0.0005,"decayRate":0.999,"smoothEps":1e-8,"regc":0.000001,"clipval":5,"json":null,"dataFormatter":null},"input":{"rows":20,"columns":1,"weights":[0.9999198338985953,0.012128983847105925,0.997788435044872,0.00037194603469631966,0.9988634659176874,0.0005658238910562792,0.9989905113821189,-0.0016969344071961292,0.9989817578882956,0.9980194173011921,0.991539448969573,0.8947828041581578,0.8996833323462047,0.898959067804856,0.89920405315365,0.898054306276887,0.00027747803950555687,0.0018119769950516458,-0.0005278504126184302,-0.001530656437633262]},"hiddenLayers":[{"inputMatrix":{"rows":20,"columns":20,"weights":{"0":-0.10201133787631989,"1":0.14608566462993622,"2":-0.3739332854747772,"3":0.2942838966846466,"4":0.05992971360683441,"5":-0.05777555704116821,"6":-0.1340724229812622,"7":-0.4529564678668976,"8":-0.2648352384567261,"9":-0.020703844726085663,"10":0.15488213300704956,"11":0.33800560235977173,"12":0.1533822864294052,"13":0.15927660465240479,"14":0.19697190821170807,"15":0.03924451768398285,"16":-0.3084622919559479,"17":0.021289467811584473,"18":0.2784469425678253,"19":-0.270562082529068,"20":-0.0226767398416996,"21":0.0594978891313076,"22":-0.09715726226568222,"23":0.017808878794312477,"24":0.05696386843919754,"25":0.2758336365222931,"26":0.086642786860466,"27":-0.5584233403205872,"28":-0.06931551545858383,"29":0.08596254140138626,"30":0.9245933890342712,"31":1.2181177139282227,"32":0.11041095107793808,"33":0.3332439363002777,"34":0.22949089109897614,"35":0.2790609300136566,"36":-0.12100005149841309,"37":-0.07275114953517914,"38":0.0211366955190897,"39":-0.1818639487028122,"40":-0.09550132602453232,"41":0.0010153051698580384,"42":0.0811077132821083,"43":0.1023893803358078,"44":0.025525622069835663,"45":0.06026501581072807,"46":0.1872193068265915,"47":0.1719392091035843,"48":0.08552491664886475,"49":-0.06886351108551025,"50":0.7220968008041382,"51":1.081241250038147,"52":0.19454319775104523,"53":0.15347743034362793,"54":0.24053338170051575,"55":0.26470428705215454,"56":0.19716235995292664,"57":-0.004796393681317568,"58":-0.09390835464000702,"59":0.13517935574054718,"60":0.07291945070028305,"61":0.08715084940195084,"62":-2.491563320159912,"63":0.16838599741458893,"64":-0.0540010929107666,"65":-0.011553844437003136,"66":-0.036366093903779984,"67":0.016844552010297775,"68":-0.06604044884443283,"69":-0.021069364622235298,"70":0.49781274795532227,"71":0.7458053827285767,"72":-0.08671639114618301,"73":-0.07011572271585464,"74":-0.013021400198340416,"75":-0.2438780516386032,"76":0.38897302746772766,"77":-0.5130496621131897,"78":-0.2535034418106079,"79":-0.05197468027472496,"80":0.08127597719430923,"81":0.13126499950885773,"82":0.9268181324005127,"83":0.027146119624376297,"84":-0.050595544278621674,"85":0.1634354442358017,"86":-0.027811381965875626,"87":0.18509037792682648,"88":-0.021046975627541542,"89":0.035382792353630066,"90":0.2526814639568329,"91":0.504586398601532,"92":-0.21633082628250122,"93":-0.06003576144576073,"94":-0.1380157172679901,"95":-0.24252822995185852,"96":0.2702473998069763,"97":-0.441929429769516,"98":-0.177504763007164,"99":0.2067062109708786,"100":-0.16576342284679413,"101":-0.08158039301633835,"102":0.06635922193527222,"103":0.05918879806995392,"104":0.10804635286331177,"105":0.010974513366818428,"106":0.10747192054986954,"107":0.10482857376337051,"108":0.23840227723121643,"109":-0.061114225536584854,"110":0.8539651036262512,"111":1.1864460706710815,"112":0.22250233590602875,"113":0.08803617209196091,"114":0.2388080507516861,"115":0.05920151248574257,"116":0.08142600953578949,"117":-0.04462357610464096,"118":-0.014805321581661701,"119":0.03553946316242218,"120":0.12068447470664978,"121":2.210148811340332,"122":-0.0707247331738472,"123":-0.014242696575820446,"124":0.017345566302537918,"125":-0.01935792900621891,"126":0.03549033775925636,"127":0.1297324001789093,"128":0.15239152312278748,"129":0.01848863624036312,"130":0.23343954980373383,"131":1.0890132188796997,"132":-0.2882816791534424,"133":-0.29313793778419495,"134":-0.2828419506549835,"135":0.22463074326515198,"136":0.3047904670238495,"137":-0.32551294565200806,"138":0.080820731818676,"139":0.2782079577445984,"140":0.025414105504751205,"141":0.07614103704690933,"142":-0.06451313197612762,"143":-0.07659798115491867,"144":0.014573857188224792,"145":-0.004002790432423353,"146":-0.11418977379798889,"147":-0.07344379276037216,"148":0.11664341390132904,"149":-0.08727730065584183,"150":0.6433575749397278,"151":0.476492315530777,"152":0.709359347820282,"153":0.6174522042274475,"154":0.6243743300437927,"155":0.563538670539856,"156":-0.1726633906364441,"157":0.11187943071126938,"158":0.22789277136325836,"159":-0.06519842147827148,"160":0.07946483790874481,"161":0.007700915448367596,"162":0.0620870403945446,"163":0.22668330371379852,"164":-0.15419694781303406,"165":-0.06667883694171906,"166":0.0017886522691696882,"167":-0.21928101778030396,"168":-0.40466493368148804,"169":-0.14474743604660034,"170":0.17604830861091614,"171":0.7616255879402161,"172":0.2678433656692505,"173":0.22914625704288483,"174":0.3765432834625244,"175":0.006791962310671806,"176":-0.004920797422528267,"177":-0.09326685220003128,"178":0.005042954348027706,"179":-0.12342483550310135,"180":2.4420766830444336,"181":0.19865356385707855,"182":0.19266793131828308,"183":0.09175965189933777,"184":0.078994520008564,"185":0.0600898340344429,"186":-0.0102596590295434,"187":0.10291099548339844,"188":0.002896000863984227,"189":-0.20105990767478943,"190":0.4278321862220764,"191":1.0895226001739502,"192":-0.018059980124235153,"193":-0.259159654378891,"194":-0.1752946376800537,"195":0.18244321644306183,"196":0.08545930683612823,"197":-0.2860260605812073,"198":-0.33801403641700745,"199":-0.007726648822426796,"200":0.0684051662683487,"201":-0.11862660944461823,"202":-0.19230082631111145,"203":0.025512078776955605,"204":-0.14844906330108643,"205":-0.15894542634487152,"206":-0.1169242337346077,"207":-0.035841431468725204,"208":0.06584008783102036,"209":-0.26735472679138184,"210":0.7080156207084656,"211":1.2447162866592407,"212":0.3733672499656677,"213":0.118755042552948,"214":0.18487223982810974,"215":0.2800385653972626,"216":-0.20659701526165009,"217":0.008911265060305595,"218":0.14748933911323547,"219":-0.1028883084654808,"220":-0.07132132351398468,"221":-0.002328914124518633,"222":0.002295024925842881,"223":0.07870785892009735,"224":0.23742683231830597,"225":-0.09723249077796936,"226":0.11457595229148865,"227":0.11410548537969589,"228":0.01975271850824356,"229":-0.07460487633943558,"230":0.9247111082077026,"231":1.3269031047821045,"232":0.03210631012916565,"233":0.05768347159028053,"234":0.23377543687820435,"235":0.1780088245868683,"236":0.10134930163621902,"237":-0.19624385237693787,"238":-0.12418796867132187,"239":0.054382119327783585,"240":0.0009772776393219829,"241":0.04150718078017235,"242":0.04388716444373131,"243":0.13359110057353973,"244":0.15082833170890808,"245":0.19506405293941498,"246":0.4605265259742737,"247":0.4249972701072693,"248":0.47582924365997314,"249":-0.6566717624664307,"250":0.4839359223842621,"251":0.9442837834358215,"252":-0.1386561244726181,"253":-0.27895742654800415,"254":0.27333876490592957,"255":0.11953791975975037,"256":0.06836191564798355,"257":-0.2827441692352295,"258":0.020355986431241035,"259":-0.07073206454515457,"260":-0.10632754862308502,"261":-0.1623324602842331,"262":0.03578909859061241,"263":-0.017050977796316147,"264":0.10636665672063828,"265":0.054576486349105835,"266":0.20785070955753326,"267":0.2366088181734085,"268":-1.0097099542617798,"269":0.2349770963191986,"270":1.1197279691696167,"271":0.8869912624359131,"272":-0.23911422491073608,"273":0.08846762776374817,"274":0.14524143934249878,"275":-0.09509965032339096,"276":-0.13603906333446503,"277":-0.2416778951883316,"278":-0.12351974099874496,"279":-0.20676133036613464,"280":-0.17907501757144928,"281":-0.16638174653053284,"282":0.21620729565620422,"283":0.005332927219569683,"284":0.029047545045614243,"285":-0.049700383096933365,"286":0.07688475400209427,"287":0.024819424375891685,"288":-0.181296244263649,"289":-0.30263766646385193,"290":0.18579669296741486,"291":0.4468376934528351,"292":0.10035208612680435,"293":0.05293882265686989,"294":0.20100654661655426,"295":-0.05737314000725746,"296":-0.3122480809688568,"297":-0.00222570332698524,"298":0.15989282727241516,"299":-0.2085888534784317,"300":0.024075744673609734,"301":-0.023816702887415886,"302":-0.002771001076325774,"303":0.10708141326904297,"304":0.16812348365783691,"305":-0.006813358515501022,"306":-0.051711518317461014,"307":-0.2697371542453766,"308":-0.29733461141586304,"309":-0.12517735362052917,"310":-0.10783092677593231,"311":0.612533450126648,"312":0.406494677066803,"313":0.19991998374462128,"314":0.19114887714385986,"315":0.2259327918291092,"316":-0.2874641418457031,"317":-0.0309725534170866,"318":-0.1209278404712677,"319":-0.18186910450458527,"320":-0.036308396607637405,"321":0.04616376385092735,"322":-0.02106821909546852,"323":0.00309655349701643,"324":-0.010307555086910725,"325":0.08243238925933838,"326":-0.3092139661312103,"327":-0.1650538146495819,"328":-0.015635132789611816,"329":-0.14348764717578888,"330":0.6059820055961609,"331":1.386525273323059,"332":0.2808198630809784,"333":0.23931199312210083,"334":0.11692618578672409,"335":0.2330986112356186,"336":-0.11932627111673355,"337":-0.03062574937939644,"338":-0.10635288059711456,"339":-0.11853033304214478,"340":-0.11549289524555206,"341":0.030235256999731064,"342":0.12729187309741974,"343":0.25703245401382446,"344":0.1912526935338974,"345":0.022352593019604683,"346":-0.11476913839578629,"347":0.0217143427580595,"348":-0.3803888261318207,"349":-0.09162993729114532,"350":-0.2778274714946747,"351":0.489361971616745,"352":0.17386770248413086,"353":-0.04286417365074158,"354":-0.08745028078556061,"355":-0.05249038711190224,"356":-0.3154696822166443,"357":-0.1323181539773941,"358":-0.006342016160488129,"359":-0.2675981819629669,"360":0.010212915018200874,"361":-0.10834439098834991,"362":-0.14020347595214844,"363":0.05391142517328262,"364":0.12132799625396729,"365":0.011456330306828022,"366":0.20922893285751343,"367":0.2127806544303894,"368":0.1078958809375763,"369":0.26883262395858765,"370":-0.048437610268592834,"371":0.8000940680503845,"372":0.6627009510993958,"373":0.17750506103038788,"374":0.35782095789909363,"375":0.46954429149627686,"376":0.29727473855018616,"377":0.12618404626846313,"378":0.041575949639081955,"379":0.3417744040489197,"380":-0.11814320087432861,"381":0.09378213435411453,"382":0.09495715796947479,"383":0.031101975589990616,"384":-0.02968364953994751,"385":0.0024064048193395138,"386":-0.2528580129146576,"387":0.037297334522008896,"388":0.07122991234064102,"389":0.2831239402294159,"390":-0.15290115773677826,"391":0.02400793321430683,"392":0.19937913119792938,"393":0.07851946353912354,"394":0.03889027610421181,"395":-0.0513894259929657,"396":-0.19995513558387756,"397":0.022193368524312973,"398":0.2257653921842575,"399":-0.07588944584131241}},"inputHidden":{"rows":20,"columns":20,"weights":{"0":-7.006492321624085e-40,"1":-7.006492321624085e-40,"2":7.006492321624085e-40,"3":7.006492321624085e-40,"4":7.006492321624085e-40,"5":-7.006492321624085e-40,"6":7.006492321624085e-40,"7":-7.006492321624085e-40,"8":-7.006492321624085e-40,"9":-7.006492321624085e-40,"10":7.006492321624085e-40,"11":7.006492321624085e-40,"12":-7.006492321624085e-40,"13":7.006492321624085e-40,"14":7.006492321624085e-40,"15":7.006492321624085e-40,"16":-7.006492321624085e-40,"17":-7.006492321624085e-40,"18":7.006492321624085e-40,"19":7.006492321624085e-40,"20":7.006492321624085e-40,"21":7.006492321624085e-40,"22":-7.006492321624085e-40,"23":7.006492321624085e-40,"24":-7.006492321624085e-40,"25":7.006492321624085e-40,"26":-7.006492321624085e-40,"27":-7.006492321624085e-40,"28":7.006492321624085e-40,"29":7.006492321624085e-40,"30":-7.006492321624085e-40,"31":-7.006492321624085e-40,"32":7.006492321624085e-40,"33":-7.006492321624085e-40,"34":7.006492321624085e-40,"35":7.006492321624085e-40,"36":-7.006492321624085e-40,"37":-7.006492321624085e-40,"38":7.006492321624085e-40,"39":-7.006492321624085e-40,"40":7.006492321624085e-40,"41":-7.006492321624085e-40,"42":-7.006492321624085e-40,"43":7.006492321624085e-40,"44":7.006492321624085e-40,"45":7.006492321624085e-40,"46":-7.006492321624085e-40,"47":7.006492321624085e-40,"48":7.006492321624085e-40,"49":7.006492321624085e-40,"50":7.006492321624085e-40,"51":-7.006492321624085e-40,"52":-7.006492321624085e-40,"53":7.006492321624085e-40,"54":-7.006492321624085e-40,"55":-7.006492321624085e-40,"56":-7.006492321624085e-40,"57":-7.006492321624085e-40,"58":-7.006492321624085e-40,"59":-7.006492321624085e-40,"60":-7.006492321624085e-40,"61":7.006492321624085e-40,"62":7.006492321624085e-40,"63":-7.006492321624085e-40,"64":-7.006492321624085e-40,"65":7.006492321624085e-40,"66":7.006492321624085e-40,"67":-7.006492321624085e-40,"68":7.006492321624085e-40,"69":7.006492321624085e-40,"70":7.006492321624085e-40,"71":7.006492321624085e-40,"72":7.006492321624085e-40,"73":-7.006492321624085e-40,"74":7.006492321624085e-40,"75":-7.006492321624085e-40,"76":-7.006492321624085e-40,"77":-7.006492321624085e-40,"78":-7.006492321624085e-40,"79":-7.006492321624085e-40,"80":7.006492321624085e-40,"81":7.006492321624085e-40,"82":-7.006492321624085e-40,"83":7.006492321624085e-40,"84":7.006492321624085e-40,"85":7.006492321624085e-40,"86":7.006492321624085e-40,"87":-7.006492321624085e-40,"88":7.006492321624085e-40,"89":7.006492321624085e-40,"90":7.006492321624085e-40,"91":-7.006492321624085e-40,"92":7.006492321624085e-40,"93":-7.006492321624085e-40,"94":7.006492321624085e-40,"95":7.006492321624085e-40,"96":7.006492321624085e-40,"97":-7.006492321624085e-40,"98":-7.006492321624085e-40,"99":-7.006492321624085e-40,"100":7.006492321624085e-40,"101":7.006492321624085e-40,"102":7.006492321624085e-40,"103":7.006492321624085e-40,"104":7.006492321624085e-40,"105":-7.006492321624085e-40,"106":-7.006492321624085e-40,"107":-7.006492321624085e-40,"108":-7.006492321624085e-40,"109":-7.006492321624085e-40,"110":7.006492321624085e-40,"111":7.006492321624085e-40,"112":7.006492321624085e-40,"113":7.006492321624085e-40,"114":-7.006492321624085e-40,"115":-7.006492321624085e-40,"116":-7.006492321624085e-40,"117":7.006492321624085e-40,"118":-7.006492321624085e-40,"119":7.006492321624085e-40,"120":7.006492321624085e-40,"121":-7.006492321624085e-40,"122":-7.006492321624085e-40,"123":-7.006492321624085e-40,"124":-7.006492321624085e-40,"125":-7.006492321624085e-40,"126":-7.006492321624085e-40,"127":7.006492321624085e-40,"128":-7.006492321624085e-40,"129":-7.006492321624085e-40,"130":7.006492321624085e-40,"131":7.006492321624085e-40,"132":7.006492321624085e-40,"133":-7.006492321624085e-40,"134":-7.006492321624085e-40,"135":7.006492321624085e-40,"136":-7.006492321624085e-40,"137":7.006492321624085e-40,"138":7.006492321624085e-40,"139":-7.006492321624085e-40,"140":7.006492321624085e-40,"141":7.006492321624085e-40,"142":-7.006492321624085e-40,"143":-7.006492321624085e-40,"144":-7.006492321624085e-40,"145":-7.006492321624085e-40,"146":-7.006492321624085e-40,"147":7.006492321624085e-40,"148":-7.006492321624085e-40,"149":7.006492321624085e-40,"150":-7.006492321624085e-40,"151":-7.006492321624085e-40,"152":7.006492321624085e-40,"153":-7.006492321624085e-40,"154":7.006492321624085e-40,"155":7.006492321624085e-40,"156":7.006492321624085e-40,"157":-7.006492321624085e-40,"158":7.006492321624085e-40,"159":-7.006492321624085e-40,"160":-7.006492321624085e-40,"161":7.006492321624085e-40,"162":-7.006492321624085e-40,"163":7.006492321624085e-40,"164":-7.006492321624085e-40,"165":7.006492321624085e-40,"166":-7.006492321624085e-40,"167":-7.006492321624085e-40,"168":-7.006492321624085e-40,"169":7.006492321624085e-40,"170":7.006492321624085e-40,"171":7.006492321624085e-40,"172":7.006492321624085e-40,"173":-7.006492321624085e-40,"174":7.006492321624085e-40,"175":7.006492321624085e-40,"176":-7.006492321624085e-40,"177":7.006492321624085e-40,"178":-7.006492321624085e-40,"179":7.006492321624085e-40,"180":-7.006492321624085e-40,"181":-7.006492321624085e-40,"182":7.006492321624085e-40,"183":-7.006492321624085e-40,"184":7.006492321624085e-40,"185":7.006492321624085e-40,"186":7.006492321624085e-40,"187":-7.006492321624085e-40,"188":7.006492321624085e-40,"189":7.006492321624085e-40,"190":-7.006492321624085e-40,"191":-7.006492321624085e-40,"192":-7.006492321624085e-40,"193":7.006492321624085e-40,"194":7.006492321624085e-40,"195":7.006492321624085e-40,"196":-7.006492321624085e-40,"197":-7.006492321624085e-40,"198":7.006492321624085e-40,"199":7.006492321624085e-40,"200":7.006492321624085e-40,"201":7.006492321624085e-40,"202":7.006492321624085e-40,"203":7.006492321624085e-40,"204":7.006492321624085e-40,"205":-7.006492321624085e-40,"206":-7.006492321624085e-40,"207":7.006492321624085e-40,"208":7.006492321624085e-40,"209":7.006492321624085e-40,"210":7.006492321624085e-40,"211":7.006492321624085e-40,"212":-7.006492321624085e-40,"213":-7.006492321624085e-40,"214":-7.006492321624085e-40,"215":-7.006492321624085e-40,"216":7.006492321624085e-40,"217":7.006492321624085e-40,"218":-7.006492321624085e-40,"219":-7.006492321624085e-40,"220":-7.006492321624085e-40,"221":-7.006492321624085e-40,"222":-7.006492321624085e-40,"223":7.006492321624085e-40,"224":7.006492321624085e-40,"225":7.006492321624085e-40,"226":-7.006492321624085e-40,"227":-7.006492321624085e-40,"228":7.006492321624085e-40,"229":7.006492321624085e-40,"230":7.006492321624085e-40,"231":-7.006492321624085e-40,"232":-7.006492321624085e-40,"233":-7.006492321624085e-40,"234":-7.006492321624085e-40,"235":7.006492321624085e-40,"236":7.006492321624085e-40,"237":7.006492321624085e-40,"238":-7.006492321624085e-40,"239":-7.006492321624085e-40,"240":7.006492321624085e-40,"241":-7.006492321624085e-40,"242":7.006492321624085e-40,"243":7.006492321624085e-40,"244":-7.006492321624085e-40,"245":-7.006492321624085e-40,"246":7.006492321624085e-40,"247":7.006492321624085e-40,"248":-7.006492321624085e-40,"249":7.006492321624085e-40,"250":-7.006492321624085e-40,"251":7.006492321624085e-40,"252":-7.006492321624085e-40,"253":7.006492321624085e-40,"254":-7.006492321624085e-40,"255":-7.006492321624085e-40,"256":-7.006492321624085e-40,"257":-7.006492321624085e-40,"258":7.006492321624085e-40,"259":-7.006492321624085e-40,"260":7.006492321624085e-40,"261":7.006492321624085e-40,"262":7.006492321624085e-40,"263":-7.006492321624085e-40,"264":7.006492321624085e-40,"265":-7.006492321624085e-40,"266":7.006492321624085e-40,"267":-7.006492321624085e-40,"268":7.006492321624085e-40,"269":7.006492321624085e-40,"270":7.006492321624085e-40,"271":-7.006492321624085e-40,"272":7.006492321624085e-40,"273":7.006492321624085e-40,"274":7.006492321624085e-40,"275":7.006492321624085e-40,"276":-7.006492321624085e-40,"277":-7.006492321624085e-40,"278":7.006492321624085e-40,"279":-7.006492321624085e-40,"280":-7.006492321624085e-40,"281":7.006492321624085e-40,"282":7.006492321624085e-40,"283":-7.006492321624085e-40,"284":7.006492321624085e-40,"285":7.006492321624085e-40,"286":-7.006492321624085e-40,"287":-7.006492321624085e-40,"288":7.006492321624085e-40,"289":7.006492321624085e-40,"290":-7.006492321624085e-40,"291":7.006492321624085e-40,"292":-7.006492321624085e-40,"293":-7.006492321624085e-40,"294":7.006492321624085e-40,"295":7.006492321624085e-40,"296":7.006492321624085e-40,"297":-7.006492321624085e-40,"298":7.006492321624085e-40,"299":-7.006492321624085e-40,"300":7.006492321624085e-40,"301":7.006492321624085e-40,"302":-7.006492321624085e-40,"303":-7.006492321624085e-40,"304":7.006492321624085e-40,"305":-7.006492321624085e-40,"306":7.006492321624085e-40,"307":-7.006492321624085e-40,"308":-7.006492321624085e-40,"309":7.006492321624085e-40,"310":-7.006492321624085e-40,"311":7.006492321624085e-40,"312":-7.006492321624085e-40,"313":7.006492321624085e-40,"314":-7.006492321624085e-40,"315":-7.006492321624085e-40,"316":7.006492321624085e-40,"317":7.006492321624085e-40,"318":-7.006492321624085e-40,"319":-7.006492321624085e-40,"320":7.006492321624085e-40,"321":-7.006492321624085e-40,"322":7.006492321624085e-40,"323":-7.006492321624085e-40,"324":-7.006492321624085e-40,"325":-7.006492321624085e-40,"326":-7.006492321624085e-40,"327":-7.006492321624085e-40,"328":7.006492321624085e-40,"329":7.006492321624085e-40,"330":7.006492321624085e-40,"331":7.006492321624085e-40,"332":-7.006492321624085e-40,"333":-7.006492321624085e-40,"334":7.006492321624085e-40,"335":7.006492321624085e-40,"336":-7.006492321624085e-40,"337":7.006492321624085e-40,"338":-7.006492321624085e-40,"339":7.006492321624085e-40,"340":7.006492321624085e-40,"341":7.006492321624085e-40,"342":-7.006492321624085e-40,"343":7.006492321624085e-40,"344":7.006492321624085e-40,"345":-7.006492321624085e-40,"346":-7.006492321624085e-40,"347":7.006492321624085e-40,"348":7.006492321624085e-40,"349":-7.006492321624085e-40,"350":7.006492321624085e-40,"351":7.006492321624085e-40,"352":7.006492321624085e-40,"353":-7.006492321624085e-40,"354":-7.006492321624085e-40,"355":7.006492321624085e-40,"356":-7.006492321624085e-40,"357":7.006492321624085e-40,"358":-7.006492321624085e-40,"359":7.006492321624085e-40,"360":7.006492321624085e-40,"361":-7.006492321624085e-40,"362":-7.006492321624085e-40,"363":7.006492321624085e-40,"364":7.006492321624085e-40,"365":7.006492321624085e-40,"366":-7.006492321624085e-40,"367":-7.006492321624085e-40,"368":-7.006492321624085e-40,"369":-7.006492321624085e-40,"370":7.006492321624085e-40,"371":-7.006492321624085e-40,"372":-7.006492321624085e-40,"373":7.006492321624085e-40,"374":7.006492321624085e-40,"375":-7.006492321624085e-40,"376":-7.006492321624085e-40,"377":7.006492321624085e-40,"378":-7.006492321624085e-40,"379":7.006492321624085e-40,"380":-7.006492321624085e-40,"381":-7.006492321624085e-40,"382":7.006492321624085e-40,"383":7.006492321624085e-40,"384":-7.006492321624085e-40,"385":7.006492321624085e-40,"386":7.006492321624085e-40,"387":7.006492321624085e-40,"388":-7.006492321624085e-40,"389":-7.006492321624085e-40,"390":7.006492321624085e-40,"391":7.006492321624085e-40,"392":-7.006492321624085e-40,"393":-7.006492321624085e-40,"394":-7.006492321624085e-40,"395":-7.006492321624085e-40,"396":7.006492321624085e-40,"397":-7.006492321624085e-40,"398":-7.006492321624085e-40,"399":7.006492321624085e-40}},"inputBias":{"rows":20,"columns":1,"weights":{"0":0.9030391573905945,"1":1.7109254598617554,"2":1.6067638397216797,"3":1.010512351989746,"4":0.5405175089836121,"5":1.4298272132873535,"6":1.1305235624313354,"7":0.8328893184661865,"8":1.4147543907165527,"9":1.192866563796997,"10":1.972982406616211,"11":1.3475419282913208,"12":0.7555570006370544,"13":0.9952080845832825,"14":0.7620702385902405,"15":0.979548454284668,"16":1.7977800369262695,"17":0.9964001774787903,"18":1.2525027990341187,"19":0.5905205011367798}},"forgetMatrix":{"rows":20,"columns":20,"weights":{"0":-7.006492321624085e-40,"1":7.006492321624085e-40,"2":7.006492321624085e-40,"3":7.006492321624085e-40,"4":7.006492321624085e-40,"5":-7.006492321624085e-40,"6":-7.006492321624085e-40,"7":7.006492321624085e-40,"8":7.006492321624085e-40,"9":-7.006492321624085e-40,"10":-7.006492321624085e-40,"11":-7.006492321624085e-40,"12":-7.006492321624085e-40,"13":7.006492321624085e-40,"14":-7.006492321624085e-40,"15":-7.006492321624085e-40,"16":7.006492321624085e-40,"17":-7.006492321624085e-40,"18":-7.006492321624085e-40,"19":7.006492321624085e-40,"20":7.006492321624085e-40,"21":7.006492321624085e-40,"22":-7.006492321624085e-40,"23":-7.006492321624085e-40,"24":7.006492321624085e-40,"25":7.006492321624085e-40,"26":7.006492321624085e-40,"27":-7.006492321624085e-40,"28":-7.006492321624085e-40,"29":-7.006492321624085e-40,"30":7.006492321624085e-40,"31":7.006492321624085e-40,"32":7.006492321624085e-40,"33":-7.006492321624085e-40,"34":7.006492321624085e-40,"35":-7.006492321624085e-40,"36":-7.006492321624085e-40,"37":7.006492321624085e-40,"38":7.006492321624085e-40,"39":7.006492321624085e-40,"40":-7.006492321624085e-40,"41":-7.006492321624085e-40,"42":-7.006492321624085e-40,"43":7.006492321624085e-40,"44":7.006492321624085e-40,"45":-7.006492321624085e-40,"46":-7.006492321624085e-40,"47":7.006492321624085e-40,"48":-7.006492321624085e-40,"49":-7.006492321624085e-40,"50":7.006492321624085e-40,"51":-7.006492321624085e-40,"52":-7.006492321624085e-40,"53":7.006492321624085e-40,"54":-7.006492321624085e-40,"55":-7.006492321624085e-40,"56":7.006492321624085e-40,"57":7.006492321624085e-40,"58":7.006492321624085e-40,"59":7.006492321624085e-40,"60":7.006492321624085e-40,"61":7.006492321624085e-40,"62":7.006492321624085e-40,"63":7.006492321624085e-40,"64":7.006492321624085e-40,"65":-7.006492321624085e-40,"66":-7.006492321624085e-40,"67":-7.006492321624085e-40,"68":7.006492321624085e-40,"69":-7.006492321624085e-40,"70":-7.006492321624085e-40,"71":7.006492321624085e-40,"72":-7.006492321624085e-40,"73":7.006492321624085e-40,"74":-7.006492321624085e-40,"75":-7.006492321624085e-40,"76":-7.006492321624085e-40,"77":-7.006492321624085e-40,"78":-7.006492321624085e-40,"79":7.006492321624085e-40,"80":-7.006492321624085e-40,"81":-7.006492321624085e-40,"82":7.006492321624085e-40,"83":7.006492321624085e-40,"84":-7.006492321624085e-40,"85":7.006492321624085e-40,"86":-7.006492321624085e-40,"87":7.006492321624085e-40,"88":7.006492321624085e-40,"89":7.006492321624085e-40,"90":-7.006492321624085e-40,"91":-7.006492321624085e-40,"92":-7.006492321624085e-40,"93":7.006492321624085e-40,"94":-7.006492321624085e-40,"95":-7.006492321624085e-40,"96":-7.006492321624085e-40,"97":-7.006492321624085e-40,"98":-7.006492321624085e-40,"99":7.006492321624085e-40,"100":-7.006492321624085e-40,"101":-7.006492321624085e-40,"102":-7.006492321624085e-40,"103":-7.006492321624085e-40,"104":7.006492321624085e-40,"105":-7.006492321624085e-40,"106":7.006492321624085e-40,"107":-7.006492321624085e-40,"108":7.006492321624085e-40,"109":-7.006492321624085e-40,"110":7.006492321624085e-40,"111":-7.006492321624085e-40,"112":7.006492321624085e-40,"113":-7.006492321624085e-40,"114":-7.006492321624085e-40,"115":7.006492321624085e-40,"116":-7.006492321624085e-40,"117":7.006492321624085e-40,"118":7.006492321624085e-40,"119":-7.006492321624085e-40,"120":7.006492321624085e-40,"121":7.006492321624085e-40,"122":7.006492321624085e-40,"123":-7.006492321624085e-40,"124":-7.006492321624085e-40,"125":7.006492321624085e-40,"126":7.006492321624085e-40,"127":-7.006492321624085e-40,"128":-7.006492321624085e-40,"129":7.006492321624085e-40,"130":7.006492321624085e-40,"131":7.006492321624085e-40,"132":7.006492321624085e-40,"133":7.006492321624085e-40,"134":-7.006492321624085e-40,"135":-7.006492321624085e-40,"136":-7.006492321624085e-40,"137":-7.006492321624085e-40,"138":7.006492321624085e-40,"139":-7.006492321624085e-40,"140":7.006492321624085e-40,"141":7.006492321624085e-40,"142":7.006492321624085e-40,"143":7.006492321624085e-40,"144":7.006492321624085e-40,"145":-7.006492321624085e-40,"146":7.006492321624085e-40,"147":-7.006492321624085e-40,"148":7.006492321624085e-40,"149":7.006492321624085e-40,"150":7.006492321624085e-40,"151":7.006492321624085e-40,"152":7.006492321624085e-40,"153":7.006492321624085e-40,"154":7.006492321624085e-40,"155":7.006492321624085e-40,"156":7.006492321624085e-40,"157":-7.006492321624085e-40,"158":-7.006492321624085e-40,"159":7.006492321624085e-40,"160":-7.006492321624085e-40,"161":-7.006492321624085e-40,"162":-7.006492321624085e-40,"163":-7.006492321624085e-40,"164":-7.006492321624085e-40,"165":-7.006492321624085e-40,"166":-7.006492321624085e-40,"167":7.006492321624085e-40,"168":7.006492321624085e-40,"169":7.006492321624085e-40,"170":-7.006492321624085e-40,"171":-7.006492321624085e-40,"172":-7.006492321624085e-40,"173":7.006492321624085e-40,"174":7.006492321624085e-40,"175":-7.006492321624085e-40,"176":-7.006492321624085e-40,"177":-7.006492321624085e-40,"178":7.006492321624085e-40,"179":7.006492321624085e-40,"180":-7.006492321624085e-40,"181":7.006492321624085e-40,"182":7.006492321624085e-40,"183":7.006492321624085e-40,"184":-7.006492321624085e-40,"185":7.006492321624085e-40,"186":-7.006492321624085e-40,"187":7.006492321624085e-40,"188":-7.006492321624085e-40,"189":-7.006492321624085e-40,"190":7.006492321624085e-40,"191":-7.006492321624085e-40,"192":7.006492321624085e-40,"193":-7.006492321624085e-40,"194":-7.006492321624085e-40,"195":-7.006492321624085e-40,"196":7.006492321624085e-40,"197":-7.006492321624085e-40,"198":-7.006492321624085e-40,"199":-7.006492321624085e-40,"200":7.006492321624085e-40,"201":-7.006492321624085e-40,"202":7.006492321624085e-40,"203":7.006492321624085e-40,"204":-7.006492321624085e-40,"205":-7.006492321624085e-40,"206":7.006492321624085e-40,"207":-7.006492321624085e-40,"208":-7.006492321624085e-40,"209":-7.006492321624085e-40,"210":7.006492321624085e-40,"211":7.006492321624085e-40,"212":-7.006492321624085e-40,"213":-7.006492321624085e-40,"214":-7.006492321624085e-40,"215":7.006492321624085e-40,"216":-7.006492321624085e-40,"217":-7.006492321624085e-40,"218":-7.006492321624085e-40,"219":7.006492321624085e-40,"220":-7.006492321624085e-40,"221":7.006492321624085e-40,"222":-7.006492321624085e-40,"223":-7.006492321624085e-40,"224":7.006492321624085e-40,"225":-7.006492321624085e-40,"226":7.006492321624085e-40,"227":7.006492321624085e-40,"228":7.006492321624085e-40,"229":-7.006492321624085e-40,"230":-7.006492321624085e-40,"231":-7.006492321624085e-40,"232":-7.006492321624085e-40,"233":-7.006492321624085e-40,"234":7.006492321624085e-40,"235":7.006492321624085e-40,"236":7.006492321624085e-40,"237":7.006492321624085e-40,"238":-7.006492321624085e-40,"239":-7.006492321624085e-40,"240":7.006492321624085e-40,"241":-7.006492321624085e-40,"242":7.006492321624085e-40,"243":7.006492321624085e-40,"244":-7.006492321624085e-40,"245":-7.006492321624085e-40,"246":-7.006492321624085e-40,"247":-7.006492321624085e-40,"248":-7.006492321624085e-40,"249":7.006492321624085e-40,"250":7.006492321624085e-40,"251":7.006492321624085e-40,"252":-7.006492321624085e-40,"253":7.006492321624085e-40,"254":-7.006492321624085e-40,"255":-7.006492321624085e-40,"256":-7.006492321624085e-40,"257":7.006492321624085e-40,"258":-7.006492321624085e-40,"259":7.006492321624085e-40,"260":-7.006492321624085e-40,"261":7.006492321624085e-40,"262":7.006492321624085e-40,"263":-7.006492321624085e-40,"264":7.006492321624085e-40,"265":7.006492321624085e-40,"266":-7.006492321624085e-40,"267":-7.006492321624085e-40,"268":-7.006492321624085e-40,"269":7.006492321624085e-40,"270":7.006492321624085e-40,"271":-7.006492321624085e-40,"272":-7.006492321624085e-40,"273":-7.006492321624085e-40,"274":-7.006492321624085e-40,"275":-7.006492321624085e-40,"276":7.006492321624085e-40,"277":-7.006492321624085e-40,"278":-7.006492321624085e-40,"279":7.006492321624085e-40,"280":7.006492321624085e-40,"281":7.006492321624085e-40,"282":-7.006492321624085e-40,"283":7.006492321624085e-40,"284":7.006492321624085e-40,"285":-7.006492321624085e-40,"286":-7.006492321624085e-40,"287":7.006492321624085e-40,"288":-7.006492321624085e-40,"289":-7.006492321624085e-40,"290":-7.006492321624085e-40,"291":-7.006492321624085e-40,"292":-7.006492321624085e-40,"293":7.006492321624085e-40,"294":-7.006492321624085e-40,"295":7.006492321624085e-40,"296":7.006492321624085e-40,"297":-7.006492321624085e-40,"298":-7.006492321624085e-40,"299":-7.006492321624085e-40,"300":7.006492321624085e-40,"301":7.006492321624085e-40,"302":7.006492321624085e-40,"303":7.006492321624085e-40,"304":7.006492321624085e-40,"305":-7.006492321624085e-40,"306":-7.006492321624085e-40,"307":-7.006492321624085e-40,"308":7.006492321624085e-40,"309":7.006492321624085e-40,"310":7.006492321624085e-40,"311":7.006492321624085e-40,"312":7.006492321624085e-40,"313":-7.006492321624085e-40,"314":-7.006492321624085e-40,"315":-7.006492321624085e-40,"316":-7.006492321624085e-40,"317":7.006492321624085e-40,"318":7.006492321624085e-40,"319":7.006492321624085e-40,"320":7.006492321624085e-40,"321":7.006492321624085e-40,"322":-7.006492321624085e-40,"323":-7.006492321624085e-40,"324":-7.006492321624085e-40,"325":7.006492321624085e-40,"326":-7.006492321624085e-40,"327":7.006492321624085e-40,"328":7.006492321624085e-40,"329":-7.006492321624085e-40,"330":7.006492321624085e-40,"331":-7.006492321624085e-40,"332":7.006492321624085e-40,"333":-7.006492321624085e-40,"334":-7.006492321624085e-40,"335":-7.006492321624085e-40,"336":7.006492321624085e-40,"337":-7.006492321624085e-40,"338":7.006492321624085e-40,"339":-7.006492321624085e-40,"340":-7.006492321624085e-40,"341":-7.006492321624085e-40,"342":7.006492321624085e-40,"343":-7.006492321624085e-40,"344":-7.006492321624085e-40,"345":-7.006492321624085e-40,"346":7.006492321624085e-40,"347":-7.006492321624085e-40,"348":7.006492321624085e-40,"349":-7.006492321624085e-40,"350":7.006492321624085e-40,"351":-7.006492321624085e-40,"352":7.006492321624085e-40,"353":7.006492321624085e-40,"354":7.006492321624085e-40,"355":7.006492321624085e-40,"356":-7.006492321624085e-40,"357":7.006492321624085e-40,"358":7.006492321624085e-40,"359":-7.006492321624085e-40,"360":7.006492321624085e-40,"361":-7.006492321624085e-40,"362":7.006492321624085e-40,"363":7.006492321624085e-40,"364":7.006492321624085e-40,"365":7.006492321624085e-40,"366":-7.006492321624085e-40,"367":7.006492321624085e-40,"368":7.006492321624085e-40,"369":7.006492321624085e-40,"370":-7.006492321624085e-40,"371":7.006492321624085e-40,"372":7.006492321624085e-40,"373":-7.006492321624085e-40,"374":-7.006492321624085e-40,"375":7.006492321624085e-40,"376":7.006492321624085e-40,"377":7.006492321624085e-40,"378":-7.006492321624085e-40,"379":-7.006492321624085e-40,"380":-7.006492321624085e-40,"381":-7.006492321624085e-40,"382":-7.006492321624085e-40,"383":-7.006492321624085e-40,"384":7.006492321624085e-40,"385":-7.006492321624085e-40,"386":7.006492321624085e-40,"387":-7.006492321624085e-40,"388":7.006492321624085e-40,"389":-7.006492321624085e-40,"390":-7.006492321624085e-40,"391":7.006492321624085e-40,"392":-7.006492321624085e-40,"393":-7.006492321624085e-40,"394":7.006492321624085e-40,"395":7.006492321624085e-40,"396":-7.006492321624085e-40,"397":-7.006492321624085e-40,"398":-7.006492321624085e-40,"399":-7.006492321624085e-40}},"forgetHidden":{"rows":20,"columns":20,"weights":{"0":7.006492321624085e-40,"1":7.006492321624085e-40,"2":-7.006492321624085e-40,"3":-7.006492321624085e-40,"4":7.006492321624085e-40,"5":7.006492321624085e-40,"6":-7.006492321624085e-40,"7":7.006492321624085e-40,"8":-7.006492321624085e-40,"9":-7.006492321624085e-40,"10":7.006492321624085e-40,"11":7.006492321624085e-40,"12":7.006492321624085e-40,"13":-7.006492321624085e-40,"14":7.006492321624085e-40,"15":7.006492321624085e-40,"16":-7.006492321624085e-40,"17":-7.006492321624085e-40,"18":7.006492321624085e-40,"19":-7.006492321624085e-40,"20":7.006492321624085e-40,"21":-7.006492321624085e-40,"22":7.006492321624085e-40,"23":7.006492321624085e-40,"24":7.006492321624085e-40,"25":-7.006492321624085e-40,"26":7.006492321624085e-40,"27":-7.006492321624085e-40,"28":-7.006492321624085e-40,"29":7.006492321624085e-40,"30":7.006492321624085e-40,"31":-7.006492321624085e-40,"32":7.006492321624085e-40,"33":-7.006492321624085e-40,"34":-7.006492321624085e-40,"35":-7.006492321624085e-40,"36":-7.006492321624085e-40,"37":-7.006492321624085e-40,"38":-7.006492321624085e-40,"39":-7.006492321624085e-40,"40":-7.006492321624085e-40,"41":-7.006492321624085e-40,"42":7.006492321624085e-40,"43":-7.006492321624085e-40,"44":-7.006492321624085e-40,"45":7.006492321624085e-40,"46":7.006492321624085e-40,"47":-7.006492321624085e-40,"48":7.006492321624085e-40,"49":-7.006492321624085e-40,"50":7.006492321624085e-40,"51":-7.006492321624085e-40,"52":-7.006492321624085e-40,"53":7.006492321624085e-40,"54":-7.006492321624085e-40,"55":-7.006492321624085e-40,"56":-7.006492321624085e-40,"57":7.006492321624085e-40,"58":-7.006492321624085e-40,"59":7.006492321624085e-40,"60":-7.006492321624085e-40,"61":-7.006492321624085e-40,"62":7.006492321624085e-40,"63":7.006492321624085e-40,"64":7.006492321624085e-40,"65":7.006492321624085e-40,"66":-7.006492321624085e-40,"67":7.006492321624085e-40,"68":7.006492321624085e-40,"69":-7.006492321624085e-40,"70":7.006492321624085e-40,"71":-7.006492321624085e-40,"72":7.006492321624085e-40,"73":7.006492321624085e-40,"74":7.006492321624085e-40,"75":-7.006492321624085e-40,"76":7.006492321624085e-40,"77":-7.006492321624085e-40,"78":-7.006492321624085e-40,"79":-7.006492321624085e-40,"80":-7.006492321624085e-40,"81":7.006492321624085e-40,"82":-7.006492321624085e-40,"83":7.006492321624085e-40,"84":-7.006492321624085e-40,"85":7.006492321624085e-40,"86":-7.006492321624085e-40,"87":-7.006492321624085e-40,"88":-7.006492321624085e-40,"89":7.006492321624085e-40,"90":7.006492321624085e-40,"91":-7.006492321624085e-40,"92":-7.006492321624085e-40,"93":-7.006492321624085e-40,"94":7.006492321624085e-40,"95":7.006492321624085e-40,"96":-7.006492321624085e-40,"97":7.006492321624085e-40,"98":7.006492321624085e-40,"99":7.006492321624085e-40,"100":7.006492321624085e-40,"101":-7.006492321624085e-40,"102":-7.006492321624085e-40,"103":-7.006492321624085e-40,"104":7.006492321624085e-40,"105":-7.006492321624085e-40,"106":-7.006492321624085e-40,"107":-7.006492321624085e-40,"108":7.006492321624085e-40,"109":-7.006492321624085e-40,"110":-7.006492321624085e-40,"111":-7.006492321624085e-40,"112":-7.006492321624085e-40,"113":-7.006492321624085e-40,"114":7.006492321624085e-40,"115":7.006492321624085e-40,"116":-7.006492321624085e-40,"117":7.006492321624085e-40,"118":-7.006492321624085e-40,"119":7.006492321624085e-40,"120":7.006492321624085e-40,"121":-7.006492321624085e-40,"122":-7.006492321624085e-40,"123":7.006492321624085e-40,"124":-7.006492321624085e-40,"125":7.006492321624085e-40,"126":7.006492321624085e-40,"127":-7.006492321624085e-40,"128":7.006492321624085e-40,"129":-7.006492321624085e-40,"130":7.006492321624085e-40,"131":7.006492321624085e-40,"132":7.006492321624085e-40,"133":-7.006492321624085e-40,"134":7.006492321624085e-40,"135":7.006492321624085e-40,"136":7.006492321624085e-40,"137":7.006492321624085e-40,"138":7.006492321624085e-40,"139":-7.006492321624085e-40,"140":-7.006492321624085e-40,"141":-7.006492321624085e-40,"142":-7.006492321624085e-40,"143":7.006492321624085e-40,"144":-7.006492321624085e-40,"145":7.006492321624085e-40,"146":-7.006492321624085e-40,"147":7.006492321624085e-40,"148":7.006492321624085e-40,"149":-7.006492321624085e-40,"150":-7.006492321624085e-40,"151":-7.006492321624085e-40,"152":7.006492321624085e-40,"153":7.006492321624085e-40,"154":7.006492321624085e-40,"155":-7.006492321624085e-40,"156":-7.006492321624085e-40,"157":-7.006492321624085e-40,"158":7.006492321624085e-40,"159":-7.006492321624085e-40,"160":7.006492321624085e-40,"161":7.006492321624085e-40,"162":-7.006492321624085e-40,"163":7.006492321624085e-40,"164":7.006492321624085e-40,"165":-7.006492321624085e-40,"166":-7.006492321624085e-40,"167":-7.006492321624085e-40,"168":7.006492321624085e-40,"169":7.006492321624085e-40,"170":7.006492321624085e-40,"171":7.006492321624085e-40,"172":-7.006492321624085e-40,"173":-7.006492321624085e-40,"174":7.006492321624085e-40,"175":-7.006492321624085e-40,"176":-7.006492321624085e-40,"177":-7.006492321624085e-40,"178":-7.006492321624085e-40,"179":-7.006492321624085e-40,"180":7.006492321624085e-40,"181":-7.006492321624085e-40,"182":7.006492321624085e-40,"183":7.006492321624085e-40,"184":-7.006492321624085e-40,"185":7.006492321624085e-40,"186":7.006492321624085e-40,"187":-7.006492321624085e-40,"188":7.006492321624085e-40,"189":7.006492321624085e-40,"190":7.006492321624085e-40,"191":7.006492321624085e-40,"192":7.006492321624085e-40,"193":7.006492321624085e-40,"194":-7.006492321624085e-40,"195":-7.006492321624085e-40,"196":7.006492321624085e-40,"197":7.006492321624085e-40,"198":-7.006492321624085e-40,"199":-7.006492321624085e-40,"200":7.006492321624085e-40,"201":-7.006492321624085e-40,"202":-7.006492321624085e-40,"203":7.006492321624085e-40,"204":7.006492321624085e-40,"205":-7.006492321624085e-40,"206":-7.006492321624085e-40,"207":-7.006492321624085e-40,"208":7.006492321624085e-40,"209":-7.006492321624085e-40,"210":-7.006492321624085e-40,"211":7.006492321624085e-40,"212":7.006492321624085e-40,"213":-7.006492321624085e-40,"214":-7.006492321624085e-40,"215":-7.006492321624085e-40,"216":-7.006492321624085e-40,"217":7.006492321624085e-40,"218":7.006492321624085e-40,"219":-7.006492321624085e-40,"220":-7.006492321624085e-40,"221":-7.006492321624085e-40,"222":-7.006492321624085e-40,"223":7.006492321624085e-40,"224":-7.006492321624085e-40,"225":7.006492321624085e-40,"226":7.006492321624085e-40,"227":-7.006492321624085e-40,"228":7.006492321624085e-40,"229":-7.006492321624085e-40,"230":-7.006492321624085e-40,"231":-7.006492321624085e-40,"232":-7.006492321624085e-40,"233":-7.006492321624085e-40,"234":7.006492321624085e-40,"235":-7.006492321624085e-40,"236":7.006492321624085e-40,"237":-7.006492321624085e-40,"238":7.006492321624085e-40,"239":7.006492321624085e-40,"240":7.006492321624085e-40,"241":-7.006492321624085e-40,"242":-7.006492321624085e-40,"243":-7.006492321624085e-40,"244":-7.006492321624085e-40,"245":-7.006492321624085e-40,"246":-7.006492321624085e-40,"247":7.006492321624085e-40,"248":7.006492321624085e-40,"249":7.006492321624085e-40,"250":-7.006492321624085e-40,"251":-7.006492321624085e-40,"252":-7.006492321624085e-40,"253":-7.006492321624085e-40,"254":-7.006492321624085e-40,"255":-7.006492321624085e-40,"256":7.006492321624085e-40,"257":-7.006492321624085e-40,"258":7.006492321624085e-40,"259":7.006492321624085e-40,"260":7.006492321624085e-40,"261":-7.006492321624085e-40,"262":-7.006492321624085e-40,"263":7.006492321624085e-40,"264":7.006492321624085e-40,"265":7.006492321624085e-40,"266":7.006492321624085e-40,"267":-7.006492321624085e-40,"268":7.006492321624085e-40,"269":-7.006492321624085e-40,"270":7.006492321624085e-40,"271":7.006492321624085e-40,"272":7.006492321624085e-40,"273":7.006492321624085e-40,"274":-7.006492321624085e-40,"275":-7.006492321624085e-40,"276":-7.006492321624085e-40,"277":-7.006492321624085e-40,"278":-7.006492321624085e-40,"279":-7.006492321624085e-40,"280":-7.006492321624085e-40,"281":7.006492321624085e-40,"282":7.006492321624085e-40,"283":7.006492321624085e-40,"284":7.006492321624085e-40,"285":-7.006492321624085e-40,"286":-7.006492321624085e-40,"287":-7.006492321624085e-40,"288":-7.006492321624085e-40,"289":7.006492321624085e-40,"290":-7.006492321624085e-40,"291":-7.006492321624085e-40,"292":-7.006492321624085e-40,"293":-7.006492321624085e-40,"294":-7.006492321624085e-40,"295":7.006492321624085e-40,"296":7.006492321624085e-40,"297":7.006492321624085e-40,"298":-7.006492321624085e-40,"299":7.006492321624085e-40,"300":7.006492321624085e-40,"301":-7.006492321624085e-40,"302":-7.006492321624085e-40,"303":-7.006492321624085e-40,"304":-7.006492321624085e-40,"305":-7.006492321624085e-40,"306":-7.006492321624085e-40,"307":7.006492321624085e-40,"308":-7.006492321624085e-40,"309":7.006492321624085e-40,"310":-7.006492321624085e-40,"311":-7.006492321624085e-40,"312":7.006492321624085e-40,"313":-7.006492321624085e-40,"314":7.006492321624085e-40,"315":-7.006492321624085e-40,"316":-7.006492321624085e-40,"317":7.006492321624085e-40,"318":-7.006492321624085e-40,"319":7.006492321624085e-40,"320":7.006492321624085e-40,"321":7.006492321624085e-40,"322":7.006492321624085e-40,"323":-7.006492321624085e-40,"324":7.006492321624085e-40,"325":-7.006492321624085e-40,"326":7.006492321624085e-40,"327":7.006492321624085e-40,"328":-7.006492321624085e-40,"329":7.006492321624085e-40,"330":7.006492321624085e-40,"331":7.006492321624085e-40,"332":-7.006492321624085e-40,"333":7.006492321624085e-40,"334":-7.006492321624085e-40,"335":7.006492321624085e-40,"336":-7.006492321624085e-40,"337":-7.006492321624085e-40,"338":-7.006492321624085e-40,"339":-7.006492321624085e-40,"340":-7.006492321624085e-40,"341":-7.006492321624085e-40,"342":-7.006492321624085e-40,"343":7.006492321624085e-40,"344":7.006492321624085e-40,"345":-7.006492321624085e-40,"346":-7.006492321624085e-40,"347":-7.006492321624085e-40,"348":7.006492321624085e-40,"349":-7.006492321624085e-40,"350":7.006492321624085e-40,"351":7.006492321624085e-40,"352":7.006492321624085e-40,"353":-7.006492321624085e-40,"354":-7.006492321624085e-40,"355":-7.006492321624085e-40,"356":7.006492321624085e-40,"357":-7.006492321624085e-40,"358":7.006492321624085e-40,"359":-7.006492321624085e-40,"360":-7.006492321624085e-40,"361":7.006492321624085e-40,"362":-7.006492321624085e-40,"363":7.006492321624085e-40,"364":-7.006492321624085e-40,"365":7.006492321624085e-40,"366":-7.006492321624085e-40,"367":7.006492321624085e-40,"368":7.006492321624085e-40,"369":7.006492321624085e-40,"370":-7.006492321624085e-40,"371":7.006492321624085e-40,"372":-7.006492321624085e-40,"373":7.006492321624085e-40,"374":7.006492321624085e-40,"375":-7.006492321624085e-40,"376":-7.006492321624085e-40,"377":7.006492321624085e-40,"378":7.006492321624085e-40,"379":-7.006492321624085e-40,"380":7.006492321624085e-40,"381":-7.006492321624085e-40,"382":7.006492321624085e-40,"383":7.006492321624085e-40,"384":7.006492321624085e-40,"385":-7.006492321624085e-40,"386":-7.006492321624085e-40,"387":-7.006492321624085e-40,"388":-7.006492321624085e-40,"389":7.006492321624085e-40,"390":-7.006492321624085e-40,"391":-7.006492321624085e-40,"392":-7.006492321624085e-40,"393":7.006492321624085e-40,"394":-7.006492321624085e-40,"395":7.006492321624085e-40,"396":-7.006492321624085e-40,"397":7.006492321624085e-40,"398":7.006492321624085e-40,"399":-7.006492321624085e-40}},"forgetBias":{"rows":20,"columns":1,"weights":{"0":0,"1":0,"2":0,"3":0,"4":0,"5":0,"6":0,"7":0,"8":0,"9":0,"10":0,"11":0,"12":0,"13":0,"14":0,"15":0,"16":0,"17":0,"18":0,"19":0}},"outputMatrix":{"rows":20,"columns":20,"weights":{"0":-0.05868884548544884,"1":0.12144290655851364,"2":-0.43672776222229004,"3":0.28557220101356506,"4":0.01289708074182272,"5":-0.08200596272945404,"6":-0.1450044810771942,"7":-0.46098431944847107,"8":-0.24828416109085083,"9":-0.0219580065459013,"10":0.1311100870370865,"11":0.36432167887687683,"12":0.20850826799869537,"13":0.2089112401008606,"14":0.23044806718826294,"15":0.06071395054459572,"16":-0.34081849455833435,"17":0.015569481998682022,"18":0.31044116616249084,"19":-0.30466172099113464,"20":0.08192921429872513,"21":0.0693097710609436,"22":-0.05886304751038551,"23":-0.023297544568777084,"24":0.16279542446136475,"25":0.35371389985084534,"26":0.042361821979284286,"27":-1.2310049533843994,"28":-0.26845964789390564,"29":0.050103720277547836,"30":1.0208224058151245,"31":1.1136773824691772,"32":0.03198760002851486,"33":0.3278222680091858,"34":0.2346598505973816,"35":0.25600874423980713,"36":-0.24573035538196564,"37":-0.05992952734231949,"38":0.11455647647380829,"39":-0.312440425157547,"40":0.05183100327849388,"41":0.16791191697120667,"42":0.2389921247959137,"43":1.2875568866729736,"44":0.2625989615917206,"45":0.15132088959217072,"46":0.24391448497772217,"47":0.07700710743665695,"48":0.1427786499261856,"49":0.04515349864959717,"50":0.6377903819084167,"51":0.9540973901748657,"52":0.06329187005758286,"53":0.03604800999164581,"54":0.12050563842058182,"55":0.22642524540424347,"56":0.38894546031951904,"57":-0.24738898873329163,"58":-0.2992526590824127,"59":0.26930099725723267,"60":0.11255936324596405,"61":0.10641027987003326,"62":1.024918794631958,"63":0.15384022891521454,"64":0.17533288896083832,"65":0.3111935555934906,"66":0.22050787508487701,"67":0.2554716169834137,"68":0.08258828520774841,"69":0.019618187099695206,"70":0.7965143918991089,"71":1.1998507976531982,"72":-0.3460526764392853,"73":-0.10628284513950348,"74":-0.1092941164970398,"75":0.16633889079093933,"76":0.3787270188331604,"77":-0.4514268934726715,"78":-0.1855470836162567,"79":0.14419777691364288,"80":0.1225607767701149,"81":0.07010310888290405,"82":0.7330213189125061,"83":0.021180057898163795,"84":-0.049432843923568726,"85":0.13817685842514038,"86":-0.0055804140865802765,"87":0.2458363026380539,"88":0.00008469833119306713,"89":0.04512430354952812,"90":0.28635621070861816,"91":0.4366752803325653,"92":-0.2557309567928314,"93":-0.06715716421604156,"94":-0.11881507933139801,"95":-0.24214494228363037,"96":0.28365498781204224,"97":-0.48363804817199707,"98":-0.1669263243675232,"99":0.2174438089132309,"100":-0.05552929639816284,"101":0.05369553714990616,"102":0.08451425284147263,"103":0.11004875600337982,"104":0.12521734833717346,"105":0.9626530408859253,"106":0.03282718360424042,"107":0.17169754207134247,"108":0.23846258223056793,"109":0.02684818208217621,"110":0.8737581372261047,"111":1.0560156106948853,"112":0.19550184905529022,"113":0.0648769810795784,"114":0.13713550567626953,"115":-0.06566403806209564,"116":0.18469750881195068,"117":-0.10895777493715286,"118":-0.056266091763973236,"119":0.05471314862370491,"120":0.14192929863929749,"121":-0.14992453157901764,"122":-0.06595556437969208,"123":0.11143358051776886,"124":-0.07945911586284637,"125":-0.07269309461116791,"126":-0.02323179878294468,"127":-0.028250522911548615,"128":-0.09668385982513428,"129":-0.02646763250231743,"130":0.7673174142837524,"131":1.2601269483566284,"132":-0.056613948196172714,"133":-0.06170500069856644,"134":0.028934242203831673,"135":0.22581444680690765,"136":0.08722005784511566,"137":-0.013509993441402912,"138":0.01364922896027565,"139":-0.0016733239172026515,"140":0.07418200373649597,"141":0.056693851947784424,"142":-0.11305031180381775,"143":-0.09528712183237076,"144":0.0006865426548756659,"145":-0.003333653789013624,"146":-0.13774694502353668,"147":-0.10157229006290436,"148":0.08503104746341705,"149":-0.08459069579839706,"150":0.6643783450126648,"151":0.5226397514343262,"152":0.7793731689453125,"153":0.6686016321182251,"154":0.6831610798835754,"155":0.6083090901374817,"156":-0.21532103419303894,"157":0.12978820502758026,"158":0.25371748208999634,"159":-0.08128682523965836,"160":0.0009702502866275609,"161":-0.02797010913491249,"162":0.055115893483161926,"163":0.24390940368175507,"164":-0.17803819477558136,"165":-0.04614083096385002,"166":0.030523227527737617,"167":-0.1475840061903,"168":-0.4263952970504761,"169":-0.16047684848308563,"170":0.17790161073207855,"171":0.8697507381439209,"172":0.33073630928993225,"173":0.2533133625984192,"174":0.4331982731819153,"175":0.010759835131466389,"176":-0.02810177393257618,"177":-0.07976566255092621,"178":0.024985091760754585,"179":-0.177314892411232,"180":-2.0857460498809814,"181":-0.12115839868783951,"182":-0.09784197062253952,"183":-0.02791796252131462,"184":0.035192444920539856,"185":-0.04696636274456978,"186":-0.04061683267354965,"187":-0.032360248267650604,"188":-0.09627044200897217,"189":-0.05725651979446411,"190":0.6126719117164612,"191":1.0144507884979248,"192":-0.2383745312690735,"193":-0.15815898776054382,"194":-0.2682081460952759,"195":-0.13229359686374664,"196":0.0908832922577858,"197":0.03815300017595291,"198":0.1992405652999878,"199":-0.014226505532860756,"200":0.08208999037742615,"201":-0.13971193134784698,"202":-0.21708400547504425,"203":-0.019975382834672928,"204":-0.14859983325004578,"205":-0.19861795008182526,"206":-0.11783616244792938,"207":-0.06149628013372421,"208":0.03768213465809822,"209":-0.2897149920463562,"210":0.7456145882606506,"211":1.3216049671173096,"212":0.44067060947418213,"213":0.1642143279314041,"214":0.21657800674438477,"215":0.3309238851070404,"216":-0.22255045175552368,"217":0.02303546667098999,"218":0.16256609559059143,"219":-0.11030349880456924,"220":-0.030339296907186508,"221":0.02185746841132641,"222":0.07176462560892105,"223":0.08179298788309097,"224":1.0594342947006226,"225":-0.12025310844182968,"226":0.06535075604915619,"227":0.034672100096940994,"228":0.05851801112294197,"229":0.018144750967621803,"230":0.771156370639801,"231":1.2632769346237183,"232":-0.06929604709148407,"233":-0.03286880627274513,"234":0.14536595344543457,"235":0.076331727206707,"236":0.07602227479219437,"237":-0.19907496869564056,"238":-0.22947224974632263,"239":-0.10782013833522797,"240":0.0643598735332489,"241":0.07112094014883041,"242":0.04082345589995384,"243":0.11476405709981918,"244":0.14237283170223236,"245":0.17909079790115356,"246":0.4072175920009613,"247":0.4234118163585663,"248":0.5263113975524902,"249":-0.5066375136375427,"250":0.49898701906204224,"251":0.9911669492721558,"252":-0.02899862453341484,"253":-0.24591124057769775,"254":0.2869843542575836,"255":0.20611244440078735,"256":0.1636832356452942,"257":-0.21617957949638367,"258":-0.0171949565410614,"259":0.04340381547808647,"260":0.05579061061143875,"261":-0.09427822381258011,"262":0.05290006846189499,"263":0.0007466430542990565,"264":0.08309344202280045,"265":0.06631935387849808,"266":0.20270918309688568,"267":0.18243052065372467,"268":-1.3514320850372314,"269":0.19948247075080872,"270":1.0681407451629639,"271":0.8065304160118103,"272":-0.33492523431777954,"273":0.012679969891905785,"274":0.09595201164484024,"275":-0.16376908123493195,"276":-0.20075061917304993,"277":-0.3191673159599304,"278":-0.10561089217662811,"279":-0.2800911068916321,"280":-0.1472884863615036,"281":-0.1634717434644699,"282":0.14024275541305542,"283":0.01334676705300808,"284":0.014634601771831512,"285":-0.0321061946451664,"286":0.09447779506444931,"287":0.0241339560598135,"288":-0.16985449194908142,"289":-0.3150614798069,"290":0.22763581573963165,"291":0.5557610392570496,"292":0.16941526532173157,"293":0.09815855324268341,"294":0.26816418766975403,"295":-0.014765390194952488,"296":-0.3097669780254364,"297":-0.0014533760258927941,"298":0.18512271344661713,"299":-0.21725665032863617,"300":0.047896552830934525,"301":-0.05740298703312874,"302":0.04422680661082268,"303":0.04923787713050842,"304":0.11872481554746628,"305":-0.0456371009349823,"306":-0.08000539243221283,"307":-0.2516920566558838,"308":-0.23046736419200897,"309":-0.14140473306179047,"310":-0.1579284965991974,"311":0.655393123626709,"312":0.4786651134490967,"313":0.23014666140079498,"314":0.21032994985580444,"315":0.23753677308559418,"316":-0.3199477791786194,"317":-0.035836126655340195,"318":-0.10678046196699142,"319":-0.19927068054676056,"320":0.0390358492732048,"321":0.14011341333389282,"322":0.007550658658146858,"323":-0.004564931150525808,"324":0.05949360132217407,"325":0.16161969304084778,"326":-1.0013643503189087,"327":-0.3276796042919159,"328":-0.07860925048589706,"329":-0.16294868290424347,"330":0.6729498505592346,"331":1.347081184387207,"332":0.2521372139453888,"333":0.2883284091949463,"334":0.0695967972278595,"335":0.21222315728664398,"336":-0.14030389487743378,"337":0.00947797391563654,"338":-0.09218008071184158,"339":-0.12987834215164185,"340":-0.09815064817667007,"341":0.0064107803627848625,"342":0.10630583763122559,"343":0.26978227496147156,"344":0.1606542319059372,"345":0.015798496082425117,"346":-0.07855325937271118,"347":0.06298286467790604,"348":-0.3359706699848175,"349":-0.07273199409246445,"350":-0.30590859055519104,"351":0.5650042295455933,"352":0.23619481921195984,"353":-0.03749995306134224,"354":-0.07849370688199997,"355":-0.04045256972312927,"356":-0.3607533872127533,"357":-0.13186101615428925,"358":-0.0013055717572569847,"359":-0.3089011013507843,"360":0.02574963867664337,"361":-0.11674625426530838,"362":-0.18974104523658752,"363":0.03886597603559494,"364":0.11586596071720123,"365":0.020826825872063637,"366":0.21464481949806213,"367":0.3275473713874817,"368":0.1061573252081871,"369":0.4205911159515381,"370":-0.1372748166322708,"371":0.8316233158111572,"372":0.8034132719039917,"373":0.14925408363342285,"374":0.3563555181026459,"375":0.518131673336029,"376":0.31314370036125183,"377":0.17209681868553162,"378":0.058859989047050476,"379":0.386620432138443,"380":-0.1290624439716339,"381":0.09532042592763901,"382":0.05057404190301895,"383":0.03534954413771629,"384":-0.0695137232542038,"385":-0.006033001001924276,"386":-0.2806568443775177,"387":0.035171348601579666,"388":0.12556305527687073,"389":0.24292278289794922,"390":-0.19616542756557465,"391":-0.010355091653764248,"392":0.2122749537229538,"393":0.050714049488306046,"394":0.002273069927468896,"395":-0.0997268408536911,"396":-0.23822882771492004,"397":0.03992905467748642,"398":0.23357932269573212,"399":-0.08604548871517181}},"outputHidden":{"rows":20,"columns":20,"weights":{"0":-7.006492321624085e-40,"1":7.006492321624085e-40,"2":7.006492321624085e-40,"3":7.006492321624085e-40,"4":-7.006492321624085e-40,"5":7.006492321624085e-40,"6":-7.006492321624085e-40,"7":-7.006492321624085e-40,"8":7.006492321624085e-40,"9":-7.006492321624085e-40,"10":7.006492321624085e-40,"11":-7.006492321624085e-40,"12":7.006492321624085e-40,"13":7.006492321624085e-40,"14":7.006492321624085e-40,"15":7.006492321624085e-40,"16":7.006492321624085e-40,"17":7.006492321624085e-40,"18":-7.006492321624085e-40,"19":-7.006492321624085e-40,"20":7.006492321624085e-40,"21":-7.006492321624085e-40,"22":7.006492321624085e-40,"23":-7.006492321624085e-40,"24":-7.006492321624085e-40,"25":-7.006492321624085e-40,"26":7.006492321624085e-40,"27":7.006492321624085e-40,"28":7.006492321624085e-40,"29":-7.006492321624085e-40,"30":-7.006492321624085e-40,"31":-7.006492321624085e-40,"32":7.006492321624085e-40,"33":-7.006492321624085e-40,"34":-7.006492321624085e-40,"35":7.006492321624085e-40,"36":-7.006492321624085e-40,"37":-7.006492321624085e-40,"38":7.006492321624085e-40,"39":-7.006492321624085e-40,"40":7.006492321624085e-40,"41":7.006492321624085e-40,"42":7.006492321624085e-40,"43":-7.006492321624085e-40,"44":7.006492321624085e-40,"45":7.006492321624085e-40,"46":-7.006492321624085e-40,"47":7.006492321624085e-40,"48":-7.006492321624085e-40,"49":-7.006492321624085e-40,"50":7.006492321624085e-40,"51":-7.006492321624085e-40,"52":7.006492321624085e-40,"53":7.006492321624085e-40,"54":-7.006492321624085e-40,"55":7.006492321624085e-40,"56":-7.006492321624085e-40,"57":7.006492321624085e-40,"58":-7.006492321624085e-40,"59":7.006492321624085e-40,"60":-7.006492321624085e-40,"61":7.006492321624085e-40,"62":-7.006492321624085e-40,"63":-7.006492321624085e-40,"64":-7.006492321624085e-40,"65":-7.006492321624085e-40,"66":7.006492321624085e-40,"67":7.006492321624085e-40,"68":7.006492321624085e-40,"69":7.006492321624085e-40,"70":-7.006492321624085e-40,"71":7.006492321624085e-40,"72":7.006492321624085e-40,"73":7.006492321624085e-40,"74":7.006492321624085e-40,"75":-7.006492321624085e-40,"76":-7.006492321624085e-40,"77":-7.006492321624085e-40,"78":7.006492321624085e-40,"79":-7.006492321624085e-40,"80":7.006492321624085e-40,"81":7.006492321624085e-40,"82":7.006492321624085e-40,"83":-7.006492321624085e-40,"84":-7.006492321624085e-40,"85":7.006492321624085e-40,"86":-7.006492321624085e-40,"87":7.006492321624085e-40,"88":7.006492321624085e-40,"89":7.006492321624085e-40,"90":-7.006492321624085e-40,"91":7.006492321624085e-40,"92":7.006492321624085e-40,"93":-7.006492321624085e-40,"94":7.006492321624085e-40,"95":7.006492321624085e-40,"96":7.006492321624085e-40,"97":7.006492321624085e-40,"98":7.006492321624085e-40,"99":-7.006492321624085e-40,"100":-7.006492321624085e-40,"101":-7.006492321624085e-40,"102":7.006492321624085e-40,"103":-7.006492321624085e-40,"104":7.006492321624085e-40,"105":7.006492321624085e-40,"106":-7.006492321624085e-40,"107":-7.006492321624085e-40,"108":7.006492321624085e-40,"109":-7.006492321624085e-40,"110":-7.006492321624085e-40,"111":7.006492321624085e-40,"112":-7.006492321624085e-40,"113":7.006492321624085e-40,"114":7.006492321624085e-40,"115":7.006492321624085e-40,"116":7.006492321624085e-40,"117":-7.006492321624085e-40,"118":7.006492321624085e-40,"119":-7.006492321624085e-40,"120":-7.006492321624085e-40,"121":7.006492321624085e-40,"122":7.006492321624085e-40,"123":7.006492321624085e-40,"124":-7.006492321624085e-40,"125":-7.006492321624085e-40,"126":7.006492321624085e-40,"127":7.006492321624085e-40,"128":7.006492321624085e-40,"129":7.006492321624085e-40,"130":-7.006492321624085e-40,"131":7.006492321624085e-40,"132":-7.006492321624085e-40,"133":7.006492321624085e-40,"134":-7.006492321624085e-40,"135":-7.006492321624085e-40,"136":7.006492321624085e-40,"137":7.006492321624085e-40,"138":-7.006492321624085e-40,"139":7.006492321624085e-40,"140":-7.006492321624085e-40,"141":-7.006492321624085e-40,"142":7.006492321624085e-40,"143":7.006492321624085e-40,"144":-7.006492321624085e-40,"145":-7.006492321624085e-40,"146":7.006492321624085e-40,"147":-7.006492321624085e-40,"148":7.006492321624085e-40,"149":7.006492321624085e-40,"150":7.006492321624085e-40,"151":-7.006492321624085e-40,"152":7.006492321624085e-40,"153":7.006492321624085e-40,"154":7.006492321624085e-40,"155":-7.006492321624085e-40,"156":-7.006492321624085e-40,"157":-7.006492321624085e-40,"158":-7.006492321624085e-40,"159":7.006492321624085e-40,"160":-7.006492321624085e-40,"161":-7.006492321624085e-40,"162":7.006492321624085e-40,"163":7.006492321624085e-40,"164":-7.006492321624085e-40,"165":7.006492321624085e-40,"166":7.006492321624085e-40,"167":-7.006492321624085e-40,"168":-7.006492321624085e-40,"169":-7.006492321624085e-40,"170":-7.006492321624085e-40,"171":7.006492321624085e-40,"172":-7.006492321624085e-40,"173":-7.006492321624085e-40,"174":-7.006492321624085e-40,"175":-7.006492321624085e-40,"176":7.006492321624085e-40,"177":7.006492321624085e-40,"178":7.006492321624085e-40,"179":-7.006492321624085e-40,"180":-7.006492321624085e-40,"181":7.006492321624085e-40,"182":7.006492321624085e-40,"183":-7.006492321624085e-40,"184":-7.006492321624085e-40,"185":-7.006492321624085e-40,"186":-7.006492321624085e-40,"187":7.006492321624085e-40,"188":7.006492321624085e-40,"189":7.006492321624085e-40,"190":-7.006492321624085e-40,"191":-7.006492321624085e-40,"192":7.006492321624085e-40,"193":-7.006492321624085e-40,"194":-7.006492321624085e-40,"195":-7.006492321624085e-40,"196":-7.006492321624085e-40,"197":7.006492321624085e-40,"198":-7.006492321624085e-40,"199":-7.006492321624085e-40,"200":7.006492321624085e-40,"201":-7.006492321624085e-40,"202":-7.006492321624085e-40,"203":-7.006492321624085e-40,"204":-7.006492321624085e-40,"205":-7.006492321624085e-40,"206":7.006492321624085e-40,"207":7.006492321624085e-40,"208":7.006492321624085e-40,"209":-7.006492321624085e-40,"210":-7.006492321624085e-40,"211":7.006492321624085e-40,"212":-7.006492321624085e-40,"213":-7.006492321624085e-40,"214":7.006492321624085e-40,"215":7.006492321624085e-40,"216":-7.006492321624085e-40,"217":7.006492321624085e-40,"218":-7.006492321624085e-40,"219":-7.006492321624085e-40,"220":-7.006492321624085e-40,"221":7.006492321624085e-40,"222":-7.006492321624085e-40,"223":7.006492321624085e-40,"224":-7.006492321624085e-40,"225":-7.006492321624085e-40,"226":7.006492321624085e-40,"227":-7.006492321624085e-40,"228":7.006492321624085e-40,"229":7.006492321624085e-40,"230":-7.006492321624085e-40,"231":7.006492321624085e-40,"232":7.006492321624085e-40,"233":-7.006492321624085e-40,"234":-7.006492321624085e-40,"235":-7.006492321624085e-40,"236":-7.006492321624085e-40,"237":7.006492321624085e-40,"238":-7.006492321624085e-40,"239":-7.006492321624085e-40,"240":7.006492321624085e-40,"241":-7.006492321624085e-40,"242":-7.006492321624085e-40,"243":7.006492321624085e-40,"244":7.006492321624085e-40,"245":-7.006492321624085e-40,"246":-7.006492321624085e-40,"247":7.006492321624085e-40,"248":7.006492321624085e-40,"249":7.006492321624085e-40,"250":-7.006492321624085e-40,"251":-7.006492321624085e-40,"252":-7.006492321624085e-40,"253":-7.006492321624085e-40,"254":-7.006492321624085e-40,"255":7.006492321624085e-40,"256":7.006492321624085e-40,"257":-7.006492321624085e-40,"258":7.006492321624085e-40,"259":7.006492321624085e-40,"260":7.006492321624085e-40,"261":-7.006492321624085e-40,"262":-7.006492321624085e-40,"263":7.006492321624085e-40,"264":-7.006492321624085e-40,"265":7.006492321624085e-40,"266":-7.006492321624085e-40,"267":-7.006492321624085e-40,"268":-7.006492321624085e-40,"269":-7.006492321624085e-40,"270":-7.006492321624085e-40,"271":7.006492321624085e-40,"272":-7.006492321624085e-40,"273":7.006492321624085e-40,"274":-7.006492321624085e-40,"275":-7.006492321624085e-40,"276":-7.006492321624085e-40,"277":-7.006492321624085e-40,"278":-7.006492321624085e-40,"279":-7.006492321624085e-40,"280":7.006492321624085e-40,"281":-7.006492321624085e-40,"282":7.006492321624085e-40,"283":7.006492321624085e-40,"284":7.006492321624085e-40,"285":-7.006492321624085e-40,"286":-7.006492321624085e-40,"287":-7.006492321624085e-40,"288":7.006492321624085e-40,"289":7.006492321624085e-40,"290":-7.006492321624085e-40,"291":-7.006492321624085e-40,"292":-7.006492321624085e-40,"293":7.006492321624085e-40,"294":7.006492321624085e-40,"295":-7.006492321624085e-40,"296":7.006492321624085e-40,"297":7.006492321624085e-40,"298":7.006492321624085e-40,"299":7.006492321624085e-40,"300":-7.006492321624085e-40,"301":-7.006492321624085e-40,"302":7.006492321624085e-40,"303":7.006492321624085e-40,"304":7.006492321624085e-40,"305":-7.006492321624085e-40,"306":7.006492321624085e-40,"307":-7.006492321624085e-40,"308":-7.006492321624085e-40,"309":7.006492321624085e-40,"310":-7.006492321624085e-40,"311":-7.006492321624085e-40,"312":-7.006492321624085e-40,"313":-7.006492321624085e-40,"314":7.006492321624085e-40,"315":-7.006492321624085e-40,"316":7.006492321624085e-40,"317":7.006492321624085e-40,"318":7.006492321624085e-40,"319":-7.006492321624085e-40,"320":-7.006492321624085e-40,"321":-7.006492321624085e-40,"322":-7.006492321624085e-40,"323":7.006492321624085e-40,"324":7.006492321624085e-40,"325":7.006492321624085e-40,"326":-7.006492321624085e-40,"327":-7.006492321624085e-40,"328":7.006492321624085e-40,"329":-7.006492321624085e-40,"330":-7.006492321624085e-40,"331":-7.006492321624085e-40,"332":7.006492321624085e-40,"333":-7.006492321624085e-40,"334":-7.006492321624085e-40,"335":-7.006492321624085e-40,"336":7.006492321624085e-40,"337":7.006492321624085e-40,"338":-7.006492321624085e-40,"339":-7.006492321624085e-40,"340":-7.006492321624085e-40,"341":7.006492321624085e-40,"342":-7.006492321624085e-40,"343":7.006492321624085e-40,"344":7.006492321624085e-40,"345":-7.006492321624085e-40,"346":-7.006492321624085e-40,"347":-7.006492321624085e-40,"348":-7.006492321624085e-40,"349":-7.006492321624085e-40,"350":-7.006492321624085e-40,"351":-7.006492321624085e-40,"352":-7.006492321624085e-40,"353":7.006492321624085e-40,"354":-7.006492321624085e-40,"355":7.006492321624085e-40,"356":7.006492321624085e-40,"357":7.006492321624085e-40,"358":7.006492321624085e-40,"359":-7.006492321624085e-40,"360":-7.006492321624085e-40,"361":7.006492321624085e-40,"362":7.006492321624085e-40,"363":-7.006492321624085e-40,"364":7.006492321624085e-40,"365":7.006492321624085e-40,"366":-7.006492321624085e-40,"367":-7.006492321624085e-40,"368":-7.006492321624085e-40,"369":-7.006492321624085e-40,"370":7.006492321624085e-40,"371":7.006492321624085e-40,"372":7.006492321624085e-40,"373":-7.006492321624085e-40,"374":7.006492321624085e-40,"375":7.006492321624085e-40,"376":-7.006492321624085e-40,"377":-7.006492321624085e-40,"378":7.006492321624085e-40,"379":-7.006492321624085e-40,"380":-7.006492321624085e-40,"381":7.006492321624085e-40,"382":-7.006492321624085e-40,"383":-7.006492321624085e-40,"384":7.006492321624085e-40,"385":-7.006492321624085e-40,"386":7.006492321624085e-40,"387":7.006492321624085e-40,"388":7.006492321624085e-40,"389":7.006492321624085e-40,"390":-7.006492321624085e-40,"391":7.006492321624085e-40,"392":7.006492321624085e-40,"393":7.006492321624085e-40,"394":-7.006492321624085e-40,"395":7.006492321624085e-40,"396":-7.006492321624085e-40,"397":-7.006492321624085e-40,"398":-7.006492321624085e-40,"399":7.006492321624085e-40}},"outputBias":{"rows":20,"columns":1,"weights":{"0":0.9438701868057251,"1":1.6185318231582642,"2":1.131232738494873,"3":1.2753016948699951,"4":0.43450409173965454,"5":1.2673369646072388,"6":1.6433345079421997,"7":0.9079833030700684,"8":1.525952696800232,"9":1.5064481496810913,"10":2.0580077171325684,"11":1.0752289295196533,"12":0.7530427575111389,"13":0.8847360610961914,"14":0.870120644569397,"15":1.0152257680892944,"16":1.614365577697754,"17":1.054188847541809,"18":1.183032512664795,"19":0.5938203930854797}},"cellActivationMatrix":{"rows":20,"columns":20,"weights":{"0":0.05949031561613083,"1":0.015140020288527012,"2":0.19889132678508759,"3":-0.004432315472513437,"4":-0.12968817353248596,"5":0.016728224232792854,"6":0.026026884093880653,"7":0.5749337673187256,"8":0.2574206590652466,"9":-0.1575133055448532,"10":-0.5081707239151001,"11":-0.209574356675148,"12":0.18047499656677246,"13":-0.19171534478664398,"14":0.07297328114509583,"15":0.5408772826194763,"16":0.5154703259468079,"17":-0.515649676322937,"18":-0.26058825850486755,"19":0.27777889370918274,"20":0.034641195088624954,"21":-0.018508391454815865,"22":-0.021650392562150955,"23":0.012843516655266285,"24":-0.10503072291612625,"25":-0.024075359106063843,"26":-0.2578597664833069,"27":5.785887241363525,"28":-0.20099098980426788,"29":-0.25486505031585693,"30":-0.18311530351638794,"31":0.10965217649936676,"32":0.04836130514740944,"33":-0.05763768404722214,"34":-0.20139704644680023,"35":0.5705265998840332,"36":-1.393032193183899,"37":-0.7896386981010437,"38":0.8026891946792603,"39":-0.065391905605793,"40":-0.017803391441702843,"41":0.06911274045705795,"42":-0.19413001835346222,"43":4.826023101806641,"44":-0.1760995239019394,"45":0.019424907863140106,"46":-0.046206336468458176,"47":0.020546570420265198,"48":-0.038088712841272354,"49":0.058088142424821854,"50":-0.1167454645037651,"51":0.16656620800495148,"52":0.5219836235046387,"53":0.4964604675769806,"54":-0.22941003739833832,"55":-1.0782841444015503,"56":-0.3000282943248749,"57":1.0984448194503784,"58":1.4759615659713745,"59":-1.4885317087173462,"60":-0.011758023872971535,"61":-0.17778903245925903,"62":5.305467128753662,"63":-0.2587055265903473,"64":0.03401719406247139,"65":-0.08862613141536713,"66":-0.029783137142658234,"67":-0.05422428995370865,"68":-0.05037546902894974,"69":-0.04347857087850571,"70":-0.4459654688835144,"71":-0.31615379452705383,"72":0.00947629101574421,"73":0.7518845796585083,"74":0.792723536491394,"75":-0.39332735538482666,"76":0.44242653250694275,"77":-1.709051251411438,"78":-0.36913225054740906,"79":0.09787818789482117,"80":0.04768866300582886,"81":0.09304641932249069,"82":-3.2125673294067383,"83":0.12912026047706604,"84":0.012357467785477638,"85":-0.028635907918214798,"86":0.047533031553030014,"87":-0.10054659098386765,"88":-0.0776500254869461,"89":-0.027854109182953835,"90":0.32348212599754333,"91":0.07843185216188431,"92":-0.0743267834186554,"93":-0.46004191040992737,"94":-0.6236494779586792,"95":0.05898642912507057,"96":-0.5146347880363464,"97":1.2140617370605469,"98":0.3087727725505829,"99":-0.22865553200244904,"100":-0.0019236295484006405,"101":0.01261910330504179,"102":0.08083298057317734,"103":0.0018327803118154407,"104":0.25885093212127686,"105":-4.769255638122559,"106":0.21572226285934448,"107":0.05167200788855553,"108":0.0642353743314743,"109":-0.04700079560279846,"110":0.1395377367734909,"111":-0.06745034456253052,"112":-0.5523266792297363,"113":0.6129595637321472,"114":-0.725365161895752,"115":0.5457494854927063,"116":1.63762629032135,"117":-0.9834634065628052,"118":-0.7413635849952698,"119":-0.19906733930110931,"120":0.2512138783931732,"121":-5.183996200561523,"122":0.2055693119764328,"123":-0.028953317552804947,"124":0.06577940285205841,"125":0.02349833771586418,"126":0.03424946591258049,"127":0.057269059121608734,"128":0.055362604558467865,"129":0.02537992037832737,"130":-0.2082602083683014,"131":0.3086327314376831,"132":-0.18904289603233337,"133":-0.5894215106964111,"134":-0.5409398674964905,"135":1.2718149423599243,"136":-0.5402497053146362,"137":-0.734000563621521,"138":1.1754541397094727,"139":1.6981158256530762,"140":-0.08251021057367325,"141":0.005999011918902397,"142":0.1573047637939453,"143":0.06817218661308289,"144":-0.014455980621278286,"145":0.023131398484110832,"146":0.16487839818000793,"147":0.05520503222942352,"148":0.11053873598575592,"149":0.16995668411254883,"150":-0.9682765603065491,"151":-0.2020517736673355,"152":-0.19146154820919037,"153":-0.6272269487380981,"154":-0.48215216398239136,"155":-0.42992353439331055,"156":-0.17978137731552124,"157":-0.16351355612277985,"158":-0.41467174887657166,"159":-0.3101596534252167,"160":-0.0297690536826849,"161":-0.0037720217369496822,"162":-0.13306204974651337,"163":-0.02603321522474289,"164":-0.0880168005824089,"165":-0.100835882127285,"166":0.07355455309152603,"167":0.09364577382802963,"168":0.07977254688739777,"169":0.13384798169136047,"170":-0.528076171875,"171":0.5711182951927185,"172":0.7534002065658569,"173":-0.25822338461875916,"174":0.32064875960350037,"175":0.455232709646225,"176":0.5502380728721619,"177":-0.3702361583709717,"178":-0.521345317363739,"179":0.3601740598678589,"180":-4.79611873626709,"181":0.25067105889320374,"182":-0.016087478026747704,"183":0.07653090357780457,"184":0.03844243288040161,"185":0.046443525701761246,"186":0.04310757294297218,"187":0.0486096516251564,"188":0.035264745354652405,"189":0.028534866869449615,"190":0.18977844715118408,"191":0.2006191909313202,"192":-0.4087218940258026,"193":-1.0737968683242798,"194":-0.8089156150817871,"195":1.3935434818267822,"196":-1.0896048545837402,"197":1.3692795038223267,"198":-0.8077152967453003,"199":0.25400102138519287,"200":0.01255666371434927,"201":0.026699330657720566,"202":0.047263696789741516,"203":0.05949830263853073,"204":0.1377994418144226,"205":0.03643982484936714,"206":-0.05748672038316727,"207":-0.07463302463293076,"208":-0.005867701023817062,"209":-0.11031375825405121,"210":-2.5118396282196045,"211":0.44983741641044617,"212":1.1926668882369995,"213":-0.5211143493652344,"214":-0.19382214546203613,"215":0.9650107622146606,"216":1.607208490371704,"217":0.6449376344680786,"218":-0.8927594423294067,"219":0.44054505228996277,"220":0.008838145062327385,"221":0.028422284871339798,"222":0.030155174434185028,"223":0.24160003662109375,"224":-4.384981632232666,"225":0.25371360778808594,"226":0.05988451838493347,"227":0.06903229653835297,"228":0.024482017382979393,"229":0.011065414175391197,"230":0.0729927346110344,"231":-0.03237167000770569,"232":-0.6682175397872925,"233":-0.5965018272399902,"234":0.5989457368850708,"235":0.5916826128959656,"236":1.27935791015625,"237":1.2021052837371826,"238":1.7435815334320068,"239":-0.9857204556465149,"240":-0.037478480488061905,"241":0.028208449482917786,"242":-0.06881164759397507,"243":0.02227620966732502,"244":-0.06164877116680145,"245":-0.027481559664011,"246":-0.0766262337565422,"247":-0.14689786732196808,"248":-0.12746083736419678,"249":3.9260470867156982,"250":-0.2553735673427582,"251":0.03760165348649025,"252":-0.27614879608154297,"253":-0.3902447521686554,"254":0.4317290782928467,"255":0.7573885917663574,"256":-1.3622169494628906,"257":-1.0190664529800415,"258":0.007423484232276678,"259":-1.1194531917572021,"260":0.06733563542366028,"261":-0.012343792244791985,"262":0.0519569031894207,"263":-0.004066924098879099,"264":-0.0151275135576725,"265":0.012393996119499207,"266":-0.04080997407436371,"267":0.13664813339710236,"268":-3.5931715965270996,"269":0.10787267982959747,"270":-0.03243356943130493,"271":-0.11837917566299438,"272":-0.005846661981195211,"273":0.6904572248458862,"274":-0.05907754972577095,"275":-0.4665444493293762,"276":0.5994740724563599,"277":0.8565386533737183,"278":0.7140654921531677,"279":1.1551564931869507,"280":0.03816865384578705,"281":0.02478647418320179,"282":0.09933193773031235,"283":0.06299573183059692,"284":0.03431025892496109,"285":0.21796929836273193,"286":0.2662208080291748,"287":0.19050510227680206,"288":0.11251956224441528,"289":0.26886606216430664,"290":-0.7631888389587402,"291":0.17007240653038025,"292":0.3276105523109436,"293":-0.49951601028442383,"294":0.16115719079971313,"295":0.3152429163455963,"296":0.8876089453697205,"297":-0.3437610864639282,"298":-0.5638023018836975,"299":0.40230944752693176,"300":-0.0211782306432724,"301":-0.05703410506248474,"302":0.023149285465478897,"303":-0.04938388615846634,"304":-0.011018147692084312,"305":0.09433312714099884,"306":-0.12094058096408844,"307":-0.2814335525035858,"308":-0.7754077911376953,"309":0.6696827411651611,"310":-0.7597752809524536,"311":0.1560986340045929,"312":0.4263395369052887,"313":-0.0851166844367981,"314":0.03260114789009094,"315":0.22867292165756226,"316":-0.06584508717060089,"317":-0.0481686107814312,"318":-0.5833847522735596,"319":-0.2375899702310562,"320":-0.03266269713640213,"321":0.01855056919157505,"322":-0.010736171156167984,"323":-0.03668994829058647,"324":0.03488066419959068,"325":-0.26523587107658386,"326":5.353081703186035,"327":-0.21670672297477722,"328":-0.009155046194791794,"329":-0.04192787781357765,"330":-0.3593309223651886,"331":0.21321798861026764,"332":-0.14492997527122498,"333":0.5265926718711853,"334":-0.7506870031356812,"335":0.311269611120224,"336":-1.337477445602417,"337":0.1386444866657257,"338":-1.0465099811553955,"339":-1.5326287746429443,"340":-0.008710899390280247,"341":0.059671446681022644,"342":0.1754554808139801,"343":-0.09599997103214264,"344":0.05346715822815895,"345":-0.004675264935940504,"346":-0.05827904865145683,"347":0.030945101752877235,"348":0.24965324997901917,"349":0.26815301179885864,"350":-1.0606114864349365,"351":0.3561360239982605,"352":0.4375322461128235,"353":-0.36367902159690857,"354":-0.10682148486375809,"355":0.16258932650089264,"356":0.46071621775627136,"357":-0.3012109100818634,"358":-0.2816140949726105,"359":0.28083863854408264,"360":-0.00044232714571990073,"361":0.08627647906541824,"362":0.05489632859826088,"363":-0.05051266774535179,"364":-0.062412433326244354,"365":0.04345409572124481,"366":-0.19234438240528107,"367":-0.11848600208759308,"368":-0.03593599796295166,"369":-0.046179644763469696,"370":-0.04400660842657089,"371":-0.7503384947776794,"372":-0.42458203434944153,"373":-0.1128162369132042,"374":-0.2595542073249817,"375":-0.27936190366744995,"376":-0.16220177710056305,"377":-0.058100029826164246,"378":-0.10197675973176956,"379":-0.2194594293832779,"380":-0.08996346592903137,"381":-0.22122810781002045,"382":-0.2011718899011612,"383":-0.1142711415886879,"384":-0.12018276005983353,"385":0.0035347426310181618,"386":-0.1419956088066101,"387":0.10881714522838593,"388":-0.2747766077518463,"389":-0.07386872917413712,"390":0.3844497501850128,"391":-0.14630363881587982,"392":0.19036871194839478,"393":0.07903110235929489,"394":0.20382407307624817,"395":0.5197618007659912,"396":-0.19432377815246582,"397":0.08468370884656906,"398":0.22468963265419006,"399":0.14521260559558868}},"cellActivationHidden":{"rows":20,"columns":20,"weights":{"0":7.006492321624085e-40,"1":7.006492321624085e-40,"2":7.006492321624085e-40,"3":7.006492321624085e-40,"4":-7.006492321624085e-40,"5":7.006492321624085e-40,"6":7.006492321624085e-40,"7":7.006492321624085e-40,"8":-7.006492321624085e-40,"9":7.006492321624085e-40,"10":7.006492321624085e-40,"11":-7.006492321624085e-40,"12":7.006492321624085e-40,"13":-7.006492321624085e-40,"14":-7.006492321624085e-40,"15":7.006492321624085e-40,"16":7.006492321624085e-40,"17":7.006492321624085e-40,"18":-7.006492321624085e-40,"19":7.006492321624085e-40,"20":-7.006492321624085e-40,"21":7.006492321624085e-40,"22":-7.006492321624085e-40,"23":7.006492321624085e-40,"24":7.006492321624085e-40,"25":-7.006492321624085e-40,"26":-7.006492321624085e-40,"27":-7.006492321624085e-40,"28":7.006492321624085e-40,"29":7.006492321624085e-40,"30":7.006492321624085e-40,"31":7.006492321624085e-40,"32":7.006492321624085e-40,"33":-7.006492321624085e-40,"34":-7.006492321624085e-40,"35":7.006492321624085e-40,"36":7.006492321624085e-40,"37":-7.006492321624085e-40,"38":7.006492321624085e-40,"39":-7.006492321624085e-40,"40":7.006492321624085e-40,"41":-7.006492321624085e-40,"42":-7.006492321624085e-40,"43":7.006492321624085e-40,"44":7.006492321624085e-40,"45":-7.006492321624085e-40,"46":7.006492321624085e-40,"47":7.006492321624085e-40,"48":7.006492321624085e-40,"49":-7.006492321624085e-40,"50":7.006492321624085e-40,"51":-7.006492321624085e-40,"52":7.006492321624085e-40,"53":-7.006492321624085e-40,"54":7.006492321624085e-40,"55":7.006492321624085e-40,"56":-7.006492321624085e-40,"57":7.006492321624085e-40,"58":7.006492321624085e-40,"59":-7.006492321624085e-40,"60":-7.006492321624085e-40,"61":7.006492321624085e-40,"62":-7.006492321624085e-40,"63":-7.006492321624085e-40,"64":-7.006492321624085e-40,"65":7.006492321624085e-40,"66":7.006492321624085e-40,"67":7.006492321624085e-40,"68":7.006492321624085e-40,"69":-7.006492321624085e-40,"70":7.006492321624085e-40,"71":-7.006492321624085e-40,"72":-7.006492321624085e-40,"73":-7.006492321624085e-40,"74":-7.006492321624085e-40,"75":7.006492321624085e-40,"76":7.006492321624085e-40,"77":7.006492321624085e-40,"78":7.006492321624085e-40,"79":7.006492321624085e-40,"80":-7.006492321624085e-40,"81":-7.006492321624085e-40,"82":7.006492321624085e-40,"83":7.006492321624085e-40,"84":-7.006492321624085e-40,"85":7.006492321624085e-40,"86":7.006492321624085e-40,"87":-7.006492321624085e-40,"88":-7.006492321624085e-40,"89":7.006492321624085e-40,"90":7.006492321624085e-40,"91":7.006492321624085e-40,"92":7.006492321624085e-40,"93":7.006492321624085e-40,"94":7.006492321624085e-40,"95":-7.006492321624085e-40,"96":-7.006492321624085e-40,"97":-7.006492321624085e-40,"98":-7.006492321624085e-40,"99":-7.006492321624085e-40,"100":-7.006492321624085e-40,"101":7.006492321624085e-40,"102":-7.006492321624085e-40,"103":-7.006492321624085e-40,"104":-7.006492321624085e-40,"105":-7.006492321624085e-40,"106":-7.006492321624085e-40,"107":-7.006492321624085e-40,"108":-7.006492321624085e-40,"109":7.006492321624085e-40,"110":7.006492321624085e-40,"111":-7.006492321624085e-40,"112":7.006492321624085e-40,"113":7.006492321624085e-40,"114":7.006492321624085e-40,"115":7.006492321624085e-40,"116":-7.006492321624085e-40,"117":7.006492321624085e-40,"118":-7.006492321624085e-40,"119":7.006492321624085e-40,"120":7.006492321624085e-40,"121":-7.006492321624085e-40,"122":-7.006492321624085e-40,"123":7.006492321624085e-40,"124":-7.006492321624085e-40,"125":7.006492321624085e-40,"126":7.006492321624085e-40,"127":-7.006492321624085e-40,"128":-7.006492321624085e-40,"129":7.006492321624085e-40,"130":-7.006492321624085e-40,"131":-7.006492321624085e-40,"132":-7.006492321624085e-40,"133":-7.006492321624085e-40,"134":-7.006492321624085e-40,"135":7.006492321624085e-40,"136":-7.006492321624085e-40,"137":7.006492321624085e-40,"138":-7.006492321624085e-40,"139":7.006492321624085e-40,"140":7.006492321624085e-40,"141":-7.006492321624085e-40,"142":7.006492321624085e-40,"143":-7.006492321624085e-40,"144":-7.006492321624085e-40,"145":7.006492321624085e-40,"146":7.006492321624085e-40,"147":7.006492321624085e-40,"148":7.006492321624085e-40,"149":7.006492321624085e-40,"150":7.006492321624085e-40,"151":-7.006492321624085e-40,"152":7.006492321624085e-40,"153":-7.006492321624085e-40,"154":-7.006492321624085e-40,"155":-7.006492321624085e-40,"156":-7.006492321624085e-40,"157":7.006492321624085e-40,"158":-7.006492321624085e-40,"159":-7.006492321624085e-40,"160":7.006492321624085e-40,"161":7.006492321624085e-40,"162":-7.006492321624085e-40,"163":-7.006492321624085e-40,"164":-7.006492321624085e-40,"165":-7.006492321624085e-40,"166":7.006492321624085e-40,"167":7.006492321624085e-40,"168":7.006492321624085e-40,"169":-7.006492321624085e-40,"170":7.006492321624085e-40,"171":-7.006492321624085e-40,"172":7.006492321624085e-40,"173":7.006492321624085e-40,"174":-7.006492321624085e-40,"175":7.006492321624085e-40,"176":-7.006492321624085e-40,"177":-7.006492321624085e-40,"178":-7.006492321624085e-40,"179":-7.006492321624085e-40,"180":7.006492321624085e-40,"181":7.006492321624085e-40,"182":7.006492321624085e-40,"183":7.006492321624085e-40,"184":-7.006492321624085e-40,"185":-7.006492321624085e-40,"186":-7.006492321624085e-40,"187":7.006492321624085e-40,"188":-7.006492321624085e-40,"189":7.006492321624085e-40,"190":-7.006492321624085e-40,"191":-7.006492321624085e-40,"192":7.006492321624085e-40,"193":-7.006492321624085e-40,"194":7.006492321624085e-40,"195":-7.006492321624085e-40,"196":-7.006492321624085e-40,"197":7.006492321624085e-40,"198":-7.006492321624085e-40,"199":7.006492321624085e-40,"200":-7.006492321624085e-40,"201":-7.006492321624085e-40,"202":7.006492321624085e-40,"203":7.006492321624085e-40,"204":-7.006492321624085e-40,"205":-7.006492321624085e-40,"206":7.006492321624085e-40,"207":7.006492321624085e-40,"208":-7.006492321624085e-40,"209":7.006492321624085e-40,"210":-7.006492321624085e-40,"211":-7.006492321624085e-40,"212":7.006492321624085e-40,"213":7.006492321624085e-40,"214":-7.006492321624085e-40,"215":7.006492321624085e-40,"216":7.006492321624085e-40,"217":-7.006492321624085e-40,"218":-7.006492321624085e-40,"219":7.006492321624085e-40,"220":-7.006492321624085e-40,"221":-7.006492321624085e-40,"222":-7.006492321624085e-40,"223":7.006492321624085e-40,"224":7.006492321624085e-40,"225":-7.006492321624085e-40,"226":7.006492321624085e-40,"227":-7.006492321624085e-40,"228":7.006492321624085e-40,"229":-7.006492321624085e-40,"230":-7.006492321624085e-40,"231":-7.006492321624085e-40,"232":7.006492321624085e-40,"233":7.006492321624085e-40,"234":-7.006492321624085e-40,"235":-7.006492321624085e-40,"236":-7.006492321624085e-40,"237":-7.006492321624085e-40,"238":-7.006492321624085e-40,"239":7.006492321624085e-40,"240":7.006492321624085e-40,"241":-7.006492321624085e-40,"242":7.006492321624085e-40,"243":-7.006492321624085e-40,"244":7.006492321624085e-40,"245":-7.006492321624085e-40,"246":-7.006492321624085e-40,"247":7.006492321624085e-40,"248":-7.006492321624085e-40,"249":7.006492321624085e-40,"250":7.006492321624085e-40,"251":-7.006492321624085e-40,"252":7.006492321624085e-40,"253":-7.006492321624085e-40,"254":7.006492321624085e-40,"255":7.006492321624085e-40,"256":7.006492321624085e-40,"257":7.006492321624085e-40,"258":-7.006492321624085e-40,"259":7.006492321624085e-40,"260":-7.006492321624085e-40,"261":7.006492321624085e-40,"262":7.006492321624085e-40,"263":7.006492321624085e-40,"264":-7.006492321624085e-40,"265":-7.006492321624085e-40,"266":-7.006492321624085e-40,"267":7.006492321624085e-40,"268":-7.006492321624085e-40,"269":-7.006492321624085e-40,"270":-7.006492321624085e-40,"271":7.006492321624085e-40,"272":-7.006492321624085e-40,"273":-7.006492321624085e-40,"274":7.006492321624085e-40,"275":-7.006492321624085e-40,"276":-7.006492321624085e-40,"277":-7.006492321624085e-40,"278":7.006492321624085e-40,"279":-7.006492321624085e-40,"280":7.006492321624085e-40,"281":-7.006492321624085e-40,"282":-7.006492321624085e-40,"283":7.006492321624085e-40,"284":-7.006492321624085e-40,"285":-7.006492321624085e-40,"286":7.006492321624085e-40,"287":-7.006492321624085e-40,"288":7.006492321624085e-40,"289":-7.006492321624085e-40,"290":-7.006492321624085e-40,"291":-7.006492321624085e-40,"292":-7.006492321624085e-40,"293":7.006492321624085e-40,"294":7.006492321624085e-40,"295":7.006492321624085e-40,"296":-7.006492321624085e-40,"297":7.006492321624085e-40,"298":-7.006492321624085e-40,"299":7.006492321624085e-40,"300":7.006492321624085e-40,"301":7.006492321624085e-40,"302":-7.006492321624085e-40,"303":-7.006492321624085e-40,"304":-7.006492321624085e-40,"305":7.006492321624085e-40,"306":7.006492321624085e-40,"307":-7.006492321624085e-40,"308":-7.006492321624085e-40,"309":7.006492321624085e-40,"310":7.006492321624085e-40,"311":-7.006492321624085e-40,"312":-7.006492321624085e-40,"313":-7.006492321624085e-40,"314":-7.006492321624085e-40,"315":-7.006492321624085e-40,"316":7.006492321624085e-40,"317":-7.006492321624085e-40,"318":7.006492321624085e-40,"319":7.006492321624085e-40,"320":7.006492321624085e-40,"321":-7.006492321624085e-40,"322":7.006492321624085e-40,"323":-7.006492321624085e-40,"324":-7.006492321624085e-40,"325":-7.006492321624085e-40,"326":-7.006492321624085e-40,"327":7.006492321624085e-40,"328":-7.006492321624085e-40,"329":7.006492321624085e-40,"330":-7.006492321624085e-40,"331":7.006492321624085e-40,"332":7.006492321624085e-40,"333":7.006492321624085e-40,"334":-7.006492321624085e-40,"335":-7.006492321624085e-40,"336":7.006492321624085e-40,"337":-7.006492321624085e-40,"338":-7.006492321624085e-40,"339":-7.006492321624085e-40,"340":7.006492321624085e-40,"341":-7.006492321624085e-40,"342":7.006492321624085e-40,"343":7.006492321624085e-40,"344":-7.006492321624085e-40,"345":7.006492321624085e-40,"346":7.006492321624085e-40,"347":-7.006492321624085e-40,"348":7.006492321624085e-40,"349":7.006492321624085e-40,"350":-7.006492321624085e-40,"351":-7.006492321624085e-40,"352":7.006492321624085e-40,"353":7.006492321624085e-40,"354":7.006492321624085e-40,"355":-7.006492321624085e-40,"356":7.006492321624085e-40,"357":7.006492321624085e-40,"358":-7.006492321624085e-40,"359":-7.006492321624085e-40,"360":-7.006492321624085e-40,"361":7.006492321624085e-40,"362":7.006492321624085e-40,"363":7.006492321624085e-40,"364":7.006492321624085e-40,"365":7.006492321624085e-40,"366":7.006492321624085e-40,"367":-7.006492321624085e-40,"368":-7.006492321624085e-40,"369":7.006492321624085e-40,"370":-7.006492321624085e-40,"371":-7.006492321624085e-40,"372":-7.006492321624085e-40,"373":-7.006492321624085e-40,"374":-7.006492321624085e-40,"375":7.006492321624085e-40,"376":7.006492321624085e-40,"377":7.006492321624085e-40,"378":-7.006492321624085e-40,"379":-7.006492321624085e-40,"380":-7.006492321624085e-40,"381":-7.006492321624085e-40,"382":-7.006492321624085e-40,"383":7.006492321624085e-40,"384":-7.006492321624085e-40,"385":-7.006492321624085e-40,"386":-7.006492321624085e-40,"387":7.006492321624085e-40,"388":7.006492321624085e-40,"389":7.006492321624085e-40,"390":-7.006492321624085e-40,"391":7.006492321624085e-40,"392":-7.006492321624085e-40,"393":-7.006492321624085e-40,"394":7.006492321624085e-40,"395":7.006492321624085e-40,"396":7.006492321624085e-40,"397":-7.006492321624085e-40,"398":7.006492321624085e-40,"399":7.006492321624085e-40}},"cellActivationBias":{"rows":20,"columns":1,"weights":{"0":-0.8133623600006104,"1":0.05790489539504051,"2":0.15744176506996155,"3":-0.02581023797392845,"4":0.04769092798233032,"5":-0.07850079238414764,"6":0.014323540031909943,"7":-0.3886685371398926,"8":0.7689697742462158,"9":-0.0007002501515671611,"10":0.04138981178402901,"11":-0.16930940747261047,"12":0.04685397818684578,"13":0.0290814321488142,"14":0.041196420788764954,"15":0.5010600090026855,"16":0.21898554265499115,"17":0.5017496943473816,"18":-1.2863078117370605,"19":-0.3977084457874298}}},{"inputMatrix":{"rows":20,"columns":20,"weights":{"0":-0.4759446382522583,"1":0.026788391172885895,"2":0.24002087116241455,"3":-0.20265230536460876,"4":-0.20083209872245789,"5":-0.34282436966896057,"6":-0.20218133926391602,"7":-0.21078023314476013,"8":0.7215508818626404,"9":0.03852255642414093,"10":-0.40488147735595703,"11":-0.17483049631118774,"12":-0.07892607897520065,"13":0.18173043429851532,"14":0.31149035692214966,"15":0.5359326601028442,"16":-0.19722354412078857,"17":0.5590354800224304,"18":-0.6945052742958069,"19":-0.49261513352394104,"20":-0.551206648349762,"21":0.019238684326410294,"22":-0.17892366647720337,"23":-0.08384072780609131,"24":-0.23022279143333435,"25":0.000565476540941745,"26":-0.1555757224559784,"27":-0.20468224585056305,"28":0.7469124794006348,"29":-0.11603546887636185,"30":-0.4420931339263916,"31":0.20074400305747986,"32":-0.4351232945919037,"33":0.20111075043678284,"34":0.17703306674957275,"35":0.3462926149368286,"36":0.02819560468196869,"37":0.42159152030944824,"38":-0.7784409523010254,"39":-0.3880033791065216,"40":-0.23420028388500214,"41":-0.045956239104270935,"42":-0.01666036807000637,"43":-0.12902775406837463,"44":-0.28447118401527405,"45":0.051562197506427765,"46":0.16964533925056458,"47":-0.20825712382793427,"48":1.2947052717208862,"49":0.1217697262763977,"50":0.10659446567296982,"51":-0.03603658452630043,"52":-0.08620350807905197,"53":0.0060434043407440186,"54":0.6343024373054504,"55":0.5633003115653992,"56":-0.017059318721294403,"57":0.6312534213066101,"58":-0.7127435207366943,"59":-0.08001500368118286,"60":-0.16835050284862518,"61":-0.3201884329319,"62":-0.13657355308532715,"63":0.028489340096712112,"64":-0.30588364601135254,"65":0.047437865287065506,"66":0.03532257676124573,"67":-0.16520361602306366,"68":0.8669928312301636,"69":-0.12724052369594574,"70":-0.10043162107467651,"71":-0.2960732579231262,"72":0.03580079227685928,"73":0.17650116980075836,"74":0.7606642842292786,"75":0.6627463698387146,"76":-0.19309718906879425,"77":0.7614254951477051,"78":-0.5928082466125488,"79":-0.22294409573078156,"80":-0.3213490843772888,"81":0.07946528494358063,"82":0.03753853216767311,"83":0.010717247612774372,"84":-0.22082872688770294,"85":0.08165609836578369,"86":0.11783130466938019,"87":-0.19999340176582336,"88":1.1958049535751343,"89":-0.12333570420742035,"90":0.014979077503085136,"91":0.12002774327993393,"92":-0.1660715639591217,"93":-0.03834720328450203,"94":0.6283875703811646,"95":0.44846442341804504,"96":-0.07637833803892136,"97":0.6229860782623291,"98":-0.7339742183685303,"99":-0.1496468335390091,"100":-0.32639792561531067,"101":0.11788424849510193,"102":0.02102779597043991,"103":-0.23255598545074463,"104":-0.0002925617736764252,"105":0.08462414890527725,"106":0.4055180251598358,"107":-0.08160388469696045,"108":0.9472593665122986,"109":0.27075842022895813,"110":-0.2560795247554779,"111":0.005609854124486446,"112":-0.070888951420784,"113":0.005850103683769703,"114":0.526128888130188,"115":0.2562052607536316,"116":-0.10179832577705383,"117":0.5579249858856201,"118":-0.6681199073791504,"119":-0.2042243480682373,"120":-0.18154558539390564,"121":-0.2553831934928894,"122":-0.25690433382987976,"123":0.13886874914169312,"124":-0.6110774278640747,"125":0.048915017396211624,"126":0.23445171117782593,"127":-0.08482823520898819,"128":0.8507965803146362,"129":-0.3412072956562042,"130":-0.22162404656410217,"131":-0.4405179023742676,"132":-0.010357673279941082,"133":0.04445796087384224,"134":0.6510176658630371,"135":0.6665334105491638,"136":-0.2422519028186798,"137":0.6652591824531555,"138":-0.5177159309387207,"139":-0.1350761204957962,"140":-0.4831124544143677,"141":-0.37989532947540283,"142":0.3062843084335327,"143":-0.19412757456302643,"144":0.03568679839372635,"145":-0.2798769474029541,"146":-0.10608518123626709,"147":-0.298898309469223,"148":0.8405240178108215,"149":0.13909228146076202,"150":-0.023762626573443413,"151":0.14559613168239594,"152":-0.5548884868621826,"153":0.33909493684768677,"154":0.5141996741294861,"155":0.4314832389354706,"156":0.5852029919624329,"157":0.3677937090396881,"158":-0.8046282529830933,"159":-0.45666611194610596,"160":-0.49730581045150757,"161":0.026110319420695305,"162":0.18059875071048737,"163":-0.14512580633163452,"164":-0.21142259240150452,"165":-0.1831996738910675,"166":-0.1343729943037033,"167":-0.20809650421142578,"168":0.6656379699707031,"169":0.14701949059963226,"170":-0.42328372597694397,"171":-0.18787159025669098,"172":-0.15362708270549774,"173":-0.12637293338775635,"174":0.3857566714286804,"175":0.3604779839515686,"176":-0.09046224504709244,"177":0.5332960486412048,"178":-0.6975744962692261,"179":-0.3571964502334595,"180":-0.31140780448913574,"181":0.16521087288856506,"182":0.1283426582813263,"183":0.028219647705554962,"184":-0.1534392237663269,"185":0.007918584160506725,"186":0.24549910426139832,"187":-0.09419873356819153,"188":0.49955233931541443,"189":-0.10726997256278992,"190":-1.2381902933120728,"191":-0.08358372747898102,"192":-1.460358738899231,"193":-0.026454325765371323,"194":0.4316682517528534,"195":-0.15557704865932465,"196":-0.013823178596794605,"197":0.19200947880744934,"198":-0.5275211334228516,"199":-0.435757577419281,"200":-0.5022085905075073,"201":0.0717436671257019,"202":0.006648387294262648,"203":-0.150584414601326,"204":-0.01523476280272007,"205":0.10757555067539215,"206":0.3752933442592621,"207":-0.23632611334323883,"208":1.0251996517181396,"209":0.29660794138908386,"210":-0.4975176155567169,"211":0.00023068721930030733,"212":-0.19831164181232452,"213":0.0625639334321022,"214":0.3481176495552063,"215":0.46785134077072144,"216":-0.07212035357952118,"217":0.46956387162208557,"218":-0.8181530237197876,"219":-0.1465039998292923,"220":-0.5774304270744324,"221":0.1181754320859909,"222":0.3312379717826843,"223":-0.10317612439393997,"224":-0.18739695847034454,"225":-0.09553016722202301,"226":-0.024783754721283913,"227":-0.24844017624855042,"228":0.7107968926429749,"229":0.014818836003541946,"230":-0.662418782711029,"231":0.3743126392364502,"232":-0.19356612861156464,"233":0.07622262090444565,"234":0.23342305421829224,"235":0.3679628372192383,"236":0.0037882444448769093,"237":0.3276403248310089,"238":-0.7006928324699402,"239":-0.380232036113739,"240":-0.4471839666366577,"241":0.030972270295023918,"242":0.03962341696023941,"243":-0.043640583753585815,"244":-0.03680481016635895,"245":0.12640812993049622,"246":0.042073410004377365,"247":-0.12202324718236923,"248":0.7149324417114258,"249":0.09586802870035172,"250":-1.2028065919876099,"251":0.20325323939323425,"252":-0.27105218172073364,"253":0.14805088937282562,"254":0.15261134505271912,"255":0.45359694957733154,"256":-0.12903019785881042,"257":0.1312401443719864,"258":-0.5709800720214844,"259":-0.37850600481033325,"260":-0.5975802540779114,"261":-0.1751672923564911,"262":0.22522908449172974,"263":0.029636770486831665,"264":-0.07629930973052979,"265":-0.09224972873926163,"266":-0.46851450204849243,"267":-0.3254254162311554,"268":0.37188485264778137,"269":0.16772794723510742,"270":-0.05400989204645157,"271":0.04201778396964073,"272":-0.7153315544128418,"273":0.7093845009803772,"274":-0.20591089129447937,"275":0.34182706475257874,"276":-0.13631181418895721,"277":0.09775424748659134,"278":-0.8233444094657898,"279":-0.24653851985931396,"280":-0.6473968625068665,"281":0.04482349008321762,"282":0.21625570952892303,"283":-0.11510710418224335,"284":-0.20520366728305817,"285":0.030322222039103508,"286":-0.15382304787635803,"287":-0.3198043406009674,"288":0.713055431842804,"289":-0.021069595590233803,"290":-0.732012927532196,"291":0.24666465818881989,"292":-0.2426430583000183,"293":0.21638813614845276,"294":0.2001773864030838,"295":0.38028112053871155,"296":0.017138296738266945,"297":0.3105781376361847,"298":-0.7688444256782532,"299":-0.4509131908416748,"300":-0.5098463892936707,"301":-0.37778374552726746,"302":0.27449896931648254,"303":-0.07857213914394379,"304":-0.10462407022714615,"305":-0.36090007424354553,"306":-0.1073957234621048,"307":-0.3071626126766205,"308":0.6943012475967407,"309":-0.042489368468523026,"310":-0.7183434963226318,"311":0.17463287711143494,"312":0.09419194608926773,"313":0.13779963552951813,"314":-0.051213666796684265,"315":0.6694408655166626,"316":0.038304395973682404,"317":0.5319057106971741,"318":-0.6974523663520813,"319":-0.3063777983188629,"320":-0.6306602954864502,"321":-0.1684969663619995,"322":0.30546051263809204,"323":-0.3866311311721802,"324":0.07673703879117966,"325":-0.09371697902679443,"326":-0.29516884684562683,"327":-0.3062356114387512,"328":0.7884564399719238,"329":0.20673249661922455,"330":-0.19114084541797638,"331":0.1883208155632019,"332":0.06348127871751785,"333":0.23245581984519958,"334":0.19748149812221527,"335":0.6859980821609497,"336":-0.2503947615623474,"337":0.6128358244895935,"338":-0.7284293174743652,"339":-0.47282373905181885,"340":-0.7718214988708496,"341":-0.03615967184305191,"342":0.23615936934947968,"343":0.07227551192045212,"344":-0.10519012808799744,"345":0.14184439182281494,"346":-0.14204388856887817,"347":-0.2743639051914215,"348":0.7884117960929871,"349":-0.04118538275361061,"350":-0.26024675369262695,"351":0.0829814001917839,"352":-0.29093819856643677,"353":-0.09971386939287186,"354":-0.013473132625222206,"355":0.5996338725090027,"356":-0.2734733819961548,"357":0.6318573355674744,"358":-0.9079987406730652,"359":-0.7957668304443359,"360":-0.6610697507858276,"361":-0.0944880023598671,"362":0.046678222715854645,"363":-0.056630656123161316,"364":-0.08198753744363785,"365":-0.17657551169395447,