{"sizes":[20,40,30,40,10],"layers":[{"0":{},"1":{},"2":{},"3":{},"4":{},"5":{},"6":{},"7":{},"8":{},"9":{},"10":{},"11":{},"12":{},"13":{},"14":{},"15":{},"16":{},"17":{},"18":{},"19":{}},{"0":{"bias":0.05052958056330681,"weights":{"0":-0.026161402463912964,"1":-0.0026423947419971228,"2":0.03811706602573395,"3":0.04482472687959671,"4":-0.03282267972826958,"5":-0.010129138827323914,"6":0.017421476542949677,"7":-0.037748370319604874,"8":1.1993591785430908,"9":0.659627377986908,"10":-0.038592610508203506,"11":0.8304327130317688,"12":0.6960892081260681,"13":-0.19699671864509583,"14":-0.2387028932571411,"15":-0.13893623650074005,"16":0.19920815527439117,"17":-0.1216561570763588,"18":0.11184194684028625,"19":-0.13291852176189423}},"1":{"bias":-0.6349466443061829,"weights":{"0":-0.12002477049827576,"1":-0.1594710797071457,"2":0.12334071099758148,"3":0.075423464179039,"4":-0.1489172726869583,"5":0.22921913862228394,"6":0.04045776650309563,"7":-0.044240448623895645,"8":-0.08887775987386703,"9":0.01518478337675333,"10":-0.5396132469177246,"11":1.5953923463821411,"12":0.7935807704925537,"13":-0.39246252179145813,"14":-0.10112917423248291,"15":-0.2011459767818451,"16":0.14985895156860352,"17":-0.03331613540649414,"18":0.14878250658512115,"19":-0.10417681932449341}},"2":{"bias":1.4506796598434448,"weights":{"0":-0.19036152958869934,"1":0.10121193528175354,"2":-0.21277019381523132,"3":-0.06562703847885132,"4":0.7276211380958557,"5":-0.13193272054195404,"6":-0.2512020170688629,"7":0.05953187867999077,"8":-0.00844629667699337,"9":-0.19153152406215668,"10":0.4646880328655243,"11":-2.776301860809326,"12":-0.05755840986967087,"13":0.4653400778770447,"14":0.46872565150260925,"15":0.5041670799255371,"16":-0.15254950523376465,"17":0.09051533043384552,"18":0.014894917607307434,"19":-0.052740465849637985}},"3":{"bias":-0.81751549243927,"weights":{"0":-0.04893823713064194,"1":0.10751938819885254,"2":-0.07099586725234985,"3":0.09228439629077911,"4":0.12045172601938248,"5":0.14483202993869781,"6":-0.29391807317733765,"7":0.24055707454681396,"8":-0.0333588644862175,"9":-0.03302152827382088,"10":-0.5335854291915894,"11":1.9234057664871216,"12":0.8553230166435242,"13":-0.4553470015525818,"14":-0.3065292537212372,"15":-0.2253594547510147,"16":0.15012912452220917,"17":-0.17043399810791016,"18":-0.027346936985850334,"19":-0.03313523903489113}},"4":{"bias":0.15623755753040314,"weights":{"0":0.009493990801274776,"1":-0.005401750095188618,"2":0.1750127375125885,"3":-0.4615551829338074,"4":0.6062179207801819,"5":-0.24061749875545502,"6":0.14009727537631989,"7":0.046748824417591095,"8":0.03900064527988434,"9":0.03492872416973114,"10":-0.23151198029518127,"11":1.0010977983474731,"12":0.910848081111908,"13":-0.2733069062232971,"14":-0.5173019170761108,"15":-0.5473151206970215,"16":-0.1135651171207428,"17":-0.023696862161159515,"18":-0.08458876609802246,"19":0.05796131119132042}},"5":{"bias":0.11675768345594406,"weights":{"0":-0.6313516497612,"1":0.08889224380254745,"2":-0.11971127986907959,"3":0.16586275398731232,"4":0.22745968401432037,"5":0.02776811085641384,"6":0.09659052640199661,"7":0.05429449677467346,"8":0.006624664645642042,"9":-0.09348840266466141,"10":0.1885041743516922,"11":-1.2584601640701294,"12":0.20106428861618042,"13":0.14683730900287628,"14":0.2842762768268585,"15":0.14919430017471313,"16":-0.1436811238527298,"17":0.11529573053121567,"18":0.1437540203332901,"19":0.055329978466033936}},"6":{"bias":0.5336728096008301,"weights":{"0":0.07916218042373657,"1":-0.03183691203594208,"2":0.1437302529811859,"3":0.039777692407369614,"4":0.1934020072221756,"5":-0.05528723821043968,"6":-0.5453814268112183,"7":-0.28104931116104126,"8":0.036667097359895706,"9":-0.24437269568443298,"10":0.29588577151298523,"11":-1.3109978437423706,"12":-0.2242172807455063,"13":0.10565921664237976,"14":0.16203689575195312,"15":0.0461086668074131,"16":0.18052725493907928,"17":-0.09412942826747894,"18":0.1709768921136856,"19":-0.14697128534317017}},"7":{"bias":0.76654452085495,"weights":{"0":0.07932062447071075,"1":-0.06727688759565353,"2":0.024234957993030548,"3":-0.0501009002327919,"4":0.059568628668785095,"5":0.05984584987163544,"6":0.221958726644516,"7":0.06614801287651062,"8":-0.12964822351932526,"9":0.33280715346336365,"10":0.016379307955503464,"11":-1.6202737092971802,"12":-1.12939453125,"13":0.12476950138807297,"14":-0.07576967775821686,"15":0.19134600460529327,"16":0.0026303695049136877,"17":-0.18609291315078735,"18":-0.15639108419418335,"19":0.09468849003314972}},"8":{"bias":0.6726987361907959,"weights":{"0":0.014810803346335888,"1":0.10349784046411514,"2":0.25354182720184326,"3":0.003158942563459277,"4":-0.15217196941375732,"5":0.25836843252182007,"6":-0.1509166806936264,"7":-0.1522940695285797,"8":-0.1216595396399498,"9":-0.18057993054389954,"10":0.0793449655175209,"11":-1.3639672994613647,"12":-0.16960452497005463,"13":0.26236647367477417,"14":0.14454510807991028,"15":-0.04131901636719704,"16":-0.13121968507766724,"17":-0.10383514314889908,"18":-0.022621886804699898,"19":-0.17763328552246094}},"9":{"bias":-0.39051195979118347,"weights":{"0":0.0009599048644304276,"1":0.09866322576999664,"2":-0.05031852051615715,"3":-0.046894900500774384,"4":0.04195048287510872,"5":-0.14140234887599945,"6":0.4976865351200104,"7":-0.4003947079181671,"8":-0.16806362569332123,"9":0.132420152425766,"10":-0.08319927006959915,"11":0.7515292167663574,"12":0.2692701816558838,"13":-0.26810458302497864,"14":-0.19508595764636993,"15":-0.1815175712108612,"16":0.07743450254201889,"17":-0.1627984642982483,"18":-0.05519518628716469,"19":-0.1113366112112999}},"10":{"bias":0.22456671297550201,"weights":{"0":0.03070119209587574,"1":-0.008527419529855251,"2":0.005524978041648865,"3":-0.11718378216028214,"4":-0.010431370697915554,"5":-0.21695564687252045,"6":0.17397889494895935,"7":0.46686652302742004,"8":0.08802057057619095,"9":-0.02518942393362522,"10":0.2092406451702118,"11":-0.5706645846366882,"12":-0.15929636359214783,"13":0.2038823515176773,"14":0.46746858954429626,"15":0.42414963245391846,"16":-0.10251342505216599,"17":-0.07454132288694382,"18":-0.11418260633945465,"19":-0.14427050948143005}},"11":{"bias":-0.3477422893047333,"weights":{"0":0.28968727588653564,"1":-7.216197967529297,"2":-2.378415107727051,"3":0.10531742125749588,"4":0.13710050284862518,"5":0.008407119661569595,"6":0.05510434880852699,"7":-0.01886669732630253,"8":0.030142666772007942,"9":-0.06151442974805832,"10":0.8538296222686768,"11":-3.7983579635620117,"12":-1.5835084915161133,"13":0.8431954383850098,"14":0.5636158585548401,"15":0.8771020174026489,"16":-0.1845015585422516,"17":-0.09988567233085632,"18":-0.19200478494167328,"19":-0.12805287539958954}},"12":{"bias":-0.4323633313179016,"weights":{"0":0.0073266709223389626,"1":-0.15305621922016144,"2":0.30919477343559265,"3":0.19867154955863953,"4":-0.039896003901958466,"5":0.05760456621646881,"6":0.2193276435136795,"7":0.1916155219078064,"8":0.04316817224025726,"9":-0.20863722264766693,"10":-0.20997224748134613,"11":1.0651366710662842,"12":0.7846314907073975,"13":-0.11371803283691406,"14":-0.22790342569351196,"15":-0.5064904689788818,"16":-0.04014239460229874,"17":-0.10215170681476593,"18":-0.013230020180344582,"19":0.05926010385155678}},"13":{"bias":-0.48047006130218506,"weights":{"0":0.00872675608843565,"1":0.09075083583593369,"2":-0.14682996273040771,"3":0.022492829710245132,"4":0.378390371799469,"5":-0.4230547249317169,"6":0.20574283599853516,"7":0.22634337842464447,"8":-0.2812989056110382,"9":0.17798295617103577,"10":-0.30861714482307434,"11":1.3300564289093018,"12":0.2099950909614563,"13":-0.2217707335948944,"14":-0.27221181988716125,"15":-0.09283427149057388,"16":-0.03113379329442978,"17":0.014925510622560978,"18":0.003805524902418256,"19":0.13136664032936096}},"14":{"bias":0.2548573613166809,"weights":{"0":0.10087113827466965,"1":0.019095389172434807,"2":0.11540818214416504,"3":-0.9578548669815063,"4":-0.7560650706291199,"5":0.2558659017086029,"6":0.02170013263821602,"7":0.010275234468281269,"8":0.011981772258877754,"9":0.13980145752429962,"10":0.4504266679286957,"11":-2.20434308052063,"12":-0.9944496750831604,"13":0.27217617630958557,"14":0.2495143562555313,"15":0.3736070394515991,"16":-0.09349284321069717,"17":0.013198737986385822,"18":-0.06677751243114471,"19":0.19123588502407074}},"15":{"bias":0.4884651303291321,"weights":{"0":0.0013402521144598722,"1":0.024213874712586403,"2":0.005578125827014446,"3":-0.06401365250349045,"4":0.04476886987686157,"5":-0.2566389739513397,"6":0.5940894484519958,"7":-0.5391115546226501,"8":0.49744340777397156,"9":-0.5336418151855469,"10":0.6337831020355225,"11":-1.7359895706176758,"12":-1.202425479888916,"13":0.5241790413856506,"14":0.3017950654029846,"15":0.6088091135025024,"16":0.11507834494113922,"17":0.1894856095314026,"18":-0.13419198989868164,"19":0.16656683385372162}},"16":{"bias":-0.9248523116111755,"weights":{"0":0.014596952125430107,"1":-0.020013287663459778,"2":0.06734123826026917,"3":0.1897425502538681,"4":0.1455848664045334,"5":-0.06153136491775513,"6":-0.07960788905620575,"7":0.36848172545433044,"8":0.21932201087474823,"9":-0.035510461777448654,"10":-0.5750867128372192,"11":2.1087429523468018,"12":0.9357326030731201,"13":-0.48552462458610535,"14":-0.47383806109428406,"15":-0.5213423371315002,"16":-0.06573688983917236,"17":-0.1695897877216339,"18":0.06631360203027725,"19":0.02033042721450329}},"17":{"bias":0.3982730507850647,"weights":{"0":0.1577180027961731,"1":-1.168445348739624,"2":-0.5564322471618652,"3":0.16312862932682037,"4":-0.021135753020644188,"5":0.018802838400006294,"6":-0.012005568481981754,"7":0.015755994245409966,"8":-0.003049144521355629,"9":0.07687228173017502,"10":0.24745617806911469,"11":-1.6677614450454712,"12":-1.2509220838546753,"13":0.5214537978172302,"14":0.217196986079216,"15":0.5280049443244934,"16":0.19572803378105164,"17":0.0572492852807045,"18":-0.16097280383110046,"19":0.017629198729991913}},"18":{"bias":0.29853183031082153,"weights":{"0":-0.05881310999393463,"1":-0.1282547265291214,"2":0.3525756895542145,"3":-0.6985145211219788,"4":0.6612696647644043,"5":-0.26475799083709717,"6":-0.03354290872812271,"7":0.0440373532474041,"8":-0.0776643380522728,"9":-0.060844600200653076,"10":0.31524601578712463,"11":-1.2518764734268188,"12":0.3381895422935486,"13":0.1593398153781891,"14":0.01085823867470026,"15":0.013850865885615349,"16":0.11677266657352448,"17":-0.1888384222984314,"18":0.008445873856544495,"19":0.1693018227815628}},"19":{"bias":0.6366815567016602,"weights":{"0":0.2767298221588135,"1":0.20207704603672028,"2":-0.08714703470468521,"3":-0.3078397512435913,"4":0.04862906038761139,"5":0.32686594128608704,"6":0.12137319892644882,"7":-0.07601215690374374,"8":-0.0355025939643383,"9":0.009583146311342716,"10":0.07728118449449539,"11":-0.9369887709617615,"12":-0.46789073944091797,"13":0.2560957968235016,"14":0.039712391793727875,"15":-0.03824744373559952,"16":0.05075434222817421,"17":0.15490567684173584,"18":0.16250038146972656,"19":-0.04345453530550003}},"20":{"bias":-0.40800753235816956,"weights":{"0":-0.004901205655187368,"1":-0.02242780476808548,"2":0.033357396721839905,"3":0.032149989157915115,"4":0.04675988852977753,"5":0.009215309284627438,"6":0.050067733973264694,"7":-0.3340470492839813,"8":0.10533563047647476,"9":1.590441346168518,"10":-0.09869761019945145,"11":1.1311898231506348,"12":1.0559276342391968,"13":-0.2945789396762848,"14":-0.3359023332595825,"15":-0.17681506276130676,"16":0.10594002902507782,"17":-0.029730478301644325,"18":0.1202736347913742,"19":-0.09493716061115265}},"21":{"bias":0.28871601819992065,"weights":{"0":-0.10325786471366882,"1":-0.008461639285087585,"2":0.16009439527988434,"3":-0.1358087807893753,"4":-0.10958953946828842,"5":0.4596654772758484,"6":-0.1350247710943222,"7":-0.20039625465869904,"8":-0.1914142668247223,"9":-0.15213949978351593,"10":0.2013712376356125,"11":-1.1320167779922485,"12":-0.20524542033672333,"13":0.4095562994480133,"14":0.3584142327308655,"15":0.378192275762558,"16":0.10819164663553238,"17":-0.15710072219371796,"18":0.0310159083455801,"19":-0.022194191813468933}},"22":{"bias":0.7804365158081055,"weights":{"0":-0.5210128426551819,"1":0.8176627159118652,"2":-0.5897454619407654,"3":0.22329434752464294,"4":-0.22110430896282196,"5":0.03949115425348282,"6":-0.06421299278736115,"7":-0.016392746940255165,"8":-0.016042910516262054,"9":-0.0718495175242424,"10":0.49146291613578796,"11":-1.82888662815094,"12":-1.600817084312439,"13":0.6696739792823792,"14":0.4276618957519531,"15":0.3046555817127228,"16":-0.1390460878610611,"17":0.02977481670677662,"18":-0.10742998868227005,"19":-0.06435977667570114}},"23":{"bias":-0.9878776669502258,"weights":{"0":0.07690925896167755,"1":-0.032786574214696884,"2":0.11380386352539062,"3":0.1698237955570221,"4":0.05975857004523277,"5":-0.29829415678977966,"6":-0.4314143657684326,"7":-0.035415735095739365,"8":-0.037483084946870804,"9":0.030013887211680412,"10":-0.6004147529602051,"11":2.207838773727417,"12":0.6458972096443176,"13":-0.7085614800453186,"14":-0.5015133023262024,"15":-0.6933112740516663,"16":0.04705614596605301,"17":0.004431324079632759,"18":0.189165398478508,"19":0.0872236117720604}},"24":{"bias":2.1190402507781982,"weights":{"0":-3.935912847518921,"1":0.10039088129997253,"2":0.24953188002109528,"3":0.010817383415997028,"4":0.028298813849687576,"5":0.037974853068590164,"6":0.09012177586555481,"7":0.07609205693006516,"8":0.17148210108280182,"9":0.28050270676612854,"10":1.202813982963562,"11":-3.8983192443847656,"12":-4.186097145080566,"13":0.8976401686668396,"14":0.8465443253517151,"15":0.9032387733459473,"16":0.1650877296924591,"17":0.17726242542266846,"18":-0.09097794443368912,"19":-0.1694904863834381}},"25":{"bias":-0.383827805519104,"weights":{"0":0.034527357667684555,"1":-0.0043062008917331696,"2":0.01280251331627369,"3":-0.07342968881130219,"4":-0.034979455173015594,"5":0.06318216025829315,"6":-0.043121445924043655,"7":-0.07476568967103958,"8":0.17901107668876648,"9":0.08757171779870987,"10":-0.2819615304470062,"11":0.020747926086187363,"12":0.5512986779212952,"13":-0.3249126076698303,"14":-0.27813446521759033,"15":-0.13055643439292908,"16":0.06534183770418167,"17":-0.019952399656176567,"18":-0.0692691057920456,"19":-0.18598023056983948}},"26":{"bias":-0.6834485530853271,"weights":{"0":0.29719874262809753,"1":-0.13108356297016144,"2":-0.3293430209159851,"3":0.4686478078365326,"4":0.1433018296957016,"5":-0.02389558218419552,"6":0.09018342196941376,"7":0.07306896895170212,"8":-0.06439385563135147,"9":0.18347018957138062,"10":-0.5457291603088379,"11":2.02645206451416,"12":0.30691713094711304,"13":-0.4033343493938446,"14":-0.2977411448955536,"15":-0.2892496883869171,"16":-0.08103762567043304,"17":-0.02096186764538288,"18":0.03844035789370537,"19":-0.18553324043750763}},"27":{"bias":-0.5090040564537048,"weights":{"0":0.05786146596074104,"1":0.19690850377082825,"2":0.0712403878569603,"3":0.023892605677247047,"4":0.16806313395500183,"5":-0.1784876585006714,"6":0.18885941803455353,"7":-0.16959813237190247,"8":-0.11066880077123642,"9":0.07201121747493744,"10":-0.112103670835495,"11":1.4858005046844482,"12":0.7888929843902588,"13":-0.2509670853614807,"14":-0.32090839743614197,"15":-0.3277107775211334,"16":0.06710498780012131,"17":-0.03344321623444557,"18":-0.10767810791730881,"19":0.1431700736284256}},"28":{"bias":-0.6251161098480225,"weights":{"0":-0.05481609329581261,"1":0.037664223462343216,"2":-0.0052891261875629425,"3":-0.09483752399682999,"4":-0.15006574988365173,"5":0.23104740679264069,"6":-0.14102281630039215,"7":0.02072192169725895,"8":0.0628010481595993,"9":0.11491081118583679,"10":-0.3616779148578644,"11":1.6885403394699097,"12":0.3578568696975708,"13":-0.2248525619506836,"14":-0.3204336166381836,"15":-0.19999918341636658,"16":0.05355380102992058,"17":0.04003600403666496,"18":0.033109407871961594,"19":0.19634264707565308}},"29":{"bias":0.2762788236141205,"weights":{"0":-0.04299253970384598,"1":0.020604180172085762,"2":0.05849236622452736,"3":-0.14851893484592438,"4":-0.2563953697681427,"5":0.07452896982431412,"6":0.5154410600662231,"7":0.524574875831604,"8":0.1577131748199463,"9":0.22836880385875702,"10":0.03857704624533653,"11":-0.24472667276859283,"12":0.3448246419429779,"13":-0.2022491842508316,"14":-0.14391560852527618,"15":-0.013107876293361187,"16":-0.031077750027179718,"17":0.026576969772577286,"18":0.09498026221990585,"19":-0.1658521145582199}},"30":{"bias":-0.6520984172821045,"weights":{"0":0.08711843192577362,"1":0.07913979142904282,"2":-0.10404141992330551,"3":-0.003907601349055767,"4":0.07350847870111465,"5":-0.08246169984340668,"6":0.050998009741306305,"7":0.7027996182441711,"8":0.20020361244678497,"9":0.09547759592533112,"10":-0.3830520212650299,"11":1.0869237184524536,"12":0.534460723400116,"13":-0.4313669502735138,"14":-0.2902570366859436,"15":-0.40735551714897156,"16":-0.13270452618598938,"17":0.008098076097667217,"18":0.0797845646739006,"19":0.004831184167414904}},"31":{"bias":0.5687730312347412,"weights":{"0":-0.022880785167217255,"1":0.1637609452009201,"2":-1.072191596031189,"3":0.2035900056362152,"4":-0.08563486486673355,"5":-0.027437733486294746,"6":-0.09549354016780853,"7":-0.014574030414223671,"8":-0.012874883599579334,"9":-0.1313280314207077,"10":0.3999576270580292,"11":-1.8664201498031616,"12":-1.3445528745651245,"13":0.5799338817596436,"14":0.3874416947364807,"15":0.5587412118911743,"16":0.09237109124660492,"17":0.020418532192707062,"18":-0.06832230091094971,"19":-0.02935268171131611}},"32":{"bias":-0.6883840560913086,"weights":{"0":-0.0415901318192482,"1":0.08218646049499512,"2":0.15114851295948029,"3":0.0430341511964798,"4":-0.08891798555850983,"5":0.12459862232208252,"6":0.2123803347349167,"7":0.08127418160438538,"8":-0.2878107726573944,"9":-0.2408336102962494,"10":-0.20603469014167786,"11":1.2653406858444214,"12":0.15667152404785156,"13":-0.3457033634185791,"14":-0.3338637948036194,"15":-0.21793685853481293,"16":0.030429614707827568,"17":-0.18513856828212738,"18":-0.0883280336856842,"19":0.10604657977819443}},"33":{"bias":0.7158710956573486,"weights":{"0":-0.052337635308504105,"1":0.0889916643500328,"2":-0.040119342505931854,"3":0.10475707799196243,"4":-0.19740545749664307,"5":-0.09100749343633652,"6":-0.005735744722187519,"7":0.09945495426654816,"8":0.07470384240150452,"9":-0.2540137469768524,"10":0.45184457302093506,"11":-1.5535696744918823,"12":-0.45516371726989746,"13":0.48263728618621826,"14":0.5532453656196594,"15":0.2766132056713104,"16":0.05931282788515091,"17":0.13768117129802704,"18":-0.015727940946817398,"19":-0.07451480627059937}},"34":{"bias":0.5466412305831909,"weights":{"0":-0.08768957853317261,"1":0.13856211304664612,"2":-0.10609661787748337,"3":-0.04092608392238617,"4":-0.05096052214503288,"5":-0.05934014916419983,"6":-0.25474193692207336,"7":-0.006731628440320492,"8":0.06698232144117355,"9":0.07057559490203857,"10":0.43650850653648376,"11":-1.0634337663650513,"12":-0.855959951877594,"13":0.21818037331104279,"14":0.5156070590019226,"15":0.38392558693885803,"16":0.06612543761730194,"17":-0.009551524184644222,"18":0.0073474980890750885,"19":-0.06357280164957047}},"35":{"bias":0.6447092294692993,"weights":{"0":-0.24528172612190247,"1":0.040456514805555344,"2":0.1813136637210846,"3":-0.0140607925131917,"4":0.10087642818689346,"5":-0.07668786495923996,"6":-0.04353499785065651,"7":0.03951922431588173,"8":0.08559960871934891,"9":-0.02939799055457115,"10":0.0709872618317604,"11":-1.556795358657837,"12":-0.4081324338912964,"13":0.2116309404373169,"14":0.21867579221725464,"15":0.012491948902606964,"16":-0.02979440428316593,"17":-0.01777874305844307,"18":-0.05512077361345291,"19":0.04986685514450073}},"36":{"bias":0.5925995707511902,"weights":{"0":0.18094640970230103,"1":-0.011792328208684921,"2":-0.04494746774435043,"3":0.13132278621196747,"4":0.09913868457078934,"5":-0.7658654451370239,"6":-0.5276248455047607,"7":0.023833652958273888,"8":-0.04402687028050423,"9":-0.015734445303678513,"10":0.36136260628700256,"11":-2.3328359127044678,"12":-0.6507188677787781,"13":0.4024283289909363,"14":0.25737717747688293,"15":0.4313998818397522,"16":-0.10888665914535522,"17":0.07166280597448349,"18":0.09021240472793579,"19":0.11087416112422943}},"37":{"bias":0.12413240969181061,"weights":{"0":0.13405337929725647,"1":-0.036384467035532,"2":0.07116474211215973,"3":0.061050739139318466,"4":0.05011236295104027,"5":-0.41942569613456726,"6":0.17670349776744843,"7":0.17784054577350616,"8":-0.167775958776474,"9":-0.01741158775985241,"10":0.2610943913459778,"11":-0.6569249033927917,"12":-0.820688009262085,"13":0.10362699627876282,"14":0.19772659242153168,"15":0.28526803851127625,"16":0.0441284216940403,"17":-0.19451944530010223,"18":0.17696984112262726,"19":-0.09090615063905716}},"38":{"bias":1.2099252939224243,"weights":{"0":0.06016121432185173,"1":-0.01825982891023159,"2":0.053272318094968796,"3":0.017277926206588745,"4":0.06295463442802429,"5":-0.0925109013915062,"6":-0.08944233506917953,"7":-0.34543532133102417,"8":0.44203120470046997,"9":-0.706293523311615,"10":0.30723801255226135,"11":-1.0783504247665405,"12":-0.66836017370224,"13":0.22681792080402374,"14":0.2132483422756195,"15":-0.004275877494364977,"16":0.14084592461585999,"17":-0.14230211079120636,"18":0.029602278023958206,"19":-0.12769339978694916}},"39":{"bias":-0.7413298487663269,"weights":{"0":0.01577325351536274,"1":-0.0428195595741272,"2":0.0940384566783905,"3":-0.3708450198173523,"4":0.1425420492887497,"5":-0.17630359530448914,"6":0.15328429639339447,"7":0.07728900015354156,"8":0.03802909329533577,"9":0.19335037469863892,"10":-0.5578927397727966,"11":2.2886598110198975,"12":1.0979609489440918,"13":-0.24869593977928162,"14":-0.5849400758743286,"15":-0.558701753616333,"16":-0.0027667724061757326,"17":0.06928952783346176,"18":0.10881803184747696,"19":-0.13962049782276154}}},{"0":{"bias":-0.6426340937614441,"weights":{"0":-0.20708690583705902,"1":0.11007208377122879,"2":-0.14778681099414825,"3":-0.23911871016025543,"4":-0.07167080044746399,"5":-0.01830802857875824,"6":-0.008226597681641579,"7":-0.0017843686509877443,"8":0.023954730480909348,"9":-0.14161810278892517,"10":0.07500354200601578,"11":-0.04513171315193176,"12":0.22193053364753723,"13":0.08472522348165512,"14":-0.05187736079096794,"15":-0.11355257779359818,"16":0.07726259529590607,"17":0.03123268485069275,"18":0.14256788790225983,"19":-0.040789373219013214,"20":0.02417384274303913,"21":0.06771751493215561,"22":-0.10356483608484268,"23":0.05990071967244148,"24":-0.017787501215934753,"25":-0.1976476013660431,"26":-0.12522874772548676,"27":-0.0417393334209919,"28":0.166255384683609,"29":-0.1205478087067604,"30":-0.25207599997520447,"31":-0.24630485475063324,"32":0.28290465474128723,"33":0.2966929078102112,"34":-0.19472549855709076,"35":0.2376483529806137,"36":-0.30100440979003906,"37":-0.12808750569820404,"38":0.15782666206359863,"39":0.37479549646377563}},"1":{"bias":0.005836332682520151,"weights":{"0":-0.22381927073001862,"1":-0.05460041016340256,"2":0.20763185620307922,"3":-0.07835470885038376,"4":-0.3107282221317291,"5":-0.28094223141670227,"6":-0.39350059628486633,"7":0.32818710803985596,"8":-0.021441468968987465,"9":0.020919522270560265,"10":-0.13289958238601685,"11":-0.01649809628725052,"12":0.026651913300156593,"13":-0.07123202085494995,"14":-0.3783248960971832,"15":0.07247381657361984,"16":0.18464815616607666,"17":-0.016902601346373558,"18":0.019277311861515045,"19":-0.0874704048037529,"20":-0.1413479447364807,"21":-0.22024549543857574,"22":0.037887901067733765,"23":0.21172943711280823,"24":0.02685565873980522,"25":0.2990667521953583,"26":-0.062022291123867035,"27":-0.20320095121860504,"28":-0.046560995280742645,"29":0.04289325326681137,"30":-0.09278857707977295,"31":-0.04785836488008499,"32":0.05489742383360863,"33":-0.374991774559021,"34":-0.08663581311702728,"35":0.054040852934122086,"36":-0.019641222432255745,"37":-0.15380741655826569,"38":0.18115924298763275,"39":0.06620500236749649}},"2":{"bias":0.22403325140476227,"weights":{"0":0.09919639676809311,"1":-0.22724805772304535,"2":0.10510223358869553,"3":-0.1271284967660904,"4":-0.02000010386109352,"5":-0.013964315876364708,"6":0.09342356026172638,"7":-0.5060809850692749,"8":0.2260563224554062,"9":-0.055068109184503555,"10":0.09264187514781952,"11":0.07884518057107925,"12":0.15646572411060333,"13":-0.28223076462745667,"14":0.04838932305574417,"15":0.1849203109741211,"16":-0.072877898812294,"17":-0.15914198756217957,"18":0.20006795227527618,"19":-0.09017428010702133,"20":0.3306213319301605,"21":-0.15247473120689392,"22":0.024569520726799965,"23":-0.3375965356826782,"24":-0.13424186408519745,"25":-0.3820544183254242,"26":0.24809034168720245,"27":-0.29706260561943054,"28":-0.14861619472503662,"29":0.17628192901611328,"30":-0.043781578540802,"31":0.042137693613767624,"32":-0.0978926345705986,"33":0.3063885569572449,"34":-0.33043548464775085,"35":-0.01360071636736393,"36":-0.2545948028564453,"37":0.16161192953586578,"38":-0.5751807689666748,"39":-0.12216351926326752}},"3":{"bias":-0.34057164192199707,"weights":{"0":-0.0011961113195866346,"1":-0.05279390141367912,"2":-0.07138808816671371,"3":-0.1497097909450531,"4":-0.04054529219865799,"5":-0.008056923747062683,"6":-0.059115178883075714,"7":0.035462185740470886,"8":-0.14442217350006104,"9":0.10226135700941086,"10":-0.10486070066690445,"11":-0.028834396973252296,"12":0.13992621004581451,"13":-0.03889278694987297,"14":0.33561867475509644,"15":0.01870124787092209,"16":-0.03999611362814903,"17":-0.07300631701946259,"18":-0.19196642935276031,"19":-0.18343187868595123,"20":0.14699438214302063,"21":0.10123007744550705,"22":-0.041793204843997955,"23":0.22997939586639404,"24":-0.01746245287358761,"25":0.2234041690826416,"26":-0.1746259480714798,"27":0.055331040173769,"28":-0.05650586262345314,"29":0.2039843052625656,"30":0.07157411426305771,"31":-0.19684752821922302,"32":-0.09753444045782089,"33":-0.2228567749261856,"34":0.024319808930158615,"35":-0.06330523639917374,"36":-0.28392279148101807,"37":0.17217417061328888,"38":0.19193801283836365,"39":-0.08851411938667297}},"4":{"bias":-0.6197006702423096,"weights":{"0":0.17344263195991516,"1":-0.3003946840763092,"2":0.17641453444957733,"3":-0.058421790599823,"4":-0.049421798437833786,"5":0.08919298648834229,"6":0.06035870313644409,"7":-0.35784289240837097,"8":0.20668932795524597,"9":0.09385580569505692,"10":-0.04481365904211998,"11":0.18628469109535217,"12":0.11950696259737015,"13":-0.1107628270983696,"14":0.02010730281472206,"15":0.010042032226920128,"16":-0.21163178980350494,"17":-0.5089231133460999,"18":-0.01290267426520586,"19":0.14019833505153656,"20":0.24790818989276886,"21":0.09461672604084015,"22":0.4349042773246765,"23":0.10480037331581116,"24":1.0193806886672974,"25":0.1778610348701477,"26":-0.1624298393726349,"27":0.03718896210193634,"28":-0.07607734203338623,"29":0.0655185878276825,"30":0.19655084609985352,"31":0.13746322691440582,"32":0.24987779557704926,"33":0.27415597438812256,"34":0.16057956218719482,"35":0.10581053048372269,"36":0.01825837790966034,"37":0.05010628700256348,"38":-0.21374289691448212,"39":0.043558429926633835}},"5":{"bias":0.35492560267448425,"weights":{"0":0.058455195277929306,"1":0.13345104455947876,"2":0.029026344418525696,"3":0.010459516197443008,"4":-0.034708719700574875,"5":-0.05921229347586632,"6":0.025529779493808746,"7":0.2369852513074875,"8":-0.12451456487178802,"9":0.0866612121462822,"10":0.14773991703987122,"11":-0.04353390634059906,"12":-0.06752443313598633,"13":0.02416057512164116,"14":0.1634921133518219,"15":0.23866064846515656,"16":-0.035709649324417114,"17":-0.16370882093906403,"18":0.022536760196089745,"19":0.004385247826576233,"20":-0.06960031390190125,"21":0.24632062017917633,"22":-0.17380988597869873,"23":-0.10200658440589905,"24":-0.1577281951904297,"25":0.06966359168291092,"26":0.0008005528361536562,"27":0.06259246170520782,"28":0.044581715017557144,"29":0.12869474291801453,"30":-0.02030402235686779,"31":-0.11377929896116257,"32":-0.12434524297714233,"33":0.047631822526454926,"34":-0.025208605453372,"35":-0.30117884278297424,"36":0.12231159955263138,"37":0.035133689641952515,"38":-0.06729958951473236,"39":-0.18836236000061035}},"6":{"bias":0.0771186351776123,"weights":{"0":-0.0766739547252655,"1":-0.1157274916768074,"2":-0.05030139163136482,"3":0.10572140663862228,"4":-0.05481458827853203,"5":-0.1976030319929123,"6":0.10786596685647964,"7":-0.07099689543247223,"8":-0.08460620045661926,"9":-0.0158611461520195,"10":-0.18494173884391785,"11":-0.013121047057211399,"12":-0.09296201914548874,"13":0.17688828706741333,"14":0.01474322285503149,"15":0.1892995685338974,"16":0.30907586216926575,"17":0.36276835203170776,"18":-0.18289406597614288,"19":0.2623533010482788,"20":0.06571807712316513,"21":-0.04848698526620865,"22":-0.2778957486152649,"23":-0.18189093470573425,"24":0.2607986032962799,"25":-0.21251778304576874,"26":0.19904614984989166,"27":-0.04427023231983185,"28":-0.0032755839638412,"29":-0.29935866594314575,"30":-0.018878640606999397,"31":-0.024569636210799217,"32":0.11980479210615158,"33":-0.09224952757358551,"34":-0.2303767055273056,"35":-0.17729152739048004,"36":-0.00323436944745481,"37":-0.08621810376644135,"38":-0.033634595572948456,"39":-0.06865030527114868}},"7":{"bias":1.3009735345840454,"weights":{"0":-0.1753714382648468,"1":-0.0636662170290947,"2":-0.051258496940135956,"3":-0.004917899612337351,"4":0.02327474020421505,"5":0.11590585112571716,"6":0.00580807588994503,"7":0.11500298976898193,"8":0.01661907322704792,"9":0.10709280520677567,"10":-0.01729140616953373,"11":0.06616301089525223,"12":-0.17058739066123962,"13":-0.0792386457324028,"14":0.1950557976961136,"15":0.04274978116154671,"16":-0.2712639272212982,"17":0.20744578540325165,"18":0.11210256069898605,"19":-0.0049741026014089584,"20":-0.02841157093644142,"21":-0.16116836667060852,"22":-0.011948322877287865,"23":-0.05113723501563072,"24":0.2707973122596741,"25":0.05727563053369522,"26":0.03461524471640587,"27":-0.24964505434036255,"28":0.07959511131048203,"29":-0.05242667347192764,"30":0.012636988423764706,"31":0.20164050161838531,"32":0.05916190147399902,"33":0.06854669749736786,"34":0.2938249111175537,"35":-0.14022836089134216,"36":0.016747044399380684,"37":0.34940585494041443,"38":0.06306584924459457,"39":-0.10421770811080933}},"8":{"bias":0.12333672493696213,"weights":{"0":-0.16218237578868866,"1":0.12045181542634964,"2":-0.24134351313114166,"3":0.3435382544994354,"4":0.3645629286766052,"5":0.008392264135181904,"6":-0.166211798787117,"7":0.21733948588371277,"8":-0.053157977759838104,"9":0.08068090677261353,"10":-0.09585543721914291,"11":-0.02289697527885437,"12":0.032541047781705856,"13":0.03352409973740578,"14":-0.039258770644664764,"15":-0.24799738824367523,"16":0.12668465077877045,"17":0.23617126047611237,"18":-0.0997214987874031,"19":0.11401215195655823,"20":-0.3639005124568939,"21":-0.2690618634223938,"22":0.022590087726712227,"23":-0.08543618023395538,"24":0.13099290430545807,"25":0.06456766277551651,"26":0.1820363700389862,"27":0.05730191245675087,"28":0.2862650156021118,"29":0.12757790088653564,"30":-0.23238921165466309,"31":-0.0680503249168396,"32":0.28331899642944336,"33":0.0010312222875654697,"34":0.00042775209294632077,"35":-0.08018171042203903,"36":-0.15241234004497528,"37":0.032918862998485565,"38":0.37158453464508057,"39":0.13500462472438812}},"9":{"bias":-0.011182974092662334,"weights":{"0":0.025144226849079132,"1":-0.22546523809432983,"2":-0.2592443525791168,"3":-0.182237908244133,"4":0.0814598798751831,"5":-0.09318415075540543,"6":0.08184629678726196,"7":-0.1800495833158493,"8":0.09078869968652725,"9":0.0814644917845726,"10":-0.016168510541319847,"11":-0.02087371051311493,"12":-0.08762065321207047,"13":0.023083871230483055,"14":-0.059393685311079025,"15":-0.0958608090877533,"16":-0.15090380609035492,"17":0.0619509182870388,"18":0.03195125237107277,"19":-0.17425037920475006,"20":-0.2315583974123001,"21":-0.12330065667629242,"22":-0.1500357836484909,"23":-0.1253528594970703,"24":0.11511348932981491,"25":0.10697003453969955,"26":0.1054588332772255,"27":-0.045850757509469986,"28":0.13613556325435638,"29":0.24652910232543945,"30":0.007422432769089937,"31":-0.17959174513816833,"32":0.0992487296462059,"33":0.11092597991228104,"34":0.20806096494197845,"35":0.2655886709690094,"36":0.4871240258216858,"37":-0.022950544953346252,"38":0.11558430641889572,"39":0.08996603637933731}},"10":{"bias":-1.299673080444336,"weights":{"0":0.05697477608919144,"1":-0.04412681236863136,"2":-0.12273291498422623,"3":-0.044730693101882935,"4":0.28821349143981934,"5":0.07459437847137451,"6":-0.064134880900383,"7":-0.3754446506500244,"8":-0.15089452266693115,"9":0.16677790880203247,"10":-0.05116491764783859,"11":-0.024960219860076904,"12":0.24350695312023163,"13":-0.1539517343044281,"14":-0.11789590120315552,"15":-0.02684255875647068,"16":-0.03717473894357681,"17":0.14029312133789062,"18":0.03680194914340973,"19":0.0611257404088974,"20":0.11392108350992203,"21":-0.029618039727211,"22":-0.09267004579305649,"23":0.05766373127698898,"24":0.07083103060722351,"25":0.1407623440027237,"26":0.21928671002388,"27":-0.016477296128869057,"28":-0.030191008001565933,"29":0.05334068834781647,"30":-0.027001895010471344,"31":-0.4305456578731537,"32":0.17330731451511383,"33":0.39699363708496094,"34":-0.11545702815055847,"35":0.2327924370765686,"36":-0.038402169942855835,"37":-0.02570943906903267,"38":-0.031221557408571243,"39":0.16163323819637299}},"11":{"bias":-0.13837505877017975,"weights":{"0":-0.674952507019043,"1":-0.04135143384337425,"2":0.10127978771924973,"3":0.11142582446336746,"4":-0.10013404488563538,"5":-0.01757296547293663,"6":-0.2978118658065796,"7":0.0632397010922432,"8":-0.24922598898410797,"9":-0.05655231699347496,"10":0.25564077496528625,"11":0.000869289506226778,"12":0.20865702629089355,"13":0.14567802846431732,"14":-0.08982880413532257,"15":0.2208678275346756,"16":-0.12099850177764893,"17":-0.07727407664060593,"18":0.13217796385288239,"19":0.07183979451656342,"20":-0.14832881093025208,"21":0.0730617567896843,"22":-0.05977056547999382,"23":-0.31539252400398254,"24":-0.0891311839222908,"25":-0.2761520743370056,"26":-0.0911327376961708,"27":-0.03070700168609619,"28":-0.11497696489095688,"29":0.09689120948314667,"30":-0.1745951920747757,"31":0.15125629305839539,"32":0.09966770559549332,"33":0.18285763263702393,"34":0.1840776801109314,"35":0.19011351466178894,"36":-0.0778905376791954,"37":0.19031307101249695,"38":0.04117879271507263,"39":-0.1788032054901123}},"12":{"bias":-0.36462002992630005,"weights":{"0":0.037941958755254745,"1":0.05364072695374489,"2":-0.14057683944702148,"3":0.1784810572862625,"4":0.10794763267040253,"5":-0.3592425286769867,"6":0.08628735691308975,"7":0.08954010903835297,"8":-0.0826425701379776,"9":-0.02127239666879177,"10":-0.24576468765735626,"11":-0.07023562490940094,"12":-0.06649625301361084,"13":0.04472466930747032,"14":-0.03679455816745758,"15":0.010789543390274048,"16":0.010770607739686966,"17":-0.0662321075797081,"18":-0.4357270896434784,"19":0.12253318727016449,"20":-0.0962928831577301,"21":-0.10436467081308365,"22":0.12125223875045776,"23":0.26080602407455444,"24":0.4058854281902313,"25":-0.20215186476707458,"26":0.3183504641056061,"27":0.04432631656527519,"28":0.17171940207481384,"29":-0.1714194416999817,"30":0.009327578358352184,"31":-0.02016393467783928,"32":0.06515712291002274,"33":-0.03848779574036598,"34":-0.012679002247750759,"35":-0.08202851563692093,"36":-0.0334358811378479,"37":0.012101533822715282,"38":0.036212481558322906,"39":0.2850724756717682}},"13":{"bias":1.6339654922485352,"weights":{"0":-0.029796097427606583,"1":0.0105955321341753,"2":0.02869008108973503,"3":-0.03125777468085289,"4":-0.3730451762676239,"5":0.165505513548851,"6":0.03408448025584221,"7":0.14357325434684753,"8":0.21199072897434235,"9":-0.008512802422046661,"10":-0.04009271785616875,"11":-0.02299049124121666,"12":-0.011339361779391766,"13":0.1080373078584671,"14":0.06620554625988007,"15":0.1901460736989975,"16":-0.1923535168170929,"17":0.06909864395856857,"18":-0.13026916980743408,"19":0.05880739167332649,"20":0.14531920850276947,"21":0.21757929027080536,"22":0.2896084189414978,"23":-0.09396357834339142,"24":0.09563068300485611,"25":-0.12005286663770676,"26":-0.21095235645771027,"27":-0.024274984374642372,"28":-0.019751764833927155,"29":0.1285049468278885,"30":0.15067127346992493,"31":0.029659662395715714,"32":0.02111884392797947,"33":0.26556557416915894,"34":0.11135347187519073,"35":-0.020435074344277382,"36":0.14246365427970886,"37":0.041221167892217636,"38":-0.18739980459213257,"39":-0.11678983271121979}},"14":{"bias":0.21486198902130127,"weights":{"0":0.02012212760746479,"1":-0.07986800372600555,"2":-0.21728050708770752,"3":-0.1956092268228531,"4":0.03522010147571564,"5":0.07139046490192413,"6":-0.2621535360813141,"7":0.15740051865577698,"8":0.15248540043830872,"9":0.3543989062309265,"10":0.10946264863014221,"11":-0.03571285307407379,"12":0.09680011123418808,"13":0.2716113030910492,"14":-0.06131824105978012,"15":0.4989694058895111,"16":0.17161445319652557,"17":0.08282938599586487,"18":0.12674053013324738,"19":-0.09943915903568268,"20":0.2977484464645386,"21":-0.26796406507492065,"22":0.005522438324987888,"23":0.08415741473436356,"24":0.045341916382312775,"25":-0.20836511254310608,"26":0.17743831872940063,"27":0.30982527136802673,"28":-0.16679520905017853,"29":-0.026998182758688927,"30":-0.18834152817726135,"31":0.010211593471467495,"32":0.062111079692840576,"33":0.07413047552108765,"34":-0.1656065434217453,"35":-0.08961281925439835,"36":-0.008916687220335007,"37":0.01728401705622673,"38":0.035251349210739136,"39":0.253286749124527}},"15":{"bias":0.131431445479393,"weights":{"0":-0.13024260103702545,"1":0.09843681007623672,"2":-0.03599027171730995,"3":0.011142018251121044,"4":-0.0856487900018692,"5":0.0697823241353035,"6":0.10928512364625931,"7":-0.03788500651717186,"8":-0.04192163050174713,"9":0.03459949418902397,"10":0.07192929089069366,"11":-0.11139603704214096,"12":0.051454588770866394,"13":0.07189695537090302,"14":0.17302051186561584,"15":-0.368404746055603,"16":0.13566124439239502,"17":0.06084706634283066,"18":0.046883195638656616,"19":-0.24332810938358307,"20":-0.23018351197242737,"21":-0.0762132778763771,"22":-0.06970027089118958,"23":0.5002784729003906,"24":-0.017162997275590897,"25":0.10950718820095062,"26":0.1648566722869873,"27":-0.18863879144191742,"28":-0.23372377455234528,"29":-0.2451528012752533,"30":-0.018806438893079758,"31":-0.1285291165113449,"32":0.37934452295303345,"33":0.2862108647823334,"34":-0.09901604801416397,"35":-0.11928024142980576,"36":-0.011686242185533047,"37":-0.046537671238183975,"38":-0.15915149450302124,"39":0.049691084772348404}},"16":{"bias":-0.014154951088130474,"weights":{"0":-0.16250191628932953,"1":-0.2414856106042862,"2":-0.24033889174461365,"3":-0.2842863202095032,"4":-0.31193456053733826,"5":0.0993708148598671,"6":-0.18015283346176147,"7":0.05072206258773804,"8":-0.14000661671161652,"9":-0.013894123956561089,"10":0.16195893287658691,"11":0.017524538561701775,"12":0.046757303178310394,"13":-0.2994318902492523,"14":0.0010150521993637085,"15":0.17672322690486908,"16":0.06179105117917061,"17":-0.07439568638801575,"18":-0.1961437314748764,"19":-0.3146728277206421,"20":0.054481953382492065,"21":0.11544586718082428,"22":0.05896696448326111,"23":-0.014513673260807991,"24":-0.04929044470191002,"25":0.15341278910636902,"26":0.07494135200977325,"27":-0.08854040503501892,"28":-0.16060148179531097,"29":-0.1392497569322586,"30":-0.0036054528318345547,"31":-0.14272402226924896,"32":-0.005968331824988127,"33":0.288998007774353,"34":0.00302190613001585,"35":0.09190910309553146,"36":-0.05563745275139809,"37":-0.019395316019654274,"38":-0.21584603190422058,"39":-0.08501879870891571}},"17":{"bias":-0.2269103229045868,"weights":{"0":0.018001029267907143,"1":0.14377108216285706,"2":0.27323099970817566,"3":-0.12155961245298386,"4":0.26668310165405273,"5":0.05305542051792145,"6":0.020769963040947914,"7":-0.11122846603393555,"8":0.1605396270751953,"9":0.10620870441198349,"10":-0.22520677745342255,"11":-0.016043905168771744,"12":0.10735052824020386,"13":-0.0344279445707798,"14":-0.2628827691078186,"15":0.07473526895046234,"16":0.02428220771253109,"17":0.5148494839668274,"18":0.09266253560781479,"19":-0.14460833370685577,"20":0.03391731157898903,"21":0.2338949739933014,"22":0.2102842628955841,"23":0.313518226146698,"24":0.34803739190101624,"25":-0.2509569823741913,"26":0.013645254075527191,"27":-0.017247827723622322,"28":-0.13285787403583527,"29":0.11987695097923279,"30":0.18241922557353973,"31":-0.2036871463060379,"32":-0.06951816380023956,"33":0.03980240225791931,"34":-0.04195412993431091,"35":0.12466996163129807,"36":-0.37792646884918213,"37":-0.12703309953212738,"38":-0.10576063394546509,"39":-0.21893803775310516}},"18":{"bias":0.28773635625839233,"weights":{"0":0.024300895631313324,"1":-0.3526647388935089,"2":0.4395703673362732,"3":-0.28715336322784424,"4":-0.23040679097175598,"5":0.1075945720076561,"6":0.07482470571994781,"7":0.0458032451570034,"8":-0.2075037807226181,"9":0.17071323096752167,"10":0.10740239918231964,"11":0.006821934599429369,"12":0.003921753726899624,"13":0.24831123650074005,"14":-0.33755889534950256,"15":-0.04832739382982254,"16":-0.07677365094423294,"17":0.09004661440849304,"18":-0.5241510272026062,"19":0.08540035784244537,"20":0.014184434898197651,"21":-0.07628856599330902,"22":0.1915481686592102,"23":-0.11546485126018524,"24":-0.027840742841362953,"25":0.13373133540153503,"26":-0.08169624209403992,"27":-0.05099445953965187,"28":0.0011461252579465508,"29":0.10225694626569748,"30":0.04560299962759018,"31":0.2476448118686676,"32":-0.12773975729942322,"33":0.008710954338312149,"34":0.018208883702754974,"35":0.0949968621134758,"36":0.10409902036190033,"37":0.14077918231487274,"38":0.1687861680984497,"39":-0.18631960451602936}},"19":{"bias":0.4189622104167938,"weights":{"0":0.06265462934970856,"1":0.16475872695446014,"2":-0.011827189475297928,"3":-0.32816654443740845,"4":-0.34279388189315796,"5":-0.10961107909679413,"6":0.2763521373271942,"7":-0.005015839822590351,"8":0.22208943963050842,"9":-0.3430156111717224,"10":0.02369212731719017,"11":0.0221937857568264,"12":0.2808983623981476,"13":-0.1163475513458252,"14":-0.07961748540401459,"15":0.21069620549678802,"16":-0.10933425277471542,"17":-0.08379378914833069,"18":0.37519848346710205,"19":-0.02284964919090271,"20":0.16397371888160706,"21":-0.027430156245827675,"22":-0.28057244420051575,"23":-0.2291354238986969,"24":0.10135850310325623,"25":-0.018471278250217438,"26":-0.1360698938369751,"27":-0.18225453794002533,"28":-0.16665512323379517,"29":-0.003089732490479946,"30":-0.061039116233587265,"31":0.05628077685832977,"32":-0.06035945564508438,"33":0.07796230167150497,"34":-0.11691093444824219,"35":0.4274986684322357,"36":-0.04121483862400055,"37":0.08734634518623352,"38":-0.37378907203674316,"39":-0.21810127794742584}},"20":{"bias":-0.1645856499671936,"weights":{"0":-0.07094425708055496,"1":0.012151720002293587,"2":0.3374934792518616,"3":-0.1217603012919426,"4":0.3307470977306366,"5":0.044361408799886703,"6":0.04723387211561203,"7":0.23286372423171997,"8":-0.34472328424453735,"9":0.3330959677696228,"10":0.16762730479240417,"11":0.07559069246053696,"12":-0.08217650651931763,"13":0.30777686834335327,"14":-0.05025450512766838,"15":0.4842483401298523,"16":0.03415711969137192,"17":-0.12594293057918549,"18":0.28577929735183716,"19":0.021868085488677025,"20":0.07669733464717865,"21":-0.2929319441318512,"22":-0.2718433141708374,"23":0.0421874113380909,"24":-0.07275035232305527,"25":-0.016327546909451485,"26":-0.06359037011861801,"27":0.27685606479644775,"28":-0.1231079176068306,"29":-0.17642876505851746,"30":-0.06194579601287842,"31":-0.09174716472625732,"32":-0.016290271654725075,"33":-0.10661972314119339,"34":0.15666711330413818,"35":0.042414046823978424,"36":-0.0687805712223053,"37":0.014756462536752224,"38":0.18486997485160828,"39":0.3317175805568695}},"21":{"bias":0.2864523231983185,"weights":{"0":0.445534348487854,"1":-0.012195968069136143,"2":-0.09256216138601303,"3":0.1491965651512146,"4":0.04725058749318123,"5":0.10830029845237732,"6":0.06252068281173706,"7":-0.3399038016796112,"8":-0.19244247674942017,"9":-0.12862960994243622,"10":0.06872953474521637,"11":0.016004463657736778,"12":-0.12267234921455383,"13":0.15587706863880157,"14":0.14040175080299377,"15":-0.2168283760547638,"16":0.3771751821041107,"17":-0.008257154375314713,"18":-0.059833016246557236,"19":0.025178981944918633,"20":-0.059959132224321365,"21":-0.2513684630393982,"22":-0.15236152708530426,"23":0.33273962140083313,"24":0.19587567448616028,"25":-0.03091496042907238,"26":-0.009815189056098461,"27":0.13068385422229767,"28":0.13834787905216217,"29":0.2512645125389099,"30":0.3485819399356842,"31":0.007376363966614008,"32":-0.24626265466213226,"33":0.03159023076295853,"34":-0.010275048203766346,"35":0.11394163221120834,"36":-0.1552165150642395,"37":0.1974858045578003,"38":0.19095373153686523,"39":0.01781376637518406}},"22":{"bias":-0.2532198131084442,"weights":{"0":0.22755612432956696,"1":0.01124975923448801,"2":0.0012162302155047655,"3":-0.12993785738945007,"4":0.10116495192050934,"5":-0.06566200405359268,"6":0.10295391082763672,"7":-0.06761445105075836,"8":-0.19062945246696472,"9":-0.17975641787052155,"10":0.07887118309736252,"11":-0.03202269971370697,"12":-0.022209523245692253,"13":-0.26386818289756775,"14":-0.0173539686948061,"15":0.5410376787185669,"16":0.1113872304558754,"17":0.011838173493742943,"18":-0.011580280028283596,"19":-0.053985074162483215,"20":-0.5555094480514526,"21":-0.004412882495671511,"22":0.026568152010440826,"23":-0.1531134992837906,"24":-0.09217167645692825,"25":0.15599043667316437,"26":0.012317629531025887,"27":-0.1296423077583313,"28":0.018917256966233253,"29":0.0009701106464490294,"30":-0.044222086668014526,"31":-0.047999992966651917,"32":-0.21014608442783356,"33":0.07183068990707397,"34":0.05952104553580284,"35":0.24889060854911804,"36":-0.006520099937915802,"37":-0.2582169473171234,"38":0.735629677772522,"39":0.08962453901767731}},"23":{"bias":0.07455512136220932,"weights":{"0":0.014739101752638817,"1":-0.08419345319271088,"2":0.10203529894351959,"3":-0.02519669383764267,"4":-0.09602797031402588,"5":-0.13616085052490234,"6":-0.09530258178710938,"7":-0.37437212467193604,"8":0.049153830856084824,"9":-0.010206381790339947,"10":0.07382208853960037,"11":-0.05451495945453644,"12":-0.08623211085796356,"13":0.033976960927248,"14":0.5071757435798645,"15":-0.1823684424161911,"16":-0.12524259090423584,"17":0.25744059681892395,"18":-0.021104823797941208,"19":0.09174013882875443,"20":-0.08108644187450409,"21":0.05858732759952545,"22":0.02093999646604061,"23":0.04272265359759331,"24":-0.12427393347024918,"25":-0.021135155111551285,"26":-0.07747029513120651,"27":0.3499069809913635,"28":-0.02106236107647419,"29":-0.046657830476760864,"30":0.15709012746810913,"31":0.5817884206771851,"32":0.04260953143239021,"33":0.04760872572660446,"34":-0.021310506388545036,"35":0.02572985738515854,"36":-0.10906872153282166,"37":-0.1950369030237198,"38":0.017693033441901207,"39":0.0108103072270751}},"24":{"bias":0.2969273626804352,"weights":{"0":-0.03908410668373108,"1":0.09903639554977417,"2":0.1037013903260231,"3":-0.25031960010528564,"4":-0.1560480296611786,"5":-0.12124288827180862,"6":-0.023688824847340584,"7":-0.33229878544807434,"8":0.005614229012280703,"9":-0.09090681374073029,"10":0.15941055119037628,"11":0.004601228516548872,"12":0.20777888596057892,"13":0.01717018522322178,"14":-0.27189773321151733,"15":0.014795545488595963,"16":-0.09001359343528748,"17":0.03564421087503433,"18":0.1077231615781784,"19":0.07666891813278198,"20":-0.1518438309431076,"21":0.07486937195062637,"22":-0.3022304177284241,"23":-0.055009592324495316,"24":-0.13527053594589233,"25":-0.04561685025691986,"26":-0.0029335797298699617,"27":0.07208400964736938,"28":-0.1335582733154297,"29":-0.054707858711481094,"30":-0.06044362485408783,"31":0.09274392575025558,"32":0.021981770172715187,"33":0.12250867486000061,"34":0.2495621144771576,"35":-0.11888780444860458,"36":0.2240864783525467,"37":0.19376106560230255,"38":-0.21065455675125122,"39":0.09162666648626328}},"25":{"bias":0.2785435914993286,"weights":{"0":0.20127809047698975,"1":0.09968911856412888,"2":-0.22860650718212128,"3":-0.016006022691726685,"4":-0.2431478351354599,"5":0.16011732816696167,"6":0.12868782877922058,"7":0.21647921204566956,"8":-0.07828814536333084,"9":-0.10165796428918839,"10":0.047627951949834824,"11":0.11572335660457611,"12":-0.02551698312163353,"13":-0.08177713304758072,"14":0.16782423853874207,"15":0.058569833636283875,"16":-0.2467629611492157,"17":0.19576440751552582,"18":0.09641768038272858,"19":-0.07964658737182617,"20":0.06195913255214691,"21":-0.16340875625610352,"22":0.07541055232286453,"23":0.04211041331291199,"24":-0.14498254656791687,"25":-0.19544923305511475,"26":0.14387807250022888,"27":-0.13000617921352386,"28":-0.2047162652015686,"29":0.03204306215047836,"30":0.061220936477184296,"31":-0.11450693756341934,"32":-0.21031638979911804,"33":0.011678569950163364,"34":-0.2544836699962616,"35":0.00930405780673027,"36":0.18970228731632233,"37":0.29739469289779663,"38":-0.11140969395637512,"39":-0.09211699664592743}},"26":{"bias":0.4884600341320038,"weights":{"0":0.027182025834918022,"1":0.006618985440582037,"2":0.10596610605716705,"3":-0.11477530747652054,"4":-0.16660721600055695,"5":-0.24700476229190826,"6":-0.2230788916349411,"7":-0.17595882713794708,"8":-0.08211033046245575,"9":-0.024268584325909615,"10":0.0027202926576137543,"11":-0.15396824479103088,"12":-0.0014374962775036693,"13":0.25052741169929504,"14":0.03347352519631386,"15":0.023196280002593994,"16":-0.006376474164426327,"17":-0.1077396348118782,"18":0.12994155287742615,"19":-0.06461385637521744,"20":0.09782810509204865,"21":-0.041460588574409485,"22":0.4721411466598511,"23":-0.18540391325950623,"24":-0.004146277438849211,"25":0.39258259534835815,"26":-0.19544173777103424,"27":-0.11670079827308655,"28":-0.2153756469488144,"29":0.0023550756741315126,"30":-0.13014551997184753,"31":-0.059652701020240784,"32":0.1384396106004715,"33":0.04553764685988426,"34":-0.004027910530567169,"35":0.3239200711250305,"36":0.10209718346595764,"37":-0.07684735953807831,"38":-0.11869827657938004,"39":-0.28138917684555054}},"27":{"bias":-0.03627346083521843,"weights":{"0":0.032282911241054535,"1":0.31450170278549194,"2":-0.12825778126716614,"3":-0.19820354878902435,"4":0.10052041709423065,"5":0.14001913368701935,"6":-0.12923385202884674,"7":-0.03650210052728653,"8":0.12297115474939346,"9":-0.01936528831720352,"10":-0.1945676952600479,"11":-0.22100038826465607,"12":0.02996920421719551,"13":-0.14836706221103668,"14":-0.34199780225753784,"15":0.07646302133798599,"16":-0.08907219022512436,"17":0.04156153276562691,"18":-0.09677213430404663,"19":0.028848759829998016,"20":-0.08530283719301224,"21":0.11523690074682236,"22":-0.01955246739089489,"23":0.18541140854358673,"24":-0.1249588131904602,"25":0.22913981974124908,"26":0.22061437368392944,"27":-0.11742204427719116,"28":0.019302520900964737,"29":0.04461318254470825,"30":0.17597217857837677,"31":-0.22742153704166412,"32":0.09707576036453247,"33":0.23196162283420563,"34":-0.01264759711921215,"35":-0.3208290636539459,"36":-0.020119724795222282,"37":-0.14026953279972076,"38":0.05374843254685402,"39":0.004017758183181286}},"28":{"bias":0.04035552591085434,"weights":{"0":-0.029766231775283813,"1":-0.3455921709537506,"2":0.23510926961898804,"3":0.012569691985845566,"4":0.008875622414052486,"5":-0.1866728663444519,"6":0.14601723849773407,"7":-0.028646089136600494,"8":0.22192539274692535,"9":0.04806451126933098,"10":0.12037059664726257,"11":-0.23985229432582855,"12":-0.07583333551883698,"13":-0.13524560630321503,"14":0.07851861417293549,"15":0.03585159033536911,"16":-0.16162973642349243,"17":0.1328679770231247,"18":-0.1921897977590561,"19":0.31042906641960144,"20":0.1563039869070053,"21":-0.0029626034665852785,"22":0.15227597951889038,"23":-0.22170497477054596,"24":0.17500659823417664,"25":-0.01173490658402443,"26":0.1579638123512268,"27":-0.22625795006752014,"28":-0.32697373628616333,"29":-0.08441323786973953,"30":0.09579074382781982,"31":-0.08473993092775345,"32":0.20807220041751862,"33":0.2780923545360565,"34":0.12858867645263672,"35":0.3944292664527893,"36":0.14627739787101746,"37":0.029034890234470367,"38":-0.14411574602127075,"39":-0.24954436719417572}},"29":{"bias":0.14406991004943848,"weights":{"0":0.33150145411491394,"1":0.16464713215827942,"2":-0.14407774806022644,"3":-0.40879109501838684,"4":0.11298161745071411,"5":0.09654517471790314,"6":0.10789026319980621,"7":-0.09341298788785934,"8":-0.08422771841287613,"9":0.5180825591087341,"10":-0.3647949695587158,"11":0.0025913056451827288,"12":-0.07209598273038864,"13":-0.07297945022583008,"14":0.10106158256530762,"15":-0.11265947669744492,"16":-0.26946279406547546,"17":0.0529850535094738,"18":-0.030558887869119644,"19":0.07008351385593414,"20":0.5437245965003967,"21":-0.06764911860227585,"22":-0.02221527323126793,"23":0.00851895846426487,"24":0.004910531919449568,"25":0.20761971175670624,"26":0.08320443332195282,"27":0.32279670238494873,"28":-0.1520143300294876,"29":-0.1406751126050949,"30":-0.08603929728269577,"31":-0.12112516164779663,"32":0.29003268480300903,"33":-0.20492900907993317,"34":-0.16681985557079315,"35":-0.06096596643328667,"36":0.039160795509815216,"37":0.004599533975124359,"38":0.1891619861125946,"39":-0.15951839089393616}}},{"0":{"bias":-0.5577113628387451,"weights":{"0":0.15398521721363068,"1":-0.265155166387558,"2":0.1960752010345459,"3":0.12313242256641388,"4":-0.1765935719013214,"5":0.4369451701641083,"6":-0.04473232477903366,"7":0.238750621676445,"8":-0.3977302014827728,"9":0.25126999616622925,"10":0.3416438400745392,"11":-0.028563030064105988,"12":-0.5056859254837036,"13":-1.3665236234664917,"14":-0.010951374657452106,"15":-0.1364908665418625,"16":0.06488469243049622,"17":-0.3784365653991699,"18":-0.21543647348880768,"19":-0.13982489705085754,"20":-0.012586353346705437,"21":-0.19575858116149902,"22":-0.026921916753053665,"23":-0.24058836698532104,"24":-0.10632144659757614,"25":-0.020772619172930717,"26":0.02631729282438755,"27":0.35290488600730896,"28":0.06753361225128174,"29":-0.1284460872411728}},"1":{"bias":0.8058688640594482,"weights":{"0":0.13053008913993835,"1":0.03778592497110367,"2":-0.20869475603103638,"3":-0.3074650764465332,"4":0.04610125720500946,"5":-0.1972995102405548,"6":-0.13207106292247772,"7":0.1886005997657776,"8":0.5255953669548035,"9":0.05222154036164284,"10":-0.3218778073787689,"11":0.07733016461133957,"12":-0.20925772190093994,"13":0.9122296571731567,"14":0.035987675189971924,"15":-0.16664880514144897,"16":0.3662482500076294,"17":0.14462430775165558,"18":0.041533198207616806,"19":0.12494052201509476,"20":-0.18121659755706787,"21":0.0718480721116066,"22":0.13375236093997955,"23":-0.1270410418510437,"24":0.20833979547023773,"25":-0.053532373160123825,"26":0.057301707565784454,"27":0.07954835891723633,"28":-0.35064640641212463,"29":-0.12445306777954102}},"2":{"bias":0.9955618381500244,"weights":{"0":-0.011000454425811768,"1":0.287788987159729,"2":-0.21670719981193542,"3":-0.126855731010437,"4":0.07141775637865067,"5":-0.5163089036941528,"6":0.2980329096317291,"7":-0.18907387554645538,"8":0.540727972984314,"9":-0.11484184116125107,"10":0.21208728849887848,"11":-0.11038178950548172,"12":-0.11417246609926224,"13":1.2781530618667603,"14":-0.16962628066539764,"15":-0.09347990155220032,"16":-0.13864202797412872,"17":0.04409772902727127,"18":-0.5387519001960754,"19":-0.7103351354598999,"20":0.12821000814437866,"21":0.37132540345191956,"22":0.17970971763134003,"23":0.5655698776245117,"24":-0.05052069202065468,"25":0.006115315482020378,"26":-0.1951601654291153,"27":-0.18789218366146088,"28":0.17611189186573029,"29":0.24890479445457458}},"3":{"bias":0.09439589828252792,"weights":{"0":-0.17191585898399353,"1":-0.1700684130191803,"2":-0.20354700088500977,"3":-0.4165149927139282,"4":-0.0023299569729715586,"5":-0.1277620494365692,"6":0.027749067172408104,"7":-0.03295036405324936,"8":-0.1358720362186432,"9":-0.026459136977791786,"10":0.09481068700551987,"11":-0.20243676006793976,"12":-0.10674337297677994,"13":-0.3849995732307434,"14":-0.5951441526412964,"15":0.23247680068016052,"16":-0.04127637669444084,"17":-0.022353535518050194,"18":-0.10167057067155838,"19":-0.029434291645884514,"20":-0.4345926344394684,"21":0.2893408536911011,"22":0.15526461601257324,"23":-0.045693427324295044,"24":0.14253981411457062,"25":-0.04907836392521858,"26":-0.04684264957904816,"27":0.0194320697337389,"28":0.08616413176059723,"29":-0.6226756572723389}},"4":{"bias":1.9370769262313843,"weights":{"0":0.04265599325299263,"1":-0.05919243022799492,"2":-0.01762455888092518,"3":-0.4295576512813568,"4":-0.05900846794247627,"5":0.06667844206094742,"6":-0.1360112726688385,"7":-0.09910518676042557,"8":0.7284048199653625,"9":0.1817191243171692,"10":0.003011503955349326,"11":0.12100745737552643,"12":0.20771604776382446,"13":0.0019305757014080882,"14":-0.18585269153118134,"15":-0.18523180484771729,"16":-0.17185761034488678,"17":-0.7086414694786072,"18":-0.2607274651527405,"19":-0.58787602186203,"20":0.05665288120508194,"21":-0.016887245699763298,"22":0.24441568553447723,"23":-0.6143321990966797,"24":0.10088455677032471,"25":-0.145732119679451,"26":0.13538719713687897,"27":-0.05929432809352875,"28":-0.8012527823448181,"29":0.2139311134815216}},"5":{"bias":-0.5052794218063354,"weights":{"0":-0.02690417692065239,"1":0.1704784780740738,"2":0.18938347697257996,"3":0.29676973819732666,"4":-0.6138118505477905,"5":0.7863903641700745,"6":0.08430395275354385,"7":-0.12474210560321808,"8":-0.5770456790924072,"9":-0.415733277797699,"10":0.3986140489578247,"11":-0.197370707988739,"12":0.23374241590499878,"13":-1.1241170167922974,"14":0.17542587220668793,"15":-0.06325609982013702,"16":-0.1205599382519722,"17":0.31518328189849854,"18":-0.0021477725822478533,"19":-0.25519561767578125,"20":-0.14053013920783997,"21":-0.001168321236036718,"22":-0.19862039387226105,"23":-0.38924938440322876,"24":-0.037210188806056976,"25":0.049573712050914764,"26":-0.40514397621154785,"27":0.19698596000671387,"28":0.017632385715842247,"29":-0.15494473278522491}},"6":{"bias":0.9325657486915588,"weights":{"0":-0.15709443390369415,"1":-0.4935564696788788,"2":-0.11670075356960297,"3":0.0051234872080385685,"4":-0.18102991580963135,"5":0.2168114185333252,"6":-0.21134042739868164,"7":0.12858207523822784,"8":0.2816874086856842,"9":-0.28629571199417114,"10":-0.9003379344940186,"11":0.12960495054721832,"12":-0.08248661458492279,"13":0.4071536958217621,"14":-0.2993078827857971,"15":0.5660946369171143,"16":0.031225714832544327,"17":-0.018467668443918228,"18":0.14563438296318054,"19":-0.1295202672481537,"20":0.3160342276096344,"21":0.11062188446521759,"22":0.3731561601161957,"23":-0.006834261119365692,"24":-0.2762448191642761,"25":-0.014671416021883488,"26":0.1274007260799408,"27":-0.000048698992031859234,"28":0.2795276343822479,"29":0.10835829377174377}},"7":{"bias":0.18587753176689148,"weights":{"0":0.10606597363948822,"1":0.37267211079597473,"2":-0.009001048281788826,"3":-0.02620677463710308,"4":0.23909807205200195,"5":0.3114115297794342,"6":0.14798370003700256,"7":0.7738133668899536,"8":0.08811216056346893,"9":0.32308483123779297,"10":0.06588812917470932,"11":0.12756016850471497,"12":-0.028802018612623215,"13":-0.18492881953716278,"14":-0.021121051162481308,"15":-0.0434064120054245,"16":0.024592556059360504,"17":0.09224063903093338,"18":-0.14616677165031433,"19":0.14442768692970276,"20":-0.17425693571567535,"21":-0.34146711230278015,"22":0.39419639110565186,"23":0.15722957253456116,"24":0.4834677278995514,"25":0.0160269383341074,"26":-0.5140462517738342,"27":-0.12693415582180023,"28":-0.37514087557792664,"29":-0.2495611011981964}},"8":{"bias":0.17174114286899567,"weights":{"0":0.27054858207702637,"1":0.16039001941680908,"2":0.025820298120379448,"3":0.41394639015197754,"4":0.1451798379421234,"5":-0.7804909348487854,"6":-0.5964534878730774,"7":-0.10636071115732193,"8":-0.5068520903587341,"9":0.19387809932231903,"10":0.25291240215301514,"11":-0.11545926332473755,"12":-0.26880237460136414,"13":-0.14919990301132202,"14":0.21020273864269257,"15":-0.18035316467285156,"16":0.0791548490524292,"17":-0.03287484496831894,"18":-0.14435544610023499,"19":0.3834790289402008,"20":-0.2595120072364807,"21":0.15666958689689636,"22":-0.4185011088848114,"23":-0.3511650264263153,"24":-0.04299873858690262,"25":-0.4148751497268677,"26":-0.30569833517074585,"27":-0.8255088925361633,"28":-0.25790920853614807,"29":0.043178390711545944}},"9":{"bias":-1.1592072248458862,"weights":{"0":0.10498616844415665,"1":-0.1025097444653511,"2":0.15843045711517334,"3":0.13724344968795776,"4":0.8952493071556091,"5":0.1599668711423874,"6":-0.23073159158229828,"7":0.2061346173286438,"8":0.10697764158248901,"9":-0.1861850768327713,"10":0.59930020570755,"11":-0.2524249851703644,"12":-0.051550641655921936,"13":-0.49837052822113037,"14":-0.010371326468884945,"15":-0.02106601931154728,"16":0.026340067386627197,"17":-0.16547149419784546,"18":0.021303690969944,"19":0.24029086530208588,"20":0.1257285326719284,"21":0.05246106907725334,"22":-0.2420094907283783,"23":-0.008480077609419823,"24":-0.03282425180077553,"25":0.062091998755931854,"26":-0.43418535590171814,"27":0.05635320022702217,"28":-0.1038244366645813,"29":0.11028420925140381}},"10":{"bias":1.1191623210906982,"weights":{"0":-0.35706254839897156,"1":-0.16221801936626434,"2":-0.1897798776626587,"3":-0.23004962503910065,"4":-0.35965198278427124,"5":-0.5666251182556152,"6":-0.07022376358509064,"7":0.2874390780925751,"8":0.45070210099220276,"9":-0.21331292390823364,"10":-0.4245305061340332,"11":0.07487615197896957,"12":-0.1441311240196228,"13":0.9385638236999512,"14":-0.14968763291835785,"15":0.094686359167099,"16":0.2768345773220062,"17":0.04115363955497742,"18":0.04657559096813202,"19":0.00047154389903880656,"20":-0.36340731382369995,"21":0.241080641746521,"22":0.11743667721748352,"23":0.26038628816604614,"24":0.12498863786458969,"25":-0.08092624694108963,"26":0.34428390860557556,"27":0.05079019069671631,"28":-0.08954497426748276,"29":0.22853225469589233}},"11":{"bias":0.41619524359703064,"weights":{"0":0.19416853785514832,"1":-0.19786043465137482,"2":0.20915581285953522,"3":-0.1315949708223343,"4":-0.3841887414455414,"5":-0.43618229031562805,"6":-0.29689326882362366,"7":-0.1617022454738617,"8":0.6089762449264526,"9":0.2118614912033081,"10":-0.06825298070907593,"11":0.25451910495758057,"12":-0.10165304690599442,"13":1.0666621923446655,"14":-0.049866966903209686,"15":-0.2661021649837494,"16":0.19342371821403503,"17":0.47923529148101807,"18":-0.16646957397460938,"19":0.34192726016044617,"20":0.16718515753746033,"21":0.08552227914333344,"22":-0.1661817878484726,"23":-0.006007069256156683,"24":0.44060656428337097,"25":-0.28006333112716675,"26":0.062141310423612595,"27":-0.06924623996019363,"28":0.1509709358215332,"29":0.35730814933776855}},"12":{"bias":-0.20177604258060455,"weights":{"0":0.027450622990727425,"1":0.11220093071460724,"2":-0.13787278532981873,"3":0.2123708724975586,"4":0.27000096440315247,"5":0.2770950198173523,"6":0.26175132393836975,"7":-0.33714723587036133,"8":-0.20423142611980438,"9":-0.21158815920352936,"10":0.5046466588973999,"11":0.006136283278465271,"12":0.19672791659832,"13":-0.9650024175643921,"14":0.0060028634034097195,"15":-0.31376340985298157,"16":-0.1145111545920372,"17":0.1412489414215088,"18":0.3409992754459381,"19":-0.1472966969013214,"20":-0.18661761283874512,"21":0.1345176100730896,"22":-0.22423405945301056,"23":-0.23212981224060059,"24":-0.137304425239563,"25":-0.2591564357280731,"26":0.08116836845874786,"27":-0.14161135256290436,"28":-0.257310688495636,"29":-0.04745551571249962}},"13":{"bias":-0.7050014138221741,"weights":{"0":0.3447352647781372,"1":0.1695723533630371,"2":0.012619959190487862,"3":-0.04198887571692467,"4":-0.11189085990190506,"5":0.27777382731437683,"6":-0.1849101185798645,"7":-0.3427441716194153,"8":-0.1731577217578888,"9":0.12254190444946289,"10":0.3593144118785858,"11":-0.3267870843410492,"12":0.09850595146417618,"13":-0.8645127415657043,"14":0.1470179557800293,"15":0.6459872722625732,"16":0.24108731746673584,"17":-0.03794335573911667,"18":0.29945316910743713,"19":0.18669094145298004,"20":-0.31356245279312134,"21":0.05764555186033249,"22":-0.012307093478739262,"23":-0.49973151087760925,"24":-0.04911528527736664,"25":-0.03558770567178726,"26":-0.08364345133304596,"27":0.1518903374671936,"28":-0.28828996419906616,"29":0.03404413163661957}},"14":{"bias":0.3386419713497162,"weights":{"0":0.09120244532823563,"1":-0.0925925225019455,"2":-0.30240100622177124,"3":0.0767325609922409,"4":0.08338860422372818,"5":0.026129474863409996,"6":-0.06324044615030289,"7":0.11976007372140884,"8":-0.5492878556251526,"9":-0.19911304116249084,"10":0.08125859498977661,"11":-0.2648080289363861,"12":0.1401551365852356,"13":-0.5715619325637817,"14":0.1333988606929779,"15":0.06439477205276489,"16":0.07488852739334106,"17":-0.029038500040769577,"18":0.20465002954006195,"19":-0.16477757692337036,"20":0.0007083273376338184,"21":-0.13871563971042633,"22":0.0064718774519860744,"23":-0.19864210486412048,"24":0.1839914470911026,"25":-0.061434656381607056,"26":0.07570330053567886,"27":0.13948634266853333,"28":-0.2411329746246338,"29":0.06033165752887726}},"15":{"bias":0.7217114567756653,"weights":{"0":0.016522517427802086,"1":0.03421809524297714,"2":0.0002467919257469475,"3":0.04258294776082039,"4":0.506945013999939,"5":-0.016421200707554817,"6":-0.33038607239723206,"7":0.16607819497585297,"8":-0.12206195294857025,"9":0.021859943866729736,"10":-0.4589954614639282,"11":-0.24960289895534515,"12":0.09197194129228592,"13":0.35152122378349304,"14":-0.17793183028697968,"15":0.07357145845890045,"16":0.00009306836000178009,"17":0.20721614360809326,"18":-0.08790738135576248,"19":0.08472020924091339,"20":0.155760258436203,"21":0.13768160343170166,"22":-0.01911940984427929,"23":0.14750711619853973,"24":-0.142716184258461,"25":0.014683653600513935,"26":-0.09993651509284973,"27":0.05050225928425789,"28":0.14279136061668396,"29":0.03045022301375866}},"16":{"bias":-0.7612273097038269,"weights":{"0":0.2774389684200287,"1":0.22712397575378418,"2":0.20862680673599243,"3":0.24989672005176544,"4":-0.06251858919858932,"5":-0.6255796551704407,"6":0.01867951638996601,"7":-0.3452169895172119,"8":0.06908894330263138,"9":0.19500254094600677,"10":0.3515858054161072,"11":-0.25056007504463196,"12":0.3185340166091919,"13":-0.3516230583190918,"14":0.20914705097675323,"15":0.29052072763442993,"16":-0.11399823427200317,"17":0.3865773677825928,"18":-0.08952955156564713,"19":0.22036024928092957,"20":-0.07338161021471024,"21":0.11696833372116089,"22":-0.24844270944595337,"23":0.347337931394577,"24":-0.1859866976737976,"25":0.09627808630466461,"26":-0.03643569350242615,"27":0.0182258989661932,"28":0.5672237873077393,"29":0.048771411180496216}},"17":{"bias":-0.4310230612754822,"weights":{"0":-0.06341885030269623,"1":-0.20318618416786194,"2":0.014175494201481342,"3":0.3006114959716797,"4":0.032292596995830536,"5":0.2687753140926361,"6":-0.011514408513903618,"7":0.16707362234592438,"8":-0.37017878890037537,"9":-0.5997452735900879,"10":0.5574424862861633,"11":-0.07141890376806259,"12":0.22354678809642792,"13":-0.38440564274787903,"14":0.11605798453092575,"15":-0.014552311971783638,"16":-0.3186693489551544,"17":-0.33602210879325867,"18":0.0050615365616977215,"19":-0.23882576823234558,"20":-0.053032875061035156,"21":0.05150404945015907,"22":-0.15217606723308563,"23":0.27734604477882385,"24":-0.06337033957242966,"25":-0.10735484212636948,"26":-0.4320179224014282,"27":-0.1989181935787201,"28":-0.16477130353450775,"29":-0.005436341743916273}},"18":{"bias":0.08525750041007996,"weights":{"0":0.02825351618230343,"1":-0.4687274396419525,"2":-0.559632420539856,"3":-0.05110229179263115,"4":-0.7442082166671753,"5":-0.4261922240257263,"6":-0.48276185989379883,"7":0.3577135503292084,"8":0.30002638697624207,"9":0.3332912027835846,"10":-0.18441733717918396,"11":0.13406512141227722,"12":0.18167734146118164,"13":0.5576164722442627,"14":-0.08338110148906708,"15":-0.06687913089990616,"16":0.2513362169265747,"17":0.18574857711791992,"18":-0.08541524410247803,"19":-0.28169387578964233,"20":-0.12223270535469055,"21":-0.2589479386806488,"22":0.04335498437285423,"23":-0.045404914766550064,"24":-0.05594267323613167,"25":-0.4684518277645111,"26":0.02616552636027336,"27":0.2898898422718048,"28":0.07008190453052521,"29":-0.03749871999025345}},"19":{"bias":0.03232889994978905,"weights":{"0":0.10534986853599548,"1":0.10465548187494278,"2":0.06930188089609146,"3":0.024458041414618492,"4":0.07410921156406403,"5":-0.08962706476449966,"6":-0.08003091812133789,"7":-0.01584729738533497,"8":0.10019534826278687,"9":-0.042201414704322815,"10":-0.07423421740531921,"11":0.35734349489212036,"12":-0.007052141707390547,"13":-0.08326155692338943,"14":-0.36118414998054504,"15":0.349895715713501,"16":-0.03819522261619568,"17":-0.01859397441148758,"18":-0.14971289038658142,"19":-0.09569380432367325,"20":-0.11478955298662186,"21":-0.11977795511484146,"22":-1.0124351978302002,"23":0.10561028867959976,"24":0.20650966465473175,"25":0.01981324702501297,"26":-0.03999787196516991,"27":-0.06591109931468964,"28":0.11341528594493866,"29":-0.29412534832954407}},"20":{"bias":0.872522234916687,"weights":{"0":0.36060428619384766,"1":-0.49150675535202026,"2":0.09708362817764282,"3":0.009567070752382278,"4":0.2821866273880005,"5":-0.7469223737716675,"6":0.11082614213228226,"7":-0.14517755806446075,"8":0.051654305309057236,"9":0.2152903825044632,"10":-0.15877452492713928,"11":-0.1428995579481125,"12":-0.10319528728723526,"13":0.2830105125904083,"14":-0.0614212304353714,"15":-0.44291365146636963,"16":0.28335294127464294,"17":-0.16947738826274872,"18":0.04020223766565323,"19":0.042399901896715164,"20":0.3051607608795166,"21":0.062400877475738525,"22":-0.4469650685787201,"23":0.15898247063159943,"24":0.10394581407308578,"25":0.6795418858528137,"26":-0.23260320723056793,"27":0.25251367688179016,"28":-0.38057002425193787,"29":-0.14824537932872772}},"21":{"bias":-1.0170955657958984,"weights":{"0":0.3332081139087677,"1":-0.1991293579339981,"2":-0.3398849070072174,"3":0.6140469908714294,"4":0.2932794392108917,"5":0.0017088142922148108,"6":-0.02712150290608406,"7":-0.26173368096351624,"8":-0.541583776473999,"9":-0.3115103542804718,"10":-0.13792885839939117,"11":-0.19583186507225037,"12":0.14992716908454895,"13":-0.8901669383049011,"14":0.16474716365337372,"15":0.28409072756767273,"16":-0.05052982270717621,"17":-0.35102638602256775,"18":-0.07174579799175262,"19":-0.02376662567257881,"20":-0.055406082421541214,"21":-0.03180238604545593,"22":-0.28838667273521423,"23":0.1429038792848587,"24":-0.047742146998643875,"25":-0.12242992967367172,"26":-0.4735155701637268,"27":0.18190330266952515,"28":-0.04856939613819122,"29":-0.09681476652622223}},"22":{"bias":0.5964239835739136,"weights":{"0":0.06664356589317322,"1":0.0642799511551857,"2":-0.2647165060043335,"3":-0.06167855113744736,"4":-0.24068421125411987,"5":-0.324745774269104,"6":0.4981430470943451,"7":-0.18274199962615967,"8":0.10028474777936935,"9":-0.3614402711391449,"10":-0.3072664737701416,"11":0.0615079328417778,"12":-0.06451582163572311,"13":0.20895041525363922,"14":-0.1687009334564209,"15":-0.16149424016475677,"16":-0.3154045045375824,"17":0.4227915108203888,"18":0.12910106778144836,"19":-0.28587085008621216,"20":0.04005930572748184,"21":-0.13763725757598877,"22":-0.14373143017292023,"23":-0.24539141356945038,"24":-0.2985858917236328,"25":-0.267794668674469,"26":-0.1661045104265213,"27":-0.07785342633724213,"28":0.3002934753894806,"29":0.10014992207288742}},"23":{"bias":0.1684364229440689,"weights":{"0":0.12024267762899399,"1":0.08967394381761551,"2":-0.14032712578773499,"3":0.18745432794094086,"4":0.17865212261676788,"5":0.2997736632823944,"6":-0.20036029815673828,"7":0.13531091809272766,"8":0.3021833896636963,"9":-0.13189156353473663,"10":0.2508065700531006,"11":0.5257467031478882,"12":0.05888088047504425,"13":-0.42226356267929077,"14":-0.02514607086777687,"15":0.18714332580566406,"16":0.06263990700244904,"17":-0.0761938989162445,"18":0.04755852743983269,"19":-0.16529472172260284,"20":0.0798228308558464,"21":-0.06757780909538269,"22":0.5474616885185242,"23":0.05985546112060547,"24":0.08928392082452774,"25":-0.16000151634216309,"26":0.1218084767460823,"27":0.00024358216614928097,"28":-0.09209129959344864,"29":-0.3180371820926666}},"24":{"bias":-0.8559309244155884,"weights":{"0":-0.15785567462444305,"1":0.5220609903335571,"2":-0.1425047665834427,"3":0.3084496855735779,"4":-0.09881909191608429,"5":-0.4305419921875,"6":-0.08960605412721634,"7":-0.1234034076333046,"8":-0.6301791071891785,"9":-0.1259278953075409,"10":0.16753117740154266,"11":0.2204355001449585,"12":0.11108235269784927,"13":-0.10381186753511429,"14":-0.09969644248485565,"15":-0.1803540736436844,"16":0.10485656559467316,"17":-0.5467501878738403,"18":0.0011416402412578464,"19":0.46569737792015076,"20":0.024077869951725006,"21":-0.14187254011631012,"22":0.033274948596954346,"23":-0.03525921702384949,"24":-0.2399064302444458,"25":0.5138358473777771,"26":-0.027061408385634422,"27":-0.2307298630475998,"28":0.5646396279335022,"29":-0.1309635043144226}},"25":{"bias":-0.6334694027900696,"weights":{"0":0.040126364678144455,"1":0.12983357906341553,"2":-0.08746722340583801,"3":0.2125280797481537,"4":0.05980575829744339,"5":0.09419766068458557,"6":-0.20148903131484985,"7":-0.20317991077899933,"8":-0.06435533612966537,"9":-0.040030546486377716,"10":-0.002393974456936121,"11":0.21540220081806183,"12":0.01195668987929821,"13":0.3894973695278168,"14":0.0532660111784935,"15":0.05659027397632599,"16":-0.04382511228322983,"17":0.083484947681427,"18":0.1786557286977768,"19":-0.030069205909967422,"20":-0.042256616055965424,"21":0.07075723260641098,"22":0.414564847946167,"23":0.06287264078855515,"24":-0.3542269170284271,"25":-0.12709064781665802,"26":0.09868483990430832,"27":0.05282388627529144,"28":0.2522059679031372,"29":-0.20053692162036896}},"26":{"bias":1.0037298202514648,"weights":{"0":-0.17313523590564728,"1":-0.2963470220565796,"2":0.04886728525161743,"3":0.10502251982688904,"4":-0.2608625292778015,"5":-0.9540683031082153,"6":-0.27842462062835693,"7":0.12809236347675323,"8":-0.24047838151454926,"9":0.25020831823349,"10":-0.3919181525707245,"11":0.16336095333099365,"12":-0.13797315955162048,"13":0.8553267121315002,"14":0.12045126408338547,"15":0.3109140396118164,"16":-0.016390960663557053,"17":0.3107730746269226,"18":0.028554361313581467,"19":0.15327197313308716,"20":0.052345529198646545,"21":0.08520607650279999,"22":0.11066939681768417,"23":0.3309437930583954,"24":-0.18620701134204865,"25":0.04036182165145874,"26":-0.022460104897618294,"27":0.11415457725524902,"28":-0.5467719435691833,"29":-0.11593334376811981}},"27":{"bias":0.19518455862998962,"weights":{"0":0.2067943811416626,"1":0.38221466541290283,"2":0.13966134190559387,"3":0.2083374708890915,"4":-0.01379304938018322,"5":-0.3774368464946747,"6":-0.06823987513780594,"7":-0.3943776488304138,"8":0.18588127195835114,"9":0.17665192484855652,"10":0.055197425186634064,"11":-0.48393699526786804,"12":0.14830617606639862,"13":0.07195163518190384,"14":0.07947123050689697,"15":-0.07387042790651321,"16":-0.11058352887630463,"17":0.15603578090667725,"18":0.2645666003227234,"19":0.5613028407096863,"20":0.03933097794651985,"21":0.3104841113090515,"22":-0.16654309630393982,"23":0.3262076675891876,"24":-0.10186921060085297,"25":-0.14170020818710327,"26":-0.13069964945316315,"27":0.152591735124588,"28":0.12237884104251862,"29":-0.07585730403661728}},"28":{"bias":1.3863011598587036,"weights":{"0":-0.0631788894534111,"1":-0.19810165464878082,"2":-0.11424314975738525,"3":-0.007753013167530298,"4":-1.2100127935409546,"5":-0.050237637013196945,"6":-0.28300169110298157,"7":-0.32488325238227844,"8":0.3474278151988983,"9":0.10166451334953308,"10":-0.03950728848576546,"11":0.0420655831694603,"12":0.3725011646747589,"13":-0.7019614577293396,"14":-0.20379260182380676,"15":0.031099438667297363,"16":0.0650206208229065,"17":0.05491124093532562,"18":-0.018198516219854355,"19":-0.13354577124118805,"20":0.12712717056274414,"21":0.04552890732884407,"22":-0.00923216249793768,"23":0.23432932794094086,"24":0.49214550852775574,"25":-0.3103013038635254,"26":0.15206439793109894,"27":0.27733615040779114,"28":0.22787714004516602,"29":0.21560008823871613}},"29":{"bias":0.341002494096756,"weights":{"0":-0.29673171043395996,"1":0.3535561263561249,"2":-0.33982500433921814,"3":0.09043421596288681,"4":0.3064344525337219,"5":0.6194061636924744,"6":-0.012692220509052277,"7":0.3623473048210144,"8":0.1348493993282318,"9":-0.33670610189437866,"10":-0.4264335334300995,"11":0.09974196553230286,"12":-0.18713423609733582,"13":0.4698100686073303,"14":-0.30056896805763245,"15":-0.14936210215091705,"16":0.27069398760795593,"17":-0.3837270140647888,"18":-0.07338328659534454,"19":-0.0015889540081843734,"20":0.32608214020729065,"21":0.0005491144256666303,"22":-0.0037124636583030224,"23":-0.14924246072769165,"24":0.36191022396087646,"25":0.27200281620025635,"26":-0.14224176108837128,"27":0.11336157470941544,"28":-0.2722611427307129,"29":0.06992566585540771}},"30":{"bias":-0.532393217086792,"weights":{"0":0.41382700204849243,"1":0.23916348814964294,"2":-0.06644153594970703,"3":0.49976208806037903,"4":-0.11652732640504837,"5":0.10659997910261154,"6":-0.6106671690940857,"7":-0.347823828458786,"8":-0.37990573048591614,"9":0.08558506518602371,"10":0.6913851499557495,"11":-0.18822512030601501,"12":0.32929277420043945,"13":-0.430888831615448,"14":0.2969224750995636,"15":-0.5421332120895386,"16":-0.14756156504154205,"17":-0.07255606353282928,"18":0.024038851261138916,"19":-0.2622123062610626,"20":-0.26856398582458496,"21":-0.022705163806676865,"22":-0.4734536409378052,"23":-0.3611088991165161,"24":0.2367257922887802,"25":-0.36704182624816895,"26":-0.19442111253738403,"27":-0.05334750935435295,"28":0.7062602639198303,"29":-0.17597728967666626}},"31":{"bias":0.6963174939155579,"weights":{"0":0.3615342676639557,"1":0.15798167884349823,"2":-0.06348783522844315,"3":0.5136576294898987,"4":-0.13847032189369202,"5":0.17493267357349396,"6":0.0395636260509491,"7":-0.1106991320848465,"8":-0.05408617854118347,"9":0.171683207154274,"10":0.3980012536048889,"11":-0.11957273632287979,"12":-0.07549622654914856,"13":-0.02238832414150238,"14":-0.14552024006843567,"15":0.13200342655181885,"16":-0.0395575687289238,"17":-0.21716731786727905,"18":-0.2752663195133209,"19":0.31580793857574463,"20":0.3768456280231476,"21":0.050893981009721756,"22":0.10461880266666412,"23":-0.1667238473892212,"24":0.080562524497509,"25":-0.0794597864151001,"26":-0.4917004704475403,"27":0.034588489681482315,"28":0.05648170784115791,"29":0.0583626963198185}},"32":{"bias":0.5966739058494568,"weights":{"0":-0.0650608018040657,"1":-0.7810061573982239,"2":-0.3135616183280945,"3":0.18366967141628265,"4":-0.012892767786979675,"5":0.24295881390571594,"6":-0.03256557881832123,"7":0.32915687561035156,"8":0.22027117013931274,"9":0.33880940079689026,"10":-0.40367159247398376,"11":0.1741781234741211,"12":-0.1562935709953308,"13":-0.2092035561800003,"14":0.3123423457145691,"15":0.07469300180673599,"16":-0.14556121826171875,"17":0.11104296147823334,"18":-0.2025318592786789,"19":-0.10054860264062881,"20":0.041239865124225616,"21":0.2748265564441681,"22":-0.04452672600746155,"23":0.2828212082386017,"24":0.21509681642055511,"25":0.000051169008656870574,"26":0.352130651473999,"27":0.1951683759689331,"28":-0.27959898114204407,"29":0.11492257565259933}},"33":{"bias":0.698663055896759,"weights":{"0":-0.17376480996608734,"1":0.10276521742343903,"2":-0.1416557878255844,"3":-0.14326806366443634,"4":0.08326005190610886,"5":0.2652309834957123,"6":-0.08933644741773605,"7":0.251562237739563,"8":0.21489474177360535,"9":-0.02664920501410961,"10":-0.30827152729034424,"11":0.01562562584877014,"12":0.12206558883190155,"13":0.3039945363998413,"14":-0.07868105173110962,"15":-0.011356392875313759,"16":0.037275418639183044,"17":-0.18383729457855225,"18":0.2216983586549759,"19":-0.0025154638569802046,"20":-0.059641189873218536,"21":-0.05988331511616707,"22":0.1714601218700409,"23":0.30027297139167786,"24":0.28995704650878906,"25":0.2565714418888092,"26":0.1840742528438568,"27":-0.15281346440315247,"28":-0.08783386647701263,"29":0.002858187770470977}},"34":{"bias":0.22660166025161743,"weights":{"0":0.12879760563373566,"1":0.0449342355132103,"2":0.07306176424026489,"3":0.3076423406600952,"4":-0.09032005071640015,"5":-0.02792471833527088,"6":0.17522312700748444,"7":0.048011817038059235,"8":0.33096185326576233,"9":-0.3172045052051544,"10":-0.057956527918577194,"11":-0.23162688314914703,"12":0.22762098908424377,"13":0.4369969367980957,"14":-0.496013879776001,"15":-0.2535971999168396,"16":0.09142418205738068,"17":-0.021094772964715958,"18":-0.22650779783725739,"19":0.052461083978414536,"20":-0.5845581889152527,"21":-0.2649697959423065,"22":0.023338282480835915,"23":0.2173718512058258,"24":-0.4799347519874573,"25":0.0040365708991885185,"26":0.1274600625038147,"27":0.0036840077955275774,"28":-0.07739130407571793,"29":0.19133053719997406}},"35":{"bias":1.5187429189682007,"weights":{"0":0.07306266576051712,"1":-0.13311031460762024,"2":-0.1338801234960556,"3":-0.38730388879776,"4":-0.5930746793746948,"5":-0.17967140674591064,"6":-0.10691700875759125,"7":-0.08229044079780579,"8":0.44128963351249695,"9":0.414323627948761,"10":-0.17335306107997894,"11":0.17068296670913696,"12":-0.4628782272338867,"13":-0.5447980761528015,"14":-0.27432122826576233,"15":0.052359290421009064,"16":0.20584125816822052,"17":0.18181274831295013,"18":-0.2962245047092438,"19":0.08469043672084808,"20":0.24123813211917877,"21":-0.050892360508441925,"22":0.09396650642156601,"23":-0.12973974645137787,"24":-0.19717372953891754,"25":0.14779804646968842,"26":0.31843918561935425,"27":0.2178584635257721,"28":-0.17371805012226105,"29":0.09867269545793533}},"36":{"bias":-0.6702197194099426,"weights":{"0":-0.09952927380800247,"1":0.11054253578186035,"2":-0.22708477079868317,"3":0.18760506808757782,"4":-0.035492587834596634,"5":-0.49524450302124023,"6":-0.045193303376436234,"7":-0.15691302716732025,"8":-0.07356478273868561,"9":-0.45445141196250916,"10":-0.23929736018180847,"11":-0.03952335938811302,"12":0.12515071034431458,"13":0.004409174434840679,"14":-0.2755451500415802,"15":0.07938650995492935,"16":0.34242483973503113,"17":-0.18987980484962463,"18":0.27171874046325684,"19":-0.009624389931559563,"20":0.36793285608291626,"21":-0.0379413403570652,"22":-0.2712695002555847,"23":-0.026042426005005836,"24":-0.35268205404281616,"25":0.0640471950173378,"26":-0.08364595472812653,"27":0.5145222544670105,"28":-0.10512017458677292,"29":-0.11831019818782806}},"37":{"bias":-1.1976052522659302,"weights":{"0":-0.02862466685473919,"1":-0.010044153779745102,"2":0.04211314767599106,"3":0.1614968478679657,"4":-0.04179126396775246,"5":0.6266962289810181,"6":-0.31425991654396057,"7":-0.056512054055929184,"8":0.06681152433156967,"9":-0.05746421590447426,"10":0.003498113714158535,"11":0.047189969569444656,"12":-0.21169720590114594,"13":-0.4216344952583313,"14":0.14116846024990082,"15":-0.16038814187049866,"16":-0.06456977128982544,"17":0.022792281582951546,"18":-0.053740475326776505,"19":0.09657975286245346,"20":0.10972370952367783,"21":0.09827256202697754,"22":0.1505492776632309,"23":-0.22817453742027283,"24":-0.14547856152057648,"25":-0.1242804229259491,"26":-0.14887475967407227,"27":0.05452529340982437,"28":0.003129738848656416,"29":-0.2778829336166382}},"38":{"bias":0.014224659651517868,"weights":{"0":-0.17537283897399902,"1":0.008249809965491295,"2":-0.012747001834213734,"3":0.2250741720199585,"4":0.051034726202487946,"5":-0.07054852694272995,"6":0.12112797051668167,"7":0.24004516005516052,"8":0.06104334443807602,"9":0.2637609839439392,"10":-0.35931310057640076,"11":0.06884750723838806,"12":0.18652497231960297,"13":-0.017151527106761932,"14":0.14582115411758423,"15":0.03797969967126846,"16":0.4711002707481384,"17":0.002854007063433528,"18":0.36907050013542175,"19":-0.16603785753250122,"20":-0.6160476803779602,"21":0.09852008521556854,"22":0.029339665547013283,"23":-0.06946101039648056,"24":0.031506385654211044,"25":0.26447197794914246,"26":0.07611237466335297,"27":0.20778042078018188,"28":0.10953762382268906,"29":0.11539612710475922}},"39":{"bias":1.5640379190444946,"weights":{"0":0.05486922338604927,"1":-0.030685754492878914,"2":-0.18172883987426758,"3":0.09487161040306091,"4":0.9903954863548279,"5":-0.041650500148534775,"6":-0.2680981755256653,"7":-0.1638895571231842,"8":0.18910089135169983,"9":0.24587196111679077,"10":-0.3531908690929413,"11":-0.0898822695016861,"12":0.14906561374664307,"13":0.5520069599151611,"14":-0.035007160156965256,"15":0.15298427641391754,"16":0.11331550776958466,"17":0.35576939582824707,"18":-0.34068188071250916,"19":-0.0845864787697792,"20":-0.03164953738451004,"21":0.040362704545259476,"22":0.07140246033668518,"23":-0.39080384373664856,"24":0.0735357403755188,"25":-0.08591727167367935,"26":0.22500698268413544,"27":-0.045607421547174454,"28":0.14431443810462952,"29":0.07428562641143799}}},{"0":{"bias":13.357872009277344,"weights":{"0":2.567944288253784,"1":1.4349682331085205,"2":-0.638647198677063,"3":0.12189558148384094,"4":3.8185980319976807,"5":1.2500087022781372,"6":1.4072999954223633,"7":0.9268797636032104,"8":-0.9408968091011047,"9":-0.6449447274208069,"10":-0.5836453437805176,"11":-0.9451202154159546,"12":-1.8381226062774658,"13":1.8137086629867554,"14":-0.8052263259887695,"15":-3.1483798027038574,"16":1.1111934185028076,"17":0.33618324995040894,"18":0.5497181415557861,"19":-0.35506802797317505,"20":-1.8591721057891846,"21":1.7207671403884888,"22":-0.8332275152206421,"23":-1.4211773872375488,"24":2.930107831954956,"25":0.4005383253097534,"26":-1.0917006731033325,"27":-0.8793686032295227,"28":4.138507843017578,"29":-2.3086931705474854,"30":1.2338907718658447,"31":0.5620230436325073,"32":-0.35773560404777527,"33":0.2196655571460724,"34":0.02476576901972294,"35":-1.2795196771621704,"36":1.692318081855774,"37":-0.0320221446454525,"38":-0.38986074924468994,"39":-3.4312655925750732}},"1":{"bias":9.385202407836914,"weights":{"0":0.21688321232795715,"1":1.1103286743164062,"2":0.5164043307304382,"3":-0.5537678003311157,"4":2.183107614517212,"5":-0.5224453806877136,"6":-0.0932956263422966,"7":-2.117724657058716,"8":-0.01234135776758194,"9":1.6432949304580688,"10":-1.6942381858825684,"11":-1.0727289915084839,"12":-0.17745272815227509,"13":-2.1061291694641113,"14":0.5967718362808228,"15":2.4509809017181396,"16":2.6458568572998047,"17":-1.3301929235458374,"18":3.0890166759490967,"19":0.35411205887794495,"20":-0.5225973725318909,"21":2.333871603012085,"22":-0.5813837647438049,"23":0.21836291253566742,"24":1.9801769256591797,"25":2.6623101234436035,"26":-1.2867848873138428,"27":-0.39158645272254944,"28":-2.3618972301483154,"29":-0.8683084845542908,"30":3.7123615741729736,"31":-1.8762335777282715,"32":0.7572985291481018,"33":1.6430937051773071,"34":0.09632183611392975,"35":-2.28987455368042,"36":0.4752551317214966,"37":-1.0501104593276978,"38":-1.5399385690689087,"39":-1.4605752229690552}},"2":{"bias":9.00192928314209,"weights":{"0":2.8713302612304688,"1":0.6854978203773499,"2":-1.4227875471115112,"3":0.1875676065683365,"4":1.5133167505264282,"5":2.1295249462127686,"6":-0.020490681752562523,"7":-0.029668599367141724,"8":0.5211619734764099,"9":1.1889002323150635,"10":-0.7734081745147705,"11":-0.23383444547653198,"12":-0.3339337408542633,"13":2.182863473892212,"14":-0.5669549703598022,"15":-2.0326123237609863,"16":-0.4720035493373871,"17":-0.8601922988891602,"18":0.8603370189666748,"19":0.2662219703197479,"20":0.169281467795372,"21":1.5382364988327026,"22":-0.5922101140022278,"23":-0.5135640501976013,"24":-0.6513698697090149,"25":0.6758935451507568,"26":-0.32074323296546936,"27":-1.2885675430297852,"28":-1.170525312423706,"29":-1.1801105737686157,"30":0.7061976790428162,"31":3.2227139472961426,"32":-0.7422305345535278,"33":-0.9301018714904785,"34":0.350604385137558,"35":3.2905194759368896,"36":0.4724290370941162,"37":0.5277120471000671,"38":-0.8297359943389893,"39":3.301762580871582}},"3":{"bias":9.913829803466797,"weights":{"0":-3.4349305629730225,"1":0.9168487191200256,"2":-1.4515398740768433,"3":-0.0783000960946083,"4":1.542042851448059,"5":1.0336699485778809,"6":1.1189606189727783,"7":0.2066953480243683,"8":0.11953487247228622,"9":-0.005262209568172693,"10":-1.2072486877441406,"11":-1.0729966163635254,"12":0.09962744265794754,"13":3.8184561729431152,"14":0.14375445246696472,"15":-2.286115884780884,"16":1.2000371217727661,"17":-0.40318775177001953,"18":0.6964184045791626,"19":-0.6979723572731018,"20":-0.44561198353767395,"21":0.5904541611671448,"22":0.8256012797355652,"23":-0.40903618931770325,"24":0.18288663029670715,"25":-0.22318638861179352,"26":-0.317421019077301,"27":0.14724573493003845,"28":-0.20967398583889008,"29":-1.6733852624893188,"30":1.6568388938903809,"31":-1.3881165981292725,"32":-3.7579731941223145,"33":-0.2641753554344177,"34":-0.8312862515449524,"35":0.7708259224891663,"36":0.9294639229774475,"37":-0.543272078037262,"38":4.278791904449463,"39":1.048730492591858}},"4":{"bias":8.228328704833984,"weights":{"0":-0.2225884050130844,"1":1.4621211290359497,"2":0.30630528926849365,"3":0.3882605731487274,"4":-0.48950180411338806,"5":0.8108192086219788,"6":0.2731383740901947,"7":0.4449528455734253,"8":-0.2514427602291107,"9":-0.0008324036025442183,"10":-0.9749007225036621,"11":-0.5357328057289124,"12":0.8769887089729309,"13":-1.3629099130630493,"14":1.130679726600647,"15":-2.7995519638061523,"16":0.5207495093345642,"17":0.6659970283508301,"18":0.13405367732048035,"19":-0.3985253572463989,"20":-0.24560487270355225,"21":0.9637357592582703,"22":2.0140275955200195,"23":0.09120715409517288,"24":-0.7906475067138672,"25":-0.9780810475349426,"26":-1.0260263681411743,"27":1.0955305099487305,"28":0.274838924407959,"29":-0.9880688190460205,"30":0.7709280848503113,"31":-0.6881076693534851,"32":-1.7091599702835083,"33":-1.4070509672164917,"34":-2.809293031692505,"35":1.209416151046753,"36":1.6595828533172607,"37":0.1956397294998169,"38":-3.1684582233428955,"39":0.7479114532470703}},"5":{"bias":8.982748985290527,"weights":{"0":-0.94931560754776,"1":-0.1657947599887848,"2":-0.19864912331104279,"3":1.1484192609786987,"4":-1.2757741212844849,"5":0.5920878052711487,"6":-0.7050091624259949,"7":0.2844802737236023,"8":-0.015055585652589798,"9":0.2523719072341919,"10":0.257231205701828,"11":0.17372934520244598,"12":0.8765097260475159,"13":0.9845200181007385,"14":0.05339370295405388,"15":0.34488555788993835,"16":0.3811674416065216,"17":1.7000340223312378,"18":0.05369894579052925,"19":-0.4324629306793213,"20":-0.6775522828102112,"21":1.3741204738616943,"22":1.3087692260742188,"23":0.884145975112915,"24":-0.39071816205978394,"25":-0.948535680770874,"26":-0.9494844079017639,"27":0.8036816120147705,"28":0.13791970908641815,"29":0.30754801630973816,"30":0.8649114966392517,"31":-0.7061895728111267,"32":0.30670279264450073,"33":-1.4981595277786255,"34":4.758985996246338,"35":0.580717146396637,"36":1.9470279216766357,"37":0.6944321990013123,"38":-0.13159041106700897,"39":0.4874624013900757}},"6":{"bias":9.989338874816895,"weights":{"0":-1.1441140174865723,"1":-0.36463087797164917,"2":0.9851417541503906,"3":-5.070661544799805,"4":-0.8085067272186279,"5":0.18621641397476196,"6":-0.8116220235824585,"7":-0.10443978011608124,"8":0.33059245347976685,"9":-0.07834926247596741,"10":-0.4100069999694824,"11":0.5994352698326111,"12":1.8353378772735596,"13":0.9396897554397583,"14":-2.865567207336426,"15":-2.9781477451324463,"16":0.015132113359868526,"17":1.4898154735565186,"18":-0.17736762762069702,"19":-0.5021968483924866,"20":0.37337741255760193,"21":0.9622195959091187,"22":-0.26914504170417786,"23":1.6154224872589111,"24":-0.43957242369651794,"25":-0.12664316594600677,"26":-0.6966930627822876,"27":0.6050153970718384,"28":0.19642189145088196,"29":-0.24808092415332794,"30":0.21165157854557037,"31":-0.15860135853290558,"32":1.044216513633728,"33":-1.5500067472457886,"34":-0.5300076603889465,"35":0.92013019323349,"36":1.7954254150390625,"37":2.1797449588775635,"38":0.21009226143360138,"39":0.6674950122833252}},"7":{"bias":6.934377193450928,"weights":{"0":-1.3349483013153076,"1":-0.7714526057243347,"2":0.777584433555603,"3":3.07810115814209,"4":-0.37142398953437805,"5":-0.23742608726024628,"6":-0.6912786960601807,"7":-0.06782664358615875,"8":0.3392547070980072,"9":0.39424455165863037,"10":-1.8760581016540527,"11":0.08820271492004395,"12":1.6928341388702393,"13":0.4411136507987976,"14":-3.6035475730895996,"15":-1.641053557395935,"16":-0.5141388773918152,"17":1.0389423370361328,"18":-0.0806882455945015,"19":2.540229320526123,"20":0.6299737691879272,"21":-0.4027997851371765,"22":-1.087328553199768,"23":1.6609313488006592,"24":-0.7883575558662415,"25":0.8409398794174194,"26":-0.0557386577129364,"27":0.9333373308181763,"28":0.4335554838180542,"29":-1.9408246278762817,"30":-0.12235186249017715,"31":-0.5618647336959839,"32":1.1044737100601196,"33":-0.6122983694076538,"34":-1.059069275856018,"35":0.7441833019256592,"36":0.786270022392273,"37":1.0347141027450562,"38":0.7405238151550293,"39":0.4950040280818939}},"8":{"bias":5.392176628112793,"weights":{"0":-0.8468984365463257,"1":-1.1622525453567505,"2":0.6166344285011292,"3":1.6286762952804565,"4":-0.8155760765075684,"5":-0.1375495046377182,"6":-0.9830226302146912,"7":-0.7533851265907288,"8":0.10965894907712936,"9":-0.00008710424299351871,"10":-2.4057350158691406,"11":-1.5191590785980225,"12":0.8468565344810486,"13":-0.577672004699707,"14":-1.6871498823165894,"15":0.5010809302330017,"16":0.04972224682569504,"17":0.15509217977523804,"18":-0.14393281936645508,"19":-5.099452018737793,"20":-0.2299482226371765,"21":0.877837598323822,"22":-0.5534200668334961,"23":-0.7736730575561523,"24":-0.050561919808387756,"25":0.4567362368106842,"26":-0.201376810669899,"27":0.7142220139503479,"28":0.187057763338089,"29":2.695089101791382,"30":0.2189047783613205,"31":0.07103293389081955,"32":0.580183744430542,"33":-0.5232855677604675,"34":-0.33264264464378357,"35":0.4963431656360626,"36":-0.7785678505897522,"37":0.9060267210006714,"38":-0.006417871452867985,"39":0.13276609778404236}},"9":{"bias":3.772646903991699,"weights":{"0":-1.11133873462677,"1":-1.405813455581665,"2":0.1686077117919922,"3":-0.3932066857814789,"4":-0.7325741648674011,"5":0.6011173725128174,"6":-1.4856607913970947,"7":-1.7677183151245117,"8":0.6000226140022278,"9":1.9807931184768677,"10":1.6137126684188843,"11":-0.8723886609077454,"12":1.4927678108215332,"13":-0.5825039148330688,"14":0.18404580652713776,"15":1.91599440574646,"16":1.3664355278015137,"17":2.103633165359497,"18":0.1282757967710495,"19":0.841172993183136,"20":-0.06528206914663315,"21":-0.47935009002685547,"22":-1.2761534452438354,"23":-2.8193020820617676,"24":-0.6222779154777527,"25":-2.556252956390381,"26":-0.8825615644454956,"27":1.2039247751235962,"28":0.4333217442035675,"29":0.8823968172073364,"30":0.9589205384254456,"31":-0.6729810833930969,"32":1.5067596435546875,"33":0.9216839671134949,"34":0.10251373052597046,"35":1.1037368774414062,"36":-1.9013607501983643,"37":-0.5229683518409729,"38":0.03426329419016838,"39":0.5501619577407837}}}],"outputLookup":false,"inputLookup":false,"activation":"tanh","trainOpts":{"iterations":50000,"errorThresh":0.005,"log":true,"logPeriod":1,"learningRate":0.0005,"momentum":0.1,"callbackPeriod":1}}