{"type":"LSTM","options":{"inputSize":4,"inputRange":4,"hiddenSizes":[20,20],"outputSize":4,"learningRate":0.01,"decayRate":0.9,"smoothEps":1e-8,"regc":0.000001,"clipval":5,"json":null,"dataFormatter":{"values":[[1],[1],[1,0],[1,1]],"indexTable":{"0":1,"1":0,"stop-input":2,"start-output":3},"characterTable":{"0":1,"1":0,"2":"stop-input","3":"start-output"},"characters":[1,0,"stop-input","start-output"]}},"input":{"rows":5,"columns":4,"weights":{"0":-0.9468113780021667,"1":0.9353431463241577,"2":-0.9418232440948486,"3":-0.9670290946960449,"4":-0.3349468410015106,"5":0.2948261797428131,"6":-0.30608582496643066,"7":-0.2959219515323639,"8":-0.2948872447013855,"9":0.25904104113578796,"10":-0.27318382263183594,"11":-0.20449049770832062,"12":-0.664692223072052,"13":0.6459610462188721,"14":-0.5828980207443237,"15":-0.38086193799972534,"16":-0.7356725335121155,"17":0.8727874159812927,"18":-0.8315078616142273,"19":-0.8658632040023804}},"hiddenLayers":[{"inputMatrix":{"rows":20,"columns":4,"weights":{"0":-0.7317903637886047,"1":0.7567465901374817,"2":-0.6144270896911621,"3":-0.7086408138275146,"4":-0.6213615536689758,"5":0.7508155703544617,"6":-0.6148269772529602,"7":-0.6823996901512146,"8":-0.7495653629302979,"9":0.7204302549362183,"10":-0.7062624096870422,"11":-0.7129709124565125,"12":-0.7532836198806763,"13":0.6299842596054077,"14":-0.6048523783683777,"15":-0.6705355644226074,"16":-0.5979059934616089,"17":0.5811955332756042,"18":-0.6703655123710632,"19":-0.6761842966079712,"20":-0.8104301691055298,"21":0.7514392137527466,"22":-0.8557109832763672,"23":-0.8539580702781677,"24":-0.643929660320282,"25":0.6321227550506592,"26":-0.6254670023918152,"27":-0.690131664276123,"28":-0.6633051633834839,"29":0.7223421335220337,"30":-0.6493744850158691,"31":-0.7564486265182495,"32":-0.7362143397331238,"33":0.7959796786308289,"34":-0.7963016629219055,"35":-0.746340274810791,"36":-0.651898205280304,"37":0.7686250805854797,"38":-0.7551594972610474,"39":-0.6642083525657654,"40":-0.7416572570800781,"41":0.7214184999465942,"42":-0.7570691108703613,"43":-0.706204891204834,"44":-0.517579197883606,"45":0.6655744910240173,"46":-0.6457550525665283,"47":-0.6277751922607422,"48":-0.5685640573501587,"49":0.7140137553215027,"50":-0.5823631286621094,"51":-0.5441171526908875,"52":-0.9086634516716003,"53":0.8976715207099915,"54":-0.8200442790985107,"55":-0.8465114235877991,"56":-0.9521015882492065,"57":0.9036114811897278,"58":-0.8855188488960266,"59":-0.9274982213973999,"60":-0.655578076839447,"61":0.6680307388305664,"62":-0.7163820862770081,"63":-0.5965069532394409,"64":-1.0055699348449707,"65":0.9755451083183289,"66":-0.8764901757240295,"67":-0.9137990474700928,"68":-0.5717422366142273,"69":0.5939250588417053,"70":-0.5857487916946411,"71":-0.5346508622169495,"72":-0.5342106819152832,"73":0.6471341252326965,"74":-0.637996256351471,"75":-0.6474928259849548,"76":-0.7850134372711182,"77":0.8292859196662903,"78":-0.7313572764396667,"79":-0.7618588209152222}},"inputHidden":{"rows":20,"columns":20,"weights":{"0":-0.07566142082214355,"1":-0.1704285740852356,"2":-0.08583512902259827,"3":0.16542062163352966,"4":-0.08898483216762543,"5":-0.06257662177085876,"6":-0.1684136837720871,"7":-0.12187447398900986,"8":0.020086821168661118,"9":-0.06419375538825989,"10":0.028926460072398186,"11":0.04152817279100418,"12":0.19016139209270477,"13":0.14369644224643707,"14":0.0329119972884655,"15":-0.1596366912126541,"16":0.08380052447319031,"17":0.06861355155706406,"18":-0.1642392873764038,"19":-0.17767640948295593,"20":-0.21619495749473572,"21":-0.24703876674175262,"22":-0.21774093806743622,"23":0.242938831448555,"24":-0.2655402421951294,"25":-0.24452145397663116,"26":-0.32413792610168457,"27":-0.29845890402793884,"28":0.2525072693824768,"29":-0.310928612947464,"30":0.20192009210586548,"31":0.26048317551612854,"32":0.25608134269714355,"33":0.18737918138504028,"34":0.2838113307952881,"35":-0.19197601079940796,"36":0.2899448871612549,"37":0.2747460901737213,"38":-0.18337881565093994,"39":-0.3019850254058838,"40":-0.2530747652053833,"41":-0.23284125328063965,"42":-0.22446365654468536,"43":0.19691281020641327,"44":-0.2588927149772644,"45":-0.20879319310188293,"46":-0.26846450567245483,"47":-0.289377361536026,"48":0.17406107485294342,"49":-0.25596192479133606,"50":0.19278931617736816,"51":0.20706960558891296,"52":0.16033560037612915,"53":0.2933540940284729,"54":0.24081286787986755,"55":-0.17203108966350555,"56":0.2684360146522522,"57":0.3061967194080353,"58":-0.21371892094612122,"59":-0.2917289733886719,"60":-0.3681755065917969,"61":-0.41881880164146423,"62":-0.3701975643634796,"63":0.3391757309436798,"64":-0.40998896956443787,"65":-0.37364259362220764,"66":-0.3644605278968811,"67":-0.4101186990737915,"68":0.2550578713417053,"69":-0.36794987320899963,"70":0.307910293340683,"71":0.3115905523300171,"72":0.27907419204711914,"73":0.2837691903114319,"74":0.3189472556114197,"75":-0.33465924859046936,"76":0.3146032691001892,"77":0.35442396998405457,"78":-0.3978784680366516,"79":-0.34642764925956726,"80":-0.2949609160423279,"81":-0.27175894379615784,"82":-0.3262268304824829,"83":0.2050946205854416,"84":-0.31502553820610046,"85":-0.25012409687042236,"86":-0.3370634913444519,"87":-0.28872033953666687,"88":0.30426815152168274,"89":-0.32378682494163513,"90":0.2597096860408783,"91":0.24620863795280457,"92":0.1811542809009552,"93":0.20044918358325958,"94":0.21599572896957397,"95":-0.2819254696369171,"96":0.21182186901569366,"97":0.23875577747821808,"98":-0.32889628410339355,"99":-0.2776198983192444,"100":-0.2782083749771118,"101":-0.1907210350036621,"102":-0.2680867612361908,"103":0.18567082285881042,"104":-0.24878710508346558,"105":-0.19431188702583313,"106":-0.1583234816789627,"107":-0.19584369659423828,"108":0.20127467811107635,"109":-0.17292219400405884,"110":0.17084737122058868,"111":0.19034546613693237,"112":0.17865750193595886,"113":0.1565270572900772,"114":0.24056287109851837,"115":-0.16800056397914886,"116":0.1342553049325943,"117":0.18396879732608795,"118":-0.17874643206596375,"119":-0.24747858941555023,"120":-0.25575530529022217,"121":-0.19143009185791016,"122":-0.29553040862083435,"123":0.1974455714225769,"124":-0.19949689507484436,"125":-0.2125702053308487,"126":-0.2588661313056946,"127":-0.26236841082572937,"128":0.1745380163192749,"129":-0.21606548130512238,"130":0.19574514031410217,"131":0.24589242041110992,"132":0.2699682116508484,"133":0.3323517143726349,"134":0.23683209717273712,"135":-0.20340333878993988,"136":0.31888505816459656,"137":0.30330032110214233,"138":-0.2727808952331543,"139":-0.18864884972572327,"140":-0.3164927661418915,"141":-0.2650308907032013,"142":-0.3332228362560272,"143":0.3217645287513733,"144":-0.20051901042461395,"145":-0.3041737675666809,"146":-0.30261969566345215,"147":-0.2987228035926819,"148":0.18847140669822693,"149":-0.3214632272720337,"150":0.3003775179386139,"151":0.203008770942688,"152":0.21579506993293762,"153":0.33165833353996277,"154":0.28360384702682495,"155":-0.234466552734375,"156":0.2879752218723297,"157":0.2466566115617752,"158":-0.3292996287345886,"159":-0.2880401313304901,"160":-0.251029908657074,"161":-0.271918386220932,"162":-0.2542436420917511,"163":0.31602051854133606,"164":-0.3311866521835327,"165":-0.19557030498981476,"166":-0.20012962818145752,"167":-0.28515464067459106,"168":0.18880529701709747,"169":-0.253164142370224,"170":0.28792861104011536,"171":0.2306748926639557,"172":0.34179145097732544,"173":0.18991103768348694,"174":0.23458319902420044,"175":-0.25721099972724915,"176":0.23257595300674438,"177":0.28752803802490234,"178":-0.2698001265525818,"179":-0.231134295463562,"180":-0.12894098460674286,"181":-0.20177027583122253,"182":-0.2896968424320221,"183":0.2791365683078766,"184":-0.1816675066947937,"185":-0.12173332273960114,"186":-0.27324095368385315,"187":-0.23509788513183594,"188":0.22875282168388367,"189":-0.17951422929763794,"190":0.20849740505218506,"191":0.13796280324459076,"192":0.2748314440250397,"193":0.13057942688465118,"194":0.1000518724322319,"195":-0.18593908846378326,"196":0.13441410660743713,"197":0.15934859216213226,"198":-0.22223708033561707,"199":-0.24180220067501068,"200":-0.14321056008338928,"201":-0.17986345291137695,"202":-0.21156957745552063,"203":0.0960262268781662,"204":-0.1472192406654358,"205":-0.053143762052059174,"206":-0.15799903869628906,"207":-0.12198864668607712,"208":0.13097360730171204,"209":-0.0984480232000351,"210":0.0430685393512249,"211":0.08087015151977539,"212":0.17579971253871918,"213":0.04540596157312393,"214":0.05383061617612839,"215":-0.14514365792274475,"216":0.08325006067752838,"217":0.1368625909090042,"218":-0.16378509998321533,"219":-0.08397243916988373,"220":-0.2171311229467392,"221":-0.23550066351890564,"222":-0.292324036359787,"223":0.24574251472949982,"224":-0.30862924456596375,"225":-0.269638329744339,"226":-0.25829726457595825,"227":-0.17989639937877655,"228":0.19034641981124878,"229":-0.22928714752197266,"230":0.20349077880382538,"231":0.22738589346408844,"232":0.18783357739448547,"233":0.22722579538822174,"234":0.3029136657714844,"235":-0.29847976565361023,"236":0.26410654187202454,"237":0.3001270592212677,"238":-0.20469637215137482,"239":-0.3524000942707062,"240":-0.3089088797569275,"241":-0.34886327385902405,"242":-0.27186381816864014,"243":0.3671016991138458,"244":-0.2638811767101288,"245":-0.35658371448516846,"246":-0.3291207551956177,"247":-0.3798977732658386,"248":0.23829519748687744,"249":-0.24222031235694885,"250":0.2782197594642639,"251":0.2742997109889984,"252":0.3100610673427582,"253":0.2660714387893677,"254":0.3399885296821594,"255":-0.32320740818977356,"256":0.32903483510017395,"257":0.2753262221813202,"258":-0.3103332817554474,"259":-0.27618205547332764,"260":-0.18708039820194244,"261":-0.27507275342941284,"262":-0.22575105726718903,"263":0.2669593393802643,"264":-0.2539336085319519,"265":-0.25148969888687134,"266":-0.23892594873905182,"267":-0.20817017555236816,"268":0.1813974380493164,"269":-0.1356096863746643,"270":0.0717245489358902,"271":0.22661970555782318,"272":0.20301522314548492,"273":0.13672026991844177,"274":0.21747346222400665,"275":-0.26471471786499023,"276":0.13146252930164337,"277":0.1721048504114151,"278":-0.13912126421928406,"279":-0.2423231601715088,"280":-0.1909090131521225,"281":-0.24400903284549713,"282":-0.3129885494709015,"283":0.27471622824668884,"284":-0.22810006141662598,"285":-0.2543947100639343,"286":-0.31316477060317993,"287":-0.25348061323165894,"288":0.3082912564277649,"289":-0.21900440752506256,"290":0.18299439549446106,"291":0.20328371226787567,"292":0.31284356117248535,"293":0.20780912041664124,"294":0.17705515027046204,"295":-0.2614147961139679,"296":0.25348198413848877,"297":0.19240325689315796,"298":-0.2586982548236847,"299":-0.27571749687194824,"300":-0.21546047925949097,"301":-0.2032274305820465,"302":-0.33475691080093384,"303":0.2124280482530594,"304":-0.2385297566652298,"305":-0.338625967502594,"306":-0.3291763365268707,"307":-0.19487117230892181,"308":0.2538131773471832,"309":-0.2586270272731781,"310":0.19015425443649292,"311":0.1935647875070572,"312":0.18337619304656982,"313":0.3061884641647339,"314":0.20307278633117676,"315":-0.27581271529197693,"316":0.33028164505958557,"317":0.25792720913887024,"318":-0.25502723455429077,"319":-0.19644540548324585,"320":-0.24806450307369232,"321":-0.33255892992019653,"322":-0.23296411335468292,"323":0.3460763394832611,"324":-0.29971376061439514,"325":-0.25073298811912537,"326":-0.24498553574085236,"327":-0.2902424931526184,"328":0.2848815321922302,"329":-0.20722262561321259,"330":0.2708371877670288,"331":0.21319811046123505,"332":0.2497631162405014,"333":0.26609429717063904,"334":0.2193564921617508,"335":-0.23331299424171448,"336":0.3114356994628906,"337":0.1780245006084442,"338":-0.25879359245300293,"339":-0.25829240679740906,"340":-0.19103175401687622,"341":-0.20321178436279297,"342":-0.23918186128139496,"343":0.13297301530838013,"344":-0.2672928273677826,"345":-0.2571032643318176,"346":-0.2617896497249603,"347":-0.20156832039356232,"348":0.3045867383480072,"349":-0.24918603897094727,"350":0.2589818835258484,"351":0.17446228861808777,"352":0.274610698223114,"353":0.33716821670532227,"354":0.31628820300102234,"355":-0.16008056700229645,"356":0.32633835077285767,"357":0.2197851836681366,"358":-0.2471129596233368,"359":-0.19445115327835083,"360":-0.276538223028183,"361":-0.24591583013534546,"362":-0.20449696481227875,"363":0.12397678941488266,"364":-0.10915140807628632,"365":-0.18256661295890808,"366":-0.24816089868545532,"367":-0.17398761212825775,"368":0.16769707202911377,"369":-0.15638664364814758,"370":0.20153291523456573,"371":0.24412277340888977,"372":0.20171478390693665,"373":0.2502620220184326,"374":0.27164822816848755,"375":-0.17160664498806,"376":0.17146039009094238,"377":0.190949484705925,"378":-0.1493125557899475,"379":-0.19892370700836182,"380":-0.1672227680683136,"381":-0.20314861834049225,"382":-0.21177048981189728,"383":0.34387195110321045,"384":-0.21277070045471191,"385":-0.21723568439483643,"386":-0.16623815894126892,"387":-0.19584490358829498,"388":0.18211159110069275,"389":-0.27193623781204224,"390":0.11315597593784332,"391":0.28998297452926636,"392":0.15828464925289154,"393":0.21795783936977386,"394":0.250749409198761,"395":-0.3434649109840393,"396":0.13738173246383667,"397":0.2350240796804428,"398":-0.19931389391422272,"399":-0.26572173833847046}},"inputBias":{"rows":20,"columns":1,"weights":{"0":0.5592873692512512,"1":0.47777029871940613,"2":0.4642588794231415,"3":0.38536807894706726,"4":0.42985081672668457,"5":0.657051146030426,"6":0.5206717848777771,"7":0.4780223071575165,"8":0.5266076326370239,"9":0.621469259262085,"10":0.5758764147758484,"11":0.39290183782577515,"12":0.3434488773345947,"13":0.8415362238883972,"14":0.8233873844146729,"15":0.42070579528808594,"16":0.8346854448318481,"17":0.3955489993095398,"18":0.34667742252349854,"19":0.5549542307853699}},"forgetMatrix":{"rows":20,"columns":4,"weights":{"0":-0.2848914563655853,"1":0.38352224230766296,"2":-0.31667444109916687,"3":-0.383129358291626,"4":-0.3812042772769928,"5":0.45064154267311096,"6":-0.3653559684753418,"7":-0.4285823702812195,"8":-0.4511842429637909,"9":0.598477303981781,"10":-0.44311970472335815,"11":-0.4560117721557617,"12":-0.5717087984085083,"13":0.6300619840621948,"14":-0.6019615530967712,"15":-0.5113349556922913,"16":-0.3900716304779053,"17":0.5651872754096985,"18":-0.4273410737514496,"19":-0.513755202293396,"20":-0.2610529959201813,"21":0.34644609689712524,"22":-0.28605952858924866,"23":-0.32097533345222473,"24":-0.28315266966819763,"25":0.46407145261764526,"26":-0.4034222364425659,"27":-0.35308972001075745,"28":-0.5379829406738281,"29":0.5488423705101013,"30":-0.5935347676277161,"31":-0.5675652623176575,"32":-0.29743850231170654,"33":0.34228619933128357,"34":-0.27089789509773254,"35":-0.2795621454715729,"36":-0.22856535017490387,"37":0.3201044499874115,"38":-0.19807057082653046,"39":-0.3099709451198578,"40":-0.2280183583498001,"41":0.2856437861919403,"42":-0.3196284770965576,"43":-0.22892777621746063,"44":-0.36354392766952515,"45":0.5015265941619873,"46":-0.4376398026943207,"47":-0.5550537705421448,"48":-0.48535895347595215,"49":0.56983882188797,"50":-0.4143572747707367,"51":-0.48906365036964417,"52":-0.2250814288854599,"53":0.4091763496398926,"54":-0.3145817518234253,"55":-0.3267366886138916,"56":-0.1383795589208603,"57":0.33117589354515076,"58":-0.1771489530801773,"59":-0.19805049896240234,"60":-0.49385666847229004,"61":0.5496954917907715,"62":-0.528975248336792,"63":-0.5620319247245789,"64":-0.21595355868339539,"65":0.31697285175323486,"66":-0.26679569482803345,"67":-0.28963273763656616,"68":-0.40552839636802673,"69":0.5467472076416016,"70":-0.43792906403541565,"71":-0.4566868245601654,"72":-0.26308920979499817,"73":0.3814674913883209,"74":-0.3748225271701813,"75":-0.3688913583755493,"76":-0.30012786388397217,"77":0.4285794794559479,"78":-0.22844824194908142,"79":-0.32931753993034363}},"forgetHidden":{"rows":20,"columns":20,"weights":{"0":0.07053680717945099,"1":0.285066694021225,"2":0.24331189692020416,"3":-0.21183623373508453,"4":0.20050305128097534,"5":0.14768226444721222,"6":0.1963127702474594,"7":0.2019609808921814,"8":-0.1413380354642868,"9":0.08834945410490036,"10":-0.12288589775562286,"11":-0.26489701867103577,"12":-0.2793845236301422,"13":-0.040768079459667206,"14":-0.0979236289858818,"15":0.2478250414133072,"16":-0.0643584206700325,"17":-0.14531762897968292,"18":0.12918958067893982,"19":0.20600645244121552,"20":0.010588559322059155,"21":-0.020753197371959686,"22":-0.010442071594297886,"23":-0.07942172139883041,"24":0.09694705158472061,"25":-0.03782520070672035,"26":0.023816896602511406,"27":0.1058412566781044,"28":-0.016571195796132088,"29":0.09343207627534866,"30":-0.10591443628072739,"31":0.01888960972428322,"32":-0.04343497008085251,"33":0.025103701278567314,"34":-0.05883334204554558,"35":0.03878403455018997,"36":0.05409726873040199,"37":-0.0955686867237091,"38":0.05513642728328705,"39":0.06905867159366608,"40":-0.061446722596883774,"41":-0.002488240599632263,"42":0.059030286967754364,"43":-0.03637015447020531,"44":0.03902927786111832,"45":-0.05915148928761482,"46":0.06309861689805984,"47":-0.014635485596954823,"48":0.01878623478114605,"49":-0.07945957034826279,"50":-0.08087793737649918,"51":-0.09048566967248917,"52":-0.01973993144929409,"53":0.06315552443265915,"54":0.079505056142807,"55":0.11802097409963608,"56":0.1001463383436203,"57":0.0020755736622959375,"58":0.07870157063007355,"59":-0.006873558275401592,"60":-0.09067010879516602,"61":-0.06845919787883759,"62":-0.15117064118385315,"63":-0.008511467836797237,"64":-0.15198162198066711,"65":-0.15252161026000977,"66":-0.06669474393129349,"67":-0.15806365013122559,"68":0.05163837969303131,"69":-0.10110656172037125,"70":0.08960211277008057,"71":0.10878431797027588,"72":0.012822677381336689,"73":0.09490501135587692,"74":0.1215253472328186,"75":0.007511646021157503,"76":0.2079159915447235,"77":0.10586848109960556,"78":-0.061557866632938385,"79":-0.1577099710702896,"80":0.04352358728647232,"81":-0.0552174411714077,"82":0.01212979480624199,"83":-0.0013805290218442678,"84":0.0015470687067136168,"85":0.007118185516446829,"86":0.04673357680439949,"87":0.04493246227502823,"88":-0.06707030534744263,"89":-0.02361869625747204,"90":0.044380102306604385,"91":-0.05857253074645996,"92":-0.07213745266199112,"93":0.019071027636528015,"94":0.04241902381181717,"95":0.08380189538002014,"96":-0.0313551127910614,"97":-0.014290274120867252,"98":-0.059742219746112823,"99":0.02864944376051426,"100":0.24268873035907745,"101":0.2430328130722046,"102":0.17755214869976044,"103":-0.31019335985183716,"104":0.30280762910842896,"105":0.11855670064687729,"106":0.25729891657829285,"107":0.294266015291214,"108":-0.14757205545902252,"109":0.15018634498119354,"110":-0.09654760360717773,"111":-0.2662868797779083,"112":-0.23733261227607727,"113":-0.17047648131847382,"114":-0.1114826574921608,"115":0.27922314405441284,"116":-0.10276106745004654,"117":-0.24456031620502472,"118":0.2903977930545807,"119":0.24006088078022003,"120":0.048594240099191666,"121":0.20582102239131927,"122":0.13201580941677094,"123":-0.3378407061100006,"124":0.2819167971611023,"125":0.0599655918776989,"126":0.17378804087638855,"127":0.1547723263502121,"128":-0.0968594029545784,"129":0.1037098690867424,"130":-0.11577876657247543,"131":-0.1849490851163864,"132":-0.23392264544963837,"133":-0.09620067477226257,"134":0.01930970326066017,"135":0.3318776488304138,"136":0.06309753656387329,"137":-0.1475544422864914,"138":0.14810135960578918,"139":0.1338426172733307,"140":0.02512344717979431,"141":0.06037413701415062,"142":-0.038931213319301605,"143":-0.07964497804641724,"144":-0.03335224464535713,"145":-0.12338543683290482,"146":-0.0760236606001854,"147":0.08748131990432739,"148":-0.01893460378050804,"149":-0.07422461360692978,"150":0.06258153170347214,"151":-0.06343244761228561,"152":-0.08025046437978745,"153":-0.01092472393065691,"154":0.09747575223445892,"155":-0.002446780912578106,"156":0.02767195925116539,"157":0.028164105489850044,"158":0.03016459383070469,"159":0.04298556223511696,"160":0.15393739938735962,"161":0.2899421155452728,"162":0.3188001215457916,"163":-0.24897488951683044,"164":0.29730308055877686,"165":0.1921922117471695,"166":0.2263062447309494,"167":0.26558324694633484,"168":-0.16193418204784393,"169":0.08315827697515488,"170":-0.08466560393571854,"171":-0.1985531598329544,"172":-0.31417572498321533,"173":-0.11813688278198242,"174":-0.12744012475013733,"175":0.3781341314315796,"176":-0.09043942391872406,"177":-0.2137572467327118,"178":0.14303486049175262,"179":0.17555242776870728,"180":0.08764463663101196,"181":0.17729522287845612,"182":0.2645328938961029,"183":-0.21169163286685944,"184":0.2522074282169342,"185":0.12256336957216263,"186":0.08130799233913422,"187":0.23934952914714813,"188":-0.13916000723838806,"189":0.16371819376945496,"190":-0.07091297209262848,"191":-0.20634734630584717,"192":-0.1756879687309265,"193":-0.053534362465143204,"194":-0.11009059846401215,"195":0.33694693446159363,"196":0.025341149419546127,"197":-0.1749366968870163,"198":0.08748568594455719,"199":0.19309256970882416,"200":0.11047292500734329,"201":0.21381285786628723,"202":0.18092793226242065,"203":-0.191470667719841,"204":0.2595710754394531,"205":0.13782738149166107,"206":0.21021448075771332,"207":0.17429961264133453,"208":-0.16923896968364716,"209":0.12529020011425018,"210":-0.1766165941953659,"211":-0.22787687182426453,"212":-0.1472415030002594,"213":-0.09236013889312744,"214":-0.052861277014017105,"215":0.22504159808158875,"216":-0.09036922454833984,"217":-0.20822080969810486,"218":0.12525463104248047,"219":0.1794377714395523,"220":-0.031693655997514725,"221":-0.014470702968537807,"222":-0.00430214311927557,"223":-0.06692236661911011,"224":0.13420052826404572,"225":-0.03432434797286987,"226":0.017577558755874634,"227":0.08307642489671707,"228":-0.07264333963394165,"229":0.04875919595360756,"230":-0.057522401213645935,"231":-0.005655047483742237,"232":0.022713027894496918,"233":-0.03839602693915367,"234":0.005798686295747757,"235":0.10050669312477112,"236":0.05159775912761688,"237":-0.12064620107412338,"238":0.030801614746451378,"239":-0.004829770885407925,"240":-0.061818912625312805,"241":-0.006587198004126549,"242":0.09830887615680695,"243":-0.16549324989318848,"244":0.13566137850284576,"245":-0.008502572774887085,"246":0.002389080822467804,"247":0.06920947879552841,"248":0.03788716718554497,"249":-0.08557228744029999,"250":-0.041516561061143875,"251":-0.13119040429592133,"252":-0.03867495059967041,"253":0.1026846319437027,"254":0.10019131749868393,"255":0.05680513009428978,"256":0.05865505337715149,"257":0.02289668284356594,"258":0.09240629523992538,"259":0.02778015471994877,"260":0.10087210685014725,"261":0.3059622645378113,"262":0.16069599986076355,"263":-0.3135562241077423,"264":0.2545660436153412,"265":0.1840091347694397,"266":0.25366127490997314,"267":0.2525716722011566,"268":-0.17853309214115143,"269":0.12476205080747604,"270":-0.13863292336463928,"271":-0.30721357464790344,"272":-0.2575194835662842,"273":-0.16922901570796967,"274":-0.053307875990867615,"275":0.22337669134140015,"276":-0.17562568187713623,"277":-0.27327895164489746,"278":0.21474820375442505,"279":0.22622895240783691,"280":0.17169061303138733,"281":0.23184596002101898,"282":0.18675296008586884,"283":-0.29260915517807007,"284":0.2818094789981842,"285":0.23384571075439453,"286":0.2055099606513977,"287":0.19372804462909698,"288":-0.24311456084251404,"289":0.16241571307182312,"290":-0.2248774617910385,"291":-0.18606355786323547,"292":-0.26174622774124146,"293":-0.1657228320837021,"294":-0.20644648373126984,"295":0.3000163435935974,"296":-0.21417813003063202,"297":-0.2660224139690399,"298":0.19472531974315643,"299":0.1589781939983368,"300":-0.011556976474821568,"301":0.00592303741723299,"302":-0.08692418038845062,"303":-0.04482923075556755,"304":-0.001574796624481678,"305":-0.13952518999576569,"306":-0.0606127493083477,"307":-0.055399052798748016,"308":0.03458128497004509,"309":-0.06804843246936798,"310":-0.017255058512091637,"311":0.031852126121520996,"312":0.0578317753970623,"313":0.02423824928700924,"314":0.02594674937427044,"315":-0.07082438468933105,"316":0.06478655338287354,"317":-0.037969108670949936,"318":-0.002833928680047393,"319":-0.09028685837984085,"320":0.21219882369041443,"321":0.17279033362865448,"322":0.31308823823928833,"323":-0.20356392860412598,"324":0.20799989998340607,"325":0.21410563588142395,"326":0.2099936306476593,"327":0.2662363052368164,"328":-0.34237736463546753,"329":0.20933327078819275,"330":-0.32808220386505127,"331":-0.2588673233985901,"332":-0.17566604912281036,"333":-0.18261811137199402,"334":-0.3131907880306244,"335":0.2656545639038086,"336":-0.30505064129829407,"337":-0.18293312191963196,"338":0.1829291433095932,"339":0.18732677400112152,"340":0.11199414730072021,"341":0.13844417035579681,"342":0.030222071334719658,"343":-0.1586458832025528,"344":0.139166921377182,"345":-0.06508581340312958,"346":0.08086638897657394,"347":0.07438936084508896,"348":-0.12844079732894897,"349":-0.03962839022278786,"350":-0.012395077385008335,"351":-0.061727870255708694,"352":-0.15121854841709137,"353":-0.012289229780435562,"354":-0.026155216619372368,"355":0.2192501723766327,"356":-0.009802154265344143,"357":-0.15165190398693085,"358":0.13916052877902985,"359":0.018361326307058334,"360":-0.007278170436620712,"361":0.09811975061893463,"362":0.18512021005153656,"363":-0.23411595821380615,"364":0.14939990639686584,"365":-0.02691756747663021,"366":0.06814943999052048,"367":0.12827670574188232,"368":-0.17900092899799347,"369":0.06235403195023537,"370":-0.07285796105861664,"371":-0.09175194054841995,"372":-0.1314457654953003,"373":-0.06859651952981949,"374":-0.03660253435373306,"375":0.19604603946208954,"376":0.039074767380952835,"377":-0.10752438753843307,"378":0.1565484255552292,"379":0.160123810172081,"380":0.12553955614566803,"381":0.21286754310131073,"382":0.1723722219467163,"383":-0.35584428906440735,"384":0.31780967116355896,"385":0.1617356836795807,"386":0.15114787220954895,"387":0.25864335894584656,"388":-0.12485530227422714,"389":0.13009895384311676,"390":-0.06839106976985931,"391":-0.18029025197029114,"392":-0.29489338397979736,"393":-0.04742373526096344,"394":-0.09662789851427078,"395":0.33651798963546753,"396":0.04304907098412514,"397":-0.26297345757484436,"398":0.18977168202400208,"399":0.10585926473140717}},"forgetBias":{"rows":20,"columns":1,"weights":{"0":0,"1":0,"2":0,"3":0,"4":0,"5":0,"6":0,"7":0,"8":0,"9":0,"10":0,"11":0,"12":0,"13":0,"14":0,"15":0,"16":0,"17":0,"18":0,"19":0}},"outputMatrix":{"rows":20,"columns":4,"weights":{"0":-0.7207538485527039,"1":0.7431511282920837,"2":-0.6916807293891907,"3":-0.7309674620628357,"4":-0.8419174551963806,"5":0.8251826167106628,"6":-0.7989369630813599,"7":-0.8083335161209106,"8":-0.8520145416259766,"9":0.8585727214813232,"10":-0.7859025597572327,"11":-0.822084903717041,"12":-0.8453399538993835,"13":0.7469345927238464,"14":-0.7448190450668335,"15":-0.7079301476478577,"16":-0.7252194881439209,"17":0.7396738529205322,"18":-0.6979721784591675,"19":-0.7555176615715027,"20":-0.8147767186164856,"21":0.8176442384719849,"22":-0.9078323841094971,"23":-0.8798777461051941,"24":-0.76490318775177,"25":0.7957034111022949,"26":-0.7177539467811584,"27":-0.7810635566711426,"28":-0.8271912932395935,"29":0.8592338562011719,"30":-0.74235600233078,"31":-0.8024593591690063,"32":-0.8627382516860962,"33":0.8615326881408691,"34":-0.7448949813842773,"35":-0.831811785697937,"36":-0.7246828675270081,"37":0.7347097992897034,"38":-0.7770174741744995,"39":-0.8345081210136414,"40":-0.7177859544754028,"41":0.7981536984443665,"42":-0.769157350063324,"43":-0.779240608215332,"44":-0.7391099333763123,"45":0.6508398652076721,"46":-0.8002186417579651,"47":-0.6357287764549255,"48":-0.6535323858261108,"49":0.7099568843841553,"50":-0.7480241656303406,"51":-0.7549421191215515,"52":-0.8978511691093445,"53":1.0153322219848633,"54":-0.9881096482276917,"55":-1.0030187368392944,"56":-0.9034309983253479,"57":0.8906956315040588,"58":-1.0076069831848145,"59":-1.0365123748779297,"60":-0.7302128672599792,"61":0.7354176640510559,"62":-0.8065999746322632,"63":-0.8180961012840271,"64":-1.0348390340805054,"65":0.9577091932296753,"66":-1.0161359310150146,"67":-1.014504313468933,"68":-0.6428216695785522,"69":0.6774986386299133,"70":-0.6837831735610962,"71":-0.6831127405166626,"72":-0.6395719051361084,"73":0.621350884437561,"74":-0.5705556869506836,"75":-0.6612149477005005,"76":-0.8231123685836792,"77":0.8560182452201843,"78":-0.7832342386245728,"79":-0.8435230255126953}},"outputHidden":{"rows":20,"columns":20,"weights":{"0":-0.008663891814649105,"1":-0.0656062513589859,"2":-0.1277318000793457,"3":0.1256590634584427,"4":-0.073634073138237,"5":-0.004285339266061783,"6":-0.11143261194229126,"7":-0.10703133046627045,"8":0.0754411369562149,"9":0.04943118989467621,"10":-0.04559081792831421,"11":0.036402128636837006,"12":0.10361191630363464,"13":0.05838635563850403,"14":0.06204710900783539,"15":-0.09721217304468155,"16":-0.07059154659509659,"17":0.017184365540742874,"18":-0.035643063485622406,"19":0.01564928889274597,"20":-0.1625102311372757,"21":-0.227386012673378,"22":-0.21722382307052612,"23":0.18920351564884186,"24":-0.2690656781196594,"25":-0.21997059881687164,"26":-0.22919093072414398,"27":-0.2250804603099823,"28":0.2482525110244751,"29":-0.22713084518909454,"30":0.2682272493839264,"31":0.29225850105285645,"32":0.20040486752986908,"33":0.17078222334384918,"34":0.250458687543869,"35":-0.18436211347579956,"36":0.18748024106025696,"37":0.1655265837907791,"38":-0.2638721168041229,"39":-0.29830202460289,"40":-0.301531583070755,"41":-0.16457046568393707,"42":-0.2215539813041687,"43":0.08233258873224258,"44":-0.125257670879364,"45":-0.17327450215816498,"46":-0.1375807225704193,"47":-0.19304995238780975,"48":0.13629546761512756,"49":-0.2703273296356201,"50":0.1310207098722458,"51":0.1240178719162941,"52":0.16132107377052307,"53":0.3052420914173126,"54":0.18258105218410492,"55":-0.23297670483589172,"56":0.19911745190620422,"57":0.2025417536497116,"58":-0.23205427825450897,"59":-0.16181151568889618,"60":-0.34520307183265686,"61":-0.42219868302345276,"62":-0.3283316493034363,"63":0.43645086884498596,"64":-0.4472120702266693,"65":-0.3903390169143677,"66":-0.4136080741882324,"67":-0.3517080843448639,"68":0.27323949337005615,"69":-0.33939188718795776,"70":0.34177321195602417,"71":0.3793370723724365,"72":0.3546006381511688,"73":0.36985060572624207,"74":0.32307618856430054,"75":-0.40171313285827637,"76":0.32382863759994507,"77":0.305966854095459,"78":-0.31050172448158264,"79":-0.3220001459121704,"80":-0.22181683778762817,"81":-0.31432002782821655,"82":-0.3057047128677368,"83":0.23944315314292908,"84":-0.2675305902957916,"85":-0.2952960729598999,"86":-0.30439186096191406,"87":-0.2342211753129959,"88":0.24443712830543518,"89":-0.14292074739933014,"90":0.16191403567790985,"91":0.23821474611759186,"92":0.18619756400585175,"93":0.1871422529220581,"94":0.23252305388450623,"95":-0.30611976981163025,"96":0.30435076355934143,"97":0.16951198875904083,"98":-0.28544238209724426,"99":-0.3026055693626404,"100":-0.1964443176984787,"101":-0.18488597869873047,"102":-0.1301257312297821,"103":0.22125233709812164,"104":-0.1610126942396164,"105":-0.13965754210948944,"106":-0.04410407319664955,"107":-0.12341443449258804,"108":0.05958065763115883,"109":-0.029802532866597176,"110":0.10063569247722626,"111":0.1483154296875,"112":0.07717011123895645,"113":0.09549574553966522,"114":-0.0039179339073598385,"115":-0.12064525485038757,"116":0.05051137134432793,"117":0.13926859200000763,"118":-0.07428670674562454,"119":-0.05911020189523697,"120":-0.2591950595378876,"121":-0.20237579941749573,"122":-0.25282731652259827,"123":0.15212532877922058,"124":-0.25052958726882935,"125":-0.18918268382549286,"126":-0.18368573486804962,"127":-0.1155872642993927,"128":0.1756032556295395,"129":-0.16696663200855255,"130":0.134577676653862,"131":0.2535574436187744,"132":0.17051100730895996,"133":0.2479102462530136,"134":0.17526718974113464,"135":-0.21940729022026062,"136":0.28857943415641785,"137":0.1197509691119194,"138":-0.1343783140182495,"139":-0.24669653177261353,"140":-0.3518955409526825,"141":-0.26947078108787537,"142":-0.29319167137145996,"143":0.3197537362575531,"144":-0.3406818211078644,"145":-0.3255281150341034,"146":-0.20674709975719452,"147":-0.2978275418281555,"148":0.2705906629562378,"149":-0.30299073457717896,"150":0.2685161828994751,"151":0.325592041015625,"152":0.27711719274520874,"153":0.301827073097229,"154":0.20805922150611877,"155":-0.25320538878440857,"156":0.37192144989967346,"157":0.2682758867740631,"158":-0.3452218770980835,"159":-0.23215533792972565,"160":-0.2753598392009735,"161":-0.28520476818084717,"162":-0.2867782413959503,"163":0.20936636626720428,"164":-0.24403256177902222,"165":-0.2731787860393524,"166":-0.1728024184703827,"167":-0.31270870566368103,"168":0.12892590463161469,"169":-0.17256537079811096,"170":0.24339938163757324,"171":0.16372638940811157,"172":0.23750218749046326,"173":0.20749831199645996,"174":0.24559839069843292,"175":-0.32939082384109497,"176":0.22976887226104736,"177":0.19993062317371368,"178":-0.20190513134002686,"179":-0.2577168941497803,"180":-0.13397227227687836,"181":-0.2023443877696991,"182":-0.14678113162517548,"183":0.21387171745300293,"184":-0.12704597413539886,"185":-0.0404207706451416,"186":-0.17357538640499115,"187":-0.23777011036872864,"188":0.18649105727672577,"189":-0.09790093451738358,"190":0.0017247371142730117,"191":0.07808337360620499,"192":0.07816141098737717,"193":0.11822157353162766,"194":0.030976198613643646,"195":-0.1011529266834259,"196":0.08239010721445084,"197":0.07407467067241669,"198":-0.09946278482675552,"199":-0.2100324183702469,"200":-0.07470245659351349,"201":-0.10167747735977173,"202":-0.08377014100551605,"203":0.09520557522773743,"204":-0.12166616320610046,"205":-0.05429888516664505,"206":-0.040047019720077515,"207":-0.024256622418761253,"208":0.029070690274238586,"209":0.003502310486510396,"210":-0.000640612212009728,"211":0.06475836783647537,"212":0.11788789182901382,"213":0.05447356775403023,"214":-0.039051249623298645,"215":-0.03371270373463631,"216":0.021375425159931183,"217":0.14588692784309387,"218":-0.023439183831214905,"219":-0.010618090629577637,"220":-0.1775534600019455,"221":-0.3046688139438629,"222":-0.272507905960083,"223":0.23153583705425262,"224":-0.2622041404247284,"225":-0.33647048473358154,"226":-0.2617204487323761,"227":-0.23525121808052063,"228":0.25754469633102417,"229":-0.17941814661026,"230":0.18182472884655,"231":0.19233253598213196,"232":0.30865296721458435,"233":0.21032102406024933,"234":0.24122834205627441,"235":-0.2097640037536621,"236":0.2996872067451477,"237":0.15883001685142517,"238":-0.1872597336769104,"239":-0.21824026107788086,"240":-0.2486327886581421,"241":-0.28155001997947693,"242":-0.2948351204395294,"243":0.36056387424468994,"244":-0.3586012125015259,"245":-0.2986137568950653,"246":-0.22189928591251373,"247":-0.22135114669799805,"248":0.2911316156387329,"249":-0.2541271448135376,"250":0.24606375396251678,"251":0.25951799750328064,"252":0.21972259879112244,"253":0.3610188663005829,"254":0.3389721214771271,"255":-0.2289395034313202,"256":0.2822601795196533,"257":0.3276979625225067,"258":-0.32351410388946533,"259":-0.34848544001579285,"260":-0.17482683062553406,"261":-0.11974576115608215,"262":-0.11287422478199005,"263":0.22281578183174133,"264":-0.15135028958320618,"265":-0.16693879663944244,"266":-0.1700308620929718,"267":-0.09699495881795883,"268":0.09962370991706848,"269":-0.11523734778165817,"270":0.061395276337862015,"271":0.16365502774715424,"272":0.18029507994651794,"273":0.14685875177383423,"274":0.08288195729255676,"275":-0.2100052684545517,"276":0.02191333658993244,"277":0.05938674509525299,"278":-0.09592179208993912,"279":-0.1772361844778061,"280":-0.14107024669647217,"281":-0.25337618589401245,"282":-0.1618805080652237,"283":0.26690948009490967,"284":-0.16067220270633698,"285":-0.1998865008354187,"286":-0.14157763123512268,"287":-0.21207241714000702,"288":0.10184051841497421,"289":-0.18746797740459442,"290":0.1841486692428589,"291":0.25073692202568054,"292":0.12992830574512482,"293":0.11275753378868103,"294":0.12107310444116592,"295":-0.28672096133232117,"296":0.13138803839683533,"297":0.10024812072515488,"298":-0.12438460439443588,"299":-0.12552130222320557,"300":-0.1987970471382141,"301":-0.24757327139377594,"302":-0.2139420360326767,"303":0.25350865721702576,"304":-0.24808348715305328,"305":-0.32106801867485046,"306":-0.3059168756008148,"307":-0.3031769096851349,"308":0.23389917612075806,"309":-0.208689883351326,"310":0.13904233276844025,"311":0.2747751772403717,"312":0.2716846764087677,"313":0.24753883481025696,"314":0.17882569134235382,"315":-0.24734260141849518,"316":0.30253222584724426,"317":0.3116264045238495,"318":-0.3123927712440491,"319":-0.32342907786369324,"320":-0.12881869077682495,"321":-0.16494040191173553,"322":-0.24276788532733917,"323":0.2388012409210205,"324":-0.19388152658939362,"325":-0.24835729598999023,"326":-0.11572898924350739,"327":-0.2743109166622162,"328":0.14777551591396332,"329":-0.13941547274589539,"330":0.12115631252527237,"331":0.16047848761081696,"332":0.14951688051223755,"333":0.1950511634349823,"334":0.16575372219085693,"335":-0.2311190515756607,"336":0.13904187083244324,"337":0.18515774607658386,"338":-0.1392301619052887,"339":-0.2350112646818161,"340":-0.1655365228652954,"341":-0.1755342185497284,"342":-0.2808968424797058,"343":0.2357233464717865,"344":-0.16774991154670715,"345":-0.3287234306335449,"346":-0.20816998183727264,"347":-0.20900404453277588,"348":0.18394511938095093,"349":-0.18516014516353607,"350":0.25006088614463806,"351":0.22736822068691254,"352":0.16708114743232727,"353":0.3087213933467865,"354":0.3000459671020508,"355":-0.15647268295288086,"356":0.345693439245224,"357":0.2636326551437378,"358":-0.22938764095306396,"359":-0.2562464773654938,"360":-0.19259393215179443,"361":-0.17195869982242584,"362":-0.26654186844825745,"363":0.14937379956245422,"364":-0.1663370579481125,"365":-0.20675989985466003,"366":-0.1279134601354599,"367":-0.12316744774580002,"368":0.24598103761672974,"369":-0.1741643100976944,"370":0.2239415943622589,"371":0.18474310636520386,"372":0.1067696213722229,"373":0.1912611871957779,"374":0.1590116173028946,"375":-0.13940179347991943,"376":0.33824363350868225,"377":0.22572854161262512,"378":-0.17157939076423645,"379":-0.22308963537216187,"380":-0.25999757647514343,"381":-0.15371659398078918,"382":-0.25945383310317993,"383":0.2550852298736572,"384":-0.17623326182365417,"385":-0.1847015619277954,"386":-0.1690770387649536,"387":-0.17009253799915314,"388":0.15180368721485138,"389":-0.12744683027267456,"390":0.1762976497411728,"391":0.14802329242229462,"392":0.2686653137207031,"393":0.24614931643009186,"394":0.21035899221897125,"395":-0.28105616569519043,"396":0.23923923075199127,"397":0.19686441123485565,"398":-0.15149778127670288,"399":-0.12462323904037476}},"outputBias":{"rows":20,"columns":1,"weights":{"0":0.6035269498825073,"1":0.4871271252632141,"2":0.47729557752609253,"3":0.4081319272518158,"4":0.44787296652793884,"5":0.7049863934516907,"6":0.5289677381515503,"7":0.4967508614063263,"8":0.5725406408309937,"9":0.652010977268219,"10":0.6083444952964783,"11":0.4078320264816284,"12":0.35356494784355164,"13":0.8874422907829285,"14":0.8931812644004822,"15":0.4349808990955353,"16":0.8934588432312012,"17":0.40263235569000244,"18":0.33213454484939575,"19":0.60443115234375}},"cellActivationMatrix":{"rows":20,"columns":4,"weights":{"0":0.5558861494064331,"1":-0.7168627977371216,"2":0.4998565912246704,"3":0.5561916828155518,"4":0.7114537954330444,"5":-0.7517112493515015,"6":0.691724956035614,"7":0.6004453301429749,"8":0.785133421421051,"9":-0.7078047394752502,"10":0.599365234375,"11":0.5882377028465271,"12":-0.7565581202507019,"13":0.7116172909736633,"14":-0.7323635220527649,"15":-0.5943568348884583,"16":0.5749334096908569,"17":-0.6068888306617737,"18":0.5994327068328857,"19":0.6129732728004456,"20":0.6933475732803345,"21":-0.5914515256881714,"22":0.5303105115890503,"23":0.46455052495002747,"24":0.6627560257911682,"25":-0.8124403357505798,"26":0.6846795678138733,"27":0.6858532428741455,"28":0.6380520462989807,"29":-0.7294235825538635,"30":0.6616342663764954,"31":0.6704598665237427,"32":-0.7381423115730286,"33":0.8163467645645142,"34":-0.6993367075920105,"35":-0.7589024305343628,"36":0.5439686179161072,"37":-0.6687912344932556,"38":0.523613452911377,"39":0.5818063616752625,"40":-0.5031214356422424,"41":0.5153002142906189,"42":-0.521178662776947,"43":-0.6795519590377808,"44":-0.5094352960586548,"45":0.5753899216651917,"46":-0.6266821026802063,"47":-0.7032915353775024,"48":-0.6048460602760315,"49":0.796301007270813,"50":-0.6906993985176086,"51":-0.6953252553939819,"52":-0.585533857345581,"53":0.5834895372390747,"54":-0.46373140811920166,"55":-0.4826430380344391,"56":-0.46212664246559143,"57":0.5721518397331238,"58":-0.37917035818099976,"59":-0.4094664752483368,"60":0.5447446703910828,"61":-0.6121171116828918,"62":0.5444632768630981,"63":0.5704031586647034,"64":-0.45543980598449707,"65":0.4735710024833679,"66":-0.4639987349510193,"67":-0.4215717613697052,"68":-0.6144593358039856,"69":0.6362400054931641,"70":-0.6180639266967773,"71":-0.649955689907074,"72":0.6517736315727234,"73":-0.6712473630905151,"74":0.715827465057373,"75":0.623275876045227,"76":0.8054644465446472,"77":-0.8289204835891724,"78":0.7494547963142395,"79":0.581220805644989}},"cellActivationHidden":{"rows":20,"columns":20,"weights":{"0":-0.0939132496714592,"1":-0.0633256807923317,"2":-0.10188226401805878,"3":0.17551006376743317,"4":-0.17720501124858856,"5":0.022885901853442192,"6":-0.12862448394298553,"7":-0.18619447946548462,"8":0.028366515412926674,"9":-0.027108699083328247,"10":-0.053716812282800674,"11":0.19835735857486725,"12":0.14457474648952484,"13":0.012553367763757706,"14":-0.28524839878082275,"15":-0.1565895825624466,"16":-0.32568880915641785,"17":0.12070999294519424,"18":-0.13082052767276764,"19":-0.10194423794746399,"20":0.1620004028081894,"21":0.1765730082988739,"22":0.1429617553949356,"23":-0.10467672348022461,"24":0.12323054671287537,"25":0.16992202401161194,"26":0.07073827087879181,"27":0.17711803317070007,"28":-0.15164072811603546,"29":0.16987758874893188,"30":-0.16786478459835052,"31":-0.07064096629619598,"32":-0.06444306671619415,"33":-0.1585296243429184,"34":-0.22669638693332672,"35":0.06517995893955231,"36":-0.13329076766967773,"37":-0.11272062361240387,"38":0.10318794846534729,"39":0.12741698324680328,"40":0.11881522834300995,"41":0.07705584913492203,"42":0.07431206107139587,"43":-0.1488744169473648,"44":0.08973069489002228,"45":0.20189730823040009,"46":0.14197313785552979,"47":0.14181633293628693,"48":-0.17989122867584229,"49":0.13722190260887146,"50":-0.09285525232553482,"51":-0.04388050362467766,"52":-0.1388133317232132,"53":-0.1530686914920807,"54":-0.16399352252483368,"55":0.05246248468756676,"56":-0.25807228684425354,"57":-0.05886651203036308,"58":0.14156948029994965,"59":0.08494410663843155,"60":-0.1642356514930725,"61":-0.11167751252651215,"62":-0.18503382802009583,"63":0.08055673539638519,"64":-0.1506766974925995,"65":-0.13536223769187927,"66":-0.1396978795528412,"67":-0.24644848704338074,"68":0.19615331292152405,"69":-0.14784160256385803,"70":0.17455609142780304,"71":0.21881349384784698,"72":0.20804913341999054,"73":0.1686486005783081,"74":0.24067701399326324,"75":-0.19240741431713104,"76":0.26382118463516235,"77":0.17758814990520477,"78":-0.13199195265769958,"79":-0.137434184551239,"80":0.09963897615671158,"81":0.08509058505296707,"82":0.16613973677158356,"83":-0.15039917826652527,"84":0.21260379254817963,"85":0.10199721902608871,"86":0.12328290939331055,"87":0.11547348648309708,"88":-0.1246868371963501,"89":0.21779705584049225,"90":-0.1244051605463028,"91":-0.07858636230230331,"92":-0.10992810130119324,"93":-0.19554536044597626,"94":-0.17218776047229767,"95":0.18528003990650177,"96":-0.13793843984603882,"97":-0.11593169718980789,"98":0.23864352703094482,"99":0.24691863358020782,"100":-0.04333796352148056,"101":-0.15395113825798035,"102":-0.15014132857322693,"103":0.18226441740989685,"104":-0.20429575443267822,"105":-0.09855092316865921,"106":-0.01966213248670101,"107":-0.14822839200496674,"108":0.0797896608710289,"109":-0.11338502168655396,"110":0.07310429215431213,"111":0.21620795130729675,"112":0.21213775873184204,"113":0.06735578179359436,"114":-0.15051184594631195,"115":-0.2752680480480194,"116":-0.13076859712600708,"117":0.06066112965345383,"118":-0.08140113204717636,"119":-0.08826759457588196,"120":0.049843572080135345,"121":-0.12251702696084976,"122":-0.1001715362071991,"123":0.22993233799934387,"124":-0.22852525115013123,"125":0.15565592050552368,"126":-0.03941446542739868,"127":-0.19741970300674438,"128":0.013959708623588085,"129":0.19039447605609894,"130":-0.16755911707878113,"131":0.2614043354988098,"132":0.1077130138874054,"133":-0.19041667878627777,"134":-0.5962437391281128,"135":-0.2946828603744507,"136":-0.6595367193222046,"137":0.08800335228443146,"138":-0.05712835490703583,"139":-0.0786290392279625,"140":0.2274278849363327,"141":0.1962408423423767,"142":0.2099737673997879,"143":-0.15788283944129944,"144":0.15986719727516174,"145":0.24156488478183746,"146":0.19989050924777985,"147":0.10150252282619476,"148":-0.1839132308959961,"149":0.12548835575580597,"150":-0.21660511195659637,"151":-0.14671267569065094,"152":-0.11940944939851761,"153":-0.2451895922422409,"154":-0.13484157621860504,"155":0.0721684992313385,"156":-0.11251906305551529,"157":-0.09741909056901932,"158":0.1297145038843155,"159":0.20764540135860443,"160":-0.06289312243461609,"161":0.16738773882389069,"162":0.08983003348112106,"163":-0.259663850069046,"164":0.18990901112556458,"165":-0.10924084484577179,"166":-0.009546010755002499,"167":0.16664567589759827,"168":-0.07878150045871735,"169":-0.029147472232580185,"170":0.16335129737854004,"171":-0.11926983296871185,"172":-0.22849217057228088,"173":0.19051799178123474,"174":0.5961012840270996,"175":0.17159773409366608,"176":0.6439127326011658,"177":-0.16730177402496338,"178":0.09665615111589432,"179":-0.0028634786140173674,"180":-0.01131608709692955,"181":-0.1817261278629303,"182":-0.19056271016597748,"183":0.25933605432510376,"184":-0.19690118730068207,"185":0.0066584013402462006,"186":-0.12414010614156723,"187":-0.2577533721923828,"188":0.17082670331001282,"189":-0.09872089326381683,"190":0.02532876469194889,"191":0.276163786649704,"192":0.11381649971008301,"193":0.059592053294181824,"194":-0.1256813257932663,"195":-0.3185817003250122,"196":-0.28356316685676575,"197":0.1344028264284134,"198":-0.17990513145923615,"199":-0.07430455833673477,"200":-0.09881167858839035,"201":0.16870108246803284,"202":0.14136207103729248,"203":-0.3640972375869751,"204":0.21350666880607605,"205":-0.007676851935684681,"206":0.08189234137535095,"207":0.1961994469165802,"208":-0.04441622644662857,"209":-0.10431604087352753,"210":0.14778544008731842,"211":-0.2760070562362671,"212":-0.2508527338504791,"213":0.1679801344871521,"214":0.39406049251556396,"215":0.34923312067985535,"216":0.3586280941963196,"217":-0.18479777872562408,"218":0.04080136865377426,"219":-0.05865272879600525,"220":-0.15917205810546875,"221":-0.17296920716762543,"222":-0.052883561700582504,"223":0.05715709552168846,"224":-0.15179520845413208,"225":-0.16616743803024292,"226":-0.12550733983516693,"227":-0.07429318130016327,"228":0.1188955307006836,"229":-0.19625216722488403,"230":0.19207705557346344,"231":0.11992399394512177,"232":0.11680881679058075,"233":0.14444459974765778,"234":0.22523900866508484,"235":-0.12465260177850723,"236":0.13968408107757568,"237":0.12882722914218903,"238":-0.15164250135421753,"239":-0.18729889392852783,"240":-0.19454188644886017,"241":-0.07246027886867523,"242":-0.12997697293758392,"243":0.021991807967424393,"244":0.00046442379243671894,"245":-0.2243562489748001,"246":-0.18623380362987518,"247":0.006652687210589647,"248":0.07794079184532166,"249":-0.15345554053783417,"250":0.15878158807754517,"251":0.06953726708889008,"252":0.15770120918750763,"253":0.10951691120862961,"254":0.17032429575920105,"255":-0.05720025300979614,"256":0.15679511427879333,"257":0.054830387234687805,"258":-0.06472822278738022,"259":-0.11355217546224594,"260":0.10152502357959747,"261":0.23392915725708008,"262":0.2772906422615051,"263":-0.3868360221385956,"264":0.30094802379608154,"265":0.11217251420021057,"266":0.1315220296382904,"267":0.2387574464082718,"268":-0.1980849802494049,"269":0.06362229585647583,"270":-0.014907704666256905,"271":-0.2267564982175827,"272":-0.21951620280742645,"273":-0.004527498502284288,"274":0.008389224298298359,"275":0.3580121397972107,"276":0.16302646696567535,"277":-0.2144218385219574,"278":0.1361226737499237,"279":0.08221200108528137,"280":0.2870981693267822,"281":0.3606264293193817,"282":0.3674570620059967,"283":-0.504284679889679,"284":0.48900237679481506,"285":0.3350737690925598,"286":0.285681813955307,"287":0.48202046751976013,"288":-0.267136812210083,"289":0.2023821473121643,"290":-0.15236890316009521,"291":-0.5035911202430725,"292":-0.4513643980026245,"293":-0.2547760009765625,"294":-0.12524676322937012,"295":0.5455502271652222,"296":-0.10897495597600937,"297":-0.45662420988082886,"298":0.3469224274158478,"299":0.3011816442012787,"300":0.23450928926467896,"301":0.22022145986557007,"302":0.2627562880516052,"303":-0.1700328141450882,"304":0.17365016043186188,"305":0.25993695855140686,"306":0.20859244465827942,"307":0.21592923998832703,"308":-0.09880183637142181,"309":0.11431686580181122,"310":-0.13533556461334229,"311":-0.11866433173418045,"312":-0.17581534385681152,"313":-0.14894403517246246,"314":-0.1943836361169815,"315":0.1808183789253235,"316":-0.24151773750782013,"317":-0.10982881486415863,"318":0.2606249749660492,"319":0.2152441293001175,"320":0.3104745149612427,"321":0.49116504192352295,"322":0.5033686757087708,"323":-0.5847108364105225,"324":0.46533769369125366,"325":0.3621646761894226,"326":0.23864102363586426,"327":0.45166662335395813,"328":-0.37884625792503357,"329":0.22366997599601746,"330":-0.24681732058525085,"331":-0.5297760367393494,"332":-0.4687967896461487,"333":-0.2178674191236496,"334":-0.16265864670276642,"335":0.47640830278396606,"336":-0.12830094993114471,"337":-0.35421690344810486,"338":0.30858084559440613,"339":0.30747243762016296,"340":-0.11672002077102661,"341":-0.09376776218414307,"342":-0.02670115977525711,"343":0.05306931957602501,"344":-0.038008082658052444,"345":-0.2407679557800293,"346":-0.11406300216913223,"347":0.019559942185878754,"348":0.13013461232185364,"349":-0.20862199366092682,"350":0.16270028054714203,"351":0.1156022846698761,"352":0.09995206445455551,"353":0.1443883627653122,"354":0.17663244903087616,"355":0.018871590495109558,"356":0.2039254605770111,"357":0.09596222639083862,"358":-0.15645384788513184,"359":-0.1944086104631424,"360":0.17556920647621155,"361":0.06134480983018875,"362":0.01973092183470726,"363":-0.0058502741158008575,"364":-0.05314013361930847,"365":0.15766453742980957,"366":0.14754243195056915,"367":0.03685259446501732,"368":-0.12737303972244263,"369":0.09528971463441849,"370":-0.1831279844045639,"371":0.005557449068874121,"372":0.03163328394293785,"373":-0.1336226463317871,"374":-0.24616539478302002,"375":-0.002963761566206813,"376":-0.29947033524513245,"377":0.02676946483552456,"378":0.02101791277527809,"379":0.10891421884298325,"380":0.02577325887978077,"381":-0.13323362171649933,"382":-0.08836569637060165,"383":0.26681554317474365,"384":-0.1838790327310562,"385":0.09749040752649307,"386":-0.020731071010231972,"387":-0.1495119333267212,"388":0.0769677460193634,"389":0.0731365829706192,"390":-0.2597476541996002,"391":0.23605851829051971,"392":0.11958413571119308,"393":-0.21183840930461884,"394":-0.5214011073112488,"395":-0.22769281268119812,"396":-0.5686384439468384,"397":0.11947310715913773,"398":-0.12002788484096527,"399":-0.0764889121055603}},"cellActivationBias":{"rows":20,"columns":1,"weights":{"0":-0.6445739269256592,"1":-0.5471717715263367,"2":-0.5646908283233643,"3":0.4554463028907776,"4":-0.527492880821228,"5":-0.6992258429527283,"6":-0.6048476696014404,"7":-0.5605341196060181,"8":0.5465161800384521,"9":-0.6757657527923584,"10":0.6524816155433655,"11":0.48753151297569275,"12":0.4163450300693512,"13":0.8963979482650757,"14":0.9653114080429077,"15":-0.5395037531852722,"16":0.9671356081962585,"17":0.49685510993003845,"18":-0.47991275787353516,"19":-0.5922449231147766}}},{"inputMatrix":{"rows":20,"columns":20,"weights":{"0":-0.3889656066894531,"1":-0.07696033269166946,"2":-0.09525029361248016,"3":0.057580165565013885,"4":-0.059780579060316086,"5":-0.4679224491119385,"6":-0.09289463609457016,"7":-0.05002390593290329,"8":0.2872924506664276,"9":-0.3680785596370697,"10":0.3233405351638794,"11":0.08368480950593948,"12":0.029758013784885406,"13":0.4644605815410614,"14":0.5291842222213745,"15":-0.09149568527936935,"16":0.5894433856010437,"17":0.017505276948213577,"18":-0.1708742082118988,"19":-0.27092254161834717,"20":-0.03823879361152649,"21":-0.2867697775363922,"22":-0.1546999216079712,"23":0.17793968319892883,"24":-0.2674936056137085,"25":-0.15506644546985626,"26":0.11587728559970856,"27":-0.19288530945777893,"28":-0.07593176513910294,"29":0.00520847924053669,"30":-0.08867131918668747,"31":0.17149485647678375,"32":0.17686590552330017,"33":0.1303308755159378,"34":0.7808900475502014,"35":-0.20552174746990204,"36":0.8452744483947754,"37":0.21144306659698486,"38":-0.10627500712871552,"39":0.14351822435855865,"40":-0.4662677049636841,"41":-0.031203649938106537,"42":-0.017255043610930443,"43":-0.14540040493011475,"44":0.08144432306289673,"45":-0.6595569252967834,"46":-0.058831892907619476,"47":0.06810594350099564,"48":0.2745235562324524,"49":-0.5074802041053772,"50":0.41290268301963806,"51":-0.11976199597120285,"52":-0.016663119196891785,"53":0.6407558917999268,"54":0.6568711400032043,"55":0.021204158663749695,"56":0.6270123720169067,"57":0.029968079179525375,"58":-0.08653268218040466,"59":-0.2750796675682068,"60":0.06048702448606491,"61":0.0949031189084053,"62":0.07782690972089767,"63":-0.14054898917675018,"64":0.1410900056362152,"65":0.03653331100940704,"66":0.26951321959495544,"67":0.025584891438484192,"68":-0.3378622531890869,"69":0.14188210666179657,"70":-0.23296169936656952,"71":-0.026898259297013283,"72":-0.1354687660932541,"73":-0.08465206623077393,"74":-0.0008470424800179899,"75":0.023267831653356552,"76":0.02383602038025856,"77":-0.1387217938899994,"78":0.11687522381544113,"79":0.15283583104610443,"80":-0.6741209030151367,"81":-0.7888153791427612,"82":-0.695602536201477,"83":0.8299933075904846,"84":-0.7732645869255066,"85":-0.7421136498451233,"86":-0.7741222977638245,"87":-0.8298234343528748,"88":0.7259073853492737,"89":-0.6893939971923828,"90":0.646259605884552,"91":0.704738438129425,"92":0.7998847365379333,"93":0.6635873913764954,"94":0.7463544011116028,"95":-0.7497908473014832,"96":0.6467676162719727,"97":0.7510009407997131,"98":-0.7510112524032593,"99":-0.7087129950523376,"100":-0.5726788640022278,"101":-0.559457540512085,"102":-0.5398001074790955,"103":0.5663421154022217,"104":-0.6169233918190002,"105":-0.4996974766254425,"106":-0.5936885476112366,"107":-0.509009063243866,"108":0.47901827096939087,"109":-0.49324658513069153,"110":0.4300926625728607,"111":0.6487047672271729,"112":0.5658508539199829,"113":0.5459839701652527,"114":0.451078861951828,"115":-0.5162731409072876,"116":0.44575804471969604,"117":0.5485973358154297,"118":-0.6055551171302795,"119":-0.5062458515167236,"120":-0.4368140995502472,"121":-0.49018892645835876,"122":-0.4268532395362854,"123":0.4274757504463196,"124":-0.4088924825191498,"125":-0.367093563079834,"126":-0.37894031405448914,"127":-0.4687974750995636,"128":0.33441758155822754,"129":-0.2785225808620453,"130":0.34640178084373474,"131":0.5238714814186096,"132":0.46861955523490906,"133":0.33480170369148254,"134":0.23211896419525146,"135":-0.4629687964916229,"136":0.1829562783241272,"137":0.4260358214378357,"138":-0.36436083912849426,"139":-0.3280734419822693,"140":-0.6238032579421997,"141":-0.6549957990646362,"142":-0.5622594356536865,"143":0.6836832165718079,"144":-0.5601574778556824,"145":-0.6088300943374634,"146":-0.5673438906669617,"147":-0.6373175382614136,"148":0.5989623069763184,"149":-0.5429988503456116,"150":0.5651496648788452,"151":0.6346952319145203,"152":0.5491784811019897,"153":0.5189674496650696,"154":0.5533713102340698,"155":-0.6786089539527893,"156":0.6351954340934753,"157":0.6746004819869995,"158":-0.5490145683288574,"159":-0.5760762095451355,"160":-0.44568243622779846,"161":-0.6088858246803284,"162":-0.6097217798233032,"163":0.5802863836288452,"164":-0.6087498664855957,"165":-0.41927093267440796,"166":-0.4768182039260864,"167":-0.6051725149154663,"168":0.5092166662216187,"169":-0.4242875874042511,"170":0.3715881109237671,"171":0.5122808218002319,"172":0.5933065414428711,"173":0.39793750643730164,"174":0.2900656759738922,"175":-0.49696093797683716,"176":0.13513849675655365,"177":0.5289531946182251,"178":-0.5712078213691711,"179":-0.5452311038970947,"180":-0.4760739207267761,"181":-0.43178749084472656,"182":-0.4487568438053131,"183":0.5059866905212402,"184":-0.42514821887016296,"185":-0.431878924369812,"186":-0.3890436291694641,"187":-0.5160530209541321,"188":0.3443310260772705,"189":-0.38230109214782715,"190":0.3957351744174957,"191":0.4494647979736328,"192":0.44467270374298096,"193":0.3844769299030304,"194":0.3001626431941986,"195":-0.539760947227478,"196":0.2707005739212036,"197":0.4978213608264923,"198":-0.38336658477783203,"199":-0.43245238065719604,"200":-0.343730092048645,"201":0.013377543538808823,"202":0.010825775563716888,"203":0.03923448175191879,"204":-0.024323932826519012,"205":-0.43729692697525024,"206":0.029280606657266617,"207":0.043022360652685165,"208":-0.02351296693086624,"209":-0.4617752134799957,"210":0.270614892244339,"211":0.02136915922164917,"212":-0.04765121638774872,"213":0.47130608558654785,"214":0.8916666507720947,"215":-0.0867980420589447,"216":0.8054431676864624,"217":0.06732438504695892,"218":0.013126532547175884,"219":0.11880937218666077,"220":-0.5701587796211243,"221":-0.6916477084159851,"222":-0.5784308910369873,"223":0.7386645078659058,"224":-0.6875849962234497,"225":-0.6937689185142517,"226":-0.534550666809082,"227":-0.5687416195869446,"228":0.5794743299484253,"229":-0.6650811433792114,"230":0.6264546513557434,"231":0.6459800601005554,"232":0.5663676261901855,"233":0.6327540278434753,"234":0.6818706393241882,"235":-0.7161182761192322,"236":0.5703199505805969,"237":0.5995265245437622,"238":-0.5763708353042603,"239":-0.5899314880371094,"240":-0.5284010767936707,"241":-0.6695016622543335,"242":-0.5052704811096191,"243":0.5655345916748047,"244":-0.6235464811325073,"245":-0.39918985962867737,"246":-0.5277986526489258,"247":-0.6679635643959045,"248":0.47573602199554443,"249":-0.4178784191608429,"250":0.4330119490623474,"251":0.5953184962272644,"252":0.5084490180015564,"253":0.4636392295360565,"254":0.5318102240562439,"255":-0.6879045367240906,"256":0.46322524547576904,"257":0.5463072061538696,"258":-0.5571877956390381,"259":-0.5276878476142883,"260":-0.09130455553531647,"261":-0.34959378838539124,"262":-0.27902859449386597,"263":0.31284812092781067,"264":-0.382557213306427,"265":0.0049598063342273235,"266":-0.19457700848579407,"267":-0.32184213399887085,"268":0.18513482809066772,"269":-0.10776171088218689,"270":0.22948844730854034,"271":0.2368432581424713,"272":0.3270525336265564,"273":0.11281784623861313,"274":0.016889045014977455,"275":-0.29864639043807983,"276":-0.03895385563373566,"277":0.2513677477836609,"278":-0.31040436029434204,"279":-0.13819167017936707,"280":-0.606352686882019,"281":-0.5359761118888855,"282":-0.6148214936256409,"283":0.5151892900466919,"284":-0.6126071810722351,"285":-0.4950350522994995,"286":-0.5581134557723999,"287":-0.6176186800003052,"288":0.4928942620754242,"289":-0.5426138639450073,"290":0.5430760383605957,"291":0.5311314463615417,"292":0.48840025067329407,"293":0.5831601023674011,"294":0.5678271651268005,"295":-0.6132652759552002,"296":0.6144325137138367,"297":0.5114536881446838,"298":-0.4903876483440399,"299":-0.5740336179733276,"300":-0.7044442296028137,"301":-0.7776952385902405,"302":-0.823661744594574,"303":0.8009783625602722,"304":-0.8294133543968201,"305":-0.5740737915039062,"306":-0.6820439696311951,"307":-0.7811477184295654,"308":0.5881631374359131,"309":-0.6246621012687683,"310":0.5938705801963806,"311":0.7317581176757812,"312":0.717747688293457,"313":0.5932398438453674,"314":0.6351556777954102,"315":-0.8018929362297058,"316":0.5786482095718384,"317":0.7784112095832825,"318":-0.6893175840377808,"319":-0.708652913570404,"320":-0.30698949098587036,"321":-0.14623215794563293,"322":-0.07242496311664581,"323":0.1146283820271492,"324":-0.087067611515522,"325":-0.667728841304779,"326":-0.09373445063829422,"327":-0.03852725401520729,"328":0.13953310251235962,"329":-0.5939534306526184,"330":0.28358229994773865,"331":0.06510421633720398,"332":0.0034484276548027992,"333":0.7644339203834534,"334":0.8186699748039246,"335":-0.07433005422353745,"336":0.807073712348938,"337":0.053461670875549316,"338":-0.03216180205345154,"339":-0.13737747073173523,"340":0.014191617257893085,"341":0.006521098781377077,"342":-0.0008558445842936635,"343":-0.10681713372468948,"344":0.1217472106218338,"345":0.13102556765079498,"346":0.19862942397594452,"347":0.00891979318112135,"348":-0.18529601395130157,"349":0.09984180331230164,"350":-0.10435966402292252,"351":-0.04577069729566574,"352":-0.029827386140823364,"353":0.017227716743946075,"354":0.057508695870637894,"355":0.0534730963408947,"356":0.07933811843395233,"357":-0.11207980662584305,"358":0.10980356484651566,"359":0.19674889743328094,"360":-0.4331553876399994,"361":-0.587913990020752,"362":-0.558383047580719,"363":0.5782871842384338,"364":-0.5675923824310303,"365":-0.42379656434059143,"366":-0.48167043924331665,"367":-0.5082210898399353,"368":0.4969302713871002,"369":-0.45443955063819885,"370":0.4617283046245575,"371":0.5427674055099487,"372":0.5147675275802612,"373":0.5173581838607788,"374":0.44882097840309143,"375":-0.6137675046920776,"376":0.4477000832557678,"377":0.46799129247665405,"378":-0.5999879240989685,"379":-0.5273143649101257,"380":-0.33987393975257874,"381":-0.4097546935081482,"382":-0.5195721387863159,"383":0.5619054436683655,"384":-0.42170029878616333,"385":-0.3652271032333374,"386":-0.4501853585243225,"387":-0.48983508348464966,"388":0.30397242307662964,"389":-0.3939870297908783,"390":0.42238208651542664,"391":0.506466269493103,"392":0.4367465078830719,"393":0.29928985238075256,"394":0.3075249195098877,"395":-0.5136942863464355,"396":0.353059321641922,"397":0.5226195454597473,"398":-0.3892817497253418,"399":-0.4035370647907257}},"inputHidden":{"rows":20,"columns":20,"weights":{"0":-0.04183162376284599,"1":0.24209830164909363,"2":-0.2241715043783188,"3":0.4873012900352478,"4":0.5149958729743958,"5":-0.20222266018390656,"6":-0.08998407423496246,"7":0.42340558767318726,"8":0.09031663089990616,"9":-0.20535552501678467,"10":0.3293745517730713,"11":-0.520409882068634,"12":0.7414209842681885,"13":-0.6849937438964844,"14":-0.39927175641059875,"15":-0.6708580255508423,"16":-0.2953716516494751,"17":0.6847200989723206,"18":0.33133190870285034,"19":-0.16691163182258606,"20":-0.2636772692203522,"21":0.38218021392822266,"22":-0.32872235774993896,"23":0.6271893978118896,"24":0.9954954385757446,"25":-0.5245782732963562,"26":0.05719514563679695,"27":0.387886106967926,"28":0.5910405516624451,"29":-0.1770816296339035,"30":0.4801246225833893,"31":-0.3263435363769531,"32":1.1994216442108154,"33":-1.0148097276687622,"34":-0.2583479583263397,"35":-1.0403871536254883,"36":-0.32870903611183167,"37":0.872087836265564,"38":0.37178927659988403,"39":-0.2153838574886322,"40":-0.1761445552110672,"41":0.39188671112060547,"42":-0.3413587212562561,"43":0.5187846422195435,"44":0.6135355830192566,"45":-0.31354397535324097,"46":-0.2461336851119995,"47":0.5999049544334412,"48":0.04754176363348961,"49":-0.24762985110282898,"50":0.4367460608482361,"51":-0.5981838703155518,"52":0.5735194087028503,"53":-0.5316485166549683,"54":-0.6008188724517822,"55":-0.6341150403022766,"56":-0.38858485221862793,"57":0.4717371463775635,"58":0.3410611152648926,"59":-0.2062709629535675,"60":-0.019011877477169037,"61":0.011366688646376133,"62":-0.12688219547271729,"63":0.5635387301445007,"64":0.769092321395874,"65":-0.057712774723768234,"66":0.2447187900543213,"67":0.10644228011369705,"68":0.02710186503827572,"69":0.08370769768953323,"70":0.12762576341629028,"71":-0.16134808957576752,"72":0.8138307929039001,"73":-0.8061724305152893,"74":-0.03938310965895653,"75":-0.8286982774734497,"76":-0.20105841755867004,"77":0.6152405738830566,"78":-0.05586772784590721,"79":0.022779639810323715,"80":0.4618462026119232,"81":-0.43506062030792236,"82":0.4410821795463562,"83":0.426353394985199,"84":-0.04687245562672615,"85":0.29654645919799805,"86":0.46256351470947266,"87":-0.3130548298358917,"88":0.26505887508392334,"89":0.43087640404701233,"90":-0.4249209761619568,"91":0.24433939158916473,"92":0.3022890090942383,"93":-0.44536885619163513,"94":0.2905302047729492,"95":-0.19182372093200684,"96":0.467483788728714,"97":0.34798723459243774,"98":-0.44835975766181946,"99":0.5178353786468506,"100":0.4027661383152008,"101":-0.3187068700790405,"102":0.41798171401023865,"103":0.4587796628475189,"104":-0.055989477783441544,"105":0.27231889963150024,"106":0.439633846282959,"107":-0.03492329642176628,"108":0.24666212499141693,"109":0.40240904688835144,"110":-0.3937235176563263,"111":0.17492380738258362,"112":0.3801221251487732,"113":-0.4410562813282013,"114":0.2417493611574173,"115":-0.23625190556049347,"116":0.39102548360824585,"117":0.4038822650909424,"118":-0.39908748865127563,"119":0.43429020047187805,"120":0.4544644355773926,"121":-0.48791003227233887,"122":0.4380326569080353,"123":0.11082726716995239,"124":-0.42788445949554443,"125":0.035719551146030426,"126":0.4240803122520447,"127":-0.39159873127937317,"128":0.2889631390571594,"129":0.22902177274227142,"130":-0.3957849144935608,"131":0.453364759683609,"132":-0.1152043342590332,"133":0.0712781548500061,"134":0.4030495285987854,"135":0.08398221433162689,"136":0.5897160172462463,"137":0.0482386089861393,"138":-0.2061901092529297,"139":0.24543873965740204,"140":0.34323403239250183,"141":-0.3114495873451233,"142":0.35759228467941284,"143":0.3848268389701843,"144":-0.026308130472898483,"145":0.2675834894180298,"146":0.3723485767841339,"147":-0.26633715629577637,"148":0.26762112975120544,"149":0.4762187600135803,"150":-0.4139406681060791,"151":0.30634450912475586,"152":0.3703538179397583,"153":-0.46699127554893494,"154":0.38324373960494995,"155":-0.21065934002399445,"156":0.2565029561519623,"157":0.3072274625301361,"158":-0.38050076365470886,"159":0.45100289583206177,"160":0.48661941289901733,"161":-0.4420579969882965,"162":0.46063855290412903,"163":0.08392611891031265,"164":-0.11699483543634415,"165":0.056693799793720245,"166":0.4415138065814972,"167":-0.0636744275689125,"168":0.10362494736909866,"169":0.48351579904556274,"170":-0.3669392466545105,"171":0.013996930792927742,"172":-0.01590230129659176,"173":0.04007074981927872,"174":0.20144033432006836,"175":-0.06285098940134048,"176":0.6432273387908936,"177":0.09173252433538437,"178":-0.23291724920272827,"179":0.40598493814468384,"180":0.4835965037345886,"181":-0.216732457280159,"182":0.4717993438243866,"183":0.42426618933677673,"184":-0.10589627176523209,"185":0.3987932503223419,"186":0.4977337419986725,"187":-0.05825144425034523,"188":0.07826922833919525,"189":0.5470350980758667,"190":-0.1748650074005127,"191":0.1900375485420227,"192":0.389180451631546,"193":-0.43415042757987976,"194":0.1636056751012802,"195":-0.12426673620939255,"196":0.37949493527412415,"197":0.3911689519882202,"198":-0.4258110821247101,"199":0.3949483036994934,"200":-0.17625558376312256,"201":0.22716830670833588,"202":-0.09568477421998978,"203":0.33791232109069824,"204":0.6968197226524353,"205":-0.4983537793159485,"206":-0.028280628845095634,"207":0.2622467875480652,"208":0.5378542542457581,"209":-0.03602704778313637,"210":0.07328344136476517,"211":-0.24767133593559265,"212":0.9840574264526367,"213":-0.5460460186004639,"214":-0.21578463912010193,"215":-0.970623791217804,"216":-0.16050560772418976,"217":0.48393896222114563,"218":0.2631632387638092,"219":-0.21799054741859436,"220":0.3447098433971405,"221":-0.34985312819480896,"222":0.44425612688064575,"223":0.5143300294876099,"224":0.39818206429481506,"225":0.05028004199266434,"226":0.4006081819534302,"227":-0.28809449076652527,"228":0.312885046005249,"229":0.4849678575992584,"230":-0.29909810423851013,"231":-0.05066938325762749,"232":0.4554389417171478,"233":-0.4695804715156555,"234":0.33159318566322327,"235":-0.47439172863960266,"236":0.2388771027326584,"237":0.4181918501853943,"238":-0.32751843333244324,"239":0.4392227530479431,"240":0.18087053298950195,"241":-0.42604246735572815,"242":0.21054884791374207,"243":0.09725027531385422,"244":-0.10453822463750839,"245":0.20062774419784546,"246":0.31897345185279846,"247":-0.3300199806690216,"248":0.28766125440597534,"249":0.250921368598938,"250":-0.347038209438324,"251":0.21835589408874512,"252":0.13004539906978607,"253":0.08835510909557343,"254":0.3765241205692291,"255":0.05558532103896141,"256":0.18299947679042816,"257":0.16731351613998413,"258":-0.3172896206378937,"259":0.30936211347579956,"260":0.44173315167427063,"261":-0.4228820502758026,"262":0.4544547498226166,"263":0.010659538209438324,"264":-0.14745958149433136,"265":0.23934513330459595,"266":0.3351874351501465,"267":-0.4059390723705292,"268":0.15196990966796875,"269":0.34844037890434265,"270":-0.3808707296848297,"271":0.23931436240673065,"272":-0.03044814057648182,"273":0.17825409770011902,"274":0.45469802618026733,"275":0.16698697209358215,"276":0.4590992033481598,"277":0.10476861894130707,"278":-0.39795511960983276,"279":0.43347859382629395,"280":0.40715470910072327,"281":-0.329362154006958,"282":0.3809550404548645,"283":0.4247882068157196,"284":0.2828376591205597,"285":0.16112905740737915,"286":0.3770444393157959,"287":-0.21365505456924438,"288":0.15820752084255219,"289":0.46663039922714233,"290":-0.3474859893321991,"291":0.09253821521997452,"292":0.43431031703948975,"293":-0.440669983625412,"294":0.20430800318717957,"295":-0.36620402336120605,"296":0.15696531534194946,"297":0.42849212884902954,"298":-0.23119309544563293,"299":0.41731250286102295,"300":0.3283703923225403,"301":-0.3346025347709656,"302":0.44474804401397705,"303":0.200474813580513,"304":0.043404772877693176,"305":0.33845776319503784,"306":0.34022319316864014,"307":-0.37379154562950134,"308":0.1370248943567276,"309":0.46832194924354553,"310":-0.40532389283180237,"311":0.08701509982347488,"312":0.32800301909446716,"313":-0.24411185085773468,"314":0.3249690532684326,"315":-0.1997850239276886,"316":0.3584205210208893,"317":0.17162340879440308,"318":-0.48513859510421753,"319":0.47381657361984253,"320":0.048663925379514694,"321":0.17981930077075958,"322":-0.03267120197415352,"323":0.4077988266944885,"324":0.4768598973751068,"325":-0.2849007844924927,"326":-0.0536528117954731,"327":0.5329352021217346,"328":0.5639060735702515,"329":-0.013308484107255936,"330":0.34989088773727417,"331":-0.5747199058532715,"332":0.42212215065956116,"333":-0.3574979603290558,"334":-0.4143167734146118,"335":-0.6103693842887878,"336":0.011856229044497013,"337":0.44644272327423096,"338":0.2356201410293579,"339":-0.12421129643917084,"340":-0.002518703695386648,"341":0.046168528497219086,"342":-0.0063940915279090405,"343":0.4767726957798004,"344":0.6832225918769836,"345":0.020077742636203766,"346":0.18948695063591003,"347":0.04414860159158707,"348":0.11587167531251907,"349":0.20883619785308838,"350":0.10329370945692062,"351":-0.22304636240005493,"352":0.7823617458343506,"353":-0.7657661437988281,"354":0.00012211300781928003,"355":-0.7449669241905212,"356":-0.1371150016784668,"357":0.5728104710578918,"358":0.007616148330271244,"359":0.07341858744621277,"360":0.46677619218826294,"361":-0.30080196261405945,"362":0.43551817536354065,"363":0.392768532037735,"364":-0.11691342294216156,"365":0.10591194033622742,"366":0.3781302869319916,"367":-0.10873278975486755,"368":0.22940993309020996,"369":0.3821883499622345,"370":-0.18658295273780823,"371":0.1140299066901207,"372":0.4653887152671814,"373":-0.3818965554237366,"374":0.16012278199195862,"375":-0.17414051294326782,"376":0.41163504123687744,"377":0.4489094316959381,"378":-0.32794496417045593,"379":0.3482937216758728,"380":0.44143757224082947,"381":-0.26810961961746216,"382":0.4643291234970093,"383":0.3953068256378174,"384":-0.20088675618171692,"385":0.35132846236228943,"386":0.31777089834213257,"387":-0.30503275990486145,"388":0.12701553106307983,"389":0.5298991203308105,"390":-0.268950879573822,"391":0.25600680708885193,"392":0.49966293573379517,"393":-0.46248868107795715,"394":0.35841065645217896,"395":0.09313612431287766,"396":0.2704496681690216,"397":0.3262926936149597,"398":-0.4431925117969513,"399":0.3940870761871338}},"inputBias":{"rows":20,"columns":1,"weights":{"0":0.5026969909667969,"1":0.5182957053184509,"2":0.6513409614562988,"3":-0.09806649386882782,"4":0.6766230463981628,"5":0.5326859354972839,"6":0.34585049748420715,"7":0.6057408452033997,"8":0.12492303550243378,"9":0.3081282079219818,"10":0.3782521188259125,"11":0.6733062267303467,"12":0.44842657446861267,"13":-0.06409066170454025,"14":0.5975214242935181,"15":0.5590553283691406,"16":1.1138089895248413,"17":-0.0752825066447258,"18":0.4891785681247711,"19":0.37502703070640564}},"forgetMatrix":{"rows":20,"columns":20,"weights":{"0":-0.05514886602759361,"1":0.028861213475465775,"2":0.0888361781835556,"3":-0.07157859951257706,"4":0.069111168384552,"5":-0.13465410470962524,"6":0.01537803839892149,"7":0.06420137733221054,"8":0.04005904123187065,"9":-0.1298082172870636,"10":0.08389484137296677,"11":-0.053965695202350616,"12":-0.0014200573787093163,"13":0.18994249403476715,"14":0.432445228099823,"15":0.11928132176399231,"16":0.5775877237319946,"17":-0.03489281237125397,"18":0.0489070899784565,"19":-0.12071304768323898,"20":0.520639181137085,"21":0.28304585814476013,"22":0.32791897654533386,"23":-0.31646546721458435,"24":0.3038247525691986,"25":0.5389602780342102,"26":0.41225937008857727,"27":0.27076247334480286,"28":-0.5796995759010315,"29":0.63510662317276,"30":-0.5769081711769104,"31":-0.232952281832695,"32":-0.3850882351398468,"33":-0.5725385546684265,"34":-0.18893711268901825,"35":0.3098887801170349,"36":-0.22909826040267944,"37":-0.2074422687292099,"38":0.3049640953540802,"39":0.5182484984397888,"40":-0.055612221360206604,"41":0.1283901333808899,"42":0.10559818148612976,"43":-0.09668172895908356,"44":0.10507729649543762,"45":-0.2592822313308716,"46":0.007649148814380169,"47":0.15466414391994476,"48":0.1929076910018921,"49":-0.2141072303056717,"50":0.11233444511890411,"51":-0.09336692839860916,"52":-0.02743220143020153,"53":0.24980483949184418,"54":0.5077954530715942,"55":0.16363152861595154,"56":0.5631141662597656,"57":-0.1373622566461563,"58":-0.02814760059118271,"59":-0.07703829556703568,"60":-0.22551991045475006,"61":-0.2611071467399597,"62":-0.27681368589401245,"63":0.32501915097236633,"64":-0.2069413959980011,"65":-0.2852054834365845,"66":-0.3399801254272461,"67":-0.32355421781539917,"68":0.17183375358581543,"69":-0.22452779114246368,"70":0.3110067546367645,"71":0.22651520371437073,"72":0.1764422357082367,"73":0.20015820860862732,"74":0.29882341623306274,"75":-0.21075716614723206,"76":0.27809587121009827,"77":0.3362814784049988,"78":-0.2885132133960724,"79":-0.25606897473335266,"80":0.38604608178138733,"81":0.5091108083724976,"82":0.5585997104644775,"83":-0.6080487370491028,"84":0.4688543379306793,"85":0.38013339042663574,"86":0.5754460096359253,"87":0.5962533950805664,"88":-0.5853241086006165,"89":0.4076693654060364,"90":-0.39045000076293945,"91":-0.5304815769195557,"92":-0.5455751419067383,"93":-0.2779427766799927,"94":-0.19747518002986908,"95":0.4775781035423279,"96":-0.12180636078119278,"97":-0.5013709664344788,"98":0.574944794178009,"99":0.48839932680130005,"100":0.02090103179216385,"101":-0.13527704775333405,"102":-0.06340955197811127,"103":0.08431446552276611,"104":-0.18788856267929077,"105":0.16409622132778168,"106":-0.05177174136042595,"107":-0.1437816023826599,"108":-0.07533968240022659,"109":0.013447565026581287,"110":0.15481363236904144,"111":0.23140977323055267,"112":-0.0006116244476288557,"113":-0.14714321494102478,"114":-0.31812503933906555,"115":-0.26192188262939453,"116":-0.39395225048065186,"117":0.13288776576519012,"118":-0.07763849198818207,"119":0.05718274414539337,"120":-0.3526519536972046,"121":-0.13847748935222626,"122":-0.27177438139915466,"123":0.09891697764396667,"124":-0.12047488987445831,"125":-0.25902068614959717,"126":-0.3814145624637604,"127":-0.13510513305664062,"128":0.464852511882782,"129":-0.39641493558883667,"130":0.41949036717414856,"131":0.20960062742233276,"132":0.18958233296871185,"133":0.42289575934410095,"134":0.0014366278192028403,"135":-0.13752569258213043,"136":0.10167133808135986,"137":0.20578670501708984,"138":-0.34773993492126465,"139":-0.3978719115257263,"140":0.2991916835308075,"141":0.4017775356769562,"142":0.410093754529953,"143":-0.4256356656551361,"144":0.402737021446228,"145":-0.0007653527427464724,"146":0.34882625937461853,"147":0.5380698442459106,"148":-0.29225820302963257,"149":0.1075076088309288,"150":-0.11812801659107208,"151":-0.3753978908061981,"152":-0.4135412871837616,"153":0.13634942471981049,"154":0.5076184272766113,"155":0.43407198786735535,"156":0.4161893129348755,"157":-0.37642237544059753,"158":0.4734399616718292,"159":0.29807090759277344,"160":-0.25044143199920654,"161":-0.3936154842376709,"162":-0.4154902696609497,"163":0.28456956148147583,"164":-0.24101363122463226,"165":-0.0791509672999382,"166":-0.4478548467159271,"167":-0.373007208108902,"168":0.3365938663482666,"169":-0.2573942542076111,"170":0.47708860039711,"171":0.3877505958080292,"172":0.30770593881607056,"173":0.24345839023590088,"174":0.13297291100025177,"175":-0.4070941209793091,"176":-0.03583480417728424,"177":0.332248330116272,"178":-0.39363893866539,"179":-0.23688088357448578,"180":0.17912475764751434,"181":-0.15981483459472656,"182":-0.14673775434494019,"183":0.2737366557121277,"184":-0.19569046795368195,"185":0.21049612760543823,"186":0.052836086601018906,"187":-0.09502114355564117,"188":-0.015852874144911766,"189":0.2273738533258438,"190":-0.1369231939315796,"191":0.2676313519477844,"192":0.056926190853118896,"193":-0.16840119659900665,"194":-0.441469669342041,"195":-0.2717214524745941,"196":-0.46303504705429077,"197":0.07455526292324066,"198":0.00699870428070426,"199":0.04717332869768143,"200":0.5049978494644165,"201":0.30807313323020935,"202":0.26011693477630615,"203":-0.28486865758895874,"204":0.41254499554634094,"205":0.5007938742637634,"206":0.4962816834449768,"207":0.4052067995071411,"208":-0.587212860584259,"209":0.36213985085487366,"210":-0.483515202999115,"211":-0.28586289286613464,"212":-0.39908191561698914,"213":-0.39619606733322144,"214":-0.11292988806962967,"215":0.27323368191719055,"216":-0.0588810034096241,"217":-0.2413269281387329,"218":0.35953646898269653,"219":0.47292640805244446,"220":0.13314589858055115,"221":0.4687570631504059,"222":0.511055052280426,"223":-0.534038245677948,"224":0.44878020882606506,"225":-0.0292090754956007,"226":0.31338372826576233,"227":0.46695396304130554,"228":-0.35628828406333923,"229":0.053076304495334625,"230":-0.20739853382110596,"231":-0.39236196875572205,"232":-0.37520650029182434,"233":0.11786007136106491,"234":0.37541553378105164,"235":0.5696437954902649,"236":0.355929434299469,"237":-0.4211934208869934,"238":0.3347124755382538,"239":0.39628317952156067,"240":-0.46395716071128845,"241":-0.5745411515235901,"242":-0.524530291557312,"243":0.5331735610961914,"244":-0.41938266158103943,"245":-0.2102852165699005,"246":-0.4839065968990326,"247":-0.49497345089912415,"248":0.5057777762413025,"249":-0.40500298142433167,"250":0.51399827003479,"251":0.4441055953502655,"252":0.5038759708404541,"253":0.22554384171962738,"254":0.09003990888595581,"255":-0.4526202082633972,"256":-0.06395480781793594,"257":0.5025337934494019,"258":-0.5072222352027893,"259":-0.45634353160858154,"260":-0.1894574910402298,"261":-0.2449856996536255,"262":-0.2237788885831833,"263":0.26765742897987366,"264":-0.32371649146080017,"265":-0.03757776692509651,"266":-0.316782683134079,"267":-0.2601608335971832,"268":0.2958640158176422,"269":-0.3424677848815918,"270":0.35295799374580383,"271":0.34806445240974426,"272":0.3236996829509735,"273":0.12929143011569977,"274":0.11222563683986664,"275":-0.3005874454975128,"276":0.11683973670005798,"277":0.32508373260498047,"278":-0.2934068441390991,"279":-0.3092992603778839,"280":0.21780067682266235,"281":0.3507264256477356,"282":0.42880865931510925,"283":-0.503530740737915,"284":0.41003453731536865,"285":0.0629606619477272,"286":0.31096383929252625,"287":0.4428529441356659,"288":-0.21953526139259338,"289":0.044128257781267166,"290":-0.18774116039276123,"291":-0.371360182762146,"292":-0.39999666810035706,"293":0.13437920808792114,"294":0.4529382884502411,"295":0.38308408856391907,"296":0.24198055267333984,"297":-0.29323631525039673,"298":0.4089326560497284,"299":0.34635746479034424,"300":0.5641726851463318,"301":0.45119109749794006,"302":0.43729010224342346,"303":-0.5692138671875,"304":0.5082796812057495,"305":0.43764811754226685,"306":0.5207711458206177,"307":0.4990203082561493,"308":-0.6637786030769348,"309":0.4743034541606903,"310":-0.48526209592819214,"311":-0.5285513997077942,"312":-0.6537807583808899,"313":-0.466624915599823,"314":-0.14327050745487213,"315":0.43980923295021057,"316":-0.10965818911790848,"317":-0.5193518400192261,"318":0.4789021909236908,"319":0.6724828481674194,"320":-0.08691992610692978,"321":0.09489074349403381,"322":0.06679897010326385,"323":-0.11991540342569351,"324":0.04648079350590706,"325":-0.1686968207359314,"326":0.013479135930538177,"327":0.03181285411119461,"328":0.09965992718935013,"329":-0.1704302877187729,"330":0.06982257217168808,"331":-0.05186937376856804,"332":-0.05725233256816864,"333":0.2575232684612274,"334":0.373006135225296,"335":0.07118384540081024,"336":0.2964458763599396,"337":0.04929554462432861,"338":-0.023790474981069565,"339":-0.061291854828596115,"340":-0.2643951177597046,"341":-0.3637692630290985,"342":-0.37397873401641846,"343":0.336899071931839,"344":-0.3722909092903137,"345":-0.27785176038742065,"346":-0.2568894028663635,"347":-0.294991672039032,"348":0.2129650115966797,"349":-0.3249969780445099,"350":0.2758302390575409,"351":0.33505523204803467,"352":0.3555165231227875,"353":0.2504444718360901,"354":0.2609509229660034,"355":-0.3974829614162445,"356":0.16018356382846832,"357":0.3165658116340637,"358":-0.2415183186531067,"359":-0.332907497882843,"360":0.19724713265895844,"361":0.6779183149337769,"362":0.5127701759338379,"363":-0.6625553965568542,"364":0.6143189668655396,"365":0.1311504989862442,"366":0.534812867641449,"367":0.518659234046936,"368":-0.5636530518531799,"369":0.1936696171760559,"370":-0.18782050907611847,"371":-0.5959564447402954,"372":-0.6053836345672607,"373":-0.0075711095705628395,"374":0.3595591187477112,"375":0.5102443695068359,"376":0.460094690322876,"377":-0.5159510374069214,"378":0.588699221611023,"379":0.4584495723247528,"380":-0.22255727648735046,"381":0.02809506095945835,"382":0.045259516686201096,"383":0.004688074346631765,"384":-0.07870446145534515,"385":-0.20374660193920135,"386":-0.16169214248657227,"387":-0.04110030457377434,"388":0.07385105639696121,"389":-0.26206985116004944,"390":0.18699121475219727,"391":-0.02914568781852722,"392":0.028699342161417007,"393":0.24735277891159058,"394":-0.034925419837236404,"395":0.007809234783053398,"396":0.012776263058185577,"397":0.1113506481051445,"398":0.01512016262859106,"399":-0.18185709416866302}},"forgetHidden":{"rows":20,"columns":20,"weights":{"0":-0.0226345956325531,"1":0.21231579780578613,"2":-0.05374588817358017,"3":0.4250286817550659,"4":0.44322115182876587,"5":-0.1738450825214386,"6":0.03399625048041344,"7":0.30637654662132263,"8":0.0177235659211874,"9":-0.009285488165915012,"10":0.20576925575733185,"11":-0.4531530439853668,"12":0.5777736306190491,"13":-0.5151395797729492,"14":-0.41865766048431396,"15":-0.5540161728858948,"16":-0.20317210257053375,"17":0.43983927369117737,"18":0.19100460410118103,"19":-0.14495646953582764,"20":-0.21269281208515167,"21":0.09887709468603134,"22":-0.06853070110082626,"23":0.00045663249329663813,"24":-0.22267776727676392,"25":-0.9107773900032043,"26":-0.29715779423713684,"27":0.1732647567987442,"28":1.0929828882217407,"29":-0.250144362449646,"30":0.006767792161554098,"31":-0.2600060701370239,"32":-0.16569262742996216,"33":0.2798716425895691,"34":-0.06939803063869476,"35":0.27133578062057495,"36":0.12481039762496948,"37":0.012722194194793701,"38":0.37212005257606506,"39":-0.39791104197502136,"40":-0.2489597499370575,"41":0.3942713737487793,"42":-0.3459509313106537,"43":0.29443487524986267,"44":0.5485712885856628,"45":-0.017398232594132423,"46":-0.1340370923280716,"47":0.49580055475234985,"48":-0.12462929636240005,"49":-0.27009809017181396,"50":0.38494035601615906,"51":-0.44358429312705994,"52":0.47685691714286804,"53":-0.4094703793525696,"54":-0.5775424242019653,"55":-0.5180116891860962,"56":-0.46458786725997925,"57":0.3417905867099762,"58":0.36681661009788513,"59":-0.24488474428653717,"60":0.31008800864219666,"61":-0.1777196079492569,"62":0.23026448488235474,"63":0.35966452956199646,"64":0.26483792066574097,"65":0.095431387424469,"66":0.33067786693573,"67":-0.044956665486097336,"68":0.09295940399169922,"69":0.3286571502685547,"70":-0.2551787197589874,"71":-0.00054179597645998,"72":0.39057478308677673,"73":-0.31933650374412537,"74":0.06005827337503433,"75":-0.3759026527404785,"76":0.1966591477394104,"77":0.3097286820411682,"78":-0.18873237073421478,"79":0.1744312047958374,"80":-0.5800414681434631,"81":0.4276176393032074,"82":-0.48382094502449036,"83":-0.18449009954929352,"84":0.28280726075172424,"85":-0.11933792382478714,"86":-0.49814990162849426,"87":0.18709836900234222,"88":-0.25958356261253357,"89":-0.4162023067474365,"90":0.3914569616317749,"91":-0.24055825173854828,"92":0.05653170868754387,"93":-0.06411883234977722,"94":-0.27540332078933716,"95":-0.24805940687656403,"96":-0.7428979873657227,"97":-0.03586806729435921,"98":0.24965615570545197,"99":-0.3358765244483948,"100":0.09423530101776123,"101":-0.7834654450416565,"102":0.3358321189880371,"103":-0.11812465637922287,"104":-0.6455526351928711,"105":0.17760983109474182,"106":0.22085487842559814,"107":-0.9032418131828308,"108":0.22981882095336914,"109":0.2304915189743042,"110":-0.8473902940750122,"111":0.9302980303764343,"112":-0.21502777934074402,"113":0.3019731640815735,"114":0.9386017322540283,"115":0.6647696495056152,"116":0.30220934748649597,"117":-0.3267603814601898,"118":-0.3080962300300598,"119":0.30595293641090393,"120":0.3389795124530792,"121":-0.5535863637924194,"122":0.4789510667324066,"123":-0.14204363524913788,"124":-0.8199716806411743,"125":-0.35548076033592224,"126":0.10267522186040878,"127":-0.37372007966041565,"128":0.5601305961608887,"129":-0.0029410102870315313,"130":-0.580788791179657,"131":0.2711750566959381,"132":-0.6083839535713196,"133":0.6465877294540405,"134":0.5242513418197632,"135":0.7538610100746155,"136":0.604608416557312,"137":-0.2571991980075836,"138":-0.049102675169706345,"139":-0.07334340363740921,"140":-0.6858072876930237,"141":0.5569669008255005,"142":-0.4917971193790436,"143":-0.5926504731178284,"144":-0.1973162144422531,"145":-0.2232280671596527,"146":-0.8723241686820984,"147":0.3660022020339966,"148":0.17404745519161224,"149":-0.5507308840751648,"150":0.38667812943458557,"151":-0.32689473032951355,"152":-0.5980092883110046,"153":0.7185513377189636,"154":-0.23272334039211273,"155":0.3043973743915558,"156":-0.5006676912307739,"157":-0.41704148054122925,"158":0.300503134727478,"159":-0.5154009461402893,"160":0.4288613200187683,"161":-0.6464601755142212,"162":0.5377943515777588,"163":-0.1451123058795929,"164":-0.3038393557071686,"165":-0.22222749888896942,"166":0.45161399245262146,"167":-0.38479289412498474,"168":0.5598838925361633,"169":0.1728610396385193,"170":-0.5598605275154114,"171":0.30717721581459045,"172":-0.3979147970676422,"173":0.3304302394390106,"174":0.4821632206439972,"175":0.1878322958946228,"176":0.5739303231239319,"177":-0.14834584295749664,"178":-0.12252639979124069,"179":0.22437897324562073,"180":-0.1481052041053772,"181":-0.786212146282196,"182":0.018052706494927406,"183":-0.3922489583492279,"184":-0.5768847465515137,"185":0.13488361239433289,"186":0.022966831922531128,"187":-0.808688759803772,"188":0.012353471480309963,"189":0.24597792327404022,"190":-0.8077980279922485,"191":0.7818273901939392,"192":-0.6140547394752502,"193":0.6618622541427612,"194":0.7726173996925354,"195":0.6292770504951477,"196":0.12434779107570648,"197":-0.6260856986045837,"198":-0.5383073091506958,"199":0.05228157341480255,"200":-0.25428420305252075,"201":0.05157843232154846,"202":-0.049389343708753586,"203":-0.028921296820044518,"204":-0.42567700147628784,"205":-0.9042642712593079,"206":-0.43575894832611084,"207":0.21672558784484863,"208":1.24332857131958,"209":-0.18298181891441345,"210":-0.02274402417242527,"211":-0.3532450497150421,"212":-0.3330669105052948,"213":0.3577921688556671,"214":-0.024782629683613777,"215":0.3057078719139099,"216":0.20048725605010986,"217":-0.12322098016738892,"218":0.327339231967926,"219":-0.4580090045928955,"220":-0.5768769383430481,"221":0.5552335977554321,"222":-0.4432283341884613,"223":-0.4369559586048126,"224":-0.0476747490465641,"225":-0.24866487085819244,"226":-0.7051747441291809,"227":0.21636728942394257,"228":0.037773437798023224,"229":-0.560100793838501,"230":0.4716551601886749,"231":-0.18332511186599731,"232":-0.4143545925617218,"233":0.5038736462593079,"234":-0.2201875001192093,"235":0.19989658892154694,"236":-0.4967291057109833,"237":-0.30719995498657227,"238":0.3182193636894226,"239":-0.44196081161499023,"240":0.48445719480514526,"241":-0.44295400381088257,"242":0.45004329085350037,"243":0.2773905396461487,"244":-0.03688161075115204,"245":0.4581555128097534,"246":0.5824427604675293,"247":-0.4078594446182251,"248":-0.19241225719451904,"249":0.4717768430709839,"250":-0.3872934877872467,"251":0.326194703578949,"252":0.17406287789344788,"253":-0.4274519383907318,"254":0.39841270446777344,"255":-0.0019509083358570933,"256":0.36336883902549744,"257":0.21600647270679474,"258":-0.38266244530677795,"259":0.5309209227561951,"260":0.20671743154525757,"261":-0.27950388193130493,"262":0.32187384366989136,"263":0.26740017533302307,"264":-0.07286947965621948,"265":0.0063307806849479675,"266":0.24614004790782928,"267":-0.19097743928432465,"268":0.14133532345294952,"269":0.21795392036437988,"270":-0.30658215284347534,"271":0.288615882396698,"272":0.2765607535839081,"273":-0.47624918818473816,"274":0.29928624629974365,"275":-0.021239185705780983,"276":0.29218995571136475,"277":0.22023604810237885,"278":-0.22748515009880066,"279":0.1642911732196808,"280":-0.6552921533584595,"281":0.4806039035320282,"282":-0.49449998140335083,"283":-0.4923790693283081,"284":0.0226188525557518,"285":-0.24863213300704956,"286":-0.7369440197944641,"287":0.33076828718185425,"288":0.053033653646707535,"289":-0.4854142963886261,"290":0.4848916530609131,"291":-0.325246661901474,"292":-0.47742268443107605,"293":0.625384509563446,"294":-0.4366297125816345,"295":0.12337200343608856,"296":-0.5399847626686096,"297":-0.3822813034057617,"298":0.45278653502464294,"299":-0.4397909343242645,"300":-0.27979791164398193,"301":0.27618125081062317,"302":-0.3290385603904724,"303":0.64626145362854,"304":0.5248273015022278,"305":-0.15134871006011963,"306":-0.22011715173721313,"307":0.2586418390274048,"308":0.20911933481693268,"309":-0.029438650235533714,"310":0.21240036189556122,"311":-0.3211362063884735,"312":0.9893864393234253,"313":-0.9131080508232117,"314":-0.0939033031463623,"315":-0.529939591884613,"316":-0.39984095096588135,"317":0.6698887348175049,"318":-0.05784566327929497,"319":0.052178237587213516,"320":-0.07036992162466049,"321":0.04976706951856613,"322":-0.09360655397176743,"323":0.24793477356433868,"324":0.5529090762138367,"325":-0.32666483521461487,"326":-0.022438691928982735,"327":0.5149465799331665,"328":0.018770983442664146,"329":-0.05989786237478256,"330":0.16224099695682526,"331":-0.459489107131958,"332":0.40734750032424927,"333":-0.391181617975235,"334":-0.35837501287460327,"335":-0.5850242376327515,"336":-0.04667612165212631,"337":0.335629940032959,"338":0.3750702738761902,"339":-0.12329035997390747,"340":0.28659120202064514,"341":-0.23786421120166779,"342":0.3465270698070526,"343":0.26782745122909546,"344":0.2412644475698471,"345":0.1521386355161667,"346":0.3756450414657593,"347":-0.036816056817770004,"348":0.07297243922948837,"349":0.366354763507843,"350":-0.21874825656414032,"351":-0.013616932556033134,"352":0.361199289560318,"353":-0.31136730313301086,"354":0.18382558226585388,"355":-0.32762184739112854,"356":0.20472924411296844,"357":0.29612410068511963,"358":-0.2721171975135803,"359":0.31028130650520325,"360":-0.7061086297035217,"361":0.06251608580350876,"362":-0.801801860332489,"363":-0.3385849893093109,"364":0.3206527531147003,"365":0.17971190810203552,"366":-0.522266149520874,"367":-0.16795188188552856,"368":-0.5104957222938538,"369":-0.2811875641345978,"370":0.005495197605341673,"371":0.20628128945827484,"372":0.0908450335264206,"373":0.2428022176027298,"374":0.10079444944858551,"375":-0.12171082198619843,"376":-1.0534337759017944,"377":-0.19241198897361755,"378":0.09498144686222076,"379":-0.09612672030925751,"380":-0.21293196082115173,"381":-0.42963355779647827,"382":-0.09007937461137772,"383":-0.6746411919593811,"384":-0.18516027927398682,"385":1.0602079629898071,"386":-0.016688918694853783,"387":-0.9604973196983337,"388":-0.9975906014442444,"389":0.30902111530303955,"390":-0.6320460438728333,"391":0.8792816400527954,"392":-0.66527259349823,"393":0.7428136467933655,"394":0.8112898468971252,"395":0.392251580953598,"396":-0.38604167103767395,"397":-0.804137110710144,"398":-0.6871713995933533,"399":0.6317076086997986}},"forgetBias":{"rows":20,"columns":1,"weights":{"0":0,"1":0,"2":0,"3":0,"4":0,"5":0,"6":0,"7":0,"8":0,"9":0,"10":0,"11":0,"12":0,"13":0,"14":0,"15":0,"16":0,"17":0,"18":0,"19":0}},"outputMatrix":{"rows":20,"columns":20,"weights":{"0":-0.5409889817237854,"1":0.08993950486183167,"2":0.07339038699865341,"3":-0.0822649896144867,"4":0.06838533282279968,"5":-0.7853736281394958,"6":-0.014142259024083614,"7":0.009458343498408794,"8":0.2734801471233368,"9":-0.519904613494873,"10":0.31751880049705505,"11":-0.09016094356775284,"12":-0.07881364226341248,"13":0.786845862865448,"14":0.9116707444190979,"15":0.1211918368935585,"16":1.007153034210205,"17":-0.04153452068567276,"18":-0.05553494021296501,"19":-0.20016898214817047,"20":-0.3574211597442627,"21":-0.6473663449287415,"22":-0.5563050508499146,"23":0.6321460604667664,"24":-0.5422846078872681,"25":-0.3459187150001526,"26":-0.4173997938632965,"27":-0.602557361125946,"28":0.47647807002067566,"29":-0.25135427713394165,"30":0.2917224168777466,"31":0.5991469621658325,"32":0.47860243916511536,"33":0.274991512298584,"34":0.25817814469337463,"35":-0.594722330570221,"36":0.23076073825359344,"37":0.5044247508049011,"38":-0.38556066155433655,"39":-0.4581865668296814,"40":-0.3982127010822296,"41":0.03540904074907303,"42":0.08651792258024216,"43":-0.12783204019069672,"44":0.14729668200016022,"45":-0.730100691318512,"46":-0.05308491736650467,"47":0.11435415595769882,"48":0.25166770815849304,"49":-0.525851309299469,"50":0.3995603024959564,"51":-0.14171166718006134,"52":0.09716799110174179,"53":0.8367016315460205,"54":1.0040581226348877,"55":0.08686188608407974,"56":0.9482057094573975,"57":0.04599672928452492,"58":0.0072949910536408424,"59":-0.23674824833869934,"60":-0.058153871446847916,"61":-0.11849862337112427,"62":-0.12768812477588654,"63":0.1148655042052269,"64":-0.09904675930738449,"65":-0.00931959692388773,"66":0.13811515271663666,"67":-0.06408223509788513,"68":-0.12481588125228882,"69":-0.01844017207622528,"70":-0.05077708140015602,"71":-0.02341347560286522,"72":0.05564269796013832,"73":-0.029731396585702896,"74":0.13903549313545227,"75":-0.040892988443374634,"76":0.2876700162887573,"77":0.04519478976726532,"78":-0.017321642488241196,"79":-0.009580920450389385,"80":-0.7769336104393005,"81":-0.8427221179008484,"82":-0.8759905099868774,"83":0.837516725063324,"84":-0.721502959728241,"85":-0.6761730313301086,"86":-0.8180429339408875,"87":-0.7857058644294739,"88":0.6772967576980591,"89":-0.664158284664154,"90":0.7321199774742126,"91":0.786607563495636,"92":0.7205368280410767,"93":0.7089069485664368,"94":0.7198518514633179,"95":-0.826461672782898,"96":0.7317577600479126,"97":0.7831389307975769,"98":-0.8049655556678772,"99":-0.6706069707870483,"100":-0.5338029861450195,"101":-0.6310536861419678,"102":-0.6673146486282349,"103":0.7032366394996643,"104":-0.5474972724914551,"105":-0.46707722544670105,"106":-0.5185831785202026,"107":-0.5400921106338501,"108":0.5514801144599915,"109":-0.5674615502357483,"110":0.44999930262565613,"111":0.5661742687225342,"112":0.5397512316703796,"113":0.5198589563369751,"114":0.47039586305618286,"115":-0.6863712072372437,"116":0.40759608149528503,"117":0.6162532567977905,"118":-0.5681108832359314,"119":-0.531303882598877,"120":-0.44259199500083923,"121":-0.5131875872612,"122":-0.48430538177490234,"123":0.54428631067276,"124":-0.4985767602920532,"125":-0.3787093758583069,"126":-0.49301353096961975,"127":-0.5693486928939819,"128":0.4245942234992981,"129":-0.3824218511581421,"130":0.3625679016113281,"131":0.4713882505893707,"132":0.5585240125656128,"133":0.3335701823234558,"134":0.18974705040454865,"135":-0.47256162762641907,"136":0.10136593878269196,"137":0.5022605657577515,"138":-0.5277148485183716,"139":-0.447307288646698,"140":-0.5471895933151245,"141":-0.6104629039764404,"142":-0.5748841166496277,"143":0.628665030002594,"144":-0.7051408290863037,"145":-0.5795536637306213,"146":-0.6394752264022827,"147":-0.673225462436676,"148":0.5962274670600891,"149":-0.6400219202041626,"150":0.6312559247016907,"151":0.6288855671882629,"152":0.649651825428009,"153":0.5333715081214905,"154":0.5857110619544983,"155":-0.6647393703460693,"156":0.5660582184791565,"157":0.6845201253890991,"158":-0.6458122730255127,"159":-0.5541882514953613,"160":-0.5465559363365173,"161":-0.6210685968399048,"162":-0.6590175032615662,"163":0.6296402812004089,"164":-0.685469925403595,"165":-0.4203302562236786,"166":-0.6317735314369202,"167":-0.7108436822891235,"168":0.5061904191970825,"169":-0.4296394884586334,"170":0.49239906668663025,"171":0.5721223950386047,"172":0.6922949552536011,"173":0.40811944007873535,"174":0.19391977787017822,"175":-0.6500276923179626,"176":0.08327444642782211,"177":0.6030936241149902,"178":-0.5448648929595947,"179":-0.5707308053970337,"180":-0.3997507691383362,"181":-0.6610764265060425,"182":-0.535228431224823,"183":0.6229468584060669,"184":-0.5519775748252869,"185":-0.46418511867523193,"186":-0.47505858540534973,"187":-0.6525512933731079,"188":0.5371980667114258,"189":-0.4022528827190399,"190":0.3604407012462616,"191":0.5656769871711731,"192":0.5455639362335205,"193":0.35805442929267883,"194":0.30101972818374634,"195":-0.6111476421356201,"196":0.31205111742019653,"197":0.4993915855884552,"198":-0.545394241809845,"199":-0.421392023563385,"200":-0.45036017894744873,"201":-0.6058393716812134,"202":-0.5189489722251892,"203":0.6922547817230225,"204":-0.5516098737716675,"205":-0.5089831352233887,"206":-0.5005604028701782,"207":-0.5406603813171387,"208":0.5242807865142822,"209":-0.49047499895095825,