{"type":"LSTMTimeStep","options":{"inputSize":20,"hiddenSizes":[20,20,20],"outputSize":20,"learningRate":0.0005,"decayRate":0.999,"smoothEps":1e-8,"regc":0.000001,"clipval":5,"json":null,"dataFormatter":null},"input":{"rows":20,"columns":1,"weights":[0.9992622499727576,0.0003125298750266074,0.9998774303992645,0.00029479275091782173,0.9998635150972247,0.00016932092034050285,0.9999037010180725,0.00008853895959631517,0.9999659007987692,0.9998355026920873,0.9988415060536157,0.8995646416010051,0.9001731279689397,0.899836001514464,0.8999146374934326,0.8999376476327178,-0.00021986063241857083,0.000067484034967314,0.00018974331423283046,-0.00006633407370597702]},"hiddenLayers":[{"inputMatrix":{"rows":20,"columns":20,"weights":{"0":0.09179102629423141,"1":-0.051375214010477066,"2":-2.7196078300476074,"3":-0.05800585448741913,"4":0.09059678763151169,"5":-0.033410824835300446,"6":0.0755421444773674,"7":-0.033873144537210464,"8":-0.10946841537952423,"9":-0.078354112803936,"10":1.0536539554595947,"11":0.9843195080757141,"12":-0.05653524026274681,"13":-0.3483991026878357,"14":-0.4429744482040405,"15":-0.6795209646224976,"16":-1.3074219226837158,"17":0.9263973236083984,"18":0.051254332065582275,"19":0.05072229355573654,"20":-0.017864659428596497,"21":0.04027555137872696,"22":0.135007843375206,"23":0.029180103912949562,"24":0.20498217642307281,"25":-0.00842723622918129,"26":0.5609380006790161,"27":-2.5776140689849854,"28":0.14776478707790375,"29":0.03436465933918953,"30":1.3494149446487427,"31":0.8791060447692871,"32":0.3059688210487366,"33":-0.36481600999832153,"34":-0.3197357654571533,"35":-0.42671963572502136,"36":1.2842092514038086,"37":-0.5452033877372742,"38":-0.975895345211029,"39":0.6687681674957275,"40":-0.04794888570904732,"41":0.15596254169940948,"42":-0.37938541173934937,"43":13.702779769897461,"44":-0.4623993933200836,"45":0.11623654514551163,"46":-0.023668987676501274,"47":0.005445249378681183,"48":0.07694461196660995,"49":0.12382610887289047,"50":0.4140293598175049,"51":0.5711961984634399,"52":0.41627806425094604,"53":0.010516581125557423,"54":-0.39593997597694397,"55":-2.0723369121551514,"56":-1.9308445453643799,"57":7.009702205657959,"58":6.515237331390381,"59":-6.901451110839844,"60":-0.08669630438089371,"61":0.2760407328605652,"62":0.11425000429153442,"63":1.1433602571487427,"64":-0.044797275215387344,"65":-0.034340664744377136,"66":-0.058577995747327805,"67":-0.14654909074306488,"68":-0.05679745972156525,"69":-0.17669647932052612,"70":0.114090695977211,"71":-0.25915905833244324,"72":0.06505367904901505,"73":0.23063722252845764,"74":0.5400557518005371,"75":0.6248838305473328,"76":2.025233507156372,"77":-2.9459869861602783,"78":-1.5054703950881958,"79":0.78810715675354,"80":0.041842617094516754,"81":0.3685552477836609,"82":0.08005907386541367,"83":0.017674678936600685,"84":0.04326062276959419,"85":-0.1356412023305893,"86":0.2123960703611374,"87":-0.3014364540576935,"88":0.24788379669189453,"89":0.2652672827243805,"90":0.3875827491283417,"91":-0.03751112520694733,"92":-0.5458129644393921,"93":-0.7832454442977905,"94":-0.35595351457595825,"95":0.37799933552742004,"96":0.6833250522613525,"97":1.2168982028961182,"98":0.6783497929573059,"99":0.9490768909454346,"100":-0.036537960171699524,"101":-0.0662914589047432,"102":0.030737103894352913,"103":-0.15399019420146942,"104":0.263074666261673,"105":-0.4766373932361603,"106":0.38391000032424927,"107":0.10579216480255127,"108":-0.018548140302300453,"109":-0.23294366896152496,"110":1.2213014364242554,"111":0.6971421241760254,"112":0.5061571002006531,"113":-1.182645320892334,"114":0.5358368754386902,"115":-0.34359946846961975,"116":-1.188097596168518,"117":-0.4584076702594757,"118":-0.5797520279884338,"119":0.37942948937416077,"120":-1.512412667274475,"121":0.0913955569267273,"122":0.10578922182321548,"123":-0.1098700538277626,"124":-0.1160440742969513,"125":-0.05382153391838074,"126":-0.08079308271408081,"127":0.0036673774011433125,"128":-0.04036693647503853,"129":0.057627443224191666,"130":1.2146096229553223,"131":0.8767383694648743,"132":-0.8569111227989197,"133":-0.4193701148033142,"134":-0.37633636593818665,"135":0.02466471679508686,"136":-0.31795328855514526,"137":1.0188289880752563,"138":0.2257566750049591,"139":1.1256394386291504,"140":0.6840263605117798,"141":-1.437611699104309,"142":0.35220643877983093,"143":-0.12470187991857529,"144":0.01761024445295334,"145":-0.06583572179079056,"146":0.056724101305007935,"147":-0.011675816960632801,"148":-0.20438526570796967,"149":0.0880730077624321,"150":0.5990553498268127,"151":0.4551253020763397,"152":-0.6408987045288086,"153":0.16002511978149414,"154":0.18291553854942322,"155":-0.09457162022590637,"156":-0.18686331808567047,"157":-1.2796920537948608,"158":0.9867521524429321,"159":1.1133103370666504,"160":0.18935896456241608,"161":0.014770534820854664,"162":-0.2585545480251312,"163":0.2778640687465668,"164":-0.8098722100257874,"165":0.18041600286960602,"166":-0.019224749878048897,"167":0.41955041885375977,"168":0.16042475402355194,"169":0.2635238766670227,"170":0.48745572566986084,"171":-0.4426959753036499,"172":0.35704857110977173,"173":0.41520023345947266,"174":0.4888223707675934,"175":2.036607265472412,"176":-1.8083715438842773,"177":3.234295606613159,"178":0.78463214635849,"179":-1.1295301914215088,"180":-0.013723780401051044,"181":0.20863088965415955,"182":-0.009272838942706585,"183":0.39210933446884155,"184":-0.012218275107443333,"185":0.15481485426425934,"186":0.1144033670425415,"187":0.2624146342277527,"188":0.2810327708721161,"189":0.20161773264408112,"190":-0.3691597878932953,"191":-0.4075019061565399,"192":-0.1471744328737259,"193":0.07081269472837448,"194":0.23765842616558075,"195":0.06719367206096649,"196":-0.9045357704162598,"197":-2.489319086074829,"198":1.7189301252365112,"199":2.6048617362976074,"200":-1.8673522472381592,"201":0.49066609144210815,"202":-0.19464722275733948,"203":0.5029503107070923,"204":-0.25127166509628296,"205":0.08688419312238693,"206":-0.03573233634233475,"207":-0.0695422813296318,"208":-0.07592247426509857,"209":-0.34014493227005005,"210":0.25665098428726196,"211":-0.16776961088180542,"212":0.0802854523062706,"213":-0.16897433996200562,"214":-0.11823056638240814,"215":0.20942799746990204,"216":-1.781380295753479,"217":1.3834484815597534,"218":-1.3136601448059082,"219":-1.7819947004318237,"220":0.005760619882494211,"221":0.022605156525969505,"222":-0.04906080290675163,"223":0.021878784522414207,"224":-2.303131580352783,"225":0.04655025526881218,"226":-0.05689449980854988,"227":-0.09650706499814987,"228":-0.03228837251663208,"229":0.06774304062128067,"230":1.0528504848480225,"231":0.7292464971542358,"232":-0.004124565981328487,"233":0.21658556163311005,"234":-0.6331262588500977,"235":-0.2515365183353424,"236":-3.4249796867370605,"237":-0.24129848182201385,"238":-3.335928201675415,"239":2.449577569961548,"240":-0.03260428085923195,"241":-0.07384505122900009,"242":0.03424370661377907,"243":-0.07562021911144257,"244":0.00196309806779027,"245":-0.08641519397497177,"246":0.017222488299012184,"247":0.3167157471179962,"248":-0.1488654911518097,"249":-4.008343696594238,"250":1.3281480073928833,"251":1.2530806064605713,"252":-0.06092935800552368,"253":-0.24532219767570496,"254":-0.5963956713676453,"255":-0.2383013665676117,"256":-1.3542498350143433,"257":1.7787197828292847,"258":-0.67132967710495,"259":-0.31064391136169434,"260":0.07054388523101807,"261":-0.008537356741726398,"262":0.033927612006664276,"263":0.08892825245857239,"264":0.039568644016981125,"265":0.12269643694162369,"266":0.17207789421081543,"267":0.15290364623069763,"268":0.14070971310138702,"269":-1.3359169960021973,"270":0.3797995150089264,"271":-0.16099761426448822,"272":0.4149230718612671,"273":2.8154330253601074,"274":-0.09728414565324783,"275":-2.1635854244232178,"276":0.25923383235931396,"277":1.3154335021972656,"278":2.222311496734619,"279":2.907292604446411,"280":-0.44942983984947205,"281":-0.7642950415611267,"282":0.12158504128456116,"283":0.19327041506767273,"284":0.002580101601779461,"285":0.16397397220134735,"286":0.0165840033441782,"287":0.061376284807920456,"288":0.07476191967725754,"289":0.31076398491859436,"290":0.08524058759212494,"291":-0.48310163617134094,"292":-0.4624362587928772,"293":-0.07543843239545822,"294":-0.22934772074222565,"295":-0.07984253019094467,"296":0.3683982491493225,"297":1.5475742816925049,"298":1.3555576801300049,"299":0.5448487997055054,"300":0.1724182516336441,"301":0.3691595792770386,"302":-6.608813762664795,"303":0.536601722240448,"304":-0.15992388129234314,"305":-0.0227910615503788,"306":0.03872409835457802,"307":-0.14379800856113434,"308":-0.23314781486988068,"309":-0.03211402893066406,"310":0.9160839915275574,"311":0.873289942741394,"312":-0.515769362449646,"313":-0.9982516169548035,"314":-1.1076581478118896,"315":-0.6944398880004883,"316":-2.806532144546509,"317":5.8764777183532715,"318":1.3400623798370361,"319":-2.1535067558288574,"320":-0.03913218155503273,"321":0.014713061042129993,"322":0.01577465794980526,"323":0.02167215384542942,"324":-0.06077844277024269,"325":0.3352852463722229,"326":-2.887195110321045,"327":0.23255421221256256,"328":-0.0242928359657526,"329":-0.40685757994651794,"330":1.330076813697815,"331":0.3684983551502228,"332":-0.3638077974319458,"333":0.3598344027996063,"334":0.0308693777769804,"335":-0.745614767074585,"336":0.2637566328048706,"337":1.2836124897003174,"338":-1.071302056312561,"339":0.6349702477455139,"340":0.30246955156326294,"341":0.3439013659954071,"342":0.09024667739868164,"343":-0.17124460637569427,"344":0.23885589838027954,"345":0.10032755136489868,"346":0.21242070198059082,"347":0.005853982642292976,"348":-0.034555718302726746,"349":0.009356571361422539,"350":1.080778956413269,"351":0.42371124029159546,"352":-1.3308262825012207,"353":-1.2956464290618896,"354":-0.5097699165344238,"355":2.185209274291992,"356":3.3178935050964355,"357":-5.02261209487915,"358":-0.5395089983940125,"359":3.704390287399292,"360":-0.5305611491203308,"361":-0.1651425063610077,"362":-0.01384521834552288,"363":0.1260492205619812,"364":-0.14002789556980133,"365":-0.19305501878261566,"366":0.01592489704489708,"367":-0.18766801059246063,"368":-0.06674744933843613,"369":-0.01266965176910162,"370":1.0119998455047607,"371":0.4027040898799896,"372":-0.2871711552143097,"373":-0.5541829466819763,"374":0.09269589930772781,"375":0.9386959671974182,"376":1.20101797580719,"377":-0.21274542808532715,"378":0.10274384170770645,"379":1.523881196975708,"380":0.5071019530296326,"381":-0.5843235850334167,"382":0.552962601184845,"383":-0.4487253427505493,"384":0.02422262728214264,"385":-0.1325727105140686,"386":-0.1211114302277565,"387":-0.13435935974121094,"388":0.0698447972536087,"389":0.025983184576034546,"390":-0.1250864565372467,"391":-0.3513665199279785,"392":0.07349825650453568,"393":0.4131346046924591,"394":0.4813825190067291,"395":0.17004992067813873,"396":0.39643633365631104,"397":-0.641356885433197,"398":1.1276897192001343,"399":0.9831260442733765}},"inputHidden":{"rows":20,"columns":20,"weights":{"0":-7.670955319074787e-37,"1":-3.172449322664855e-36,"2":2.82803966587428e-36,"3":1.508353900308961e-36,"4":9.190583461466769e-37,"5":-5.5846792961970615e-37,"6":2.6412733509856445e-36,"7":-4.7138202362370554e-36,"8":-2.2670124944224328e-36,"9":-1.929018049263863e-36,"10":1.9933895304507152e-36,"11":4.561040767673624e-36,"12":-4.088266252466182e-36,"13":8.770042357727422e-37,"14":1.019737044549452e-36,"15":2.163008436291101e-36,"16":-1.7684277206395097e-36,"17":-9.493042412499689e-37,"18":9.071709406972183e-37,"19":3.615087445836201e-36,"20":3.610140525945503e-36,"21":6.880783966363172e-37,"22":-3.935390015835999e-37,"23":3.7763896789219824e-36,"24":-2.3048955334186214e-36,"25":2.24824343552894e-36,"26":-5.005042163674167e-37,"27":-2.982846869367528e-36,"28":4.3583006368058044e-36,"29":2.294153470861188e-36,"30":-1.1217313043713107e-36,"31":-2.2916857506343488e-36,"32":2.5493662877124833e-36,"33":-1.3314527041883966e-37,"34":2.8952155376518163e-36,"35":2.036435760137392e-37,"36":-2.734305757819148e-36,"37":-1.734983098347285e-36,"38":3.247737658774387e-37,"39":-6.311848269952633e-37,"40":4.699633087010273e-36,"41":-2.5422168405267226e-37,"42":-1.5806488835324915e-36,"43":2.735774767025269e-36,"44":9.472868198768497e-37,"45":3.3530563814937854e-36,"46":-4.208459545387022e-36,"47":4.093206715173557e-36,"48":1.263350719860982e-37,"49":3.6554735402013054e-36,"50":1.4362741565295508e-36,"51":-3.190515086674685e-36,"52":-3.754237235333122e-36,"53":2.6806702407388124e-36,"54":-4.452394712197431e-36,"55":-2.811871506613676e-37,"56":-7.998293259354961e-37,"57":-1.596231501821987e-36,"58":-3.1191065312285234e-36,"59":-2.0371080695094117e-36,"60":-1.4335731705551463e-37,"61":4.2950417641788506e-36,"62":4.179858976467826e-37,"63":-1.62781215052813e-36,"64":-3.987473566841125e-36,"65":4.475123997496534e-36,"66":1.506663194475396e-36,"67":-4.540415806673204e-36,"68":1.5543859046595438e-36,"69":2.319073714335232e-36,"70":2.259057782666357e-36,"71":1.0375351045006572e-36,"72":3.6666771120001735e-36,"73":-4.245121279904031e-36,"74":1.3890523264684913e-36,"75":-2.2079125859544934e-36,"76":-2.6507600294852463e-36,"77":-2.6484363403197643e-36,"78":-1.0615859599866586e-36,"79":-3.3281998130219604e-36,"80":3.0203919824364476e-36,"81":4.7792935640116e-36,"82":-1.881107363298517e-36,"83":3.7046654389577775e-36,"84":1.5362396052243723e-36,"85":2.5081985154328156e-36,"86":3.9341924773787744e-36,"87":-4.639898760280789e-36,"88":1.634364577305762e-36,"89":2.0159650989134754e-36,"90":3.75332139149839e-36,"91":-7.933272113779273e-37,"92":1.7476520920282054e-36,"93":-7.879958200301693e-37,"94":4.0379120607114606e-36,"95":4.0653421754701506e-36,"96":5.090376419684831e-38,"97":-7.807613532639812e-37,"98":-3.083301449699113e-36,"99":-4.6906726689515454e-36,"100":1.4182098274493484e-36,"101":3.7953859947952256e-36,"102":1.601137526218302e-36,"103":1.6889362738641435e-38,"104":4.1008792838916314e-36,"105":-2.035238714937227e-36,"106":-1.5847135010684998e-36,"107":-4.581260361054284e-36,"108":-4.611767682399081e-36,"109":-2.9064028768092737e-37,"110":4.1597680783381296e-36,"111":1.0960880917831646e-38,"112":1.7865919566950246e-36,"113":3.142058230619884e-36,"114":-3.5974306367702e-36,"115":-7.212244190413758e-37,"116":-3.2735523118218526e-36,"117":4.014693464409391e-36,"118":-1.50946758506608e-36,"119":1.6372825067032193e-36,"120":3.890478960573774e-37,"121":-1.4944565171838258e-36,"122":-5.393689153846095e-38,"123":-2.2845855394714306e-36,"124":-3.2261105787953836e-37,"125":-1.0141142728042162e-36,"126":-2.4636737252896852e-36,"127":4.814463689180856e-36,"128":-5.544071684570717e-37,"129":-3.4542106693849646e-36,"130":1.025580750615767e-37,"131":3.2924496175508005e-36,"132":1.1974563971862032e-36,"133":-3.3141626139412486e-36,"134":-3.157306869038586e-36,"135":3.5260941865378185e-36,"136":-4.2206722314464074e-36,"137":3.526284314713458e-36,"138":1.1429095204262217e-36,"139":-4.7386681951311156e-36,"140":2.5987366558413718e-36,"141":7.239235216706443e-37,"142":-3.279273734978977e-36,"143":-2.1077736901409516e-36,"144":-2.4240180101049626e-36,"145":-1.4493990990995993e-36,"146":-1.5727049337486218e-36,"147":4.3587375728773686e-36,"148":-4.7418715858413376e-37,"149":1.58183305920756e-36,"150":-4.3855851062073063e-36,"151":-4.759384991627694e-36,"152":1.6843618303156507e-36,"153":-3.837322171890403e-36,"154":3.614480111871375e-36,"155":3.363074835945017e-38,"156":1.4386303109778542e-36,"157":-4.818718972991114e-36,"158":3.898608375011994e-36,"159":-1.2017759837803923e-36,"160":-2.0488316239320337e-36,"161":3.972684105903213e-36,"162":-1.705183017942627e-36,"163":3.260491044254023e-37,"164":-3.118567356421002e-36,"165":3.263843936694807e-36,"166":-1.7140849626190356e-36,"167":-3.556385550973681e-36,"168":-2.136074807183515e-36,"169":2.9823254518141466e-36,"170":2.377744040745948e-36,"171":2.863562783731893e-36,"172":2.1866266604944205e-36,"173":-4.398199572562383e-36,"174":2.1525811614206934e-36,"175":4.295312965878442e-36,"176":-3.525191615802141e-36,"177":4.681718708076141e-36,"178":-2.3270332689788003e-36,"179":3.043621340710723e-36,"180":-3.775909694961594e-36,"181":-2.623216375919783e-36,"182":4.631679124642242e-36,"183":-4.2774143711702125e-36,"184":1.528196465930004e-36,"185":2.6684085877058897e-36,"186":3.378004067996955e-36,"187":-4.7220908118773776e-36,"188":1.925276649626442e-36,"189":3.380528826676486e-36,"190":-1.1245083864575219e-38,"191":-4.605682504581393e-36,"192":-6.394404255575988e-37,"193":3.8744900778335015e-36,"194":4.104471271481592e-36,"195":2.5565728630340375e-36,"196":-3.086960161516751e-36,"197":-5.550808679171682e-37,"198":4.240523765377622e-36,"199":6.97030014540689e-38,"200":6.827227460095449e-37,"201":1.0032829755605746e-36,"202":1.2325296646056048e-37,"203":4.711798151342647e-37,"204":2.996112255674865e-36,"205":-1.179201401831751e-36,"206":-1.2756389863543392e-36,"207":3.3454304479886035e-36,"208":1.1215645834852192e-36,"209":1.6280288249018776e-36,"210":3.850066499376765e-36,"211":3.951951166448326e-36,"212":-4.597161533721078e-36,"213":-3.2717701292245366e-36,"214":-3.579378145859424e-36,"215":-2.6768933265931116e-36,"216":4.1773122454283746e-36,"217":7.763502002229392e-37,"218":-4.1852918890867275e-36,"219":-2.5210031099635318e-36,"220":-1.460314608775753e-36,"221":-1.5207355493319808e-36,"222":-2.3819326003285288e-36,"223":3.6959134444274396e-36,"224":1.673953568262807e-36,"225":3.734160417450395e-36,"226":-1.830959980776354e-36,"227":-2.0485733365990894e-36,"228":4.521461462491564e-36,"229":2.3609397592448664e-36,"230":3.065783828806976e-36,"231":-4.0058665844891196e-37,"232":-8.502725730102226e-37,"233":-2.045590476635989e-36,"234":-3.051768512403083e-36,"235":4.121119235336381e-37,"236":3.1604100837241902e-37,"237":8.228494535334665e-37,"238":-7.199480491377425e-37,"239":-5.861024770087596e-37,"240":8.757629319618802e-37,"241":-2.1977554365864568e-36,"242":5.5237746049901734e-37,"243":2.7389021961483368e-36,"244":-3.781297138247925e-36,"245":-5.802254536701567e-37,"246":6.746745396199294e-37,"247":4.3972309950638416e-36,"248":-1.260770066188306e-36,"249":1.3923228001387975e-36,"250":-3.999236761194706e-36,"251":2.2439739817886105e-36,"252":-1.4788107844114972e-37,"253":2.7729631207155592e-36,"254":-1.2201611093154356e-36,"255":-1.5980841753372523e-36,"256":-2.0195423784747547e-37,"257":-1.890480861723752e-36,"258":1.6860611457269804e-36,"259":-3.85907534631042e-36,"260":4.517144835439732e-36,"261":1.836301506314606e-36,"262":2.25949256634348e-36,"263":-4.026952426949262e-36,"264":2.7445990461355906e-36,"265":-1.4191927542441644e-36,"266":3.786036352075047e-36,"267":-3.3727898924631406e-36,"268":2.9561236368165697e-36,"269":4.537678319676401e-36,"270":1.550527558257484e-36,"271":-2.1951962395958665e-36,"272":8.634951804780407e-37,"273":1.3056573554285757e-36,"274":2.589710051653577e-36,"275":7.94516050574285e-39,"276":-9.80957981684011e-37,"277":-1.6603298082810098e-36,"278":3.4025453106831435e-36,"279":-1.991997828078274e-36,"280":-2.625053265209146e-36,"281":4.482877639738561e-36,"282":1.6747470843467973e-36,"283":-1.9830610863583995e-37,"284":1.3076060795457798e-36,"285":3.988961230132403e-36,"286":-4.622347418542407e-36,"287":-5.567345346297241e-37,"288":4.783632432472658e-36,"289":1.98237626619369e-36,"290":-2.7389360963607857e-36,"291":2.6844109229114196e-36,"292":-3.773119833033388e-36,"293":-2.8713766930182734e-36,"294":2.4732179803405892e-36,"295":3.1739018301802604e-36,"296":1.5203543961496844e-36,"297":-2.3289176903120734e-37,"298":5.372471589330306e-37,"299":-1.9066518011605097e-36,"300":6.320686091211314e-37,"301":1.0998713173771487e-36,"302":-2.2297531117155828e-36,"303":-5.115026829126585e-37,"304":1.8882244348845577e-36,"305":-3.441597279227109e-36,"306":3.744999875856293e-36,"307":-4.7404482253339904e-36,"308":-3.108014883940598e-36,"309":3.9645982774524274e-36,"310":-1.4964017436600629e-36,"311":1.5251239228651867e-36,"312":-2.4067269287277624e-36,"313":1.326796828383545e-36,"314":-4.6193613299876447e-36,"315":-2.78235832245141e-36,"316":4.25661793607931e-36,"317":7.949646454490724e-37,"318":-4.577925943332454e-36,"319":-3.9799574054524446e-36,"320":6.604449254444844e-37,"321":-3.495879590837026e-36,"322":1.8775987809931527e-36,"323":-3.901680918076811e-36,"324":-5.982600976436908e-37,"325":-4.8375014843498644e-36,"326":-2.0829811554037524e-36,"327":-1.0524027691032664e-36,"328":6.350042509311779e-37,"329":4.0492648651915854e-36,"330":2.4921820102972144e-36,"331":2.2406522542256733e-37,"332":-1.2152141894247376e-36,"333":-2.003483542915143e-36,"334":6.815061050516549e-37,"335":6.0506803157811394e-37,"336":-2.8071442206390822e-36,"337":1.3344738812567055e-36,"338":-3.871083196165484e-36,"339":1.7797407058224722e-36,"340":1.3759319577366304e-36,"341":6.884447521068303e-37,"342":-3.6490952780072074e-36,"343":2.444535889481933e-36,"344":2.6411834885177242e-36,"345":-1.7345920800237998e-36,"346":-1.2606220890704733e-36,"347":3.327199667071615e-36,"348":3.3910687435226495e-36,"349":-2.966063932444655e-36,"350":4.0381473891703655e-36,"351":3.7536847874265465e-36,"352":4.5684930746938823e-36,"353":-4.6954574417943395e-36,"354":-4.480382117750189e-37,"355":3.675656901608872e-36,"356":-1.5736947213007192e-37,"357":3.307016664396455e-36,"358":-2.9980542535594403e-36,"359":3.36133126192299e-36,"360":1.9192120989221493e-36,"361":-2.932043365273205e-36,"362":-7.997066394523476e-37,"363":1.7055096437990797e-36,"364":8.630673920828516e-37,"365":1.8156690119336417e-36,"366":-4.796994138431239e-36,"367":-3.757420626711661e-36,"368":-1.9610449610841486e-36,"369":-1.7112316050548142e-37,"370":2.3373570495498266e-36,"371":-2.0680415649535663e-36,"372":-2.934803721460946e-37,"373":8.631307980357654e-37,"374":1.7573733815218984e-36,"375":-4.83149953245057e-36,"376":-4.68364258997417e-36,"377":4.1658686816493124e-36,"378":-2.2916301471112843e-36,"379":1.1619660136607169e-36,"380":-3.978251991590198e-36,"381":-2.9823419535048624e-36,"382":8.268746105047194e-38,"383":7.683223070558626e-37,"384":-2.759175285499171e-37,"385":1.0212556485108224e-36,"386":4.6711303623550504e-36,"387":2.4575376074702225e-36,"388":-1.3965538695115921e-36,"389":-3.8328753249748774e-36,"390":1.5071758679263601e-37,"391":2.7101989400776752e-36,"392":-2.8492909736570903e-36,"393":-2.6364202396193422e-36,"394":-5.458366028415068e-37,"395":-6.357323431924656e-37,"396":3.914237269781975e-36,"397":-1.8402475627901447e-36,"398":-2.6240999338378967e-36,"399":3.76403349989985e-36}},"inputBias":{"rows":20,"columns":1,"weights":{"0":0.8164002299308777,"1":0.7322660088539124,"2":0.5126469731330872,"3":-0.2385428100824356,"4":-0.19824564456939697,"5":0.5475294589996338,"6":1.0265886783599854,"7":0.5053007006645203,"8":-0.43074363470077515,"9":-0.27711164951324463,"10":-0.2654525339603424,"11":0.533717155456543,"12":1.4966590404510498,"13":-0.09226886183023453,"14":-0.717437744140625,"15":0.4781660735607147,"16":0.20548227429389954,"17":0.2374444454908371,"18":0.1760023981332779,"19":-0.3983474373817444}},"forgetMatrix":{"rows":20,"columns":20,"weights":{"0":-1.8346357323833184e-36,"1":2.049031303358006e-37,"2":4.6723475414115506e-36,"3":3.6385202053851706e-36,"4":1.81381131616468e-36,"5":-1.4955174682771354e-36,"6":-2.329231581168082e-37,"7":3.060728930461811e-36,"8":2.2740976388242625e-36,"9":-3.3376369864494145e-36,"10":-2.3882392954074568e-36,"11":-3.0476947471907e-36,"12":-4.083274143502607e-38,"13":3.2284894230684214e-37,"14":-2.2849003271584566e-37,"15":-2.8729913475815825e-36,"16":4.5564629834295924e-36,"17":-1.2771035114053743e-37,"18":-4.47633364317249e-36,"19":2.416307057019353e-36,"20":3.055622374650057e-36,"21":4.0095912133865195e-36,"22":-3.530561839932942e-36,"23":-2.2850285739939116e-36,"24":6.840755259158409e-37,"25":1.0198156966296576e-36,"26":3.4145919036381494e-36,"27":-2.458463361287694e-37,"28":-3.602358543843334e-37,"29":-2.5330045026352724e-36,"30":7.479013751118482e-37,"31":2.7660697187852e-36,"32":1.9010484009652447e-36,"33":-2.4577880026902158e-36,"34":3.904502348456821e-36,"35":-9.18669749266938e-37,"36":-1.2060327922033797e-36,"37":1.0263299184059583e-36,"38":1.4430699832452421e-36,"39":1.6509595384474364e-36,"40":-2.351276584401086e-36,"41":-7.190253893872802e-37,"42":-2.344630707831465e-36,"43":3.474047136555091e-36,"44":4.794339877352829e-36,"45":-3.104758311151058e-36,"46":-1.0594900658995373e-36,"47":2.203868236799473e-36,"48":-4.523873937927746e-37,"49":-3.7298028949041795e-36,"50":3.487999316055375e-36,"51":-3.974351045714823e-37,"52":-3.8098382472706826e-36,"53":2.82647666877756e-36,"54":-9.940491809870386e-38,"55":-1.8953183682303557e-36,"56":2.7663802016833435e-36,"57":1.2268058200047342e-36,"58":3.4023860334944945e-36,"59":3.437891573464171e-36,"60":1.997429574816853e-36,"61":1.844960051052955e-36,"62":1.0576109358692654e-36,"63":1.957815517432878e-37,"64":1.71911474969572e-37,"65":-2.6359074316437256e-36,"66":-3.112358774655352e-36,"67":-6.121410687612119e-37,"68":3.9409972724046374e-36,"69":-3.1276932398023973e-37,"70":-4.193472422892926e-36,"71":2.891276297092008e-36,"72":-3.569784206370169e-36,"73":2.277578598734298e-36,"74":-3.515729331106206e-36,"75":-2.0977823648279894e-37,"76":-3.664798071653003e-36,"77":-1.8376541068546986e-36,"78":-9.057592389930944e-37,"79":1.834096557575797e-36,"80":-2.2391696580296422e-36,"81":-2.9167949062207065e-37,"82":1.2702382699689542e-36,"83":8.339907852597431e-37,"84":-3.5546722449984834e-36,"85":1.0237782323751368e-37,"86":-1.024942543243175e-37,"87":1.868612713567334e-36,"88":1.7527521906566357e-36,"89":4.4684558795176874e-36,"90":-2.9658700375787434e-36,"91":-2.7258893574554342e-36,"92":-3.187969880247963e-36,"93":3.54588078990339e-36,"94":-1.6470188629580007e-36,"95":-3.384538737520447e-36,"96":-3.46260572517047e-36,"97":-2.8550443239984257e-36,"98":-4.108168008934358e-36,"99":2.045945083620177e-36,"100":-2.747466035531273e-36,"101":-1.6872148291474652e-36,"102":-1.3561442557530628e-37,"103":-3.076263837341193e-36,"104":9.314501293601907e-37,"105":-4.366333014127967e-36,"106":1.9373949890628212e-36,"107":-3.7400583145309223e-38,"108":2.6860151742349295e-36,"109":-3.08847975199224e-36,"110":3.7518868206033283e-36,"111":-7.696041027871498e-38,"112":7.556507125649925e-37,"113":-5.517833547916945e-37,"114":-4.7172898960762745e-36,"115":1.8734868332002133e-37,"116":-2.6308724429471417e-36,"117":3.794396969549493e-36,"118":2.7157946275261925e-36,"119":-1.3689422361550273e-36,"120":1.9461320961982742e-36,"121":1.2357391537667435e-36,"122":3.448048364099801e-36,"123":-2.934258179153203e-36,"124":-4.331619196580246e-36,"125":4.271998946756146e-36,"126":3.961437486215521e-36,"127":-2.3018933019055502e-36,"128":-3.673434195615923e-36,"129":9.553973111806075e-37,"130":3.0026942778760635e-36,"131":2.5881145892740354e-36,"132":1.873247356897854e-36,"133":2.9673435309399502e-36,"134":-2.744274034574969e-36,"135":-6.595645512764815e-37,"136":-2.0940444628315354e-36,"137":-2.0915640076042524e-36,"138":4.6351179334944706e-36,"139":-4.592026996781588e-36,"140":2.6806008260180836e-36,"141":1.8950399918826268e-36,"142":4.928656375448927e-37,"143":3.615754688112974e-36,"144":4.2962682702779294e-36,"145":-2.7349191902348908e-36,"146":9.590809549005228e-37,"147":-3.834979290541153e-36,"148":2.890666093267927e-36,"149":1.7558073351997198e-36,"150":3.758447677592522e-36,"151":5.233421975858003e-37,"152":3.774067962784738e-36,"153":1.627886228770148e-36,"154":4.5165213585165967e-36,"155":3.2222659202767234e-38,"156":4.013518615776901e-36,"157":-2.7796382339763398e-36,"158":-1.3535228411106565e-36,"159":3.5988225185088446e-36,"160":-2.5997728543986075e-36,"161":-1.0977849296988093e-36,"162":-7.03932026048813e-38,"163":-2.7810898446607277e-36,"164":-4.800551687710141e-36,"165":-1.4754272876122525e-36,"166":-5.989363082306354e-37,"167":4.629192032865432e-36,"168":3.2129294049205586e-36,"169":3.504827453261513e-36,"170":-4.252340410859826e-36,"171":-1.566727555019198e-36,"172":-4.266789076011214e-36,"173":3.6053518070462336e-36,"174":2.02082251506866e-36,"175":-4.595665260852035e-36,"176":-1.6980838829769296e-36,"177":-1.3762370596486709e-36,"178":3.060210562133888e-36,"179":1.1019125944553245e-36,"180":-6.4359217022692495e-37,"181":3.546674664719787e-36,"182":6.9654927948432384e-37,"183":2.696624864534229e-36,"184":-2.7445199456398764e-36,"185":4.755731302063752e-36,"186":-1.3805700987081175e-36,"187":1.0382357088912688e-36,"188":-1.5014960128868816e-36,"189":-6.575466814878538e-37,"190":4.465481987864759e-36,"191":-2.1892217307256975e-36,"192":3.917628725956497e-36,"193":-3.257071427585562e-36,"194":-1.957597363287952e-36,"195":-2.270278214888348e-36,"196":1.7537595112551187e-36,"197":-3.1617817867649485e-37,"198":-3.218617824696251e-36,"199":-3.642065199029832e-36,"200":1.2456603468941632e-36,"201":-3.331519522715109e-36,"202":1.2659844210883235e-36,"203":1.4999536429035563e-36,"204":-8.363912431602947e-37,"205":-4.2729345208732554e-36,"206":1.1342551907936533e-36,"207":-1.1121067829443701e-37,"208":-1.9467668731922256e-36,"209":-1.9951121634684913e-36,"210":2.1513661347586343e-36,"211":3.832281622841512e-36,"212":-6.452633251443156e-37,"213":-2.769911204764137e-36,"214":-4.3353797884014345e-36,"215":2.770232270268283e-36,"216":-1.085671971248533e-36,"217":-4.6575415787829226e-36,"218":-4.338300587658147e-36,"219":4.459676262592021e-36,"220":-4.8141271981832144e-36,"221":1.981056130936419e-36,"222":-1.85554391261896e-36,"223":-1.3776996116714683e-36,"224":4.8075810492227026e-36,"225":-2.2290568121138537e-36,"226":2.088789571169542e-36,"227":4.5644282777916706e-36,"228":2.6883085505120312e-36,"229":-1.971676892792674e-36,"230":-9.626402978414587e-37,"231":-3.986226971727262e-36,"232":-3.7608214099287617e-36,"233":-1.096129200274914e-36,"234":1.907953461698827e-36,"235":2.2821922562190164e-36,"236":2.211134720432974e-36,"237":2.0120299837763462e-36,"238":-1.9226399664359684e-36,"239":-2.5519493404081302e-36,"240":2.021620874040143e-36,"241":-2.7359921588638304e-36,"242":4.426717363978694e-36,"243":2.3123291863537225e-36,"244":-4.590820579697294e-36,"245":-4.577552861629312e-36,"246":-1.3781395072853891e-36,"247":-4.43015186804204e-36,"248":-3.689542715613886e-36,"249":3.598754718083947e-36,"250":2.0680361839674633e-36,"251":9.644959308990808e-37,"252":-4.7460864225727215e-36,"253":5.163947615866567e-37,"254":-7.215141851430228e-37,"255":-4.462754186642941e-36,"256":-2.158943998121296e-36,"257":4.1323164396350275e-36,"258":-1.4114154356632845e-36,"259":1.8574326387411156e-36,"260":-1.1729882462279136e-36,"261":3.4368989608943696e-36,"262":3.389890307566091e-37,"263":-2.589650502074037e-36,"264":2.435001678938421e-36,"265":2.8768531019415074e-36,"266":-1.0076554527640012e-37,"267":-1.734808933763751e-36,"268":-4.440573761926345e-36,"269":1.444034255954901e-36,"270":2.512673208951424e-37,"271":-3.4169297627337026e-36,"272":-1.565753775900757e-36,"273":-1.5207177920778409e-37,"274":-3.781095171902859e-36,"275":-1.2372420631853134e-36,"276":3.976050148128786e-38,"277":-1.247608532912757e-36,"278":-3.1198003197034045e-36,"279":3.7430211079000135e-36,"280":4.2385155813639796e-36,"281":1.2393200206520914e-36,"282":-1.2360279333542715e-36,"283":4.5625753352271e-37,"284":3.702457082261103e-36,"285":-6.604821887732477e-37,"286":-3.9024521927515755e-36,"287":4.7287201867562826e-36,"288":-3.14654274443813e-36,"289":-4.087758646110465e-36,"290":-3.6292039247788306e-36,"291":-1.1954605894405978e-36,"292":-1.4866169585303544e-36,"293":4.009895059735136e-36,"294":-1.6766568635770809e-37,"295":1.799617530388371e-36,"296":1.715566527459397e-36,"297":-1.5155195801361324e-36,"298":-4.164746566680632e-36,"299":-2.3452850357415907e-36,"300":3.814052276854151e-36,"301":3.890950155590194e-36,"302":4.691230856576631e-36,"303":2.458024766078748e-36,"304":1.534961979757315e-36,"305":-1.2439397765877266e-36,"306":-1.0380897944847756e-36,"307":-3.609176611968251e-36,"308":1.5223446435429834e-36,"309":1.1538223396093239e-36,"310":3.188798552107826e-36,"311":2.0349282320390834e-36,"312":2.840210021509655e-36,"313":-3.726553855495184e-36,"314":-2.604174680397071e-36,"315":-3.896315716199706e-36,"316":-1.0957147746618807e-36,"317":3.530218891751977e-36,"318":3.325802763079274e-36,"319":1.3489433528876921e-36,"320":1.0886820948745553e-36,"321":3.1807790891523106e-36,"322":-4.020601787150493e-36,"323":-3.8118449963546975e-36,"324":-3.151672976588737e-36,"325":5.149819836853121e-37,"326":-4.637909589084711e-36,"327":4.486433754087835e-36,"328":3.075245754770504e-36,"329":-4.212329550592305e-36,"330":2.0609973160461195e-36,"331":-1.9536737275878424e-36,"332":6.254404898056504e-37,"333":-2.660411724892007e-36,"334":-3.7427782460605645e-36,"335":-4.791635035005051e-36,"336":6.614652949342671e-37,"337":-3.5933841352207385e-36,"338":4.576208511934578e-37,"339":-3.1957500686880975e-36,"340":-2.6322284514450995e-36,"341":-3.902505643880199e-36,"342":3.9077912071629794e-36,"343":-1.607607982640965e-36,"344":-3.876470998184222e-36,"345":-2.364130325271543e-36,"346":2.3849029046573888e-36,"347":-9.278877371937964e-37,"348":9.47794336549465e-37,"349":-3.8682736039549007e-36,"350":1.1792290242270797e-36,"351":-1.2723443879296712e-36,"352":2.508497339527736e-36,"353":4.72071758422389e-36,"354":1.3499782958815039e-36,"355":2.2177877716507324e-36,"356":-1.5832170488332535e-36,"357":4.37940701669624e-36,"358":1.5592937227178933e-36,"359":-4.649593503576374e-36,"360":4.709947002440111e-36,"361":-1.088286054297374e-36,"362":3.918228167808372e-36,"363":3.9830977489421596e-36,"364":3.246711953140052e-36,"365":4.032351349672613e-37,"366":-3.363307160020014e-36,"367":4.2659628255950975e-38,"368":3.653077207723433e-36,"369":2.6822716222030674e-36,"370":-2.446138526509612e-36,"371":9.873379478570416e-37,"372":3.1017783210472124e-36,"373":-3.028440861449326e-36,"374":-2.6096901911526534e-36,"375":3.3507554718361395e-36,"376":1.7661788271808595e-36,"377":4.650214469372661e-36,"378":-2.1446312925521104e-36,"379":-3.8720711452139963e-36,"380":-3.957349371706863e-36,"381":-1.96992251195689e-36,"382":-4.58205782319475e-36,"383":-2.1544777796558e-36,"384":8.465010398506248e-37,"385":-1.609810958351536e-36,"386":8.562167689920113e-37,"387":-1.3695861608253539e-36,"388":2.841355095352375e-36,"389":-4.111918914980561e-36,"390":-1.4032722100274001e-36,"391":8.607024486905799e-37,"392":-1.2945829272961798e-36,"393":-4.5045027466893264e-36,"394":4.669156975384874e-36,"395":2.3182491678980477e-36,"396":-1.5139727259977212e-36,"397":-2.5093385670218394e-36,"398":-4.323488526578602e-36,"399":-2.709244891241612e-36}},"forgetHidden":{"rows":20,"columns":20,"weights":{"0":4.04356532471128e-36,"1":2.687873183894747e-37,"2":-4.390795335684645e-36,"3":-2.7565386023086975e-37,"4":1.0949391055151322e-36,"5":6.334963192589118e-37,"6":-3.832213104951801e-36,"7":3.997274136196736e-36,"8":-4.815878888525947e-36,"9":-2.5554363987690823e-36,"10":3.0012458957833374e-36,"11":3.8851351032748775e-36,"12":2.186331064991162e-36,"13":-1.4562971645512478e-36,"14":7.1147111268036995e-37,"15":2.344456543247931e-36,"16":-3.2965571036094294e-36,"17":-4.452760619252436e-36,"18":4.199899472694358e-36,"19":-2.5821989125185926e-36,"20":3.6794415285013205e-36,"21":-3.869803238937782e-36,"22":4.626670502777563e-36,"23":7.412585477676857e-37,"24":2.434146685088204e-37,"25":-4.409222701960597e-36,"26":7.106812736035502e-37,"27":-8.513832645938219e-39,"28":-4.1991748332324863e-36,"29":2.7048851714594047e-37,"30":3.6122652979913774e-36,"31":-3.008339291030525e-36,"32":3.9160431287181445e-36,"33":-4.1536057730529656e-36,"34":-3.560219682938277e-36,"35":-1.4146852815518786e-36,"36":-7.451668924989525e-37,"37":-5.929222939541602e-37,"38":-4.684845240368192e-37,"39":-1.4662512713769976e-36,"40":-2.0051943377634926e-36,"41":-1.3405592384405964e-36,"42":3.301766974354361e-36,"43":-7.075497190578034e-37,"44":-4.225388127667083e-36,"45":2.7222345916942717e-36,"46":2.0733113215896694e-38,"47":-5.275151074671316e-37,"48":4.716632339574487e-36,"49":-3.083033117858776e-36,"50":4.481193749820726e-36,"51":-2.225623742980135e-36,"52":-1.9675796306076407e-36,"53":4.18654888744039e-36,"54":-4.68274253036534e-36,"55":-9.082937507099371e-38,"56":-2.3066836351006507e-36,"57":2.347678318994005e-36,"58":-3.793028046684888e-36,"59":9.014757050057954e-38,"60":-3.860395122835284e-36,"61":-3.2326300918746855e-37,"62":3.412109475382629e-36,"63":2.0189305603548428e-36,"64":1.6935493259879254e-36,"65":4.188973918510812e-36,"66":-2.8377570093114976e-36,"67":8.607212821419404e-37,"68":1.3133758418947293e-36,"69":-2.147351201660977e-36,"70":9.497619838011314e-37,"71":-1.5933099851004608e-37,"72":6.5547652645092515e-37,"73":1.2977828203654348e-36,"74":3.998564496664237e-36,"75":-4.81187077134402e-36,"76":1.882381939540116e-36,"77":-6.3447628651137114e-37,"78":-2.6034154232579366e-36,"79":-3.631794690221225e-36,"80":-1.9026422490489555e-36,"81":3.718657437755224e-36,"82":-2.689199103712079e-36,"83":3.656743811654022e-36,"84":-4.3918306374108635e-36,"85":1.801219449951236e-36,"86":-1.3968700921282455e-36,"87":-4.009055625903067e-36,"88":-3.342198627735137e-36,"89":1.889241799990433e-36,"90":3.5699341565162396e-36,"91":-3.550488416199518e-38,"92":-1.9954183415777524e-36,"93":-1.4462670064552422e-36,"94":2.4591497509066835e-36,"95":3.737996701809432e-36,"96":-1.6323126279384817e-36,"97":1.8355284379778073e-36,"98":1.4386891430925804e-36,"99":1.7907139714161316e-36,"100":4.20820870175152e-37,"101":-1.8584071353243703e-36,"102":-3.8851049697527006e-36,"103":-4.3861999735526766e-36,"104":1.89663240503671e-36,"105":-1.3375908174568725e-36,"106":-1.549866369590077e-37,"107":-4.1324025354126757e-36,"108":2.838009556925932e-36,"109":-2.37535631784584e-36,"110":-3.838443928126676e-36,"111":-4.434074248178726e-36,"112":-8.796471070972343e-37,"113":-2.153992952807919e-36,"114":1.4972282631254848e-36,"115":2.2456684543124475e-36,"116":-4.3295047044599063e-38,"117":3.4560904271969485e-36,"118":-1.1268984859598252e-36,"119":3.571853016160572e-36,"120":2.0882751488980944e-36,"121":-9.83391263599791e-37,"122":-5.2536378922314925e-37,"123":2.9186834529766586e-36,"124":-1.0552832109642062e-36,"125":4.3835568331788795e-36,"126":2.2917517573972123e-36,"127":-1.3212223061470329e-36,"128":1.379522420713862e-36,"129":-3.109007496510399e-36,"130":2.7419171626618517e-36,"131":1.301238489640786e-36,"132":4.846216888174702e-36,"133":-2.107594323937518e-36,"134":3.678144352118089e-36,"135":6.847907934935832e-38,"136":1.0162082835462015e-36,"137":4.785064133508465e-36,"138":1.2605465758988277e-36,"139":-9.248797659622153e-37,"140":-9.266126228535871e-37,"141":-8.292951574200555e-37,"142":-3.144892934098948e-36,"143":2.122785385804918e-36,"144":-3.196453901670371e-36,"145":1.8356145337554554e-36,"146":-2.7271958608812444e-36,"147":2.7386458818436302e-36,"148":2.4384991405391724e-36,"149":-4.3577707890408616e-36,"150":-2.685063815891918e-36,"151":-3.699859859635385e-36,"152":1.0869083424888007e-36,"153":1.1608640773899227e-36,"154":2.801031420426066e-36,"155":-3.044118185094234e-36,"156":-2.9254724637766195e-36,"157":-2.1763670930242234e-36,"158":1.232278820970103e-36,"159":-4.8355840596351594e-36,"160":4.622792964191736e-36,"161":3.8838307522435085e-36,"162":-1.2582038739157818e-36,"163":4.573744199665604e-36,"164":1.0220085605705103e-37,"165":-4.841546909702105e-36,"166":-3.6918708889344536e-36,"167":-1.8399557339771582e-36,"168":1.300649809761117e-36,"169":2.4330455111237745e-36,"170":4.652259244091804e-36,"171":2.8198433478421794e-36,"172":-1.1281556636796911e-36,"173":-3.026532405044793e-36,"174":1.267460246210175e-36,"175":-4.7871720451312165e-36,"176":-3.11441215895226e-36,"177":-4.8040866368474096e-36,"178":-3.1634028088284795e-36,"179":-2.2232561090948118e-36,"180":4.4168680070157496e-36,"181":-2.8495865691603488e-36,"182":1.5874321546139425e-36,"183":4.399621946555611e-36,"184":-4.4965740430327486e-36,"185":1.4508386922483572e-36,"186":1.681944332625773e-36,"187":-4.5403738349816005e-36,"188":2.909414525048025e-36,"189":2.0779660763557495e-36,"190":1.66374781065364e-36,"191":3.702622816633076e-36,"192":1.4931666948149349e-36,"193":2.3416514351924333e-36,"194":-1.657978496720199e-36,"195":-1.2053484204541789e-36,"196":3.1060658907740886e-36,"197":1.0992297244674668e-36,"198":-4.44517522250923e-36,"199":-4.601130549070656e-37,"200":3.343025147200559e-36,"201":-2.9653852107308624e-36,"202":-2.092086321988651e-36,"203":2.4192664200098037e-36,"204":2.6142661817346508e-36,"205":-4.867997864356251e-37,"206":-4.3746265486423286e-36,"207":-1.2100842263234356e-36,"208":2.594914720778609e-36,"209":-4.293812746952924e-36,"210":-1.65687682949871e-36,"211":1.7571956296142957e-36,"212":1.7311769475104245e-36,"213":-1.1412799784680276e-36,"214":-2.4939046433149905e-36,"215":-3.594810814002849e-36,"216":-1.0603606197679022e-36,"217":1.5316203873873474e-36,"218":6.768023160497111e-37,"219":-3.772244884693039e-36,"220":-3.778521266883587e-37,"221":-4.2969570364991144e-36,"222":-2.9904220422371382e-36,"223":4.12568275996724e-36,"224":-3.662928358348412e-36,"225":3.794294372081129e-36,"226":4.298662091628954e-36,"227":-4.08693248537745e-36,"228":3.743108279874882e-36,"229":-4.5259456175774036e-36,"230":-9.08079408096834e-38,"231":-3.039733757617504e-36,"232":-2.9727460409873695e-36,"233":-2.475199237002941e-38,"234":2.8582872649565047e-36,"235":-1.476893135489038e-37,"236":4.568833511747999e-36,"237":-1.5811911075654712e-36,"238":2.1994902665060664e-36,"239":1.2035248042638697e-37,"240":3.118464041487824e-36,"241":-2.845241602248374e-36,"242":-3.180275070120662e-36,"243":-1.0087308652574626e-36,"244":-2.0400459085554503e-36,"245":-1.8353813576909917e-36,"246":-4.6453224355402137e-36,"247":2.1670730538271092e-36,"248":4.786096206643022e-36,"249":1.7398503796436585e-36,"250":-2.164558160288767e-36,"251":-1.2793441540186665e-36,"252":-4.042051473954301e-36,"253":-3.967910095032625e-36,"254":-2.3580923207653584e-36,"255":-2.9396380890589897e-36,"256":3.550425929498397e-36,"257":-1.142872391622111e-36,"258":3.356300039916678e-36,"259":4.138803397748406e-36,"260":2.6840521905045525e-36,"261":-3.086191039236428e-36,"262":-1.9432218795475644e-36,"263":4.113968353220993e-36,"264":3.7804046120196396e-36,"265":1.6928634296259954e-36,"266":4.80413470698993e-36,"267":-1.0306575764793019e-36,"268":3.945850563137143e-36,"269":-3.8104421732776435e-37,"270":1.962821942061565e-36,"271":3.7516030632694964e-36,"272":4.153767202636056e-36,"273":1.6392702429696702e-36,"274":-4.224137586496744e-36,"275":-6.527452724296912e-37,"276":-1.0909182533327617e-36,"277":-3.407384969584188e-36,"278":-6.80893345259175e-37,"279":-2.3112585494854275e-36,"280":-7.728198249238579e-37,"281":4.505244246574321e-36,"282":3.38066119893462e-36,"283":4.31874357303297e-36,"284":4.494807285928928e-36,"285":-3.244061279385711e-36,"286":-2.5375195087081024e-36,"287":-2.5919933834232865e-36,"288":-1.1641012786294919e-36,"289":2.38425467519818e-36,"290":-2.7310954615100938e-36,"291":-4.474335862398647e-36,"292":-2.949299111508329e-36,"293":-2.228846774289633e-36,"294":-3.734065712094982e-36,"295":2.3360489318281856e-36,"296":1.556871920239133e-36,"297":5.377344520662087e-37,"298":-4.314969349380321e-36,"299":3.2299640374683997e-37,"300":3.547460288690826e-36,"301":-3.467280008431949e-36,"302":-3.5225775327533e-36,"303":-4.3242330196371163e-38,"304":-2.9828011309856524e-36,"305":-1.4513376890263094e-36,"306":-1.7984283324596063e-36,"307":3.6004204920152343e-37,"308":-1.4296636151020063e-36,"309":2.6536684524739218e-36,"310":-2.9312763953873232e-36,"311":-1.618584835558693e-36,"312":3.7863993892707965e-36,"313":-2.1629578550217326e-36,"314":1.8065387340802623e-36,"315":-2.5028523263732744e-36,"316":-3.352769395568292e-36,"317":1.355132294054066e-36,"318":-3.2488116139174456e-36,"319":1.6513388979676984e-36,"320":1.3191087444888733e-36,"321":3.3833994930793384e-37,"322":2.5390647485506826e-36,"323":-9.542421928304953e-37,"324":2.650661378073358e-36,"325":-2.606617109989226e-36,"326":3.5461365661094864e-36,"327":7.524478599533808e-37,"328":-4.372807775339512e-36,"329":1.6194424077980843e-37,"330":1.3493512092135246e-37,"331":2.948725901963706e-37,"332":-2.9022689342356383e-36,"333":1.8600065437603875e-36,"334":-3.837934886841332e-36,"335":4.144175774273649e-36,"336":-2.8544233582021386e-36,"337":-4.841675335903764e-36,"338":-1.862935504179356e-38,"339":-2.9595893505993133e-36,"340":-5.877339471536405e-37,"341":-2.3068122406685126e-36,"342":-1.2081325426638748e-36,"343":2.177191460095204e-36,"344":3.224527223634574e-36,"345":-4.804936115186871e-36,"346":-2.3886814330989205e-36,"347":-8.383610428064022e-37,"348":4.707449148691095e-36,"349":-4.2266989358817755e-36,"350":1.1381402627600246e-36,"351":4.578340279262386e-36,"352":3.15146311813072e-36,"353":-2.9058332994302703e-36,"354":-2.009981263000728e-36,"355":-3.9970431125267134e-36,"356":3.208719321393566e-36,"357":-7.705217290735283e-38,"358":1.7684585716265003e-36,"359":-4.422928432297363e-36,"360":-1.93973105449634e-36,"361":4.067878772319108e-36,"362":-1.352040379439278e-36,"363":3.7025212953619325e-36,"364":-7.675755831301932e-38,"365":9.850530017915013e-37,"366":-1.5690324107333193e-36,"367":9.046113849742212e-37,"368":2.6729315307332216e-37,"369":2.797377372129717e-36,"370":-2.3977449867246226e-36,"371":4.768014299674883e-36,"372":-1.935696211750102e-36,"373":4.369430668461265e-36,"374":4.313556302429671e-36,"375":-3.4376010002146086e-36,"376":-4.733610875342204e-37,"377":2.280733470886491e-36,"378":3.233802250014124e-36,"379":-2.050376549883758e-37,"380":9.485521587589719e-37,"381":-4.816154036282014e-36,"382":3.561472376503057e-36,"383":4.2253296542847636e-36,"384":3.04423549059128e-36,"385":-3.9299676858231e-36,"386":-3.341891911527266e-36,"387":-2.6218560626329426e-36,"388":-3.401359341346041e-36,"389":1.2432072450129039e-36,"390":-2.7850376947983007e-36,"391":-3.138889906002433e-36,"392":-4.7676487513522854e-36,"393":4.169780658546199e-36,"394":-1.1989139269553045e-36,"395":1.1276671598246398e-36,"396":-1.1011086751315352e-36,"397":3.396090279753976e-36,"398":1.2137175578232878e-36,"399":-3.0286934090637604e-36}},"forgetBias":{"rows":20,"columns":1,"weights":{"0":0,"1":0,"2":0,"3":0,"4":0,"5":0,"6":0,"7":0,"8":0,"9":0,"10":0,"11":0,"12":0,"13":0,"14":0,"15":0,"16":0,"17":0,"18":0,"19":0}},"outputMatrix":{"rows":20,"columns":20,"weights":{"0":-0.27371883392333984,"1":0.4161666929721832,"2":2.2465546131134033,"3":-0.22937913239002228,"4":-0.1309460997581482,"5":-0.01213202252984047,"6":-0.1182694062590599,"7":-0.11886127293109894,"8":-0.12287028878927231,"9":-0.2715209722518921,"10":0.8121322989463806,"11":0.6240149736404419,"12":-0.6394973993301392,"13":-1.2663686275482178,"14":-0.8447123765945435,"15":0.2685540020465851,"16":-1.7138006687164307,"17":1.8123542070388794,"18":0.6798741221427917,"19":-0.2074926793575287,"20":0.046046409755945206,"21":-0.026997849345207214,"22":-0.08855380862951279,"23":0.09094680100679398,"24":0.04747798666357994,"25":0.04991104081273079,"26":0.24375535547733307,"27":1.5066982507705688,"28":-0.381412535905838,"29":-0.1561729609966278,"30":0.5473788976669312,"31":0.2868938744068146,"32":0.42246267199516296,"33":0.2624031901359558,"34":1.3263466358184814,"35":-1.2850910425186157,"36":0.3695196807384491,"37":0.2586934566497803,"38":-0.09385503828525543,"39":-1.130761742591858,"40":-0.10478659719228745,"41":0.11607125401496887,"42":-0.351667582988739,"43":13.694343566894531,"44":-0.00620544608682394,"45":0.10044831037521362,"46":-0.0034977716859430075,"47":0.027909815311431885,"48":-0.04013396427035332,"49":-0.03659569472074509,"50":0.3817739188671112,"51":0.5667650103569031,"52":0.4526633620262146,"53":0.20872481167316437,"54":-0.2508127987384796,"55":-2.0876426696777344,"56":-1.7108222246170044,"57":6.895857334136963,"58":6.391014575958252,"59":-6.734938621520996,"60":-0.05289820581674576,"61":-0.020440541207790375,"62":0.26063477993011475,"63":0.22798024117946625,"64":0.4964246451854706,"65":-0.13590925931930542,"66":0.06689056754112244,"67":0.09278760105371475,"68":-0.09048863500356674,"69":0.024680422618985176,"70":0.23968839645385742,"71":-0.03527318313717842,"72":-0.12035942822694778,"73":-0.10883430391550064,"74":0.43781039118766785,"75":0.3892659544944763,"76":0.7629260420799255,"77":-1.8469173908233643,"78":-1.0549392700195312,"79":0.15503518283367157,"80":-0.16386592388153076,"81":0.24476338922977448,"82":-0.027618704363703728,"83":0.027302376925945282,"84":-0.02634701132774353,"85":-0.1453191190958023,"86":0.23453795909881592,"87":-0.2132849544286728,"88":0.21215172111988068,"89":0.07831273972988129,"90":0.5147307515144348,"91":0.09066901355981827,"92":-0.44495752453804016,"93":-0.661710262298584,"94":-0.25523966550827026,"95":0.4678986072540283,"96":0.523642361164093,"97":1.0839923620224,"98":0.5246073603630066,"99":0.8996590375900269,"100":0.07521969079971313,"101":-0.022617824375629425,"102":0.06358221173286438,"103":0.016258353367447853,"104":0.26207977533340454,"105":-0.22102205455303192,"106":0.18505512177944183,"107":0.005966842640191317,"108":-0.0369323305785656,"109":-0.20142899453639984,"110":1.0121872425079346,"111":0.5093557238578796,"112":0.42313697934150696,"113":-1.539802074432373,"114":0.3550725281238556,"115":-0.5586630702018738,"116":-1.0262874364852905,"117":-0.7334287762641907,"118":-0.7378054261207581,"119":0.752528965473175,"120":1.237586498260498,"121":0.4429716467857361,"122":0.14666517078876495,"123":0.032819658517837524,"124":0.032509930431842804,"125":-0.03316168859601021,"126":0.023305611684918404,"127":0.007495235186070204,"128":0.028968244791030884,"129":0.005613570101559162,"130":1.1645753383636475,"131":0.640383243560791,"132":-0.6282309889793396,"133":-0.888436496257782,"134":-0.42970797419548035,"135":0.5334216356277466,"136":-0.874660313129425,"137":-0.543298065662384,"138":-0.021761523559689522,"139":1.021172046661377,"140":0.29614168405532837,"141":0.7006215453147888,"142":0.3012945353984833,"143":0.22870811820030212,"144":-0.02535286173224449,"145":0.14357632398605347,"146":0.02684861607849598,"147":0.055927131325006485,"148":0.07649438083171844,"149":-0.09440143406391144,"150":0.7855595350265503,"151":0.6159588098526001,"152":-0.4860067665576935,"153":-0.5572435855865479,"154":-0.38528692722320557,"155":0.4163017272949219,"156":-0.5443512201309204,"157":-1.8807278871536255,"158":0.9020792841911316,"159":1.4503111839294434,"160":-0.002895745914429426,"161":0.3231506943702698,"162":-15.348718643188477,"163":0.6860322952270508,"164":-0.030685503035783768,"165":0.04324962571263313,"166":0.054126787930727005,"167":0.016304587945342064,"168":-0.06356091797351837,"169":-0.020649250596761703,"170":0.5881516933441162,"171":-0.09312453866004944,"172":-0.30366331338882446,"173":-0.5402880311012268,"174":-0.4813579022884369,"175":0.24139931797981262,"176":-5.009162902832031,"177":11.8372802734375,"178":3.974090576171875,"179":-5.078581809997559,"180":1.3430275917053223,"181":-6.5348358154296875,"182":0.12731708586215973,"183":0.1095132976770401,"184":-0.054025668650865555,"185":0.07722609490156174,"186":-0.05697557330131531,"187":0.06045405939221382,"188":-0.03726422041654587,"189":-0.07709623873233795,"190":0.1216600239276886,"191":0.37317654490470886,"192":-0.08878844231367111,"193":-0.04345611110329628,"194":0.021325746551156044,"195":-0.3917219638824463,"196":-0.7435884475708008,"197":-3.871457576751709,"198":2.461465358734131,"199":4.110320568084717,"200":-2.0016815662384033,"201":0.9281377196311951,"202":0.0804305449128151,"203":0.351776123046875,"204":-0.02863697148859501,"205":0.2870163917541504,"206":-0.0350317507982254,"207":0.06325751543045044,"208":0.060378819704055786,"209":-0.060076698660850525,"210":0.07176569104194641,"211":-0.3398079574108124,"212":-0.1099499985575676,"213":-0.2632540464401245,"214":-0.17232848703861237,"215":0.16938656568527222,"216":-2.2268614768981934,"217":1.6339621543884277,"218":-1.9206953048706055,"219":-2.2395477294921875,"220":0.1528020054101944,"221":-0.09239593148231506,"222":0.35456353425979614,"223":0.1934550702571869,"224":3.452822208404541,"225":-0.24210098385810852,"226":0.035446975380182266,"227":0.13836424052715302,"228":0.055016063153743744,"229":0.06605153530836105,"230":1.0653327703475952,"231":1.33648681640625,"232":0.22516033053398132,"233":-0.12479685992002487,"234":-0.11798737198114395,"235":-0.42495816946029663,"236":-0.2640441656112671,"237":-1.729390025138855,"238":0.33151307702064514,"239":1.2227716445922852,"240":0.468063622713089,"241":0.06588618457317352,"242":-0.14760273694992065,"243":0.34368544816970825,"244":0.1471727043390274,"245":-0.025119710713624954,"246":0.2512289583683014,"247":0.42336446046829224,"248":0.44343096017837524,"249":-0.4625926613807678,"250":0.8659234642982483,"251":0.5217880010604858,"252":0.8297684192657471,"253":1.0226891040802002,"254":0.7048016786575317,"255":-0.7063983082771301,"256":1.464890956878662,"257":0.6218425035476685,"258":1.5821717977523804,"259":1.5815948247909546,"260":-0.08044344186782837,"261":-0.16178977489471436,"262":0.008198962546885014,"263":-0.12566275894641876,"264":-0.08177877217531204,"265":-0.3232842683792114,"266":-0.009438342414796352,"267":0.33694717288017273,"268":-4.337587356567383,"269":0.08828681707382202,"270":1.0960241556167603,"271":1.136520266532898,"272":-0.06484925001859665,"273":0.059231601655483246,"274":-0.28764522075653076,"275":-0.6099971532821655,"276":-2.833040714263916,"277":3.2364959716796875,"278":-0.9461797475814819,"279":-1.8767966032028198,"280":-0.09507101774215698,"281":-0.4723282754421234,"282":0.0697677880525589,"283":0.21504411101341248,"284":-0.10967327654361725,"285":0.09271255880594254,"286":0.05016808956861496,"287":0.23306800425052643,"288":0.14576728641986847,"289":-0.08242971450090408,"290":0.16471950709819794,"291":-0.3893389403820038,"292":-0.3526972830295563,"293":0.15589790046215057,"294":0.010513815097510815,"295":0.05203542113304138,"296":0.5824127793312073,"297":1.8098994493484497,"298":1.5232932567596436,"299":0.3859012722969055,"300":-0.2994127869606018,"301":0.024138668552041054,"302":1.7676217555999756,"303":0.02722759358584881,"304":0.11122532933950424,"305":0.05903768166899681,"306":0.018642054870724678,"307":0.17502684891223907,"308":0.14330171048641205,"309":-0.008093265816569328,"310":1.5083415508270264,"311":1.2212949991226196,"312":-0.6583842039108276,"313":-1.689738392829895,"314":-1.1074519157409668,"315":0.7754605412483215,"316":-3.071899652481079,"317":5.459564208984375,"318":1.3676955699920654,"319":-1.4678246974945068,"320":0.04706426337361336,"321":-0.026676569133996964,"322":0.013766031712293625,"323":0.07749270647764206,"324":-0.049004439264535904,"325":-0.09224464744329453,"326":2.441789388656616,"327":-0.14013202488422394,"328":-0.20244699716567993,"329":0.10029839724302292,"330":0.8430660963058472,"331":0.4188991189002991,"332":1.4655736684799194,"333":-1.8502846956253052,"334":3.153208017349243,"335":-1.9788230657577515,"336":-2.4710354804992676,"337":-1.9612841606140137,"338":0.5411900281906128,"339":2.1602540016174316,"340":0.06116383895277977,"341":0.08297262340784073,"342":-0.120478056371212,"343":0.17563284933567047,"344":0.1860387623310089,"345":0.28116557002067566,"346":0.1315731406211853,"347":-0.02233985997736454,"348":-0.04070398211479187,"349":0.09493018686771393,"350":0.9800969362258911,"351":0.3123365342617035,"352":-1.520232081413269,"353":-1.5606104135513306,"354":-0.6081917881965637,"355":2.3569607734680176,"356":4.875252723693848,"357":-6.820149898529053,"358":-0.652290403842926,"359":4.888082981109619,"360":-0.6299005746841431,"361":0.5059036016464233,"362":0.3733876645565033,"363":-0.12600895762443542,"364":-0.14475326240062714,"365":-0.3982105851173401,"366":-0.08678828924894333,"367":-0.2203914225101471,"368":0.015704065561294556,"369":-0.19257237017154694,"370":1.0939897298812866,"371":0.4861011505126953,"372":-0.193526953458786,"373":-0.5735260248184204,"374":-0.02484274096786976,"375":0.8250015377998352,"376":0.918876051902771,"377":0.10732381045818329,"378":-0.12209416180849075,"379":0.9210065603256226,"380":-0.11308521032333374,"381":-0.33092236518859863,"382":0.28653812408447266,"383":-0.3609166145324707,"384":-0.05070101097226143,"385":0.0674014464020729,"386":-0.0011511021293699741,"387":-0.15331748127937317,"388":0.4253232777118683,"389":0.20359386503696442,"390":-0.38434356451034546,"391":-0.7443304061889648,"392":-0.025189507752656937,"393":0.5193124413490295,"394":0.566209614276886,"395":0.1925627440214157,"396":0.4583125114440918,"397":-0.7159357666969299,"398":1.6409149169921875,"399":1.3107231855392456}},"outputHidden":{"rows":20,"columns":20,"weights":{"0":-7.004939122406228e-38,"1":2.168825282268452e-37,"2":1.8032660183324133e-36,"3":3.434572222503429e-36,"4":-3.3385765066229996e-36,"5":2.225332452265759e-36,"6":-2.9288377324854403e-36,"7":-1.9412606894792217e-36,"8":4.6090029317393556e-36,"9":-4.0442257510723225e-36,"10":3.490309911488006e-36,"11":-2.535244427783751e-36,"12":2.330236749372124e-36,"13":3.0683692132632676e-36,"14":2.0506243891353523e-36,"15":4.772785799418623e-36,"16":3.245736918458187e-36,"17":3.6943056954629627e-37,"18":-2.2908999472971063e-36,"19":-4.507893126666628e-36,"20":1.6544946669509087e-36,"21":-3.0383576601047615e-37,"22":2.8997631883736712e-36,"23":-1.6219915378605069e-37,"24":-3.018716702096378e-36,"25":-2.593445711572488e-36,"26":1.7940620209694227e-36,"27":4.5220009960314924e-36,"28":4.5843002594700766e-36,"29":-4.445423106602375e-36,"30":-1.1955608551483172e-36,"31":-2.910286962261526e-36,"32":1.4254515585467756e-36,"33":-2.4896407947685183e-37,"34":-4.404641689124903e-36,"35":9.001510855934384e-38,"36":-1.9139100339486528e-36,"37":-1.0541435181075893e-36,"38":5.080306464712439e-37,"39":-4.735234408532583e-36,"40":3.119977892244804e-36,"41":4.731867346161728e-36,"42":4.329243311849565e-36,"43":-3.138197193724773e-36,"44":3.903517269267564e-36,"45":3.518446011623411e-36,"46":-2.6723817284781468e-36,"47":6.968694817886159e-38,"48":-1.3044183833783582e-36,"49":-2.610725492878872e-36,"50":3.2654162608341055e-36,"51":-3.649429257878001e-36,"52":2.130323609236621e-36,"53":3.2815721335097746e-36,"54":-8.539107473975675e-37,"55":4.9832469278794445e-37,"56":-3.6601610965618385e-36,"57":2.7849003002864706e-36,"58":-1.3748393485084147e-36,"59":2.032671805199889e-36,"60":-4.578325571233704e-36,"61":4.347182084587364e-36,"62":-1.5415796958329967e-36,"63":-3.7681370399020035e-36,"64":-4.6257503541539487e-36,"65":-4.48778859670547e-37,"66":3.854803202077039e-36,"67":1.4658281465030978e-36,"68":3.2139073094616785e-36,"69":3.492903188057249e-36,"70":-3.085028746238178e-36,"71":3.110221088242831e-36,"72":4.239206499979606e-36,"73":3.5988434146715446e-37,"74":1.9610971566493478e-36,"75":-3.3230663522796914e-36,"76":-3.092295947336493e-36,"77":-5.657465653134898e-38,"78":2.264612395254288e-36,"79":-2.300439180094314e-36,"80":3.546346065835097e-36,"81":2.147775940830708e-36,"82":3.755384102837876e-36,"83":-2.127346309625827e-36,"84":-3.855325157729031e-36,"85":4.4489645129229675e-36,"86":-4.4615725220947205e-36,"87":2.0558952443894514e-36,"88":3.969235970008406e-36,"89":2.357595297015644e-36,"90":-3.1546246268324402e-37,"91":2.1384991207891233e-36,"92":4.5521800772240054e-36,"93":-1.169521904663458e-36,"94":1.4070649083990031e-36,"95":9.994810622502702e-38,"96":3.372426855267391e-36,"97":4.631399313364886e-36,"98":4.035132602023054e-36,"99":-1.2989740810055389e-36,"100":-2.9538370764551984e-36,"101":-2.705336681034998e-36,"102":3.7234569186266996e-36,"103":-2.1272733075810295e-36,"104":3.9337254077850333e-36,"105":3.083184861666881e-36,"106":-2.1017500349310418e-36,"107":-4.6310186982812e-36,"108":3.9715300637503214e-36,"109":-4.513643965881115e-36,"110":-3.096715889321503e-36,"111":2.393945472437289e-36,"112":-4.652877340028836e-36,"113":2.1844150752060845e-36,"114":3.5848645992900505e-36,"115":3.550202439208919e-36,"116":8.214428637661404e-37,"117":-2.6384384681403768e-36,"118":1.804996722829344e-36,"119":-4.331852013912303e-36,"120":-1.3331694405422348e-36,"121":1.1682069261845356e-37,"122":3.1730500200801544e-37,"123":1.6115775360891534e-36,"124":-3.5749919247206596e-36,"125":-2.5834444314352353e-36,"126":1.4531977165559156e-36,"127":7.121251379100273e-38,"128":1.7512801322250563e-36,"129":2.4606953494816706e-37,"130":-2.2797218454991258e-36,"131":1.1703741631790726e-36,"132":-4.609574033731088e-36,"133":3.588595887157753e-38,"134":-1.0219034295545227e-36,"135":-3.4867402662007607e-38,"136":1.7986609704254596e-37,"137":1.1982939252523609e-37,"138":-6.185706745310427e-37,"139":4.568113894539824e-36,"140":-1.5405384750220648e-36,"141":-2.4458045466388185e-36,"142":1.529425662522134e-36,"143":1.3029451366456811e-37,"144":-2.4937715535920428e-36,"145":-3.3759277248260076e-36,"146":3.668856770104298e-36,"147":-1.691780595855867e-36,"148":2.1537518846305043e-36,"149":5.085169082487523e-37,"150":4.197068715271769e-36,"151":-3.392749046116415e-36,"152":1.1859098772063701e-36,"153":1.1514659161117153e-36,"154":1.6817924094514647e-36,"155":-1.967243498342406e-36,"156":-6.488169732082925e-37,"157":-2.0204359809002608e-36,"158":-2.49738151143351e-38,"159":1.0679682579203339e-36,"160":-2.4559606198096345e-36,"161":-1.607035445719605e-36,"162":4.421462651682904e-36,"163":5.026624402102312e-37,"164":-1.52130701005612e-36,"165":4.0049111904065306e-36,"166":4.353780608479278e-36,"167":-3.5434740541857184e-36,"168":-2.2366362897723463e-36,"169":-1.471395673457676e-36,"170":-1.6508194534425547e-36,"171":3.938948910361426e-36,"172":-9.892377050007084e-37,"173":-5.285058815333478e-37,"174":-6.310754584527197e-37,"175":-4.054039593526987e-36,"176":8.250839080127403e-37,"177":8.519842646895892e-37,"178":4.464392158812696e-36,"179":-3.860454313682417e-36,"180":-4.918286318397415e-37,"181":1.9942332690716667e-36,"182":4.7491083843681703e-36,"183":-3.2567539494054844e-36,"184":-4.5983234679869205e-36,"185":-2.6617264791631752e-36,"186":-2.9460274719577005e-36,"187":3.7646024494971415e-36,"188":1.1748971174167923e-38,"189":2.5349570831258503e-36,"190":-4.297996732697317e-37,"191":-6.500339728985893e-37,"192":2.6930739518048545e-36,"193":-1.3011927512589105e-36,"194":-3.279125219762534e-36,"195":-3.886170405001096e-36,"196":-2.166505001060835e-36,"197":3.048304951014781e-36,"198":-2.6056323895323756e-36,"199":-3.2958704897826856e-36,"200":3.638034930121781e-37,"201":-2.4191327921882457e-36,"202":-1.7261939750128363e-36,"203":-3.742979494940817e-36,"204":-4.6567294086137754e-36,"205":-1.5158978634591738e-36,"206":1.0011064563650098e-36,"207":2.176318126050686e-36,"208":4.437805423942551e-36,"209":-3.9788395952726465e-36,"210":-2.940714286279591e-36,"211":3.578460867095065e-36,"212":-1.8055988551742704e-36,"213":-3.877420562865199e-36,"214":2.4665841213065984e-36,"215":2.066749948922641e-36,"216":-3.658110582124186e-36,"217":8.960453931968439e-38,"218":-2.563006370018793e-36,"219":-4.283569143074832e-36,"220":-4.428624654502905e-37,"221":2.8734322297096222e-36,"222":-4.1379492558876556e-36,"223":3.914342378377187e-36,"224":-1.593070889951284e-36,"225":-1.511476845276943e-36,"226":3.5998807791091027e-36,"227":-2.085646357820572e-36,"228":1.5994821555268136e-36,"229":2.772643669507244e-36,"230":-4.462831672842824e-36,"231":5.495938315463808e-37,"232":3.136238156050871e-36,"233":-4.197938282626015e-36,"234":-4.840089738665411e-36,"235":-2.288155465018369e-36,"236":-2.4530812541459153e-36,"237":4.214894846033812e-36,"238":-4.056011186835129e-36,"239":-3.2085984285724515e-36,"240":4.300647316768557e-36,"241":-1.2202168025216018e-36,"242":-1.7212649917424816e-36,"243":1.9735064729092472e-37,"244":2.1457386098090076e-37,"245":-2.9816962351725016e-36,"246":-4.134550266332589e-36,"247":3.451848775218151e-36,"248":1.7488886426346765e-36,"249":3.95897909303126e-36,"250":-2.3139567552836788e-36,"251":-1.5455017172372753e-36,"252":-4.012128527700291e-36,"253":-3.181568659179825e-36,"254":-4.0925889779689315e-36,"255":2.093554972462365e-36,"256":3.295151590039324e-36,"257":-2.3172339551866137e-36,"258":3.794669247446305e-36,"259":2.468896869133671e-36,"260":1.5177010319022915e-36,"261":-1.3793674483140954e-36,"262":-1.3015484344403193e-36,"263":3.859551384214333e-36,"264":-5.191917981629999e-37,"265":3.515043076011869e-36,"266":-2.364753802194678e-36,"267":-1.2730695654901532e-36,"268":-3.377296647690613e-36,"269":-8.508338098607662e-37,"270":-1.8042954009739186e-36,"271":3.8019507978408945e-36,"272":-3.028375930883683e-36,"273":3.1659275675080105e-36,"274":-2.8944130532576545e-36,"275":-5.0360209490846886e-37,"276":-6.917716812896671e-37,"277":-4.216181977909651e-36,"278":-4.026109764525531e-36,"279":-1.3956484289166594e-36,"280":1.0980565798139095e-36,"281":-4.674553656030682e-37,"282":3.577677754250874e-36,"283":3.6494923947816093e-36,"284":1.5050937401953523e-36,"285":-2.409872473837377e-36,"286":-1.4479458741193805e-36,"287":-3.476761844044058e-37,"288":2.3146399611525573e-36,"289":3.8014535947249766e-36,"290":-4.69170043729722e-36,"291":-3.122683093324989e-37,"292":-1.0395411361198583e-36,"293":4.2964027949305046e-36,"294":2.2534872064863206e-36,"295":-1.569403698774427e-36,"296":2.213446392062826e-36,"297":3.0506223623631426e-36,"298":1.5105163392575562e-36,"299":4.342426727801933e-36,"300":-2.8238554110805816e-36,"301":-1.8178411366572223e-36,"302":2.101203999366239e-37,"303":1.702419881578733e-36,"304":4.061231819552267e-36,"305":-3.972978266476844e-36,"306":8.300599749114963e-37,"307":-2.7658786937785432e-36,"308":-4.3955377781034286e-36,"309":1.3817731975176482e-36,"310":-1.8816416952185455e-36,"311":-6.531557071446981e-37,"312":-4.1842877970799064e-36,"313":-3.840956489904374e-36,"314":2.2189613647197983e-36,"315":-4.6451287200405054e-36,"316":1.0863271063065742e-36,"317":1.632472443225741e-36,"318":3.666504920444877e-36,"319":-4.168842214569834e-36,"320":-2.3222192594448465e-36,"321":-4.2983607564071855e-36,"322":-2.6587567129329255e-36,"323":3.74870450542201e-36,"324":3.949899217081046e-36,"325":2.829730012975438e-36,"326":-7.349594757524037e-37,"327":-4.117614509404391e-36,"328":2.8801046524773513e-36,"329":-3.491341625890156e-36,"330":-4.737783561015781e-36,"331":-3.6339029605763835e-36,"332":3.113648641865794e-37,"333":-4.076615341355951e-36,"334":-3.698540441842928e-36,"335":-2.6572790941490397e-36,"336":1.4843740738395193e-36,"337":4.518423357737806e-36,"338":-2.006011530186336e-36,"339":-2.435795564965206e-38,"340":-3.5532136390321616e-36,"341":3.40371944185082e-36,"342":-3.4598603460607154e-36,"343":2.9041476158504016e-36,"344":1.863176482673669e-36,"345":-5.377971405543088e-37,"346":-3.983042504151502e-36,"347":-4.81614183938018e-36,"348":-2.0048095972571276e-36,"349":-3.5758051710870274e-36,"350":-2.8410401282991457e-36,"351":-1.35839012240703e-36,"352":-7.93488461594814e-37,"353":3.1340147325931085e-36,"354":-1.7351301786341005e-36,"355":3.0344722294059834e-36,"356":1.9921958483668647e-36,"357":1.6811816675287734e-36,"358":2.274544978135626e-36,"359":-1.5205423719308828e-36,"360":-3.7172329113675545e-36,"361":6.603231806339038e-37,"362":3.896364145074633e-36,"363":-1.9109616122966116e-36,"364":4.796705000111304e-36,"365":2.2315889248077255e-36,"366":-3.512714902691301e-36,"367":-1.1032621457699587e-36,"368":-7.877592360078405e-37,"369":-2.0708827256159542e-36,"370":3.8839925405590056e-36,"371":3.0432482590075814e-36,"372":2.868361188406148e-36,"373":-4.320551584363581e-36,"374":1.9362230102895863e-36,"375":1.0047101924412955e-36,"376":-4.7128150680330136e-36,"377":-1.8248938157762305e-36,"378":3.988291476728782e-36,"379":-1.0731964240180158e-36,"380":-1.751585234137097e-36,"381":5.482125324137388e-37,"382":-1.4526391701984234e-36,"383":-2.6182642544091853e-36,"384":3.200760484214811e-36,"385":-2.3745766129595144e-36,"386":2.3374305896932344e-36,"387":4.354753132034295e-36,"388":8.741495329619951e-37,"389":2.351943109213045e-36,"390":-3.839354749707712e-36,"391":4.3068881844508246e-36,"392":3.211506134096313e-37,"393":3.559774496021355e-36,"394":-2.531115059048303e-36,"395":6.711389627009485e-37,"396":-2.9077711718921667e-36,"397":-3.288862293482129e-36,"398":-3.5423928347114208e-37,"399":2.329246468562967e-36}},"outputBias":{"rows":20,"columns":1,"weights":{"0":0.4011843502521515,"1":0.29950276017189026,"2":0.4681055247783661,"3":-0.07692606747150421,"4":-0.07948974519968033,"5":0.3576463460922241,"6":0.5383630990982056,"7":0.6864316463470459,"8":0.08463408052921295,"9":0.34207016229629517,"10":-0.41008421778678894,"11":1.004683256149292,"12":0.4961700737476349,"13":1.1135655641555786,"14":-0.6222599148750305,"15":0.7285704016685486,"16":0.1969131976366043,"17":0.1240217536687851,"18":0.2574175000190735,"19":-0.730552077293396}},"cellActivationMatrix":{"rows":20,"columns":20,"weights":{"0":0.023756155744194984,"1":-0.0731314867734909,"2":8.2936429977417,"3":-0.704872727394104,"4":-0.13461890816688538,"5":-0.38972821831703186,"6":-0.025040123611688614,"7":-0.10520313680171967,"8":-0.12083397060632706,"9":-0.029086271300911903,"10":-0.35516318678855896,"11":-0.07128157466650009,"12":0.7596346139907837,"13":3.542222023010254,"14":3.7822940349578857,"15":1.2224266529083252,"16":0.3971251845359802,"17":-1.9303479194641113,"18":0.720066487789154,"19":-1.3259875774383545,"20":-0.02656055986881256,"21":0.025710823014378548,"22":-0.01142158079892397,"23":0.01906079240143299,"24":-0.07249857485294342,"25":0.04216158762574196,"26":-0.2979387938976288,"27":10.964922904968262,"28":-0.3248482644557953,"29":-0.2059914767742157,"30":0.12355101108551025,"31":0.2251192033290863,"32":0.1625233143568039,"33":-1.0657662153244019,"34":-0.9614234566688538,"35":1.4455937147140503,"36":-2.5473885536193848,"37":-2.134361982345581,"38":1.5285173654556274,"39":1.0561425685882568,"40":0.13584351539611816,"41":0.10844831168651581,"42":-0.05294591188430786,"43":9.953653335571289,"44":-0.022835934534668922,"45":0.020221730694174767,"46":-0.014537959359586239,"47":-0.03299565240740776,"48":0.02147834189236164,"49":0.09793006628751755,"50":-0.41138333082199097,"51":-0.08678644895553589,"52":0.15495699644088745,"53":-0.18517321348190308,"54":-1.587467908859253,"55":-3.52445912361145,"56":0.13973477482795715,"57":2.2769415378570557,"58":2.335456609725952,"59":-3.1275060176849365,"60":-0.02767038904130459,"61":0.06254418194293976,"62":-0.24752208590507507,"63":1.2965675592422485,"64":-0.16669368743896484,"65":0.15905526280403137,"66":0.0005126437172293663,"67":0.07217155396938324,"68":0.02576761692762375,"69":-0.019814489409327507,"70":-0.08018390834331512,"71":-0.22486479580402374,"72":-0.26608723402023315,"73":-0.6963009238243103,"74":0.18924468755722046,"75":0.34280428290367126,"76":-1.9666435718536377,"77":4.600335121154785,"78":1.7985007762908936,"79":-1.11361563205719,"80":-0.016813058406114578,"81":0.05968417972326279,"82":0.1485937237739563,"83":-0.10953692346811295,"84":0.2463872879743576,"85":-0.3372825086116791,"86":0.003406508592888713,"87":-0.2829074263572693,"88":-0.025255758315324783,"89":-0.10259858518838882,"90":1.1456449031829834,"91":0.4946284592151642,"92":-0.7159494161605835,"93":-1.4348526000976562,"94":-0.38446617126464844,"95":1.779597520828247,"96":0.36955124139785767,"97":-1.0488626956939697,"98":-1.193524956703186,"99":1.5165889263153076,"100":0.046246036887168884,"101":-0.04672170430421829,"102":0.11081235855817795,"103":-0.07380586117506027,"104":0.43057456612586975,"105":-12.092048645019531,"106":0.37912243604660034,"107":0.10523369163274765,"108":0.024028386920690536,"109":-0.08769692480564117,"110":-0.00676836259663105,"111":-0.3559289872646332,"112":-1.3312363624572754,"113":1.7531766891479492,"114":-1.2114793062210083,"115":1.2912724018096924,"116":5.90778112411499,"117":-3.805837631225586,"118":-2.468656539916992,"119":0.11213039606809616,"120":8.735365867614746,"121":-0.46728113293647766,"122":0.06529310345649719,"123":-0.05039767920970917,"124":-0.04606420174241066,"125":-0.031211281195282936,"126":-0.05406479164958,"127":-0.03409159183502197,"128":-0.03637627512216568,"129":0.0584881529211998,"130":-0.9393553733825684,"131":-0.5382510423660278,"132":1.2452679872512817,"133":4.76215934753418,"134":2.4209742546081543,"135":-5.172343730926514,"136":4.107353210449219,"137":-5.377283573150635,"138":1.8959910869598389,"139":0.290030300617218,"140":0.23939286172389984,"141":-9.821663856506348,"142":0.3253403902053833,"143":-0.10338003188371658,"144":0.07832804322242737,"145":-0.06290260702371597,"146":0.0002950584457721561,"147":-0.02716991864144802,"148":0.07332631945610046,"149":-0.07846762239933014,"150":0.2520855963230133,"151":0.4953271150588989,"152":-0.8287935853004456,"153":-2.6650006771087646,"154":-1.5374767780303955,"155":3.912834644317627,"156":-3.7574572563171387,"157":-4.701298713684082,"158":5.5522003173828125,"159":6.480588912963867,"160":-0.04930310696363449,"161":-0.08361385017633438,"162":0.28843748569488525,"163":-0.010508595034480095,"164":-0.12345918267965317,"165":-0.04099888354539871,"166":-0.01707502081990242,"167":-0.08984372019767761,"168":-0.23516134917736053,"169":-0.05102718621492386,"170":-0.793825089931488,"171":-0.36576154828071594,"172":0.8602155447006226,"173":1.4341111183166504,"174":1.2167549133300781,"175":-0.5574290752410889,"176":-1.4124447107315063,"177":4.148168087005615,"178":1.3381181955337524,"179":-2.247080087661743,"180":0.04396403580904007,"181":-4.963120937347412,"182":0.4580404758453369,"183":0.01857001893222332,"184":0.0646616667509079,"185":-0.0004602534172590822,"186":-0.010492527857422829,"187":-0.08123070746660233,"188":0.10515306890010834,"189":0.023174168542027473,"190":-0.7983378767967224,"191":-0.5396462082862854,"192":-1.8944733142852783,"193":-3.143893241882324,"194":-2.203458547592163,"195":2.3622829914093018,"196":-2.8424150943756104,"197":-0.11323204636573792,"198":2.1761398315429688,"199":1.7608128786087036,"200":0.580091655254364,"201":0.41747432947158813,"202":-0.9771252870559692,"203":-0.291462242603302,"204":-0.08424951881170273,"205":0.17954635620117188,"206":-0.08369674533605576,"207":0.052240654826164246,"208":-0.07324392348527908,"209":0.021639151498675346,"210":-0.43487197160720825,"211":0.02078704535961151,"212":1.0982311964035034,"213":1.412596583366394,"214":0.9469515681266785,"215":-0.5445486903190613,"216":0.8338033556938171,"217":0.6115186810493469,"218":-0.6878628134727478,"219":-1.821608066558838,"220":-0.02490881271660328,"221":0.0389443039894104,"222":-0.039987798780202866,"223":0.1918051838874817,"224":-13.006841659545898,"225":0.11604999005794525,"226":-0.008482616394758224,"227":0.050916071981191635,"228":-0.025482047349214554,"229":-0.03309491649270058,"230":0.19670622050762177,"231":-0.18142595887184143,"232":-1.2890664339065552,"233":-1.772515058517456,"234":2.1667091846466064,"235":0.6444409489631653,"236":5.061956405639648,"237":5.145501136779785,"238":7.353329181671143,"239":-3.299814462661743,"240":-0.010747461579740047,"241":-0.011097273789346218,"242":-0.008427576161921024,"243":-0.0417984239757061,"244":0.0010941721266135573,"245":-0.04551539570093155,"246":-0.03957226872444153,"247":0.009268024004995823,"248":-0.09152491390705109,"249":11.560431480407715,"250":-0.4067952334880829,"251":-0.326119601726532,"252":-0.23599812388420105,"253":-1.2823735475540161,"254":0.7337945699691772,"255":1.9839521646499634,"256":-5.063358783721924,"257":-3.2188010215759277,"258":0.08581236749887466,"259":-3.215449810028076,"260":0.0019311890937387943,"261":0.038420092314481735,"262":-0.0565628819167614,"263":0.07582798600196838,"264":-0.11073120683431625,"265":0.10582195222377777,"266":-0.08473855257034302,"267":0.16571059823036194,"268":-10.841014862060547,"269":0.446679949760437,"270":-0.0825887992978096,"271":-0.025325557217001915,"272":0.4061048626899719,"273":2.1940884590148926,"274":-0.07612895220518112,"275":-2.30614972114563,"276":2.43094801902771,"277":1.1441186666488647,"278":2.736999988555908,"279":4.0797810554504395,"280":-0.6199234127998352,"281":-0.011339666321873665,"282":0.096943199634552,"283":-0.32531073689460754,"284":0.2715390622615814,"285":-0.21237535774707794,"286":-0.049090735614299774,"287":-0.16417112946510315,"288":-0.10509882122278214,"289":-0.3740706443786621,"290":0.35529395937919617,"291":-0.16179072856903076,"292":-0.17997296154499054,"293":-0.1091325506567955,"294":-0.300504595041275,"295":-0.3738575577735901,"296":-0.051778748631477356,"297":0.9166998267173767,"298":-0.42354896664619446,"299":-0.8388893604278564,"300":-0.10801026970148087,"301":0.3543003797531128,"302":9.668764114379883,"303":0.1691073328256607,"304":-0.04497674107551575,"305":-0.024249238893389702,"306":0.033012136816978455,"307":-0.061596889048814774,"308":-0.07465624809265137,"309":-0.14801226556301117,"310":-0.28716838359832764,"311":-0.07904797792434692,"312":0.8234719038009644,"313":4.143522262573242,"314":4.6370134353637695,"315":1.5886120796203613,"316":0.671998918056488,"317":-1.4395374059677124,"318":-0.045460980385541916,"319":-2.212984800338745,"320":0.024776315316557884,"321":-0.02821963094174862,"322":0.04125489294528961,"323":-0.07719124108552933,"324":0.07956702262163162,"325":-0.14626505970954895,"326":14.638885498046875,"327":-0.11947330832481384,"328":0.016467101871967316,"329":-0.06136249750852585,"330":0.08953289687633514,"331":0.20652316510677338,"332":-0.43703320622444153,"333":1.279552936553955,"334":-1.9280287027359009,"335":0.8376069664955139,"336":-5.177386283874512,"337":0.377424031496048,"338":-2.588789939880371,"339":-4.260612964630127,"340":0.29437634348869324,"341":-0.2451278567314148,"342":-0.05452851951122284,"343":-0.15740549564361572,"344":0.17850437760353088,"345":0.07904084026813507,"346":0.14165274798870087,"347":0.2528262734413147,"348":0.3067861497402191,"349":0.399152547121048,"350":-1.257251501083374,"351":-0.9760392904281616,"352":0.22186638414859772,"353":0.4670947790145874,"354":0.15242061018943787,"355":-0.5567357540130615,"356":-0.2429739087820053,"357":0.43006861209869385,"358":-0.11837491393089294,"359":-0.5233326554298401,"360":0.7391828894615173,"361":-0.21279560029506683,"362":-0.18209624290466309,"363":-0.00016414343554060906,"364":-0.00223600585013628,"365":-0.1611754298210144,"366":-0.04905983805656433,"367":-0.1327078938484192,"368":-0.09014438092708588,"369":-0.03379850834608078,"370":1.4509645700454712,"371":0.7651376724243164,"372":-1.1079316139221191,"373":-1.573751449584961,"374":-0.36107465624809265,"375":1.4639884233474731,"376":2.733743667602539,"377":-1.2376517057418823,"378":0.23874323070049286,"379":4.232926368713379,"380":0.2474333643913269,"381":0.7409060001373291,"382":-3.5932774543762207,"383":0.017008578404784203,"384":0.15579979121685028,"385":0.18436791002750397,"386":0.20148953795433044,"387":0.08642234653234482,"388":-0.09448835998773575,"389":0.02753620781004429,"390":-0.14121925830841064,"391":-0.27979809045791626,"392":-1.1065860986709595,"393":-1.9224092960357666,"394":-2.0524609088897705,"395":-0.6194303631782532,"396":-0.36991187930107117,"397":0.6854208707809448,"398":-0.2449682652950287,"399":0.5949890613555908}},"cellActivationHidden":{"rows":20,"columns":20,"weights":{"0":8.239587438186014e-37,"1":5.809426942761367e-37,"2":3.9283193104135454e-36,"3":2.428583238714754e-36,"4":-4.408938585894358e-36,"5":3.75648182400289e-36,"6":1.0799496512603916e-36,"7":1.726870185599781e-36,"8":-4.2427608206668455e-36,"9":1.1828154514647341e-36,"10":1.4408415375337834e-36,"11":-2.217820236933554e-36,"12":4.590567314618046e-36,"13":-2.8906621472114516e-36,"14":-1.9089184518732998e-36,"15":1.8926210592631216e-36,"16":3.512729251987576e-36,"17":4.740019181375377e-36,"18":-3.3040097693620945e-36,"19":2.7033304700495933e-36,"20":-2.4486295643428974e-36,"21":1.6567756669599735e-36,"22":-2.711409661950852e-36,"23":2.2297250409047455e-37,"24":3.137815861176273e-36,"25":-2.4451319233759426e-36,"26":-4.336410785338771e-36,"27":-2.8643979127750798e-36,"28":1.813321108330696e-36,"29":8.155348997574452e-37,"30":1.1125648842279395e-36,"31":2.49783455683222e-36,"32":1.6550973373944455e-36,"33":-4.01754251718473e-36,"34":-4.5395638172068945e-36,"35":4.4209102037763287e-36,"36":2.581960355468026e-36,"37":-4.2743924093747636e-36,"38":4.167322982826752e-36,"39":-1.994891543038268e-36,"40":1.3622402179637317e-36,"41":-8.171485678066354e-37,"42":-3.853817764155375e-36,"43":9.651604826828022e-37,"44":8.824784026184333e-37,"45":-1.5370917740568852e-36,"46":3.397061144171611e-37,"47":2.8782539519903236e-36,"48":3.2263503017262726e-36,"49":-4.804549760384675e-36,"50":4.4776336894149766e-36,"51":-3.5234456651779183e-36,"52":1.1810454657692516e-36,"53":-1.185292767783457e-36,"54":4.038927273422895e-36,"55":2.147342053984602e-36,"56":-2.974624005137319e-36,"57":1.630845771126802e-36,"58":2.4677668620520394e-36,"59":-1.1496867827398576e-36,"60":-1.666893535129458e-36,"61":2.020483692310374e-36,"62":-5.97131121917729e-37,"63":-2.8724396171398208e-36,"64":-8.087843630081209e-37,"65":4.463856212596837e-36,"66":4.165046466972773e-36,"67":3.895073067142318e-36,"68":2.7379120947053834e-36,"69":-4.562136695176603e-36,"70":2.7249934232692835e-36,"71":-2.1708362016166965e-37,"72":-3.7151023996031705e-36,"73":-2.2207528743596928e-36,"74":-8.103707673943891e-37,"75":2.100446939463097e-36,"76":4.832504341922205e-36,"77":1.5621321928872297e-36,"78":3.904326928309863e-37,"79":2.3872463241052485e-36,"80":-3.6232896829530153e-37,"81":-1.1723230666624802e-36,"82":3.5334686486257866e-36,"83":4.7122992108319386e-36,"84":-2.083318184500004e-36,"85":4.462446035505442e-36,"86":2.1254373151226834e-36,"87":-1.7469389320033535e-36,"88":-3.7557718925696996e-36,"89":3.841047249203311e-36,"90":1.1223214191806072e-36,"91":1.8729472772395097e-36,"92":2.9264155712742733e-36,"93":5.6919012737010935e-37,"94":1.034052171562384e-36,"95":-4.4150589194879185e-36,"96":-3.594570463290248e-36,"97":-2.121160283160259e-37,"98":-4.320672118452288e-36,"99":-2.0775981962725073e-36,"100":-2.855159118368623e-36,"101":1.1187110465547944e-36,"102":-9.05318894963665e-37,"103":-7.52987393493309e-37,"104":-2.1070633999753546e-36,"105":-2.2587083773020685e-36,"106":-5.906577507942604e-37,"107":-4.773779129453238e-36,"108":-2.6402330270057297e-36,"109":2.3543005192247726e-36,"110":3.675394309487045e-36,"111":-1.960237992534901e-36,"112":3.830079723328162e-36,"113":4.7064665806286856e-36,"114":1.4974249381675497e-36,"115":1.6836779069819585e-36,"116":-1.3601111635497506e-37,"117":7.346437912343606e-37,"118":-3.0742804058636245e-36,"119":3.804874825689269e-36,"120":3.3799769617100715e-37,"121":-2.5028799487686032e-36,"122":-9.498188428876198e-37,"123":1.724095569798867e-36,"124":-2.3005980985505563e-36,"125":2.187327264885032e-36,"126":2.9365117361331424e-36,"127":-4.1764670718777955e-36,"128":-3.047226242667331e-36,"129":2.860082720652875e-36,"130":-2.4590733409040208e-36,"131":-1.0713174733539473e-36,"132":-3.4648635869392916e-36,"133":-4.2386102867193925e-36,"134":-1.8356839484761842e-36,"135":2.692014256274969e-36,"136":-7.3077019870500905e-37,"137":1.4345226455530219e-36,"138":-5.2943194924167534e-37,"139":1.5195924485174986e-36,"140":1.175397941487942e-36,"141":-2.5094601773077674e-36,"142":1.0861732101040282e-36,"143":-4.046096181841728e-36,"144":-7.052153576032171e-37,"145":2.097090280332041e-36,"146":4.8025530558080526e-36,"147":6.025998629357662e-37,"148":4.671314392079773e-36,"149":3.0156021873399574e-36,"150":4.6963460219661495e-36,"151":-2.5118572272504537e-36,"152":3.7918323915727996e-36,"153":-8.779888665464909e-37,"154":-4.819022101874917e-36,"155":-1.581925791534735e-36,"156":-4.426445803546696e-37,"157":3.1773148102991945e-36,"158":-2.126467235862799e-36,"159":-1.8321260404648757e-36,"160":1.959809845407305e-36,"161":4.2874567261680515e-36,"162":-4.061363474345587e-36,"163":-7.90113776160313e-37,"164":-3.0293925785247445e-36,"165":-3.86220708022237e-36,"166":9.592931451191848e-37,"167":2.77938801812255e-36,"168":4.7489620215461686e-36,"169":-4.011277255698795e-36,"170":4.3946552963825354e-36,"171":-9.816569717787917e-37,"172":1.7646879352979196e-36,"173":3.9878455723470464e-36,"174":-4.037241589843026e-36,"175":2.6910802964536903e-36,"176":-4.462713291148558e-36,"177":-5.1213835673762706e-37,"178":-4.662035778376154e-36,"179":-7.61193756032802e-37,"180":1.5070893685747543e-36,"181":3.7316006375196434e-38,"182":4.333967279549395e-37,"183":4.299923036039092e-36,"184":-4.246983101095672e-36,"185":-2.9779273925059553e-36,"186":-2.7532952577766607e-36,"187":3.8111049313993305e-36,"188":-1.3880580099197573e-36,"189":3.746829411131315e-36,"190":-1.1282882153040285e-36,"191":-9.342301261472077e-37,"192":4.9250192772588025e-37,"193":-2.8193490145855165e-36,"194":7.598958621847567e-37,"195":-5.8364820924717795e-37,"196":-2.5864229866094533e-36,"197":4.225995102899502e-36,"198":-2.6569508539967562e-36,"199":4.6643356118365796e-36,"200":-3.213400420570775e-36,"201":-1.9062882258661498e-36,"202":1.0788164155870983e-36,"203":2.920786028454858e-37,"204":-2.2910794928667433e-36,"205":-3.9401919181512207e-36,"206":4.460909225874423e-36,"207":3.8674962308292195e-36,"208":-4.6702790903535546e-36,"209":2.347105423340238e-36,"210":-4.070703790023187e-36,"211":-2.7337864926602077e-36,"212":3.0149134211187725e-36,"213":4.2898308172366984e-36,"214":-3.5449193758425984e-39,"215":2.572634209720497e-37,"216":1.767645504626336e-36,"217":-8.689846831341253e-37,"218":-2.6977258142909043e-36,"219":8.453469080146314e-37,"220":-1.2765575206821225e-36,"221":-2.8840679281084196e-36,"222":-3.0026698840723965e-36,"223":4.071031671443064e-36,"224":1.8448567361197773e-36,"225":-1.3171029819189773e-36,"226":4.421736005776937e-36,"227":-4.707194089949812e-36,"228":1.8039486861026815e-37,"229":-2.8060881124332653e-36,"230":-3.9627841676709e-36,"231":-2.0452952398651373e-36,"232":1.5302923600171252e-36,"233":1.0825927019510871e-36,"234":-1.3535368316745243e-36,"235":-7.4770994653123375e-37,"236":-7.952932443337627e-37,"237":-2.2642949170742107e-36,"238":-2.1607175711408473e-36,"239":3.865177743283637e-36,"240":2.5099281437325256e-36,"241":-1.0058367915650618e-36,"242":1.8633176438757713e-36,"243":-4.384008477279125e-36,"244":4.16964541642881e-36,"245":-3.993743850580756e-36,"246":-2.3840762058257635e-36,"247":3.0889672693331726e-36,"248":-2.2023003968152602e-36,"249":4.6369302496139635e-36,"250":1.9605990567024127e-36,"251":-1.2160252833966642e-36,"252":2.9558057999040854e-36,"253":-1.3950789412207578e-36,"254":4.7046912139471e-36,"255":2.76669606556759e-36,"256":1.3738150778037073e-36,"257":3.375843781442801e-36,"258":-1.084360983667637e-36,"259":1.941313423143031e-36,"260":-3.6052669668320095e-37,"261":1.198977063858913e-36,"262":1.3654593928998559e-36,"263":1.4698549177701815e-36,"264":-3.886059915419781e-36,"265":-3.590812382595908e-36,"266":-8.620223148985459e-37,"267":3.928338323231109e-36,"268":-1.0961706338679071e-36,"269":-3.166221010616828e-36,"270":-2.2005944448544035e-36,"271":4.65798389584059e-36,"272":-2.7787580840160912e-36,"273":-2.97230569695794e-36,"274":1.8747542123728996e-36,"275":-3.161581883131222e-36,"276":-3.368851010635739e-36,"277":-6.531812556182997e-38,"278":4.5716248086058326e-36,"279":-3.599177663591643e-36,"280":6.787914872457895e-37,"281":-1.5757875213208313e-36,"282":-1.6884284433006722e-37,"283":4.509031743326024e-36,"284":-2.0068283638767725e-36,"285":-4.3012747397481674e-36,"286":3.640281581502888e-36,"287":-2.1190586941961785e-36,"288":2.8233639476831736e-36,"289":-3.765425022906088e-36,"290":-4.8170540958908435e-36,"291":-3.770921879576513e-36,"292":-2.3898742183517538e-36,"293":3.929557654682051e-36,"294":3.810294196159811e-36,"295":1.7013044031595795e-36,"296":-3.139301013340703e-36,"297":2.4822789331563415e-37,"298":-3.616705687723579e-36,"299":2.1358064753431784e-36,"300":1.8343925118114624e-36,"301":2.7807931729602486e-36,"302":-1.0543452322189319e-38,"303":-1.896658054403801e-36,"304":-4.118591696480697e-36,"305":4.137038793039027e-36,"306":4.371217155847463e-36,"307":-4.07929148511118e-36,"308":-2.9386777624058063e-36,"309":4.303776898286066e-36,"310":5.031433210016366e-37,"311":-2.1255858303391264e-36,"312":-3.1622792589301715e-36,"313":-3.702142115207874e-36,"314":-4.252056294793587e-36,"315":-1.1575821242825968e-36,"316":4.544912158660877e-36,"317":-1.1117644177035663e-37,"318":4.651171208701776e-36,"319":5.8560231435048505e-37,"320":2.8897732083072348e-36,"321":-2.4558013426209855e-36,"322":2.4268182752729676e-36,"323":-2.5229022393254865e-36,"324":-1.8185526823862433e-36,"325":-1.5484257450856495e-36,"326":-1.2301892943832035e-36,"327":3.315565975116913e-36,"328":-2.026154892930537e-36,"329":2.3561533721062414e-36,"330":-4.3015850432801075e-36,"331":4.254824274044974e-36,"332":1.61377244032057e-36,"333":6.029126327530035e-37,"334":-1.2285093505218446e-36,"335":-2.612162216168375e-36,"336":2.590671454503981e-36,"337":-4.367099266549035e-36,"338":-1.6563399864518334e-36,"339":-3.30538864705099e-37,"340":4.8947911394096504e-37,"341":-4.1071678629840126e-36,"342":3.203539225438404e-36,"343":3.9188028571241735e-36,"344":-4.383134605135997e-36,"345":4.360233128281598e-36,"346":3.574232488215322e-36,"347":-7.0312699689664e-37,"348":6.039645258530397e-37,"349":3.371198914238685e-36,"350":-1.6213843832618842e-36,"351":-4.400244347281526e-36,"352":4.2972802543977017e-36,"353":3.522501122750637e-36,"354":3.025880946993922e-36,"355":-5.224390439099614e-38,"356":4.597670575006422e-36,"357":4.1741288540498354e-36,"358":-3.880310869867328e-36,"359":-3.663789316124893e-36,"360":-7.804643900934215e-40,"361":4.108677050219703e-36,"362":1.4553874191674327e-36,"363":1.177255188841395e-36,"364":9.269068058479936e-38,"365":1.523973109303957e-36,"366":1.8524823108925524e-36,"367":-1.778787912549833e-36,"368":-2.346247604472317e-37,"369":2.180266334920666e-36,"370":-4.585328386548158e-36,"371":-3.2870381391932095e-36,"372":-4.32539985284239e-36,"373":-8.248405080746809e-37,"374":-4.56257219631854e-36,"375":4.175672120864178e-36,"376":1.56626586641156e-36,"377":2.162097973442472e-36,"378":-7.788176514004732e-37,"379":-1.9124065864314725e-36,"380":-3.115151506442813e-36,"381":-2.8270208658387774e-36,"382":-2.0710052327328993e-36,"383":3.1948912633060576e-36,"384":-4.442319712550567e-37,"385":-2.6969782159549932e-36,"386":-3.0420192417816546e-36,"387":3.081325192869682e-36,"388":3.7868743509774887e-36,"389":4.643670831538997e-36,"390":-1.365522978218973e-36,"391":1.3656179526236911e-36,"392":-1.3030806702331506e-37,"393":-2.1296321525223844e-36,"394":2.4411768985902323e-36,"395":3.883846177737004e-36,"396":8.356228383447852e-37,"397":-1.4926364883175853e-36,"398":4.6814180903191866e-36,"399":3.580042877009349e-36}},"cellActivationBias":{"rows":20,"columns":1,"weights":{"0":-0.06004597991704941,"1":0.11680654436349869,"2":0.043884482234716415,"3":-0.2840316593647003,"4":0.3143782317638397,"5":-0.23875939846038818,"6":-0.6397460103034973,"7":0.5819341540336609,"8":-0.1497560441493988,"9":-0.44411975145339966,"10":0.08400648832321167,"11":-0.08027293533086777,"12":-0.2077009528875351,"13":0.0025270101614296436,"14":-0.3431377708911896,"15":-0.12834270298480988,"16":0.073201984167099,"17":-0.8930983543395996,"18":0.5334047079086304,"19":-0.41174134612083435}}},{"inputMatrix":{"rows":20,"columns":20,"weights":{"0":0.5196892619132996,"1":-0.049308013170957565,"2":0.28108394145965576,"3":0.28688350319862366,"4":-0.3918704092502594,"5":0.5153078436851501,"6":1.1331565380096436,"7":0.012062396854162216,"8":0.3108353018760681,"9":-0.1495938003063202,"10":0.5722999572753906,"11":0.2167603075504303,"12":-0.848663330078125,"13":-0.21870671212673187,"14":-0.6263158321380615,"15":0.4415215253829956,"16":-0.33411940932273865,"17":-0.9143034219741821,"18":0.5318902730941772,"19":-0.10677159577608109,"20":0.33592909574508667,"21":2.0088000297546387,"22":0.3767737150192261,"23":-0.12714014947414398,"24":-0.6856343746185303,"25":-0.3930518329143524,"26":-0.28995048999786377,"27":-0.20217867195606232,"28":-0.009534073993563652,"29":-0.18851393461227417,"30":0.47540926933288574,"31":0.02632683329284191,"32":-0.05635421723127365,"33":0.9268612265586853,"34":0.13081355392932892,"35":-0.28239157795906067,"36":0.18757352232933044,"37":-0.48518991470336914,"38":0.4147181510925293,"39":0.13310927152633667,"40":-0.042038220912218094,"41":0.01098668109625578,"42":0.18010729551315308,"43":-0.05901775136590004,"44":-0.8041476607322693,"45":-0.20879295468330383,"46":-0.08592885732650757,"47":-0.3187466561794281,"48":-0.04591057449579239,"49":0.45924532413482666,"50":0.284702330827713,"51":-1.02467679977417,"52":0.9049798250198364,"53":2.9036693572998047,"54":-0.0003279251104686409,"55":-0.482327401638031,"56":0.7074668407440186,"57":-0.4346228539943695,"58":0.27957627177238464,"59":-0.07259386032819748,"60":0.4680302143096924,"61":-0.19215922057628632,"62":-0.048118673264980316,"63":0.3980734348297119,"64":-0.12179332971572876,"65":-0.20683997869491577,"66":0.07054249942302704,"67":1.0212230682373047,"68":-0.6078997254371643,"69":-3.01603102684021,"70":-0.8191332817077637,"71":-0.006906944792717695,"72":0.1149999126791954,"73":0.14371992647647858,"74":0.2021426260471344,"75":-0.13324207067489624,"76":-0.24623560905456543,"77":-0.26249656081199646,"78":0.3210178315639496,"79":-0.4219382107257843,"80":-0.31062614917755127,"81":0.14368127286434174,"82":0.14024774730205536,"83":0.1431429088115692,"84":0.21843338012695312,"85":0.4182742238044739,"86":-0.17402414977550507,"87":-0.18958772718906403,"88":0.015370484441518784,"89":-0.036787211894989014,"90":0.3629721999168396,"91":-0.19885240495204926,"92":-1.9378145933151245,"93":0.9098411798477173,"94":0.07005492597818375,"95":0.24348084628582,"96":0.287153959274292,"97":-0.5404702425003052,"98":0.10962799936532974,"99":0.0011323723010718822,"100":1.3535284996032715,"101":-0.42441871762275696,"102":1.213592767715454,"103":-0.1461883932352066,"104":-1.0160225629806519,"105":0.4140454828739166,"106":0.00907108187675476,"107":1.1680861711502075,"108":-0.2490074783563614,"109":0.06122517213225365,"110":-0.3092957139015198,"111":1.2592949867248535,"112":-0.5651828050613403,"113":0.1250562071800232,"114":-0.05809100717306137,"115":0.7023122310638428,"116":-0.13521307706832886,"117":-0.5181323885917664,"118":0.23465710878372192,"119":-1.1114163398742676,"120":0.4726146459579468,"121":0.419307142496109,"122":-0.18647943437099457,"123":0.3732604682445526,"124":-0.6845070123672485,"125":-0.01410834863781929,"126":-0.2550365924835205,"127":-0.85596764087677,"128":0.0722685158252716,"129":0.4665333032608032,"130":0.16167065501213074,"131":-0.5291198492050171,"132":-0.1330268830060959,"133":-0.7279664278030396,"134":-0.2653947174549103,"135":0.35356128215789795,"136":-0.011902965605258942,"137":-0.5699900984764099,"138":-0.05154859647154808,"139":-0.33992689847946167,"140":0.31582707166671753,"141":-0.01262980978935957,"142":0.003962651360780001,"143":0.0714372768998146,"144":0.538774847984314,"145":-0.3464582860469818,"146":-0.13167791068553925,"147":0.26432904601097107,"148":0.2011910229921341,"149":0.2752062678337097,"150":0.04620976746082306,"151":-0.7862105369567871,"152":-0.6053053140640259,"153":0.2982596457004547,"154":0.008013423532247543,"155":-0.13382995128631592,"156":-1.8823497295379639,"157":-1.1823550462722778,"158":0.7333214282989502,"159":-0.23041418194770813,"160":0.019191689789295197,"161":0.2079860121011734,"162":0.17645438015460968,"163":0.8150750398635864,"164":0.7401755452156067,"165":-0.4672737717628479,"166":0.03913110867142677,"167":0.2662208378314972,"168":0.13807471096515656,"169":0.3413352370262146,"170":0.31982579827308655,"171":-0.030342739075422287,"172":-0.6738193035125732,"173":-0.14316017925739288,"174":0.38813936710357666,"175":-0.2724364101886749,"176":0.12283296883106232,"177":-0.9230023622512817,"178":0.7012484073638916,"179":-0.7221717834472656,"180":-0.467379629611969,"181":-0.28157252073287964,"182":0.37413111329078674,"183":-0.18369647860527039,"184":-0.3215738832950592,"185":-0.124603770673275,"186":0.799159824848175,"187":0.12098908424377441,"188":-0.12085016071796417,"189":-0.32206636667251587,"190":-0.6996710896492004,"191":-0.01751328445971012,"192":-1.4127599000930786,"193":0.4406602084636688,"194":-1.2829132080078125,"195":-0.32269084453582764,"196":-0.0735035315155983,"197":-0.7333745360374451,"198":0.4854959547519684,"199":-0.6607058048248291,"200":-0.025862907990813255,"201":-1.5957756042480469,"202":0.08899052441120148,"203":-0.07155967503786087,"204":0.10693314671516418,"205":-0.10630367696285248,"206":-0.19682709872722626,"207":0.006560074631124735,"208":-0.23320065438747406,"209":0.15862515568733215,"210":-0.01848393678665161,"211":-0.3643662631511688,"212":-0.14062556624412537,"213":-0.21899467706680298,"214":0.12128625810146332,"215":-0.1460665762424469,"216":0.9777603149414062,"217":-0.11284104734659195,"218":-0.17632190883159637,"219":0.20738942921161652,"220":-0.12822282314300537,"221":-0.016958078369498253,"222":0.37937596440315247,"223":-0.023747064173221588,"224":0.5068463087081909,"225":-0.27992957830429077,"226":0.737501859664917,"227":0.847702145576477,"228":-0.7223442196846008,"229":0.5459281206130981,"230":-0.16476893424987793,"231":-0.2557362914085388,"232":0.8590449094772339,"233":0.04449602961540222,"234":0.7068690657615662,"235":0.1561838537454605,"236":0.08639713376760483,"237":-0.7052842378616333,"238":0.7497697472572327,"239":-0.22426196932792664,"240":-0.3193923532962799,"241":0.2166677713394165,"242":0.15013644099235535,"243":0.08242135494947433,"244":-0.28237155079841614,"245":-0.32365986704826355,"246":0.44770175218582153,"247":-0.617148756980896,"248":0.12137871980667114,"249":0.3424426019191742,"250":-0.03421015292406082,"251":-0.2496921420097351,"252":-1.0809766054153442,"253":-0.692233681678772,"254":-0.39146530628204346,"255":-0.23429226875305176,"256":-0.5040242671966553,"257":-0.018791548907756805,"258":0.9311002492904663,"259":0.19514906406402588,"260":-1.3920589685440063,"261":-0.24372917413711548,"262":1.6553279161453247,"263":0.9706721901893616,"264":-0.3134911358356476,"265":0.04904397577047348,"266":-0.31427326798439026,"267":-0.28114086389541626,"268":-0.9603434801101685,"269":-0.3448789417743683,"270":-0.5757290720939636,"271":-0.29577165842056274,"272":-0.16198526322841644,"273":-0.08448882400989532,"274":0.04513039439916611,"275":-2.0125739574432373,"276":0.3341106176376343,"277":-0.9009344577789307,"278":0.2991977334022522,"279":1.2580311298370361,"280":0.2830372750759125,"281":0.04368888586759567,"282":0.7764202952384949,"283":0.12763577699661255,"284":-0.2389221340417862,"285":0.38029754161834717,"286":0.03039073757827282,"287":-0.1477612555027008,"288":-0.002063983352854848,"289":-0.1716233640909195,"290":0.38053542375564575,"291":-2.7549448013305664,"292":-0.28787195682525635,"293":-0.12833614647388458,"294":-0.22878195345401764,"295":0.3256765305995941,"296":0.39668166637420654,"297":-0.74445641040802,"298":0.877501368522644,"299":-0.8978013396263123,"300":1.4968324899673462,"301":0.5021683573722839,"302":0.3968036472797394,"303":-1.411720633506775,"304":-0.43745607137680054,"305":0.6419331431388855,"306":0.4099118113517761,"307":0.9729623198509216,"308":0.09207255393266678,"309":-0.2949651777744293,"310":0.4763515889644623,"311":0.4827592074871063,"312":-0.6004841923713684,"313":0.07683376967906952,"314":-0.2070731222629547,"315":0.4924246668815613,"316":0.2287416160106659,"317":-1.1706634759902954,"318":0.5685461163520813,"319":-1.1156166791915894,"320":0.2846255302429199,"321":-0.05176478996872902,"322":0.07350807636976242,"323":0.1243366226553917,"324":-0.040143877267837524,"325":0.12315566092729568,"326":1.0739988088607788,"327":-0.14238634705543518,"328":-0.02554565668106079,"329":0.0038383030332624912,"330":0.4172270596027374,"331":-0.3696948289871216,"332":-0.5209394693374634,"333":0.2864954173564911,"334":0.49573349952697754,"335":-0.19346411526203156,"336":0.2547354996204376,"337":-0.4773128926753998,"338":0.16120675206184387,"339":0.22282101213932037,"340":0.4574719965457916,"341":-0.022938350215554237,"342":0.14647959172725677,"343":0.432782918214798,"344":0.14303499460220337,"345":-0.4482743740081787,"346":0.11094631999731064,