{"sizes":[20,40,30,40,10],"layers":[{"0":{},"1":{},"2":{},"3":{},"4":{},"5":{},"6":{},"7":{},"8":{},"9":{},"10":{},"11":{},"12":{},"13":{},"14":{},"15":{},"16":{},"17":{},"18":{},"19":{}},{"0":{"bias":-0.02537386678159237,"weights":{"0":0.4275969862937927,"1":0.2828787565231323,"2":0.2224072962999344,"3":0.3400436341762543,"4":0.13001678884029388,"5":0.5429348945617676,"6":0.17971326410770416,"7":0.13297808170318604,"8":-0.028465677052736282,"9":0.3653174638748169,"10":-0.017838308587670326,"11":0.5585962533950806,"12":0.2872345447540283,"13":0.022654037922620773,"14":-0.1323361098766327,"15":-0.07876383513212204,"16":-0.1982273906469345,"17":-0.13094069063663483,"18":-0.1770448237657547,"19":0.17996326088905334}},"1":{"bias":0.2787395119667053,"weights":{"0":0.07914386689662933,"1":0.06443796306848526,"2":-0.24974974989891052,"3":-0.08936988562345505,"4":-0.16729041934013367,"5":0.060857344418764114,"6":0.11002174019813538,"7":-0.06675606220960617,"8":-0.33498096466064453,"9":0.2500336468219757,"10":-0.5987321734428406,"11":-0.11067720502614975,"12":-0.2580915689468384,"13":-0.07327394187450409,"14":0.00010253674554405734,"15":0.1867310106754303,"16":0.049506742507219315,"17":-0.06349141150712967,"18":0.021041499450802803,"19":-0.09518413990736008}},"2":{"bias":-0.08178132772445679,"weights":{"0":-0.28267648816108704,"1":0.3127840459346771,"2":-0.18622474372386932,"3":-0.2651700973510742,"4":0.26395711302757263,"5":0.13024258613586426,"6":0.08644923567771912,"7":0.04984516650438309,"8":0.22315697371959686,"9":-0.33397984504699707,"10":0.14642243087291718,"11":0.09792837500572205,"12":0.2686949074268341,"13":-0.1391039937734604,"14":-0.16372540593147278,"15":-0.16897711157798767,"16":-0.18019136786460876,"17":0.02470032311975956,"18":0.008544587530195713,"19":0.10996510088443756}},"3":{"bias":0.17721399664878845,"weights":{"0":-0.04127616435289383,"1":-0.1232689768075943,"2":0.2918754816055298,"3":-0.6442307829856873,"4":0.29273995757102966,"5":-0.004305395297706127,"6":-0.2577993869781494,"7":-0.2789815366268158,"8":-0.36881333589553833,"9":-0.2808234989643097,"10":-0.3816783130168915,"11":0.07841600477695465,"12":-0.3171049654483795,"13":-0.1374199390411377,"14":0.1743198037147522,"15":-0.016052208840847015,"16":0.16512715816497803,"17":0.11963856965303421,"18":-0.10350760072469711,"19":-0.07426492869853973}},"4":{"bias":0.17136149108409882,"weights":{"0":0.033561404794454575,"1":0.005636412184685469,"2":0.12997011840343475,"3":0.13321465253829956,"4":-0.13006709516048431,"5":0.1683555394411087,"6":0.14046087861061096,"7":-0.2538968324661255,"8":-0.2586728632450104,"9":-0.10599339008331299,"10":-0.3630920946598053,"11":-0.5530499815940857,"12":0.030826741829514503,"13":0.047354113310575485,"14":-0.0020289516542106867,"15":-0.18826799094676971,"16":0.13623197376728058,"17":0.08684834092855453,"18":-0.09627227485179901,"19":-0.008634516969323158}},"5":{"bias":-0.15629971027374268,"weights":{"0":0.38532599806785583,"1":0.11524682492017746,"2":-0.4567379355430603,"3":-0.13829302787780762,"4":0.2908097207546234,"5":-0.14341309666633606,"6":0.0451284758746624,"7":0.007471744902431965,"8":-0.04781913384795189,"9":-0.06626061350107193,"10":-0.15758955478668213,"11":0.2889328598976135,"12":0.2553965747356415,"13":-0.1340080201625824,"14":0.1399020552635193,"15":0.15117746591567993,"16":-0.14486026763916016,"17":0.006152139510959387,"18":-0.04462284967303276,"19":-0.14415498077869415}},"6":{"bias":-0.1276102364063263,"weights":{"0":-0.39552661776542664,"1":0.049387797713279724,"2":0.05361528322100639,"3":-0.3910999298095703,"4":-0.066729336977005,"5":0.3681173622608185,"6":-0.14542047679424286,"7":-0.21116487681865692,"8":-0.08097601681947708,"9":0.08166612684726715,"10":0.32588592171669006,"11":0.5383818745613098,"12":-0.002192065119743347,"13":-0.06065049767494202,"14":-0.18484987318515778,"15":0.08026528358459473,"16":0.035950466990470886,"17":-0.10601414740085602,"18":-0.14130251109600067,"19":0.054630719125270844}},"7":{"bias":0.5393510460853577,"weights":{"0":-0.2742292582988739,"1":-0.18862983584403992,"2":-0.12402793020009995,"3":-0.11185089498758316,"4":0.2503162920475006,"5":-0.27533194422721863,"6":-0.015063748694956303,"7":-0.14820978045463562,"8":-0.17706549167633057,"9":0.19621418416500092,"10":-0.5790654420852661,"11":-0.9867243766784668,"12":-0.5778033137321472,"13":-0.21982108056545258,"14":0.03551991656422615,"15":-0.020342988893389702,"16":-0.13577692210674286,"17":0.08849263191223145,"18":-0.08999477326869965,"19":0.09863711893558502}},"8":{"bias":-0.04103527218103409,"weights":{"0":-0.15228809416294098,"1":-0.3592006266117096,"2":0.13533958792686462,"3":0.613457977771759,"4":0.36819013953208923,"5":-0.494385689496994,"6":-0.4463938772678375,"7":0.055072542279958725,"8":0.2914102375507355,"9":-0.25690391659736633,"10":0.05412164703011513,"11":-0.09598036110401154,"12":0.4322226643562317,"13":0.07202142477035522,"14":-0.031195618212223053,"15":-0.19462239742279053,"16":0.0674169510602951,"17":-0.12219046801328659,"18":0.16975408792495728,"19":0.09093284606933594}},"9":{"bias":0.38138729333877563,"weights":{"0":0.19328297674655914,"1":0.22425048053264618,"2":-0.1792299449443817,"3":-0.2509380877017975,"4":-0.018275201320648193,"5":0.43500760197639465,"6":0.5614646077156067,"7":0.2859335243701935,"8":0.2029685080051422,"9":0.13704679906368256,"10":-0.12210149317979813,"11":-0.3868321180343628,"12":0.3299850821495056,"13":0.04968999698758125,"14":-0.14021694660186768,"15":-0.005985944531857967,"16":0.11405566334724426,"17":0.08491909503936768,"18":-0.10099118947982788,"19":0.13315191864967346}},"10":{"bias":0.18687282502651215,"weights":{"0":0.4202728271484375,"1":0.006757208611816168,"2":-0.06387153267860413,"3":-0.185426726937294,"4":-0.4207216203212738,"5":-0.5531291961669922,"6":0.0068924748338758945,"7":0.024886013939976692,"8":-0.18762525916099548,"9":0.06146211177110672,"10":-0.25591087341308594,"11":-0.31866180896759033,"12":-0.8082466721534729,"13":-0.0832773745059967,"14":-0.013471636921167374,"15":-0.1628260612487793,"16":0.13733607530593872,"17":0.03190869465470314,"18":-0.15381358563899994,"19":-0.12879879772663116}},"11":{"bias":-0.060153890401124954,"weights":{"0":-0.11460904031991959,"1":0.08412234485149384,"2":-0.1414671093225479,"3":0.31362488865852356,"4":0.5591021776199341,"5":-0.13986298441886902,"6":-0.12893158197402954,"7":-0.12745651602745056,"8":-0.23737283051013947,"9":-0.30155834555625916,"10":-0.20790761709213257,"11":0.06311920285224915,"12":0.4759118854999542,"13":0.07912635058164597,"14":0.06391075253486633,"15":-0.0642128735780716,"16":0.14303086698055267,"17":0.19782455265522003,"18":-0.004025094211101532,"19":0.16180108487606049}},"12":{"bias":-0.042166873812675476,"weights":{"0":0.10202178359031677,"1":-0.1867675632238388,"2":0.16982676088809967,"3":-0.17131651937961578,"4":-0.18879376351833344,"5":-0.18394729495048523,"6":0.09632527828216553,"7":0.19857700169086456,"8":0.1665557622909546,"9":-0.04476596415042877,"10":-0.2889665961265564,"11":0.24515068531036377,"12":-0.4506641924381256,"13":-0.19286276400089264,"14":-0.06838233023881912,"15":-0.11208835244178772,"16":0.1364864557981491,"17":-0.15483629703521729,"18":0.13720238208770752,"19":-0.18247880041599274}},"13":{"bias":-0.0696728453040123,"weights":{"0":-0.44339123368263245,"1":-0.06873183697462082,"2":0.14720287919044495,"3":0.08226259052753448,"4":0.6514183878898621,"5":0.11742043495178223,"6":-0.01916421391069889,"7":0.1344933956861496,"8":0.19930648803710938,"9":-0.34372207522392273,"10":-0.019591856747865677,"11":-0.07030709832906723,"12":0.012665040791034698,"13":-0.24549885094165802,"14":-0.01608588919043541,"15":-0.12760120630264282,"16":-0.08416420966386795,"17":0.1497073471546173,"18":-0.00703926756978035,"19":-0.16012661159038544}},"14":{"bias":0.05476948246359825,"weights":{"0":0.03521231561899185,"1":-0.3688041567802429,"2":-0.05139471963047981,"3":0.2978881597518921,"4":-0.01008176151663065,"5":-0.06683412939310074,"6":0.03769225254654884,"7":0.11894682049751282,"8":0.03597578778862953,"9":0.02431408502161503,"10":-0.11027520149946213,"11":-0.18788401782512665,"12":0.06803765892982483,"13":0.09664905071258545,"14":-0.09492652118206024,"15":0.12269362062215805,"16":-0.0478440597653389,"17":0.046971116214990616,"18":-0.17689166963100433,"19":-0.19675351679325104}},"15":{"bias":0.1250057965517044,"weights":{"0":-0.2072080820798874,"1":-0.01595916785299778,"2":-0.2558597922325134,"3":-0.2539193630218506,"4":0.2869948446750641,"5":0.11572493612766266,"6":0.291349321603775,"7":-0.006951174233108759,"8":-0.18553107976913452,"9":0.04374747350811958,"10":-0.01678493618965149,"11":-0.2413308322429657,"12":0.13397522270679474,"13":0.14185427129268646,"14":-0.08618231117725372,"15":-0.09467621147632599,"16":0.16106700897216797,"17":-0.03419475257396698,"18":0.09969252347946167,"19":-0.0067554800771176815}},"16":{"bias":0.24957787990570068,"weights":{"0":-0.14110539853572845,"1":0.39208143949508667,"2":0.23223945498466492,"3":-0.21351511776447296,"4":-0.4796127378940582,"5":0.315524160861969,"6":0.10263720899820328,"7":0.2311459630727768,"8":0.25854697823524475,"9":0.1079879105091095,"10":-0.3011262118816376,"11":-0.2735171914100647,"12":0.18540482223033905,"13":0.04790633171796799,"14":0.14718222618103027,"15":-0.022344686090946198,"16":0.05771517753601074,"17":-0.03937215730547905,"18":-0.07668502628803253,"19":0.07523415982723236}},"17":{"bias":0.4604823887348175,"weights":{"0":-0.017125457525253296,"1":-0.40907686948776245,"2":0.02814311347901821,"3":0.3235848844051361,"4":-0.40688422322273254,"5":-0.08712013810873032,"6":0.1505046933889389,"7":0.27963414788246155,"8":0.09566003829240799,"9":0.0319097675383091,"10":-0.8485668301582336,"11":-0.13991886377334595,"12":-0.4263021945953369,"13":0.09203498065471649,"14":0.09600486606359482,"15":0.007365086115896702,"16":-0.11316931247711182,"17":0.01251734234392643,"18":-0.05714169517159462,"19":-0.17321759462356567}},"18":{"bias":-0.47038671374320984,"weights":{"0":0.17348963022232056,"1":-0.34411272406578064,"2":-0.08940540254116058,"3":-0.40480753779411316,"4":-0.08182667940855026,"5":0.3758184611797333,"6":0.2377888560295105,"7":0.05144144222140312,"8":0.015082098543643951,"9":-0.07148365676403046,"10":0.6458740830421448,"11":1.0350230932235718,"12":-0.019662050530314445,"13":-0.1598573625087738,"14":-0.17905108630657196,"15":-0.08219386637210846,"16":-0.15605135262012482,"17":0.023413289338350296,"18":0.052064213901758194,"19":0.026647020131349564}},"19":{"bias":0.21887221932411194,"weights":{"0":-0.2923981249332428,"1":-0.0651094913482666,"2":0.20450982451438904,"3":-0.07389187067747116,"4":-0.380003958940506,"5":-0.11638443917036057,"6":-0.29627060890197754,"7":0.14694607257843018,"8":0.25843673944473267,"9":-0.06545814871788025,"10":-0.5309205651283264,"11":0.08744250982999802,"12":0.10060901194810867,"13":-0.12209057807922363,"14":0.04408470541238785,"15":-0.08532992750406265,"16":0.07720927894115448,"17":-0.02920236811041832,"18":-0.11020815372467041,"19":-0.05907786265015602}},"20":{"bias":-0.015456628985702991,"weights":{"0":0.09776867181062698,"1":0.3672410249710083,"2":0.07982926070690155,"3":0.14733794331550598,"4":-0.19860416650772095,"5":0.14433979988098145,"6":0.36793553829193115,"7":-0.042830128222703934,"8":0.15849018096923828,"9":0.16747704148292542,"10":-0.05146109685301781,"11":0.3871789574623108,"12":-0.14092262089252472,"13":-0.0988723412156105,"14":-0.09481529146432877,"15":0.004817088134586811,"16":-0.1828310340642929,"17":-0.09885329008102417,"18":0.17855128645896912,"19":-0.049489524215459824}},"21":{"bias":0.1079799085855484,"weights":{"0":-0.11246421188116074,"1":0.3421272933483124,"2":0.19529491662979126,"3":-0.38375577330589294,"4":-0.01003009732812643,"5":0.2983030676841736,"6":0.11340457946062088,"7":-0.27192673087120056,"8":-0.1653655618429184,"9":-0.04887530952692032,"10":-0.17252345383167267,"11":-0.22482170164585114,"12":-0.5100021362304688,"13":-0.051283158361911774,"14":0.15308155119419098,"15":0.1711614429950714,"16":-0.11825287342071533,"17":-0.04823803901672363,"18":0.08927556872367859,"19":-0.10675329715013504}},"22":{"bias":0.12392421811819077,"weights":{"0":0.13337785005569458,"1":0.09978318959474564,"2":0.038592152297496796,"3":-0.0743224173784256,"4":0.446541965007782,"5":0.31682124733924866,"6":-0.18232673406600952,"7":-0.2785065174102783,"8":-0.2768917679786682,"9":0.007632034830749035,"10":-0.32641327381134033,"11":-0.8134039044380188,"12":0.31598156690597534,"13":0.08277386426925659,"14":0.0038259229622781277,"15":-0.06137588247656822,"16":-0.07097715139389038,"17":-0.10458789020776749,"18":-0.16873347759246826,"19":0.13334889709949493}},"23":{"bias":-0.1237001121044159,"weights":{"0":0.24762701988220215,"1":-0.37414488196372986,"2":-0.45429494976997375,"3":-0.24373403191566467,"4":0.24376219511032104,"5":0.17062999308109283,"6":0.2475455403327942,"7":0.31250032782554626,"8":0.14260907471179962,"9":0.18428754806518555,"10":0.08463127911090851,"11":0.23683662712574005,"12":0.1777065545320511,"13":0.1619080752134323,"14":-0.10703101009130478,"15":-0.12626101076602936,"16":0.1680816113948822,"17":-0.12864454090595245,"18":-0.09443803131580353,"19":0.04818231984972954}},"24":{"bias":0.22421474754810333,"weights":{"0":-0.38627129793167114,"1":0.06834187358617783,"2":0.30203208327293396,"3":-0.2945626676082611,"4":-0.24730946123600006,"5":0.1834995001554489,"6":0.011471696197986603,"7":-0.38248786330223083,"8":-0.2978353202342987,"9":0.16252481937408447,"10":-0.46439114212989807,"11":-0.5162005424499512,"12":0.4534280300140381,"13":-0.09690917283296585,"14":0.1156773641705513,"15":0.0677226111292839,"16":-0.19096264243125916,"17":0.039932142943143845,"18":0.05440252646803856,"19":0.08518120646476746}},"25":{"bias":-0.019212650135159492,"weights":{"0":0.07484704256057739,"1":-0.3643040955066681,"2":-0.17006263136863708,"3":0.3597833514213562,"4":-0.0405508428812027,"5":-0.17358914017677307,"6":0.2790563702583313,"7":0.30102109909057617,"8":0.10201099514961243,"9":0.3872958719730377,"10":-0.11363867670297623,"11":-0.5964200496673584,"12":0.5437581539154053,"13":0.03204410895705223,"14":-0.058369241654872894,"15":-0.07509343326091766,"16":0.05503816157579422,"17":-0.001826471765525639,"18":-0.011539425700902939,"19":-0.06010311469435692}},"26":{"bias":0.11805536597967148,"weights":{"0":0.13097591698169708,"1":-0.2054947465658188,"2":-0.2640411853790283,"3":0.3600383698940277,"4":0.1092614233493805,"5":-0.43085289001464844,"6":0.24325360357761383,"7":0.6035412549972534,"8":0.084246426820755,"9":0.10213732719421387,"10":-0.26148247718811035,"11":-0.06848875433206558,"12":0.4834580421447754,"13":-0.13299888372421265,"14":0.09880287200212479,"15":0.16465909779071808,"16":-0.07136674970388412,"17":0.03507373481988907,"18":0.17089274525642395,"19":0.05585447698831558}},"27":{"bias":0.3988149166107178,"weights":{"0":0.036413345485925674,"1":0.3921748995780945,"2":0.28493571281433105,"3":-0.3838716447353363,"4":0.07315090298652649,"5":0.31898635625839233,"6":-0.024217037484049797,"7":-0.18820175528526306,"8":-0.13908353447914124,"9":0.18473125994205475,"10":-0.5587018728256226,"11":-1.0417238473892212,"12":-0.10825970768928528,"13":0.04806306213140488,"14":0.09703503549098969,"15":0.14897827804088593,"16":0.12958428263664246,"17":-0.0789572075009346,"18":-0.18320317566394806,"19":-0.07695643603801727}},"28":{"bias":0.5657582879066467,"weights":{"0":0.22492939233779907,"1":0.48352664709091187,"2":-0.18798892199993134,"3":0.28278520703315735,"4":-0.6357285380363464,"5":-0.1529592126607895,"6":0.42515864968299866,"7":-0.48121407628059387,"8":-0.4931463897228241,"9":0.35476404428482056,"10":-0.6387271285057068,"11":-1.064310073852539,"12":-0.10617558658123016,"13":0.2763916552066803,"14":0.015108082443475723,"15":-0.018204065039753914,"16":-0.12657763063907623,"17":-0.10328924655914307,"18":0.12035525590181351,"19":-0.02007642388343811}},"29":{"bias":-0.29567667841911316,"weights":{"0":-0.06479187309741974,"1":-0.3833164572715759,"2":-0.08962837606668472,"3":-0.044041529297828674,"4":0.22705301642417908,"5":0.009063909761607647,"6":-0.12814895808696747,"7":-0.2857540249824524,"8":-0.1805526614189148,"9":-0.2529779076576233,"10":0.47328105568885803,"11":0.835696816444397,"12":-0.23550710082054138,"13":0.15119722485542297,"14":-0.18910890817642212,"15":0.1597110629081726,"16":-0.19659267365932465,"17":0.1343776285648346,"18":0.12251129001379013,"19":0.1509462594985962}},"30":{"bias":0.5829309225082397,"weights":{"0":-0.11376933008432388,"1":0.3803028464317322,"2":-0.04161079600453377,"3":-0.041557639837265015,"4":-0.1938222050666809,"5":0.07279133796691895,"6":0.08725038915872574,"7":-0.09140844643115997,"8":-0.2001584768295288,"9":0.29288509488105774,"10":-0.5163127779960632,"11":-1.3048726320266724,"12":-0.03729095309972763,"13":-0.16097411513328552,"14":-0.10076141357421875,"15":0.11204983294010162,"16":-0.18109925091266632,"17":-0.16725824773311615,"18":0.12276898324489594,"19":0.08287888020277023}},"31":{"bias":0.467398464679718,"weights":{"0":-0.02860511653125286,"1":-0.17615696787834167,"2":-0.04482879117131233,"3":-0.5954439640045166,"4":0.07710136473178864,"5":-0.6948456168174744,"6":-0.4854944050312042,"7":-0.3998030722141266,"8":-0.225838303565979,"9":-0.16771505773067474,"10":-0.729500949382782,"11":-0.7236513495445251,"12":-0.4284091889858246,"13":-0.036791905760765076,"14":-0.07595199346542358,"15":0.12164049595594406,"16":0.05248633027076721,"17":-0.19412103295326233,"18":-0.06223706901073456,"19":-0.13773658871650696}},"32":{"bias":-0.13061748445034027,"weights":{"0":-0.4886215031147003,"1":0.19180813431739807,"2":0.1300821155309677,"3":0.6797871589660645,"4":0.450303316116333,"5":0.16131997108459473,"6":0.16717468202114105,"7":-0.25570148229599,"8":-0.10006769001483917,"9":0.280486524105072,"10":0.18231844902038574,"11":0.8979405760765076,"12":-0.016926180571317673,"13":-0.2347308099269867,"14":-0.000729847582988441,"15":-0.023861359804868698,"16":-0.11887608468532562,"17":-0.08485634624958038,"18":0.0525602251291275,"19":-0.03650607541203499}},"33":{"bias":-0.0579414889216423,"weights":{"0":0.033366065472364426,"1":0.5410308837890625,"2":0.27994728088378906,"3":0.4176241457462311,"4":-0.07437975704669952,"5":0.08775058388710022,"6":-0.36242324113845825,"7":0.20791953802108765,"8":0.1830475628376007,"9":-0.3120277523994446,"10":0.18294589221477509,"11":-0.18117676675319672,"12":0.4599543511867523,"13":0.1374257206916809,"14":0.15417197346687317,"15":-0.1339576095342636,"16":0.1339455395936966,"17":0.17335845530033112,"18":0.11939062178134918,"19":-0.09213656932115555}},"34":{"bias":-0.12577682733535767,"weights":{"0":0.24550175666809082,"1":0.38321495056152344,"2":0.03689906373620033,"3":0.055520061403512955,"4":-0.07593580335378647,"5":0.2054152935743332,"6":-0.21287834644317627,"7":0.1307508647441864,"8":0.015949714928865433,"9":0.2058924436569214,"10":0.24272023141384125,"11":-0.16407546401023865,"12":0.10205702483654022,"13":-0.12103914469480515,"14":-0.11988823115825653,"15":-0.015112035907804966,"16":-0.16614437103271484,"17":0.014051155187189579,"18":0.01856447011232376,"19":-0.08205703645944595}},"35":{"bias":-0.14052753150463104,"weights":{"0":0.21189290285110474,"1":-0.21169185638427734,"2":0.003957692999392748,"3":0.26375648379325867,"4":0.22395732998847961,"5":-0.002603301778435707,"6":0.10090801864862442,"7":-0.15964621305465698,"8":-0.23976649343967438,"9":0.02355274371802807,"10":0.0735500380396843,"11":0.30083465576171875,"12":-0.13264703750610352,"13":0.15054196119308472,"14":0.12935930490493774,"15":0.05739835277199745,"16":0.08253457397222519,"17":-0.002124364487826824,"18":-0.10792739689350128,"19":-0.1300438493490219}},"36":{"bias":-0.3570733666419983,"weights":{"0":0.12180768698453903,"1":-0.16796483099460602,"2":0.18544292449951172,"3":-0.29110831022262573,"4":-0.028116419911384583,"5":0.3606445789337158,"6":-0.06328083574771881,"7":-0.10511357337236404,"8":-0.04774324223399162,"9":-0.33406567573547363,"10":0.5465778708457947,"11":0.9166824817657471,"12":0.6001065373420715,"13":0.05768093466758728,"14":-0.04804139956831932,"15":-0.05385478213429451,"16":0.1987152099609375,"17":0.1445648968219757,"18":-0.0021194161381572485,"19":-0.017343752086162567}},"37":{"bias":-0.13448937237262726,"weights":{"0":0.02959870547056198,"1":0.2547106444835663,"2":0.06771170347929001,"3":0.24724523723125458,"4":0.23318339884281158,"5":0.31440651416778564,"6":-0.1293705403804779,"7":-0.1588197946548462,"8":0.1668769121170044,"9":0.20395857095718384,"10":0.3849075138568878,"11":0.07304098457098007,"12":0.22120434045791626,"13":0.16887331008911133,"14":0.023046597838401794,"15":-0.18674345314502716,"16":0.021011212840676308,"17":-0.1475164145231247,"18":0.05416937917470932,"19":0.14426612854003906}},"38":{"bias":-0.1592010259628296,"weights":{"0":-0.3868229389190674,"1":-0.1860213428735733,"2":0.1870894581079483,"3":0.07811181247234344,"4":-0.14952340722084045,"5":0.34598591923713684,"6":0.06137746572494507,"7":-0.14068342745304108,"8":-0.03335954621434212,"9":-0.11530198901891708,"10":0.4987218677997589,"11":0.3942933678627014,"12":-0.14774882793426514,"13":-0.02680015005171299,"14":-0.1627850979566574,"15":0.18175561726093292,"16":-0.1689767986536026,"17":-0.17463693022727966,"18":-0.02507021278142929,"19":-0.15894979238510132}},"39":{"bias":0.29462581872940063,"weights":{"0":0.5649191737174988,"1":-0.11991052329540253,"2":0.07916808873414993,"3":0.2120186984539032,"4":-0.38768044114112854,"5":-0.20664659142494202,"6":0.15387454628944397,"7":0.04038409888744354,"8":-0.29400143027305603,"9":0.14401817321777344,"10":-0.785500705242157,"11":-0.4531638026237488,"12":-0.3823792338371277,"13":-0.0240776464343071,"14":-0.07795604318380356,"15":-0.1827869415283203,"16":-0.003058039816096425,"17":-0.09415954351425171,"18":0.16334019601345062,"19":0.13853110373020172}}},{"0":{"bias":-0.007105001714080572,"weights":{"0":-0.22192181646823883,"1":-0.20702752470970154,"2":0.19019049406051636,"3":0.016725627705454826,"4":-0.11826007068157196,"5":0.1818179041147232,"6":0.08099720627069473,"7":0.006403535138815641,"8":0.10990458726882935,"9":-0.04665348678827286,"10":-0.07253320515155792,"11":-0.025363706052303314,"12":0.04190779849886894,"13":0.27435508370399475,"14":0.14343924820423126,"15":-0.05921195447444916,"16":-0.11753548681735992,"17":0.06310287863016129,"18":0.22886213660240173,"19":-0.019059937447309494,"20":-0.10899410396814346,"21":-0.08841414749622345,"22":-0.34571850299835205,"23":0.013747261837124825,"24":-0.2179170697927475,"25":-0.1915157586336136,"26":0.1785573810338974,"27":-0.2829535901546478,"28":-0.5050298571586609,"29":0.03572617098689079,"30":-0.20072707533836365,"31":-0.10598191618919373,"32":-0.08193346112966537,"33":0.20192542672157288,"34":-0.03220408782362938,"35":-0.0407838374376297,"36":-0.021302584558725357,"37":-0.15288889408111572,"38":-0.18838773667812347,"39":-0.3528381884098053}},"1":{"bias":-0.09344762563705444,"weights":{"0":-0.21921727061271667,"1":-0.17732957005500793,"2":0.08378437161445618,"3":-0.29580551385879517,"4":0.27113115787506104,"5":-0.10203337669372559,"6":-0.4034442901611328,"7":0.539142906665802,"8":0.1418960839509964,"9":0.237607941031456,"10":-0.06343007832765579,"11":0.035071417689323425,"12":-0.3075656294822693,"13":0.17713816463947296,"14":0.15151794254779816,"15":0.23452430963516235,"16":0.29387009143829346,"17":-0.15415863692760468,"18":-0.6338077783584595,"19":0.038815099745988846,"20":-0.1866014003753662,"21":0.058395836502313614,"22":0.5918424725532532,"23":-0.15483957529067993,"24":0.10388736426830292,"25":0.3449273705482483,"26":0.2488309144973755,"27":0.7367088794708252,"28":0.508712112903595,"29":-0.5939003825187683,"30":0.8346189260482788,"31":0.21960848569869995,"32":0.10659411549568176,"33":0.4302688539028168,"34":0.2989591062068939,"35":-0.32862234115600586,"36":-0.6850170493125916,"37":0.16816183924674988,"38":-0.32412925362586975,"39":-0.10336414724588394}},"2":{"bias":0.025905214250087738,"weights":{"0":0.055289559066295624,"1":0.4355643391609192,"2":-0.18762646615505219,"3":-0.006143245846033096,"4":0.05885148048400879,"5":-0.07761037349700928,"6":-0.008340097032487392,"7":0.40995869040489197,"8":-0.4854244589805603,"9":0.18905669450759888,"10":0.277574360370636,"11":-0.42171502113342285,"12":0.08347629010677338,"13":-0.3443676829338074,"14":-0.13473019003868103,"15":-0.1315610706806183,"16":0.1304512470960617,"17":0.40750017762184143,"18":-0.1644127368927002,"19":-0.14962926506996155,"20":0.1939830482006073,"21":0.25622430443763733,"22":-0.010202153585851192,"23":0.22056496143341064,"24":-0.0012096393620595336,"25":0.042191989719867706,"26":0.09828779101371765,"27":0.3203100860118866,"28":0.5023673176765442,"29":-0.454225093126297,"30":0.4170449376106262,"31":-0.11121542751789093,"32":-0.021844837814569473,"33":-0.36931851506233215,"34":0.057357437908649445,"35":0.006794351153075695,"36":-0.5078845024108887,"37":-0.1601972132921219,"38":-0.112519770860672,"39":0.4518989026546478}},"3":{"bias":0.05244879797101021,"weights":{"0":0.06562264263629913,"1":-0.11109020560979843,"2":-0.1497838944196701,"3":-0.1820528507232666,"4":-0.23903781175613403,"5":0.2560637891292572,"6":-0.12540026009082794,"7":0.04243882745504379,"8":0.23695719242095947,"9":-0.1924169361591339,"10":0.1478385329246521,"11":0.1582513004541397,"12":0.07071100175380707,"13":0.26454851031303406,"14":0.24899683892726898,"15":0.16858340799808502,"16":-0.35285666584968567,"17":-0.2515731453895569,"18":0.024148229509592056,"19":-0.09054756164550781,"20":-0.22355028986930847,"21":-0.2885701060295105,"22":-0.045591626316308975,"23":0.1756250113248825,"24":-0.3282015323638916,"25":0.041729189455509186,"26":0.1607367992401123,"27":-0.253994882106781,"28":-0.31372737884521484,"29":0.37153908610343933,"30":-0.23685406148433685,"31":0.06745908409357071,"32":0.17826750874519348,"33":-0.16628284752368927,"34":-0.081976518034935,"35":0.25177308917045593,"36":0.05852792039513588,"37":-0.0959283709526062,"38":-0.08877155184745789,"39":-0.03895794600248337}},"4":{"bias":-0.05990097299218178,"weights":{"0":0.4026983082294464,"1":-0.16917474567890167,"2":-0.2178635597229004,"3":-0.013923688791692257,"4":0.06261365860700607,"5":-0.176055908203125,"6":0.14505383372306824,"7":0.1572578102350235,"8":-0.08653821796178818,"9":-0.3012464940547943,"10":0.11451371014118195,"11":-0.0670584887266159,"12":0.07978865504264832,"13":0.19299517571926117,"14":0.012856567278504372,"15":-0.20500805974006653,"16":0.2164519727230072,"17":0.2314746230840683,"18":-0.1923038512468338,"19":0.23794861137866974,"20":0.14257650077342987,"21":0.33163928985595703,"22":-0.19333957135677338,"23":-0.3367964029312134,"24":0.27406391501426697,"25":-0.11387116461992264,"26":-0.3169971704483032,"27":0.21218043565750122,"28":-0.06140662357211113,"29":-0.12996326386928558,"30":0.09103088080883026,"31":-0.1137443482875824,"32":0.5309685468673706,"33":0.1013050526380539,"34":-0.1379069983959198,"35":-0.06464638561010361,"36":-0.21254251897335052,"37":-0.11712303757667542,"38":0.14411622285842896,"39":-0.13095469772815704}},"5":{"bias":-0.07073383033275604,"weights":{"0":0.12448034435510635,"1":0.08681802451610565,"2":0.19182275235652924,"3":0.2075672298669815,"4":0.07193991541862488,"5":-0.24105820059776306,"6":-0.10995625704526901,"7":-0.05386962369084358,"8":0.454678475856781,"9":-0.15999741852283478,"10":-0.32363367080688477,"11":0.16373157501220703,"12":0.13650792837142944,"13":0.2928691804409027,"14":0.08442644774913788,"15":-0.328238844871521,"16":0.17818903923034668,"17":0.18683920800685883,"18":-0.2915646731853485,"19":0.49123257398605347,"20":0.10407309234142303,"21":-0.18086349964141846,"22":-0.06260405480861664,"23":-0.12010032683610916,"24":0.24785774946212769,"25":-0.13097243010997772,"26":0.2683813273906708,"27":-0.13318653404712677,"28":-0.18983018398284912,"29":-0.15227527916431427,"30":-0.15374240279197693,"31":0.1306144893169403,"32":0.10217025876045227,"33":0.3676336109638214,"34":-0.21037930250167847,"35":-0.18450869619846344,"36":0.03763078153133392,"37":-0.09050265699625015,"38":-0.11720456182956696,"39":-0.1253134161233902}},"6":{"bias":-0.391785204410553,"weights":{"0":-0.22263482213020325,"1":-0.03261272981762886,"2":-0.04538474231958389,"3":-0.02802562341094017,"4":-0.09336301684379578,"5":-0.19733674824237823,"6":0.04640790820121765,"7":0.25506407022476196,"8":0.4342784881591797,"9":-0.5845558047294617,"10":0.09750013053417206,"11":-0.056494031101465225,"12":0.15076792240142822,"13":-0.06240078806877136,"14":0.06150384992361069,"15":-0.19287487864494324,"16":-0.24725601077079773,"17":-0.2352261245250702,"18":-0.07521770894527435,"19":0.025688424706459045,"20":-0.1017720028758049,"21":0.029498880729079247,"22":0.012777939438819885,"23":-0.36613231897354126,"24":0.0024752060417085886,"25":-0.12432456761598587,"26":-0.1486234813928604,"27":0.0687413364648819,"28":-0.33531928062438965,"29":0.14350612461566925,"30":-0.21979083120822906,"31":0.19150221347808838,"32":0.26344770193099976,"33":0.11967650800943375,"34":0.03905279189348221,"35":-0.10057781636714935,"36":-0.15834932029247284,"37":-0.1826470047235489,"38":0.22116705775260925,"39":0.130772203207016}},"7":{"bias":0.057107456028461456,"weights":{"0":0.17922399938106537,"1":-0.24065814912319183,"2":0.08035249263048172,"3":0.09356886893510818,"4":-0.0878836065530777,"5":0.043885231018066406,"6":0.15992160141468048,"7":-0.2738956809043884,"8":-0.016050226986408234,"9":-0.0800485908985138,"10":-0.24888446927070618,"11":0.038402121514081955,"12":0.027068693190813065,"13":-0.2326759248971939,"14":-0.26053744554519653,"15":0.021562712267041206,"16":0.33261218667030334,"17":-0.3723769783973694,"18":-0.04542659595608711,"19":-0.019571751356124878,"20":-0.024289531633257866,"21":-0.11754358559846878,"22":0.06685275584459305,"23":-0.25219738483428955,"24":0.21779628098011017,"25":-0.20475801825523376,"26":-0.2151016891002655,"27":0.1549111008644104,"28":0.19945532083511353,"29":-0.10708718746900558,"30":-0.127852663397789,"31":-0.21123281121253967,"32":0.21271513402462006,"33":0.31522849202156067,"34":0.15344172716140747,"35":-0.17238719761371613,"36":0.3897872567176819,"37":-0.038048356771469116,"38":-0.18313643336296082,"39":-0.1609152853488922}},"8":{"bias":-0.13925889134407043,"weights":{"0":-0.22386637330055237,"1":0.0010002683848142624,"2":-0.24911397695541382,"3":-0.24482424557209015,"4":0.01723613031208515,"5":0.14675074815750122,"6":0.020035548135638237,"7":-0.024762211367487907,"8":-0.0579269640147686,"9":-0.2251145839691162,"10":-0.0568724125623703,"11":-0.07099165767431259,"12":0.07546981424093246,"13":-0.21065162122249603,"14":0.12035194039344788,"15":0.16884009540081024,"16":-0.12006022781133652,"17":0.08265314996242523,"18":0.3253100514411926,"19":-0.11877360939979553,"20":0.14947041869163513,"21":-0.24727928638458252,"22":-0.21414679288864136,"23":0.035941995680332184,"24":-0.11216560006141663,"25":0.2375132143497467,"26":0.0032035131007432938,"27":-0.34488093852996826,"28":-0.1964406669139862,"29":0.17473439872264862,"30":-0.29709041118621826,"31":-0.20233264565467834,"32":0.23005610704421997,"33":-0.12582266330718994,"34":0.01805335097014904,"35":0.06804057955741882,"36":-0.12786881625652313,"37":-0.09148720651865005,"38":-0.04421520605683327,"39":-0.1845005601644516}},"9":{"bias":-0.2620162069797516,"weights":{"0":-0.12251569330692291,"1":-0.04810810461640358,"2":-0.062080755829811096,"3":0.06092683598399162,"4":-0.11311037838459015,"5":-0.25065454840660095,"6":-0.04894775524735451,"7":-0.03641931340098381,"8":-0.22657398879528046,"9":-0.15544714033603668,"10":0.11338166892528534,"11":-0.20030009746551514,"12":-0.024383073672652245,"13":-0.14795942604541779,"14":-0.00820640567690134,"15":-0.24234817922115326,"16":-0.10710488259792328,"17":0.07163973897695541,"18":0.2047925740480423,"19":0.1665743738412857,"20":0.13671784102916718,"21":-0.11058894544839859,"22":-0.13130110502243042,"23":0.1510598361492157,"24":-0.2806152403354645,"25":-0.12480644136667252,"26":-0.11946944892406464,"27":-0.05532366782426834,"28":-0.08973771333694458,"29":0.1377308964729309,"30":-0.10778255015611649,"31":-0.13293899595737457,"32":-0.24778147041797638,"33":-0.006428077816963196,"34":0.1371217519044876,"35":0.12605781853199005,"36":-0.0014736243756487966,"37":-0.059412457048892975,"38":0.06811210513114929,"39":0.21534283459186554}},"10":{"bias":0.10191226750612259,"weights":{"0":-0.07266652584075928,"1":0.14383840560913086,"2":-0.018196525052189827,"3":-0.06904816627502441,"4":-0.13602973520755768,"5":0.22490230202674866,"6":-0.08748968690633774,"7":0.17324863374233246,"8":-0.0909932553768158,"9":-0.02259821631014347,"10":0.300403356552124,"11":-0.04637745022773743,"12":0.2295149862766266,"13":-0.015619834885001183,"14":-0.1013002023100853,"15":-0.06391850858926773,"16":0.08296302706003189,"17":0.26786455512046814,"18":-0.1589890569448471,"19":-0.0679672583937645,"20":-0.05076991394162178,"21":0.200665682554245,"22":-0.07869889587163925,"23":-0.01398161519318819,"24":0.029327377676963806,"25":-0.12537206709384918,"26":0.22943583130836487,"27":0.3384844958782196,"28":0.2012643665075302,"29":-0.26805996894836426,"30":0.10838169604539871,"31":0.2164783477783203,"32":0.0004877203027717769,"33":-0.07197823375463486,"34":-0.09916792064905167,"35":-0.11473391950130463,"36":-0.2139214426279068,"37":-0.25897958874702454,"38":-0.2096339613199234,"39":0.44301509857177734}},"11":{"bias":0.33338046073913574,"weights":{"0":0.11451774090528488,"1":0.09749572724103928,"2":0.013310168869793415,"3":-0.3465122580528259,"4":-0.08356174826622009,"5":-0.3027552366256714,"6":0.01632884331047535,"7":0.0074086543172597885,"8":0.2532539963722229,"9":-0.013757864944636822,"10":-0.25270959734916687,"11":0.004448966588824987,"12":-0.24276256561279297,"13":0.25887590646743774,"14":-0.08769293129444122,"15":-0.03164564445614815,"16":0.286349892616272,"17":0.02053467556834221,"18":-0.17022939026355743,"19":0.2705143094062805,"20":0.009431171230971813,"21":-0.305826336145401,"22":-0.19305452704429626,"23":-0.12217153608798981,"24":-0.0166747085750103,"25":0.29692506790161133,"26":0.3984546661376953,"27":0.0009757993393577635,"28":-0.14537426829338074,"29":-0.1770658791065216,"30":0.34413662552833557,"31":0.10113085061311722,"32":0.3656752407550812,"33":0.22175775468349457,"34":0.08984100818634033,"35":-0.12037572264671326,"36":-0.1312425583600998,"37":0.12396158277988434,"38":0.0866834968328476,"39":-0.033939991146326065}},"12":{"bias":-0.18065577745437622,"weights":{"0":-0.4755191504955292,"1":-0.10732056200504303,"2":0.2388792484998703,"3":0.08581911772489548,"4":-0.21108372509479523,"5":-0.1513168215751648,"6":-0.008703764528036118,"7":0.29410266876220703,"8":0.018609704449772835,"9":-0.3403792679309845,"10":0.2642383277416229,"11":-0.2529803216457367,"12":0.160075381398201,"13":0.1581985354423523,"14":-0.010883621871471405,"15":0.02399689145386219,"16":0.056896280497312546,"17":0.19569949805736542,"18":-0.047813959419727325,"19":0.07293108105659485,"20":0.011937998235225677,"21":-0.01844255067408085,"22":-0.4067268371582031,"23":-0.11549919843673706,"24":-0.24006900191307068,"25":-0.2836356461048126,"26":-0.026014622300863266,"27":-0.2784297466278076,"28":-0.12124837934970856,"29":0.23419024050235748,"30":-0.13591989874839783,"31":0.5166271328926086,"32":0.3351443111896515,"33":-0.2947028577327728,"34":-0.2908252775669098,"35":-0.20404259860515594,"36":-0.11691243201494217,"37":-0.3404270112514496,"38":0.20298346877098083,"39":-0.28699925541877747}},"13":{"bias":0.2957805097103119,"weights":{"0":-0.08221399784088135,"1":0.02899882383644581,"2":0.04699310287833214,"3":0.22667226195335388,"4":0.3532756567001343,"5":-0.012822478078305721,"6":0.07786501944065094,"7":0.4802890121936798,"8":0.13315503299236298,"9":-0.027870168909430504,"10":0.05487028881907463,"11":0.15595188736915588,"12":-0.001793625415302813,"13":0.0890456959605217,"14":-0.1129927784204483,"15":0.24809299409389496,"16":-0.10507507622241974,"17":0.14918696880340576,"18":-0.4540175795555115,"19":0.03431990370154381,"20":-0.0664210170507431,"21":-0.014375722967088223,"22":0.3466508984565735,"23":-0.25641316175460815,"24":0.47508347034454346,"25":0.11020167917013168,"26":-0.11735343933105469,"27":0.24715012311935425,"28":0.43332043290138245,"29":0.09471553564071655,"30":0.3707614541053772,"31":0.5168198943138123,"32":-0.01694418303668499,"33":-0.09761657565832138,"34":-0.10785973817110062,"35":-0.06429949402809143,"36":-0.09294776618480682,"37":-0.14644311368465424,"38":-0.05972808972001076,"39":0.012767739593982697}},"14":{"bias":-0.15809954702854156,"weights":{"0":0.09736627340316772,"1":-0.10400795191526413,"2":-0.09906617552042007,"3":-0.32273566722869873,"4":-0.04597964882850647,"5":-0.06525953114032745,"6":-0.059404999017715454,"7":-0.3959563076496124,"8":-0.10424758493900299,"9":0.03142818063497543,"10":-0.2939288318157196,"11":-0.059800490736961365,"12":-0.06131254881620407,"13":0.1950182169675827,"14":0.011401676572859287,"15":-0.021035155281424522,"16":0.036495793610811234,"17":-0.26394835114479065,"18":0.17095541954040527,"19":-0.20396749675273895,"20":0.27942097187042236,"21":-0.2198432981967926,"22":-0.07974623888731003,"23":-0.1304873377084732,"24":-0.10687185823917389,"25":0.011510424315929413,"26":0.18735168874263763,"27":-0.2570865750312805,"28":0.08222553133964539,"29":0.14632372558116913,"30":-0.2770649194717407,"31":-0.552740752696991,"32":0.4545241594314575,"33":0.011316630989313126,"34":0.07797632366418839,"35":0.2893486022949219,"36":0.22031687200069427,"37":0.049099151045084,"38":0.09763912856578827,"39":-0.15515418350696564}},"15":{"bias":0.32461023330688477,"weights":{"0":-0.10360037535429001,"1":0.4253097474575043,"2":-0.202006533741951,"3":0.25341275334358215,"4":0.45166468620300293,"5":-0.12922319769859314,"6":-0.24839073419570923,"7":0.5755490064620972,"8":-0.22474335134029388,"9":0.19202923774719238,"10":-0.0884803906083107,"11":0.1664769947528839,"12":0.0002573441597633064,"13":0.1865379363298416,"14":0.3228098750114441,"15":0.35908183455467224,"16":0.32270365953445435,"17":0.4226117730140686,"18":-0.3167092800140381,"19":0.15759316086769104,"20":-0.02444031834602356,"21":0.13058128952980042,"22":0.5858063101768494,"23":-0.10709434747695923,"24":0.5883154273033142,"25":0.27178868651390076,"26":-0.016512645408511162,"27":0.5602776408195496,"28":0.6354701519012451,"29":-0.19792351126670837,"30":0.6827094554901123,"31":0.5307310223579407,"32":0.08932804316282272,"33":-0.11946692317724228,"34":-0.20735114812850952,"35":0.1690392792224884,"36":-0.27862417697906494,"37":-0.18186387419700623,"38":-0.3018519878387451,"39":0.5008732676506042}},"16":{"bias":-0.14123515784740448,"weights":{"0":0.10493039339780807,"1":-0.2530387341976166,"2":0.19578826427459717,"3":-0.22438518702983856,"4":-0.22969095408916473,"5":-0.0019224706338718534,"6":0.16708508133888245,"7":-0.3345881700515747,"8":0.13343624770641327,"9":-0.21873795986175537,"10":-0.5338200926780701,"11":0.3319793939590454,"12":-0.30108508467674255,"13":0.23534508049488068,"14":-0.12418337911367416,"15":0.014443835243582726,"16":-0.22713156044483185,"17":-0.3480290472507477,"18":0.4094073474407196,"19":-0.02745012380182743,"20":-0.17196300625801086,"21":-0.25879910588264465,"22":-0.013903961516916752,"23":0.21253612637519836,"24":0.000186767807463184,"25":0.15456078946590424,"26":0.07851733267307281,"27":-0.15471260249614716,"28":-0.5509123802185059,"29":0.10669688135385513,"30":-0.3053797483444214,"31":-0.4467116594314575,"32":0.2831774353981018,"33":0.11999937891960144,"34":-0.016812290996313095,"35":-0.05317141115665436,"36":0.40945425629615784,"37":0.3265312910079956,"38":0.21484839916229248,"39":-0.5269291996955872}},"17":{"bias":-0.3366927206516266,"weights":{"0":-0.02128417231142521,"1":0.06680237501859665,"2":-0.07650835812091827,"3":0.10714960843324661,"4":0.00815909169614315,"5":0.1061648577451706,"6":0.011103959754109383,"7":-0.08900221437215805,"8":0.14054088294506073,"9":-0.3854510486125946,"10":-0.14953163266181946,"11":0.1427532285451889,"12":0.009581713005900383,"13":0.24517877399921417,"14":-0.1494680941104889,"15":-0.11379501968622208,"16":-0.26285725831985474,"17":-0.34277889132499695,"18":-0.1538177728652954,"19":-0.35317060351371765,"20":0.011226858012378216,"21":0.04606492072343826,"22":0.03322745859622955,"23":-0.06279736757278442,"24":-0.0794866681098938,"25":-0.2625490128993988,"26":-0.28685519099235535,"27":-0.025789974257349968,"28":0.1484072059392929,"29":0.026470810174942017,"30":0.10456360876560211,"31":-0.2404300570487976,"32":0.11635901778936386,"33":0.13043540716171265,"34":0.12114906311035156,"35":0.11997254937887192,"36":-0.08046011626720428,"37":0.11109103262424469,"38":-0.02769020013511181,"39":0.13468721508979797}},"18":{"bias":0.05565700680017471,"weights":{"0":0.03806959092617035,"1":-0.09454967081546783,"2":-0.18071047961711884,"3":-0.2834379971027374,"4":-0.07165364921092987,"5":0.0892256572842598,"6":-0.10331819951534271,"7":0.03358699008822441,"8":0.27270522713661194,"9":-0.014715627767145634,"10":-0.264381468296051,"11":0.06587151437997818,"12":0.006499757058918476,"13":-0.08953972905874252,"14":0.21270751953125,"15":-0.19190967082977295,"16":-0.030016789212822914,"17":0.19703882932662964,"18":-0.20009775459766388,"19":0.14032471179962158,"20":-0.03908730670809746,"21":-0.21743042767047882,"22":-0.1430685967206955,"23":-0.0076918755657970905,"24":0.08277232199907303,"25":0.13137087225914001,"26":0.19740813970565796,"27":-0.16436466574668884,"28":-0.21368616819381714,"29":-0.06850238889455795,"30":-0.12957996129989624,"31":-0.18090508878231049,"32":0.2060420960187912,"33":0.1479233205318451,"34":0.11287382990121841,"35":0.2041960507631302,"36":-0.08751005679368973,"37":0.13722851872444153,"38":-0.1171892061829567,"39":-0.07246986031532288}},"19":{"bias":0.003255991730839014,"weights":{"0":0.03844425454735756,"1":0.17824772000312805,"2":0.35107237100601196,"3":0.003173415781930089,"4":-0.06919854879379272,"5":0.2141331285238266,"6":0.16126947104930878,"7":0.15665043890476227,"8":-0.1581898331642151,"9":0.33817189931869507,"10":-0.03033292479813099,"11":-0.11835705488920212,"12":-0.06417404115200043,"13":-0.1561606526374817,"14":-0.16037359833717346,"15":0.052733127027750015,"16":-0.009422493167221546,"17":-0.28879082202911377,"18":-0.274922251701355,"19":-0.04661009460687637,"20":0.0894862487912178,"21":0.25295570492744446,"22":-0.012905092909932137,"23":-0.2718135416507721,"24":0.03224587067961693,"25":-0.3578125834465027,"26":-0.10596632957458496,"27":0.0588260181248188,"28":0.14153796434402466,"29":-0.1844930201768875,"30":0.13530333340168,"31":-0.05766357481479645,"32":-0.17112620174884796,"33":0.09088073670864105,"34":0.02904248796403408,"35":-0.1735565960407257,"36":0.06278062611818314,"37":-0.005358531139791012,"38":0.08135154843330383,"39":-0.10050254315137863}},"20":{"bias":0.21947093307971954,"weights":{"0":-0.16403569281101227,"1":0.04164167121052742,"2":-0.018482767045497894,"3":-0.15035562217235565,"4":-0.09218069165945053,"5":-0.06720186024904251,"6":0.22748540341854095,"7":-0.2526506185531616,"8":0.17323358356952667,"9":0.18288204073905945,"10":-0.05246535688638687,"11":-0.16186320781707764,"12":-0.11753513664007187,"13":0.01089286059141159,"14":0.17598028481006622,"15":0.078354611992836,"16":-0.0234028659760952,"17":-0.0982351303100586,"18":0.028431309387087822,"19":0.12412578612565994,"20":-0.13959400355815887,"21":-0.08477050065994263,"22":-0.12005950510501862,"23":0.006755821872502565,"24":0.0904242992401123,"25":0.08836109191179276,"26":0.21973469853401184,"27":-0.05849326029419899,"28":-0.3997091054916382,"29":0.24829091131687164,"30":-0.2804142236709595,"31":0.03333468362689018,"32":-0.20095883309841156,"33":-0.0883786752820015,"34":-0.15008412301540375,"35":-0.08195267617702484,"36":0.3449009954929352,"37":-0.023211846128106117,"38":0.25711333751678467,"39":-0.046784430742263794}},"21":{"bias":0.15463030338287354,"weights":{"0":0.2281980812549591,"1":0.2050836682319641,"2":-0.22082875669002533,"3":-0.21235521137714386,"4":0.03391001373529434,"5":-0.3533191680908203,"6":-0.12434149533510208,"7":0.29402706027030945,"8":-0.2866480350494385,"9":-0.19678092002868652,"10":0.3149687945842743,"11":-0.26332196593284607,"12":0.016350263729691505,"13":-0.28839653730392456,"14":-0.024009089916944504,"15":-0.05109478533267975,"16":0.21060283482074738,"17":0.0983433946967125,"18":-0.09947483986616135,"19":0.16881634294986725,"20":0.24509435892105103,"21":0.17342746257781982,"22":-0.1896928995847702,"23":-0.4019787311553955,"24":0.010543798096477985,"25":-0.09739700704813004,"26":-0.24342915415763855,"27":0.2787344455718994,"28":0.36335840821266174,"29":-0.14007122814655304,"30":0.22010967135429382,"31":-0.14260618388652802,"32":0.08215988427400589,"33":0.1002890095114708,"34":0.2988090515136719,"35":-0.02640257030725479,"36":-0.28238925337791443,"37":0.17018984258174896,"38":0.18513788282871246,"39":0.18856635689735413}},"22":{"bias":0.20816271007061005,"weights":{"0":-0.175856813788414,"1":0.0006735457573086023,"2":-0.04116671904921532,"3":0.4977279603481293,"4":-0.061828020960092545,"5":0.02810891531407833,"6":0.15839220583438873,"7":0.32415419816970825,"8":-0.19981510937213898,"9":-0.09487685561180115,"10":-0.009073862805962563,"11":-0.14340922236442566,"12":-0.14629997313022614,"13":0.17187894880771637,"14":-0.004431427456438541,"15":0.09209617972373962,"16":-0.09302805364131927,"17":-0.2392699420452118,"18":-0.26528069376945496,"19":0.1608700305223465,"20":-0.1787131428718567,"21":0.1464596539735794,"22":0.18636029958724976,"23":-0.25767427682876587,"24":0.06480375677347183,"25":-0.23745644092559814,"26":-0.30427151918411255,"27":0.47016388177871704,"28":-0.01651257462799549,"29":-0.042814504355192184,"30":0.14013789594173431,"31":0.5303366780281067,"32":-0.22970038652420044,"33":-0.3099358081817627,"34":-0.04816129058599472,"35":-0.07279439270496368,"36":-0.09175696223974228,"37":-0.11161712557077408,"38":-0.09613057225942612,"39":-0.09016706049442291}},"23":{"bias":0.3216439485549927,"weights":{"0":-0.2163231372833252,"1":0.003599372925236821,"2":0.014880863018333912,"3":-0.1555517017841339,"4":-0.0066164699383080006,"5":0.07716241478919983,"6":-0.31296107172966003,"7":-0.15142297744750977,"8":0.2566998600959778,"9":-0.2510797083377838,"10":0.036565136164426804,"11":0.41208890080451965,"12":-0.2164868414402008,"13":0.005838481243699789,"14":0.06169109046459198,"15":-0.18015863001346588,"16":-0.24631056189537048,"17":0.2263568639755249,"18":-0.2736588716506958,"19":-0.31013554334640503,"20":-0.04308433085680008,"21":-0.02495409920811653,"22":0.10616210848093033,"23":-0.17779019474983215,"24":-0.3790784776210785,"25":-0.0519396997988224,"26":0.07965732365846634,"27":-0.177407369017601,"28":-0.017545126378536224,"29":-0.07376206666231155,"30":-0.15194149315357208,"31":0.06852580606937408,"32":0.3261152505874634,"33":0.34848204255104065,"34":0.028888242319226265,"35":0.2086818665266037,"36":-0.11691515147686005,"37":0.12067824602127075,"38":-0.06752044707536697,"39":0.0322449766099453}},"24":{"bias":-0.2358657866716385,"weights":{"0":0.24050015211105347,"1":-0.31990712881088257,"2":0.179361030459404,"3":-0.3589799106121063,"4":0.1141967698931694,"5":0.016247518360614777,"6":0.18801112473011017,"7":-0.13812308013439178,"8":0.01708531565964222,"9":-0.05493481829762459,"10":-0.3561094105243683,"11":0.023097656667232513,"12":-0.17134951055049896,"13":-0.056228309869766235,"14":0.19170454144477844,"15":0.12772086262702942,"16":0.10119114071130753,"17":-0.1304689198732376,"18":0.06126287952065468,"19":-0.2719149589538574,"20":0.1694202721118927,"21":0.07099006325006485,"22":0.14425116777420044,"23":0.13423855602741241,"24":0.07849840819835663,"25":0.17842307686805725,"26":-0.12631180882453918,"27":-0.10771651566028595,"28":-0.21764762699604034,"29":0.06070532277226448,"30":-0.195082426071167,"31":-0.5579703450202942,"32":0.1357809603214264,"33":0.20444250106811523,"34":0.04640982300043106,"35":0.17435792088508606,"36":0.16261208057403564,"37":0.14235885441303253,"38":0.26733216643333435,"39":-0.2607443332672119}},"25":{"bias":-0.07508200407028198,"weights":{"0":0.014553658664226532,"1":0.050208039581775665,"2":0.08931033313274384,"3":-0.20611822605133057,"4":-0.04746845364570618,"5":0.2664688527584076,"6":-0.06813140958547592,"7":-0.12531666457653046,"8":0.08928589522838593,"9":-0.02169090323150158,"10":-0.03233439847826958,"11":0.03636068478226662,"12":-0.2226332724094391,"13":-0.21152621507644653,"14":0.04296986758708954,"15":-0.1874328851699829,"16":0.027006443589925766,"17":-0.1694442629814148,"18":-0.24782703816890717,"19":0.13380271196365356,"20":0.11262639611959457,"21":-0.1411101222038269,"22":0.23130467534065247,"23":0.1212729662656784,"24":0.05348799750208855,"25":0.20470339059829712,"26":0.1826053261756897,"27":-0.0407136008143425,"28":-0.012565195560455322,"29":-0.382876992225647,"30":0.05684347078204155,"31":0.1363484412431717,"32":-0.04786163568496704,"33":-0.00642377557232976,"34":0.2080547958612442,"35":0.1224953830242157,"36":-0.13546288013458252,"37":-0.0899060070514679,"38":-0.21113315224647522,"39":0.2856288254261017}},"26":{"bias":-0.22666770219802856,"weights":{"0":-0.20496025681495667,"1":0.10762476176023483,"2":-0.017591513693332672,"3":0.13921132683753967,"4":-0.014735517092049122,"5":0.05732506513595581,"6":-0.009939081966876984,"7":0.39261311292648315,"8":0.271346777677536,"9":-0.36595502495765686,"10":0.11224959045648575,"11":0.23678886890411377,"12":0.010829059407114983,"13":0.005671461578458548,"14":0.016697373241186142,"15":-0.14443133771419525,"16":-0.31218406558036804,"17":-0.02574683539569378,"18":-0.1641203761100769,"19":-0.23964865505695343,"20":-0.22751778364181519,"21":0.13605481386184692,"22":0.11174940317869186,"23":-0.05392070859670639,"24":0.005075415130704641,"25":-0.16206994652748108,"26":-0.0165714081376791,"27":-0.15349870920181274,"28":-0.24838529527187347,"29":-0.07327502220869064,"30":0.0031918990425765514,"31":0.13397370278835297,"32":0.08317224681377411,"33":-0.24340778589248657,"34":-0.01810235157608986,"35":0.2771395444869995,"36":-0.27194562554359436,"37":0.15273818373680115,"38":-0.11288168281316757,"39":-0.06412693858146667}},"27":{"bias":0.1636531800031662,"weights":{"0":0.016250064596533775,"1":-0.2511221766471863,"2":0.22697298228740692,"3":-0.10172917693853378,"4":-0.2356334924697876,"5":-0.2584649622440338,"6":0.18573054671287537,"7":0.06319168955087662,"8":0.1775376945734024,"9":-0.285400390625,"10":-0.14873896539211273,"11":-0.2843249440193176,"12":0.1186470091342926,"13":0.11281600594520569,"14":0.08261600136756897,"15":-0.050447773188352585,"16":-0.0014419807121157646,"17":-0.14523954689502716,"18":0.25133925676345825,"19":0.08655662834644318,"20":-0.14498817920684814,"21":0.17066901922225952,"22":-0.23117220401763916,"23":0.034798454493284225,"24":0.06559079885482788,"25":-0.19275961816310883,"26":-0.2878073751926422,"27":-0.25118720531463623,"28":-0.4060977101325989,"29":-0.02942299284040928,"30":0.03928069397807121,"31":-0.063123919069767,"32":0.2509338855743408,"33":-0.05845826864242554,"34":-0.07886049896478653,"35":-0.02456049993634224,"36":0.05750057101249695,"37":0.08165334910154343,"38":0.300934374332428,"39":-0.19845999777317047}},"28":{"bias":0.007810545619577169,"weights":{"0":0.28476235270500183,"1":-0.00019044996588490903,"2":0.3345663845539093,"3":0.3192819654941559,"4":-0.18290412425994873,"5":0.14238566160202026,"6":0.5621826648712158,"7":-0.3026420474052429,"8":-0.42950525879859924,"9":0.08890017122030258,"10":-0.5573642253875732,"11":0.16734294593334198,"12":-0.20832017064094543,"13":0.23440074920654297,"14":-0.2751024067401886,"15":0.19769063591957092,"16":-0.13808226585388184,"17":-0.45692378282546997,"18":0.6491509079933167,"19":-0.2224472016096115,"20":0.26033681631088257,"21":0.13045814633369446,"22":0.06288690119981766,"23":0.301191121339798,"24":-0.1980198174715042,"25":-0.40877029299736023,"26":-0.07458692789077759,"27":-0.2537076473236084,"28":-0.7178921103477478,"29":0.503413736820221,"30":-0.39316943287849426,"31":-0.459842711687088,"32":0.4767724573612213,"33":-0.19256138801574707,"34":0.1466948390007019,"35":0.3242773413658142,"36":0.44875553250312805,"37":0.2707097828388214,"38":0.3613016605377197,"39":-0.5419182777404785}},"29":{"bias":0.02550814300775528,"weights":{"0":0.27498218417167664,"1":0.08106888085603714,"2":-0.11072846502065659,"3":0.08169185370206833,"4":0.07376834005117416,"5":-0.1598695069551468,"6":0.1448832005262375,"7":-0.22988665103912354,"8":-0.2927497327327728,"9":-0.11262142658233643,"10":0.13444410264492035,"11":-0.293594628572464,"12":0.024124540388584137,"13":-0.21489833295345306,"14":0.10178402066230774,"15":-0.14688760042190552,"16":0.23581667244434357,"17":-0.011364215053617954,"18":0.051332153379917145,"19":-0.04348045960068703,"20":0.1602935642004013,"21":0.30521371960639954,"22":-0.006474405527114868,"23":-0.1249849796295166,"24":-0.07970833033323288,"25":-0.3295450210571289,"26":-0.3572677671909332,"27":0.07577837258577347,"28":0.2596319317817688,"29":0.16766045987606049,"30":0.16921895742416382,"31":-0.2510530948638916,"32":-0.043550264090299606,"33":-0.09557591378688812,"34":-0.09974584728479385,"35":0.16526231169700623,"36":-0.06171301752328873,"37":0.10872109234333038,"38":0.06190699338912964,"39":0.09345205873250961}}},{"0":{"bias":-0.16463050246238708,"weights":{"0":0.33641794323921204,"1":-0.08872690051794052,"2":-0.37481003999710083,"3":-0.14498163759708405,"4":0.3101154863834381,"5":0.22657126188278198,"6":0.43074676394462585,"7":-0.01335533894598484,"8":0.04776633530855179,"9":-0.06511476635932922,"10":-0.10971950739622116,"11":0.24039043486118317,"12":0.288520485162735,"13":-0.0032383522484451532,"14":-0.2693752348423004,"15":0.06446313112974167,"16":0.0015313605545088649,"17":-0.269965797662735,"18":0.28237855434417725,"19":-0.22273176908493042,"20":0.07123365998268127,"21":-0.19128692150115967,"22":0.03564150258898735,"23":-0.010405534878373146,"24":-0.2754332721233368,"25":0.11304566264152527,"26":0.09505100548267365,"27":0.33813706040382385,"28":0.3012732267379761,"29":-0.3075374364852905}},"1":{"bias":0.09598181396722794,"weights":{"0":0.08651889860630035,"1":0.08945097029209137,"2":-0.34323814511299133,"3":-0.37124523520469666,"4":0.15798282623291016,"5":0.026500139385461807,"6":-0.1945061832666397,"7":0.43306809663772583,"8":-0.25069332122802734,"9":-0.1472354680299759,"10":-0.3072318136692047,"11":0.03861003741621971,"12":-0.44444504380226135,"13":-0.0865010917186737,"14":0.1467750519514084,"15":-0.32110702991485596,"16":0.17106691002845764,"17":-0.14536121487617493,"18":-0.26802685856819153,"19":0.25245681405067444,"20":0.2290392369031906,"21":0.2096017748117447,"22":0.25948914885520935,"23":-0.011180787347257137,"24":0.1329556107521057,"25":-0.051700931042432785,"26":-0.25211530923843384,"27":0.050160232931375504,"28":-0.5653207302093506,"29":0.05289183929562569}},"2":{"bias":0.13099439442157745,"weights":{"0":-0.1620124876499176,"1":-0.07311459630727768,"2":-0.178786963224411,"3":0.1481064110994339,"4":0.06152692437171936,"5":-0.006624904926866293,"6":-0.06538428366184235,"7":0.044064704328775406,"8":-0.26067915558815,"9":-0.20812790095806122,"10":0.13261312246322632,"11":-0.1323012411594391,"12":-0.047458991408348083,"13":-0.09527125954627991,"14":-0.2274831086397171,"15":-0.1286778301000595,"16":0.19137787818908691,"17":0.08130890130996704,"18":-0.15931656956672668,"19":0.26098063588142395,"20":0.2040046751499176,"21":-0.0026935816276818514,"22":0.2353411316871643,"23":0.007706004194915295,"24":-0.1339254230260849,"25":-0.25496411323547363,"26":0.038966596126556396,"27":0.04197456315159798,"28":-0.013032582588493824,"29":0.015175343491137028}},"3":{"bias":-0.11726492643356323,"weights":{"0":0.02427680604159832,"1":-0.13788871467113495,"2":-0.33400511741638184,"3":-0.0641506090760231,"4":0.32151296734809875,"5":0.3878442943096161,"6":0.09773249179124832,"7":0.003321487456560135,"8":-0.26777130365371704,"9":0.009496649727225304,"10":-0.33643344044685364,"11":0.2148730605840683,"12":-0.1712101250886917,"13":0.27462610602378845,"14":-0.040949806571006775,"15":0.14405636489391327,"16":0.20201951265335083,"17":0.16167804598808289,"18":0.08772382885217667,"19":-0.00788488332182169,"20":0.14057736098766327,"21":-0.1999649852514267,"22":0.25556397438049316,"23":0.012033832259476185,"24":0.16309797763824463,"25":-0.17733943462371826,"26":0.18264347314834595,"27":0.23725926876068115,"28":-0.04595992714166641,"29":-0.08780135214328766}},"4":{"bias":0.03246711194515228,"weights":{"0":0.10833857953548431,"1":0.45029982924461365,"2":-0.11803462356328964,"3":0.1681288331747055,"4":-0.2831544280052185,"5":0.20118577778339386,"6":0.06471550464630127,"7":-0.15127824246883392,"8":0.2902606725692749,"9":-0.0679011195898056,"10":-0.0006703181425109506,"11":-0.07919324934482574,"12":0.1507841795682907,"13":-0.10666587203741074,"14":0.15025044977664948,"15":-0.3172568678855896,"16":0.41875120997428894,"17":-0.06887823343276978,"18":-0.06755378842353821,"19":0.035523101687431335,"20":0.09574104845523834,"21":0.03136420249938965,"22":-0.29388806223869324,"23":0.18647167086601257,"24":0.029497439041733742,"25":-0.08351890742778778,"26":-0.1035219132900238,"27":0.10264158993959427,"28":0.5005500316619873,"29":-0.07749851047992706}},"5":{"bias":-0.21843741834163666,"weights":{"0":-0.06765082478523254,"1":0.030371850356459618,"2":0.07476361095905304,"3":0.31451234221458435,"4":-0.15788902342319489,"5":0.04826432466506958,"6":0.2542940378189087,"7":-0.32123321294784546,"8":0.27153998613357544,"9":-0.15649719536304474,"10":-0.01706756092607975,"11":-0.20898699760437012,"12":0.08918220549821854,"13":0.33806660771369934,"14":-0.15766213834285736,"15":0.1279015988111496,"16":0.14171163737773895,"17":0.24836646020412445,"18":-0.08325298875570297,"19":-0.34709250926971436,"20":-0.037972331047058105,"21":-0.10635525733232498,"22":0.2146928310394287,"23":0.21198967099189758,"24":0.02423798106610775,"25":0.07608840614557266,"26":0.3620515465736389,"27":0.08553607016801834,"28":0.5893265604972839,"29":-0.311846524477005}},"6":{"bias":-0.1880122572183609,"weights":{"0":0.07730604708194733,"1":-0.12740980088710785,"2":0.3637855350971222,"3":-0.35721996426582336,"4":0.13159193098545074,"5":0.0596914142370224,"6":-0.2030593454837799,"7":-0.2545506954193115,"8":-0.20547062158584595,"9":0.046853844076395035,"10":0.1691349744796753,"11":0.22407835721969604,"12":0.2209535837173462,"13":-0.06746276468038559,"14":-0.15139707922935486,"15":0.2012958824634552,"16":-0.39072099328041077,"17":-0.3281891942024231,"18":0.12410110980272293,"19":-0.07089833915233612,"20":-0.20828618109226227,"21":0.16593720018863678,"22":0.22000110149383545,"23":-0.16129070520401,"24":-0.1976783722639084,"25":0.014566540718078613,"26":0.07481426000595093,"27":-0.08896208554506302,"28":-0.7913859486579895,"29":-0.014922704547643661}},"7":{"bias":-0.06161944940686226,"weights":{"0":-0.004987858235836029,"1":-0.5722780823707581,"2":-0.2127007693052292,"3":0.03244579955935478,"4":-0.1204509437084198,"5":-0.16242234408855438,"6":-0.14247365295886993,"7":0.019522283226251602,"8":0.1940673440694809,"9":0.14809845387935638,"10":-0.1837543398141861,"11":-0.028385089710354805,"12":-0.13972793519496918,"13":-0.36877772212028503,"14":0.18373744189739227,"15":-0.3848794102668762,"16":0.11601580679416656,"17":-0.38952934741973877,"18":-0.08804910629987717,"19":-0.20534400641918182,"20":0.36374908685684204,"21":0.07894525676965714,"22":-0.19096964597702026,"23":-0.2098436951637268,"24":0.0006323682027868927,"25":-0.24880976974964142,"26":-0.29552021622657776,"27":0.2516882121562958,"28":-0.19518232345581055,"29":0.00041173843783326447}},"8":{"bias":0.02114923857152462,"weights":{"0":0.10927744954824448,"1":0.26840201020240784,"2":-0.20695067942142487,"3":0.033024273812770844,"4":0.013558166101574898,"5":-0.0262941624969244,"6":0.34225067496299744,"7":-0.06263260543346405,"8":-0.20296305418014526,"9":0.009834196418523788,"10":0.11252066493034363,"11":-0.1433156132698059,"12":0.2425374686717987,"13":0.25117671489715576,"14":-0.047918759286403656,"15":0.43003249168395996,"16":-0.08170738071203232,"17":0.20095385611057281,"18":-0.10458637028932571,"19":0.11799684911966324,"20":0.0780998095870018,"21":-0.029550207778811455,"22":-0.0025952064897865057,"23":0.2446647584438324,"24":-0.04659408703446388,"25":0.0627298504114151,"26":0.2220715433359146,"27":-0.04069052264094353,"28":0.4786025881767273,"29":0.04014125093817711}},"9":{"bias":0.2140723466873169,"weights":{"0":-0.0593479722738266,"1":0.34214818477630615,"2":0.1042858362197876,"3":-0.004312735516577959,"4":0.09124064445495605,"5":0.1768137663602829,"6":0.13308216631412506,"7":-0.1095353290438652,"8":-0.19423070549964905,"9":-0.1991460621356964,"10":0.1704118847846985,"11":0.08723172545433044,"12":0.08467979729175568,"13":0.3147660493850708,"14":0.00239167339168489,"15":0.6000953316688538,"16":-0.23539327085018158,"17":0.3013375997543335,"18":-0.020164204761385918,"19":0.2158307135105133,"20":-0.14034639298915863,"21":0.22671936452388763,"22":0.04357084259390831,"23":0.28760799765586853,"24":-0.25522565841674805,"25":-0.015255949459969997,"26":0.1323491483926773,"27":-0.17855936288833618,"28":0.6569022536277771,"29":0.0179289560765028}},"10":{"bias":0.15308630466461182,"weights":{"0":0.07348784059286118,"1":-0.0023125959560275078,"2":-0.012556723318994045,"3":-0.12423353642225266,"4":-0.24126729369163513,"5":0.1767040491104126,"6":-0.03229595348238945,"7":-0.061600785702466965,"8":0.19916316866874695,"9":-0.014709868468344212,"10":0.030176624655723572,"11":0.11859223991632462,"12":0.08025098592042923,"13":0.014505710452795029,"14":0.06007468327879906,"15":-0.27289825677871704,"16":-0.02153164893388748,"17":-0.1843164563179016,"18":0.2554745078086853,"19":-0.1514519304037094,"20":0.04003317654132843,"21":0.05286213755607605,"22":-0.1737496703863144,"23":0.27992013096809387,"24":0.06760203093290329,"25":0.24999026954174042,"26":0.11489835381507874,"27":-0.054832108318805695,"28":-0.05533863604068756,"29":-0.10252674669027328}},"11":{"bias":0.07363492250442505,"weights":{"0":0.22336995601654053,"1":0.135099858045578,"2":-0.5403426289558411,"3":0.21895857155323029,"4":-0.047249458730220795,"5":0.265007883310318,"6":-0.15358951687812805,"7":0.25502660870552063,"8":0.045864563435316086,"9":-0.29359960556030273,"10":-0.3884366750717163,"11":0.4672982692718506,"12":-0.2654958963394165,"13":-0.21511803567409515,"14":0.5689728856086731,"15":-0.17210684716701508,"16":0.811273455619812,"17":0.09631016105413437,"18":0.4786596894264221,"19":0.07029303163290024,"20":0.13593056797981262,"21":-0.29251745343208313,"22":-0.43754076957702637,"23":0.21370108425617218,"24":0.44508692622184753,"25":0.35233044624328613,"26":-0.08316043764352798,"27":-0.07364513725042343,"28":0.6130653619766235,"29":-0.13340282440185547}},"12":{"bias":-0.03323876112699509,"weights":{"0":0.3083341717720032,"1":-0.06083064153790474,"2":-0.2795514762401581,"3":0.3026209771633148,"4":0.21268202364444733,"5":0.021228663623332977,"6":0.5187694430351257,"7":-0.15199996531009674,"8":0.09336770325899124,"9":0.11601881682872772,"10":0.007994812913239002,"11":-0.04370184242725372,"12":0.4401037395000458,"13":-0.10242931544780731,"14":-0.25080493092536926,"15":0.03281945735216141,"16":-0.046655215322971344,"17":0.09446034580469131,"18":0.012298480607569218,"19":-0.22958427667617798,"20":-0.007187759503722191,"21":-0.2600109279155731,"22":0.373795747756958,"23":0.2125260978937149,"24":-0.33821848034858704,"25":0.011682295240461826,"26":0.4787941575050354,"27":0.1441337913274765,"28":0.43974146246910095,"29":-0.39265012741088867}},"13":{"bias":-0.20439451932907104,"weights":{"0":0.07778473198413849,"1":-0.3515132665634155,"2":-0.043091773986816406,"3":-0.01238220650702715,"4":-0.15898965299129486,"5":0.07106373459100723,"6":-0.0634072795510292,"7":-0.16297584772109985,"8":0.015040837228298187,"9":-0.0009584656218066812,"10":0.018488513305783272,"11":-0.3054375648498535,"12":0.11838524788618088,"13":-0.005527873057872057,"14":-0.1452765315771103,"15":-0.23740695416927338,"16":-0.10517899692058563,"17":-0.07451829314231873,"18":-0.027952708303928375,"19":0.2006412297487259,"20":-0.028029371052980423,"21":-0.28259503841400146,"22":0.12326235324144363,"23":-0.011586361564695835,"24":-0.12689340114593506,"25":0.13199757039546967,"26":0.12731575965881348,"27":0.04299469664692879,"28":-0.007234274409711361,"29":0.11767513304948807}},"14":{"bias":-0.1866135597229004,"weights":{"0":0.11650379002094269,"1":0.04323862865567207,"2":-0.11393113434314728,"3":-0.0860375463962555,"4":0.3404977023601532,"5":0.3219938278198242,"6":0.3091914653778076,"7":0.046759333461523056,"8":0.06975434720516205,"9":0.024936610832810402,"10":0.03608665615320206,"11":0.051586464047431946,"12":0.07949161529541016,"13":0.17026469111442566,"14":0.2945877015590668,"15":0.08202677220106125,"16":0.27714523673057556,"17":-0.011817852035164833,"18":0.12210578471422195,"19":0.042281374335289,"20":0.0863216370344162,"21":0.4070335328578949,"22":-0.17963558435440063,"23":0.09898187220096588,"24":0.10536786913871765,"25":0.18899430334568024,"26":-0.12814123928546906,"27":0.16832612454891205,"28":-0.06678403913974762,"29":0.3060615658760071}},"15":{"bias":-0.20096240937709808,"weights":{"0":0.08499786257743835,"1":-0.11344826221466064,"2":-0.6492089629173279,"3":0.1890242099761963,"4":-0.03302571922540665,"5":0.27448925375938416,"6":0.039133258163928986,"7":0.40267276763916016,"8":-0.07331285625696182,"9":-0.017962012439966202,"10":-0.17022645473480225,"11":0.2871477007865906,"12":-0.48675301671028137,"13":-0.041918810456991196,"14":0.07150474935770035,"15":-0.1492602825164795,"16":0.5322008728981018,"17":0.167253315448761,"18":0.17966756224632263,"19":-0.07333842664957047,"20":0.09907089173793793,"21":-0.49872341752052307,"22":-0.1898079514503479,"23":0.07255664467811584,"24":0.4690457880496979,"25":-0.015760594978928566,"26":-0.1683933585882187,"27":0.06372002512216568,"28":0.6211987733840942,"29":-0.10313209146261215}},"16":{"bias":-0.024692563340067863,"weights":{"0":-0.22487670183181763,"1":-0.25196659564971924,"2":0.05509347841143608,"3":0.0564887672662735,"4":0.32449689507484436,"5":0.0711718499660492,"6":-0.025441372767090797,"7":0.08873076736927032,"8":-0.08717251569032669,"9":0.08088991045951843,"10":-0.02538435347378254,"11":-0.03945918008685112,"12":-0.14249812066555023,"13":0.03721403703093529,"14":0.19868455827236176,"15":0.16799518465995789,"16":0.12946657836437225,"17":0.0784798339009285,"18":0.11550471931695938,"19":0.045546118170022964,"20":-0.09514972567558289,"21":0.1805664747953415,"22":-0.019134176895022392,"23":-0.33158227801322937,"24":0.10507608950138092,"25":-0.20020215213298798,"26":0.037503909319639206,"27":0.19911032915115356,"28":-0.12838751077651978,"29":0.14745169878005981}},"17":{"bias":0.023078041151165962,"weights":{"0":-0.1404382586479187,"1":0.356772780418396,"2":0.024248110130429268,"3":-0.24699363112449646,"4":0.35420459508895874,"5":-0.0552181713283062,"6":-0.1475265771150589,"7":0.1537891924381256,"8":-0.150167778134346,"9":0.14302204549312592,"10":0.004778868984431028,"11":-0.1535298228263855,"12":0.018356135115027428,"13":0.01825767010450363,"14":0.15473197400569916,"15":0.016258759424090385,"16":0.2367693930864334,"17":0.00216701184399426,"18":-0.34024572372436523,"19":0.31901735067367554,"20":-0.167027547955513,"21":0.3109928369522095,"22":0.27261626720428467,"23":-0.3061833381652832,"24":-0.047052666544914246,"25":-0.23186488449573517,"26":-0.03953436762094498,"27":0.2320934385061264,"28":0.18383419513702393,"29":0.17819103598594666}},"18":{"bias":0.16361303627490997,"weights":{"0":0.018616585060954094,"1":-0.3546822965145111,"2":-0.25963130593299866,"3":0.3858136534690857,"4":-0.5225069522857666,"5":-0.29547813534736633,"6":-0.30081093311309814,"7":-0.21524736285209656,"8":-0.0068800426088273525,"9":-0.21183404326438904,"10":-0.0032079133670777082,"11":-0.18364807963371277,"12":-0.04480111598968506,"13":0.05016425624489784,"14":-0.059343792498111725,"15":-0.10538259893655777,"16":0.11364273726940155,"17":-0.2786671817302704,"18":-0.13361626863479614,"19":-0.13044102489948273,"20":0.4230896532535553,"21":-0.5095498561859131,"22":0.29266324639320374,"23":0.22729040682315826,"24":-0.08854559808969498,"25":0.08308351039886475,"26":-0.12519919872283936,"27":-0.25386616587638855,"28":-0.24406830966472626,"29":-0.35753339529037476}},"19":{"bias":0.03366263583302498,"weights":{"0":-0.2370627075433731,"1":0.7765515446662903,"2":0.23057864606380463,"3":-0.4392252266407013,"4":0.05160707235336304,"5":0.493495911359787,"6":-0.02571016550064087,"7":-0.25745707750320435,"8":-0.3874821066856384,"9":-0.15698233246803284,"10":0.5578536987304688,"11":0.17217813432216644,"12":-0.08304515480995178,"13":0.6900341510772705,"14":-0.6989647746086121,"15":1.2287548780441284,"16":-0.7595430016517639,"17":-0.4616299569606781,"18":0.07951443642377853,"19":0.045743972063064575,"20":-0.0944463461637497,"21":0.07326873391866684,"22":0.44803062081336975,"23":-0.223842054605484,"24":-0.543995201587677,"25":0.345914751291275,"26":0.18064987659454346,"27":-0.43285155296325684,"28":-1.0393236875534058,"29":-0.3287269175052643}},"20":{"bias":-0.36307621002197266,"weights":{"0":0.1896626353263855,"1":-0.266971617937088,"2":-0.24670442938804626,"3":-0.07102468609809875,"4":-0.20121341943740845,"5":-0.3260412812232971,"6":-0.180517315864563,"7":0.16131091117858887,"8":-0.12894874811172485,"9":-0.01108406763523817,"10":0.16872204840183258,"11":-0.5856931209564209,"12":-0.019595572724938393,"13":0.07989475131034851,"14":-0.027292465791106224,"15":0.018000097945332527,"16":-0.011925932951271534,"17":0.1852540820837021,"18":-0.009679374285042286,"19":0.18979999423027039,"20":-0.12423481047153473,"21":0.017435738816857338,"22":0.2664738893508911,"23":-0.2947814166545868,"24":0.1578948199748993,"25":-0.0789269283413887,"26":0.1377217322587967,"27":-0.3059818744659424,"28":-0.18884187936782837,"29":0.10326678305864334}},"21":{"bias":-0.38923707604408264,"weights":{"0":0.04560323804616928,"1":0.17335577309131622,"2":0.06895279139280319,"3":0.004721277393400669,"4":0.20660439133644104,"5":0.39350631833076477,"6":0.37144967913627625,"7":-0.32780712842941284,"8":0.19793500006198883,"9":0.25880444049835205,"10":0.1443670392036438,"11":0.21676170825958252,"12":0.3906368911266327,"13":0.09080483764410019,"14":-0.1763240545988083,"15":0.283233106136322,"16":0.1557827889919281,"17":0.005978278815746307,"18":0.1784154176712036,"19":-0.0834830030798912,"20":0.046674694865942,"21":0.04510832577943802,"22":0.2515745460987091,"23":0.06860385090112686,"24":-0.015006978064775467,"25":-0.08885124325752258,"26":0.27689701318740845,"27":0.1883206069469452,"28":0.2833862602710724,"29":-0.004963619168847799}},"22":{"bias":0.21411482989788055,"weights":{"0":0.12392845749855042,"1":0.24331587553024292,"2":0.10589339584112167,"3":0.2150869071483612,"4":-0.1951477974653244,"5":-0.08892359584569931,"6":0.09616456925868988,"7":-0.3873760402202606,"8":-0.10210905969142914,"9":0.042810678482055664,"10":0.011464901268482208,"11":0.07254312187433243,"12":0.029293647035956383,"13":-0.1562223732471466,"14":-0.2838856279850006,"15":-0.24703536927700043,"16":0.016417721286416054,"17":0.07861649245023727,"18":-0.0011804295936599374,"19":-0.1197151243686676,"20":-0.09023914486169815,"21":-0.1974010169506073,"22":0.2473570555448532,"23":0.06441204994916916,"24":0.0025754536036401987,"25":0.06427471339702606,"26":0.26873719692230225,"27":-0.06670914590358734,"28":-0.2028576135635376,"29":0.005349005106836557}},"23":{"bias":0.06812526285648346,"weights":{"0":0.2790523171424866,"1":-0.6145437359809875,"2":-0.3662938177585602,"3":0.31552568078041077,"4":-0.06755197048187256,"5":-0.1912308633327484,"6":-0.10353446006774902,"7":-0.27113786339759827,"8":0.18176734447479248,"9":0.30015718936920166,"10":0.01072786282747984,"11":0.17749473452568054,"12":-0.2571364939212799,"13":-0.33381351828575134,"14":0.10693967342376709,"15":-0.6532155871391296,"16":-0.1698397547006607,"17":-0.08635614812374115,"18":0.22119882702827454,"19":-0.2316407412290573,"20":0.3362599015235901,"21":0.11146828532218933,"22":-0.2198026478290558,"23":0.10771729797124863,"24":-0.15633323788642883,"25":-0.06724181026220322,"26":0.028368068858981133,"27":-0.08937854319810867,"28":-0.5919495224952698,"29":-0.12879331409931183}},"24":{"bias":-0.4032856822013855,"weights":{"0":-0.2072346806526184,"1":-0.24028293788433075,"2":-0.010061180219054222,"3":-0.14091691374778748,"4":0.10406030714511871,"5":0.13377483189105988,"6":0.3081910014152527,"7":0.11763588339090347,"8":-0.1583492010831833,"9":0.14480847120285034,"10":0.07301122695207596,"11":-0.37150728702545166,"12":-0.23826482892036438,"13":0.3322518765926361,"14":0.051431331783533096,"15":0.12444808334112167,"16":-0.027202729135751724,"17":0.2568318545818329,"18":-0.2941610515117645,"19":0.07686275988817215,"20":-0.23088568449020386,"21":-0.059405405074357986,"22":0.26522910594940186,"23":0.033612336963415146,"24":0.06211861968040466,"25":-0.1961292326450348,"26":0.0020531886257231236,"27":0.04016996547579765,"28":-0.05157357454299927,"29":0.25410330295562744}},"25":{"bias":-0.013923883438110352,"weights":{"0":-0.011375742964446545,"1":0.020580291748046875,"2":-0.06513988971710205,"3":0.029224224388599396,"4":0.041965022683143616,"5":-0.022283021360635757,"6":0.16772374510765076,"7":-0.12792815268039703,"8":0.2053849697113037,"9":0.06385244429111481,"10":-0.25175249576568604,"11":-0.11395725607872009,"12":-0.23509228229522705,"13":0.14469599723815918,"14":0.014518529176712036,"15":-0.15430812537670135,"16":0.16923823952674866,"17":-0.202797070145607,"18":-0.13603675365447998,"19":0.16957049071788788,"20":0.21756471693515778,"21":-0.2510642409324646,"22":0.15967139601707458,"23":-0.1637749820947647,"24":0.06004220247268677,"25":0.1072796955704689,"26":0.05459929630160332,"27":0.2826361358165741,"28":0.21374408900737762,"29":0.12507233023643494}},"26":{"bias":-0.07508537173271179,"weights":{"0":0.0015383610734716058,"1":0.10943847894668579,"2":0.3081642985343933,"3":-0.1506015807390213,"4":-0.27804505825042725,"5":-0.0032993177883327007,"6":-0.3617122769355774,"7":0.01905767433345318,"8":0.20155751705169678,"9":-0.04094605892896652,"10":0.11385924369096756,"11":0.09333306550979614,"12":-0.1470932811498642,"13":-0.35711491107940674,"14":0.1276610940694809,"15":-0.4268409013748169,"16":0.2057044804096222,"17":-0.2411225140094757,"18":0.13449376821517944,"19":0.10108006000518799,"20":-0.03472867235541344,"21":-0.07879567891359329,"22":-0.18209025263786316,"23":-0.21384450793266296,"24":-0.0034419891890138388,"25":0.24103900790214539,"26":-0.40859681367874146,"27":0.10742910951375961,"28":-0.1792779117822647,"29":0.08968546986579895}},"27":{"bias":-0.027109792456030846,"weights":{"0":-0.09402164071798325,"1":0.3793538212776184,"2":0.10535001754760742,"3":-0.13269807398319244,"4":-0.07784860581159592,"5":-0.07969221472740173,"6":0.264354407787323,"7":-0.0003651545266620815,"8":0.11454564332962036,"9":-0.07368552684783936,"10":-0.08495115488767624,"11":0.22017791867256165,"12":0.36715877056121826,"13":0.1916925609111786,"14":0.13737347722053528,"15":0.2897087037563324,"16":-0.03237495943903923,"17":0.12237679213285446,"18":0.09905892610549927,"19":0.0992026999592781,"20":-0.14419211447238922,"21":-0.16048923134803772,"22":-0.16209247708320618,"23":-0.19416086375713348,"24":0.19451996684074402,"25":-0.08000195026397705,"26":0.15682554244995117,"27":0.18244993686676025,"28":0.3527946472167969,"29":-0.015914151445031166}},"28":{"bias":-0.2694149613380432,"weights":{"0":0.11236213147640228,"1":-0.24781908094882965,"2":0.009839009493589401,"3":-0.024837160483002663,"4":0.004016541875898838,"5":0.15567763149738312,"6":-0.1117280125617981,"7":0.11400590091943741,"8":0.24194923043251038,"9":0.1267617791891098,"10":0.12938252091407776,"11":0.09143588691949844,"12":-0.05649717524647713,"13":-0.1983203887939453,"14":-0.05596042424440384,"15":-0.09441336989402771,"16":0.09676948189735413,"17":-0.0821448415517807,"18":0.1607140451669693,"19":0.08384745568037033,"20":0.06650068610906601,"21":0.09650789946317673,"22":-0.288043737411499,"23":-0.2181597501039505,"24":-0.11049067229032516,"25":-0.04005828872323036,"26":0.043496400117874146,"27":0.20195768773555756,"28":-0.3201045095920563,"29":0.005679306108504534}},"29":{"bias":0.2885249853134155,"weights":{"0":0.18300482630729675,"1":-0.5546266436576843,"2":-0.4247242510318756,"3":0.21654395759105682,"4":0.3584199547767639,"5":0.05007786676287651,"6":0.11904251575469971,"7":-0.05622277036309242,"8":-0.007192169316112995,"9":-0.22134500741958618,"10":-0.02749546431005001,"11":0.1410483568906784,"12":-0.06572861224412918,"13":0.2626342177391052,"14":-0.013008414767682552,"15":-0.05903979763388634,"16":-0.14980165660381317,"17":0.09065721929073334,"18":0.06699851900339127,"19":0.0417657271027565,"20":-0.035927243530750275,"21":0.06134098395705223,"22":0.30919674038887024,"23":0.3815681040287018,"24":-0.24903343617916107,"25":-0.3668797016143799,"26":0.18863452970981598,"27":0.28938305377960205,"28":0.1693994104862213,"29":0.1230396032333374}},"30":{"bias":0.13355283439159393,"weights":{"0":0.47928446531295776,"1":-0.4583590626716614,"2":-0.116850346326828,"3":-0.12522900104522705,"4":-0.19187681376934052,"5":0.2245788872241974,"6":-0.09472311288118362,"7":-0.23586001992225647,"8":0.14679686725139618,"9":0.20080532133579254,"10":0.11616186052560806,"11":-0.06421302258968353,"12":0.31633156538009644,"13":0.015968143939971924,"14":-0.16799065470695496,"15":0.15109091997146606,"16":-0.08735908567905426,"17":-0.22981657087802887,"18":0.04545232281088829,"19":-0.027811482548713684,"20":0.13633912801742554,"21":-0.20695209503173828,"22":0.22572433948516846,"23":0.031505391001701355,"24":-0.34830841422080994,"25":-0.14749270677566528,"26":-0.23989464342594147,"27":0.38319775462150574,"28":0.014108886010944843,"29":0.04857388883829117}},"31":{"bias":0.2556268274784088,"weights":{"0":-0.3994337022304535,"1":0.102487713098526,"2":0.39802777767181396,"3":-0.03243961185216904,"4":0.3349645733833313,"5":-0.23454514145851135,"6":0.227245032787323,"7":-0.17308324575424194,"8":0.12225927412509918,"9":-0.1338813751935959,"10":-0.1830766648054123,"11":-0.02919291891157627,"12":-0.142252117395401,"13":0.11192169040441513,"14":0.2306058257818222,"15":0.134312704205513,"16":-0.024471715092658997,"17":0.18492239713668823,"18":0.11288551241159439,"19":-0.16485174000263214,"20":0.07134459167718887,"21":0.19455884397029877,"22":-0.22783271968364716,"23":-0.10416478663682938,"24":0.2402883619070053,"25":-0.07941702753305435,"26":0.15828856825828552,"27":-0.05894218757748604,"28":-0.17791616916656494,"29":0.4225398302078247}},"32":{"bias":0.037117891013622284,"weights":{"0":0.0815231204032898,"1":0.4639355540275574,"2":0.07522056251764297,"3":-0.3554968237876892,"4":0.0683533176779747,"5":0.28648337721824646,"6":0.33865466713905334,"7":-0.058067046105861664,"8":0.15415877103805542,"9":0.11331368237733841,"10":0.04718472808599472,"11":0.41512390971183777,"12":0.26325392723083496,"13":0.2751374840736389,"14":-0.04876183718442917,"15":-0.0949317067861557,"16":0.22190818190574646,"17":-0.28918272256851196,"18":0.20143815875053406,"19":-0.19402523338794708,"20":0.15092068910598755,"21":0.12642045319080353,"22":0.30254876613616943,"23":-0.28134414553642273,"24":-0.010780751705169678,"25":-0.11233896017074585,"26":0.16119392216205597,"27":0.22140024602413177,"28":0.14706426858901978,"29":-0.08587646484375}},"33":{"bias":-0.09941590577363968,"weights":{"0":-0.0401630625128746,"1":0.06974893808364868,"2":0.07294441014528275,"3":0.17140281200408936,"4":0.18397043645381927,"5":0.2594558298587799,"6":0.3639805316925049,"7":-0.054384659975767136,"8":0.1737261414527893,"9":-0.10237966477870941,"10":0.12358122318983078,"11":0.15158486366271973,"12":0.2910904884338379,"13":0.07622881978750229,"14":0.19014586508274078,"15":0.39823952317237854,"16":-0.03747626394033432,"17":0.039507798850536346,"18":0.23097427189350128,"19":-0.34071415662765503,"20":0.08418403565883636,"21":0.274372935295105,"22":-0.12484458833932877,"23":-0.023640494793653488,"24":-0.021442636847496033,"25":0.017576858401298523,"26":0.24109579622745514,"27":0.1286381483078003,"28":0.4163614809513092,"29":-0.10396874696016312}},"34":{"bias":-0.06427790224552155,"weights":{"0":0.2767367362976074,"1":0.07312959432601929,"2":-0.33365002274513245,"3":0.18866458535194397,"4":0.06465471535921097,"5":0.25717857480049133,"6":0.09812398999929428,"7":0.26197192072868347,"8":0.2205561101436615,"9":-0.20107708871364594,"10":-0.33265185356140137,"11":-0.02879624255001545,"12":-0.2080773413181305,"13":-0.10192662477493286,"14":0.19428198039531708,"15":-0.050992321223020554,"16":0.5634762048721313,"17":0.09355363994836807,"18":-0.05642583221197128,"19":-0.1188543513417244,"20":0.3582860827445984,"21":-0.49817392230033875,"22":-0.047317251563072205,"23":-0.22844074666500092,"24":0.18268881738185883,"25":-0.23550386726856232,"26":0.11394359916448593,"27":0.254413902759552,"28":0.4423883259296417,"29":-0.20351219177246094}},"35":{"bias":0.27052560448646545,"weights":{"0":-0.21256579458713531,"1":0.4055881202220917,"2":-0.027705945074558258,"3":0.19109001755714417,"4":-0.08954184502363205,"5":-0.17332488298416138,"6":-0.180601105093956,"7":0.18135207891464233,"8":0.05144607648253441,"9":-0.07265293598175049,"10":0.12119905650615692,"11":-0.14716508984565735,"12":-0.3227613568305969,"13":0.14414174854755402,"14":0.08332667499780655,"15":-0.18580681085586548,"16":0.06377074122428894,"17":0.22436940670013428,"18":0.09177977591753006,"19":0.09255698323249817,"20":-0.0816672220826149,"21":-0.027013655751943588,"22":0.08816618472337723,"23":0.11057569086551666,"24":0.17147213220596313,"25":0.11226261407136917,"26":-0.04937206953763962,"27":-0.09045904874801636,"28":0.04115067049860954,"29":-0.0340648777782917}},"36":{"bias":-0.36980098485946655,"weights":{"0":0.29769814014434814,"1":-0.09883119910955429,"2":-0.48393842577934265,"3":0.06583119183778763,"4":-0.23688539862632751,"5":-0.03497057408094406,"6":0.09979157149791718,"7":-0.2621084451675415,"8":0.3472777307033539,"9":0.26089251041412354,"10":0.044642701745033264,"11":-0.3258044421672821,"12":-0.13769587874412537,"13":-0.5685716867446899,"14":-0.022842006757855415,"15":-0.7936646342277527,"16":0.062106743454933167,"17":0.18258751928806305,"18":0.12039460986852646,"19":-0.20743611454963684,"20":0.030730504542589188,"21":-0.32543444633483887,"22":-0.3385591208934784,"23":-0.0027727936394512653,"24":-0.01669984869658947,"25":-0.12705200910568237,"26":0.01717444881796837,"27":-0.008882143534719944,"28":-0.6930630207061768,"29":0.105964295566082}},"37":{"bias":-0.39948421716690063,"weights":{"0":-0.000049327267333865166,"1":0.13131183385849,"2":0.38729169964790344,"3":0.025539403781294823,"4":0.15008844435214996,"5":-0.030754616484045982,"6":0.061468396335840225,"7":-0.006247741170227528,"8":-0.02427992783486843,"9":0.13706614077091217,"10":0.13291312754154205,"11":-0.21240146458148956,"12":0.14677448570728302,"13":-0.23879623413085938,"14":0.2532486617565155,"15":0.07021439075469971,"16":-0.0016293027438223362,"17":-0.08600296080112457,"18":0.015245324932038784,"19":-0.0779777318239212,"20":-0.08823059499263763,"21":0.13104350864887238,"22":-0.18439951539039612,"23":-0.116620272397995,"24":0.19386103749275208,"25":0.14788256585597992,"26":0.11180608719587326,"27":0.09476307034492493,"28":0.3498053550720215,"29":-0.042409420013427734}},"38":{"bias":-0.043118271976709366,"weights":{"0":-0.2221943885087967,"1":-0.1994735449552536,"2":0.03857065364718437,"3":0.012361841276288033,"4":0.35153236985206604,"5":0.15462322533130646,"6":0.07792205363512039,"7":-0.029201511293649673,"8":0.022885462269186974,"9":-0.11199824512004852,"10":0.07556957751512527,"11":-0.27953052520751953,"12":-0.20143301784992218,"13":0.18605941534042358,"14":-0.11187293380498886,"15":0.3223344683647156,"16":-0.10933639109134674,"17":0.05244744196534157,"18":-0.11049076914787292,"19":0.028000736609101295,"20":0.02495737560093403,"21":0.03979874774813652,"22":0.1294516623020172,"23":-0.2246069610118866,"24":0.029765192419290543,"25":-0.10497206449508667,"26":0.21210190653800964,"27":0.12130950391292572,"28":-0.3046402931213379,"29":0.23040594160556793}},"39":{"bias":0.010515389032661915,"weights":{"0":0.06809799373149872,"1":-0.20421187579631805,"2":-0.26493483781814575,"3":-0.26333871483802795,"4":0.2872638702392578,"5":0.3736976087093353,"6":-0.1885349154472351,"7":0.3365788459777832,"8":-0.11006008833646774,"9":-0.30271461606025696,"10":0.014248775318264961,"11":0.16175638139247894,"12":-0.4096527695655823,"13":0.21100176870822906,"14":-0.08242563903331757,"15":0.03846537694334984,"16":0.11084321141242981,"17":-0.1986721158027649,"18":-0.040818821638822556,"19":0.11727126687765121,"20":0.031466033309698105,"21":-0.19952288269996643,"22":0.33236294984817505,"23":-0.2936772108078003,"24":0.04602767154574394,"25":-0.06680604070425034,"26":0.02172994241118431,"27":0.255283385515213,"28":-0.20730775594711304,"29":-0.08434232324361801}}},{"0":{"bias":0.11845056712627411,"weights":{"0":-0.5634421706199646,"1":0.14638906717300415,"2":0.013298694044351578,"3":-0.09066101908683777,"4":-0.2203015685081482,"5":-0.21337684988975525,"6":-0.33371660113334656,"7":0.18238623440265656,"8":0.22024637460708618,"9":0.08400243520736694,"10":0.02388223074376583,"11":-0.035714492201805115,"12":-0.6927569508552551,"13":0.02128119207918644,"14":0.007210064679384232,"15":0.08088909089565277,"16":-0.035756029188632965,"17":-0.21524032950401306,"18":0.26615050435066223,"19":-0.07898097485303879,"20":0.5491016507148743,"21":-0.6524541974067688,"22":-0.18942533433437347,"23":0.48277565836906433,"24":0.42111802101135254,"25":-0.20585371553897858,"26":-0.23675020039081573,"27":-0.3718179762363434,"28":-0.2004709243774414,"29":0.23980584740638733,"30":0.10091833770275116,"31":0.07969199866056442,"32":-0.8441026210784912,"33":-0.19160272181034088,"34":-0.3294968008995056,"35":0.2039857804775238,"36":0.6129224300384521,"37":-0.1785990595817566,"38":0.08473698794841766,"39":-0.3664820194244385}},"1":{"bias":-0.37645286321640015,"weights":{"0":0.04698626324534416,"1":0.6583477854728699,"2":-0.1405079960823059,"3":0.4096366763114929,"4":-0.14385861158370972,"5":-0.426126092672348,"6":0.32006263732910156,"7":-0.2195490300655365,"8":-0.1086307242512703,"9":0.2935163974761963,"10":-0.27868887782096863,"11":0.31679993867874146,"12":-0.08299756795167923,"13":0.13253416121006012,"14":0.5022284984588623,"15":0.04218709096312523,"16":0.31975680589675903,"17":0.5725728869438171,"18":-0.7551268935203552,"19":-0.7960506081581116,"20":0.2289554923772812,"21":-0.20152749121189117,"22":-0.6416875123977661,"23":-0.3511395752429962,"24":0.287511944770813,"25":-0.07093924283981323,"26":0.11783330887556076,"27":-0.19217294454574585,"28":0.2831230163574219,"29":0.10589766502380371,"30":0.08769834041595459,"31":-0.31233400106430054,"32":0.008176479488611221,"33":0.07664144784212112,"34":-0.2636866271495819,"35":-0.01759491302073002,"36":0.03178105130791664,"37":0.3982200026512146,"38":0.017691584303975105,"39":0.37778440117836}},"2":{"bias":0.023708874359726906,"weights":{"0":-0.49112263321876526,"1":0.5210659503936768,"2":0.241865873336792,"3":0.5773873329162598,"4":-0.5936824083328247,"5":0.0629408061504364,"6":0.11761573702096939,"7":0.7115740776062012,"8":-0.2783164381980896,"9":-0.7202647924423218,"10":-0.28218796849250793,"11":-0.1968955099582672,"12":-0.3652053475379944,"13":-0.30104801058769226,"14":0.1198798194527626,"15":0.09935090690851212,"16":0.6043722033500671,"17":0.1256217509508133,"18":0.16376696527004242,"19":0.0623302198946476,"20":0.30675414204597473,"21":-0.3947702944278717,"22":-0.03950199484825134,"23":0.7153399586677551,"24":0.5990272164344788,"25":0.304664671421051,"26":-0.31385335326194763,"27":-0.24229730665683746,"28":0.11059080064296722,"29":0.43336883187294006,"30":-0.7313383221626282,"31":0.8542910218238831,"32":-0.3301396667957306,"33":0.20477324724197388,"34":0.26299574971199036,"35":0.25786587595939636,"36":0.2534204125404358,"37":-0.235189288854599,"38":0.6800989508628845,"39":0.5044167041778564}},"3":{"bias":0.43137887120246887,"weights":{"0":0.3435003459453583,"1":-0.1039283499121666,"2":-0.28256428241729736,"3":-0.3320429027080536,"4":0.47863054275512695,"5":-0.38316166400909424,"6":-0.38038957118988037,"7":-0.04213180020451546,"8":-0.14065536856651306,"9":-0.0604882687330246,"10":0.3254114091396332,"11":0.992286741733551,"12":-0.3197946846485138,"13":-0.5797914266586304,"14":0.5714417099952698,"15":0.2561003863811493,"16":0.10866888612508774,"17":0.10676630586385727,"18":-0.9473000168800354,"19":0.6847829818725586,"20":-0.6173345446586609,"21":0.3213846683502197,"22":0.044189002364873886,"23":-0.35985657572746277,"24":-0.42542365193367004,"25":0.002985165687277913,"26":0.34037867188453674,"27":0.14762286841869354,"28":-0.03763258084654808,"29":-0.11831626296043396,"30":-0.3058115243911743,"31":0.4040754735469818,"32":0.5637195110321045,"33":0.450287789106369,"34":0.2085992693901062,"35":0.0066212876699864864,"36":-0.010191446170210838,"37":0.09172157198190689,"38":-0.28208112716674805,"39":-0.3657313883304596}},"4":{"bias":0.5215809345245361,"weights":{"0":-0.3485489785671234,"1":0.32903602719306946,"2":0.4435385465621948,"3":0.10105498135089874,"4":0.22434014081954956,"5":0.06133639067411423,"6":-0.6135003566741943,"7":-0.3705787658691406,"8":0.4725050926208496,"9":0.3750024437904358,"10":-0.1384868323802948,"11":0.8681349754333496,"12":-0.06907348334789276,"13":-0.1624816209077835,"14":-0.4688907265663147,"15":0.7173503041267395,"16":-0.008508906699717045,"17":0.3805406987667084,"18":0.14064519107341766,"19":-0.7504457235336304,"20":0.18943552672863007,"21":-0.3902064561843872,"22":0.3865034878253937,"23":-0.4493531286716461,"24":-0.06442698836326599,"25":0.14380329847335815,"26":-0.1710350513458252,"27":0.05633292347192764,"28":-0.4499352276325226,"29":0.2559063732624054,"30":-0.19022871553897858,"31":-0.19430719316005707,"32":-0.24801094830036163,"33":0.11574157327413559,"34":0.3076183795928955,"35":0.6182617545127869,"36":-0.19478698074817657,"37":-0.2008129209280014,"38":-0.028952764347195625,"39":0.17832979559898376}},"5":{"bias":0.43960028886795044,"weights":{"0":-0.23619653284549713,"1":0.6050325632095337,"2":0.18573476374149323,"3":0.022488487884402275,"4":0.37750035524368286,"5":-0.2113056182861328,"6":-0.3855299651622772,"7":-0.09780044108629227,"8":0.05200238153338432,"9":0.014475945383310318,"10":-0.3115593194961548,"11":0.7171568870544434,"12":-0.6919850707054138,"13":-0.35149678587913513,"14":0.004699921701103449,"15":0.690936803817749,"16":0.0740736871957779,"17":0.6171184778213501,"18":-0.20756058394908905,"19":-0.7393258213996887,"20":-0.094333715736866,"21":-0.04520713910460472,"22":-0.0063490490429103374,"23":-0.6957817077636719,"24":0.19366377592086792,"25":0.47245553135871887,"26":0.1584847867488861,"27":0.1822502762079239,"28":-0.24298293888568878,"29":-0.24549494683742523,"30":0.12063661962747574,"31":0.14237791299819946,"32":0.18845964968204498,"33":0.016025247052311897,"34":0.8937066197395325,"35":0.16952675580978394,"36":-0.14369332790374756,"37":-0.148319274187088,"38":0.05026937276124954,"39":0.36751505732536316}},"6":{"bias":0.3491446077823639,"weights":{"0":-0.7406495809555054,"1":0.49536260962486267,"2":-0.015376616269350052,"3":-0.24353346228599548,"4":0.12859050929546356,"5":-0.5084882974624634,"6":-0.24520692229270935,"7":0.3286459147930145,"8":-0.34967660903930664,"9":-0.5449855923652649,"10":0.2872824966907501,"11":0.3021564781665802,"12":-0.8053222298622131,"13":-0.12570425868034363,"14":-0.13749445974826813,"15":-0.16396857798099518,"16":-0.006011710036545992,"17":0.17839983105659485,"18":0.21525397896766663,"19":-1.3658044338226318,"20":0.2219557762145996,"21":-0.7703992128372192,"22":0.06505046784877777,"23":0.19341334700584412,"24":-0.4687761962413788,"25":0.13006240129470825,"26":0.5742905735969543,"27":-0.01877785287797451,"28":0.11244191974401474,"29":-0.5455149412155151,"30":-0.6746223568916321,"31":0.2262643575668335,"32":-0.21301297843456268,"33":-0.5392510294914246,"34":-0.19785331189632416,"35":0.3909861743450165,"36":0.03520272299647331,"37":-0.0823708176612854,"38":-0.277514785528183,"39":-0.22509005665779114}},"7":{"bias":-0.0050121392123401165,"weights":{"0":0.010172991082072258,"1":0.49528926610946655,"2":0.006919595878571272,"3":-0.2080312818288803,"4":-0.00496187899261713,"5":-0.45766937732696533,"6":0.4492780268192291,"7":0.6069303750991821,"8":-0.644855260848999,"9":-0.5363935828208923,"10":0.3434680998325348,"11":-0.431029736995697,"12":-0.06363943964242935,"13":-0.03106319159269333,"14":-0.10959692299365997,"15":-0.2942954897880554,"16":-0.18353356420993805,"17":-0.21350759267807007,"18":0.34246349334716797,"19":0.26705679297447205,"20":0.20788462460041046,"21":-0.44223541021347046,"22":0.18227417767047882,"23":0.5817424058914185,"24":-0.3065144419670105,"25":-0.04104103520512581,"26":0.6121883392333984,"27":-0.4733583331108093,"28":0.052431486546993256,"29":-0.320422500371933,"30":-0.24730822443962097,"31":0.058612216264009476,"32":-0.043647557497024536,"33":-0.6186674237251282,"34":0.2037142664194107,"35":0.14381398260593414,"36":0.8400090932846069,"37":-0.165390282869339,"38":-0.05410695821046829,"39":0.28900086879730225}},"8":{"bias":-0.1137966588139534,"weights":{"0":-0.1654316633939743,"1":0.30879974365234375,"2":0.2021632194519043,"3":-0.01921437308192253,"4":-0.10248605906963348,"5":-0.6067400574684143,"6":0.4890473484992981,"7":0.18283458054065704,"8":-0.21700136363506317,"9":-0.6776548624038696,"10":-0.05910192057490349,"11":0.519366979598999,"12":-0.4470817446708679,"13":0.18274983763694763,"14":0.09078607708215714,"15":0.3830793499946594,"16":-0.08646739274263382,"17":0.11734330654144287,"18":-0.07460355758666992,"19":1.2181742191314697,"20":0.06545837223529816,"21":-0.017072578892111778,"22":0.23909926414489746,"23":0.4786272346973419,"24":0.09744098782539368,"25":-0.14748919010162354,"26":-0.037089839577674866,"27":-0.41910746693611145,"28":0.4471423029899597,"29":0.45366913080215454,"30":0.3223107159137726,"31":-0.13563276827335358,"32":0.17744463682174683,"33":-0.485492467880249,"34":0.17176564037799835,"35":-0.25111961364746094,"36":0.9893050789833069,"37":-0.42710378766059875,"38":0.06197039410471916,"39":0.26774927973747253}},"9":{"bias":0.008552305400371552,"weights":{"0":-0.2714545428752899,"1":-0.38530102372169495,"2":0.1051052138209343,"3":-0.613762378692627,"4":-0.023171354085206985,"5":-0.3516503572463989,"6":-0.020918872207403183,"7":0.406136691570282,"8":-0.3296002745628357,"9":0.023946717381477356,"10":-0.05833404138684273,"11":0.10748547315597534,"12":-0.23530179262161255,"13":0.11831442266702652,"14":-0.17690618336200714,"15":-0.03779979422688484,"16":0.2257102131843567,"17":0.010164700448513031,"18":0.1689252406358719,"19":0.07105868309736252,"20":0.32297345995903015,"21":-0.1646927297115326,"22":0.025358648970723152,"23":-0.25316211581230164,"24":-0.3548855185508728,"25":0.03618102893233299,"26":0.4373028874397278,"27":0.01903497986495495,"28":0.13582450151443481,"29":-0.4958000183105469,"30":0.11617185175418854,"31":0.04616304486989975,"32":-0.3740198314189911,"33":-0.15028299391269684,"34":-0.25194022059440613,"35":-0.27681678533554077,"36":-0.17317788302898407,"37":0.44925442337989807,"38":-0.1790892332792282,"39":-0.3875546157360077}}}],"outputLookup":false,"inputLookup":false,"activation":"tanh","trainOpts":{"iterations":50000,"errorThresh":0.005,"log":true,"logPeriod":1,"learningRate":0.005,"momentum":0.1,"callbackPeriod":1}}