{"sizes":[20,40,50,40,10],"layers":[{"0":{},"1":{},"2":{},"3":{},"4":{},"5":{},"6":{},"7":{},"8":{},"9":{},"10":{},"11":{},"12":{},"13":{},"14":{},"15":{},"16":{},"17":{},"18":{},"19":{}},{"0":{"bias":-0.12382573634386063,"weights":{"0":-0.02226991392672062,"1":-0.1424289494752884,"2":-0.022741058841347694,"3":0.18980251252651215,"4":0.02521468512713909,"5":-0.139151930809021,"6":-0.013123832643032074,"7":-0.017123399302363396,"8":0.08269254118204117,"9":0.15514108538627625,"10":0.09080836176872253,"11":0.06542941182851791,"12":-0.07772015035152435,"13":-0.0653325691819191,"14":-0.18350037932395935,"15":-0.10995881259441376,"16":0.11199439316987991,"17":0.052532859146595,"18":0.01905522495508194,"19":-0.002106222091242671}},"1":{"bias":-0.0853503867983818,"weights":{"0":-0.14823541045188904,"1":-0.06621595472097397,"2":-0.1373215764760971,"3":-0.10915017873048782,"4":-0.051114000380039215,"5":0.17744038999080658,"6":-0.14009983837604523,"7":0.10074839740991592,"8":0.15710297226905823,"9":-0.07740645110607147,"10":-0.14151501655578613,"11":-0.036090925335884094,"12":0.1766178458929062,"13":0.048268672078847885,"14":-0.10336817055940628,"15":-0.14506757259368896,"16":-0.1194651871919632,"17":-0.16347698867321014,"18":-0.008729979395866394,"19":-0.07453136891126633}},"2":{"bias":0.10772061347961426,"weights":{"0":-0.015663590282201767,"1":-0.15985840559005737,"2":0.17776285111904144,"3":-0.14120468497276306,"4":0.15833237767219543,"5":0.197907492518425,"6":-0.18781818449497223,"7":-0.014120231382548809,"8":0.04990610107779503,"9":0.032577767968177795,"10":-0.05377626419067383,"11":0.16299231350421906,"12":0.11415170878171921,"13":0.190212681889534,"14":-0.08413029462099075,"15":0.11245495826005936,"16":0.05965253710746765,"17":0.18238511681556702,"18":-0.04621564596891403,"19":0.011625798419117928}},"3":{"bias":-0.17515254020690918,"weights":{"0":-0.18856976926326752,"1":0.10951400548219681,"2":0.13609465956687927,"3":0.11810239404439926,"4":-0.10199052840471268,"5":-0.05637136101722717,"6":-0.07309020310640335,"7":-0.1898111253976822,"8":0.1290859580039978,"9":-0.10858545452356339,"10":-0.12293760478496552,"11":-0.15554910898208618,"12":-0.12462733685970306,"13":-0.0854215994477272,"14":0.06213362514972687,"15":-0.17272815108299255,"16":-0.12155865132808685,"17":0.16567711532115936,"18":-0.08124768733978271,"19":0.024839326739311218}},"4":{"bias":0.06474345177412033,"weights":{"0":-0.012435744516551495,"1":0.004914349410682917,"2":-0.13353879749774933,"3":-0.029865853488445282,"4":0.1980101317167282,"5":-0.13558489084243774,"6":-0.061355043202638626,"7":0.012449917383491993,"8":0.06091587245464325,"9":0.15567000210285187,"10":-0.03493168205022812,"11":0.04314015433192253,"12":-0.11336901783943176,"13":0.054678481072187424,"14":0.025115804746747017,"15":-0.060859277844429016,"16":-0.17946144938468933,"17":0.19943858683109283,"18":0.07234784215688705,"19":-0.17239391803741455}},"5":{"bias":0.11917270720005035,"weights":{"0":0.1945197880268097,"1":0.18880467116832733,"2":0.19408449530601501,"3":0.0064285253174602985,"4":0.13394132256507874,"5":0.071810781955719,"6":0.18589606881141663,"7":0.1925191879272461,"8":0.009414507076144218,"9":-0.17814858257770538,"10":-0.007338262628763914,"11":0.05025723949074745,"12":-0.002767890691757202,"13":0.07267690449953079,"14":0.09577405452728271,"15":0.016623664647340775,"16":0.06903204321861267,"17":0.09320003539323807,"18":0.17987416684627533,"19":0.17776045203208923}},"6":{"bias":0.04001622647047043,"weights":{"0":0.15866802632808685,"1":0.1572755128145218,"2":0.09342605620622635,"3":0.15178285539150238,"4":-0.074001744389534,"5":0.16920672357082367,"6":0.15888367593288422,"7":-0.016883840784430504,"8":-0.1368178129196167,"9":-0.03905908018350601,"10":0.17931023240089417,"11":0.08698896318674088,"12":0.07511343061923981,"13":0.12365958839654922,"14":0.12451613694429398,"15":-0.16868285834789276,"16":-0.18521827459335327,"17":0.07230611890554428,"18":0.1992824226617813,"19":-0.09346313029527664}},"7":{"bias":0.06173187866806984,"weights":{"0":0.07213443517684937,"1":0.057969994843006134,"2":-0.17514343559741974,"3":0.0829126313328743,"4":0.1696862429380417,"5":0.0027285651303827763,"6":0.060509972274303436,"7":0.1936655044555664,"8":-0.003174550598487258,"9":-0.16880996525287628,"10":-0.026362618431448936,"11":-0.11714915186166763,"12":-0.18445873260498047,"13":-0.11854731291532516,"14":0.045997414737939835,"15":0.001915369532071054,"16":-0.03830130025744438,"17":0.08863519132137299,"18":0.1972488909959793,"19":-0.05173669382929802}},"8":{"bias":0.08944399654865265,"weights":{"0":0.11222260445356369,"1":0.14830559492111206,"2":-0.1374303698539734,"3":0.19962801039218903,"4":0.17234466969966888,"5":0.138945072889328,"6":0.01591796800494194,"7":0.025592224672436714,"8":-0.16409334540367126,"9":0.07718071341514587,"10":0.037409670650959015,"11":-0.05422379449009895,"12":0.014852551743388176,"13":0.08535004407167435,"14":-0.1901824027299881,"15":-0.06638655811548233,"16":-0.10926537960767746,"17":0.0150569137185812,"18":-0.08162722736597061,"19":0.08717050403356552}},"9":{"bias":-0.10627667605876923,"weights":{"0":0.16100485622882843,"1":0.048043813556432724,"2":0.12393476814031601,"3":-0.016173817217350006,"4":0.1295972764492035,"5":-0.004392568953335285,"6":-0.0988447442650795,"7":0.16802722215652466,"8":-0.144008070230484,"9":0.16467079520225525,"10":-0.02509125880897045,"11":-0.13728104531764984,"12":0.09901361912488937,"13":-0.12743547558784485,"14":-0.1875249743461609,"15":0.048571933060884476,"16":-0.04438234865665436,"17":0.042085688561201096,"18":0.09929192066192627,"19":-0.09174402803182602}},"10":{"bias":0.08357962965965271,"weights":{"0":-0.10158860683441162,"1":-0.11450480669736862,"2":0.07621078938245773,"3":-0.045532818883657455,"4":0.017917750403285027,"5":0.024356121197342873,"6":0.17912918329238892,"7":-0.08488138765096664,"8":-0.05422808602452278,"9":0.05842282623052597,"10":0.10801348090171814,"11":0.04256853461265564,"12":-0.1669217050075531,"13":-0.17734715342521667,"14":-0.060609120875597,"15":0.1707531362771988,"16":-0.17501460015773773,"17":-0.1922469586133957,"18":-0.1012275367975235,"19":0.0016656526131555438}},"11":{"bias":-0.19668307900428772,"weights":{"0":0.1399538516998291,"1":-0.1989496648311615,"2":-0.1326334923505783,"3":0.09475606679916382,"4":-0.10644810646772385,"5":-0.15604862570762634,"6":-0.01840801350772381,"7":0.17317382991313934,"8":-0.05072689801454544,"9":-0.1816573143005371,"10":0.19652457535266876,"11":0.14222776889801025,"12":-0.04556930437684059,"13":-0.034264665096998215,"14":0.1688593327999115,"15":-0.11982262134552002,"16":-0.020931800827383995,"17":-0.14919762313365936,"18":-0.14428970217704773,"19":0.006059016566723585}},"12":{"bias":-0.09838226437568665,"weights":{"0":-0.003969404846429825,"1":0.018721312284469604,"2":-0.14976206421852112,"3":0.05632714927196503,"4":0.08739391714334488,"5":-0.005528995301574469,"6":0.046921584755182266,"7":0.07649856060743332,"8":-0.1044267937541008,"9":-0.11072173714637756,"10":-0.04406259208917618,"11":0.018185310065746307,"12":0.011034100316464901,"13":-0.13000541925430298,"14":0.12226112186908722,"15":0.19831648468971252,"16":0.13394881784915924,"17":0.03233679383993149,"18":-0.15458030998706818,"19":-0.056155044585466385}},"13":{"bias":0.07828781753778458,"weights":{"0":-0.16401134431362152,"1":-0.1616034209728241,"2":0.02273580990731716,"3":-0.14677569270133972,"4":0.04578837752342224,"5":0.10269851237535477,"6":0.12259413301944733,"7":-0.1777077317237854,"8":-0.12225841730833054,"9":-0.19743366539478302,"10":0.001996003556996584,"11":0.09781448543071747,"12":0.05425592139363289,"13":-0.16762419044971466,"14":-0.09680484235286713,"15":-0.02901505120098591,"16":0.07766588032245636,"17":-0.172648623585701,"18":-0.16482366621494293,"19":-0.033315401524305344}},"14":{"bias":0.05759081244468689,"weights":{"0":-0.14156650006771088,"1":-0.05078141391277313,"2":-0.11728374660015106,"3":0.13118962943553925,"4":0.17766372859477997,"5":-0.05565330386161804,"6":0.06799311190843582,"7":-0.062234025448560715,"8":0.1475418210029602,"9":-0.0983707532286644,"10":-0.14456552267074585,"11":-0.18246975541114807,"12":-0.0535498782992363,"13":-0.04069950059056282,"14":-0.08838535845279694,"15":-0.07932059466838837,"16":0.01622125878930092,"17":-0.13815808296203613,"18":-0.05997360870242119,"19":-0.007465492468327284}},"15":{"bias":-0.18898895382881165,"weights":{"0":-0.04119723290205002,"1":0.08094276487827301,"2":0.004887286573648453,"3":0.05140407755970955,"4":-0.025314129889011383,"5":0.08971427381038666,"6":-0.046346209943294525,"7":0.09307672083377838,"8":-0.07037067413330078,"9":-0.19928018748760223,"10":0.1741592139005661,"11":0.08534476161003113,"12":0.17873218655586243,"13":-0.19695933163166046,"14":0.09282705187797546,"15":0.14127938449382782,"16":0.04042651504278183,"17":0.0057831634767353535,"18":0.04107281193137169,"19":-0.05990525335073471}},"16":{"bias":-0.15648141503334045,"weights":{"0":0.010172635316848755,"1":0.06881169229745865,"2":0.04810762777924538,"3":0.18905360996723175,"4":-0.03497816249728203,"5":0.17601731419563293,"6":0.0771685242652893,"7":0.09804154187440872,"8":-0.07009071111679077,"9":-0.19615161418914795,"10":0.10857275873422623,"11":-0.10523935407400131,"12":-0.07018990814685822,"13":0.13560348749160767,"14":-0.12942752242088318,"15":-0.12216358631849289,"16":0.058608610183000565,"17":0.012327768839895725,"18":-0.14048315584659576,"19":0.10473478585481644}},"17":{"bias":-0.18848411738872528,"weights":{"0":-0.10530981421470642,"1":0.1326570361852646,"2":-0.13553573191165924,"3":0.14227816462516785,"4":-0.15825335681438446,"5":0.16516657173633575,"6":0.020344002172350883,"7":0.06534058600664139,"8":-0.177154541015625,"9":-0.14185157418251038,"10":0.02108350582420826,"11":-0.19568173587322235,"12":0.15645278990268707,"13":0.14042358100414276,"14":-0.172483891248703,"15":0.15901058912277222,"16":0.16568678617477417,"17":-0.13449975848197937,"18":0.09081336855888367,"19":0.16081473231315613}},"18":{"bias":-0.11761625111103058,"weights":{"0":-0.11528328061103821,"1":0.08965588361024857,"2":-0.022970089688897133,"3":0.08086048066616058,"4":-0.111874058842659,"5":0.18347682058811188,"6":0.0039772214367985725,"7":0.03953411057591438,"8":-0.033679891377687454,"9":0.09818969666957855,"10":0.0867866799235344,"11":-0.010211929678916931,"12":0.030850708484649658,"13":0.10136100649833679,"14":-0.19373804330825806,"15":0.14889824390411377,"16":0.17841143906116486,"17":0.12101247161626816,"18":-0.19778117537498474,"19":0.028781970962882042}},"19":{"bias":-0.03385546803474426,"weights":{"0":-0.11557509005069733,"1":0.16215959191322327,"2":-0.12998947501182556,"3":0.15847140550613403,"4":-0.054400667548179626,"5":-0.18839038908481598,"6":-0.13833649456501007,"7":-0.15612074732780457,"8":0.17671585083007812,"9":0.19841763377189636,"10":0.11545664072036743,"11":0.06886282563209534,"12":0.1879567950963974,"13":-0.08698711544275284,"14":0.14964552223682404,"15":-0.017446639016270638,"16":-0.10443970561027527,"17":0.08616476505994797,"18":0.06930939853191376,"19":0.07884029299020767}},"20":{"bias":0.03243974223732948,"weights":{"0":0.1984545886516571,"1":0.046080268919467926,"2":0.062421806156635284,"3":0.06697346270084381,"4":0.13513188064098358,"5":-0.0047394889406859875,"6":-0.08934170752763748,"7":0.010537102818489075,"8":0.191218301653862,"9":-0.14636287093162537,"10":-0.025025436654686928,"11":0.16863763332366943,"12":0.15269677340984344,"13":-0.15010304749011993,"14":-0.0008510845946148038,"15":0.08571527898311615,"16":-0.113123320043087,"17":-0.1564888060092926,"18":0.0032152498606592417,"19":-0.06713885813951492}},"21":{"bias":0.009293785318732262,"weights":{"0":-0.157631978392601,"1":0.09104044735431671,"2":-0.006330681033432484,"3":-0.19292572140693665,"4":0.007802619133144617,"5":0.18336452543735504,"6":-0.06197025999426842,"7":0.07207021117210388,"8":0.042329419404268265,"9":0.19690881669521332,"10":-0.1826397031545639,"11":-0.15354295074939728,"12":0.05064120143651962,"13":-0.02648516371846199,"14":-0.12271559983491898,"15":-0.06208436191082001,"16":0.13659802079200745,"17":0.09002169221639633,"18":-0.1960604041814804,"19":-0.1908663660287857}},"22":{"bias":0.12899212539196014,"weights":{"0":0.14153927564620972,"1":0.03737010434269905,"2":-0.1800413578748703,"3":0.07066363841295242,"4":0.008514241315424442,"5":0.09433459490537643,"6":-0.028781387954950333,"7":-0.12869492173194885,"8":-0.07973448187112808,"9":-0.03197818994522095,"10":-0.08875881880521774,"11":-0.012784295715391636,"12":-0.02387259341776371,"13":0.16978611052036285,"14":-0.05006260424852371,"15":-0.15181973576545715,"16":0.16427789628505707,"17":0.11527508497238159,"18":0.11332900077104568,"19":0.019920680671930313}},"23":{"bias":0.10679688304662704,"weights":{"0":-0.1097874715924263,"1":0.025593819096684456,"2":0.16284483671188354,"3":-0.12164924293756485,"4":0.00497892452403903,"5":-0.1682109832763672,"6":-0.19712865352630615,"7":-0.057757992297410965,"8":0.0820031464099884,"9":0.006947286892682314,"10":0.02860359475016594,"11":0.05774341896176338,"12":-0.14356370270252228,"13":0.014532465487718582,"14":-0.11298760026693344,"15":0.18023811280727386,"16":-0.16716833412647247,"17":-0.17657789587974548,"18":-0.0020822309888899326,"19":-0.09343084692955017}},"24":{"bias":-0.1116788312792778,"weights":{"0":-0.0375494547188282,"1":-0.1383679360151291,"2":-0.19853773713111877,"3":0.12418929487466812,"4":-0.18368494510650635,"5":-0.192470520734787,"6":0.1116480603814125,"7":-0.17744970321655273,"8":-0.15616725385189056,"9":-0.09681278467178345,"10":0.17088158428668976,"11":0.062105655670166016,"12":0.013055416755378246,"13":0.02072170376777649,"14":0.1918046921491623,"15":0.1521938592195511,"16":0.07022121548652649,"17":-0.10865123569965363,"18":0.028152134269475937,"19":0.1316126585006714}},"25":{"bias":-0.04170617088675499,"weights":{"0":-0.01474340446293354,"1":-0.03796045482158661,"2":-0.08911514282226562,"3":-0.03874042630195618,"4":0.08627457916736603,"5":0.1427239179611206,"6":0.047197893261909485,"7":0.1809188276529312,"8":0.09398993104696274,"9":0.0295203048735857,"10":-0.07539484649896622,"11":0.02706035226583481,"12":0.017437001690268517,"13":-0.16885553300380707,"14":0.1456783562898636,"15":-0.12118332833051682,"16":-0.1321505308151245,"17":0.152531698346138,"18":-0.015249860472977161,"19":0.009652160108089447}},"26":{"bias":0.14318062365055084,"weights":{"0":-0.019102443009614944,"1":0.008798378519713879,"2":-0.1782517284154892,"3":0.10451669245958328,"4":-0.09331172704696655,"5":0.03497469052672386,"6":-0.10358192026615143,"7":0.07902678102254868,"8":-0.15351347625255585,"9":-0.0456145778298378,"10":-0.1136588305234909,"11":0.1578669548034668,"12":0.06853731721639633,"13":-0.19398266077041626,"14":0.19794288277626038,"15":0.09006854146718979,"16":-0.014103901572525501,"17":-0.14502470195293427,"18":-0.1578136682510376,"19":-0.18538136780261993}},"27":{"bias":-0.035137079656124115,"weights":{"0":0.18845617771148682,"1":0.028934380039572716,"2":-0.17623218894004822,"3":0.04408148303627968,"4":-0.1110764592885971,"5":-0.14901664853096008,"6":0.028360601514577866,"7":-0.011519940569996834,"8":0.03807941824197769,"9":0.11103891581296921,"10":0.15491990745067596,"11":-0.1944391131401062,"12":-0.14718371629714966,"13":-0.12446065247058868,"14":0.1954485923051834,"15":-0.1347496658563614,"16":0.0759899839758873,"17":-0.08207384496927261,"18":0.17713353037834167,"19":-0.08339725434780121}},"28":{"bias":-0.04356125742197037,"weights":{"0":0.08892600983381271,"1":0.025107871741056442,"2":-0.17543844878673553,"3":0.19302518665790558,"4":0.19666995108127594,"5":-0.011983206495642662,"6":-0.02379639632999897,"7":0.02398107945919037,"8":-0.197367861866951,"9":0.10965841263532639,"10":-0.1870301216840744,"11":0.019710974767804146,"12":0.17980407178401947,"13":-0.1748589724302292,"14":-0.02890831045806408,"15":0.07988704741001129,"16":0.1279856413602829,"17":-0.08655331283807755,"18":-0.15029668807983398,"19":-0.11307576298713684}},"29":{"bias":-0.03699442371726036,"weights":{"0":-0.04944266006350517,"1":-0.005899103358387947,"2":0.13898353278636932,"3":-0.09372660517692566,"4":-0.1273101270198822,"5":0.1619761884212494,"6":0.00398059980943799,"7":0.009454850107431412,"8":0.011269689537584782,"9":-0.1684950292110443,"10":-0.10382285714149475,"11":-0.003571329638361931,"12":0.054624415934085846,"13":-0.05166357755661011,"14":-0.1832490712404251,"15":-0.056199993938207626,"16":0.14317189157009125,"17":-0.12890766561031342,"18":0.1236407533288002,"19":-0.043755825608968735}},"30":{"bias":0.11001278460025787,"weights":{"0":0.08011414855718613,"1":-0.0027249425183981657,"2":0.1928819864988327,"3":-0.17818734049797058,"4":0.17227531969547272,"5":-0.058488935232162476,"6":-0.01769964210689068,"7":-0.03669731318950653,"8":0.17808237671852112,"9":-0.09555522352457047,"10":-0.16901160776615143,"11":-0.1280106008052826,"12":0.03494339436292648,"13":0.006329106166958809,"14":0.0029881219379603863,"15":-0.16421957314014435,"16":-0.022753052413463593,"17":0.1548428237438202,"18":-0.008404161781072617,"19":0.1480063498020172}},"31":{"bias":-0.1516089141368866,"weights":{"0":0.0760621502995491,"1":-0.07755936682224274,"2":0.16077347099781036,"3":0.09639434516429901,"4":0.11460018157958984,"5":-0.08850712329149246,"6":-0.05962131917476654,"7":0.19479402899742126,"8":0.17171610891819,"9":-0.18752603232860565,"10":-0.14499758183956146,"11":0.0034228807780891657,"12":-0.06021690368652344,"13":-0.032505813986063004,"14":0.18691010773181915,"15":-0.13828590512275696,"16":0.12403419613838196,"17":-0.19045692682266235,"18":-0.05737706273794174,"19":-0.005707068834453821}},"32":{"bias":-0.18581724166870117,"weights":{"0":0.07223574072122574,"1":-0.043954625725746155,"2":-0.04002564400434494,"3":-0.0028737704269587994,"4":0.1364058256149292,"5":-0.15340183675289154,"6":-0.11496612429618835,"7":0.011065858416259289,"8":0.15300948917865753,"9":-0.0541042797267437,"10":0.1664671152830124,"11":-0.006560166832059622,"12":0.058460865169763565,"13":-0.0027652953285723925,"14":-0.11993643641471863,"15":0.06458930671215057,"16":0.08142062276601791,"17":-0.1439020037651062,"18":-0.12283438444137573,"19":0.13053223490715027}},"33":{"bias":0.03160613030195236,"weights":{"0":0.07977243512868881,"1":-0.015143788419663906,"2":0.1248011514544487,"3":-0.0037430922966450453,"4":0.15740545094013214,"5":-0.048119258135557175,"6":0.0897224023938179,"7":0.010392108000814915,"8":-0.1951133906841278,"9":-0.1842046082019806,"10":0.17235338687896729,"11":0.11731408536434174,"12":0.19100680947303772,"13":-0.0704512819647789,"14":-0.1546114832162857,"15":-0.041212622076272964,"16":-0.015577574260532856,"17":0.07763362675905228,"18":-0.12355227768421173,"19":0.10463081300258636}},"34":{"bias":-0.06905721873044968,"weights":{"0":-0.13470779359340668,"1":-0.11763356626033783,"2":0.0903848260641098,"3":0.16059790551662445,"4":-0.14479169249534607,"5":0.13256777822971344,"6":-0.1346147358417511,"7":0.04071994498372078,"8":-0.020676612854003906,"9":0.19036902487277985,"10":-0.047117143869400024,"11":-0.12208905816078186,"12":0.17436300218105316,"13":0.09743881225585938,"14":-0.17179177701473236,"15":-0.07837200164794922,"16":0.012297691777348518,"17":-0.1678624004125595,"18":0.15432123839855194,"19":0.1294972002506256}},"35":{"bias":0.1414877325296402,"weights":{"0":-0.07977144420146942,"1":-0.13887566328048706,"2":-0.10871613770723343,"3":-0.10657203942537308,"4":-0.03796328976750374,"5":0.04502013698220253,"6":-0.13251328468322754,"7":0.07127170264720917,"8":0.09645265340805054,"9":-0.09669524431228638,"10":0.17462973296642303,"11":-0.0070824031718075275,"12":0.1691238284111023,"13":-0.0304563045501709,"14":-0.1699782758951187,"15":-0.07854916155338287,"16":-0.02790619619190693,"17":-0.03608986362814903,"18":0.15207085013389587,"19":-0.13955165445804596}},"36":{"bias":0.11521218717098236,"weights":{"0":0.07733036577701569,"1":0.10767759382724762,"2":0.01548879873007536,"3":0.09251243621110916,"4":0.14993605017662048,"5":-0.162006676197052,"6":-0.08140558004379272,"7":-0.06954509019851685,"8":0.19269748032093048,"9":0.15531371533870697,"10":-0.10667567700147629,"11":0.12970635294914246,"12":-0.14887742698192596,"13":0.13415543735027313,"14":0.05357613414525986,"15":0.0789904072880745,"16":0.10392844676971436,"17":-0.15109209716320038,"18":-0.02876984141767025,"19":-0.17363093793392181}},"37":{"bias":-0.18811990320682526,"weights":{"0":0.013461960479617119,"1":0.09554394334554672,"2":-0.11299658566713333,"3":0.07939494401216507,"4":-0.09535261243581772,"5":0.1653316169977188,"6":-0.043818116188049316,"7":-0.19229725003242493,"8":0.18033860623836517,"9":0.18469038605690002,"10":-0.16702672839164734,"11":-0.07680758833885193,"12":0.17541523277759552,"13":-0.08646901696920395,"14":0.044386181980371475,"15":-0.012314265593886375,"16":0.003337784204632044,"17":0.1124938577413559,"18":0.1712854951620102,"19":-0.02116330713033676}},"38":{"bias":-0.0434776246547699,"weights":{"0":0.15477192401885986,"1":-0.11385878920555115,"2":0.04770475625991821,"3":0.0008003711700439453,"4":-0.18451671302318573,"5":0.02823754958808422,"6":-0.021191800013184547,"7":-0.06563645601272583,"8":-0.008583423681557178,"9":0.15059103071689606,"10":0.03861689195036888,"11":-0.016836965456604958,"12":-0.16804467141628265,"13":-0.0069780535995960236,"14":-0.16611908376216888,"15":-0.08202895522117615,"16":-0.0940740704536438,"17":0.05121733248233795,"18":-0.06882330030202866,"19":-0.08665335923433304}},"39":{"bias":0.019134948030114174,"weights":{"0":0.029323872178792953,"1":-0.06750422716140747,"2":-0.13312077522277832,"3":-0.15143755078315735,"4":0.05903937295079231,"5":-0.10560659319162369,"6":0.0524568073451519,"7":0.1352854073047638,"8":-0.04551590979099274,"9":-0.10368376970291138,"10":-0.010671889409422874,"11":0.0247833002358675,"12":0.06353749334812164,"13":-0.0879274308681488,"14":0.06902436912059784,"15":-0.15901310741901398,"16":0.1589651107788086,"17":0.13137884438037872,"18":0.11947787553071976,"19":0.013375976122915745}}},{"0":{"bias":-0.11976674199104309,"weights":{"0":0.05856776610016823,"1":0.07900985330343246,"2":-0.10558532923460007,"3":0.12666280567646027,"4":0.06292715668678284,"5":-0.08847827464342117,"6":0.18896323442459106,"7":-0.05591591075062752,"8":0.09062772989273071,"9":0.1878972053527832,"10":0.2014276534318924,"11":-0.14960439503192902,"12":0.0504324808716774,"13":-0.11906978487968445,"14":0.12233200669288635,"15":-0.18922379612922668,"16":0.1404518485069275,"17":0.06637609750032425,"18":-0.07603884488344193,"19":0.1213875561952591,"20":-0.17855660617351532,"21":0.013686032965779305,"22":-0.11191806942224503,"23":-0.04434601590037346,"24":0.09934873878955841,"25":0.08923347294330597,"26":-0.020825520157814026,"27":-0.19379068911075592,"28":0.1652587503194809,"29":-0.18529710173606873,"30":-0.052424632012844086,"31":0.11855092644691467,"32":0.19852936267852783,"33":0.19706428050994873,"34":0.07260580360889435,"35":0.060820985585451126,"36":-0.15443627536296844,"37":-0.17721928656101227,"38":-0.14016515016555786,"39":0.09077023714780807}},"1":{"bias":-0.192607581615448,"weights":{"0":-0.11201494932174683,"1":0.08528351783752441,"2":0.19278721511363983,"3":0.006257054395973682,"4":-0.15422463417053223,"5":-0.09089050441980362,"6":0.18469202518463135,"7":-0.04925980046391487,"8":-0.0814398005604744,"9":-0.0008872146718204021,"10":-0.07618275284767151,"11":-0.1288425326347351,"12":-0.07399620115756989,"13":0.10517009347677231,"14":0.08689533919095993,"15":0.14877332746982574,"16":0.07162506133317947,"17":-0.11486975848674774,"18":-0.02590695582330227,"19":-0.02749674580991268,"20":-0.02746567502617836,"21":-0.03666786104440689,"22":0.1474372148513794,"23":-0.11940069496631622,"24":-0.15133827924728394,"25":0.14640149474143982,"26":-0.07562409341335297,"27":0.19514639675617218,"28":-0.029166586697101593,"29":0.10178208351135254,"30":0.17573601007461548,"31":-0.1745762974023819,"32":-0.14373554289340973,"33":-0.043250810354948044,"34":0.007991927675902843,"35":0.0010473785223439336,"36":-0.07061068713665009,"37":0.1956433206796646,"38":-0.12119497358798981,"39":0.18841147422790527}},"2":{"bias":-0.07924971729516983,"weights":{"0":-0.14555959403514862,"1":0.13132308423519135,"2":0.10853557288646698,"3":0.11313993483781815,"4":0.03838792070746422,"5":0.059046197682619095,"6":0.011303309351205826,"7":-0.11057747900485992,"8":0.01871066354215145,"9":0.1479758620262146,"10":-0.17454470694065094,"11":0.01861949823796749,"12":-0.0894320160150528,"13":-0.01953744888305664,"14":0.1350235491991043,"15":-0.18699543178081512,"16":-0.006240691523998976,"17":0.19898588955402374,"18":-0.08402615040540695,"19":-0.15452143549919128,"20":0.189105823636055,"21":-0.19154973328113556,"22":-0.08311334997415543,"23":0.1718195229768753,"24":-0.13644610345363617,"25":-0.11651479452848434,"26":-0.07877815514802933,"27":-0.15522557497024536,"28":-0.09498748183250427,"29":0.029146451503038406,"30":0.06047193706035614,"31":-0.1956728845834732,"32":0.0735466256737709,"33":0.16577929258346558,"34":-0.13485604524612427,"35":-0.08562906086444855,"36":-0.10602623969316483,"37":0.009631849825382233,"38":0.13776712119579315,"39":0.08549261838197708}},"3":{"bias":-0.165257528424263,"weights":{"0":-0.00003988658500020392,"1":0.1817110776901245,"2":-0.10748228430747986,"3":0.12001848965883255,"4":-0.19768886268138885,"5":-0.02690528705716133,"6":0.024973224848508835,"7":-0.07750318944454193,"8":0.05815888196229935,"9":0.1652262955904007,"10":-0.18160293996334076,"11":0.14102572202682495,"12":-0.04243432357907295,"13":0.09343545138835907,"14":-0.1997101902961731,"15":-0.18370001018047333,"16":0.19115811586380005,"17":0.17132173478603363,"18":0.11415740102529526,"19":-0.15428148210048676,"20":-0.14210860431194305,"21":0.13481684029102325,"22":0.04607553780078888,"23":-0.014853072352707386,"24":0.1372959166765213,"25":-0.009076843038201332,"26":-0.041292786598205566,"27":-0.06592866778373718,"28":-0.1554623246192932,"29":-0.19092103838920593,"30":0.02001473493874073,"31":-0.019346974790096283,"32":0.1271972358226776,"33":-0.04920998215675354,"34":0.07399681210517883,"35":-0.014883920550346375,"36":-0.02530888095498085,"37":0.17207226157188416,"38":0.12869581580162048,"39":-0.08679017424583435}},"4":{"bias":0.11370250582695007,"weights":{"0":0.17338192462921143,"1":-0.06937859952449799,"2":0.05153049901127815,"3":-0.15782077610492706,"4":0.14241991937160492,"5":0.09977235645055771,"6":0.1296243667602539,"7":0.1641777902841568,"8":0.08451182395219803,"9":0.01545809768140316,"10":0.06644454598426819,"11":0.1469038426876068,"12":-0.002617038320749998,"13":0.16694124042987823,"14":-0.01349360216408968,"15":0.17278756201267242,"16":0.09721267223358154,"17":-0.06170843914151192,"18":-0.12462310492992401,"19":0.04489707201719284,"20":0.13983693718910217,"21":-0.0746479257941246,"22":0.06205210089683533,"23":0.13825692236423492,"24":0.08805660903453827,"25":-0.1987941712141037,"26":-0.07379152625799179,"27":-0.028320766985416412,"28":0.17593690752983093,"29":-0.025879401713609695,"30":-0.16543419659137726,"31":0.06687787920236588,"32":-0.09459774196147919,"33":-0.12375815957784653,"34":0.010148350149393082,"35":0.08617107570171356,"36":-0.04582503065466881,"37":-0.07144556939601898,"38":-0.017708702012896538,"39":0.019113313406705856}},"5":{"bias":0.08247717469930649,"weights":{"0":0.11119621247053146,"1":-0.1427241414785385,"2":0.016478663310408592,"3":-0.043227288872003555,"4":-0.01276393048465252,"5":-0.0072842068038880825,"6":0.19604907929897308,"7":-0.12652400135993958,"8":-0.020773639902472496,"9":0.13173922896385193,"10":-0.022244691848754883,"11":0.049800630658864975,"12":-0.12483089417219162,"13":-0.11817654967308044,"14":0.024660933762788773,"15":-0.14097732305526733,"16":-0.1455269604921341,"17":0.16798816621303558,"18":0.16749662160873413,"19":-0.16351741552352905,"20":0.0728055089712143,"21":0.17762595415115356,"22":0.1748816967010498,"23":0.019473141059279442,"24":0.19842824339866638,"25":0.05137396603822708,"26":-0.0051018912345170975,"27":0.17135818302631378,"28":0.05127335712313652,"29":0.08530210703611374,"30":-0.09990599751472473,"31":0.11948761343955994,"32":0.14016743004322052,"33":0.11880914121866226,"34":-0.06888861954212189,"35":-0.003919222857803106,"36":-0.028432374820113182,"37":0.07680004090070724,"38":-0.1545356661081314,"39":0.16485241055488586}},"6":{"bias":0.11497575789690018,"weights":{"0":0.1318255066871643,"1":0.03703859820961952,"2":0.11512114107608795,"3":0.14436745643615723,"4":-0.01894007809460163,"5":-0.016045093536376953,"6":-0.12884730100631714,"7":0.06621786206960678,"8":-0.10219739377498627,"9":-0.1713482141494751,"10":0.014695998281240463,"11":-0.057776011526584625,"12":0.11152609437704086,"13":0.17263460159301758,"14":-0.060382336378097534,"15":0.1696515530347824,"16":-0.022921495139598846,"17":-0.1195560097694397,"18":0.1021975725889206,"19":0.090500608086586,"20":-0.10625911504030228,"21":0.007574893534183502,"22":0.20093034207820892,"23":-0.030090196058154106,"24":-0.1173010841012001,"25":0.06441019475460052,"26":0.06495698541402817,"27":0.1681063026189804,"28":-0.03295106068253517,"29":-0.1668657511472702,"30":0.15713609755039215,"31":-0.16663238406181335,"32":-0.11234257370233536,"33":0.15162421762943268,"34":-0.06559528410434723,"35":-0.10957863181829453,"36":0.19049085676670074,"37":0.16484452784061432,"38":0.17436887323856354,"39":-0.10357196629047394}},"7":{"bias":-0.017562463879585266,"weights":{"0":0.0450558103621006,"1":0.1652943193912506,"2":-0.042785756289958954,"3":-0.013081902638077736,"4":-0.00352698122151196,"5":-0.1805214136838913,"6":-0.17076526582241058,"7":0.15093956887722015,"8":0.05636906251311302,"9":0.12635867297649384,"10":0.07238032668828964,"11":-0.1689842790365219,"12":0.09837423264980316,"13":-0.15801288187503815,"14":-0.026439616456627846,"15":0.14172758162021637,"16":0.04982805624604225,"17":-0.16407762467861176,"18":-0.15883664786815643,"19":-0.10891326516866684,"20":0.03248026967048645,"21":0.024252144619822502,"22":-0.06249506026506424,"23":-0.173002690076828,"24":0.02271631732583046,"25":0.16748154163360596,"26":0.11077194660902023,"27":0.03500247001647949,"28":-0.16228456795215607,"29":-0.06124301254749298,"30":-0.11749701201915741,"31":0.009080694057047367,"32":-0.0714380219578743,"33":0.10218354314565659,"34":0.12207262217998505,"35":-0.10480984300374985,"36":0.08527490496635437,"37":-0.023937810212373734,"38":-0.14276915788650513,"39":0.11769875884056091}},"8":{"bias":-0.12226045876741409,"weights":{"0":0.020896777510643005,"1":0.09457619488239288,"2":0.13476277887821198,"3":0.14739364385604858,"4":0.025116458535194397,"5":0.12645883858203888,"6":-0.0920635461807251,"7":0.040101006627082825,"8":0.06671035289764404,"9":0.011859136633574963,"10":-0.17032064497470856,"11":0.01848023198544979,"12":0.06636522710323334,"13":-0.1734723299741745,"14":-0.16485005617141724,"15":0.06283523887395859,"16":-0.14927275478839874,"17":-0.121289923787117,"18":0.06589987874031067,"19":-0.04948889836668968,"20":-0.027254166081547737,"21":-0.03399678319692612,"22":-0.10602530092000961,"23":0.1986265778541565,"24":-0.012607239186763763,"25":-0.02072536014020443,"26":-0.02029523253440857,"27":-0.07013747096061707,"28":0.0048847440630197525,"29":0.05963890627026558,"30":0.0695546492934227,"31":0.11063336580991745,"32":0.19850680232048035,"33":0.019789909943938255,"34":0.1050536185503006,"35":-0.10372236371040344,"36":0.11314355581998825,"37":0.004879916552454233,"38":-0.06443686783313751,"39":-0.026343148201704025}},"9":{"bias":-0.13838709890842438,"weights":{"0":-0.05122586712241173,"1":0.1347436159849167,"2":0.05072938650846481,"3":0.19860714673995972,"4":0.1999977082014084,"5":-0.11828739941120148,"6":-0.12017767876386642,"7":0.14428581297397614,"8":0.12254460901021957,"9":-0.010496867820620537,"10":0.00250262557528913,"11":0.03603043779730797,"12":0.09864937514066696,"13":0.042011987417936325,"14":-0.16336749494075775,"15":-0.16576480865478516,"16":0.10180794447660446,"17":-0.13154630362987518,"18":-0.018046479672193527,"19":-0.05441241338849068,"20":-0.1874236911535263,"21":0.17177113890647888,"22":0.1999756246805191,"23":0.12862145900726318,"24":0.19970130920410156,"25":0.0022107192780822515,"26":0.04373835772275925,"27":-0.1327577382326126,"28":-0.023592624813318253,"29":-0.09324762225151062,"30":0.06002417206764221,"31":-0.0013797467108815908,"32":-0.09328455477952957,"33":-0.1199781522154808,"34":0.1099320724606514,"35":0.1466444581747055,"36":0.12383268028497696,"37":-0.16139009594917297,"38":0.17387548089027405,"39":0.19384349882602692}},"10":{"bias":0.11043110489845276,"weights":{"0":0.07823794335126877,"1":-0.13947521150112152,"2":0.1908053755760193,"3":0.1488138884305954,"4":0.14981429278850555,"5":-0.13907800614833832,"6":0.09340029209852219,"7":-0.09955927729606628,"8":-0.02760072611272335,"9":-0.0407637320458889,"10":-0.14860177040100098,"11":0.09295538812875748,"12":0.10443732887506485,"13":-0.10264863818883896,"14":-0.03186085820198059,"15":-0.024831973016262054,"16":0.10600745677947998,"17":-0.04557942971587181,"18":-0.02175341360270977,"19":-0.14786072075366974,"20":-0.13431529700756073,"21":-0.1717168241739273,"22":-0.15841633081436157,"23":0.05283579230308533,"24":0.11773484200239182,"25":0.09821495413780212,"26":0.08419379591941833,"27":0.04220309108495712,"28":0.127053901553154,"29":-0.11882582306861877,"30":0.06350411474704742,"31":0.04863574728369713,"32":0.027399536222219467,"33":-0.14577654004096985,"34":0.12229384481906891,"35":0.12238691747188568,"36":-0.17354020476341248,"37":-0.17640702426433563,"38":-0.19365189969539642,"39":0.06597477942705154}},"11":{"bias":0.1828332543373108,"weights":{"0":0.10301222652196884,"1":-0.08881986141204834,"2":-0.0328785665333271,"3":0.0030376797076314688,"4":0.10513906925916672,"5":0.04167012870311737,"6":0.08506876230239868,"7":-0.019934289157390594,"8":0.1961672306060791,"9":0.00642464030534029,"10":0.11571955680847168,"11":-0.09039802104234695,"12":-0.11101888120174408,"13":-0.10803107172250748,"14":0.12717096507549286,"15":-0.09750717878341675,"16":0.1159081682562828,"17":-0.02872912399470806,"18":-0.17710889875888824,"19":0.05682840198278427,"20":0.09037624299526215,"21":0.1119489073753357,"22":-0.03986377641558647,"23":0.19803063571453094,"24":-0.16985565423965454,"25":0.11950811743736267,"26":-0.055313825607299805,"27":-0.176070436835289,"28":-0.15656012296676636,"29":0.13926677405834198,"30":-0.10282384604215622,"31":-0.1669733226299286,"32":-0.1784113645553589,"33":0.19431492686271667,"34":-0.11167553812265396,"35":0.05606899410486221,"36":0.10783959180116653,"37":0.006818448659032583,"38":-0.0546024814248085,"39":0.01909583993256092}},"12":{"bias":0.047521404922008514,"weights":{"0":0.17192688584327698,"1":-0.14313744008541107,"2":-0.1651945859193802,"3":0.12571008503437042,"4":-0.08293257653713226,"5":0.15881644189357758,"6":-0.16514699161052704,"7":-0.16052328050136566,"8":-0.19576159119606018,"9":-0.14670658111572266,"10":-0.09656129777431488,"11":-0.06855426728725433,"12":0.18187758326530457,"13":-0.181369349360466,"14":0.1250000149011612,"15":0.189276322722435,"16":0.023950256407260895,"17":0.09454327076673508,"18":0.04382917284965515,"19":0.07019452750682831,"20":0.03657477721571922,"21":-0.10610426217317581,"22":-0.19489234685897827,"23":0.15895187854766846,"24":0.007404438219964504,"25":0.11493553221225739,"26":-0.041525520384311676,"27":0.10999269783496857,"28":0.16394703090190887,"29":0.13671927154064178,"30":0.1828662008047104,"31":0.03743733465671539,"32":-0.11532725393772125,"33":0.1229049488902092,"34":0.08403266221284866,"35":0.02566371113061905,"36":-0.07928215712308884,"37":0.04533122107386589,"38":-0.1406416893005371,"39":-0.0744093582034111}},"13":{"bias":0.13257211446762085,"weights":{"0":-0.04294666275382042,"1":0.04270429164171219,"2":-0.0239334087818861,"3":-0.09705030173063278,"4":-0.1590936779975891,"5":0.11819635331630707,"6":-0.06658082455396652,"7":-0.1355052888393402,"8":0.0757540762424469,"9":-0.11951576173305511,"10":-0.12726126611232758,"11":0.009355053305625916,"12":0.1442352682352066,"13":0.009393920190632343,"14":-0.043997615575790405,"15":-0.05890195816755295,"16":0.1219802051782608,"17":-0.07619769871234894,"18":0.16210268437862396,"19":0.18437552452087402,"20":-0.14341862499713898,"21":-0.05880334973335266,"22":-0.04857558012008667,"23":-0.010889354161918163,"24":0.07599261403083801,"25":-0.11092440783977509,"26":0.0068722371943295,"27":-0.020020462572574615,"28":0.09291396290063858,"29":0.057066045701503754,"30":-0.16032373905181885,"31":0.15787872672080994,"32":-0.11995933204889297,"33":-0.1400652825832367,"34":0.00473728496581316,"35":-0.16086700558662415,"36":0.03625142574310303,"37":0.11189833283424377,"38":0.0401030033826828,"39":-0.17141187191009521}},"14":{"bias":-0.1650027185678482,"weights":{"0":0.046872444450855255,"1":0.037099309265613556,"2":0.03622998297214508,"3":-0.03731042519211769,"4":0.135386660695076,"5":0.043271806091070175,"6":-0.1857556402683258,"7":-0.05654666945338249,"8":0.180222287774086,"9":-0.11012070626020432,"10":0.05479660630226135,"11":0.14614789187908173,"12":0.13340958952903748,"13":-0.18672771751880646,"14":-0.12911958992481232,"15":-0.1830558031797409,"16":-0.12842193245887756,"17":-0.19283427298069,"18":0.1244429349899292,"19":0.15537431836128235,"20":-0.049478452652692795,"21":0.15106575191020966,"22":0.19904227554798126,"23":-0.11633308976888657,"24":-0.1579660326242447,"25":0.011158483102917671,"26":0.07190178334712982,"27":-0.1684165894985199,"28":-0.004764780402183533,"29":-0.0021230746060609818,"30":-0.16589100658893585,"31":0.03769392520189285,"32":-0.07029566168785095,"33":0.007664774544537067,"34":-0.2003420889377594,"35":-0.15898030996322632,"36":-0.08826011419296265,"37":0.0010862268973141909,"38":0.08681736886501312,"39":-0.1608131378889084}},"15":{"bias":-0.10035581141710281,"weights":{"0":0.09347223490476608,"1":0.1874857246875763,"2":0.07077383249998093,"3":0.13528993725776672,"4":0.03385661169886589,"5":-0.010192819871008396,"6":0.13879308104515076,"7":0.1515858769416809,"8":0.08698777109384537,"9":0.01102256029844284,"10":0.11076229065656662,"11":0.20022428035736084,"12":0.14042752981185913,"13":0.14869043231010437,"14":-0.07300489395856857,"15":-0.10283015668392181,"16":-0.1633245348930359,"17":-0.1368514895439148,"18":0.04962081462144852,"19":0.10501644015312195,"20":-0.053047262132167816,"21":-0.023589108139276505,"22":0.007834103889763355,"23":-0.09411633014678955,"24":0.1850946843624115,"25":0.038674693554639816,"26":-0.04332127049565315,"27":-0.16541928052902222,"28":0.1511458307504654,"29":0.0015775577630847692,"30":-0.14334093034267426,"31":-0.040335480123758316,"32":-0.1469915211200714,"33":-0.03417166322469711,"34":0.12901180982589722,"35":0.07241714745759964,"36":0.028540736064314842,"37":-0.17252062261104584,"38":0.15280379354953766,"39":-0.0017929649911820889}},"16":{"bias":0.14218319952487946,"weights":{"0":-0.11118180304765701,"1":0.0030599129386246204,"2":-0.001847374951466918,"3":0.08070669323205948,"4":0.04195639118552208,"5":-0.053801458328962326,"6":-0.17513607442378998,"7":-0.13392573595046997,"8":0.12487009167671204,"9":-0.10397429019212723,"10":0.07593457400798798,"11":-0.09903150051832199,"12":-0.145567387342453,"13":-0.05331741273403168,"14":-0.00902419164776802,"15":0.055516138672828674,"16":-0.04091480001807213,"17":-0.037140052765607834,"18":0.06566604226827621,"19":0.19149158895015717,"20":0.021981097757816315,"21":-0.15286192297935486,"22":-0.010872702114284039,"23":0.1284535825252533,"24":-0.07411354780197144,"25":0.18166027963161469,"26":0.1535525768995285,"27":-0.02732970006763935,"28":0.09697091579437256,"29":0.11347520351409912,"30":0.1343248188495636,"31":-0.19940300285816193,"32":-0.15450075268745422,"33":-0.19246777892112732,"34":-0.07095035910606384,"35":-0.0837107002735138,"36":-0.14961697161197662,"37":0.05754975974559784,"38":0.07980958372354507,"39":-0.09302862733602524}},"17":{"bias":-0.13651452958583832,"weights":{"0":0.10776824504137039,"1":-0.17011980712413788,"2":0.011191803961992264,"3":0.14823219180107117,"4":-0.15813790261745453,"5":-0.03282255679368973,"6":-0.06527361273765564,"7":0.11710041016340256,"8":0.05746368318796158,"9":-0.11768176406621933,"10":0.12249094247817993,"11":-0.1427033543586731,"12":-0.08797764778137207,"13":-0.18348665535449982,"14":-0.19147562980651855,"15":0.12323381751775742,"16":0.06561027467250824,"17":-0.12626436352729797,"18":-0.17836056649684906,"19":-0.18167854845523834,"20":-0.1751241385936737,"21":-0.19933195412158966,"22":-0.005557672120630741,"23":-0.11916553229093552,"24":-0.01700255274772644,"25":0.043516021221876144,"26":-0.19378921389579773,"27":-0.012803311459720135,"28":-0.18050332367420197,"29":0.1810392588376999,"30":0.15534614026546478,"31":-0.08912444114685059,"32":-0.10936130583286285,"33":-0.059373438358306885,"34":0.022145012393593788,"35":0.005418284330517054,"36":0.017486976459622383,"37":-0.05647541582584381,"38":0.1563018560409546,"39":0.19362255930900574}},"18":{"bias":-0.15225961804389954,"weights":{"0":-0.08279339224100113,"1":0.02268126793205738,"2":0.09762968122959137,"3":-0.09170746058225632,"4":0.03812909498810768,"5":-0.12934693694114685,"6":-0.1916646510362625,"7":-0.15099340677261353,"8":0.08155414462089539,"9":-0.07324486970901489,"10":0.033479928970336914,"11":0.09242116659879684,"12":-0.08868642896413803,"13":0.06502823531627655,"14":-0.18194958567619324,"15":0.10849405825138092,"16":-0.15628227591514587,"17":0.12492448091506958,"18":-0.19479593634605408,"19":0.1524977833032608,"20":0.15935592353343964,"21":0.1988285779953003,"22":0.1911596804857254,"23":-0.025177599862217903,"24":-0.10870732367038727,"25":-0.03729588910937309,"26":-0.10656803846359253,"27":-0.1644989550113678,"28":0.07825105637311935,"29":0.08288604021072388,"30":-0.10215378552675247,"31":-0.039799075573682785,"32":0.054608073085546494,"33":0.16518069803714752,"34":0.07355634868144989,"35":-0.031521525233983994,"36":0.08231629431247711,"37":-0.07687466591596603,"38":-0.04831867665052414,"39":0.15572158992290497}},"19":{"bias":0.07886268198490143,"weights":{"0":-0.09742753952741623,"1":-0.006465929094702005,"2":0.0730157122015953,"3":-0.10647262632846832,"4":0.009456430561840534,"5":0.08071286976337433,"6":-0.07271459698677063,"7":0.13589484989643097,"8":-0.16640886664390564,"9":-0.023945240303874016,"10":0.05150968208909035,"11":0.19034692645072937,"12":-0.1157359853386879,"13":0.03544430062174797,"14":0.09284353256225586,"15":0.16304300725460052,"16":0.08015929162502289,"17":0.06065225601196289,"18":-0.14643323421478271,"19":0.026718538254499435,"20":0.038972072303295135,"21":-0.18345636129379272,"22":-0.1594271957874298,"23":-0.16910937428474426,"24":0.030962230637669563,"25":0.04557468742132187,"26":0.04389568045735359,"27":-0.10980802029371262,"28":0.05773346126079559,"29":-0.09169948846101761,"30":-0.08363065123558044,"31":-0.1385047733783722,"32":0.1754957139492035,"33":-0.08433500677347183,"34":0.04910542443394661,"35":0.13960134983062744,"36":0.08338119089603424,"37":0.12722918391227722,"38":-0.1842973530292511,"39":0.019142797216773033}},"20":{"bias":0.0842135101556778,"weights":{"0":0.07027540355920792,"1":-0.1702239066362381,"2":-0.13200363516807556,"3":0.09198842197656631,"4":0.0674203559756279,"5":0.15462656319141388,"6":-0.1548141986131668,"7":0.19609536230564117,"8":0.020989596843719482,"9":-0.031869638711214066,"10":0.0959596186876297,"11":0.14638549089431763,"12":0.14545279741287231,"13":-0.016761794686317444,"14":0.01902567781507969,"15":0.08010710030794144,"16":0.14523987472057343,"17":0.089968241751194,"18":0.043688155710697174,"19":0.02938402071595192,"20":0.09604683518409729,"21":0.005954943597316742,"22":-0.19996511936187744,"23":-0.1800270676612854,"24":-0.1626472771167755,"25":0.050834380090236664,"26":0.18066324293613434,"27":0.15291833877563477,"28":0.0963897854089737,"29":-0.0338781401515007,"30":0.17401298880577087,"31":-0.171209916472435,"32":-0.012396140955388546,"33":-0.1568654626607895,"34":-0.09185457974672318,"35":0.11941342055797577,"36":-0.02124805934727192,"37":-0.07852241396903992,"38":0.16885995864868164,"39":-0.16193032264709473}},"21":{"bias":0.18236322700977325,"weights":{"0":-0.032829493284225464,"1":0.07511313259601593,"2":0.1268586367368698,"3":-0.12553530931472778,"4":0.059325989335775375,"5":-0.17680545151233673,"6":0.15080617368221283,"7":0.19720681011676788,"8":-0.15037021040916443,"9":-0.10797198861837387,"10":0.03499844670295715,"11":0.14882250130176544,"12":-0.07619164884090424,"13":0.18305206298828125,"14":0.14098261296749115,"15":-0.17455045878887177,"16":-0.1917698234319687,"17":-0.06337961554527283,"18":0.10749373584985733,"19":0.049287982285022736,"20":0.18824046850204468,"21":0.12925857305526733,"22":-0.10038529336452484,"23":0.03654874488711357,"24":0.17407958209514618,"25":-0.12450653314590454,"26":0.18789339065551758,"27":0.1202736422419548,"28":-0.1861722767353058,"29":-0.08424873650074005,"30":0.12133415043354034,"31":-0.1490500420331955,"32":-0.15718518197536469,"33":-0.06986550241708755,"34":0.2001923769712448,"35":0.09709827601909637,"36":-0.17655231058597565,"37":0.06068394333124161,"38":-0.13525964319705963,"39":-0.0337228998541832}},"22":{"bias":0.18486355245113373,"weights":{"0":-0.05602780357003212,"1":-0.041937027126550674,"2":-0.1829778254032135,"3":-0.010061881504952908,"4":0.10121045261621475,"5":-0.20114971697330475,"6":0.1135852262377739,"7":-0.00981761235743761,"8":0.15742288529872894,"9":0.023916970938444138,"10":0.008867255412042141,"11":-0.14569710195064545,"12":-0.17571471631526947,"13":-0.12861835956573486,"14":-0.1329643577337265,"15":0.1643514484167099,"16":0.07838349044322968,"17":-0.010158826597034931,"18":-0.055853478610515594,"19":0.024089135229587555,"20":0.19829921424388885,"21":-0.06955824792385101,"22":0.18883256614208221,"23":0.0691022276878357,"24":-0.02839650586247444,"25":0.054002728313207626,"26":0.13556906580924988,"27":-0.07670137286186218,"28":-0.1990480124950409,"29":-0.14369535446166992,"30":-0.06686154752969742,"31":-0.08472950011491776,"32":-0.019354717805981636,"33":-0.19266536831855774,"34":-0.11552244424819946,"35":-0.07783757150173187,"36":-0.11163049936294556,"37":-0.08450779318809509,"38":-0.09575515240430832,"39":-0.0676071047782898}},"23":{"bias":0.0292523056268692,"weights":{"0":0.08467800915241241,"1":-0.17260561883449554,"2":0.008237449452280998,"3":-0.07950986176729202,"4":-0.19236986339092255,"5":0.028911013156175613,"6":0.172440767288208,"7":-0.08461476862430573,"8":-0.14968843758106232,"9":-0.1502070277929306,"10":0.09142381697893143,"11":0.0006885892944410443,"12":-0.1207079365849495,"13":-0.020187199115753174,"14":0.15273326635360718,"15":0.10884793847799301,"16":0.12566399574279785,"17":0.0715465098619461,"18":-0.0762171521782875,"19":0.0074741775169968605,"20":0.13814625144004822,"21":-0.05003127083182335,"22":-0.0624382458627224,"23":-0.06261623650789261,"24":-0.07865018397569656,"25":0.07094883173704147,"26":-0.17927464842796326,"27":0.1877811849117279,"28":0.1707087755203247,"29":-0.1569090485572815,"30":-0.16712334752082825,"31":0.10881239920854568,"32":0.12778359651565552,"33":-0.06576155871152878,"34":-0.15987470746040344,"35":-0.006236954592168331,"36":-0.040329668670892715,"37":0.14836682379245758,"38":-0.09738535434007645,"39":0.17682629823684692}},"24":{"bias":-0.1254003942012787,"weights":{"0":0.03943774849176407,"1":0.13731567561626434,"2":0.07747446745634079,"3":-0.048347461968660355,"4":-0.18410742282867432,"5":-0.12411750853061676,"6":-0.009534993208944798,"7":0.12070049345493317,"8":-0.02134649269282818,"9":-0.15315929055213928,"10":-0.14084458351135254,"11":0.12094643712043762,"12":0.12662462890148163,"13":-0.08683636039495468,"14":0.1422915905714035,"15":-0.16891691088676453,"16":-0.04400431364774704,"17":-0.1879676729440689,"18":0.1523289978504181,"19":-0.037333518266677856,"20":-0.17646290361881256,"21":0.07127859443426132,"22":-0.08483166247606277,"23":-0.1090855598449707,"24":-0.083182692527771,"25":0.0243852362036705,"26":-0.08255930244922638,"27":0.16366522014141083,"28":-0.15919442474842072,"29":-0.10823097825050354,"30":-0.1141037791967392,"31":-0.14125047624111176,"32":-0.06704366952180862,"33":-0.13839875161647797,"34":0.1430283486843109,"35":0.13670124113559723,"36":-0.1846296787261963,"37":-0.08725907653570175,"38":0.1496843546628952,"39":0.05579899996519089}},"25":{"bias":0.12739431858062744,"weights":{"0":-0.1009848490357399,"1":0.08888517320156097,"2":0.02011978253722191,"3":-0.1825430542230606,"4":0.04395706579089165,"5":-0.04302027076482773,"6":0.06171563267707825,"7":0.14436016976833344,"8":0.03795935586094856,"9":0.06633516401052475,"10":-0.11455169320106506,"11":-0.024187346920371056,"12":0.14182864129543304,"13":0.06665357202291489,"14":-0.0840584933757782,"15":-0.10837399214506149,"16":-0.04623110592365265,"17":-0.1152055561542511,"18":-0.11149143427610397,"19":0.11426948010921478,"20":0.169615238904953,"21":-0.04564398527145386,"22":-0.07675158977508545,"23":-0.1855895221233368,"24":-0.12614254653453827,"25":-0.028689205646514893,"26":0.06559762358665466,"27":0.060855936259031296,"28":0.07438453286886215,"29":-0.18653236329555511,"30":0.18496288359165192,"31":-0.11715148389339447,"32":-0.03597170487046242,"33":0.05913272127509117,"34":-0.06636667251586914,"35":0.12961280345916748,"36":-0.15803126990795135,"37":0.1342332512140274,"38":-0.02829614467918873,"39":-0.06190734729170799}},"26":{"bias":0.09719612449407578,"weights":{"0":0.15579159557819366,"1":0.15952163934707642,"2":0.11548671871423721,"3":-0.1424722522497177,"4":0.053595684468746185,"5":-0.17870527505874634,"6":-0.09054908901453018,"7":-0.00968969240784645,"8":0.08939634263515472,"9":-0.1330375075340271,"10":0.12647899985313416,"11":0.17494525015354156,"12":0.04593818262219429,"13":-0.07921148836612701,"14":0.04648267850279808,"15":0.136066734790802,"16":-0.13597919046878815,"17":-0.03006257861852646,"18":0.07528974860906601,"19":0.14031723141670227,"20":0.14439229667186737,"21":-0.10091610252857208,"22":0.005857114680111408,"23":0.03462735563516617,"24":0.17266984283924103,"25":0.02661641128361225,"26":-0.004494980443269014,"27":0.08555521816015244,"28":0.04939896985888481,"29":-0.03425850346684456,"30":-0.034314315766096115,"31":-0.11951678991317749,"32":0.03677602857351303,"33":-0.08178423345088959,"34":0.2014753222465515,"35":-0.056623753160238266,"36":-0.09655944257974625,"37":0.08417914807796478,"38":0.17634396255016327,"39":-0.0188860222697258}},"27":{"bias":-0.14684495329856873,"weights":{"0":-0.19473911821842194,"1":-0.15467306971549988,"2":0.008997640572488308,"3":0.1402484029531479,"4":-0.17043200135231018,"5":0.16576825082302094,"6":-0.04420730844140053,"7":-0.17275339365005493,"8":-0.1919282078742981,"9":-0.169921413064003,"10":-0.04891533404588699,"11":0.0035226040054112673,"12":0.14511927962303162,"13":-0.16883033514022827,"14":-0.13569097220897675,"15":0.12170439958572388,"16":0.14499051868915558,"17":0.05635746940970421,"18":-0.04769822210073471,"19":0.028836727142333984,"20":-0.05735207721590996,"21":-0.10941818356513977,"22":0.10202939808368683,"23":0.03192727267742157,"24":-0.14361606538295746,"25":0.15229982137680054,"26":-0.13356973230838776,"27":-0.05093984678387642,"28":-0.17555078864097595,"29":-0.11567211151123047,"30":-0.16364704072475433,"31":-0.14208444952964783,"32":0.07119470089673996,"33":0.128645658493042,"34":-0.04119175300002098,"35":-0.05059285834431648,"36":0.11348569393157959,"37":-0.0646735206246376,"38":0.08202245086431503,"39":-0.02923276461660862}},"28":{"bias":-0.07584099471569061,"weights":{"0":-0.14876945316791534,"1":0.055953312665224075,"2":0.16747638583183289,"3":0.1754148006439209,"4":0.07645468413829803,"5":0.16335849463939667,"6":-0.0642898753285408,"7":-0.1084553450345993,"8":0.14055179059505463,"9":0.03988019376993179,"10":0.031389154493808746,"11":-0.13367898762226105,"12":-0.1665920913219452,"13":0.03990368917584419,"14":0.17476682364940643,"15":0.07479559630155563,"16":-0.16776616871356964,"17":-0.19853976368904114,"18":0.1436474770307541,"19":0.11911918967962265,"20":0.02288792096078396,"21":0.03577123582363129,"22":-0.18603922426700592,"23":-0.0812138170003891,"24":0.17574208974838257,"25":0.05335228890180588,"26":0.0003651758888736367,"27":0.15080586075782776,"28":-0.1693299263715744,"29":-0.07825300097465515,"30":0.13600867986679077,"31":-0.1593031883239746,"32":0.04301217198371887,"33":-0.10250896215438843,"34":0.14059528708457947,"35":0.10515108704566956,"36":-0.06585431843996048,"37":0.16930340230464935,"38":0.1789427250623703,"39":0.001452807104215026}},"29":{"bias":-0.1325550377368927,"weights":{"0":0.07158292084932327,"1":-0.14075428247451782,"2":-0.17483186721801758,"3":-0.12061305344104767,"4":0.16698816418647766,"5":-0.08467207849025726,"6":0.07919181883335114,"7":0.11497323215007782,"8":-0.02998274937272072,"9":-0.153852641582489,"10":0.06780514121055603,"11":0.10244105756282806,"12":-0.09081315994262695,"13":0.17507661879062653,"14":0.1529821902513504,"15":0.033046454191207886,"16":-0.04933098331093788,"17":0.19559596478939056,"18":-0.026450349017977715,"19":-0.17133642733097076,"20":-0.15564288198947906,"21":-0.015431452542543411,"22":-0.15043751895427704,"23":-0.14258527755737305,"24":0.02258922904729843,"25":-0.058838773518800735,"26":-0.1624918431043625,"27":0.1653500646352768,"28":-0.008130681701004505,"29":-0.10590104013681412,"30":-0.031960055232048035,"31":0.015233062207698822,"32":0.18519403040409088,"33":0.15607032179832458,"34":0.11199586093425751,"35":-0.017993992194533348,"36":0.04064325615763664,"37":-0.15950968861579895,"38":-0.10171638429164886,"39":-0.16137957572937012}},"30":{"bias":-0.2044163942337036,"weights":{"0":0.06541305780410767,"1":-0.18112853169441223,"2":0.09263154119253159,"3":-0.19897961616516113,"4":0.15272687375545502,"5":-0.1906813234090805,"6":0.17020733654499054,"7":-0.05176436901092529,"8":0.09025541692972183,"9":0.048046406358480453,"10":0.025233671069145203,"11":-0.20119810104370117,"12":0.06614184379577637,"13":-0.08859748393297195,"14":0.07325117290019989,"15":-0.06556614488363266,"16":0.12290376424789429,"17":0.07038207352161407,"18":-0.17501430213451385,"19":-0.10674214363098145,"20":-0.0012350707547739148,"21":-0.03515873849391937,"22":0.07515520602464676,"23":0.12963692843914032,"24":-0.07815263420343399,"25":-0.04604547843337059,"26":-0.15121367573738098,"27":0.1916908323764801,"28":-0.04754031077027321,"29":0.1955426037311554,"30":0.08488260209560394,"31":0.012636279687285423,"32":-0.19047006964683533,"33":0.06807239353656769,"34":0.03652004897594452,"35":0.06250043213367462,"36":-0.18035514652729034,"37":0.03876134008169174,"38":0.17358386516571045,"39":0.13688305020332336}},"31":{"bias":-0.06877624988555908,"weights":{"0":0.09075628221035004,"1":0.07444014400243759,"2":-0.15814413130283356,"3":0.10384012758731842,"4":-0.1931084841489792,"5":-0.10415352880954742,"6":-0.11533550173044205,"7":-0.12528564035892487,"8":0.11783896386623383,"9":-0.07109536230564117,"10":0.08161178976297379,"11":-0.04614990949630737,"12":-0.04717939347028732,"13":0.08425944298505783,"14":0.024126678705215454,"15":-0.027907269075512886,"16":0.15514497458934784,"17":-0.13043498992919922,"18":0.06609111279249191,"19":-0.17466549575328827,"20":0.15444399416446686,"21":0.06886176764965057,"22":0.15319782495498657,"23":0.15188735723495483,"24":-0.08130929619073868,"25":0.09482800960540771,"26":0.15665824711322784,"27":-0.08896320313215256,"28":-0.08296142518520355,"29":0.1345355361700058,"30":0.11422751843929291,"31":0.16643323004245758,"32":-0.08275554329156876,"33":0.11567732691764832,"34":0.008238882757723331,"35":0.09375301748514175,"36":0.19226224720478058,"37":-0.1171175017952919,"38":-0.12191832810640335,"39":-0.002021234016865492}},"32":{"bias":-0.10732109099626541,"weights":{"0":-0.15617378056049347,"1":-0.0646616667509079,"2":0.1280665546655655,"3":-0.022508971393108368,"4":-0.16410674154758453,"5":-0.0041535384953022,"6":-0.09071554243564606,"7":-0.15996086597442627,"8":0.12683258950710297,"9":0.010222296230494976,"10":0.14820359647274017,"11":0.14765815436840057,"12":-0.041426483541727066,"13":0.06087063252925873,"14":0.02324453741312027,"15":0.10733836889266968,"16":0.07369158416986465,"17":0.007145436014980078,"18":0.03266504406929016,"19":-0.02327052317559719,"20":0.1381135880947113,"21":0.07815931737422943,"22":-0.062430884689092636,"23":-0.16591085493564606,"24":-0.16149482131004333,"25":0.2010917216539383,"26":-0.1436287760734558,"27":0.01125259604305029,"28":-0.0626392737030983,"29":0.08459220081567764,"30":-0.19335965812206268,"31":-0.1166643276810646,"32":0.12608997523784637,"33":0.10664208978414536,"34":0.09118743985891342,"35":0.173953115940094,"36":0.10218793153762817,"37":0.06701149791479111,"38":0.03256169334053993,"39":-0.17811070382595062}},"33":{"bias":-0.18750780820846558,"weights":{"0":-0.04325157031416893,"1":0.022662321105599403,"2":-0.155462846159935,"3":0.046496037393808365,"4":0.060027386993169785,"5":-0.006014726124703884,"6":0.16009700298309326,"7":0.04546646028757095,"8":0.12762495875358582,"9":-0.17742258310317993,"10":0.045203398913145065,"11":-0.1403130292892456,"12":-0.019269341602921486,"13":-0.11386977881193161,"14":0.13992102444171906,"15":0.09423132240772247,"16":-0.12391312420368195,"17":0.17110790312290192,"18":-0.0923805758357048,"19":-0.09689424186944962,"20":0.08675910532474518,"21":-0.04102881997823715,"22":-0.019615117460489273,"23":-0.11329952627420425,"24":-0.11748231202363968,"25":-0.14769333600997925,"26":0.060322098433971405,"27":-0.0860559269785881,"28":0.1271481215953827,"29":-0.11871033161878586,"30":0.11770621687173843,"31":0.03860807418823242,"32":-0.09018999338150024,"33":0.12625916302204132,"34":-0.07786152511835098,"35":-0.0446418933570385,"36":0.1536983698606491,"37":-0.11030610650777817,"38":-0.06484633684158325,"39":0.06222748011350632}},"34":{"bias":-0.04012832045555115,"weights":{"0":0.16995814442634583,"1":0.140541210770607,"2":0.10431224852800369,"3":-0.19360503554344177,"4":-0.09197455644607544,"5":-0.15281648933887482,"6":0.012320950627326965,"7":-0.07123032212257385,"8":-0.1909709870815277,"9":-0.09824930876493454,"10":-0.17958667874336243,"11":0.17575842142105103,"12":-0.06891460716724396,"13":-0.1653648465871811,"14":0.11238144338130951,"15":0.05823442339897156,"16":-0.19417715072631836,"17":0.1830359846353531,"18":0.18475641310214996,"19":0.0033056021202355623,"20":-0.1168629452586174,"21":0.07401032745838165,"22":0.08494142442941666,"23":-0.0507778562605381,"24":0.18683063983917236,"25":0.09325582534074783,"26":0.1836814135313034,"27":-0.010383589193224907,"28":0.037041693925857544,"29":-0.01540325302630663,"30":0.19275301694869995,"31":0.07449252903461456,"32":0.061644308269023895,"33":-0.05547933652997017,"34":-0.07677562534809113,"35":0.135144904255867,"36":0.050571274012327194,"37":0.1200064867734909,"38":-0.16942225396633148,"39":-0.15002675354480743}},"35":{"bias":0.16161328554153442,"weights":{"0":0.0839664563536644,"1":0.131743922829628,"2":-0.11155858635902405,"3":0.1603800654411316,"4":-0.15890435874462128,"5":-0.107437863945961,"6":0.141911581158638,"7":0.18528753519058228,"8":-0.10961031913757324,"9":-0.16925346851348877,"10":0.12717878818511963,"11":0.02421940676867962,"12":0.0907110795378685,"13":0.013500411063432693,"14":-0.15931837260723114,"15":-0.1311422735452652,"16":-0.16498224437236786,"17":0.11502304673194885,"18":0.19124916195869446,"19":0.16334177553653717,"20":0.1894691288471222,"21":0.15451613068580627,"22":-0.08222909271717072,"23":-0.17407774925231934,"24":-0.14753012359142303,"25":-0.027363881468772888,"26":-0.05477089434862137,"27":0.018878579139709473,"28":-0.03526295721530914,"29":0.1757909655570984,"30":-0.1754831224679947,"31":-0.19024576246738434,"32":0.056051187217235565,"33":0.16892428696155548,"34":-0.17767488956451416,"35":-0.1651330590248108,"36":-0.023426063358783722,"37":-0.16059046983718872,"38":-0.18958061933517456,"39":0.040204282850027084}},"36":{"bias":-0.06302884221076965,"weights":{"0":-0.08783234655857086,"1":0.030919257551431656,"2":-0.0859375074505806,"3":0.12741762399673462,"4":0.009944293648004532,"5":0.17921853065490723,"6":0.10610334575176239,"7":-0.050065428018569946,"8":-0.08035558462142944,"9":0.06669297814369202,"10":-0.005116069223731756,"11":0.03910445794463158,"12":0.039937444031238556,"13":-0.03369028866291046,"14":-0.0041865031234920025,"15":0.11396697163581848,"16":-0.0028880590107291937,"17":0.17363017797470093,"18":0.006490409839898348,"19":-0.051305316388607025,"20":-0.04411078989505768,"21":0.056936051696538925,"22":-0.0058509125374257565,"23":-0.09351619333028793,"24":0.19582629203796387,"25":-0.06827323138713837,"26":-0.14812608063220978,"27":-0.09334379434585571,"28":-0.08612415939569473,"29":0.0572659969329834,"30":-0.11953666061162949,"31":0.008712304756045341,"32":0.13254442811012268,"33":0.18059155344963074,"34":0.06729283928871155,"35":-0.05195707455277443,"36":-0.16361050307750702,"37":0.15078654885292053,"38":0.17277082800865173,"39":-0.0029065776616334915}},"37":{"bias":-0.19331976771354675,"weights":{"0":-0.13769122958183289,"1":0.0518609918653965,"2":-0.039794620126485825,"3":-0.1501890867948532,"4":0.09834007173776627,"5":0.1523675173521042,"6":-0.0015542191686108708,"7":-0.07640767842531204,"8":0.13484056293964386,"9":-0.184144988656044,"10":-0.03601647540926933,"11":0.03901389241218567,"12":-0.0023761868942528963,"13":0.030521253123879433,"14":0.10004529356956482,"15":0.08660974353551865,"16":-0.0007788147195242345,"17":0.0011857679346576333,"18":0.08951777964830399,"19":0.11531908810138702,"20":-0.1998635232448578,"21":-0.09477060288190842,"22":0.1834227442741394,"23":-0.04328446462750435,"24":-0.024462996050715446,"25":-0.18580713868141174,"26":-0.020150456577539444,"27":-0.039596766233444214,"28":-0.14768238365650177,"29":0.059253990650177,"30":0.15415984392166138,"31":-0.06355154514312744,"32":-0.15588106215000153,"33":0.03511318191885948,"34":0.10347163677215576,"35":-0.011685323901474476,"36":-0.12210693210363388,"37":0.015712758526206017,"38":-0.017385751008987427,"39":0.19190725684165955}},"38":{"bias":-0.1352435052394867,"weights":{"0":-0.00725556118413806,"1":0.17844559252262115,"2":-0.10292887687683105,"3":-0.18375705182552338,"4":0.1245255321264267,"5":-0.1555725783109665,"6":0.04396546259522438,"7":-0.1790146678686142,"8":-0.1911497712135315,"9":-0.14321063458919525,"10":0.060828614979982376,"11":0.14585791528224945,"12":-0.002779254922643304,"13":0.08124072849750519,"14":0.0746823102235794,"15":-0.14179280400276184,"16":0.039874929934740067,"17":0.14841488003730774,"18":0.0321151465177536,"19":0.1307881772518158,"20":-0.04189733415842056,"21":0.08665888011455536,"22":0.1919480413198471,"23":0.07184752076864243,"24":0.15397748351097107,"25":0.12915295362472534,"26":0.06821081787347794,"27":-0.060499947518110275,"28":0.11201535165309906,"29":-0.08909659087657928,"30":-0.014518373645842075,"31":-0.17879387736320496,"32":-0.029865732416510582,"33":-0.19380876421928406,"34":-0.15574795007705688,"35":0.03471996635198593,"36":0.045827098190784454,"37":0.1052892878651619,"38":-0.08653684705495834,"39":0.08266233652830124}},"39":{"bias":0.07788831740617752,"weights":{"0":-0.08153043687343597,"1":-0.19514405727386475,"2":-0.031368233263492584,"3":0.035462237894535065,"4":0.1040199026465416,"5":-0.07604732364416122,"6":-0.10670484602451324,"7":-0.1128130555152893,"8":0.1683480143547058,"9":0.096380814909935,"10":-0.13909287750720978,"11":0.03091786988079548,"12":-0.1283448189496994,"13":-0.15302540361881256,"14":-0.051239050924777985,"15":-0.10278229415416718,"16":0.03748825192451477,"17":-0.0855356901884079,"18":-0.0937647596001625,"19":-0.01445755548775196,"20":-0.038746487349271774,"21":-0.010383998043835163,"22":-0.05613577738404274,"23":0.014747129753232002,"24":0.08453873544931412,"25":-0.050255730748176575,"26":0.13459810614585876,"27":-0.01395975612103939,"28":-0.09273216873407364,"29":-0.17107261717319489,"30":-0.08875711262226105,"31":-0.0311203021556139,"32":0.09574154764413834,"33":0.07959730923175812,"34":-0.029493264853954315,"35":0.09591303020715714,"36":0.11024146527051926,"37":-0.12647902965545654,"38":-0.01777416281402111,"39":-0.005077516660094261}},"40":{"bias":0.12477991729974747,"weights":{"0":-0.16013698279857635,"1":-0.1668519526720047,"2":0.06202806904911995,"3":0.039488766342401505,"4":0.13349318504333496,"5":0.04844100400805473,"6":-0.08082030713558197,"7":-0.06392810493707657,"8":0.10917949676513672,"9":0.0625893771648407,"10":0.08350800722837448,"11":-0.08619226515293121,"12":-0.19266222417354584,"13":0.008239230141043663,"14":0.12531395256519318,"15":0.14164134860038757,"16":0.03595567122101784,"17":0.06899487972259521,"18":0.03522161394357681,"19":-0.1581508219242096,"20":-0.002626986475661397,"21":-0.044090449810028076,"22":-0.11966952681541443,"23":-0.12290527671575546,"24":0.07830087095499039,"25":-0.19651661813259125,"26":0.16233216226100922,"27":0.0013537949416786432,"28":0.14386822283267975,"29":-0.09929631650447845,"30":0.009929947555065155,"31":0.19615501165390015,"32":-0.08086778968572617,"33":0.16210199892520905,"34":0.002389193046838045,"35":-0.1448759138584137,"36":-0.0589493028819561,"37":-0.1668354719877243,"38":-0.06602498888969421,"39":0.18147417902946472}},"41":{"bias":0.13122659921646118,"weights":{"0":-0.1255720853805542,"1":-0.11179772019386292,"2":0.19236372411251068,"3":-0.09346890449523926,"4":0.07404180616140366,"5":0.06845398247241974,"6":0.020959483459591866,"7":-0.020420154556632042,"8":-0.18740686774253845,"9":-0.19126290082931519,"10":0.08689004182815552,"11":-0.17645207047462463,"12":-0.11847347021102905,"13":-0.0857652798295021,"14":0.04088696837425232,"15":-0.06602967530488968,"16":0.18536530435085297,"17":-0.10254529863595963,"18":-0.04374489188194275,"19":-0.15434639155864716,"20":0.18266193568706512,"21":-0.09180724620819092,"22":-0.03080720081925392,"23":0.08160871267318726,"24":-0.10006438940763474,"25":0.005350644234567881,"26":0.18584516644477844,"27":0.07690801471471786,"28":0.14040111005306244,"29":0.18239691853523254,"30":-0.11169357597827911,"31":0.09840577095746994,"32":0.11360589414834976,"33":-0.13370530307292938,"34":0.04000956192612648,"35":0.17393775284290314,"36":-0.03763493895530701,"37":0.08436554670333862,"38":0.10383343696594238,"39":0.08426421135663986}},"42":{"bias":0.05383595451712608,"weights":{"0":0.11326347291469574,"1":0.06851363927125931,"2":0.18766826391220093,"3":-0.012091120705008507,"4":-0.011590137146413326,"5":0.10391003638505936,"6":0.0674605518579483,"7":0.09134978801012039,"8":0.02848641201853752,"9":-0.1655331552028656,"10":-0.050671882927417755,"11":0.07050394266843796,"12":-0.1749010533094406,"13":-0.053580302745103836,"14":-0.09904834628105164,"15":0.035500530153512955,"16":0.12606632709503174,"17":0.006517320871353149,"18":-0.13952337205410004,"19":0.07817332446575165,"20":-0.17153745889663696,"21":0.06617296487092972,"22":-0.10339035093784332,"23":0.0341821163892746,"24":0.15172646939754486,"25":0.06892769038677216,"26":-0.12505805492401123,"27":-0.11318057030439377,"28":0.15172483026981354,"29":-0.16333183646202087,"30":-0.08305100351572037,"31":-0.14318515360355377,"32":-0.09727193415164948,"33":-0.09442543238401413,"34":-0.15381067991256714,"35":-0.1907556653022766,"36":0.06326626241207123,"37":0.06608398258686066,"38":0.005345405079424381,"39":0.10460450500249863}},"43":{"bias":-0.024748751893639565,"weights":{"0":0.048756521195173264,"1":0.1429910510778427,"2":-0.14101706445217133,"3":0.11668577790260315,"4":-0.07523184269666672,"5":0.034349218010902405,"6":-0.10179386287927628,"7":0.1368267983198166,"8":0.022678503766655922,"9":-0.06659199297428131,"10":-0.17709769308567047,"11":0.1709286868572235,"12":-0.0031750472262501717,"13":-0.10602117329835892,"14":0.010218405164778233,"15":0.07356679439544678,"16":-0.0002802455855999142,"17":-0.001622519688680768,"18":0.020049937069416046,"19":0.08879786729812622,"20":-0.13525627553462982,"21":0.15104277431964874,"22":-0.03310892730951309,"23":0.1521110087633133,"24":0.056389644742012024,"25":0.031182652339339256,"26":0.09213575720787048,"27":-0.021047141402959824,"28":0.13587528467178345,"29":-0.05264674127101898,"30":0.020521292462944984,"31":0.06094370782375336,"32":0.1611350029706955,"33":-0.03737952187657356,"34":-0.11629318445920944,"35":-0.018406027927994728,"36":0.12783285975456238,"37":0.19184863567352295,"38":0.007855739444494247,"39":0.1337958127260208}},"44":{"bias":-0.08157732337713242,"weights":{"0":-0.11300452053546906,"1":0.02562086284160614,"2":-0.015928873792290688,"3":-0.13152490556240082,"4":-0.09581810981035233,"5":-0.104752317070961,"6":-0.02501724474132061,"7":0.089919812977314,"8":0.07357323169708252,"9":-0.044915106147527695,"10":-0.16879944503307343,"11":-0.06401631981134415,"12":-0.15468396246433258,"13":-0.07452698051929474,"14":0.1648034006357193,"15":-0.1335693895816803,"16":0.0056312293745577335,"17":-0.06680120527744293,"18":-0.008753055706620216,"19":-0.11002025753259659,"20":0.16479672491550446,"21":0.09742540121078491,"22":0.1346164345741272,"23":0.18728801608085632,"24":-0.0670141875743866,"25":0.07014235109090805,"26":0.1638627052307129,"27":0.20002970099449158,"28":-0.023974455893039703,"29":-0.1484091579914093,"30":0.19885949790477753,"31":-0.14337760210037231,"32":0.03378916159272194,"33":0.0716358944773674,"34":-0.007434206083416939,"35":0.043219033628702164,"36":-0.17407432198524475,"37":-0.036618079990148544,"38":0.10477748513221741,"39":-0.13932360708713531}},"45":{"bias":0.17141877114772797,"weights":{"0":0.1674465388059616,"1":-0.19160450994968414,"2":0.03462611138820648,"3":-0.05474778264760971,"4":0.0439014695584774,"5":0.02520579844713211,"6":-0.18724027276039124,"7":0.16717709600925446,"8":-0.13881543278694153,"9":0.13036099076271057,"10":0.07165277004241943,"11":-0.09570100903511047,"12":0.032805729657411575,"13":-0.07553751766681671,"14":-0.012076441198587418,"15":-0.16907468438148499,"16":0.03291795402765274,"17":-0.01824965327978134,"18":0.1918015331029892,"19":0.022720694541931152,"20":0.19842347502708435,"21":0.12770748138427734,"22":0.1774776726961136,"23":0.19661439955234528,"24":-0.11776041984558105,"25":0.1260644793510437,"26":0.1260942965745926,"27":0.17030468583106995,"28":-0.15481068193912506,"29":-0.15039321780204773,"30":-0.02533716708421707,"31":0.08497060090303421,"32":0.1968013197183609,"33":0.10063914209604263,"34":0.04817843809723854,"35":-0.11442030221223831,"36":-0.0034004985354840755,"37":-0.056027937680482864,"38":0.11561104655265808,"39":0.11258696019649506}},"46":{"bias":-0.00726083479821682,"weights":{"0":0.10044526308774948,"1":-0.14471551775932312,"2":0.015768470242619514,"3":0.06675770878791809,"4":-0.13162322342395782,"5":-0.12014558166265488,"6":0.11768285185098648,"7":0.15784035623073578,"8":-0.06581946462392807,"9":0.07443815469741821,"10":-0.1196155920624733,"11":0.04099695011973381,"12":-0.021970676258206367,"13":0.07857295125722885,"14":0.08696039766073227,"15":0.06488769501447678,"16":0.06803900003433228,"17":-0.0018775924108922482,"18":-0.0339682474732399,"19":-0.1331602931022644,"20":-0.15130263566970825,"21":0.015781551599502563,"22":0.04734690859913826,"23":0.06432026624679565,"24":0.022749314084649086,"25":0.09428412467241287,"26":-0.04450555890798569,"27":0.1663411259651184,"28":-0.120514877140522,"29":-0.18679697811603546,"30":0.07892242074012756,"31":0.012461771257221699,"32":-0.007857170887291431,"33":0.13433028757572174,"34":0.06408955901861191,"35":0.1987038403749466,"36":0.12489677220582962,"37":-0.18665361404418945,"38":0.07488633692264557,"39":0.10759613662958145}},"47":{"bias":-0.012483987957239151,"weights":{"0":-0.15103144943714142,"1":-0.10369154065847397,"2":-0.12280132621526718,"3":-0.01370674092322588,"4":0.12914791703224182,"5":0.04264495521783829,"6":0.022896094247698784,"7":0.042987141758203506,"8":-0.19151553511619568,"9":0.08376628160476685,"10":-0.04981272295117378,"11":0.17672589421272278,"12":0.0873415395617485,"13":-0.13548584282398224,"14":-0.06643911451101303,"15":0.06837748736143112,"16":0.13368450105190277,"17":0.021830111742019653,"18":0.13652558624744415,"19":-0.08025757968425751,"20":-0.02371460571885109,"21":-0.07297324389219284,"22":-0.10606814920902252,"23":-0.1012464389204979,"24":0.15712419152259827,"25":0.027177084237337112,"26":0.18285848200321198,"27":0.10287109017372131,"28":0.12846313416957855,"29":-0.16220492124557495,"30":0.10341912508010864,"31":-0.06817805022001266,"32":0.07722599804401398,"33":-0.0756942629814148,"34":-0.05892378091812134,"35":-0.14550313353538513,"36":0.1425807774066925,"37":-0.0854608416557312,"38":-0.16680195927619934,"39":-0.12594014406204224}},"48":{"bias":-0.1653643548488617,"weights":{"0":0.10464056581258774,"1":0.0894022211432457,"2":-0.05019019544124603,"3":-0.1613108217716217,"4":-0.035547707229852676,"5":0.025283342227339745,"6":-0.18663614988327026,"7":-0.15119585394859314,"8":0.1631559580564499,"9":-0.03318680450320244,"10":0.09379883110523224,"11":0.17836396396160126,"12":0.06964109092950821,"13":-0.15449221432209015,"14":0.057428617030382156,"15":-0.040072597563266754,"16":-0.01748211309313774,"17":-0.08739189058542252,"18":-0.15893085300922394,"19":-0.07627401500940323,"20":0.028828561305999756,"21":-0.1218068078160286,"22":0.179234117269516,"23":-0.1614530384540558,"24":-0.07570596039295197,"25":-0.05594920739531517,"26":-0.13708770275115967,"27":-0.16562007367610931,"28":-0.13430260121822357,"29":0.08028886467218399,"30":0.12126681953668594,"31":0.07957924157381058,"32":0.1791805475950241,"33":0.1012275293469429,"34":-0.1842767298221588,"35":-0.1744256168603897,"36":-0.07155918329954147,"37":-0.09037010371685028,"38":0.07674343883991241,"39":0.06449905037879944}},"49":{"bias":-0.06334398686885834,"weights":{"0":0.08397623151540756,"1":-0.11012663692235947,"2":-0.14188654720783234,"3":-0.18963435292243958,"4":-0.11833406984806061,"5":-0.12418098002672195,"6":0.07050302624702454,"7":0.013272669166326523,"8":-0.10381732881069183,"9":0.0775616466999054,"10":-0.14669926464557648,"11":0.11629194766283035,"12":0.047526661306619644,"13":0.1247645691037178,"14":0.17571806907653809,"15":-0.04413763806223869,"16":0.04493159428238869,"17":-0.16804541647434235,"18":-0.06925029307603836,"19":0.07188177853822708,"20":0.11626482754945755,"21":-0.08521299809217453,"22":-0.10201292484998703,"23":-0.08076976239681244,"24":-0.09101133793592453,"25":0.13272495567798615,"26":-0.05514778196811676,"27":0.008344108238816261,"28":-0.07678493112325668,"29":-0.050599414855241776,"30":0.04157009720802307,"31":-0.0520002618432045,"32":0.05916368216276169,"33":-0.036968596279621124,"34":0.07455934584140778,"35":0.08276256173849106,"36":0.0035112451296299696,"37":-0.014917594380676746,"38":0.14130817353725433,"39":0.10840083658695221}}},{"0":{"bias":0.22151334583759308,"weights":{"0":0.17671248316764832,"1":-0.10722802579402924,"2":0.08056172728538513,"3":0.06553883105516434,"4":0.014477746561169624,"5":0.12509743869304657,"6":0.2092420756816864,"7":-0.054664816707372665,"8":0.11676797270774841,"9":0.10105632245540619,"10":0.09426351636648178,"11":-0.05860501527786255,"12":-0.17401671409606934,"13":0.20930412411689758,"14":-0.03980112820863724,"15":0.20894621312618256,"16":0.0219130739569664,"17":-0.048577211797237396,"18":-0.10964849591255188,"19":-0.13966058194637299,"20":-0.15527352690696716,"21":-0.09131227433681488,"22":-0.014979574829339981,"23":0.0454978346824646,"24":-0.0014757002936676145,"25":0.18605279922485352,"26":0.18066562712192535,"27":0.016751568764448166,"28":0.07958275824785233,"29":-0.09461075067520142,"30":-0.1725698560476303,"31":0.199507474899292,"32":0.1275113821029663,"33":-0.13567183911800385,"34":0.029221372678875923,"35":0.030413607135415077,"36":0.08226833492517471,"37":0.14660482108592987,"38":0.17606887221336365,"39":0.17513173818588257,"40":0.11867067217826843,"41":-0.1338426023721695,"42":-0.01154601015150547,"43":-0.11007802933454514,"44":0.16706986725330353,"45":0.1508968323469162,"46":-0.12336757034063339,"47":0.04472671449184418,"48":0.088699571788311,"49":0.05621851608157158}},"1":{"bias":0.05786500126123428,"weights":{"0":0.02424650639295578,"1":0.11665957421064377,"2":-0.06798838078975677,"3":-0.1704675406217575,"4":-0.12873534858226776,"5":-0.14300331473350525,"6":-0.017128774896264076,"7":0.06671275943517685,"8":-0.00014592269144486636,"9":0.19610562920570374,"10":-0.028766293078660965,"11":0.00028575235046446323,"12":-0.13901866972446442,"13":0.11859577894210815,"14":-0.12040812522172928,"15":0.01755811832845211,"16":-0.14754484593868256,"17":-0.11466911435127258,"18":0.07755060493946075,"19":-0.08713061362504959,"20":-0.12890708446502686,"21":0.18102559447288513,"22":-0.09917459636926651,"23":-0.05679786205291748,"24":0.19273129105567932,"25":-0.024483511224389076,"26":-0.03257115185260773,"27":0.12304136902093887,"28":0.03255557268857956,"29":-0.1580146998167038,"30":0.1407492607831955,"31":-0.17351247370243073,"32":0.007059352472424507,"33":0.15106847882270813,"34":-0.12559986114501953,"35":0.154643714427948,"36":-0.07945960760116577,"37":-0.16492728888988495,"38":-0.08386129885911942,"39":0.13365457952022552,"40":0.09540338069200516,"41":-0.16112184524536133,"42":-0.043381884694099426,"43":0.2080567479133606,"44":0.07445650547742844,"45":-0.14720623195171356,"46":0.15375198423862457,"47":-0.1294228434562683,"48":-0.0025404649786651134,"49":-0.09892305731773376}},"2":{"bias":0.09448964893817902,"weights":{"0":-0.13499389588832855,"1":0.10057458281517029,"2":0.03744395449757576,"3":-0.1339794397354126,"4":-0.15423429012298584,"5":-0.06612864881753922,"6":0.1760619729757309,"7":0.1677790880203247,"8":0.05241751670837402,"9":-0.019445788115262985,"10":0.19104868173599243,"11":-0.08765340596437454,"12":0.17193672060966492,"13":-0.017934512346982956,"14":-0.0748903900384903,"15":0.13014820218086243,"16":-0.1510276347398758,"17":0.03135332092642784,"18":0.06515710800886154,"19":0.08962853252887726,"20":-0.002270987257361412,"21":-0.1559988111257553,"22":-0.13005615770816803,"23":-0.13770096004009247,"24":0.075758196413517,"25":0.08284731954336166,"26":0.08613228052854538,"27":-0.16501228511333466,"28":0.05159541219472885,"29":0.07561267912387848,"30":-0.1375538408756256,"31":-0.14176753163337708,"32":-0.17912490665912628,"33":-0.054629575461149216,"34":-0.02821243181824684,"35":0.07783585041761398,"36":-0.1302119493484497,"37":-0.144330233335495,"38":-0.041288990527391434,"39":-0.14027896523475647,"40":-0.10446637123823166,"41":0.036434318870306015,"42":0.15575283765792847,"43":-0.10947498679161072,"44":-0.06699887663125992,"45":0.10829668492078781,"46":0.14658699929714203,"47":-0.05261889100074768,"48":0.17789460718631744,"49":0.19458970427513123}},"3":{"bias":0.03626774251461029,"weights":{"0":0.0484224371612072,"1":-0.042204029858112335,"2":0.19908542931079865,"3":-0.16461455821990967,"4":-0.11234082281589508,"5":0.011166787706315517,"6":-0.16927553713321686,"7":0.0821949690580368,"8":0.1849534809589386,"9":-0.07203823328018188,"10":0.11270100623369217,"11":-0.10031310468912125,"12":0.17363126575946808,"13":0.12025119364261627,"14":0.1928323656320572,"15":0.20741994678974152,"16":0.14283138513565063,"17":0.11888036876916885,"18":0.1704241782426834,"19":0.1819583773612976,"20":-0.17497161030769348,"21":0.1280200034379959,"22":0.054745130240917206,"23":0.1564958393573761,"24":-0.11759687215089798,"25":0.002178231254220009,"26":0.09766366332769394,"27":0.050150442868471146,"28":-0.11011860519647598,"29":-0.11521673947572708,"30":0.03540049493312836,"31":-0.08322221040725708,"32":-0.1527983546257019,"33":-0.1838548332452774,"34":-0.003282194957137108,"35":-0.045990269631147385,"36":-0.08143769204616547,"37":0.1527596116065979,"38":-0.04113844037055969,"39":0.12292997539043427,"40":-0.07248672097921371,"41":0.17872418463230133,"42":0.026631159707903862,"43":0.0872327908873558,"44":0.17408131062984467,"45":0.14752952754497528,"46":-0.18189223110675812,"47":0.1348055899143219,"48":-0.18394915759563446,"49":0.03766295686364174}},"4":{"bias":0.12933111190795898,"weights":{"0":-0.05884289741516113,"1":0.09219282120466232,"2":-0.16998346149921417,"3":0.19318251311779022,"4":0.14660680294036865,"5":0.1840813010931015,"6":-0.17218680679798126,"7":0.12731483578681946,"8":0.1836371123790741,"9":0.08905214071273804,"10":-0.14246559143066406,"11":0.05208649858832359,"12":-0.04229951649904251,"13":-0.018445968627929688,"14":-0.15390993654727936,"15":-0.016804693266749382,"16":-0.09929129481315613,"17":0.05695907026529312,"18":0.17327980697155,"19":0.05999640375375748,"20":0.018621904775500298,"21":0.10203780233860016,"22":-0.025336457416415215,"23":-0.12003099918365479,"24":-0.16335053741931915,"25":-0.11939302086830139,"26":-0.09212744235992432,"27":0.11371459066867828,"28":-0.12022228538990021,"29":0.09033402055501938,"30":-0.16527540981769562,"31":-0.0980418398976326,"32":-0.075382299721241,"33":-0.06021769717335701,"34":-0.0639379620552063,"35":0.024780912324786186,"36":0.05515236407518387,"37":-0.0518246591091156,"38":0.02681688778102398,"39":0.08183080703020096,"40":0.07138455659151077,"41":-0.12935559451580048,"42":0.16427063941955566,"43":-0.1755325049161911,"44":0.15070854127407074,"45":0.1272808462381363,"46":-0.037679146975278854,"47":-0.06523341685533524,"48":0.12746919691562653,"49":0.047869715839624405}},"5":{"bias":-0.08017544448375702,"weights":{"0":0.1812158226966858,"1":0.13600046932697296,"2":-0.09891733527183533,"3":-0.16145285964012146,"4":-0.09003417193889618,"5":0.09844687581062317,"6":0.03631407767534256,"7":0.13364677131175995,"8":0.048279862850904465,"9":0.014789516106247902,"10":0.04865932837128639,"11":0.21028879284858704,"12":-0.0884147435426712,"13":0.12652671337127686,"14":0.1834704726934433,"15":-0.12458030879497528,"16":-0.11860287189483643,"17":0.18422356247901917,"18":-0.11876805871725082,"19":0.1911979764699936,"20":0.08832168579101562,"21":-0.13661673665046692,"22":-0.03099876269698143,"23":0.09107334166765213,"24":-0.1882096827030182,"25":-0.07682909071445465,"26":0.13488870859146118,"27":-0.1112457737326622,"28":0.16688884794712067,"29":-0.015141262672841549,"30":-0.07238379120826721,"31":-0.09433732181787491,"32":0.11932112276554108,"33":0.17070890963077545,"34":-0.14924243092536926,"35":-0.08900125324726105,"36":0.19204171001911163,"37":0.06391121447086334,"38":-0.03313416242599487,"39":-0.11542129516601562,"40":0.02332119643688202,"41":-0.09070920944213867,"42":-0.003632933832705021,"43":0.15396113693714142,"44":0.13206370174884796,"45":-0.08070265501737595,"46":0.1332169473171234,"47":-0.10995816439390182,"48":0.14458012580871582,"49":0.17189913988113403}},"6":{"bias":-0.20408503711223602,"weights":{"0":0.07782468944787979,"1":0.16880612075328827,"2":-0.03850363567471504,"3":0.05661226063966751,"4":0.08430908620357513,"5":0.14281697571277618,"6":-0.040179114788770676,"7":0.17450076341629028,"8":0.052763354033231735,"9":-0.04639403522014618,"10":0.06580245494842529,"11":0.09534624218940735,"12":0.005456092301756144,"13":-0.13418488204479218,"14":0.07889951765537262,"15":-0.043462540954351425,"16":0.06518611311912537,"17":-0.17940565943717957,"18":0.13138101994991302,"19":0.03574482724070549,"20":0.017716189846396446,"21":-0.1616799533367157,"22":0.14907261729240417,"23":0.09492475539445877,"24":0.043324507772922516,"25":-0.10855504125356674,"26":0.052515458315610886,"27":0.030887950211763382,"28":-0.07964111864566803,"29":-0.07225672900676727,"30":-0.1517401486635208,"31":0.02725759893655777,"32":0.18017041683197021,"33":0.092192642390728,"34":0.19511213898658752,"35":-0.13236963748931885,"36":0.05682600289583206,"37":0.03414406627416611,"38":0.126903235912323,"39":0.17042014002799988,"40":-0.06894049793481827,"41":0.058047547936439514,"42":-0.12042353302240372,"43":-0.18050365149974823,"44":-0.08478602021932602,"45":-0.14527727663516998,"46":-0.13197660446166992,"47":-0.06734465807676315,"48":0.058320410549640656,"49":0.11763793230056763}},"7":{"bias":0.09698674082756042,"weights":{"0":0.0792439877986908,"1":0.06687578558921814,"2":0.07534421235322952,"3":-0.1515205204486847,"4":0.10809818655252457,"5":-0.12404746562242508,"6":-0.0766022801399231,"7":-0.19020944833755493,"8":0.132478266954422,"9":0.09263359010219574,"10":-0.018448177725076675,"11":0.14577242732048035,"12":-0.03294439613819122,"13":-0.12619641423225403,"14":-0.08034833520650864,"15":0.1449369490146637,"16":-0.010912616737186909,"17":0.1675463318824768,"18":0.1726585030555725,"19":0.15390995144844055,"20":0.14654560387134552,"21":0.017085768282413483,"22":-0.19669824838638306,"23":-0.177818164229393,"24":0.190281480550766,"25":0.07328032702207565,"26":-0.14177297055721283,"27":0.04583067074418068,"28":-0.06125640869140625,"29":0.046663787215948105,"30":0.019583316519856453,"31":0.11811777204275131,"32":-0.02062366157770157,"33":0.047261908650398254,"34":-0.1861962378025055,"35":0.17805658280849457,"36":-0.12492696195840836,"37":-0.18400423228740692,"38":-0.15345244109630585,"39":-0.1646115630865097,"40":0.16758836805820465,"41":-0.10495872795581818,"42":0.18532581627368927,"43":-0.1276957243680954,"44":-0.09827081114053726,"45":-0.1654597371816635,"46":-0.0599391832947731,"47":0.14519564807415009,"48":0.04013878107070923,"49":-0.053026795387268066}},"8":{"bias":0.2250584363937378,"weights":{"0":-0.005918847396969795,"1":-0.1364593356847763,"2":-0.10334524512290955,"3":0.20195214450359344,"4":-0.07410464435815811,"5":0.07087744027376175,"6":0.18255379796028137,"7":0.12755915522575378,"8":-0.01001482643187046,"9":0.20021632313728333,"10":0.19657762348651886,"11":0.11445077508687973,"12":-0.12346301227807999,"13":0.0013024822110310197,"14":-0.13076138496398926,"15":-0.08038492500782013,"16":-0.1755473017692566,"17":0.12129776179790497,"18":-0.18585337698459625,"19":0.13753606379032135,"20":-0.12530836462974548,"21":0.09975799173116684,"22":-0.0842052772641182,"23":-0.030306410044431686,"24":0.1413513720035553,"25":0.17475998401641846,"26":0.10849951952695847,"27":-0.025594305247068405,"28":0.09913524985313416,"29":0.12444592267274857,"30":-0.17507904767990112,"31":-0.10522893071174622,"32":0.1997039020061493,"33":-0.07340669631958008,"34":0.16570831835269928,"35":-0.1044197604060173,"36":0.18110212683677673,"37":-0.09984471648931503,"38":0.08693857491016388,"39":0.20164382457733154,"40":-0.14026258885860443,"41":0.12273053824901581,"42":0.15616972744464874,"43":0.12786561250686646,"44":0.07920235395431519,"45":0.07802775502204895,"46":-0.04632042348384857,"47":0.14861339330673218,"48":0.15886862576007843,"49":0.13450460135936737}},"9":{"bias":-0.16709645092487335,"weights":{"0":-0.011685016565024853,"1":-0.09318702667951584,"2":0.20576246082782745,"3":0.13951215147972107,"4":0.05022186413407326,"5":-0.13915839791297913,"6":-0.11220508813858032,"7":0.032988741993904114,"8":0.0315522737801075,"9":0.19149509072303772,"10":-0.019569547846913338,"11":-0.09739082306623459,"12":0.010238959453999996,"13":0.18418745696544647,"14":-0.003063184441998601,"15":0.03977963700890541,"16":0.008186856284737587,"17":0.14363263547420502,"18":0.03635881468653679,"19":0.09353341162204742,"20":-0.13114400207996368,"21":-0.09848126024007797,"22":-0.06323899328708649,"23":0.00047756085405126214,"24":-0.04435160383582115,"25":0.08494634926319122,"26":-0.014498692005872726,"27":0.1855475753545761,"28":-0.17275555431842804,"29":0.12045762687921524,"30":0.16723929345607758,"31":0.08766420185565948,"32":-0.03995715454220772,"33":-0.06380093842744827,"34":-0.1462819129228592,"35":-0.12827818095684052,"36":0.2101186066865921,"37":-0.17676858603954315,"38":-0.05976923555135727,"39":0.20123347640037537,"40":-0.008415387012064457,"41":-0.04963093623518944,"42":0.1419546753168106,"43":0.16007430851459503,"44":-0.15622933208942413,"45":0.06324399262666702,"46":0.20839063823223114,"47":0.057318370789289474,"48":0.1613871157169342,"49":0.20114535093307495}},"10":{"bias":0.13059763610363007,"weights":{"0":0.16796334087848663,"1":-0.14093929529190063,"2":-0.08248233050107956,"3":-0.02724868804216385,"4":0.04251650348305702,"5":-0.03962881863117218,"6":0.06743088364601135,"7":-0.008665920235216618,"8":0.0739288330078125,"9":-0.1455504447221756,"10":0.1539292186498642,"11":-0.002920796163380146,"12":-0.016810497269034386,"13":0.12782315909862518,"14":-0.12098632007837296,"15":0.01696835272014141,"16":0.04786365479230881,"17":-0.11658652871847153,"18":-0.10807380825281143,"19":0.061648134142160416,"20":-0.13170626759529114,"21":0.12475951761007309,"22":-0.10826117545366287,"23":-0.01621183566749096,"24":0.02713789790868759,"25":-0.0785641148686409,"26":0.13289369642734528,"27":0.12016866356134415,"28":0.1734572947025299,"29":0.01285513024777174,"30":-0.047057099640369415,"31":-0.09185603260993958,"32":-0.09495163708925247,"33":0.20018859207630157,"34":0.0826694667339325,"35":0.08719196915626526,"36":-0.017840316519141197,"37":-0.0916145071387291,"38":0.18284058570861816,"39":0.1904790997505188,"40":0.15367281436920166,"41":0.08365448564291,"42":-0.14518451690673828,"43":0.03677794337272644,"44":0.20496147871017456,"45":-0.14014437794685364,"46":0.10324109345674515,"47":0.09794868528842926,"48":0.1551593691110611,"49":-0.11811971664428711}},"11":{"bias":-0.14232853055000305,"weights":{"0":0.16377508640289307,"1":-0.10398876667022705,"2":0.0665988102555275,"3":0.1470550000667572,"4":0.1109003946185112,"5":-0.07416492700576782,"6":0.1131017878651619,"7":-0.12555654346942902,"8":-0.08851352334022522,"9":-0.15017350018024445,"10":0.0024344581179320812,"11":0.08451967686414719,"12":0.05578843131661415,"13":0.11487741023302078,"14":0.08534891158342361,"15":0.10245437920093536,"16":-0.10235071927309036,"17":-0.16318635642528534,"18":0.08545573055744171,"19":0.0021560920868068933,"20":-0.05526363104581833,"21":0.08287226408720016,"22":0.051145490258932114,"23":0.09451811015605927,"24":-0.18376635015010834,"25":-0.18037664890289307,"26":0.018847372382879257,"27":0.16105352342128754,"28":-0.0990169495344162,"29":0.17526251077651978,"30":-0.162514790892601,"31":-0.16018439829349518,"32":-0.010804406367242336,"33":-0.03766196221113205,"34":0.16045819222927094,"35":-0.05046502873301506,"36":-0.14849962294101715,"37":0.16062110662460327,"38":-0.10042861849069595,"39":0.19465288519859314,"40":-0.022195948287844658,"41":-0.16846640408039093,"42":0.19776161015033722,"43":-0.15546801686286926,"44":-0.024806227535009384,"45":0.19296082854270935,"46":-0.010465378873050213,"47":0.1478891372680664,"48":0.015193799510598183,"49":0.1303345263004303}},"12":{"bias":-0.005413043312728405,"weights":{"0":-0.03425421565771103,"1":-0.1687140166759491,"2":0.1069568544626236,"3":-0.10611617565155029,"4":0.14212362468242645,"5":0.13672605156898499,"6":-0.07421601563692093,"7":0.022070296108722687,"8":-0.08772541582584381,"9":-0.09922592341899872,"10":-0.10323342680931091,"11":0.14323507249355316,"12":0.09380567073822021,"13":-0.0794597864151001,"14":-0.12026525288820267,"15":0.037106771022081375,"16":0.007387540768831968,"17":0.18124301731586456,"18":0.06750882416963577,"19":-0.10505347698926926,"20":0.001656261971220374,"21":0.12768788635730743,"22":0.040055692195892334,"23":-0.12231576442718506,"24":0.17901958525180817,"25":-0.10441141575574875,"26":0.014422777108848095,"27":-0.19246675074100494,"28":0.06991913169622421,"29":0.05380241572856903,"30":0.17943565547466278,"31":0.07135231047868729,"32":-0.13783575594425201,"33":-0.16555900871753693,"34":-0.17173433303833008,"35":0.007289443165063858,"36":0.16946347057819366,"37":-0.15906082093715668,"38":-0.16555781662464142,"39":-0.135745570063591,"40":-0.08778084069490433,"41":0.13284967839717865,"42":0.00043777175596915185,"43":0.18553407490253448,"44":0.14164911210536957,"45":-0.13042058050632477,"46":-0.08951222151517868,"47":-0.007229239214211702,"48":-0.17673955857753754,"49":-0.1069609746336937}},"13":{"bias":0.17630773782730103,"weights":{"0":0.03573295846581459,"1":-0.030016260221600533,"2":0.0843786746263504,"3":0.0076743527315557,"4":0.02321433275938034,"5":0.0016470085829496384,"6":-0.04101893678307533,"7":-0.09498812258243561,"8":0.19005964696407318,"9":0.09145203232765198,"10":-0.1461329460144043,"11":0.1297481507062912,"12":-0.02230791747570038,"13":0.054695263504981995,"14":0.18838317692279816,"15":-0.07707520574331284,"16":-0.06293412297964096,"17":0.06698861718177795,"18":0.11061587929725647,"19":-0.13986839354038239,"20":0.1270422488451004,"21":0.12532870471477509,"22":-0.13541150093078613,"23":0.02776251919567585,"24":-0.17265842854976654,"25":0.11420462280511856,"26":-0.09572581946849823,"27":-0.1935030072927475,"28":-0.14388985931873322,"29":0.1349242776632309,"30":0.07414022833108902,"31":0.1988944113254547,"32":0.1411958932876587,"33":0.15521161258220673,"34":0.10365433990955353,"35":-0.07358841598033905,"36":-0.18452078104019165,"37":-0.17807452380657196,"38":-0.06057373434305191,"39":0.12515249848365784,"40":-0.1365744173526764,"41":0.1016116589307785,"42":-0.032566532492637634,"43":-0.13610802590847015,"44":-0.15716691315174103,"45":0.13390058279037476,"46":0.1950884610414505,"47":0.09051097929477692,"48":0.058675967156887054,"49":-0.1645679920911789}},"14":{"bias":-0.06199229881167412,"weights":{"0":-0.12604087591171265,"1":0.06137048080563545,"2":0.1838981807231903,"3":-0.18278926610946655,"4":-0.03280424326658249,"5":-0.12292097508907318,"6":-0.14603950083255768,"7":0.1277686208486557,"8":0.1835332214832306,"9":0.13806965947151184,"10":0.09140248596668243,"11":0.19975678622722626,"12":0.04436766356229782,"13":0.041791148483753204,"14":0.046332042664289474,"15":0.062023889273405075,"16":0.05617110803723335,"17":-0.02573508210480213,"18":-0.051515161991119385,"19":0.17186526954174042,"20":0.08807028830051422,"21":0.03038453683257103,"22":0.14035877585411072,"23":-0.06554260104894638,"24":-0.05886398255825043,"25":0.09331583231687546,"26":-0.011541510000824928,"27":0.14698059856891632,"28":-0.11786214262247086,"29":-0.1786188930273056,"30":-0.03494236245751381,"31":0.11329750716686249,"32":0.04297531023621559,"33":-0.16959945857524872,"34":-0.07055645436048508,"35":-0.15647262334823608,"36":-0.11720763146877289,"37":-0.1566278636455536,"38":0.02541782148182392,"39":-0.09448415786027908,"40":0.02375221624970436,"41":-0.11639169603586197,"42":-0.1502046138048172,"43":-0.05976298823952675,"44":-0.12173719704151154,"45":0.15111009776592255,"46":-0.09448811411857605,"47":-0.026068715378642082,"48":-0.08968417346477509,"49":0.19441020488739014}},"15":{"bias":0.13577024638652802,"weights":{"0":0.19877876341342926,"1":-0.10429739952087402,"2":-0.09087715297937393,"3":-0.1493709236383438,"4":0.014492643065750599,"5":0.1361715942621231,"6":-0.1615409106016159,"7":-0.14982981979846954,"8":0.0719822496175766,"9":0.07456943392753601,"10":0.11402913928031921,"11":0.14688530564308167,"12":0.07306564599275589,"13":0.12777642905712128,"14":-0.09667652100324631,"15":0.04148094356060028,"16":0.21660053730010986,"17":0.17153103649616241,"18":0.1698169708251953,"19":0.13343089818954468,"20":-0.00040821186848916113,"21":0.19132402539253235,"22":-0.0009207537514157593,"23":-0.13562458753585815,"24":0.042926911264657974,"25":0.16004107892513275,"26":0.2226690798997879,"27":-0.18507131934165955,"28":-0.12346818298101425,"29":0.12604480981826782,"30":-0.04488370567560196,"31":0.21364836394786835,"32":-0.020862286910414696,"33":0.018153885379433632,"34":0.16693457961082458,"35":-0.11548647284507751,"36":0.11704518646001816,"37":0.002732197754085064,"38":-0.06308143585920334,"39":0.09303126484155655,"40":-0.026257764548063278,"41":0.1483098566532135,"42":-0.039999820291996,"43":0.13348056375980377,"44":-0.16843484342098236,"45":0.1531490981578827,"46":0.05033339932560921,"47":0.17457443475723267,"48":-0.09009294956922531,"49":-0.12729589641094208}},"16":{"bias":-0.08190468698740005,"weights":{"0":-0.07902872562408447,"1":0.1652108132839203,"2":0.01951693929731846,"3":-0.032194752246141434,"4":0.1067231297492981,"5":-0.11464948207139969,"6":-0.03055448643863201,"7":-0.12134633958339691,"8":0.0461033470928669,"9":-0.07357954978942871,"10":0.00031293914071284235,"11":-0.08041106164455414,"12":0.09048715978860855,"13":-0.01450719777494669,"14":-0.1892109364271164,"15":-0.0315796360373497,"16":-0.05147569626569748,"17":0.1393718421459198,"18":-0.11236840486526489,"19":0.09953692555427551,"20":-0.04975232109427452,"21":0.1099214181303978,"22":-0.1380043476819992,"23":0.004223274067044258,"24":-0.1418222188949585,"25":-0.0015539192827418447,"26":0.05021878704428673,"27":-0.1917484998703003,"28":0.17024852335453033,"29":-0.1352435201406479,"30":-0.07866473495960236,"31":-0.05272906273603439,"32":-0.17562969028949738,"33":0.003403556067496538,"34":0.1309220939874649,"35":0.05468151718378067,"36":0.10949543863534927,"37":-0.003786133136600256,"38":-0.18450641632080078,"39":0.037693750113248825,"40":-0.034955792129039764,"41":-0.19491536915302277,"42":0.00047638508840464056,"43":-0.11247716844081879,"44":-0.01744963973760605,"45":-0.09330383688211441,"46":0.15090321004390717,"47":0.04374510422348976,"48":-0.0013819504529237747,"49":-0.16828563809394836}},"17":{"bias":-0.06223088130354881,"weights":{"0":-0.09199946373701096,"1":-0.16831505298614502,"2":-0.018288156017661095,"3":0.17922571301460266,"4":-0.18707525730133057,"5":0.18397903442382812,"6":0.07791344821453094,"7":0.19674868881702423,"8":-0.00042202151962555945,"9":0.09077492356300354,"10":0.20058682560920715,"11":0.05342401564121246,"12":0.17199921607971191,"13":-0.19073520600795746,"14":0.11397995054721832,"15":0.09980607032775879,"16":0.00032743127667345107,"17":-0.17295131087303162,"18":-0.08383210748434067,"19":0.17591199278831482,"20":0.13143177330493927,"21":-0.04545750468969345,"22":0.09338759630918503,"23":0.13678912818431854,"24":-0.07191922515630722,"25":0.06827423721551895,"26":-0.11337625980377197,"27":0.06277585029602051,"28":-0.01469491794705391,"29":-0.0347149595618248,"30":0.12555144727230072,"31":0.028633421286940575,"32":0.09440294653177261,"33":-0.15497244894504547,"34":0.13592152297496796,"35":0.15609034895896912,"36":-0.08122523128986359,"37":-0.018114078789949417,"38":-0.14158721268177032,"39":0.007555585354566574,"40":0.12842348217964172,"41":0.09359365701675415,"42":-0.007971655577421188,"43":-0.014425130560994148,"44":0.08984153717756271,"45":-0.11689432710409164,"46":-0.11309554427862167,"47":0.18657337129116058,"48":-0.12563829123973846,"49":-0.06266527622938156}},"18":{"bias":0.0610298290848732,"weights":{"0":-0.1304897665977478,"1":0.13065706193447113,"2":-0.14184731245040894,"3":-0.07980460673570633,"4":-0.003473651362583041,"5":0.11508876830339432,"6":-0.05366184934973717,"7":0.013951195403933525,"8":0.12235484272241592,"9":0.16703277826309204,"10":0.11113656312227249,"11":0.04401855543255806,"12":0.1485736221075058,"13":-0.011191727593541145,"14":-0.07753823697566986,"15":0.08377080410718918,"16":-0.14255109429359436,"17":0.09983528405427933,"18":0.10370904952287674,"19":-0.06831194460391998,"20":-0.09753204137086868,"21":0.18608678877353668,"22":0.10441835224628448,"23":-0.06427493691444397,"24":-0.13235917687416077,"25":-0.0944988951086998,"26":0.0853639543056488,"27":0.04100668430328369,"28":0.1148366779088974,"29":0.1886620819568634,"30":-0.1322348266839981,"31":0.20039604604244232,"32":-0.011603898368775845,"33":0.09903712570667267,"34":-0.18199169635772705,"35":0.028051285073161125,"36":-0.19334536790847778,"37":0.10944881290197372,"38":0.18793939054012299,"39":-0.18273316323757172,"40":0.03421301022171974,"41":0.05611836537718773,"42":-0.07196535170078278,"43":-0.09683607518672943,"44":0.0366477333009243,"45":-0.07792232930660248,"46":-0.12929169833660126,"47":-0.027683978900313377,"48":-0.04640345647931099,"49":-0.03029162622988224}},"19":{"bias":-0.04849961772561073,"weights":{"0":-0.13383357226848602,"1":-0.0015465393662452698,"2":-0.19937166571617126,"3":-0.013662715442478657,"4":-0.11959155648946762,"5":-0.07856833189725876,"6":-0.056511592119932175,"7":-0.08074682950973511,"8":0.1707884669303894,